svm_type c_svc
kernel_type rbf
gamma 0.00195313
nr_class 7
total_sv 397
rho 0.476948 -1.67292 -0.00600306 0.240327 -0.153628 0.210342 -0.472408 -0.0730056 -0.143908 1.34664 0.0471964 0.282822 0.34337 -0.135572 0.855217 0.103934 -0.0341512 -0.994348 -0.562754 -1.21993 0.265385
label 5 7 1 6 4 2 3
probA -3.81315 -2.83295 -3.71586 -3.26772 -4.03393 -3.95268 -3.85359 -3.61391 -4.81573 -4.3441 -4.32741 -3.96363 -4.47894 -4.06667 -4.18532 -3.91827 -2.48402 -4.05638 -4.06754 -3.98678 -4.36117
probB 0.00298101 0.134207 0.0391256 0.066583 -0.0924349 0.0941475 0.0641219 0.502204 -0.223128 0.0813138 0.0318535 -0.0831247 0.582775 -0.0090941 0.0314304 0.167159 -0.148869 -0.198702 0.0882622 0.0448757 0.238729
nr_sv 56 57 90 36 58 58 42
SV
11.09664500848599 5.397098162637699 4.016559078896342 17.17006285812201 1.712399959913598 10.0939008165763 1:-0.880785 2:-0.799791 3:-0.879518 4:-0.892 5:-0.996503 6:-0.761808 7:0.083917 8:-0.503634 9:-0.9018 10:-0.767896 11:-0.57626 12:-0.863661 13:0.277193 14:-0.186923 15:0.284414 16:-0.613596 17:-0.481905 18:0.0108118 19:-0.479529 20:0.181357 21:-0.128082 22:0.104398 23:-0.123338 24:-0.422507 25:0.1072 26:0.134479 27:-0.107608 28:-0.785211 29:-0.870855 30:0.209309 31:-0.432543 32:0.372807 33:-0.357348 34:-0.030833 35:0.0596571 36:-0.442396 37:-0.133554 38:0.00423371 39:-0.205076 40:-0.674518 41:-0.727412 42:-0.128822 43:-0.177584 44:0.0301671 45:-0.307677 46:-0.207636 47:-0.178847 48:-0.213009 49:-0.203913 50:0.596221 51:-0.740781 52:-0.710297 53:-0.451613 54:0.245773 55:-0.24384 56:0.105792 57:-0.708752 58:-0.495418 59:0.235008 60:-0.752066 61:-0.50869 62:-0.12388 63:-0.290094 64:-0.546708 65:-0.492126 66:0.054808 67:-0.161946 68:0.0937713 69:-0.212279 70:0.0176909 71:-0.518006 72:-0.449669 73:-0.479017 74:-0.16374 75:-0.145832 76:-0.852596 77:-0.876984 78:-0.234107 79:0.0615881 80:-0.189113 81:-0.187411 82:-0.0786383 83:-0.330846 84:-0.478275 85:-0.0617277 86:0.371576 87:-0.306202 88:-0.91002 89:-0.796733 90:0.489095 91:-0.485607 92:0.605939 93:-0.681 94:-0.512936 95:-0.278811 96:-0.434122 97:-0.141907 98:0.0333043 99:0.0376699 100:-0.376083 101:-0.728 102:0.184072 103:0.334919 104:-0.111404 105:0.470099 106:0.455692 107:0.0394798 108:-0.74364 109:-0.13898 110:-0.610805 111:0.5056 112:-0.513866 113:-0.824869 114:0.0684929 115:0.197834 116:-0.0305356 117:0.425643 118:0.460068 119:-0.765107 120:0.13795 121:-0.8775 122:-0.0777723 123:-0.549303 124:-0.657492 125:-0.876209 126:-0.436758 127:0.0291324 128:-0.292311 129:-0.582335 130:-0.440499 131:-0.322913 132:-0.457775 133:-0.549597 134:0.338346 135:-0.726238 136:-0.412724 137:-0.577143 138:0.302067 139:0.192837 140:0.163515 141:-0.560682 142:-0.358888 143:-0.0976913 144:-0.638779 145:-0.369059 146:0.190909 147:-0.124519 148:-0.533679 149:-0.756364 150:-0.327518 151:0.259538 152:-0.303007 153:-0.354107 154:-0.154802 155:-0.198737 156:-0.697612 157:-0.0540542 158:-0.956522 159:-0.0482574 160:-0.462451 161:-0.99661 162:-0.290982 163:0.174441 164:-0.406645 165:-0.515032 166:-0.26953 167:-0.181287 168:-0.582767 169:0.375734 170:0.372274 171:0.18259 172:-0.80212 173:-0.702206 174:-0.389311 175:-0.242776 176:-0.102932 177:-0.532568 178:-0.258012 179:-0.252374 180:-0.772511 181:0.0819673 183:0.0819673 184:-0.503817 185:-1 186:-0.782328 187:0.0116342 188:-0.524434 189:-0.819626 190:-0.403961 191:-0.635228 192:-0.925612 193:-0.816724 194:0.739145 195:-0.774005 196:-0.888224 197:-0.888 198:0.475922 199:0.683859 200:-0.666975 201:-0.893989 202:-0.696441 203:-0.201503 204:-0.819343 205:-0.665859 206:0.424468 207:-0.590968 208:-0.381356 209:-0.658444 210:0.113728 211:0.0110265 212:-0.150365 213:-0.650624 214:-0.475732 215:0.0752035 216:-0.79996 217:-0.00928653 218:-0.389147 219:0.274818 220:-0.930796 221:-0.887719 222:-0.422742 223:-0.237383 224:0.101229 225:-0.227933 226:0.0189461 227:-0.22367 228:0.085502 229:-0.546842 230:0.125931 231:-0.290969 232:-0.512367 233:-0.746522 234:-0.172215 235:0.22696 236:-0.161984 237:-0.180812 238:0.0142649 239:-0.210904 240:-0.798968 241:-0.836421 242:0.203286 243:-0.503007 244:-0.894904 245:-0.712821 246:0.201059 247:-0.201836 248:0.0588032 249:-0.492796 250:-0.247428 251:-0.140737 252:-0.607793 253:-0.580022 254:0.422971 255:-0.532712 256:-0.923077 257:-0.543186 258:-0.168033 259:-0.0808157 260:-0.0447694 261:-0.284825 262:-0.0342387 263:-0.368548 264:-0.932634 265:-0.340484 266:0.064412 267:-0.00489194 268:-0.910744 269:-0.672 270:-0.22277 271:-0.052733 272:-0.0677527 273:-0.0471212 274:0.160908 275:0.190115 276:-0.572397 277:-0.495838 278:0.59452 279:-0.525738 280:-0.616872 281:-0.688272 282:-0.201652 283:-0.630032 284:0.424613 285:-0.504445 286:-0.304621 287:0.114818 288:-0.86613 289:0.320095 290:-0.196596 291:0.481599 292:-0.78903 293:-0.800399 294:0.485147 295:-0.0290943 296:-0.206 297:0.383515 298:0.529491 299:0.197637 300:0.0135279 301:0.381995 302:0.293941 303:0.117997 304:-0.595463 305:-0.815789 306:0.0329198 307:-0.0111111 308:0.059083 309:-0.0945341 310:0.13708 311:0.242943 312:-0.0577 313:-0.31185 314:0.356733 315:-0.26529 316:-0.603715 317:-0.893471 318:-0.27588 319:0.114527 320:-0.337875 321:-0.236852 322:-0.0128022 323:0.126985 324:-0.451637 325:-0.621105 326:0.115766 327:-0.234842 328:-0.723794 329:-0.61512 330:-0.275917 331:-0.413531 332:0.246827 333:-0.241675 334:-0.0264283 335:-0.514447 336:-0.541996 337:-0.0875954 338:0.442628 339:-0.0847952 340:-0.561873 341:-0.360341 342:-0.333696 343:-0.185497 344:-0.117494 345:0.0579339 346:0.26847 347:0.61567 348:-0.404453 349:-0.0205542 350:0.40839 351:-0.311311 352:-0.396752 353:-0.627451 354:-0.128034 355:-0.569173 356:0.707247 357:-0.556805 358:-0.322693 359:0.168514 360:-0.36174 361:-0.240285 362:0.343789 363:-0.188647 364:-0.799228 365:-0.510516 366:-0.224459 367:0.139992 368:0.115843 369:-0.486423 370:-0.193327 371:-0.109842 372:-0.91421 373:0.0819675 374:-0.0819675 375:0.0869624 376:-0.520599 377:-0.498099 378:-0.433794 379:0.215724 380:-0.342334 381:-0.726008 382:-0.260494 383:0.258641 384:-0.882695 
2.119566895422466 10.49980672024431 0 7.254847170964416 6.855813220844058 3.880082067127076 1:-0.798601 2:-0.78987 3:-0.797217 4:-0.62 5:-0.517483 6:-0.486921 7:-0.30342 8:0.0635868 9:-0.836386 10:-0.557659 11:-0.789592 12:-0.950192 13:-0.126361 14:0.131793 15:-0.275528 16:-0.37746 17:-0.939048 18:-0.258747 19:0.215745 20:-0.371063 21:-0.689361 22:-0.508497 23:0.323261 24:-0.392677 25:-0.471593 26:0.452364 27:-0.764757 28:-0.443662 29:-0.958115 30:0.135061 31:0.273325 32:-0.103786 33:-0.702516 34:-0.48548 35:0.0779186 36:-0.659836 37:-0.650652 38:-0.439097 39:-0.293329 40:-0.32334 41:-0.669219 42:-0.424908 43:0.233291 44:-0.550429 45:0.0485767 46:0.197392 47:-0.363738 48:-0.668867 49:-0.253539 50:-0.0279805 51:-0.195236 52:-0.364747 53:-0.508065 54:0.189401 55:-0.0589515 56:-0.0721836 57:-0.396711 58:-0.0959978 59:-0.23616 60:-0.395873 61:0.081257 62:-0.275803 63:0.273783 64:-0.623277 65:-0.385827 66:-0.10163 67:0.472961 68:-0.486542 69:0.078329 70:0.371673 71:0.237793 72:-0.440506 73:-0.177768 74:-0.216742 75:0.158339 76:-0.621441 77:-0.876984 78:-0.203843 79:0.424094 80:-0.451209 81:0.243303 82:0.358327 83:-0.0691446 84:-0.678669 85:-0.317723 86:-0.387226 87:0.167688 88:-0.750511 89:-0.604356 90:-0.15887 91:-0.337184 92:0.0905138 93:-0.366349 94:-0.186968 95:-0.243552 96:-0.198154 97:-0.336084 98:0.0873901 99:-0.167025 100:-1 101:-0.808 102:-0.249309 103:-0.365047 104:0.175792 105:0.104834 106:0.187601 107:0.474477 108:-0.853597 109:-0.17903 110:-0.293613 111:0.17905 112:-0.631321 113:-0.747811 114:-0.485688 115:0.0126062 116:-0.352977 117:0.494615 118:0.504681 119:-0.158382 120:-0.761818 121:-0.647004 122:0.0912728 123:-0.494731 124:-0.629969 125:-0.841393 126:-0.428313 127:0.446026 128:-0.62722 129:-0.458589 130:-0.0647872 131:0.155411 132:-0.821099 133:-0.403612 134:-0.225802 135:-0.257115 136:-0.676998 137:-0.973333 138:0.186321 139:0.809139 140:-0.443232 141:-0.245627 142:0.230801 143:-0.20108 144:-0.512654 145:-0.68196 146:-0.42195 147:0.0134481 148:-0.927461 149:-0.64 150:-0.627464 151:0.246672 152:-0.563288 153:-0.183776 154:0.0093726 155:-0.229562 156:-0.6201 157:0.256756 158:-0.652174 159:0.241287 160:-0.920949 161:-0.532203 162:-0.212001 163:-0.499186 164:0.284449 165:-0.530481 166:-0.30355 167:0.0424216 168:-0.283988 169:0.703703 170:-0.0344962 171:0.561187 172:-0.717314 173:-0.459559 174:0.0571477 175:-0.369377 176:0.290716 177:0.408323 178:0.598508 179:-0.464042 180:-0.944943 181:0.356479 183:0.356479 184:-0.664122 185:-1 186:-0.247819 187:-0.253499 188:-0.0116111 189:-0.220833 190:0.254931 191:-0.833024 192:-0.976261 193:-0.665543 194:0.783318 195:-0.696796 196:-0.612774 197:-0.612 198:0.448632 199:0.57676 200:-0.504527 201:-0.77564 202:-0.480583 203:0.103631 204:-0.914148 205:-0.749923 206:0.54504 207:-0.706943 208:-0.915254 209:-0.946869 210:0.0165111 211:0.163296 212:-0.361916 213:-0.781407 214:-0.651679 215:-0.00352801 216:-0.69651 217:-0.380625 218:0.756294 219:-0.59394 220:-0.958478 221:-0.968421 222:0.218649 223:-0.687735 224:0.702411 225:-0.640949 226:-0.441333 227:0.535059 228:-0.612812 229:-0.0963231 230:-0.303388 231:0.240192 232:-0.918728 233:-0.833076 234:-0.551066 235:0.155775 236:-0.180799 237:0.0429361 238:0.227466 239:-0.133145 240:-0.154489 241:-0.36755 242:0.63709 243:-0.51808 244:-0.605096 245:-0.894017 246:-0.278045 247:-0.444025 248:0.222409 249:-0.372941 250:-0.118334 251:0.365377 252:-0.790443 253:0.582033 254:0.310468 255:0.0840414 256:-0.684982 257:-0.692898 258:0.0835169 259:-0.321461 260:0.286393 261:-0.251123 262:-0.00299946 263:0.389122 264:-0.0818495 265:-0.169233 266:0.394036 267:-0.122515 268:-0.871074 269:-0.888 270:0.134302 271:-0.557398 272:0.641875 273:-0.00857989 274:0.189113 275:0.388502 276:-0.385829 277:0.385943 278:0.416334 279:0.101315 280:-0.602812 281:-0.549383 282:-0.587445 283:-0.714456 284:0.428617 285:-0.00141031 286:0.206712 287:0.449708 288:-0.462772 289:-0.345278 290:0.36572 291:-0.295047 292:-0.797468 293:-0.409182 294:-0.381483 295:0.0201787 296:-0.528319 297:-0.162797 298:0.0397682 299:0.301573 300:-0.805643 301:-0.200198 302:0.383333 303:-0.239054 304:-0.807183 305:-0.74812 306:-0.0974405 307:-0.0314341 308:0.0319771 309:-0.295323 310:-0.0601045 311:0.215451 312:-0.552795 313:-0.662871 314:0.483476 315:-0.565727 316:-0.842105 317:-0.917526 318:0.415534 319:-0.104431 320:0.124809 321:-0.360634 322:-0.144512 323:-0.181396 324:-0.521954 325:-0.26941 326:0.211273 327:-0.102232 328:-0.973378 329:-0.57732 330:-0.39163 331:0.155554 332:-0.451893 333:-0.0979989 334:0.124116 335:-0.452489 336:-0.54562 337:-0.658909 338:-0.370209 339:0.158174 340:-0.735786 341:-0.573561 342:-0.240972 343:0.138328 344:-0.536625 345:-0.205862 346:0.0293599 347:-1 348:0.689775 349:0.100982 350:0.291952 351:-0.175175 352:-0.935035 353:-0.909804 354:-0.179055 355:-0.355888 356:0.454029 357:-0.287482 358:-0.0290661 359:-0.0881884 360:-0.411721 361:0.568234 362:-0.0720526 363:0.509012 364:-0.610039 365:-0.674952 366:-0.641657 367:0.167054 368:0.00472083 369:-0.0054067 370:0.274398 371:-0.292242 372:-0.634675 373:0.331833 374:-0.359356 375:0.351806 376:-0.962547 377:-0.657795 378:-0.433794 379:0.013127 380:-0.0198714 381:-0.0961237 382:0.344003 383:0.253793 384:-0.927003 
0 0 0 3.510292002189988 0 3.781815270238915 1:-0.631476 2:-0.887352 3:-0.62946 4:-0.86 5:-1 6:-0.588801 7:-0.205673 8:-0.149372 9:-0.75157 10:-0.4625 11:-0.529125 12:-0.835813 13:0.220272 14:0.0291046 15:0.0661585 16:-0.810376 17:-0.558095 18:0.0307783 19:-0.188287 20:0.0356724 21:-0.145784 22:0.0580944 23:0.0497822 24:-0.492571 25:-0.537145 26:-0.0120484 27:-0.39961 28:-0.482394 29:-0.849913 30:-0.125222 31:0.606401 32:-0.428819 33:-0.323681 34:0.0230756 35:-0.0631126 36:-0.830655 37:-0.118209 38:-0.672536 39:0.327126 40:-0.59743 41:-0.843798 42:-0.375358 43:0.501428 44:-0.638819 45:0.235114 46:0.432366 47:-0.0699335 48:-0.419817 49:-0.302898 50:0.0849938 51:-0.325632 52:-0.591623 53:-0.830645 54:0.103487 55:0.295817 56:-0.330867 57:-0.555052 58:-0.172531 59:-0.00958831 60:-0.616937 61:0.0791053 62:-0.440459 63:0.406575 64:-0.883614 65:-0.681102 66:0.0908699 67:-0.0100651 68:0.036718 69:0.394062 70:0.553806 71:-0.129062 72:-0.532057 73:-0.507538 74:-0.388287 75:0.0430503 76:-0.963149 77:-0.920635 78:-0.092783 79:0.163514 80:-0.140231 81:0.103426 82:0.168447 83:-0.420727 84:-0.367191 85:0.0920839 86:0.559368 87:-0.359835 88:-0.852761 89:-0.731397 90:0.463425 91:-0.232293 92:0.422397 93:-0.477253 94:-0.310357 95:-0.0416993 96:-0.66494 97:0.180116 98:0.391782 99:-0.0718657 100:-0.507799 101:-0.592 102:0.24613 103:-0.0219781 104:0.257989 105:-0.441952 106:-0.411109 107:0.57126 108:-0.361985 109:-0.433008 110:-0.361576 111:0.0489218 112:-0.585644 113:-0.803853 114:-0.120501 115:0.160312 116:-0.151372 117:-0.423628 118:-0.274912 119:-0.75134 120:0.675355 121:-0.755597 122:0.208715 123:-0.699075 124:-0.498471 125:-0.647969 126:-0.255819 127:-0.266781 128:0.0545013 129:-0.519626 130:-0.394977 131:-0.0152235 132:-0.702508 133:-0.543926 134:0.121305 135:-0.579 136:-0.484502 137:-0.897143 138:0.0207615 139:0.598421 140:-0.339495 141:-0.57388 142:-0.261257 143:0.232325 144:-0.584147 145:-0.478548 146:-0.177829 147:0.0285719 148:-0.440415 149:-0.96 150:-0.45357 151:1 152:-0.908919 153:-0.102225 154:0.252939 155:-0.312301 156:-0.65924 157:0.262162 158:2.6087e-07 159:0.206434 160:-0.517787 161:-0.620339 162:-0.0862442 163:-0.0332746 164:-0.0958646 165:-0.123376 166:0.014132 167:-0.152528 168:-0.594375 169:0.509144 170:-0.127486 171:0.434404 172:-0.787986 173:-0.746324 174:-0.261526 175:-0.505437 176:0.124468 177:0.00410028 178:0.297508 179:-0.125184 180:-0.790951 181:0.307225 183:0.307225 184:-0.919847 185:-1 186:-0.582663 187:-0.444276 188:-0.152143 189:-0.574089 190:-0.0409842 191:-0.714727 192:-0.952539 193:-0.621504 194:0.74002 195:-0.646522 196:-0.856287 197:-0.836 198:0.472468 199:0.460911 200:-0.467233 201:-0.753727 202:-0.446504 203:0.103137 204:-0.840896 205:-0.0894633 206:-0.0183889 207:0.00260127 208:-0.5 209:-0.685009 210:0.135851 211:-0.103345 212:-0.0396802 213:-0.0616587 214:0.159154 215:0.0550851 216:-0.70459 217:-0.297392 218:0.0830706 219:-0.164637 220:-0.937716 221:-0.985965 222:-0.0254792 223:0.446815 224:-0.384355 225:-0.259756 226:-0.00649389 227:-0.334195 228:-0.66453 229:-0.074586 230:-0.232537 231:0.21064 232:-0.816254 233:-0.715611 234:-0.0979674 235:0.544613 236:-0.450105 237:0.394509 238:0.537418 239:0.0608218 240:-0.525485 241:-0.686174 242:0.908803 243:-0.828679 244:-0.958599 245:-0.982906 246:0.148941 247:0.0989756 248:-0.208716 249:-0.623687 250:-0.399182 251:0.208929 252:-0.879595 253:0.343759 254:0.199726 255:0.0467473 256:-0.875458 257:-0.612284 258:0.150979 259:0.394746 260:-0.378451 261:0.0606124 262:0.295938 263:0.102216 264:-0.717712 265:-0.0786693 266:-0.779214 267:0.774307 268:-0.943802 269:-0.888 270:-0.00173917 271:0.43689 272:-0.452697 273:1 274:1 275:-0.225495 276:-0.326382 277:-0.484347 278:0.463668 279:-0.436095 280:-0.609842 281:-0.777778 282:0.163449 283:-0.267576 284:0.15403 285:-0.525928 286:-0.323331 287:-0.035505 288:-0.479091 289:-0.354765 290:0.263949 291:-0.232014 292:-0.970464 293:-0.928144 294:0.436314 295:-0.0820202 296:-0.0848893 297:-0.0441998 298:0.147926 299:0.0463149 300:-0.694436 301:-0.605682 302:0.510604 303:-0.526154 304:-0.731569 305:-0.447368 306:0.105941 307:0.242177 308:-0.153406 309:-0.333963 310:-0.0967827 311:-0.147265 312:-0.8391 313:-0.328304 314:0.531895 315:-0.373587 316:-0.718266 317:-0.941581 318:0.125908 319:0.445654 320:-0.485959 321:-0.303069 322:-0.0738526 323:0.389572 324:-0.240469 325:-0.622402 326:0.21659 327:-0.299511 328:-0.953411 329:-0.814433 330:0.164663 331:0.269529 332:-0.248065 333:-0.18169 334:0.0428123 335:-0.562102 336:-0.676345 337:-0.334133 338:0.404139 339:-0.226069 340:-0.782609 341:-0.663113 342:0.154099 343:0.161577 344:-0.329792 345:-0.0646495 346:0.162011 347:0.0296991 348:-0.66173 349:0.191242 350:-0.114727 351:0.113114 352:-0.466357 353:-0.517647 354:-0.226758 355:-0.686277 356:0.741655 357:0.152329 358:0.377405 359:-0.159073 360:-0.523115 361:-0.264877 362:-0.0938928 363:0.0544342 364:-0.953668 365:-0.6826 366:0.27622 367:0.220575 368:0.111578 369:-0.157275 370:0.138789 371:-0.651618 372:-0.780681 373:0.249598 374:-0.308801 375:0.285105 376:-0.93633 377:-0.912548 378:-0.433794 379:0.0786964 380:-0.178953 381:-0.55249 382:-0.0544207 383:0.224251 384:-0.882978 
9.473975520118133 0.4819423200049575 1.086744190657436 9.748970977081738 1.308437040725794 1.174003596281639 1:-0.50371 2:-0.791455 3:-0.501784 4:-0.94 5:-0.77972 6:-0.405908 7:-0.099907 8:0.035206 9:-0.675316 10:-0.339864 11:-0.51983 12:-0.821004 13:0.242422 14:-0.402657 15:0.43416 16:-0.202147 17:-0.92381 18:-0.145034 19:0.0871701 20:-0.305916 21:0.125083 22:0.34533 23:-0.168674 24:-0.586317 25:-0.243374 26:0.291186 27:-0.474163 28:-0.338028 29:-0.403141 30:0.3101 31:0.0770287 32:0.117258 33:-0.688333 34:-0.497212 35:0.0309396 36:-0.429052 37:0.148127 38:-0.316802 39:0.274795 40:-0.314775 41:-0.886677 42:-0.11083 43:0.0888875 44:-0.212813 45:0.000271933 46:0.13601 47:-0.0262873 48:-0.322599 49:-0.177375 50:-0.188226 51:-0.006939 52:-1 53:-0.294355 54:0.158296 55:-0.305696 56:0.104408 57:-0.328175 58:-0.0434767 59:-0.588693 60:-0.00876177 61:-0.568468 62:-0.374148 63:-0.130387 64:-0.225115 65:-0.468504 66:-0.0214184 67:-0.346776 68:0.261893 69:-0.517072 70:-0.237621 71:-0.403426 72:-0.261858 73:0.00697209 74:-0.184856 75:0.283814 76:-0.145729 77:-0.031746 78:-0.0906337 79:-0.0815952 80:0.0519301 81:-0.0581977 82:0.0297787 83:-0.482585 84:-0.106612 85:0.00592705 86:0.0970983 87:-0.0220237 88:-0.93456 89:-0.292196 90:0.449953 91:-0.0971214 92:0.267627 93:-0.60996 94:-0.439404 95:-0.295413 96:-0.254295 97:-0.0120094 98:-0.195391 99:0.367473 100:-0.996534 101:-0.244 102:-0.184587 103:-0.113049 104:0.0509903 105:0.563068 106:0.477521 107:0.353485 108:-0.770675 109:0.421552 110:-0.519907 111:0.847948 112:-0.145188 113:-0.313485 114:-0.0629235 115:0.119448 116:-0.110594 117:0.447905 118:0.473047 119:-0.446772 120:-0.108525 121:-0.374359 122:0.0711463 123:-0.230698 124:-0.458716 125:-0.222437 126:-0.290243 127:-0.282744 128:0.0983466 129:-0.555878 130:-0.423015 131:-0.236546 132:-0.327426 133:-0.621849 134:-0.130481 135:-0.463829 136:-0.0179445 137:-0.965714 138:0.00805292 139:0.237573 140:-0.196737 141:-0.473392 142:-0.230791 143:-0.121676 144:-0.432768 145:-0.444451 146:-0.0390387 147:-0.035379 148:-0.364421 149:-0.876364 150:-0.405163 151:0.316245 152:-0.475349 153:-0.348249 154:-0.135425 155:-0.186708 156:-0.600561 157:0.359459 158:-0.478261 159:0.332439 160:-0.794466 161:0.00677966 162:-0.0942828 163:-0.311357 164:0.220755 165:-0.0972508 166:0.0402387 167:-0.35947 168:-0.733443 169:0.963733 170:-0.713781 171:0.965746 172:-0.275618 173:-0.996324 174:-0.13362 175:0.144127 176:-0.287492 177:0.29162 178:0.525062 179:-0.226568 180:-0.847249 181:0.198261 183:0.198261 184:-0.229008 185:-1 186:-0.467302 187:0.149482 188:-0.456431 189:-0.50873 190:-0.00712922 191:-0.794435 192:-0.969912 193:-0.454762 194:0.431809 195:-0.384807 196:-0.824351 197:-0.828 198:0.360869 199:0.838825 200:-0.708467 201:-0.570076 202:-0.203419 203:-0.0385208 204:-0.881701 205:-0.04666 206:0.23049 207:-0.101322 208:-0.792373 209:-0.939279 210:0.479916 211:0.0260792 212:0.0417293 213:-0.191219 214:0.0350268 215:0.243755 216:-0.781418 217:-0.21693 218:0.279378 219:-0.226754 220:-0.692042 221:0.045614 222:-0.435506 223:-0.408494 224:0.231711 225:-0.488303 226:-0.25769 227:0.215302 228:-0.665158 229:0.299638 230:-0.497045 231:0.596343 232:-1 233:-0.795981 234:-0.0334715 235:0.0143846 236:0.176584 237:0.478254 238:0.602305 239:-0.128753 240:-0.552195 241:-0.369149 242:0.250639 243:-0.3 244:-0.407643 245:-1 246:-0.0753415 247:-0.388546 248:-0.00489485 249:-0.454331 250:-0.203965 251:-0.236149 252:-0.682834 253:0.210137 254:0.0986063 255:0.0518332 256:-0.505495 257:-0.50096 258:0.224618 259:-0.522485 260:0.541999 261:-0.215739 262:0.0310517 263:-0.243083 264:-0.547051 265:-0.240253 266:-0.10962 267:0.187417 268:-0.279339 269:-0.048 270:0.120983 271:-0.560633 272:0.639102 273:0.488551 274:0.607892 275:-0.0605613 276:-0.631429 277:-0.555709 278:0.696367 279:-0.625202 280:-1 281:-0.391975 282:-0.158027 283:-0.819938 284:0.647989 285:-0.700261 286:-0.546087 287:0.0980541 288:-0.658068 289:0.511878 290:0.272387 291:0.279495 292:-0.21097 293:-0.209581 294:0.0604267 295:-0.164728 296:-0.412969 297:-0.219292 298:-0.016781 299:0.237813 300:-0.102112 301:-0.159496 302:0.38218 303:-0.217104 304:-0.0812854 305:-0.612782 306:-0.104097 307:-0.0824414 308:-0.0462233 309:-0.431907 310:-0.204792 311:-0.184335 312:-0.424565 313:-0.216607 314:0.188061 315:-0.109011 316:-0.47678 317:-0.646048 318:-0.0140953 319:-0.330724 320:0.215388 321:-0.309612 322:-0.0925248 323:-0.114163 324:-0.208371 325:0.0689464 326:0.0323079 327:0.19716 328:-0.777038 329:-0.969072 330:-0.138175 331:-0.2684 332:-0.0918661 333:-0.243616 334:-0.0241753 335:-0.00590476 336:-0.0302989 337:-0.0828733 338:0.143485 339:0.154265 340:-0.866221 341:-0.646055 342:-0.018796 343:-0.43403 344:0.151941 345:-0.0953911 346:0.125932 347:0.250629 348:-0.30165 349:0.265416 350:-0.241439 351:0.228729 352:-0.786543 353:-0.792157 354:-0.227372 355:-0.38996 356:0.541504 357:0.185509 358:0.402531 359:-0.124725 360:-0.624019 361:0.208216 362:-0.224035 363:0.396232 364:-0.235521 365:-0.774379 366:0.119802 367:0.285476 368:0.254549 369:-0.0663493 370:0.222245 371:-0.232909 372:-0.706896 373:0.160805 374:-0.112818 375:0.142059 376:-0.247191 377:-0.250951 378:-0.433794 379:0.230541 380:-0.279134 381:-0.637038 382:-0.14872 383:0.329627 384:-0.89419 
2.338820065752709 0 2.230953312783171 9.258106057426028 1.183009603137606 3.61920055017842 1:-0.259445 2:-0.6539 3:-0.257536 4:-0.512 5:-0.993007 6:0.0571794 7:0.268379 8:-0.172759 9:-0.22873 10:0.126195 11:-0.608207 12:-0.878495 13:-0.039544 14:-0.404342 15:0.225595 16:-0.660107 17:-0.51619 18:-0.269272 19:-0.0507003 20:-0.23004 21:-0.0793651 22:0.124655 23:-0.442396 24:-0.376643 25:-0.301883 26:0.214113 27:-0.444663 28:-0.964789 29:-0.776614 30:0.351298 31:-0.289851 32:0.406158 33:-0.652944 34:-0.39348 35:-0.253121 36:-0.186692 37:-0.161521 38:-0.224776 39:-0.0524677 40:-0.952891 41:-0.546708 42:-0.233012 43:-0.607959 44:0.285197 45:-0.255535 46:0.024092 47:0.00824173 48:-0.439018 49:-0.0701551 50:0.455212 51:-0.538873 52:-0.787086 53:-0.681452 54:0.151085 55:-0.255387 56:0.04305 57:-0.549019 58:-0.289892 59:0.349785 60:-0.855401 61:-0.199424 62:-0.120193 63:-0.0625104 64:-0.402757 65:-0.255906 66:-0.0860469 67:0.22389 68:-0.31493 69:-0.249785 70:0.00836421 71:0.362807 72:-0.416789 73:-0.436322 74:-0.139986 75:-0.132371 76:-0.360134 77:-0.56746 78:-0.149235 79:-0.156184 80:0.0467876 81:0.00944589 82:0.0903281 83:-0.40544 84:-0.489561 85:-0.0385 86:-0.217114 87:0.217538 88:-0.370143 89:-0.833031 90:-0.155856 91:0.2385 92:-0.327174 93:0.0549 94:0.293826 95:-0.271784 96:-0.627942 97:-0.572469 98:0.153681 99:-0.416664 100:-0.684575 101:-0.96 102:-0.462673 103:-0.0170481 104:-0.330112 105:-0.250908 106:-0.219435 107:0.5667 108:-0.808974 109:-0.518679 110:-0.622198 111:0.226865 112:-0.964111 113:-0.66725 114:-0.458899 115:-0.0534091 116:-0.279414 117:0.0208842 118:0.143247 119:-0.348402 120:-0.347146 121:-0.555289 122:-0.110451 123:-0.229211 124:-0.376147 125:-0.798839 126:-0.363616 127:0.0189272 128:-0.250824 129:-0.218052 130:-0.0482732 131:0.0997566 132:-0.600507 133:-0.523331 134:-0.523398 135:-0.139175 136:-0.347471 137:-0.459048 138:0.0161322 139:-0.311195 140:0.357282 141:-0.135495 142:0.155583 143:-0.165979 144:-0.441797 145:-0.717199 146:-0.602729 147:0.104907 148:-0.288428 149:-0.716364 150:-0.693695 151:0.209658 152:-0.593245 153:-0.0709849 154:0.11025 155:-0.32498 156:-0.66053 157:0.416216 158:-0.73913 159:0.404826 160:-0.339921 161:-0.60678 162:0.00695973 163:-0.226051 164:0.116961 165:0.35423 166:0.345054 167:-0.293242 168:-0.72679 169:0.534585 170:0.544581 171:0.257902 172:-0.823322 173:-0.977941 174:-0.111889 175:-0.253015 176:0.103954 177:0.0133396 178:0.278359 179:-0.331448 180:-0.918346 181:0.389826 183:0.389826 184:-0.805344 185:-1 186:-0.366348 187:-0.15147 188:-0.145729 189:-0.302642 190:0.179735 191:-0.792761 192:-0.96966 193:-0.284179 194:0.308897 195:-0.212234 196:-0.365269 197:-0.772 198:0.493343 199:0.357628 200:-0.162741 201:-0.233478 202:0.142144 203:0.0502372 204:-0.859536 205:0.240587 206:0.310535 207:0.0365124 208:-0.449153 209:-0.388994 210:-0.0610562 211:0.21292 212:-0.448908 213:-0.176634 214:0.0484437 215:0.487022 216:-0.298896 217:-0.273803 218:0.444044 219:-0.353746 220:-0.467128 221:-0.403509 222:-0.238858 223:-0.457869 224:0.359375 225:-0.771903 226:-0.619524 227:-0.00212128 228:-0.141665 229:-0.54625 230:0.360543 231:-0.431996 232:-0.890459 233:-0.511592 234:-0.294451 235:0.0988836 236:-0.047763 237:0.0135822 238:0.200252 239:-0.207471 240:-0.839556 241:0.0787365 242:0.836261 243:-0.411378 244:-0.843949 245:-0.425641 246:0.32319 247:-0.461578 248:0.360751 249:-0.561218 250:-0.330832 251:0.927318 252:-0.190155 253:0.832835 254:-0.31876 255:0.620278 256:-0.300366 257:-0.988484 258:0.535379 259:-0.177969 260:0.214225 261:-0.0201185 262:0.21714 263:0.226133 264:0.0617355 265:-0.52956 266:-0.514627 267:0.278056 268:-0.494215 269:-0.712 270:-0.227598 271:-0.256645 272:0.127647 273:0.193367 274:0.370212 275:-0.464709 276:0.0619823 277:-0.297307 278:0.00511303 279:-0.0363828 280:-0.704745 281:-0.58642 282:-0.605579 283:-0.349909 284:-0.0633073 285:-0.00185499 286:0.212603 287:-0.170424 288:-0.681854 289:-0.485727 290:0.443725 291:-0.431516 292:-0.949367 293:-0.453094 294:-0.293789 295:-0.447742 296:0.194119 297:-0.362837 298:-0.177903 299:0.00336688 300:-0.466451 301:-0.270854 302:-0.452503 303:0.218006 304:-0.803403 305:-0.646617 306:-0.282977 307:-0.114236 308:0.0739348 309:-0.0514637 310:0.176405 311:-0.821616 312:0.677972 313:-0.573037 314:0.240234 315:-0.371474 316:-0.566563 317:-0.676976 318:-0.0934462 319:0.220423 320:-0.490475 321:-0.267951 322:-0.0396597 323:-0.207457 324:-0.658618 325:-0.243503 326:-0.170617 327:0.154247 328:-0.394343 329:-0.501718 330:0.147123 331:0.127868 332:-0.292037 333:0.256498 334:0.440655 335:-0.612525 336:-0.424581 337:0.199654 338:0.251789 339:0.265565 340:-0.719064 341:-0.599147 342:0.57907 343:-0.0220718 344:-0.183493 345:0.111632 346:0.319977 347:-0.0792615 348:-0.353377 349:0.541555 350:-0.265411 351:0.397398 352:-0.2529 353:-0.341176 354:-0.166664 355:-0.494007 356:0.634549 357:0.605994 358:0.728049 359:-0.102094 360:-0.513116 361:-0.113444 362:0.223443 363:-0.0468552 364:-0.474903 365:-0.678776 366:-0.187183 367:0.117232 368:0.212919 369:-0.224888 370:0.0779738 371:-0.13838 372:-0.853389 373:0.145634 374:-0.211239 375:0.183877 376:-0.70412 377:-0.661597 378:-0.433794 379:0.0885847 380:-0.115514 381:-0.437328 382:0.0604224 383:0.25112 384:-0.914361 
5.03377961936047 1.935308126072357 1.091081180041262 11.98379432926786 5.777674832994137 10.7399075282592 1:-0.595596 2:-0.77907 3:-0.593879 4:-0.68 5:-0.993007 6:-0.0468164 7:-0.00237779 8:0.0670485 9:-0.624396 10:-0.303534 11:-0.822601 12:-0.951273 13:-0.133671 14:-0.0786699 15:-0.109627 16:-0.57424 17:-0.672381 18:-0.345587 19:0.089345 20:-0.383648 21:-0.172395 22:0.0554862 23:-0.026798 24:-0.727633 25:0.222343 26:0.293732 27:-0.172317 28:-0.876761 29:-0.256545 30:0.231466 31:-0.199533 32:0.289468 33:-0.657432 34:-0.418324 35:-0.188717 36:0.168366 37:-0.464713 38:-0.0616139 39:-0.428984 40:-0.940043 41:-0.359877 42:-0.311094 43:-0.589429 44:0.262505 45:-0.481503 46:-0.172412 47:-0.0885207 48:-0.729231 49:-0.0821307 50:0.338169 51:-0.438028 52:-0.169284 53:-0.770161 54:0.0417319 55:-0.202768 56:-0.0860075 57:-0.561727 58:-0.301995 59:0.761877 60:-0.695369 61:-0.536226 62:-0.676492 63:0.140434 64:-0.274119 65:-0.11811 66:-0.391863 67:0.0833836 68:-0.53511 69:-0.060191 70:0.172238 71:-0.368986 72:-0.229046 73:-0.865463 74:0.0446029 75:-0.669113 76:-0.9933 77:-0.436508 78:-0.386285 79:0.113226 80:-0.374676 81:-0.527913 82:-0.383785 83:-0.454751 84:-0.589337 85:-0.24691 86:0.153226 87:-0.248304 88:-0.231084 89:-0.807623 90:-0.174504 91:0.46166 92:-0.581562 93:-0.459325 94:0.0238771 95:0.0856498 96:-0.821386 97:-0.827164 98:-0.414499 99:-0.0448511 100:-0.930676 101:-0.512 102:-0.711025 103:-0.255863 104:-0.256713 105:-0.223212 106:-0.121342 107:0.462541 108:-0.627183 109:-0.727409 110:-0.618176 111:0.0640382 112:-0.520392 113:-0.789842 114:-0.666595 115:0.384268 116:-0.813844 117:0.357316 118:0.466188 119:-0.195497 120:-0.772948 121:-0.727062 122:0.0361896 123:-0.516977 124:-0.636086 125:-0.199226 126:-0.578801 127:-0.0724559 128:-0.344718 129:-0.185597 130:-0.0340619 131:0.112883 132:-0.855175 133:-0.135405 134:-0.179329 135:-0.111252 136:-0.823817 137:-0.481905 138:-0.132637 139:-0.243405 140:0.219681 141:-0.310824 142:-0.0110237 143:0.445609 144:-0.301106 145:-0.72362 146:-0.102939 147:-0.240331 148:-0.606218 149:-0.96 150:-0.588622 151:0.295792 152:-0.58453 153:-0.233006 154:-0.0320877 155:-0.178836 156:-0.879831 157:0.218919 158:-0.565217 159:0.198391 160:-0.826087 161:-0.491525 162:0.0242279 163:-0.260254 164:0.171536 165:0.205449 166:0.247947 167:-0.298276 168:-0.729209 169:0.648451 170:0.878479 171:0.250331 172:-0.607774 173:-0.272059 174:0.335206 175:-0.392692 176:0.541829 177:0.237649 178:0.487731 179:-0.564542 180:-0.964465 181:0.472222 183:0.472222 184:-0.774809 185:-1 186:-0.06235 187:-0.392208 188:0.25665 189:-0.124069 190:0.363867 191:-0.872737 192:-0.980339 193:-0.782136 194:0.492269 195:-0.629222 196:-0.676647 197:-0.68 198:0.521327 199:0.562445 200:-0.346765 201:-0.652438 202:-0.304118 203:-0.240734 204:-0.928897 205:-0.158671 206:-0.112695 207:0.00879725 208:-0.305085 209:-0.878558 210:0.105286 211:0.182035 212:-0.369571 213:-0.583689 214:-0.392974 215:-0.173335 216:0.159653 217:-0.481349 218:0.597713 219:-0.565273 220:-0.342561 221:-0.277193 222:-0.411525 223:-0.363638 224:0.200001 225:-0.643525 226:-0.445207 227:0.107573 228:-0.663546 229:-0.721191 230:-0.000568372 231:-0.320168 232:-0.226148 233:-0.703246 234:-0.244433 235:0.268956 236:-0.289118 237:-0.44442 238:-0.261502 239:-0.511034 240:-0.30012 241:-0.351353 242:0.479658 243:-0.420953 244:-0.917197 245:-0.186325 246:-0.0152752 247:-0.498287 248:0.302643 249:-0.578336 250:-0.351688 251:0.700088 252:-0.471589 253:0.780641 254:-0.540591 255:0.743767 256:-0.175824 257:-0.992322 258:-0.17535 259:-0.170049 260:-0.0777882 261:-0.0586972 262:0.183242 263:-0.18834 264:0.134717 265:-0.3577 266:0.150424 267:-0.0778623 268:-0.441322 269:-0.612 270:-0.342205 271:-0.340108 272:0.157679 273:-0.131863 274:0.0762793 275:-0.151072 276:-0.210413 277:-0.446337 278:0.428371 279:-0.391561 280:-0.370826 281:-0.703704 282:-0.411225 283:-0.507267 284:0.121851 285:-0.684082 286:-0.519304 287:0.0391158 288:-0.308211 289:-0.280475 290:0.34669 291:-0.243528 292:-0.683544 293:-0.612774 294:-0.00685002 295:-0.101174 296:-0.375898 297:-0.197697 298:0.00323658 299:0.0835662 300:-0.606611 301:-0.302826 302:0.559136 303:-0.396582 304:-0.334594 305:-0.552632 306:-0.313559 307:-0.005761 308:-0.12988 309:-0.34207 310:-0.107493 311:0.176458 312:-0.643768 313:-0.531654 314:0.215866 315:-0.330806 316:-0.510836 317:-0.398625 318:-0.329888 319:-0.10191 320:-0.204606 321:-0.123981 322:0.0956671 323:0.0612635 324:-0.718543 325:-0.159193 326:0.0774028 327:0.0432323 328:-0.544093 329:-0.594502 330:0.00960139 331:-0.0991721 332:-0.149197 333:-0.0139492 334:0.199106 335:-0.450244 336:-0.481294 337:-0.752075 338:0.209125 339:-0.363287 340:-0.722408 341:-0.590618 342:0.292763 343:-0.130269 344:-0.19183 345:-0.344898 346:-0.117429 347:-0.523492 348:-0.49844 349:0.131367 350:-0.0513701 351:0.0425429 352:-0.846868 353:-0.2 354:-0.0836625 355:-0.383023 356:0.555073 357:0.1468 358:0.369933 359:-0.262214 360:-0.490124 361:0.0869016 362:0.0185611 363:0.185791 364:-0.301158 365:-0.502868 366:0.0379374 367:0.179763 368:0.26461 369:-0.0742705 370:0.215666 371:-0.358748 372:-0.78452 373:0.347702 374:-0.416111 375:0.388287 376:-0.726592 377:-0.741445 378:-0.433794 379:0.0632419 380:-0.0106078 381:-0.178702 382:0.281306 383:0.241157 384:-0.923195 
4.457492458352083 18.94021400681432 3.231460615061733 28.57259320505182 0 7.115428598807084 1:-0.146499 2:-0.726616 3:-0.144139 4:-0.804 5:-0.653846 6:0.0783836 7:0.222588 8:-0.124292 9:-0.117897 10:0.222738 11:-0.456936 12:-0.800781 13:0.0749045 14:-0.339213 15:0.257785 16:-0.431127 17:-0.291429 18:-0.152891 19:-0.0765282 20:-0.145766 21:0.0232668 22:0.219477 23:-0.285941 24:-0.504664 25:-0.492958 26:0.704285 27:-1 28:-0.735915 29:-1 30:0.240847 31:0.00262999 32:0.139498 33:-0.925758 34:-0.859639 35:0.249208 36:-0.802982 37:-0.179086 38:-0.270975 39:-0.0315636 40:-0.880086 41:-0.601838 42:0.0738488 43:0.0974299 44:-0.000760584 45:-0.0155705 46:0.110036 47:-0.588866 48:-0.325111 49:-0.236047 50:-0.171438 51:-0.0541741 52:-0.734729 53:-0.487903 54:0.126065 55:-0.41331 56:0.16023 57:-0.574197 58:-0.301995 59:-0.526995 60:0.364032 61:-0.536803 62:-0.363492 63:-0.115476 64:-0.295559 65:-0.838583 66:-0.292844 67:-0.217123 68:-0.193056 69:-0.259545 70:-0.0220671 71:-0.00991813 72:-0.568754 73:-0.633964 74:-0.214774 75:-0.22804 76:-0.557789 77:-0.369048 78:-0.411702 79:-0.119838 80:-0.175897 81:-0.0434547 82:0.0441573 83:-0.2433 84:-0.648044 85:-0.154032 86:0.422898 87:-0.415385 88:-0.93865 89:-0.68784 90:0.378731 91:-0.359254 92:0.473329 93:-0.710346 94:-0.569035 95:-0.0676907 96:-0.415173 97:-0.305483 98:0.0300767 99:-0.0858862 100:-1 101:-0.18 102:-0.290333 103:-0.287358 104:0.115552 105:0.159122 106:0.218571 107:0.348864 108:-0.848108 109:-0.310524 110:-0.320735 111:0.104151 112:-0.670473 113:-0.702277 114:-0.264691 115:-0.310191 116:0.102029 117:0.241726 118:0.397209 119:-0.275291 120:-0.649896 121:-0.487902 122:-0.632456 123:0.304673 124:-0.987768 125:-0.667311 126:-0.315673 127:-0.377291 128:0.13592 129:-0.224317 130:-0.0529503 131:-0.612728 132:0.446458 133:-0.289792 134:0.157829 135:-0.435825 136:-0.360522 137:-0.824762 138:0.085858 139:0.102545 140:0.0520779 141:-0.544555 142:-0.346913 143:0.275963 144:-0.478339 145:-0.62798 146:0.31705 147:-0.44056 148:-1 149:-0.556364 150:-0.323331 151:-0.162085 152:0.0869885 153:-0.734613 154:-0.490852 155:-0.101313 156:-0.677964 157:0.0432431 158:-0.73913 159:0.0348524 160:-0.924901 161:-0.735593 162:-0.0889806 163:-0.426127 164:0.310515 165:-0.103172 166:0.0531048 167:-0.390007 168:-0.772968 169:0.771427 170:0.347912 171:0.502902 172:-0.632509 173:-0.371324 174:-0.0376339 175:0.333922 176:-0.310703 177:0.0725673 178:0.384537 179:-0.357548 180:-0.919566 181:0.513963 183:0.513963 184:-0.59542 185:-1 186:-0.343453 187:0.403817 188:-0.536121 189:-0.49477 190:0.045491 191:-0.827888 192:-0.971967 193:-0.276453 194:-0.0757028 195:-0.0169258 196:-0.800399 197:-0.804 198:0.459512 199:0.476602 200:-0.246485 201:-0.219471 202:0.154346 203:-0.287235 204:-0.728398 205:-0.487342 206:0.060695 207:-0.288099 208:-0.288136 209:-0.802657 210:-0.509336 211:0.0984382 212:-0.382734 213:-0.217 214:0.00867649 215:-0.135282 216:-0.931842 217:-0.64158 218:0.709764 219:-0.724868 220:-0.491349 221:-0.785965 222:0.335568 223:-0.770313 224:0.872751 225:-0.802504 226:-0.662011 227:0.225274 228:-0.73216 229:0.907029 230:0.122706 231:0.590159 232:-0.918728 233:-0.962906 234:-0.0802118 235:0.0762151 236:0.0374094 237:0.166631 238:0.338697 239:0.399215 240:0.0673096 241:-0.237402 242:0.350336 243:-0.291664 244:-0.585987 245:-0.558974 246:-0.00539687 247:-0.288511 248:0.00750955 249:-0.483896 250:-0.237195 251:0.100956 252:-0.404312 253:1 254:0.183397 255:0.363588 256:-0.216117 257:-0.865643 258:0.478855 259:-0.0667869 260:-0.0151849 261:0.025032 262:0.26004 263:0.1331 264:-0.359711 265:-0.127607 266:-0.409102 267:0.477485 268:-0.6 269:-0.2 270:0.207303 271:-0.169169 272:0.0868096 273:0.370996 274:0.520356 275:-0.409624 276:-0.207193 277:-0.506181 278:0.503026 279:-0.473773 280:-0.528998 281:-0.895062 282:-0.0946822 283:-0.582459 284:0.321038 285:-0.437519 286:-0.227513 287:0.150322 288:-0.792994 289:-0.285097 290:0.400296 291:-0.282469 292:-0.0759494 293:-0.904192 294:-0.153109 295:-0.0282378 296:-0.51586 297:-0.186787 298:0.0174506 299:0.155214 300:-0.678459 301:0.139584 302:-0.0687885 303:0.205701 304:-0.160681 305:-0.612782 306:-0.127976 307:0.244287 308:-0.431186 309:0.273479 310:0.466049 311:0.0194291 312:-0.306827 313:-0.339969 314:-0.68165 315:0.294411 316:-0.315789 317:-0.707904 318:0.0598889 319:-0.0675221 320:-0.109874 321:0.149919 322:0.345786 323:-0.469798 324:0.293086 325:-0.344559 326:0.192231 327:-0.131433 328:-0.480865 329:-0.32646 330:0.0885224 331:-0.395108 332:0.300207 333:-0.198955 334:0.0167977 335:-0.267333 336:-0.473457 337:-0.484794 338:0.607853 339:-0.4915 340:-0.38796 341:-0.432836 342:-0.423054 343:-0.154993 344:-0.295305 345:-0.376221 346:-0.151952 347:0.519178 348:-0.618747 349:0.00446777 350:0.0804789 351:-0.105605 352:-0.939675 353:-0.909804 354:-0.189267 355:-0.510655 356:0.674439 357:-0.00938603 358:0.236698 359:-0.189204 360:-0.722972 361:0.598697 362:-0.265255 363:0.639494 364:-0.6139 365:-0.147228 366:-0.606067 367:0.334004 368:-0.13881 369:0.479015 370:0.649927 371:-0.194141 372:-0.834079 373:0.481953 374:-0.506669 375:0.50121 376:-0.614232 377:-0.589354 378:-0.433794 379:0.124312 380:-0.139941 381:-0.276706 382:0.201931 383:0.228684 384:-0.924687 
0 18.41062873790834 0 0 0 0 1:-0.347449 2:-0.895815 3:-0.344885 4:-0.88 5:-0.986014 6:-0.0355344 7:0.209424 8:-0.153022 9:-0.33522 10:0.0190412 11:-0.64306 12:-0.896523 13:-0.174966 14:-0.412868 15:0.131708 16:-0.413238 17:-0.51619 18:-0.639987 19:-0.0009176 20:-0.48073 21:-0.522724 22:-0.342655 23:0.0562446 24:0.240944 25:-0.568777 26:-0.565754 27:0.0661214 28:-0.411972 29:-0.483421 30:-1 31:-0.296319 32:-0.520443 33:0.279101 34:0.491991 35:0.149066 36:-0.887611 37:-0.424601 38:0.244002 39:-0.630331 40:-0.32334 41:-0.739663 42:-0.239716 43:0.262203 44:-0.376381 45:-0.93258 46:-1 47:0.208565 48:-0.234071 49:-0.747767 50:-0.108452 51:-0.389625 52:-0.406632 53:-0.967742 54:-0.504283 55:-0.00797774 56:-0.605426 57:-0.140752 58:0.161066 59:0.224489 60:-0.87018 61:-0.361114 62:-0.0882559 63:-0.209136 64:-0.748851 65:-0.96063 66:0.0664732 67:0.141842 68:-0.0830543 69:-0.0130522 70:0.216493 71:0.128247 72:-0.872976 73:-0.735356 74:-0.503826 75:-0.0394123 76:-0.728643 77:-0.865079 78:-0.438659 79:0.00362201 80:-0.302295 81:-0.00015889 82:0.0738182 83:-0.688928 84:-0.0925724 85:0.118604 86:-0.217712 87:0.328596 88:-0.94683 89:-0.782214 90:0.467655 91:-0.468701 92:0.574771 93:0.113975 94:0.271978 95:-0.423336 96:-0.408689 97:-0.269229 98:0.472787 99:-0.501313 100:-0.532062 101:-0.78 102:0.154593 103:-0.0544704 104:0.211179 105:-0.196587 106:-0.166501 107:0.411007 108:-0.801475 109:-0.225318 110:-0.0239174 111:-0.107925 112:-0.425775 113:-0.950963 114:-0.355763 115:0.299096 116:-0.435627 117:0.0197029 118:0.156367 119:-0.000185441 120:-0.633413 121:-0.465036 122:0.129954 123:-0.365747 124:-0.623853 125:-0.59381 126:-0.0477149 127:-0.147736 128:0.123717 129:-0.545711 130:-0.427568 131:0.0511125 132:-0.321504 133:0.233965 134:-0.236965 135:0.170053 136:-0.60522 137:-0.409524 138:0.527699 139:-0.245236 140:0.679352 141:0.788508 142:0.812944 143:0.206485 144:-0.527524 145:-0.175901 146:0.382674 147:-0.0829506 148:-0.626943 149:-0.981818 150:0.267871 151:0.0374339 152:0.391728 153:-0.116227 154:0.0789818 155:0.0476549 156:-0.774902 157:-0.335135 158:0.391305 159:-0.410188 160:-0.478261 161:-0.433898 162:0.230387 163:0.0323506 164:-0.0156844 165:-0.768494 166:-0.594357 167:-0.397515 168:-0.576593 169:0.901348 170:0.329877 171:0.611008 172:-0.590106 173:-0.724265 174:0.94561 175:-0.0891781 176:0.693188 177:1 178:0.974294 179:-0.936122 180:-0.967855 181:0.980243 183:0.980243 184:-0.557252 185:-1 186:1 187:-0.263175 188:0.77699 189:0.787306 190:0.885423 191:-1 192:-0.983871 193:-0.566116 194:0.126226 195:-0.30661 196:-0.876248 197:-0.876 198:0.602102 199:0.192513 200:-0.0920428 201:-0.363874 202:0.0200398 203:-0.143331 204:-0.852138 205:-0.208684 206:0.253102 207:-0.214663 208:-0.45339 209:-0.529412 210:0.153264 211:-0.167615 212:0.0650822 213:-0.530162 214:-0.327043 215:0.0186561 216:-0.260646 217:0.261422 218:0.0916361 219:0.167032 220:-0.851211 221:-0.407018 222:-0.730765 223:0.38939 224:-0.552653 225:0.048779 226:0.281823 227:0.36315 228:-0.443656 229:-0.441459 230:0.820536 231:-0.645836 232:-0.452297 233:-0.517774 234:-0.370944 235:0.353852 236:-0.345799 237:-0.761155 238:-0.645807 239:0.364771 240:-0.43232 241:0.73073 242:0.211233 243:0.263285 244:-0.802548 245:-0.976068 246:-1 247:-0.214129 248:-0.169868 249:0.231576 250:0.439983 251:0.403694 252:-0.538568 253:-0.0163094 254:0.050676 255:-0.0218032 256:-0.483516 257:-0.980806 258:-1 259:-1 260:0.747554 261:-0.248853 262:0.00105348 263:-0.292315 264:-0.556493 265:0.00814562 266:0.4291 267:-0.0263216 268:-0.900826 269:-0.804 270:-0.24297 271:0.047065 272:-0.16511 273:0.0511335 274:0.252302 275:0.32964 276:-0.541317 277:-0.390819 278:0.435762 279:-0.363877 280:-0.771529 281:-0.891975 282:-0.680876 283:-0.20467 284:-0.152528 285:9.91416e-05 286:0.215999 287:0.02446 288:-0.91627 289:-0.68098 290:0.751137 291:-0.755541 292:-0.49789 293:-0.536926 294:0.389799 295:-0.144285 296:-0.0491575 297:-0.528935 298:-0.358444 299:0.147234 300:-1 301:-0.343576 302:0.468322 303:-0.364204 304:-0.376181 305:-0.958647 306:0.14946 307:0.581832 308:-0.566148 309:-0.339533 310:-0.0916004 311:0.000300823 312:-0.578294 313:-0.853093 314:0.283333 315:-0.57887 316:-0.876161 317:-0.573883 318:-0.233983 319:0.0351974 320:-0.212632 321:-0.306195 322:-0.0855234 323:-0.364816 324:-0.702027 325:-0.374824 326:-0.360823 327:0.202765 328:-0.680532 329:-0.859107 330:0.105331 331:-0.554284 332:0.524515 333:0.567345 334:0.682318 335:-0.520902 336:-0.55287 337:-0.230244 338:0.11701 339:0.0725505 340:-0.832776 341:-0.722814 342:-0.552962 343:-0.791348 344:0.552115 345:0.132598 346:0.332603 347:-0.084655 348:-0.705918 349:-0.313673 350:0.690068 351:-0.64014 352:-0.424594 353:-0.47451 354:0.0351707 355:-0.385641 356:0.579747 357:-0.758363 358:-0.589203 359:0.162682 360:-0.450379 361:0.138 362:-0.387515 363:0.452787 364:-0.710425 365:-0.6826 366:-0.129154 367:-0.601649 368:0.930144 369:0.266433 370:0.507563 371:-0.212192 372:-0.74293 373:0.650001 374:-0.835535 375:0.750813 376:-0.636704 377:-0.51711 378:-0.433794 379:-0.653008 380:0.875018 381:0.276627 382:0.604616 383:0.205437 384:-0.914955 
0 16.98212377145645 0 0 0 0 1:-0.626695 2:-0.926283 3:-0.624539 4:-0.932 5:-0.5 6:-0.458097 7:-0.37848 8:0.0264039 9:-0.617605 10:-0.259716 11:-0.62729 12:-0.909187 13:-0.285442 14:0.373444 15:-0.590706 16:-0.549195 17:-0.733333 18:-0.209512 19:0.373247 20:-0.350229 21:-0.743298 22:-0.575055 23:0.272233 24:-0.5393 25:-0.518572 26:-0.577905 27:0.109576 28:-0.746479 29:-0.633508 30:-0.657717 31:0.720011 32:-0.794646 33:0.695283 34:0.850407 35:-0.170251 36:-0.891255 37:-0.602771 38:0.34088 39:-0.852355 40:-0.635974 41:-0.699847 42:-0.359859 43:0.301842 44:-0.46842 45:-0.718753 46:-0.685967 47:0.341243 48:-0.729053 49:-0.717588 50:0.258466 51:-0.709761 52:-0.535777 53:-0.552419 54:-0.350676 55:-0.00229754 56:-0.461422 57:-0.509635 58:-0.223074 59:0.581135 60:-0.883452 61:0.0834671 62:0.239438 63:-0.145125 64:-0.678407 65:-0.681102 66:0.194347 67:-0.220046 68:0.247191 69:0.388036 70:0.551874 71:0.62241 72:-0.885197 73:-0.165725 74:-0.155599 75:0.110512 76:-0.98995 77:-0.507937 78:-0.525686 79:-0.784014 80:0.0816545 81:-0.15577 82:0.107412 83:0.329234 84:0.115451 85:-0.276098 86:-0.199486 87:0.0351626 88:-0.94683 89:-1 90:-0.235817 91:-0.0920837 92:-0.105385 93:-0.114113 94:0.0557753 95:-0.207272 96:-0.553836 97:-0.526133 98:-0.207254 99:-0.0191465 100:-0.986135 101:-0.688 102:-0.401391 103:-0.416141 104:-0.0062491 105:0.0660082 106:0.129252 107:0.255263 108:-0.697179 109:-0.715903 110:-0.324174 111:-0.201578 112:-0.902121 113:-0.705779 114:-0.596551 115:-0.727731 116:-0.0695711 117:-0.303504 118:0.0164298 119:-0.174807 120:-0.538922 121:-0.762391 122:-0.319778 123:-0.226183 124:-0.565749 125:-0.636364 126:-0.536206 127:-0.181386 128:-0.205514 129:-0.500916 130:-0.376824 131:-0.0902571 132:-9.69663e-05 133:-0.126744 134:-0.198531 135:-0.0928539 136:-0.631321 137:-0.554286 138:0.140368 139:-0.911183 140:0.711497 141:-0.00746168 142:0.42394 143:0.0801541 144:-0.629475 145:0.531027 146:0.622901 147:0.38277 148:-0.806563 149:-0.76 150:0.219248 151:-0.22099 152:0.47533 153:-0.107241 154:0.115575 155:0.633709 156:-0.195772 157:-0.14054 158:0.26087 159:-0.209115 160:-0.699605 161:-0.555932 162:-0.300283 163:-0.399729 164:0.0884731 165:-0.697435 166:-0.523993 167:0.0635128 168:-0.233512 169:0.851907 170:0.945827 171:0.391657 172:-0.600707 173:-0.496324 174:0.868802 175:-0.132593 176:0.662621 177:0.610237 178:0.721057 179:-0.819034 180:-0.959102 181:0.825075 183:0.825075 184:-0.938931 185:-1 186:0.759191 187:-0.0407298 188:0.485326 189:0.503026 190:0.720587 191:-0.977046 192:-0.984164 193:-0.621756 194:0.837947 195:-0.695128 196:-0.928144 197:-0.988 198:0.464696 199:0.141952 200:-0.246185 201:-0.72882 202:-0.4083 203:0.282517 204:-0.871773 205:-0.887023 206:0.524636 207:-0.782081 208:-0.694915 209:-0.768501 210:-0.180875 211:0.210961 212:-0.456035 213:-0.726498 214:-0.575715 215:-0.131771 216:-1 217:-0.0200879 218:-0.434446 219:0.293826 220:-0.602076 221:-0.922807 222:0.796571 223:0.288612 224:0.0280461 225:0.333835 226:0.516391 227:-0.280114 228:-0.402732 229:-0.562455 230:0.773774 231:-0.690824 232:-0.720848 233:-0.731066 234:0.220203 235:-0.328884 236:0.463833 237:-0.32293 238:-0.128418 239:0.0299916 240:-0.998399 241:0.0132164 242:0.393152 243:-0.192648 244:-0.796178 245:-0.664957 246:0.165503 247:0.377684 248:-0.351769 249:-0.0328636 250:0.221571 251:0.3925 252:-0.709964 253:0.38183 254:0.421475 255:-0.0832708 256:-0.919414 257:-0.56238 258:-0.593881 259:0.149207 260:-0.245886 261:-0.239423 262:0.0123561 263:0.540616 264:-0.255418 265:-0.532557 266:0.358991 267:-0.34572 268:-0.864463 269:-0.984 270:-0.506488 271:1 272:-0.984497 273:0.0904639 274:0.316401 275:-0.227084 276:-0.904894 277:0.107959 278:-0.105883 279:0.270257 280:-0.97891 281:-0.993827 282:0.226123 283:-0.262294 284:0.241531 285:0.220215 286:0.404961 287:0.258867 288:-0.579646 289:-0.426726 290:-0.344613 291:0.135814 292:-0.721519 293:-0.688623 294:0.0894283 295:0.502578 296:-0.745941 297:0.17496 298:0.36575 299:-0.626186 300:-0.350858 301:-0.1862 302:0.477786 303:-0.287561 304:-0.837429 305:-0.988722 306:-0.450706 307:0.735773 308:-0.675733 309:-0.0776561 310:0.164282 311:0.111687 312:-0.858103 313:-0.84648 314:0.387335 315:-0.632442 316:-0.786378 317:-0.989691 318:0.46152 319:0.464604 320:-0.27616 321:-0.564274 322:-0.365535 323:-0.177441 324:-0.507278 325:-0.102421 326:-0.11305 327:0.19523 328:-0.783694 329:-0.604811 330:0.190339 331:-0.140747 332:0.210196 333:0.635481 334:0.736008 335:-0.449922 336:-0.785316 337:0.141672 338:-0.122585 339:0.520272 340:-0.829431 341:-0.765458 342:0.197131 343:-0.411742 344:0.317931 345:0.806187 346:0.862448 347:-0.0115228 348:-0.524017 349:-0.169795 350:0.196061 351:-0.270771 352:-0.675174 353:-0.694118 354:-0.205441 355:-0.589068 356:0.617873 357:-0.57198 358:-0.341916 359:-0.23797 360:-0.0607502 361:0.164483 362:-0.0154976 363:0.249305 364:-0.976834 365:-0.824092 366:-0.453351 367:-1 368:0.94783 369:0.249166 370:0.497051 371:-0.319007 372:-0.888023 373:0.727683 374:-0.82714 375:0.785617 376:-0.794007 377:-0.931559 378:-0.433794 379:-1 380:1 381:0.535213 382:0.759582 383:0.249951 384:-0.934028 
0 14.34026765074852 0 0 0 0 1:-0.483679 2:-0.903374 3:-0.481339 4:-0.104 5:0.041958 6:-0.458503 7:0.143415 8:-0.390781 9:-0.628863 10:-0.313689 11:-0.42347 12:-0.787112 13:-0.0389896 14:0.336201 15:-0.37689 16:-0.745975 17:-0.04 18:-0.399999 19:-0.278989 20:-0.135438 21:-0.665767 22:-0.510399 23:0.264223 24:-0.716136 25:-0.321146 26:-0.708654 27:0.353335 28:-0.0985915 29:-0.326353 30:-0.71146 31:-0.053714 32:-0.432526 33:0.325996 34:0.50526 35:0.0327297 36:-0.753426 37:-0.585481 38:-0.31729 39:-0.332815 40:-0.905782 41:-0.491577 42:-0.455531 43:-0.256121 44:-0.125774 45:-0.606616 46:-0.514379 47:-0.359142 48:-0.265238 49:-0.410534 50:-0.337861 51:0.00377307 52:0.0226876 53:-0.778226 54:-0.49461 55:-0.0367127 56:-0.690184 57:-0.109617 58:0.221341 59:0.453554 60:-0.83315 61:-0.0451979 62:0.0465829 63:-0.083645 64:-0.316998 65:-0.326772 66:0.133097 67:0.0710066 68:-0.0343585 69:-0.0850571 70:0.152907 71:0.678895 72:-0.680139 73:-0.260736 74:-1 75:0.831118 76:-0.9933 77:-0.468254 78:-0.454748 79:-0.0325265 80:-0.288017 81:0.159499 82:0.197967 83:0.00903597 84:0.0985197 85:-0.162446 86:-0.518374 87:0.389984 88:-0.541922 89:0.00907441 90:-0.543652 91:-0.234145 92:-0.227512 93:0.505725 94:0.565477 95:-0.031568 96:-0.543046 97:0.410493 98:-0.387852 99:0.887777 100:0.05026 101:-0.744 102:0.155371 103:0.312183 104:-0.306705 105:0.282333 106:0.408018 107:-0.0723236 108:-0.183304 109:-0.0791146 110:-0.55626 111:0.500318 112:-0.194127 113:-0.968476 114:-0.338929 115:0.448421 116:-0.700393 117:-0.0293548 118:0.26192 119:-0.0673106 120:-0.43555 121:0.170562 122:-0.0236774 123:0.346495 124:-0.24159 125:0.0522244 126:-0.184636 127:-0.107611 128:-0.0468446 129:0.433486 130:0.499588 131:0.63422 132:-0.106148 133:0.632113 134:-0.123308 135:0.35705 136:-0.174551 137:0.0552381 138:0.469512 139:0.371309 140:0.0136511 141:0.176082 142:0.423143 143:0.321694 144:-0.532235 145:0.179146 146:0.346219 147:0.257682 148:-0.557858 149:-0.789091 150:0.318388 151:0.713484 152:-0.326317 153:0.301552 154:0.623047 155:0.0743416 156:-0.902617 157:0.205405 158:-0.826087 159:0.201072 160:-0.577075 161:0.0440678 162:0.0630586 163:-0.180124 164:0.0851342 165:-0.585203 166:-0.412 167:-0.243944 168:-0.501025 169:0.918106 170:0.606957 171:0.543202 172:-0.558304 173:-0.988971 174:0.719986 175:-0.101384 176:0.558282 177:0.756104 178:0.818873 179:-0.647358 180:-0.979194 181:0.941176 183:0.941176 184:-0.522901 185:-1 186:0.605171 187:0.0162925 188:0.367523 189:0.690336 190:0.824297 191:-0.935921 192:-0.983683 193:-0.478885 194:0.544049 195:-0.456133 196:-0.0978044 197:-0.092 198:0.462175 199:0.831772 200:-0.694276 201:-0.613301 202:-0.255709 203:0.0670777 204:-0.841434 205:-0.565652 206:0.554323 207:-0.596425 208:-0.245763 209:-0.612903 210:0.541221 211:0.00689097 212:0.0901204 213:-0.65915 214:-0.485626 215:-0.268718 216:-0.847429 217:0.199377 218:0.0499694 219:0.15314 220:-0.131488 221:-0.894737 222:0.0817992 223:-0.0932926 224:-0.166273 225:0.210709 226:0.416934 227:0.190423 228:-0.654585 229:0.140082 230:0.0514217 231:0.16933 232:-0.40636 233:-0.919629 234:0.000416373 235:0.213821 236:-0.1984 237:-0.320286 238:-0.127583 239:-0.0976738 240:-0.354889 241:0.520651 242:-0.117796 243:0.346304 244:-0.0987261 245:-0.733333 246:0.177353 247:-0.263176 248:-0.184338 249:0.50252 250:0.653711 251:0.165716 252:-0.772145 253:-0.302276 254:0.0578818 255:-0.15993 256:-0.369963 257:-0.0863724 258:-0.144514 259:-0.40348 260:0.210013 261:-0.441563 262:-0.202865 263:-0.540578 264:-0.378363 265:0.728334 266:-0.319266 267:0.998148 268:-0.570248 269:-0.22 270:-0.224418 271:-0.217691 272:-0.148241 273:0.530262 274:0.648031 275:0.119503 276:0.436876 277:-0.0767838 278:0.269515 279:-0.0754054 280:-0.42355 281:-0.194444 282:-0.0847225 283:-0.452962 284:-0.0516153 285:-0.185962 286:0.0415125 287:0.309886 288:-0.569469 289:-0.482605 290:0.410439 291:-0.407185 292:-0.160338 293:-0.760479 294:0.38536 295:-0.279264 296:-0.0488784 297:-0.241372 298:-0.0465665 299:-0.293594 300:-0.750236 301:-0.515308 302:0.212467 303:-0.30273 304:0.0699433 305:-0.973684 306:-0.0429385 307:-0.0913629 308:-0.00560072 309:-0.362192 310:-0.129486 311:-0.211502 312:-0.583628 313:0.0977299 314:0.13697 315:0.125285 316:-0.151703 317:-0.14433 318:0.206649 319:-0.331105 320:0.291149 321:0.511324 322:0.640284 323:0.181554 324:-0.606212 325:-0.159523 326:-0.0138996 327:0.100968 328:-0.031614 329:-0.467354 330:-0.0474796 331:-0.273573 332:-0.0422668 333:0.198087 334:0.385475 335:-0.414415 336:-0.504972 337:0.146256 338:0.0698666 339:0.37178 340:-0.859532 341:-0.803838 342:0.0478316 343:-0.489045 344:0.283027 345:0.714855 346:0.795978 347:0.0564057 348:-0.612471 349:0.175156 350:0.138698 351:-0.0440438 352:-0.526682 353:-0.580392 354:-0.267439 355:-0.384621 356:0.509192 357:-0.259752 358:-0.000518472 359:0.025194 360:-0.352558 361:0.742576 362:-0.47186 363:0.841471 364:-0.289575 365:-0.869981 366:-0.00144226 367:0.227202 368:0.323786 369:0.760037 370:0.844946 371:-0.213273 372:-0.855623 373:0.79666 374:-0.709008 375:0.760926 376:-0.554307 377:-0.456274 378:-0.433794 379:0.0545871 380:0.146867 381:0.802983 382:0.898064 383:0.27376 384:-0.939816 
0 23.17789503023064 0 0 0 2.906590392868719 1:-0.53657 2:-0.885727 3:-0.534386 4:-0.024 5:0.132867 6:-0.277751 7:0.0812916 8:-0.174301 9:-0.638692 10:-0.327446 11:-0.522576 12:-0.84148 13:0.0305383 14:0.374236 15:-0.356089 16:0.0948122 17:0.0514286 18:-0.150328 19:-0.196069 20:-0.0498552 21:-0.659249 22:-0.516897 23:0.326286 24:-0.705446 25:0.207202 26:-0.412003 27:0.437728 28:0.0457746 29:-0.144852 30:-0.479681 31:0.0568624 32:-0.389286 33:0.165902 34:0.371513 35:0.308151 36:-0.491107 37:-0.45454 38:0.028175 39:-0.489475 40:-0.888651 41:-0.497703 42:-0.426313 43:-0.293463 44:-0.0387561 45:-0.608026 46:-0.48042 47:0.0955222 48:-0.559924 49:0.334241 50:-0.0350278 51:0.130187 52:0.0471204 53:-0.633065 54:-0.230614 55:-0.0816782 56:-0.454528 57:-0.0547261 58:0.254156 59:0.444734 60:-0.766554 61:-0.455868 62:-0.0357359 63:-0.322654 64:-0.522205 65:-0.649606 66:-0.0177816 67:0.124304 68:-0.252294 69:-0.346095 70:-0.0892268 71:0.214941 72:-0.769884 73:-0.573571 74:-0.551241 75:0.141912 76:-0.98995 77:-0.448413 78:-0.78429 79:-0.0656382 80:-0.497389 81:-0.136819 82:-0.0375992 83:0.098528 84:-0.118791 85:0.08331 86:-0.205926 87:0.293604 88:-0.709611 89:0.103448 90:-0.505199 91:-0.457728 92:0.0566414 93:-0.361549 94:-0.119241 95:0.587352 96:0.00137495 97:0.0473995 98:-0.405191 99:0.623709 100:-0.833622 101:-0.72 102:-0.108972 103:0.156654 104:-0.306283 105:-0.0746914 106:-0.00126037 107:-0.0531618 108:-0.0753578 109:-0.357491 110:-0.642933 111:0.369058 112:0.040783 113:-0.961471 114:-0.75566 115:0.318691 116:-0.908277 117:-0.133327 118:0.0895831 119:-0.0244625 120:-0.409199 121:-0.559746 122:-0.456486 123:0.0804106 124:-0.605505 125:0.121857 126:-0.635827 127:-0.473921 128:0.104686 129:-0.225576 130:0.0523025 131:0.0155301 132:-0.584963 133:-0.0737327 134:-0.223552 135:-0.0414066 136:-0.566069 137:0.139048 138:-0.0960058 139:0.00937413 140:0.0224649 141:0.140141 142:0.310295 143:0.446089 144:-0.576664 145:-0.0921214 146:-0.316705 147:0.466698 148:-0.516408 149:-0.756364 150:-0.449892 151:0.24891 152:-0.43095 153:-0.214097 154:-0.0172319 155:0.481068 156:-0.321769 157:-0.0621623 158:-0.826087 159:-0.0643431 160:0.114625 161:0.0949153 162:-0.229864 163:-0.11137 164:-0.170569 165:-0.670212 166:-0.492678 167:-0.212845 168:-0.491822 169:0.895528 170:0.549781 171:0.542061 172:-0.431095 173:0.172794 174:0.600484 175:-0.121516 176:0.502342 177:0.747463 178:0.813937 179:-0.60493 180:-0.975806 181:0.721997 183:0.721997 184:-0.492366 185:-1 186:0.277446 187:-0.0421667 188:0.220483 189:0.315328 190:0.611474 191:-0.906195 192:-0.9823 193:-0.578094 194:0.698891 195:-0.597733 196:-0.401198 197:-0.388 198:0.48362 199:0.815164 200:-0.635429 201:-0.682136 202:-0.34471 203:0.103436 204:-0.873493 205:-0.510541 206:0.502052 207:-0.534456 208:0.258475 209:-0.574953 210:0.0877516 211:0.0785838 212:-0.154359 213:-0.590067 214:-0.400248 215:-0.00315682 216:-0.847418 217:0.485013 218:-0.167708 219:0.44774 220:-0.432526 221:-0.873684 222:-0.120704 223:-0.228575 224:-0.0111102 225:-0.00614701 226:0.228571 227:0.0230035 228:-0.371104 229:0.056804 230:0.586917 231:-0.203739 232:-0.381625 233:-0.187017 234:-0.266753 235:0.117624 236:-0.0851576 237:-0.419075 238:-0.235141 239:0.132783 240:-0.488376 241:0.00887301 242:-0.0542863 243:0.0586223 244:-0.0254777 245:-0.705983 246:-0.200423 247:-0.421064 248:0.0160204 249:0.608446 250:0.728236 251:0.253552 252:-0.939273 253:-0.443061 254:0.487906 255:-0.512128 256:-0.901099 257:-0.681382 258:-0.285642 259:-0.416153 260:0.178369 261:-0.593059 262:-0.37954 263:-0.19013 264:-0.849902 265:0.228861 266:0.169261 267:0.309344 268:-0.828099 269:-0.456 270:-0.186552 271:-0.262511 272:-0.0805182 273:0.200921 274:0.380748 275:0.285727 276:-0.209127 277:-0.439467 278:0.0307692 279:-0.135529 280:0.0966608 281:-0.194444 282:-0.356087 283:-0.593581 284:0.136569 285:-0.453076 286:-0.242647 287:-0.126623 288:-0.344532 289:-0.470424 290:0.196151 291:-0.255274 292:-0.092827 293:-0.173653 294:0.268998 295:-0.259813 296:-0.149587 297:-0.340014 298:-0.147494 299:-0.455415 300:-0.47086 301:-0.638611 302:0.400562 303:-0.478326 304:0.175803 305:-0.966165 306:-0.132627 307:0.017129 308:-0.271918 309:-0.586371 310:-0.379756 311:-0.328789 312:-0.520882 313:0.0362079 314:-0.0894299 315:0.211043 316:-0.625387 317:-0.556701 318:0.0755141 319:-0.136837 320:-0.15797 321:0.041323 322:0.25047 323:0.0321466 324:-0.26972 325:-0.242385 326:0.259953 327:-0.118266 328:-0.896839 329:-0.0171821 330:0.231614 331:-0.296503 332:0.0637926 333:0.0433801 334:0.249124 335:-0.137146 336:-0.647804 337:-0.0376665 338:0.248379 339:0.103059 340:-0.588629 341:-0.547974 342:-0.102701 343:-0.378331 344:0.005323 345:-0.135763 346:0.0885404 347:0.164014 348:-0.251257 349:0.0866844 350:0.257705 351:-0.163163 352:-0.475638 353:-0.537255 354:-0.151082 355:-0.364594 356:0.535283 357:-0.403349 358:-0.150074 359:0.0227032 360:-0.402344 361:0.410377 362:-0.573956 363:0.71502 364:-0.204633 365:-0.449331 366:-0.0827634 367:0.233631 368:0.324391 369:0.787028 370:0.862872 371:-0.302656 372:-0.879661 373:0.55108 374:-0.642455 375:0.604139 376:-0.801498 377:-0.437262 378:-0.433794 379:0.128205 380:-0.00815214 381:0.343131 382:0.637903 383:0.231241 384:-0.939951 
0 10.05970190128498 0 12.92992881012537 0 4.36526645527853 1:-0.816656 2:-0.864521 3:-0.815054 4:-0.696 5:-1 6:-0.450328 7:-0.297325 8:-0.0199497 9:-0.858898 10:-0.632023 11:-0.792711 12:-0.939278 13:-0.146502 14:0.211518 15:-0.355431 16:-0.516995 17:-0.931429 18:-0.147994 19:0.637877 20:-0.429874 21:-0.547368 22:-0.25622 23:0.0455863 24:-0.775002 25:-0.101728 26:-0.0993462 27:-0.0386272 28:-0.926056 29:-0.643979 30:0.0239127 31:-0.0900701 32:0.031971 33:-0.278353 34:-0.029115 35:-0.0367583 36:-0.32662 37:-0.0348966 38:-0.0325773 39:-0.0950574 40:-0.447537 41:-0.739663 42:-0.210764 43:0.581881 44:-0.491195 45:-0.280243 46:-0.0611732 47:0.298988 48:-0.148783 49:0.509179 50:0.120868 51:0.0821396 52:-0.923211 53:-0.625 54:0.481249 55:-0.65347 56:0.507856 57:-0.210614 58:0.110654 59:-0.28961 60:-0.285731 61:-0.505523 62:-0.443101 63:-0.0271747 64:-0.650842 65:-0.866142 66:-0.26011 67:0.580329 68:-0.608038 69:0.298268 70:0.538884 71:-0.0354156 72:-0.784546 73:0.192041 74:0.0335082 75:0.232744 76:-0.708543 77:-0.813492 78:-0.0163914 79:0.470835 80:-0.246774 81:0.269459 82:0.346841 83:0.0783059 84:-0.390717 85:0.0944082 86:-0.818864 87:0.829709 88:-0.550102 89:-0.69147 90:-0.619125 91:-0.549084 92:-0.119028 93:1 94:0.933947 95:0.22839 96:-0.547887 97:-0.417721 98:-0.285028 99:0.142803 100:-0.913345 101:-0.796 102:0.191662 103:0.211224 104:0.045843 105:0.0977905 106:0.112654 107:-0.584766 108:0.185363 109:-0.22445 110:0.570755 111:-0.662257 112:-0.722675 113:-0.775832 114:0.165488 115:0.108614 116:0.113811 117:-0.65154 118:-0.535397 119:0.0217998 120:-0.562178 121:-0.618787 122:-0.0141035 123:-0.373783 124:-0.981651 125:-0.829787 126:-0.38547 127:0.426199 128:-0.45849 129:-0.0759007 130:0.179927 131:0.128825 132:-0.867603 133:-0.472585 134:0.260497 135:-0.62406 136:-0.71615 137:-0.977143 138:0.353517 139:0.130412 140:0.261636 141:-0.600142 142:-0.411333 143:-0.0418949 144:-0.595223 145:-0.672238 146:0.382293 147:-0.524256 148:-0.993092 149:-0.570909 150:-0.408308 151:-0.0245258 152:-0.196195 153:-0.627962 154:-0.444012 155:0.0066375 156:-0.797853 157:0.183784 158:-0.913043 159:0.184987 160:-0.905138 161:-0.627119 162:-0.161806 163:-0.765555 164:0.433256 165:-0.339392 166:-0.0843342 167:-0.330263 168:-0.693697 169:0.54687 170:-0.143317 171:0.468896 172:-0.80212 173:-0.580882 174:-0.291735 175:-0.348134 176:-0.004307 177:0.211043 178:0.440002 179:-0.060001 180:-0.799106 181:0.307401 183:0.307401 184:-0.740458 185:-1 186:-0.463169 187:-0.175851 188:-0.232242 189:-0.372151 190:0.117245 191:-0.769288 192:-0.96721 193:-0.73386 194:0.672691 195:-0.686837 196:-0.688623 197:-0.696 198:0.473573 199:0.181803 200:-0.261172 201:-0.753652 202:-0.445209 203:-0.0891121 204:-0.945452 205:-0.501695 206:0.495424 207:-0.525436 208:-0.682203 209:-0.935484 210:0.121547 211:-0.0645095 212:-0.114371 213:-0.391012 214:-0.171532 215:0.284783 216:-0.915356 217:-0.209278 218:0.344332 219:-0.258731 220:-0.647059 221:-0.842105 222:-0.127982 223:0.793916 224:-0.591937 225:-0.222525 226:0.0338962 227:0.298924 228:-0.740933 229:-0.536287 230:0.171476 231:-0.312033 232:-0.628975 233:-0.604328 234:-0.296831 235:0.760527 236:-0.645852 237:-0.200308 238:0.00270737 239:-0.352719 240:-0.616163 241:-0.43939 242:0.0338525 243:-0.211771 244:-0.742038 245:-0.675214 246:0.00403875 247:0.0356048 248:-0.0953349 249:-0.152621 250:0.106282 251:-0.225217 252:-0.662484 253:-0.0259181 254:0.244617 255:-0.155521 256:-0.747253 257:-0.558541 258:0.00179093 259:0.774943 260:-0.660388 261:0.315834 262:0.512579 263:-0.181122 264:-1 265:-0.337544 266:0.450389 267:-0.277574 268:-0.742149 269:-0.824 270:0.0177312 271:0.449925 272:-0.343233 273:-0.0897749 274:0.132115 275:0.315642 276:-0.682111 277:0.278384 278:0.36409 279:0.0717215 280:-0.641476 281:-0.635802 282:0.0139575 283:0.626906 284:-0.646328 285:0.120213 286:0.344154 287:0.472901 288:-0.640736 289:-0.0871094 290:-0.169574 291:0.220344 292:-0.776371 293:-0.796407 294:0.214371 295:0.19451 296:-0.398153 297:0.252913 298:0.422289 299:-0.229363 300:-0.224808 301:-0.376575 302:0.483204 303:-0.390243 304:-0.708885 305:-0.680451 306:-0.097934 307:0.300569 308:-0.203444 309:-0.32773 310:-0.0903295 311:-0.0242789 312:-0.607847 313:-0.108974 314:0.594188 315:-0.264635 316:-0.798762 317:-0.591065 318:0.125102 319:0.759473 320:-0.681714 321:-0.0762984 322:0.154655 323:0.551251 324:-0.284717 325:-0.194441 326:0.16833 327:-0.0338088 328:-0.753744 329:-0.965636 330:-0.116696 331:0.136816 332:-0.138667 333:0.134202 334:0.331246 335:-0.291179 336:-0.575924 337:-0.626299 338:0.208742 339:-0.275435 340:-0.722408 341:-0.496802 342:-0.0236983 343:0.221911 344:-0.344559 345:-0.284273 346:-0.0527241 347:-0.550469 348:-0.359636 349:-0.0321714 350:0.0821916 351:-0.127127 352:-0.916473 353:-0.901961 354:-0.203343 355:-0.825138 356:0.831215 357:0.364823 358:0.549985 359:-0.163016 360:-0.814579 361:0.322378 362:-0.295057 363:0.501963 364:-0.69112 365:-0.74761 366:-0.192343 367:0.0824584 368:0.0790261 369:0.157742 370:0.408612 371:-0.259742 372:-0.615977 373:0.233838 374:-0.310617 375:0.278101 376:-0.610487 377:-0.73384 378:-0.433794 379:-0.0662299 380:-0.0438587 381:-0.32388 382:0.162625 383:0.231132 384:-0.903278 
0 0 0 3.160379300775119 0 0 1:-0.860283 2:-0.836478 3:-0.858855 4:-0.596 5:-0.493007 6:-0.366157 7:-0.240487 8:-0.00529967 9:-0.822555 10:-0.577044 11:-0.856219 12:-0.971657 13:0.285319 14:0.635789 15:-0.379331 16:-0.531306 17:-0.660952 18:0.205577 19:-0.0298951 20:0.0753264 21:-0.52334 22:-0.346726 23:0.100318 24:-0.738467 25:0.212852 26:0.0814696 27:0.00794019 28:-0.616197 29:-0.874346 30:-0.0879597 31:0.91179 32:-0.520163 33:-0.0874008 34:0.320548 35:0.318399 36:-0.534929 37:-0.375955 38:-0.305624 39:-0.168124 40:-0.648822 41:-0.993874 42:-0.357352 43:0.877955 44:-0.80228 45:-0.218362 46:0.141224 47:-0.124299 48:-0.695221 49:0.356345 50:0.320029 51:-0.183452 52:-0.675393 53:-0.875 54:0.471345 55:0.472903 56:-0.123971 57:-0.262785 58:0.165295 59:0.0685126 60:-0.747044 61:-0.647861 62:-0.385889 63:-0.180001 64:-0.947933 65:-0.653543 66:-0.340208 67:0.618463 68:-0.711778 69:-0.0736583 70:0.232358 71:-0.0983554 72:-0.676439 73:-0.429073 74:0.0568739 75:-0.312929 76:-0.973199 77:-0.646825 78:-0.116032 79:-0.29194 80:0.122888 81:-0.00600551 82:0.0893965 83:0.0536406 84:-0.671213 85:-0.410941 86:-0.504623 87:0.203283 88:-0.394683 89:-0.662432 90:-0.90159 91:0.414998 92:-0.810175 93:-0.145175 94:0.119853 95:0.52377 96:-0.265064 97:0.108811 98:0.0961379 99:0.169056 100:-0.788562 101:-0.816 102:-0.0262732 103:-0.321688 104:0.247701 105:0.156506 106:0.181869 107:0.666033 108:-0.379476 109:0.251818 110:0.356357 111:-0.0992022 112:-0.781403 113:-0.859895 114:0.279337 115:0.0310717 116:0.247398 117:-0.345964 118:-0.199064 119:0.2198 120:-0.240206 121:-0.678977 122:-0.0947365 123:-0.35496 124:-0.544343 125:-0.972921 126:-0.547633 127:0.171856 128:-0.427402 129:0.114738 130:0.269788 131:0.167827 132:-0.832033 133:-0.587679 134:0.111453 135:-0.601293 136:-0.745514 137:-0.592381 138:0.139011 139:-0.0322 140:0.186292 141:-0.748153 142:-0.594284 143:0.00287824 144:-0.176718 145:-0.931536 146:0.35431 147:-0.735929 148:-0.502591 149:-0.992727 150:-0.536952 151:0.465609 152:-0.60692 153:-0.8316 154:-0.708958 155:0.0470921 156:-0.688548 157:-0.116216 158:-1 159:-0.107238 160:-0.624506 161:-0.518644 162:-0.316437 163:-0.289602 164:0.00310579 165:-0.61751 166:-0.444436 167:-0.141976 168:-0.464036 169:0.454807 170:0.672457 171:0.157345 172:-0.830389 173:-0.933824 174:0.0819962 175:0.187172 176:-0.0328611 177:-0.0969286 178:0.185973 179:-0.446805 180:-0.917387 181:0.116604 183:0.116604 184:-0.805344 185:-1 186:-0.297205 187:0.0558521 188:-0.237234 189:-0.4453 190:0.0451073 191:-0.859525 192:-0.97903 193:-0.79294 194:0.766106 195:-0.771757 196:-0.592814 197:-0.772 198:-0.0403219 199:0.230946 200:-0.333961 201:-0.737904 202:-0.421922 203:0.0200558 204:-0.982375 205:-0.104413 206:-0.0938397 207:0.0328714 208:-0.550847 209:-0.605313 210:0.277098 211:-0.351153 212:0.212107 213:-0.0791649 214:0.144534 215:0.132828 216:-0.719258 217:-0.367799 218:-0.718857 219:0.244642 220:-0.692042 221:-0.607018 222:0.980213 223:-0.340067 224:0.543147 225:0.00298445 226:0.235311 227:-1 228:0.378609 229:-0.299008 230:0.958507 231:-0.642839 232:-0.85159 233:-0.74034 234:1 235:-0.680485 236:1 237:-0.290984 238:-0.0863911 239:0.352122 240:-0.726075 241:-0.616635 242:0.397809 243:-0.505075 244:-0.898089 245:-0.620513 246:0.725176 247:-0.443282 248:0.504786 249:-0.346275 250:-0.0906078 251:0.149244 252:-0.829953 253:0.362973 254:-0.00727025 255:0.193644 256:-0.619048 257:-0.681382 258:0.443494 259:0.726354 260:-0.505071 261:0.676273 262:0.783005 263:0.143849 264:-0.900209 265:-0.483785 266:0.0729269 267:-0.108825 268:-0.715702 269:-0.96 270:-0.0753679 271:0.385029 272:-0.32292 273:0.0661111 274:0.271964 275:-0.22839 276:-0.490467 277:-0.256564 278:0.220169 279:-0.148945 280:-0.564148 281:-0.70679 282:0.323968 283:0.272404 284:-0.261393 285:-0.0102828 286:0.216302 287:0.125402 288:-0.639499 289:-0.324925 290:0.43642 291:-0.330621 292:-0.801688 293:-0.992016 294:-0.412529 295:0.578837 296:-1 297:0.2432 298:0.430737 299:0.336227 300:-0.989917 301:-0.3162 302:0.309306 303:-0.25592 304:-0.776938 305:-0.744361 306:0.129197 307:-0.263022 308:0.380333 309:-0.18768 310:0.0463919 311:-0.227952 312:-0.54664 313:-0.188737 314:0.236926 315:-0.117965 316:-0.96904 317:-0.790378 318:0.413387 319:0.961925 320:-0.791576 321:0.340127 322:0.523545 323:0.125466 324:-0.51619 325:-0.764828 326:0.311479 327:-0.437941 328:-0.780366 329:-0.793814 330:0.501284 331:0.352172 332:-0.131183 333:-0.360344 334:-0.139868 335:-0.863043 336:-0.51979 337:-0.602106 338:0.627193 339:-0.588402 340:-0.785953 341:-0.748401 342:1 343:-0.460189 344:0.545247 345:-0.486728 346:-0.279917 347:-0.0180066 348:-0.761553 349:-0.0294904 350:-0.0025687 351:-0.0760757 352:-0.582367 353:-0.627451 354:-0.464686 355:-0.369737 356:0.312405 357:-0.0157449 358:0.229057 359:-0.185656 360:-0.49177 361:0.00227264 362:-0.0655868 363:0.187699 364:-0.830116 365:-0.81262 366:0.467554 367:0.201052 368:0.145443 369:0.39546 370:0.589535 371:-0.405378 372:-0.992975 373:0.0921109 374:-0.120933 375:0.111631 376:-0.827715 377:-0.798479 378:-0.433794 379:-0.170349 380:0.0848119 381:-0.22165 382:0.248042 383:0.231934 384:-0.946274 
4.169791801565978 8.515432310947862 0 0 3.444847129053344 0 1:-0.710207 2:-0.794073 3:-0.708648 4:-0.856 5:-0.178322 6:-0.334462 7:-0.0211725 8:-0.0956435 9:-0.769142 10:-0.507961 11:-0.710034 12:-0.907505 13:0.390505 14:0.0897177 15:0.143559 16:-0.434705 17:-0.706667 18:0.148637 19:0.113353 20:-0.0880497 21:0.103642 22:0.316117 23:-0.0239226 24:-0.786942 25:-0.198246 26:0.291331 27:-0.444825 28:-0.71831 29:-0.260035 30:0.073225 31:-0.0945537 32:0.102576 33:-0.764478 34:-0.592187 35:0.148502 36:-0.09337 37:-0.0302461 38:0.104761 39:-0.196624 40:-0.126338 41:-0.865237 42:0.0693366 43:0.847522 44:-0.691279 45:-0.726571 46:-0.0244356 47:-0.000249272 48:-0.573776 49:0.33933 50:0.741263 51:-0.579013 52:-0.504363 53:-0.516129 54:0.722937 55:-0.137477 56:0.360207 57:-0.707433 58:-0.478119 59:0.583719 60:-0.691326 61:-0.563697 62:-0.784615 63:0.208204 64:-0.972435 65:-0.795276 66:-0.4228 67:-0.00767718 68:-0.490312 69:0.295037 70:0.474397 71:-0.182027 72:-0.682203 73:-0.705968 74:0.414613 75:-0.885535 76:-0.20603 77:-0.797619 78:-0.123523 79:0.106768 80:-0.166324 81:-0.703118 82:-0.57648 83:0.0367076 84:-0.762304 85:-0.617391 86:-0.305488 87:-0.113618 88:-0.0306748 89:-0.480944 90:-0.739946 91:-0.403508 92:-0.215431 93:-0.210408 94:-0.0178236 95:-0.00327459 96:-0.737505 97:-0.369829 98:-0.199877 99:0.0946161 100:-0.954939 101:-0.568 102:-0.183059 103:0.0633757 104:-0.190153 105:0.159192 106:0.150125 107:0.150175 108:-0.488137 109:0.519466 110:0.0678209 111:0.374056 112:-0.500816 113:-0.590193 114:0.250174 115:-0.123796 116:0.367649 117:0.0471517 118:0.181954 119:0.10419 120:-0.351181 121:-0.100532 122:-0.40786 123:0.450319 124:-0.620795 125:-0.566731 126:-0.368424 127:-0.141474 128:-0.124564 129:0.262175 130:0.355437 131:-0.184268 132:-0.272496 133:-0.0111778 134:-0.157341 135:-0.0439974 136:-0.54323 137:-0.900952 138:0.396491 139:0.440562 140:-0.0301022 141:-0.548572 142:-0.234521 143:-0.165159 144:0.0718124 145:-0.173531 146:0.236008 147:0.018794 148:-0.561313 149:-0.810909 150:-0.237116 151:0.510076 152:-0.477541 153:-0.731472 154:-0.512135 155:0.144219 156:-0.145704 157:0.289189 158:-0.434783 159:0.260053 160:-0.822134 161:-0.19322 162:-0.0794784 163:-0.45882 164:0.362911 165:-0.0707587 166:0.0897875 167:-0.354735 168:-0.718105 169:0.677247 170:0.327287 171:0.434395 172:-0.551237 173:-0.632353 174:-0.194124 175:-0.174923 176:0.00124517 177:-0.0578362 178:0.211532 179:-0.195104 180:-0.830518 181:0.532428 183:0.532428 184:-0.515267 185:-1 186:-0.52127 187:-0.184893 188:-0.201258 189:-0.503085 190:0.00641907 191:-0.725857 192:-0.952211 193:-0.730056 194:0.614212 195:-0.655417 196:-0.732535 197:-0.712 198:0.440825 199:0.659968 200:-0.512822 201:-0.731826 202:-0.414117 203:-0.130564 204:-0.955929 205:-0.173932 206:-0.0812405 207:-0.0172819 208:-0.194915 209:-0.70778 210:0.0588217 211:-0.102976 212:0.075511 213:0.0552111 214:0.266713 215:-0.30583 216:-0.799119 217:0.0546726 218:0.416783 219:-0.140599 220:-0.740484 221:-0.582456 222:0.129037 223:-0.15838 224:0.0643884 225:-0.45686 226:-0.220431 227:0.32287 228:-0.431258 229:-0.11354 230:0.417494 231:-0.204649 232:-0.30742 233:-0.42813 234:0.0435169 235:0.030963 236:0.13579 237:-0.177709 238:0.0169629 239:0.0999182 240:-0.621063 241:-0.561308 242:0.255851 243:-0.397464 244:-0.773885 245:-0.719658 246:0.425635 247:-0.599041 248:0.552724 249:-0.54295 250:-0.309861 251:-0.0957994 252:-0.580823 253:0.268569 254:-0.043647 255:0.173871 256:-0.655678 257:-0.166987 258:0.228318 259:-0.151771 260:0.016317 261:0.365004 262:0.540713 263:-0.198826 264:-0.837901 265:-0.393516 266:0.668435 267:-0.470978 268:-0.629752 269:-0.816 270:0.228788 271:-0.262972 272:0.219099 273:-0.628208 274:-0.456219 275:0.159722 276:-0.27898 277:-0.529702 278:0.607765 279:-0.553878 280:-0.732865 281:-0.626543 282:0.166009 283:-0.392668 284:0.0832315 285:-0.406176 286:-0.187099 287:0.285597 288:-0.855425 289:-0.247142 290:0.237562 291:-0.149974 292:-0.637131 293:-0.508982 294:0.539757 295:-0.227076 296:-0.00725016 297:-0.361565 298:-0.172148 299:-0.0291901 300:-0.286531 301:-0.0439479 302:0.102545 303:0.00853908 304:-0.78828 305:-0.413534 306:-0.0262392 307:-0.141558 308:0.153668 309:0.0486296 310:0.26693 311:-0.194951 312:-0.221046 313:0.0151589 314:-0.79749 315:0.591468 316:-0.653251 317:-0.573883 318:-0.215078 319:0.165097 320:-0.563728 321:0.822663 322:0.881637 323:-0.152148 324:-0.292081 325:0.0958175 326:0.0627651 327:0.192601 328:-0.580699 329:-0.5189 330:0.224002 331:-0.294051 332:0.1973 333:0.161115 334:0.351771 335:-0.207203 336:-0.331738 337:-0.496526 338:0.259388 339:-0.225021 340:-0.588629 341:-0.462687 342:0.246936 343:-0.368799 344:0.173428 345:-0.459114 346:-0.247379 347:-0.270105 348:-0.381541 349:0.191242 350:-0.132706 351:0.123624 352:-0.828306 353:-0.815686 354:-0.265383 355:-0.441906 356:0.550768 357:0.235927 358:0.444078 359:-0.106244 360:-0.626242 361:0.145874 362:-0.175469 363:0.332753 364:-0.525097 365:-0.567878 366:0.013017 367:0.350909 368:0.00439424 369:-0.186057 370:0.111831 371:-0.27744 372:-0.687508 373:0.54837 374:-0.277354 375:0.419384 376:-0.531835 377:-0.555133 378:-0.433794 379:0.183391 380:-0.240673 381:-0.525517 382:-0.0266517 383:0.368322 384:-0.881063 
0 16.16782630910235 0 0 0 0 1:-0.778226 2:-0.837334 3:-0.776645 4:-0.696 5:-0.996503 6:-0.453073 7:0.00361069 8:-0.213337 9:-0.818586 10:-0.59577 11:-0.669658 12:-0.899646 13:0.268776 14:0.0506858 15:0.0847021 16:-0.26297 17:-0.634286 18:0.347318 19:0.394813 20:-0.122431 21:-0.407614 22:-0.10084 23:-0.393928 24:-0.296866 25:0.0167556 26:0.0249672 27:-0.0704649 28:-0.510563 29:-0.692845 30:-0.0797323 31:0.154115 32:-0.180027 33:-0.377035 34:-0.125374 35:0.154712 36:-0.40886 37:-0.0607664 38:-0.0934871 39:-0.0697432 40:-0.130621 41:-0.49464 42:-0.212801 43:0.376407 44:-0.491441 45:0.0632161 46:0.278442 47:0.170389 48:-0.702583 49:0.136567 50:0.635644 51:-0.592176 52:-0.291449 53:-0.669355 54:0.496726 55:-0.190758 56:0.246274 57:-0.451764 58:-0.174289 59:0.30024 60:-0.889282 61:-0.313792 62:-0.519492 63:0.178135 64:-0.984686 65:-0.909449 66:-0.378508 67:-0.613365 68:0.00830726 69:-0.0674969 70:0.266425 71:0.357872 72:-0.515362 73:0.0747896 74:0.303737 75:-0.122323 76:-0.577889 77:-0.900794 78:0.172273 79:-0.143748 80:0.286236 81:-0.330229 82:-0.201523 83:0.230715 84:-0.137332 85:-0.426584 86:-0.0702257 87:-0.182135 88:-1 89:-0.931034 90:-0.595918 91:-0.418025 92:-0.124477 93:-0.592479 94:-0.416296 95:0.588801 96:-0.199978 97:-0.445279 98:-0.454608 99:0.291336 100:-0.986135 101:-0.552 102:-0.871815 103:-0.183323 104:-0.494296 105:0.316685 106:0.296616 107:0.472419 108:-0.525034 109:0.949295 110:-0.0126378 111:0.776718 112:-0.869494 113:-0.754816 114:0.252275 115:-0.312368 116:0.501747 117:0.441162 118:0.533781 119:0.282007 120:-0.207035 121:-0.418019 122:-0.128561 123:-0.089048 124:-0.357798 125:-0.338491 126:-0.183323 127:-0.342799 128:0.190146 129:-0.182384 130:-0.0250423 131:-0.241766 132:-0.275405 133:-0.0702086 134:-0.144915 135:-0.0910798 136:-0.350734 137:-0.375238 138:0.22811 139:0.154693 140:0.123078 141:0.0420827 142:0.224974 143:0.201656 144:-0.523278 145:-0.748517 146:0.44724 147:-0.636238 148:-0.253886 149:-0.88 150:-0.405184 151:0.308836 152:-0.422993 153:-0.78556 154:-0.659106 155:0.0951057 156:-0.828471 157:0.243243 158:-0.869565 159:0.241287 160:-0.596838 161:-0.267797 162:-0.36776 163:-0.435556 164:0.170693 165:-0.448126 166:-0.237551 167:0.0109528 168:-0.42029 169:0.794777 170:0.0870358 171:0.597711 172:-0.431095 173:-0.981618 174:0.181821 175:0.58903 176:-0.335732 177:0.092315 178:0.481164 179:-0.473067 180:-0.907425 181:0.411016 183:0.411016 184:-0.370229 185:-1 186:-0.318526 187:0.449086 188:-0.533769 189:-0.351575 190:0.176765 191:-0.803815 192:-0.969752 193:-0.671789 194:0.779521 195:-0.69901 196:-0.62475 197:-0.632 198:0.478219 199:0.632685 200:-0.523825 201:-0.74387 202:-0.431952 203:0.0640839 204:-0.947974 205:0.21055 206:0.295897 207:0.0253926 208:-0.584746 209:-0.483871 210:0.0861825 211:-0.174464 212:0.145396 213:-0.423773 214:-0.205113 215:0.548389 216:-0.244337 217:0.334901 218:-0.16687 219:0.356876 220:-0.532872 221:-0.494737 222:-0.0512236 223:0.145966 224:-0.290396 225:-0.151008 226:0.0980437 227:0.112861 228:-0.0975162 229:0.157273 230:0.268781 231:0.0487384 232:-0.674912 233:-0.508501 234:-0.0549818 235:0.298139 236:-0.25364 237:-0.191087 238:0.00522305 239:-0.0688716 240:-0.54472 241:-0.495484 242:0.386415 243:-0.439034 244:-0.840764 245:-0.651282 246:0.00591314 247:-0.289372 248:0.0462197 249:-0.35146 250:-0.0932935 251:-0.166115 252:-0.795831 253:0.124445 254:-0.277485 255:0.262501 256:-0.912088 257:-0.278311 258:0.0938458 259:0.220149 260:-0.463094 261:0.10609 262:0.336436 263:-0.633267 264:-0.558335 265:-0.630712 266:0.278676 267:-0.355601 268:-0.62314 269:-0.468 270:0.0597535 271:-0.0701047 272:-0.0581853 273:-0.197001 274:0.020419 275:-0.155871 276:-0.544383 277:-0.399909 278:0.487846 279:-0.402192 280:-0.690685 281:-0.938272 282:-0.22858 283:-0.0712372 284:-0.383232 285:-0.616171 286:-0.41491 287:0.0477646 288:-0.557259 289:-0.148935 290:0.559053 291:-0.308368 292:-0.14346 293:-0.548902 294:0.315188 295:0.190427 296:-0.713228 297:-0.141919 298:0.074314 299:0.295878 300:-0.76118 301:0.589474 302:-0.093568 303:0.455432 304:-0.406427 305:-0.74812 306:-0.0358954 307:-0.073351 308:0.0755565 309:1 310:1 311:0.0616871 312:-0.592884 313:-0.574801 314:0.499958 315:-0.51723 316:-0.931889 317:-0.934708 318:-0.0475863 319:0.138558 320:-0.394923 321:-0.0597062 322:0.161288 323:0.303124 324:-0.831981 325:0.379756 326:0.342156 327:0.171346 328:-0.397671 329:-0.446735 330:0.088289 331:-0.0652906 332:-0.100404 333:0.19465 334:0.384095 335:-0.0197873 336:-0.547097 337:-0.691036 338:0.651612 339:-0.66955 340:-0.692308 341:-0.351812 342:0.416248 343:-0.167344 344:-0.0443632 345:-0.591699 346:-0.398753 347:-0.0775012 348:-0.797102 349:0.0920463 350:-0.121576 351:0.0615622 352:-0.554524 353:-0.6 354:-0.191298 355:-0.517158 356:0.662144 357:-0.149474 358:0.108041 359:-0.239702 360:-0.148516 361:0.060151 362:0.00677035 363:0.177703 364:-0.764479 365:-0.487572 366:0.491566 367:0.427434 368:-0.00201354 369:-0.0785456 370:0.20873 371:-0.201786 372:-0.864624 373:0.235126 374:-0.272849 375:0.259777 376:-0.40824 377:-0.338403 378:0.118068 379:0.338634 380:-0.385932 381:-0.483451 382:0.0151069 383:0.276797 384:-0.914574 
0 22.16011322839456 0 0 0 0 1:-0.591771 2:-0.850802 3:-0.589806 4:-0.852 5:-0.391608 6:-0.549007 7:-0.351773 8:0.0209562 9:-0.819768 10:-0.530864 11:-0.525648 12:-0.793366 13:0.270628 14:-0.128603 15:0.232045 16:-0.44186 17:-0.847619 18:0.0135017 19:0.778832 20:-0.460076 21:-0.300599 22:0.103791 23:-0.0594995 24:-0.451821 25:-0.524723 26:0.182565 27:-0.562451 28:-0.838028 29:-0.801047 30:-0.0502903 31:0.394706 32:-0.27757 33:-0.419311 34:-0.13084 35:-0.0597531 36:-0.766786 37:-0.143842 38:-0.527696 39:0.194704 40:-0.400428 41:-0.684533 42:-0.308338 43:0.757808 44:-0.765503 45:0.189045 46:0.522989 47:-0.324743 48:-0.458244 49:0.343622 50:0.147046 51:-0.0317084 52:-0.431065 53:-0.657258 54:0.298541 55:0.25545 56:-0.179154 57:-0.398078 58:-0.0118008 59:0.396477 60:-0.628677 61:-0.705639 62:0.0329555 63:-0.564955 64:-0.500766 65:-0.484252 66:-0.0667582 67:0.577885 68:-0.473968 69:-0.367268 70:-0.032792 71:-0.13662 72:-0.889709 73:-0.0136174 74:0.067681 75:0.0269968 76:-0.691792 77:-0.952381 78:0.173413 79:0.347493 80:-0.070101 81:-0.192872 82:-0.024623 83:-0.245018 84:-0.328247 85:0.238528 86:0.143662 87:0.101509 88:-0.582822 89:-0.796733 90:0.405371 91:-0.572458 92:0.594675 93:-0.304211 94:-0.0872589 95:-0.409772 96:-0.0732369 97:0.00776036 98:-0.201167 99:0.388583 100:-0.414211 101:-0.5 102:-0.335794 103:0.148637 104:-0.36622 105:0.610131 106:0.506252 107:0.311044 108:-0.56685 109:0.000540509 110:-0.0127246 111:0.0537548 112:-0.957586 113:-0.779335 114:-0.152488 115:-0.337219 116:0.132726 117:0.0605307 118:0.227038 119:0.0478132 120:-0.556301 121:-0.673549 122:-0.279302 123:-0.182779 124:-0.64526 125:-0.864603 126:-0.532734 127:0.169361 128:-0.451236 129:-0.368791 130:-0.165646 131:-0.137705 132:-0.482614 133:-0.366925 134:0.278647 135:-0.566493 136:-0.491028 137:-0.672381 138:0.207181 139:0.720317 140:-0.294397 141:-0.609559 142:-0.219506 143:0.30051 144:-0.521491 145:-0.849197 146:-0.259833 147:-0.245466 148:-0.582038 149:-0.778182 150:-0.541986 151:0.193486 152:-0.445245 153:-0.538665 154:-0.354111 155:-0.421952 156:-0.318817 157:0.156757 158:-0.956522 159:0.160858 160:-0.909091 161:-0.610169 162:-0.251423 163:-0.830524 164:0.526441 165:-0.347461 166:-0.0274537 167:-0.0816859 168:-0.523235 169:0.356013 170:0.239033 171:0.205965 172:-0.759717 173:-0.547794 174:-0.100052 175:0.0558213 176:-0.0982283 177:-0.0172445 178:0.247242 179:-0.411471 180:-0.902994 181:0.285978 183:0.285978 184:-0.721374 185:-1 186:-0.368558 187:0.0543449 188:-0.284199 189:-0.356822 190:0.125379 191:-0.809259 192:-0.972931 193:-0.686925 194:0.486734 195:-0.564098 196:-0.848303 197:-0.856 198:0.467708 199:0.490198 200:-0.467956 201:-0.735705 202:-0.419603 203:-0.173994 204:-0.824029 205:0.0328818 206:-0.163956 207:0.155677 208:-0.661017 209:-0.939279 210:-0.141337 211:-0.170735 212:-0.00919472 213:-0.163609 214:0.0627227 215:0.391068 216:-0.429925 217:0.0122956 218:0.00647711 219:0.0649835 220:-0.626298 221:-0.82807 222:0.394077 223:-0.379092 224:0.430419 225:-0.112476 226:0.129629 227:0.157482 228:-0.488446 229:-0.066093 230:-0.156699 231:0.170073 232:-0.787986 233:-0.76507 234:0.0764457 235:0.0668987 236:0.0822221 237:0.24149 238:0.404065 239:-0.191907 240:-0.671567 241:-0.486813 242:0.00353265 243:-0.217924 244:-0.729299 245:-0.702564 246:0.549124 247:-0.332667 248:0.310612 249:-0.203325 250:0.0543432 251:-0.242693 252:-0.598836 253:-0.306628 254:0.254548 255:-0.293014 256:-0.666667 257:-0.527831 258:0.720158 259:-0.253556 260:0.429157 261:-0.425392 262:-0.184776 263:-0.269811 264:-0.51741 265:-0.341463 266:0.149625 267:-0.0662049 268:-0.841322 269:-0.964 270:0.434164 271:-0.255153 272:0.397679 273:0.0602754 274:0.25347 275:0.103968 276:-0.599788 277:0.251322 278:0.138819 279:0.198734 280:-0.669596 281:-0.685185 282:-0.316148 283:-0.327687 284:0.0804243 285:-0.155991 286:0.0664793 287:0.0376084 288:-0.0377692 289:0.599574 290:0.0437915 291:0.48613 292:-0.818565 293:-0.768463 294:0.4189 295:0.0948241 296:-0.350897 297:0.325211 298:0.483959 299:0.385358 300:0.209555 301:0.0399571 302:0.0297078 303:0.0954312 304:-0.826087 305:-0.774436 306:0.0189652 307:0.085461 308:-0.0329832 309:-0.185781 310:0.0507121 311:-0.0432691 312:0.0735558 313:-0.622146 314:0.415917 315:-0.501445 316:-0.894737 317:-0.57732 318:0.0389426 319:0.0184129 320:-0.0936135 321:-0.208454 322:0.0133334 323:0.0444696 324:-0.641896 325:-0.211116 326:0.473415 327:-0.236497 328:-0.657238 329:-0.690722 330:0.0740345 331:-0.527911 332:0.487783 333:-0.218053 334:-0.00304643 335:0.0219932 336:-0.655456 337:0.12567 338:0.634914 339:-0.0878986 340:-0.77592 341:-0.637527 342:0.353544 343:-0.187217 344:0.0701433 345:-0.342309 346:-0.118768 347:0.630026 348:0.0999534 349:-0.0151923 350:-0.0419519 351:-0.045045 352:-0.925754 353:-0.819608 354:-0.342281 355:-0.392098 356:0.405303 357:0.0221621 358:0.262793 359:-0.255348 360:-0.454733 361:0.331014 362:-0.024245 363:0.347867 364:-0.667954 365:-0.655832 366:-0.147459 367:-0.0867364 368:0.34891 369:-0.0233612 370:0.261813 371:-0.105477 372:-0.74421 373:0.144445 374:-0.288013 375:0.221844 376:-0.449438 377:-0.714829 378:-0.433794 379:-0.00601976 380:-0.0457128 381:-0.263708 382:0.213135 383:0.206473 384:-0.925227 
13.38568051279816 4.117773569584208 4.350756452838995 10.85170989238361 12.72371616444523 13.42575189943058 1:-0.664827 2:-0.94215 3:-0.662686 4:-0.976 5:-0.370629 6:-0.728006 7:-0.329396 8:-0.0916498 9:-0.855278 10:-0.590439 11:-0.387973 12:-0.74169 13:0.573856 14:0.0546735 15:0.308602 16:-0.44186 17:-0.592381 18:0.299328 19:0.0631957 20:0.0733573 21:-0.486859 22:-0.293047 23:0.247465 24:-0.235142 25:-0.010799 26:-0.286085 27:0.184778 28:-0.549296 29:-0.497382 30:-0.285046 31:0.283198 32:-0.379889 33:0.11909 34:0.352184 35:0.103346 36:-0.574379 37:-0.189422 38:-0.262367 39:-0.046736 40:-0.593148 41:-0.886677 42:-0.187049 43:0.809061 44:-0.71872 45:-0.277274 46:0.158248 47:-0.319773 48:-0.518425 49:0.0277436 50:0.329848 51:-0.370774 52:-0.546248 53:-0.967742 54:0.32934 55:0.478897 56:-0.329474 57:-0.650691 58:-0.136693 59:0.283533 60:-0.836916 61:-0.516382 62:-0.0592754 63:-0.348561 64:-0.990812 65:-0.590551 66:-0.0771986 67:-0.00791247 68:-0.135532 69:-0.464267 70:-0.254035 71:0.0242076 72:-0.68696 73:0.111415 74:0.0241993 75:0.173614 76:-0.530988 77:-0.90873 78:0.0830722 79:0.133157 80:0.00190573 81:0.419599 82:0.398172 83:0.0355287 84:-0.459067 85:0.0748311 86:0.760414 87:-0.545257 88:-0.321063 89:-0.724138 90:0.45789 91:-0.0644662 92:0.309939 93:-0.765455 94:-0.641883 95:0.34095 96:-0.462688 97:0.154516 98:0.207395 99:0.0930204 100:-0.417678 101:-0.644 102:0.0694794 103:0.590866 104:-0.432363 105:-0.224528 106:0.0431752 107:0.746202 108:-0.32465 109:-0.350948 110:0.348564 111:-0.551296 112:-0.680261 113:-0.789842 114:0.0687133 115:-0.178992 116:0.220914 117:-0.53489 118:-0.367048 119:-0.133747 120:-0.658959 121:-0.677438 122:0.240776 123:-0.657674 124:-0.987768 125:-0.814313 126:-0.370091 127:-0.0669281 128:-0.171391 129:-0.659453 130:-0.556456 131:0.63106 132:-0.267492 133:-0.40892 134:0.427919 135:-0.692838 136:-0.487765 137:-0.893333 138:0.309583 139:0.481363 140:-0.0524368 141:-0.741984 142:-0.489202 143:0.324146 144:-0.560749 145:-0.773345 146:0.0176298 147:-0.366476 148:-0.364421 149:-0.956364 150:-0.586738 151:0.568467 152:-0.766052 153:-0.490961 154:-0.244055 155:-0.136647 156:-0.824462 157:0.181081 158:-1 159:0.187667 160:-0.55336 161:-0.386441 162:-0.401861 163:-0.224015 164:-0.0830488 165:-0.656247 166:-0.490424 167:0.0910706 168:-0.140426 169:0.331053 170:0.31834 171:0.163006 172:-0.925795 173:-0.985294 174:-0.317777 175:-0.639796 176:0.202309 177:-0.491979 178:-0.118304 179:-0.19199 180:-0.771174 181:0.148026 183:0.148026 184:-0.916031 185:-1 186:-0.654463 187:-0.341538 188:-0.230436 189:-0.717714 190:-0.214091 191:-0.714393 192:-0.950355 193:-0.595897 194:0.622133 195:-0.571429 196:-0.968064 197:-0.952 198:0.470306 199:0.6565 200:-0.636103 201:-0.838501 202:-0.587332 203:0.255505 204:-0.617051 205:-0.32144 206:0.0918224 207:-0.200558 208:-0.538136 209:-0.593928 210:-0.195883 211:-0.195061 212:0.0309834 213:-0.29101 214:-0.0642602 215:-0.0370301 216:-0.69206 217:0.271938 218:-0.454506 219:0.480971 220:-0.633218 221:-0.540351 222:-0.31152 223:0.0889349 224:-0.191063 225:0.054598 226:0.28357 227:0.0660392 228:-0.196385 229:0.00723625 230:0.201839 231:-0.00165126 232:-0.597173 233:-0.712519 234:-0.10804 235:0.0757581 236:0.026964 237:-0.155957 238:0.0383117 239:0.120992 240:-0.476123 241:-0.867706 242:0.194366 243:-0.513343 244:-0.843949 245:-0.548718 246:0.568183 247:-0.242434 248:0.189221 249:-0.594452 250:-0.368794 251:-0.425224 252:-0.462117 253:0.163167 254:-0.0608011 255:0.136161 256:-0.655678 257:-0.6238 258:0.148178 259:-0.159549 260:0.138695 261:-0.318488 262:-0.069805 263:-0.270681 264:-0.310945 265:-0.259525 266:-0.138432 267:0.194759 268:-0.57686 269:-0.6 270:-0.162414 271:-0.190925 272:0.117528 273:0.504179 274:0.623295 275:-0.229979 276:-0.503824 277:-0.868444 278:1 279:-1 280:-0.771529 281:-0.697531 282:-0.0762476 283:-0.521409 284:0.32776 285:-0.841827 286:-0.739919 287:0.292969 288:-1 289:-0.467162 290:0.256632 291:-0.294151 292:-0.92827 293:-0.401198 294:0.512856 295:-0.0769537 296:-0.128485 297:-0.122058 298:0.0745967 299:0.147132 300:-0.794817 301:-0.630229 302:0.650044 303:-0.62139 304:-0.659735 305:-0.631579 306:-0.343679 307:-0.000677447 308:-0.0508742 309:-0.582443 310:-0.379988 311:-0.176683 312:-0.712371 313:-0.756983 314:0.578615 315:-0.680327 316:-0.95356 317:-0.66323 318:-0.433216 319:0.193481 320:-0.477999 321:-0.604592 322:-0.41669 323:0.0618739 324:-0.552478 325:-0.378139 326:0.32652 327:-0.235066 328:-0.846922 329:-0.90378 330:0.252295 331:-0.119809 332:0.105849 333:-0.422328 334:-0.213738 335:-0.181566 336:-0.416635 337:-0.644577 338:0.631042 339:-0.620998 340:-0.461538 341:-0.876333 342:0.346853 343:0.0962953 344:-0.295743 345:-0.489288 346:-0.272904 347:-0.106488 348:-0.791318 349:0.0446822 350:-0.161815 351:0.0585586 352:-0.50348 353:-0.556863 354:-0.1983 355:-0.586744 356:0.691427 357:-0.265722 358:-0.00457971 359:-0.269646 360:-0.324386 361:-0.365384 362:0.222112 363:-0.187418 364:-0.953668 365:-0.923518 366:-0.200315 367:0.154074 368:0.103616 369:-0.406563 370:-0.106013 371:-0.432907 372:-0.896542 373:-0.0368068 374:-0.149245 375:0.0610958 376:-0.94382 377:-0.908745 378:-0.433794 379:0.156844 380:-0.257437 381:-0.693321 382:-0.217343 383:0.187996 384:-0.895484 
0 22.98145596744681 0 0 0 0 1:-0.668881 2:-0.882394 3:-0.666949 4:-0.936 5:-0.685315 6:-0.59031 7:0.100496 8:-0.406607 9:-0.79644 10:-0.562732 11:-0.506631 12:-0.820943 13:0.0957244 14:-0.624566 15:0.5056 16:-0.642218 17:-0.91619 18:-0.0494482 19:-0.0134506 20:-0.166995 21:0.498285 22:0.631892 23:-0.415513 24:-0.415729 25:-0.0414478 26:0.118276 27:-0.190432 28:-0.496479 29:-0.284468 30:0.0993712 31:-0.0552154 32:0.119481 33:-0.451063 34:-0.204038 35:0.0825472 36:-0.502055 37:-0.277871 38:-0.474535 39:0.0428203 40:-0.447537 41:-0.316998 42:-0.203693 43:-0.0175333 44:-0.176772 45:0.194854 46:0.298749 47:-0.579168 48:-0.184442 49:-0.190848 50:-0.184891 51:-0.0173081 52:-0.612565 53:-0.149194 54:0.0998838 55:-0.368846 56:0.148967 57:-0.253384 58:0.0460689 59:-0.373871 60:-0.180692 61:-0.468887 62:-0.460044 63:0.0139713 64:-0.663093 65:-0.472441 66:-0.213929 67:-0.242864 68:-0.0215371 69:-0.0289785 70:0.221779 71:-0.202489 72:-0.607168 73:0.107937 74:0.2015 75:0.00255991 76:-0.296482 77:0.0396825 78:0.218774 79:-0.196665 80:0.454633 81:-0.0314913 82:0.0938984 83:0.112608 84:-0.406762 85:-0.0291277 86:0.249503 87:-0.178048 88:-0.541922 89:-0.0562613 90:0.520507 91:-0.188671 92:0.411741 93:-0.578398 94:-0.422044 95:-0.129953 96:-0.405694 97:-0.0266709 98:-0.227913 99:0.388691 100:0.133449 101:-0.26 102:-0.0526024 103:-0.0448771 104:0.0623435 105:0.206323 106:0.186658 107:0.0121582 108:-0.561551 109:-0.244573 110:-0.416434 111:0.243726 112:-0.0603589 113:-0.190893 114:-0.15822 115:-0.0563166 116:0.0273237 117:-0.106568 118:0.0481728 119:-0.417508 120:-0.214336 121:-0.5422 122:-0.270645 123:-0.0722142 124:-0.672783 125:-0.141199 126:-0.577283 127:-0.389922 128:0.0550077 129:-0.0365737 130:0.168428 131:0.0144878 132:-0.551944 133:-0.202828 134:-0.0431134 135:-0.245707 136:0.0603589 137:-0.84381 138:0.148876 139:0.330574 140:-0.238779 141:-0.276355 142:0.0374419 143:0.369702 144:-0.557057 145:-0.484348 146:0.170411 147:-0.213161 148:-0.606218 149:-0.152727 150:-0.372186 151:0.232328 152:-0.342273 153:-0.192624 154:0.00151997 155:-0.0484728 156:-0.878673 157:0.291892 158:-1 159:0.297587 160:-0.766798 161:-0.630508 162:-0.0739295 163:-0.25665 164:0.152431 165:-0.020195 166:0.0889728 167:-0.322804 168:-0.748023 169:0.741166 170:0.564528 171:0.415571 172:-0.60424 173:-0.279412 174:-0.0153235 175:0.0500531 176:-0.119321 177:0.123181 178:0.374723 179:-0.3952 180:-0.912603 181:0.642021 183:0.642021 184:-0.48855 185:-1 186:-0.358983 187:0.124292 188:-0.371562 189:-0.406709 190:0.0873096 191:-0.798405 192:-0.965935 193:-0.710638 194:0.64245 195:-0.656663 196:0.0938124 197:-0.916 198:0.469247 199:0.895095 200:-0.79061 201:-0.825792 202:-0.565161 203:-0.018647 204:-0.881049 205:-0.0538968 206:-0.623303 207:0.342614 208:0.309322 209:-0.943074 210:-0.0378169 211:0.0757861 212:-0.163114 213:0.0219233 214:0.235488 215:-0.0671101 216:-0.555941 217:0.401559 218:-0.24017 219:0.4383 220:-0.519031 221:0.17193 222:0.268484 223:-0.446516 224:0.452862 225:-0.0235575 226:0.211388 227:0.169861 228:-0.527983 229:0.290284 230:0.352787 231:0.0785461 232:-0.194346 233:-0.8949 234:-0.0242819 235:0.0705171 236:0.0737044 237:-0.2091 238:-0.0145334 239:0.196185 240:-0.333578 241:-0.251252 242:0.17542 243:-0.199413 244:-0.815287 245:-0.791453 246:0.0772843 247:-0.510112 248:0.238777 249:-0.444401 250:-0.195406 251:-0.0349158 252:-0.584124 253:0.402197 254:0.186895 255:0.0825445 256:-0.391941 257:-0.00959693 258:-0.138758 259:-0.36928 260:0.0989487 261:-0.105414 262:0.138347 263:-0.0936464 264:-0.767226 265:-0.0169269 266:-0.0696513 267:0.311502 268:-0.342149 269:0.136 270:0.000223197 271:-0.46631 272:0.389533 273:0.106165 274:0.292671 275:-0.100668 276:-0.402977 277:-0.444208 278:0.320823 279:-0.322149 280:-0.479789 281:-0.191358 282:-0.204405 283:-0.732619 284:0.442835 285:-0.536533 286:-0.342098 287:-0.0102298 288:-0.628427 289:-0.228067 290:-0.334632 291:0.247634 292:0.21097 293:-0.52495 294:0.253104 295:-0.337235 296:0.0179325 297:-0.0618064 298:0.128614 299:-0.391175 300:-0.176838 301:-0.0735948 302:0.126907 303:-0.02135 304:-0.364839 305:0.0827068 306:-0.17655 307:-0.130752 308:0.00135513 309:-0.372155 310:-0.140605 311:0.0102125 312:-0.203566 313:-0.20084 314:0.214744 315:-0.113541 316:-0.458204 317:-0.800687 318:-0.179058 319:-0.215995 320:-0.104894 321:-0.0919846 322:0.125562 323:0.0235517 324:-0.562294 325:-0.190091 326:0.365701 327:-0.15662 328:-0.347754 329:0.120275 330:0.070255 331:-0.400722 332:0.186591 333:-0.112134 334:0.102385 335:-0.107936 336:-0.722753 337:-0.357915 338:0.0827587 339:0.0106762 340:-0.655518 341:-0.978678 342:-0.0875021 343:-0.403886 344:0.0403696 345:0.00443768 346:0.219253 347:-0.250793 348:-0.648563 349:0.361036 350:-0.331336 351:0.334835 352:-0.74942 353:-0.768627 354:-0.186119 355:-0.375936 356:0.552345 357:0.228148 358:0.437454 359:-0.290143 360:-0.5433 361:0.0909356 362:-0.518617 363:0.503327 364:-0.378378 365:-0.575526 366:-0.0780612 367:0.356514 368:0.108579 369:-0.0695711 370:0.218385 371:-0.422949 372:-0.801459 373:0.535415 374:-0.643018 375:0.596553 376:-0.509363 377:-0.48289 378:-0.433794 379:0.232117 380:-0.261288 381:-0.321509 382:0.163707 383:0.21522 384:-0.907884 
0 10.98107947651687 0 0 0 0 1:-0.629595 2:-0.90125 3:-0.627528 4:-0.952 5:0.314685 6:-0.488921 7:-0.070809 8:0.000299824 9:-0.782712 10:-0.490184 11:-0.59091 12:-0.860485 13:0.12745 14:-0.604793 15:0.513124 16:-0.63864 17:0.295238 18:-0.0373509 19:0.00424552 20:-0.193824 21:0.1418 22:0.346283 23:-0.455686 24:-0.246405 25:-0.0524625 26:0.0249726 27:-0.115664 28:-0.764085 29:-0.65445 30:-0.0923382 31:0.0452439 32:-0.122719 33:-0.240475 34:0.00565499 35:0.0885369 36:-0.817427 37:-0.391401 38:-0.667454 39:0.0968141 40:-0.0792291 41:0.0107198 42:-0.438281 43:0.0541968 44:-0.508975 45:0.203307 46:0.325863 47:-0.456464 48:-0.453107 49:-0.35333 50:-0.549483 51:0.2289 52:-0.284468 53:-0.0403226 54:0.0223896 55:-0.319942 56:0.0360822 57:-0.0580463 58:0.217543 59:-0.376693 60:-0.215281 61:-0.569515 62:-0.429873 63:-0.0856845 64:0.0566616 65:0.177165 66:-0.367823 67:-0.207718 68:-0.197734 69:-0.162312 70:0.0902304 71:0.212487 72:-0.7898 73:0.548237 74:0.130118 75:0.441361 76:-0.21608 77:0.246032 78:0.228729 79:-0.149224 80:0.415062 81:0.242139 82:0.286287 83:0.13065 84:-0.311075 85:-0.110579 86:0.420384 87:-0.382643 88:0.443763 89:-0.753176 90:0.394713 91:-0.192467 92:0.330194 93:-0.543487 94:-0.38215 95:-0.0578878 96:-0.64944 97:-0.436325 98:-0.312491 99:0.155896 100:-0.490468 101:0.064 102:-0.215021 103:-0.0851263 104:0.010614 105:0.435941 106:0.379453 107:-0.0538232 108:-0.582173 109:-0.204198 110:-0.16713 111:0.0418265 112:-0.504078 113:-0.0823117 114:-0.0509548 115:-0.127574 116:0.231062 117:-0.215506 118:-0.000530307 119:-0.347762 120:-0.291066 121:-0.78881 122:-0.553083 123:-0.0385371 124:-0.666667 125:0.00967118 126:-0.876585 127:-0.379778 128:-0.145998 129:0.0386847 130:0.242524 131:-0.129725 132:-0.507487 133:-0.170467 134:-0.187413 135:-0.128992 136:0.19739 137:-0.573333 138:0.164658 139:0.216761 140:-0.0809147 141:-0.359499 142:-0.108892 143:0.0686254 144:-0.352213 145:-0.206846 146:-0.323563 147:0.369293 148:0.329879 149:-0.738182 150:-0.517433 151:0.345422 152:-0.655612 153:-0.185946 154:0.0388396 155:-0.0660577 156:-0.53861 157:0.0567567 158:-0.869565 159:0.0563003 160:-0.782609 161:-0.627119 162:-0.122365 163:-0.311268 164:0.249084 165:-0.193874 166:-0.0280955 167:-0.269827 168:-0.694194 169:0.775857 170:0.729746 171:0.394688 172:-0.109541 173:-0.577206 174:0.183919 175:0.0681968 176:-0.0285164 177:0.331816 178:0.543914 179:-0.414292 180:-0.938877 181:0.874798 183:0.874798 184:-0.958015 185:-1 186:-0.215653 187:0.131536 188:-0.300869 189:-0.15881 190:0.294773 191:-0.836301 192:-0.975955 193:-0.755939 194:0.551417 195:-0.641315 196:0.121756 197:-0.932 198:0.467993 199:0.904904 200:-0.783476 201:-0.80898 202:-0.536125 203:-0.0885124 204:-0.8922 205:-0.0615762 206:-0.654273 207:0.354072 208:-0.90678 209:-0.817837 210:-0.105989 211:0.106123 212:-0.233602 213:-0.0877081 214:0.134089 215:-0.142824 216:-0.424695 217:0.38297 218:0.161223 219:0.201028 220:-0.785467 221:-0.747368 222:-0.149452 223:-0.331619 224:0.11885 225:0.0631235 226:0.288976 227:0.483051 228:-0.435397 229:-0.287768 230:0.457657 231:-0.334211 232:-0.257951 233:-0.910355 234:0.0536968 235:0.123623 236:-0.0292671 237:-0.316879 238:-0.125177 239:0.0374719 240:-0.538196 241:-0.298229 242:0.375246 243:-0.33569 244:-0.691083 245:-0.6 246:0.0885366 247:-0.485868 248:0.145246 249:-0.492537 250:-0.248646 251:0.27668 252:-0.608613 253:0.138853 254:-0.15871 255:0.190069 256:-0.267399 257:0.362764 258:0.00587162 259:-0.449042 260:0.285542 261:-0.144226 262:0.100762 263:-0.252992 264:-0.651755 265:-0.0406617 266:-0.446154 267:0.563237 268:0.0380165 269:0.32 270:-0.170139 271:-0.487151 272:0.3643 273:0.393579 274:0.533297 275:-0.184633 276:-0.139014 277:-0.615167 278:0.312915 279:-0.416811 280:-0.746924 281:-0.0401235 282:-0.236151 283:-0.721739 284:0.385002 285:-0.529734 286:-0.333618 287:-0.219457 288:-0.576118 289:0.00808866 290:0.151046 291:0.060741 292:-0.485232 293:-0.540918 294:0.291511 295:-0.293621 296:-0.139298 297:0.117105 298:0.296957 299:0.0534391 300:-0.47104 301:-0.346715 302:0.292958 303:-0.262204 304:-0.277883 305:-0.571429 306:-0.0947741 307:-0.181984 308:0.114785 309:-0.343074 310:-0.110547 311:-0.219069 312:-0.659687 313:-0.2175 314:0.135759 315:-0.0804774 316:-0.386997 317:-0.292096 318:-0.0769562 319:-0.181089 320:-0.200508 321:0.0170752 322:0.228415 323:0.204942 324:-0.49344 325:-0.240546 326:-0.136478 327:0.134217 328:-0.141431 329:-0.601375 330:0.0581231 331:-0.372967 332:0.0817025 333:0.129008 334:0.324394 335:-0.341452 336:-0.617745 337:-0.30795 338:0.0932668 339:0.0371741 340:-0.963211 341:-0.688699 342:0.224934 343:-0.366784 344:-0.0198866 345:-0.0485273 346:0.17205 347:-0.223098 348:-0.362324 349:0.117963 350:0.0196919 351:-0.00650631 352:-0.772622 353:0.368627 354:-0.182026 355:-0.377116 356:0.576982 357:0.0184401 358:0.260176 359:-0.269945 360:-0.563465 361:0.0488388 362:-0.0875313 363:0.226703 364:-0.285714 365:0.162524 366:-0.246944 367:0.432091 368:-0.0663779 369:-0.0424712 370:0.241003 371:-0.088995 372:-0.844634 373:0.88499 374:-0.866502 375:0.884405 376:-0.966292 377:-0.95057 378:-0.433794 379:0.232883 380:-0.238661 381:-0.259108 382:0.216081 383:0.275061 384:-0.893747 
