svm_type c_svc
kernel_type rbf
gamma 0.0078125
nr_class 7
total_sv 410
rho 0.174715 -0.532314 0.0764343 0.0865019 -0.188625 -0.346131 -0.219818 -0.00965061 0.325811 0.682709 -0.214145 0.222931 0.181468 -0.12242 -0.136618 0.0449701 -0.214698 -0.635123 -0.394242 -0.86932 -0.179003
label 5 7 1 6 4 2 3
probA -4.91482 -2.95647 -4.16655 -2.91486 -4.46263 -4.05986 -4.58388 -3.93086 -5.07376 -4.1875 -4.8221 -4.28095 -5.10263 -4.53371 -4.67616 -4.15363 -3.82218 -4.25439 -4.55046 -4.62391 -5.06674
probB 0.112219 -0.0915163 -0.154478 0.0479192 0.134635 0.0770013 -0.287488 0.0288218 0.191959 0.263176 0.634089 -0.0868467 0.549307 0.151891 0.429212 0.22661 -0.225292 0.0310714 -0.0559341 0.170108 0.34894
nr_sv 59 62 89 41 55 65 39
SV
3.160396758365426 2.873025553744077 1.07370968202316 5.135314078384886 1.404221133588163 2.769209134277021 1:-0.88433 2:-0.799791 3:-0.88388 4:-0.929504 5:-0.99759 6:-0.761808 7:0.083917 8:-0.503634 9:-0.9018 10:-0.767896 11:-0.57626 12:-0.863661 13:0.277193 14:-0.186923 15:0.284414 16:-0.698006 17:-0.647211 18:0.0108118 19:-0.479529 20:0.181357 21:-0.128082 22:0.104398 23:-0.321206 24:-0.422507 25:0.0700215 26:0.126069 27:-0.107608 28:-0.807267 29:-0.877076 30:0.209309 31:-0.432543 32:0.372807 33:-0.357348 34:-0.030833 35:0.0730866 36:-0.442396 37:-0.133554 38:0.041226 39:-0.205076 40:-0.76507 41:-0.727412 42:-0.00210383 43:-0.203379 44:0.0301671 45:-0.307677 46:-0.207636 47:-0.0193467 48:-0.442383 49:-0.279068 50:0.560546 51:-0.740781 52:-0.754801 53:-0.45749 54:0.245773 55:-0.24384 56:0.105792 57:-0.708752 58:-0.495418 59:0.235008 60:-0.752066 61:-0.50869 62:-0.12388 63:-0.290094 64:-0.546708 65:-0.492126 66:0.054808 67:-0.228931 68:0.0937713 69:-0.250829 70:-0.0384658 71:-0.242157 72:-0.572308 73:-0.479017 74:-0.140148 75:-0.145832 76:-0.852596 77:-0.908012 78:-0.234107 79:0.0615881 80:-0.189113 81:-0.187411 82:-0.0786383 83:-0.330846 84:-0.478275 85:-0.135712 86:0.318976 87:-0.362919 88:-0.941489 89:-0.796733 90:0.250042 91:-0.485607 92:0.526808 93:-0.668893 94:-0.499971 95:-0.278811 96:-0.50195 97:-0.137828 98:0.0593771 99:-0.0622552 100:-0.542567 101:-0.728 102:0.184072 103:0.334919 104:-0.111404 105:0.0834445 106:0.285712 107:0.0394798 108:-0.74364 109:-0.195395 110:-0.610805 111:0.5056 112:-0.549168 113:-0.84639 114:0.0684929 115:0.197834 116:-0.0305356 117:0.425643 118:0.460068 119:-0.765107 120:0.13795 121:-0.8775 122:-0.0777723 123:-0.578489 124:-0.679083 125:-0.876209 126:-0.436758 127:0.0291324 128:-0.292311 129:-0.600222 130:-0.440993 131:-0.282596 132:-0.485448 133:-0.549597 134:0.338346 135:-0.738293 136:-0.586207 137:-0.577143 138:0.302067 139:0.192837 140:0.163515 141:-0.560682 142:-0.358888 143:-0.0976913 144:-0.638779 145:-0.369059 146:0.175448 147:-0.125591 148:-0.533679 149:-0.756364 150:-0.327518 151:0.259538 152:-0.303007 153:-0.354107 154:-0.154802 155:-0.198737 156:-0.735519 157:-0.0540542 158:-0.956522 159:-0.0482574 160:-0.592204 161:-0.99661 162:-0.290982 163:0.174441 164:-0.406645 165:-0.515032 166:-0.26953 167:-0.181287 168:-0.582767 169:0.36618 170:0.366137 171:0.142019 172:-0.80212 173:-0.702206 174:-0.414208 175:-0.242776 176:-0.158649 177:-0.532568 178:-0.266336 179:-0.252374 180:-0.769178 181:0.0819673 183:0.0819673 184:-0.494163 185:-1 186:-0.782328 187:0.0116342 188:-0.524434 189:-0.819626 190:-0.403961 191:-0.635228 192:-0.925612 193:-0.816724 194:0.713995 195:-0.774005 196:-0.926797 197:-0.888 198:0.475922 199:0.676273 200:-0.656546 201:-0.893989 202:-0.696441 203:-0.201503 204:-0.819343 205:-0.665859 206:0.424468 207:-0.590968 208:-0.560241 209:-0.727685 210:0.0746175 211:0.0110265 212:-0.150365 213:-0.650624 214:-0.475732 215:0.0428581 216:-0.802111 217:-0.00928653 218:-0.385773 219:0.274818 220:-0.937792 221:-0.902208 222:-0.422742 223:-0.237383 224:0.101229 225:-0.227933 226:0.0189461 227:-0.22337 228:-0.434764 229:-0.546842 230:0.125931 231:-0.290969 232:-0.563291 233:-0.746522 234:-0.172215 235:0.22696 236:-0.161984 237:-0.180812 238:0.0142649 239:-0.210904 240:-0.798968 241:-0.815509 242:0.207883 243:-0.503007 244:-0.892285 245:-0.712821 246:0.0965008 247:-0.201836 248:0.0588032 249:-0.492796 250:-0.247428 251:-0.140737 252:-0.540546 253:-0.580022 254:0.422971 255:-0.532712 256:-0.940762 257:-0.65407 258:-0.168033 259:-0.0808157 260:-0.0447694 261:-0.284825 262:-0.0342387 263:-0.368548 264:-0.936762 265:-0.381987 266:0.064412 267:-0.00489194 268:-0.910744 269:-0.672 270:-0.22277 271:-0.052733 272:-0.0677527 273:-0.119884 274:0.095758 275:0.190115 276:-0.572397 277:-0.495838 278:0.59452 279:-0.525738 280:-0.706989 281:-0.727763 282:-0.0516863 283:-0.630032 284:0.424613 285:-0.504445 286:-0.304621 287:0.114818 288:-0.896169 289:0.320095 290:-0.196596 291:0.481599 292:-0.868531 293:-0.853157 294:0.498553 295:-0.0290943 296:-0.206 297:0.383515 298:0.529491 299:0.197637 300:0.0135279 301:0.381995 302:0.293941 303:0.117997 304:-0.645695 305:-0.836938 306:0.0329198 307:-0.0497859 308:0.0788319 309:-0.0945341 310:0.13708 311:0.242943 312:-0.0577 313:-0.31185 314:0.318723 315:-0.26859 316:-0.603715 317:-0.911175 318:-0.27588 319:0.114527 320:-0.337875 321:-0.316648 322:-0.0858421 323:0.126985 324:-0.594694 325:-0.662725 326:0.154203 327:-0.393305 328:-0.745399 329:-0.675362 330:-0.275917 331:-0.413531 332:0.246827 333:-0.387944 334:-0.210025 335:-0.437509 336:-0.562478 337:-0.0875954 338:0.498947 339:-0.138424 340:-0.569787 341:-0.429658 342:-0.333696 343:-0.185497 344:-0.117494 345:0.0579339 346:0.26847 347:0.61567 348:-0.404453 349:-0.0205542 350:0.40839 351:-0.311311 352:-0.607251 353:-0.675214 354:-0.128034 355:-0.569173 356:0.707247 357:-0.556805 358:-0.322693 359:0.168514 360:-0.399932 361:-0.240285 362:0.343789 363:-0.188647 364:-0.799228 365:-0.510516 366:-0.232472 367:0.139992 368:0.115843 369:-0.486423 370:-0.193327 371:-0.109842 372:-0.91421 373:0.0819675 374:-0.0819675 375:0.0819674 376:-0.531993 377:-0.635862 378:-0.433794 379:0.215724 380:-0.342334 381:-0.726008 382:-0.260494 383:0.438757 384:-0.882695 
1.604386636681196 3.098578937456799 0.03395822244591593 1.633760270391532 2.463104241227476 1.651264103870504 1:-0.801991 2:-0.78987 3:-0.801388 4:-0.751958 5:-0.66747 6:-0.486921 7:-0.30342 8:0.0635868 9:-0.836386 10:-0.557659 11:-0.789592 12:-0.950192 13:-0.126361 14:0.131793 15:-0.275528 16:-0.509972 17:-0.958495 18:-0.258747 19:0.215745 20:-0.371063 21:-0.689361 22:-0.508497 23:0.0245931 24:-0.392677 25:-0.489336 26:0.441597 27:-0.764757 28:-0.50079 29:-0.960133 30:0.135061 31:0.273325 32:-0.103786 33:-0.702516 34:-0.48548 35:0.0915795 36:-0.659836 37:-0.650652 38:-0.385635 39:-0.293329 40:-0.511592 41:-0.669219 42:-0.341258 43:0.216496 44:-0.550429 45:0.0485767 46:0.197392 47:-0.179222 48:-0.765378 49:-0.324009 50:-0.0497049 51:-0.195236 52:-0.462334 53:-0.51417 54:0.189401 55:-0.0589515 56:-0.0721836 57:-0.396711 58:-0.0959978 59:-0.23616 60:-0.395873 61:0.081257 62:-0.275803 63:0.273783 64:-0.623277 65:-0.385827 66:-0.10163 67:0.355229 68:-0.486542 69:0.0255577 70:0.295983 71:0.3763 72:-0.565187 73:-0.177768 74:-0.192075 75:0.158339 76:-0.621441 77:-0.908012 78:-0.203843 79:0.424094 80:-0.451209 81:0.243303 82:0.358327 83:-0.0691446 84:-0.678669 85:-0.371522 86:-0.435996 87:0.0722321 88:-0.837766 89:-0.604356 90:-0.293902 91:-0.337184 92:0.03678 93:-0.356508 94:-0.176797 95:-0.243552 96:-0.254821 97:-0.332929 98:0.112004 99:-0.247239 100:-1 101:-0.808 102:-0.249309 103:-0.365047 104:0.175792 105:-0.185751 106:0.0437485 107:0.474477 108:-0.853597 109:-0.237429 110:-0.293613 111:0.17905 112:-0.658094 113:-0.778802 114:-0.485688 115:0.0126062 116:-0.352977 117:0.494615 118:0.504681 119:-0.158382 120:-0.761818 121:-0.647004 122:0.0912728 123:-0.52677 124:-0.653295 125:-0.841393 126:-0.428313 127:0.446026 128:-0.62722 129:-0.481775 130:-0.0651524 131:0.18115 132:-0.830229 133:-0.403612 134:-0.225802 135:-0.265894 136:-0.772414 137:-0.973333 138:0.186321 139:0.809139 140:-0.443232 141:-0.245627 142:0.230801 143:-0.20108 144:-0.512654 145:-0.68196 146:-0.461249 147:0.0122066 148:-0.927461 149:-0.64 150:-0.627464 151:0.246672 152:-0.563288 153:-0.183776 154:0.0093726 155:-0.229562 156:-0.656276 157:0.256756 158:-0.652174 159:0.241287 160:-0.94003 161:-0.532203 162:-0.212001 163:-0.499186 164:0.284449 165:-0.530481 166:-0.30355 167:0.0424216 168:-0.283988 169:0.699169 170:-0.0388139 171:0.539407 172:-0.717314 173:-0.459559 174:0.0402511 175:-0.369377 176:0.21055 177:0.408323 178:0.595852 179:-0.464042 180:-0.941286 181:0.356479 183:0.356479 184:-0.657588 185:-1 186:-0.247819 187:-0.253499 188:-0.0116111 189:-0.220833 190:0.254931 191:-0.833024 192:-0.976261 193:-0.665543 194:0.762427 195:-0.696796 196:-0.746405 197:-0.612 198:0.448632 199:0.569656 200:-0.495113 201:-0.77564 202:-0.480583 203:0.103631 204:-0.914148 205:-0.749923 206:0.54504 207:-0.706943 208:-0.939759 209:-0.95764 210:-0.0191855 211:0.163296 212:-0.361916 213:-0.781407 214:-0.651679 215:-0.0386271 216:-0.699774 217:-0.380625 218:0.765995 219:-0.59394 220:-0.962675 221:-0.974763 222:0.218649 223:-0.687735 224:0.702411 225:-0.640949 226:-0.441333 227:0.535651 228:-0.798386 229:-0.0963231 230:-0.303388 231:0.240192 232:-0.927215 233:-0.833076 234:-0.551066 235:0.155775 236:-0.180799 237:0.0429361 238:0.227466 239:-0.133145 240:-0.154489 241:-0.351977 242:0.643344 243:-0.51808 244:-0.627365 245:-0.894017 246:-0.340894 247:-0.444025 248:0.222409 249:-0.372941 250:-0.118334 251:0.365377 252:-0.715556 253:0.582033 254:0.310468 255:0.0840414 256:-0.757405 257:-0.767442 258:0.0835169 259:-0.321461 260:0.286393 261:-0.251123 262:-0.00299946 263:0.389122 264:-0.138116 265:-0.205433 266:0.394036 267:-0.122515 268:-0.871074 269:-0.888 270:0.134302 271:-0.557398 272:0.641875 273:-0.0842862 274:0.12238 275:0.388502 276:-0.385829 277:0.385943 278:0.416334 279:0.101315 280:-0.696237 281:-0.606469 282:-0.389333 283:-0.714456 284:0.428617 285:-0.00141031 286:0.206712 287:0.449708 288:-0.583318 289:-0.345278 290:0.36572 291:-0.295047 292:-0.874126 293:-0.565345 294:-0.345511 295:0.0201787 296:-0.528319 297:-0.162797 298:0.0397682 299:0.301573 300:-0.805643 301:-0.200198 302:0.383333 303:-0.239054 304:-0.831126 305:-0.777038 306:-0.0974405 307:-0.0693142 308:0.0522949 309:-0.295323 310:-0.0601045 311:0.215451 312:-0.552795 313:-0.662871 314:0.441915 315:-0.569811 316:-0.842105 317:-0.931232 318:0.415534 319:-0.104431 320:0.124809 321:-0.427487 322:-0.207807 323:-0.181396 324:-0.646667 325:-0.302001 326:0.253 327:-0.26039 328:-0.97546 329:-0.643478 330:-0.39163 331:0.155554 332:-0.451893 333:-0.243107 334:-0.0473741 335:-0.378699 336:-0.56594 337:-0.658909 338:-0.345623 339:0.0903078 340:-0.740558 341:-0.619772 342:-0.240972 343:0.138328 344:-0.536625 345:-0.205862 346:0.0293599 347:-1 348:0.689775 349:0.100982 350:0.291952 351:-0.175175 352:-0.957704 353:-0.921368 354:-0.179055 355:-0.355888 356:0.454029 357:-0.287482 358:-0.0290661 359:-0.0881884 360:-0.446922 361:0.568234 362:-0.0720526 363:0.509012 364:-0.610039 365:-0.674952 366:-0.6524 367:0.167054 368:0.00472083 369:-0.0054067 370:0.274398 371:-0.292242 372:-0.634675 373:0.331833 374:-0.359356 375:0.345594 376:-0.963437 377:-0.751724 378:-0.433794 379:0.013127 380:-0.0198714 381:-0.0961237 382:0.344003 383:0.433216 384:-0.927003 
1.153333761347572 0 0 2.183984796282343 0 0.5221503400329663 1:-0.634552 2:-0.887352 3:-0.633242 4:-0.908616 5:-1 6:-0.588801 7:-0.205673 8:-0.149372 9:-0.75157 10:-0.4625 11:-0.529125 12:-0.835813 13:0.220272 14:0.0291046 15:0.0661585 16:-0.854701 17:-0.699092 18:0.0307783 19:-0.188287 20:0.0356724 21:-0.145784 22:0.0580944 23:-0.18716 24:-0.492571 25:-0.552687 26:-0.0193726 27:-0.39961 28:-0.535545 29:-0.857143 30:-0.125222 31:0.606401 32:-0.428819 33:-0.323681 34:0.0230756 35:-0.051239 36:-0.830655 37:-0.118209 38:-0.610402 39:0.327126 40:-0.709428 41:-0.843798 42:-0.2845 43:0.490506 44:-0.638819 45:0.235114 46:0.432366 47:0.0748304 48:-0.588915 49:-0.368708 50:0.0607444 51:-0.325632 52:-0.654357 53:-0.838057 54:0.103487 55:0.295817 56:-0.330867 57:-0.555052 58:-0.172531 59:-0.00958831 60:-0.616937 61:0.0791053 62:-0.440459 63:0.406575 64:-0.883614 65:-0.681102 66:0.0908699 67:-0.0891893 68:0.036718 69:0.325839 70:0.468067 71:0.0761087 72:-0.636337 73:-0.507538 74:-0.360143 75:0.0430503 76:-0.963149 77:-0.940653 78:-0.092783 79:0.163514 80:-0.140231 81:0.103426 82:0.168447 83:-0.420727 84:-0.367191 85:0.00597168 86:0.505819 87:-0.412167 88:-0.904255 89:-0.731397 90:0.228494 91:-0.232293 92:0.35231 93:-0.466614 94:-0.299128 95:-0.0416993 96:-0.743684 97:0.185726 98:0.408187 99:-0.161243 100:-0.639136 101:-0.592 102:0.24613 103:-0.0219781 104:0.257989 105:-0.588726 106:-0.496611 107:0.57126 108:-0.361985 109:-0.503987 110:-0.361576 111:0.0489218 112:-0.615734 113:-0.827957 114:-0.120501 115:0.160312 116:-0.151372 117:-0.423628 118:-0.274912 119:-0.75134 120:0.675355 121:-0.755597 122:0.208715 123:-0.720429 124:-0.530086 125:-0.647969 126:-0.255819 127:-0.266781 128:0.0545013 129:-0.540198 130:-0.395455 131:0.0157163 132:-0.717691 133:-0.543926 134:0.121305 135:-0.590027 136:-0.636782 137:-0.897143 138:0.0207615 139:0.598421 140:-0.339495 141:-0.57388 142:-0.261257 143:0.232325 144:-0.584147 145:-0.478548 146:-0.207633 147:0.0273119 148:-0.440415 149:-0.96 150:-0.45357 151:1 152:-0.908919 153:-0.102225 154:0.252939 155:-0.312301 156:-0.69629 157:0.262162 158:2.6087e-07 159:0.206434 160:-0.634183 161:-0.620339 162:-0.0862442 163:-0.0332746 164:-0.0958646 165:-0.123376 166:0.014132 167:-0.152528 168:-0.594375 169:0.501631 170:-0.131388 171:0.406332 172:-0.787986 173:-0.746324 174:-0.284134 175:-0.505437 176:0.0546266 177:0.00410028 178:0.29286 179:-0.125184 180:-0.787584 181:0.307225 183:0.307225 184:-0.918288 185:-1 186:-0.582663 187:-0.444276 188:-0.152143 189:-0.574089 190:-0.0409842 191:-0.714727 192:-0.952539 193:-0.621504 194:0.714954 195:-0.646522 196:-0.905882 197:-0.836 198:0.472468 199:0.454329 200:-0.458053 201:-0.753727 202:-0.446504 203:0.103137 204:-0.840896 205:-0.0894633 206:-0.0183889 207:0.00260127 208:-0.644578 209:-0.748865 210:0.0959632 211:-0.103345 212:-0.0396802 213:-0.0616587 214:0.159154 215:0.0220361 216:-0.707767 217:-0.297392 218:0.0890532 219:-0.164637 220:-0.944012 221:-0.990536 222:-0.0254792 223:0.446815 224:-0.384355 225:-0.259756 226:-0.00649389 227:-0.333939 228:-0.825316 229:-0.074586 230:-0.232537 231:0.21064 232:-0.835443 233:-0.715611 234:-0.0979674 235:0.544613 236:-0.450105 237:0.394509 238:0.537418 239:0.0608218 240:-0.525485 241:-0.666973 242:0.916095 243:-0.828679 244:-0.950509 245:-0.982906 246:0.0489201 247:0.0989756 248:-0.208716 249:-0.623687 250:-0.399182 251:0.208929 252:-0.80098 253:0.343759 254:0.199726 255:0.0467473 256:-0.90409 257:-0.706395 258:0.150979 259:0.394746 260:-0.378451 261:0.0606124 262:0.295938 263:0.102216 264:-0.735011 265:-0.112066 266:-0.779214 267:0.774307 268:-0.943802 269:-0.888 270:-0.00173917 271:0.43689 272:-0.452697 273:0.847277 274:0.88776 275:-0.225495 276:-0.326382 277:-0.484347 278:0.463668 279:-0.436095 280:-0.701613 281:-0.80593 282:0.26785 283:-0.267576 284:0.15403 285:-0.525928 286:-0.323331 287:-0.035505 288:-0.595975 289:-0.354765 290:0.263949 291:-0.232014 292:-0.988811 293:-0.947137 294:0.450991 295:-0.0820202 296:-0.0848893 297:-0.0441998 298:0.147926 299:0.0463149 300:-0.694436 301:-0.605682 302:0.510604 303:-0.526154 304:-0.764901 305:-0.510815 306:0.105941 307:0.193596 308:-0.129197 309:-0.333963 310:-0.0967827 311:-0.147265 312:-0.8391 313:-0.328304 314:0.488978 315:-0.377169 316:-0.718266 317:-0.951289 318:0.125908 319:0.445654 320:-0.485959 321:-0.375941 322:-0.142376 323:0.389572 324:-0.438617 325:-0.664056 326:0.2585 327:-0.458122 328:-0.957055 329:-0.843478 330:0.164663 331:0.269529 332:-0.248065 333:-0.327474 334:-0.135216 335:-0.482743 336:-0.690819 337:-0.334133 338:0.458956 339:-0.271419 340:-0.786535 341:-0.69962 342:0.154099 343:0.161577 344:-0.329792 345:-0.0646495 346:0.162011 347:0.0296991 348:-0.66173 349:0.191242 350:-0.114727 351:0.113114 352:-0.652568 353:-0.579487 354:-0.226758 355:-0.686277 356:0.741655 357:0.152329 358:0.377405 359:-0.159073 360:-0.551651 361:-0.264877 362:-0.0938928 363:0.0544342 364:-0.953668 365:-0.6826 366:0.271483 367:0.220575 368:0.111578 369:-0.157275 370:0.138789 371:-0.651618 372:-0.780681 373:0.249598 374:-0.308801 375:0.279199 376:-0.937843 377:-0.936552 378:-0.433794 379:0.0786964 380:-0.178953 381:-0.55249 382:-0.0544207 383:0.399445 384:-0.882978 
3.293489267188317 1.407559985174945 0.4682176720535778 3.72058536680928 0.733877398474668 0.6186970443254494 1:-0.506545 2:-0.791455 3:-0.505269 4:-0.960836 5:-0.848193 6:-0.405908 7:-0.099907 8:0.035206 9:-0.675316 10:-0.339864 11:-0.51983 12:-0.821004 13:0.242422 14:-0.402657 15:0.43416 16:-0.37037 17:-0.948119 18:-0.145034 19:0.0871701 20:-0.305916 21:0.125083 22:0.34533 23:-0.356309 24:-0.586317 25:-0.26878 26:0.281614 27:-0.474163 28:-0.406003 29:-0.431894 30:0.3101 31:0.0770287 32:0.117258 33:-0.688333 34:-0.497212 35:0.0440052 36:-0.429052 37:0.148127 38:-0.267883 39:0.274795 40:-0.50541 41:-0.886677 42:0.0185047 43:0.0689295 44:-0.212813 45:0.000271933 46:0.13601 47:0.112571 48:-0.520032 49:-0.255036 50:-0.206369 51:-0.006939 52:-1 53:-0.299595 54:0.158296 55:-0.305696 56:0.104408 57:-0.328175 58:-0.0434767 59:-0.588693 60:-0.00876177 61:-0.568468 62:-0.374148 63:-0.130387 64:-0.225115 65:-0.468504 66:-0.0214184 67:-0.398987 68:0.261893 69:-0.540706 70:-0.27969 71:-0.148398 72:-0.42635 73:0.00697209 74:-0.160836 75:0.283814 76:-0.145729 77:-0.275964 78:-0.0906337 79:-0.0815952 80:0.0519301 81:-0.0581977 82:0.0297787 83:-0.482585 84:-0.106612 85:-0.0733916 86:0.0458829 87:-0.101971 88:-0.957447 89:-0.292196 90:0.217184 91:-0.0971214 92:0.205167 93:-0.598364 94:-0.427069 95:-0.295413 96:-0.313617 97:-0.0073131 98:-0.16315 99:0.235789 100:-0.997459 101:-0.244 102:-0.184587 103:-0.113049 104:0.0509903 105:0.151962 106:0.305413 107:0.353485 108:-0.770675 109:0.392901 110:-0.519907 111:0.847948 112:-0.207262 113:-0.397849 114:-0.0629235 115:0.119448 116:-0.110594 117:0.447905 118:0.473047 119:-0.446772 120:-0.108525 121:-0.374359 122:0.0711463 123:-0.276544 124:-0.492837 125:-0.222437 126:-0.290243 127:-0.282744 128:0.0983466 129:-0.574897 130:-0.423503 131:-0.198861 132:-0.361752 133:-0.621849 134:-0.130481 135:-0.474051 136:-0.308046 137:-0.965714 138:0.00805292 139:0.237573 140:-0.196737 141:-0.473392 142:-0.230791 143:-0.121676 144:-0.432768 145:-0.444451 146:-0.0634437 147:-0.0365607 148:-0.364421 149:-0.876364 150:-0.405163 151:0.316245 152:-0.475349 153:-0.348249 154:-0.135425 155:-0.186708 156:-0.636301 157:0.359459 158:-0.478261 159:0.332439 160:-0.844078 161:0.00677966 162:-0.0942828 163:-0.311357 164:0.220755 165:-0.0972508 166:0.0402387 167:-0.35947 168:-0.733443 169:0.963178 170:-0.715061 171:0.964046 172:-0.275618 173:-0.996324 174:-0.153936 175:0.144127 176:-0.331746 177:0.29162 178:0.521919 179:-0.226568 180:-0.843776 181:0.198261 183:0.198261 184:-0.214008 185:-1 186:-0.467302 187:0.149482 188:-0.456431 189:-0.50873 190:-0.00712922 191:-0.794435 192:-0.969912 193:-0.454762 194:0.377028 195:-0.384807 196:-0.884967 197:-0.828 198:0.360869 199:0.83054 200:-0.697778 201:-0.570076 202:-0.203419 203:-0.0385208 204:-0.881701 205:-0.04666 206:0.23049 207:-0.101322 208:-0.85241 209:-0.951589 210:0.427946 211:0.0260792 212:0.0417293 213:-0.191219 214:0.0350268 215:0.217305 216:-0.783769 217:-0.21693 218:0.286445 219:-0.226754 220:-0.723173 221:-0.0630915 222:-0.435506 223:-0.408494 224:0.231711 225:-0.488303 226:-0.25769 227:0.215771 228:-0.825643 229:0.299638 230:-0.497045 231:0.596343 232:-1 233:-0.795981 234:-0.0334715 235:0.0143846 236:0.176584 237:0.478254 238:0.602305 239:-0.128753 240:-0.552195 241:-0.353557 242:0.255416 243:-0.3 244:-0.44687 245:-1 246:-0.155838 247:-0.388546 248:-0.00489485 249:-0.454331 250:-0.203965 251:-0.236149 252:-0.612448 253:0.210137 254:0.0986063 255:0.0518332 256:-0.619182 257:-0.622093 258:0.224618 259:-0.522485 260:0.541999 261:-0.215739 262:0.0310517 263:-0.243083 264:-0.574809 265:-0.278652 266:-0.10962 267:0.187417 268:-0.279339 269:-0.048 270:0.120983 271:-0.560633 272:0.639102 273:0.374883 274:0.517657 275:-0.0605613 276:-0.631429 277:-0.555709 278:0.696367 279:-0.625202 280:-1 281:-0.469003 282:-0.0135052 283:-0.819938 284:0.647989 285:-0.700261 286:-0.546087 287:0.0980541 288:-0.734792 289:0.511878 290:0.272387 291:0.279495 292:-0.485315 293:-0.418502 294:0.0848919 295:-0.164728 296:-0.412969 297:-0.219292 298:-0.016781 299:0.237813 300:-0.102112 301:-0.159496 302:0.38218 303:-0.217104 304:-0.195364 305:-0.657238 306:-0.104097 307:-0.118327 308:-0.0242641 309:-0.431907 310:-0.204792 311:-0.184335 312:-0.424565 313:-0.216607 314:0.154776 315:-0.111903 316:-0.47678 317:-0.704871 318:-0.0140953 319:-0.330724 320:0.215388 321:-0.381799 322:-0.159666 323:-0.114163 324:-0.414892 325:0.0450428 326:0.0678696 327:0.0396886 328:-0.794479 329:-0.973913 330:-0.138175 331:-0.2684 332:-0.0918661 333:-0.3899 334:-0.207591 335:0.0451978 336:-0.073665 337:-0.0828733 338:0.188126 339:0.0866285 340:-0.868637 341:-0.684411 342:-0.018796 343:-0.43403 344:0.151941 345:-0.0953911 346:0.125932 347:0.250629 348:-0.30165 349:0.265416 350:-0.241439 351:0.228729 352:-0.861027 353:-0.818803 354:-0.227372 355:-0.38996 356:0.541504 357:0.185509 358:0.402531 359:-0.124725 360:-0.646516 361:0.208216 362:-0.224035 363:0.396232 364:-0.235521 365:-0.774379 366:0.114042 367:0.285476 368:0.254549 369:-0.0663493 370:0.222245 371:-0.232909 372:-0.706896 373:0.160805 374:-0.112818 375:0.136811 376:-0.265082 377:-0.456552 378:-0.433794 379:0.230541 380:-0.279134 381:-0.637038 382:-0.14872 383:0.519902 384:-0.89419 
1.172797648575227 0.9154402671871787 0.7100315250264954 2.280413022979624 0.3391926390604179 0.9611796058581596 1:-0.261819 2:-0.6539 3:-0.260454 4:-0.681462 5:-0.995181 6:0.0571794 7:0.268379 8:-0.172759 9:-0.22873 10:0.126195 11:-0.608207 12:-0.878495 13:-0.039544 14:-0.404342 15:0.225595 16:-0.735043 17:-0.670558 18:-0.269272 19:-0.0507003 20:-0.23004 21:-0.0793651 22:0.124655 23:-0.56825 24:-0.376643 25:-0.325325 26:0.205113 27:-0.444663 28:-0.968404 29:-0.787375 30:0.351298 31:-0.289851 32:0.406158 33:-0.652944 34:-0.39348 35:-0.243656 36:-0.186692 37:-0.161521 38:-0.179276 39:-0.0524677 40:-0.965997 41:-0.546708 42:-0.121449 43:-0.643181 44:0.285197 45:-0.255535 46:0.024092 47:0.142428 48:-0.60252 49:-0.157938 50:0.422688 51:-0.538873 52:-0.819793 53:-0.688259 54:0.151085 55:-0.255387 56:0.04305 57:-0.549019 58:-0.289892 59:0.349785 60:-0.855401 61:-0.199424 62:-0.120193 63:-0.0625104 64:-0.402757 65:-0.255906 66:-0.0860469 67:0.126066 68:-0.31493 69:-0.286499 70:-0.0472778 71:0.478597 72:-0.546755 73:-0.436322 74:-0.116875 75:-0.132371 76:-0.360134 77:-0.676558 78:-0.149235 79:-0.156184 80:0.0467876 81:0.00944589 82:0.0903281 83:-0.40544 84:-0.489561 85:-0.114316 86:-0.266744 87:0.118007 88:-0.590426 89:-0.833031 90:-0.291371 91:0.2385 92:-0.360327 93:0.061707 94:0.299878 95:-0.271784 96:-0.704936 97:-0.570436 98:0.176507 99:-0.472837 100:-0.768742 101:-0.96 102:-0.462673 103:-0.0170481 104:-0.330112 105:-0.447928 106:-0.323618 107:0.5667 108:-0.808974 109:-0.593901 110:-0.622198 111:0.226865 112:-0.966717 113:-0.708141 114:-0.458899 115:-0.0534091 116:-0.279414 117:0.0208842 118:0.143247 119:-0.348402 120:-0.347146 121:-0.555289 122:-0.110451 123:-0.275134 124:-0.415473 125:-0.798839 126:-0.363616 127:0.0189272 128:-0.250824 129:-0.251539 130:-0.0486327 131:0.127192 132:-0.620896 133:-0.523331 134:-0.523398 135:-0.14713 136:-0.54023 137:-0.459048 138:0.0161322 139:-0.311195 140:0.357282 141:-0.135495 142:0.155583 143:-0.165979 144:-0.441797 145:-0.717199 146:-0.64906 147:0.103554 148:-0.288428 149:-0.716364 150:-0.693695 151:0.209658 152:-0.593245 153:-0.0709849 154:0.11025 155:-0.32498 156:-0.697609 157:0.416216 158:-0.73913 159:0.404826 160:-0.49925 161:-0.60678 162:0.00695973 163:-0.226051 164:0.116961 165:0.35423 166:0.345054 167:-0.293242 168:-0.72679 169:0.527462 170:0.537673 171:0.221069 172:-0.823322 173:-0.977941 174:-0.131814 175:-0.253015 176:0.0353872 177:0.0133396 178:0.273585 179:-0.331448 180:-0.914738 181:0.389826 183:0.389826 184:-0.801556 185:-1 186:-0.366348 187:-0.15147 188:-0.145729 189:-0.302642 190:0.179735 191:-0.792761 192:-0.96966 193:-0.284179 194:0.242265 195:-0.212234 196:-0.584314 197:-0.772 198:0.493343 199:0.351512 200:-0.155466 201:-0.233478 202:0.142144 203:0.0502372 204:-0.859536 205:0.240587 206:0.310535 207:0.0365124 208:-0.608434 209:-0.512859 210:-0.0940289 211:0.21292 212:-0.448908 213:-0.176634 214:0.0484437 215:0.46908 216:-0.306435 217:-0.273803 218:0.45202 219:-0.353746 220:-0.520995 221:-0.466877 222:-0.238858 223:-0.457869 224:0.359375 225:-0.771903 226:-0.619524 227:-0.00173641 228:-0.553053 229:-0.54625 230:0.360543 231:-0.431996 232:-0.901899 233:-0.511592 234:-0.294451 235:0.0988836 236:-0.047763 237:0.0135822 238:0.200252 239:-0.207471 240:-0.839556 241:0.0892273 242:0.843276 243:-0.411378 244:-0.845706 245:-0.425641 246:0.208 247:-0.461578 248:0.360751 249:-0.561218 250:-0.330832 251:0.927318 252:-0.140376 253:0.832835 254:-0.31876 255:0.620278 256:-0.461213 257:-0.991279 258:0.535379 259:-0.177969 260:0.214225 261:-0.0201185 262:0.21714 263:0.226133 264:-0.00333024 265:-0.576917 266:-0.514627 267:0.278056 268:-0.494215 269:-0.712 270:-0.227598 271:-0.256645 272:0.127647 273:0.10224 274:0.293316 275:-0.464709 276:0.0619823 277:-0.297307 278:0.00511303 279:-0.0363828 280:-0.774194 281:-0.638814 282:-0.405204 283:-0.349909 284:-0.0633073 285:-0.00185499 286:0.212603 287:-0.170424 288:-0.753241 289:-0.485727 290:0.443725 291:-0.431516 292:-0.974825 293:-0.597651 294:-0.260101 295:-0.447742 296:0.194119 297:-0.362837 298:-0.177903 299:0.00336688 300:-0.466451 301:-0.270854 302:-0.452503 303:0.218006 304:-0.827815 305:-0.687188 306:-0.282977 307:-0.148877 308:0.0933719 309:-0.0514637 310:0.176405 311:-0.821616 312:0.677972 313:-0.573037 314:0.205487 315:-0.37505 316:-0.566563 317:-0.730659 318:-0.0934462 319:0.220423 320:-0.490475 321:-0.344495 322:-0.110712 323:-0.207457 324:-0.747678 325:-0.275428 326:-0.142046 327:-0.00332256 328:-0.441718 329:-0.57971 330:0.147123 331:0.127868 332:-0.292037 333:0.114254 334:0.294622 335:-0.530604 336:-0.450315 337:0.199654 338:0.300658 339:0.191406 340:-0.724138 341:-0.642586 342:0.57907 343:-0.0220718 344:-0.183493 345:0.111632 346:0.319977 347:-0.0792615 348:-0.353377 349:0.541555 350:-0.265411 351:0.397398 352:-0.513595 353:-0.425641 354:-0.166664 355:-0.494007 356:0.634549 357:0.605994 358:0.728049 359:-0.102094 360:-0.54225 361:-0.113444 362:0.223443 363:-0.0468552 364:-0.474903 365:-0.678776 366:-0.194952 367:0.117232 368:0.212919 369:-0.224888 370:0.0779738 371:-0.13838 372:-0.853389 373:0.145634 374:-0.211239 375:0.178437 376:-0.711152 377:-0.754483 378:-0.433794 379:0.0885847 380:-0.115514 381:-0.437328 382:0.0604224 383:0.43016 384:-0.914361 
2.283143482924269 1.231588865468678 0.4857016910730828 3.52372121689486 2.765988881442048 2.780860787702696 1:-0.598604 2:-0.77907 3:-0.597578 4:-0.791123 5:-0.995181 6:-0.0468164 7:-0.00237779 8:0.0670485 9:-0.624396 10:-0.303534 11:-0.822601 12:-0.951273 13:-0.133671 14:-0.0786699 15:-0.109627 16:-0.666667 17:-0.776913 18:-0.345587 19:0.089345 20:-0.383648 21:-0.172395 22:0.0554862 23:-0.246455 24:-0.727633 25:0.181299 26:0.284141 27:-0.172317 28:-0.889415 29:-0.292359 30:0.231466 31:-0.199533 32:0.289468 33:-0.657432 34:-0.418324 35:-0.178435 36:0.168366 37:-0.464713 38:-0.0221754 39:-0.428984 40:-0.956723 41:-0.359877 42:-0.210889 43:-0.624246 44:0.262505 45:-0.481503 46:-0.172412 47:0.0587582 48:-0.808148 49:-0.168783 50:0.308261 51:-0.438028 52:-0.296898 53:-0.777328 54:0.0417319 55:-0.202768 56:-0.0860075 57:-0.561727 58:-0.301995 59:0.761877 60:-0.695369 61:-0.536226 62:-0.676492 63:0.140434 64:-0.274119 65:-0.11811 66:-0.391863 67:-0.00320986 68:-0.53511 69:-0.106183 70:0.107553 71:-0.120216 72:-0.40085 73:-0.865463 74:0.0639714 75:-0.669113 76:-0.9933 77:-0.578635 78:-0.386285 79:0.113226 80:-0.374676 81:-0.527913 82:-0.383785 83:-0.454751 84:-0.589337 85:-0.306292 86:0.101727 87:-0.309754 88:-0.5 89:-0.807623 90:-0.307026 91:0.46166 92:-0.60218 93:-0.448815 94:0.0322417 95:0.0856498 96:-0.907529 97:-0.826342 98:-0.376349 99:-0.13683 100:-0.949174 101:-0.512 102:-0.711025 103:-0.255863 104:-0.256713 105:-0.427517 106:-0.235084 107:0.462541 108:-0.627183 109:-0.812969 110:-0.618176 111:0.0640382 112:-0.555219 113:-0.815668 114:-0.666595 115:0.384268 116:-0.813844 117:0.357316 118:0.466188 119:-0.195497 120:-0.772948 121:-0.727062 122:0.0361896 123:-0.547852 124:-0.659026 125:-0.199226 126:-0.578801 127:-0.0724559 128:-0.344718 129:-0.220473 130:-0.0344166 131:0.139918 132:-0.862567 133:-0.135405 134:-0.179329 135:-0.119012 136:-0.875862 137:-0.481905 138:-0.132637 139:-0.243405 140:0.219681 141:-0.310824 142:-0.0110237 143:0.445609 144:-0.301106 145:-0.72362 146:-0.12983 147:-0.241262 148:-0.606218 149:-0.96 150:-0.588622 151:0.295792 152:-0.58453 153:-0.233006 154:-0.0320877 155:-0.178836 156:-0.921808 157:0.218919 158:-0.565217 159:0.198391 160:-0.868066 161:-0.491525 162:0.0242279 163:-0.260254 164:0.171536 165:0.205449 166:0.247947 167:-0.298276 168:-0.729209 169:0.643071 170:0.870079 171:0.213122 172:-0.607774 173:-0.272059 174:0.323293 175:-0.392692 176:0.446065 177:0.237649 178:0.484342 179:-0.564542 180:-0.960771 181:0.472222 183:0.472222 184:-0.770428 185:-1 186:-0.06235 187:-0.392208 188:0.25665 189:-0.124069 190:0.363867 191:-0.872737 192:-0.980339 193:-0.782136 194:0.443316 195:-0.629222 196:-0.788235 197:-0.68 198:0.521327 199:0.555406 200:-0.338338 201:-0.652438 202:-0.304118 203:-0.240734 204:-0.928897 205:-0.158671 206:-0.112695 207:0.00879725 208:-0.506024 209:-0.903177 210:0.0664719 211:0.182035 212:-0.369571 213:-0.583689 214:-0.392974 215:-0.214373 216:0.147183 217:-0.481349 218:0.606538 219:-0.565273 220:-0.40902 221:-0.353312 222:-0.411525 223:-0.363638 224:0.200001 225:-0.643525 226:-0.445207 227:0.108001 228:-0.824804 229:-0.721191 230:-0.000568372 231:-0.320168 232:-0.306962 233:-0.703246 234:-0.244433 235:0.268956 236:-0.289118 237:-0.44442 238:-0.261502 239:-0.511034 240:-0.30012 241:-0.335965 242:0.48531 243:-0.420953 244:-0.912664 245:-0.186325 246:-0.101 247:-0.498287 248:0.302643 249:-0.578336 250:-0.351688 251:0.700088 252:-0.410038 253:0.780641 254:-0.540591 255:0.743767 256:-0.365303 257:-0.994186 258:-0.17535 259:-0.170049 260:-0.0777882 261:-0.0586972 262:0.183242 263:-0.18834 264:0.0651785 265:-0.399735 266:0.150424 267:-0.0778623 268:-0.441322 269:-0.612 270:-0.342205 271:-0.340108 272:0.157679 273:-0.198155 274:0.0158782 275:-0.151072 276:-0.210413 277:-0.446337 278:0.428371 279:-0.391561 280:-0.518817 281:-0.74124 282:-0.235104 283:-0.507267 284:0.121851 285:-0.684082 286:-0.519304 287:0.0391158 288:-0.463438 289:-0.280475 290:0.34669 291:-0.243528 292:-0.798601 293:-0.715125 294:0.019367 295:-0.101174 296:-0.375898 297:-0.197697 298:0.00323658 299:0.0835662 300:-0.606611 301:-0.302826 302:0.559136 303:-0.396582 304:-0.417219 305:-0.603993 306:-0.313559 307:-0.0446451 308:-0.106165 309:-0.34207 310:-0.107493 311:0.176458 312:-0.643768 313:-0.531654 314:0.181802 315:-0.334277 316:-0.510836 317:-0.498567 318:-0.329888 319:-0.10191 320:-0.204606 321:-0.215578 322:0.0146018 323:0.0612635 324:-0.791969 325:-0.188953 326:0.114518 327:-0.114592 328:-0.579755 329:-0.657971 330:0.00960139 331:-0.0991721 332:-0.149197 333:-0.158378 334:0.0336469 335:-0.376568 336:-0.504492 337:-0.752075 338:0.256329 339:-0.400597 340:-0.727422 341:-0.634981 342:0.292763 343:-0.130269 344:-0.19183 345:-0.344898 346:-0.117429 347:-0.523492 348:-0.49844 349:0.131367 350:-0.0513701 351:0.0425429 352:-0.900302 353:-0.302564 354:-0.0836625 355:-0.383023 356:0.555073 357:0.1468 358:0.369933 359:-0.262214 360:-0.520634 361:0.0869016 362:0.0185611 363:0.185791 364:-0.301158 365:-0.502868 366:0.0316417 367:0.179763 368:0.26461 369:-0.0742705 370:0.215666 371:-0.358748 372:-0.78452 373:0.347702 374:-0.416111 375:0.381907 376:-0.73309 377:-0.812414 378:-0.433794 379:0.0632419 380:-0.0106078 381:-0.178702 382:0.281306 383:0.418771 384:-0.923195 
1.049367810269123 2.31804798716715 0.846009758983774 7.14435072672607 0.3247666484980239 1.66534699265516 1:-0.14866 2:-0.726616 3:-0.146794 4:-0.872063 5:-0.761446 6:0.0783836 7:0.222588 8:-0.124292 9:-0.117897 10:0.222738 11:-0.456936 12:-0.800781 13:0.0749045 14:-0.339213 15:0.257785 16:-0.552707 17:-0.51751 18:-0.152891 19:-0.0765282 20:-0.145766 21:0.0232668 22:0.219477 23:-0.447108 24:-0.504664 25:-0.509983 26:0.691651 27:-1 28:-0.763033 29:-1 30:0.240847 31:0.00262999 32:0.139498 33:-0.925758 34:-0.859639 35:0.265039 36:-0.802982 37:-0.179086 38:-0.223759 39:-0.0315636 40:-0.913447 41:-0.601838 42:0.230046 43:0.077659 44:-0.000760584 45:-0.0155705 46:0.110036 47:-0.373889 48:-0.521812 49:-0.308168 50:-0.189956 51:-0.0541741 52:-0.77548 53:-0.493927 54:0.126065 55:-0.41331 56:0.16023 57:-0.574197 58:-0.301995 59:-0.526995 60:0.364032 61:-0.536803 62:-0.363492 63:-0.115476 64:-0.295559 65:-0.838583 66:-0.292844 67:-0.279698 68:-0.193056 69:-0.295781 70:-0.0760299 71:0.173602 72:-0.664855 73:-0.633964 74:-0.190147 75:-0.22804 76:-0.557789 77:-0.52819 78:-0.411702 79:-0.119838 80:-0.175897 81:-0.0434547 82:0.0441573 83:-0.2433 84:-0.648044 85:-0.220738 86:0.370038 87:-0.463176 88:-0.960106 89:-0.68784 90:0.157396 91:-0.359254 92:0.400733 93:-0.698028 94:-0.555589 95:-0.0676907 96:-0.482104 97:-0.302181 98:0.0562366 99:-0.173913 100:-1 101:-0.18 102:-0.290333 103:-0.287358 104:0.115552 105:-0.145742 106:0.0717009 107:0.348864 108:-0.848108 109:-0.375436 110:-0.320735 111:0.104151 112:-0.694402 113:-0.738863 114:-0.264691 115:-0.310191 116:0.102029 117:0.241726 118:0.397209 119:-0.275291 120:-0.649896 121:-0.487902 122:-0.632456 123:0.230833 124:-0.988539 125:-0.667311 126:-0.315673 127:-0.377291 128:0.13592 129:-0.257536 130:-0.0533114 131:-0.563579 132:0.372637 133:-0.289792 134:0.157829 135:-0.445852 136:-0.549425 137:-0.824762 138:0.085858 139:0.102545 140:0.0520779 141:-0.544555 142:-0.346913 143:0.275963 144:-0.478339 145:-0.62798 146:0.306496 147:-0.441245 148:-1 149:-0.556364 150:-0.323331 151:-0.162085 152:0.0869885 153:-0.734613 154:-0.490852 155:-0.101313 156:-0.715433 157:0.0432431 158:-0.73913 159:0.0348524 160:-0.943028 161:-0.735593 162:-0.0889806 163:-0.426127 164:0.310515 165:-0.103172 166:0.0531048 167:-0.390007 168:-0.772968 169:0.767929 170:0.341885 171:0.478229 172:-0.632509 173:-0.371324 174:-0.0562292 175:0.333922 176:-0.353515 177:0.0725673 178:0.380465 179:-0.357548 180:-0.915957 181:0.513963 183:0.513963 184:-0.587549 185:-1 186:-0.343453 187:0.403817 188:-0.536121 189:-0.49477 190:0.045491 191:-0.827888 192:-0.971967 193:-0.276453 194:-0.179415 195:-0.0169258 196:-0.869281 197:-0.804 198:0.459512 199:0.46995 200:-0.238686 201:-0.219471 202:0.154346 203:-0.287235 204:-0.728398 205:-0.487342 206:0.060695 207:-0.288099 208:-0.493976 209:-0.842663 210:-0.526567 211:0.0984382 212:-0.382734 213:-0.217 214:0.00867649 215:-0.17499 216:-0.932575 217:-0.64158 218:0.719208 219:-0.724868 220:-0.542768 221:-0.810726 222:0.335568 223:-0.770313 224:0.872751 225:-0.802504 226:-0.662011 227:0.225747 228:-0.860532 229:0.907029 230:0.122706 231:0.590159 232:-0.927215 233:-0.962906 234:-0.0802118 235:0.0762151 236:0.0374094 237:0.166631 238:0.338697 239:0.399215 240:0.0673096 241:-0.223311 242:0.355494 243:-0.291664 244:-0.609898 245:-0.558974 246:-0.0919819 247:-0.288511 248:0.00750955 249:-0.483896 250:-0.237195 251:0.100956 252:-0.345575 253:1 254:0.183397 255:0.363588 256:-0.396333 257:-0.898256 258:0.478855 259:-0.0667869 260:-0.0151849 261:0.025032 262:0.26004 263:0.1331 264:-0.398949 265:-0.162519 266:-0.409102 267:0.477485 268:-0.6 269:-0.2 270:0.207303 271:-0.169169 272:0.0868096 273:0.266305 274:0.435033 275:-0.409624 276:-0.207193 277:-0.506181 278:0.503026 279:-0.473773 280:-0.639785 281:-0.908356 282:0.0419338 283:-0.582459 284:0.321038 285:-0.437519 286:-0.227513 287:0.150322 288:-0.839443 289:-0.285097 290:0.400296 291:-0.282469 292:-0.395804 293:-0.929515 294:-0.123084 295:-0.0282378 296:-0.51586 297:-0.186787 298:0.0174506 299:0.155214 300:-0.678459 301:0.139584 302:-0.0687885 303:0.205701 304:-0.264901 305:-0.657238 306:-0.127976 307:0.195624 308:-0.401147 309:0.273479 310:0.466049 311:0.0194291 312:-0.306827 313:-0.339969 314:-0.690569 315:0.292571 316:-0.315789 317:-0.756447 318:0.0598889 319:-0.0675221 320:-0.109874 321:0.0296817 322:0.246215 323:-0.469798 324:-0.0442555 325:-0.379079 326:0.233301 327:-0.289659 328:-0.521472 329:-0.431884 330:0.0885224 331:-0.395108 332:0.300207 333:-0.344879 334:-0.163323 335:-0.202949 336:-0.497005 337:-0.484794 338:0.670623 339:-0.521297 340:-0.399015 341:-0.494297 342:-0.423054 343:-0.154993 344:-0.295305 345:-0.376221 346:-0.151952 347:0.519178 348:-0.618747 349:0.00446777 350:0.0804789 351:-0.105605 352:-0.960725 353:-0.921368 354:-0.189267 355:-0.510655 356:0.674439 357:-0.00938603 358:0.236698 359:-0.189204 360:-0.739549 361:0.598697 362:-0.265255 363:0.639494 364:-0.6139 365:-0.147228 366:-0.616578 367:0.334004 368:-0.13881 369:0.479015 370:0.649927 371:-0.194141 372:-0.834079 373:0.481953 374:-0.506669 375:0.494311 376:-0.6234 377:-0.702069 378:-0.433794 379:0.124312 380:-0.139941 381:-0.276706 382:0.201931 383:0.404513 384:-0.924687 
1.85101077495433 6.268464421103149 2.303439279073142 6.470527052005289 1.138877695290338 4.56876636219454 1:0.310904 2:-0.614267 3:0.313429 4:-0.558747 5:-1 6:0.272128 7:0.952359 8:-0.839223 9:0.541116 10:0.871082 11:-0.40487 12:-0.77523 13:-0.0664591 14:-0.301026 15:0.121443 16:-0.444444 17:-0.548638 18:-0.0987652 19:-0.243628 20:-0.00198207 21:-0.151659 22:0.055839 23:-0.668628 24:0.22028 25:-0.28733 26:0.20589 27:-0.419682 28:-0.766193 29:-0.491694 30:0.356542 31:-0.425575 32:0.524818 33:-0.550833 34:-0.196989 35:-0.282762 36:-0.568152 37:-0.554883 38:0.163724 39:-0.651916 40:-0.650696 41:-0.525268 42:0.0546636 43:-0.333452 44:0.204876 45:-0.642678 46:-0.573024 47:-0.454407 48:-0.601228 49:-0.279759 50:0.463592 51:-0.650244 52:-0.604136 53:-0.761134 54:0.407635 55:-0.508459 56:0.445165 57:-0.258028 58:0.0622914 59:0.075793 60:-0.951591 61:-0.439721 62:-0.11852 63:-0.243046 64:-0.92343 65:-0.566929 66:0.283144 67:-0.385905 68:0.46665 69:-0.127514 70:0.10591 71:-0.271058 72:-0.637394 73:-0.384166 74:-0.212049 75:0.00370404 76:-0.60134 77:-0.688427 78:0.312118 79:-0.191608 80:0.439947 81:0.200024 82:0.245203 83:-0.946288 84:-0.19879 85:0.471631 86:0.194686 87:0.16195 88:-0.414894 89:-0.488203 90:0.565319 91:-0.538284 92:0.835008 93:-0.00116903 94:0.205485 95:-0.326366 96:-0.683467 97:0.0991165 98:-0.287383 99:0.425582 100:-0.532402 101:-0.616 102:0.429048 103:-0.295821 104:0.711504 105:0.27575 106:0.456807 107:-0.359389 108:-0.373399 109:-0.463507 110:0.0932208 111:-0.346134 112:-0.431165 113:-0.674347 114:0.00582067 115:-0.0954588 116:0.138046 117:-0.17992 118:-0.0234859 119:-0.337723 120:-0.700757 121:-0.622303 122:0.135138 123:-0.543346 124:-0.358166 125:-0.466151 126:0.023811 127:-0.438272 128:0.433197 129:-0.330486 130:-0.108023 131:-0.264639 132:-0.709156 133:-0.349017 134:0.174041 135:-0.495912 136:-0.602299 137:-0.550476 138:0.405 139:0.0252217 140:0.38815 141:-0.472858 142:-0.264356 143:-0.0935894 144:-0.560277 145:-0.825316 146:-0.283193 147:-0.231463 148:-0.837651 149:-0.498182 150:-0.411504 151:-0.302485 152:0.128031 153:-0.263133 154:0.0713524 155:-0.569479 156:-0.694333 157:0.218919 158:-0.913043 159:0.219839 160:-0.484258 161:-0.881356 162:-0.533518 163:0.244943 164:-0.679547 165:-0.314371 166:-0.0266773 167:0.0575522 168:-0.407148 169:0.636744 170:0.656822 171:0.273733 172:-0.487633 173:-0.823529 174:-0.229015 175:0.207692 176:-0.358188 177:-0.101172 178:0.197441 179:-0.0416268 180:-0.701534 181:0.878263 183:0.878263 184:-0.669261 185:-1 186:-0.52271 187:0.160897 188:-0.465268 189:-0.380426 190:0.109596 191:-0.690677 192:-0.940825 193:-0.24455 194:-0.172529 195:0.000871695 196:-0.576471 197:-0.312 198:0.504856 199:0.35855 200:-0.0906856 201:-0.3365 202:0.0466534 203:-0.303953 204:-0.645987 205:-0.482001 206:-0.00157093 207:-0.252048 208:-0.445783 209:-0.503782 210:0.0420011 211:0.209281 212:-0.415419 213:-0.703637 214:-0.545088 215:-0.218719 216:0.181177 217:-0.177403 218:0.0909543 219:-0.0934505 220:-0.387247 221:-0.334385 222:-0.0495634 223:-0.247546 224:0.15107 225:-0.428536 226:-0.189918 227:-0.126801 228:-0.517639 229:-0.433917 230:0.19995 231:-0.267287 232:-0.598101 233:-0.632148 234:0.157997 235:0.223011 236:-0.106991 237:-0.541188 238:-0.372828 239:-0.178138 240:-0.313817 241:-0.387184 242:0.243761 243:-0.310154 244:-0.63901 245:-0.538462 246:0.0554125 247:-0.315891 248:0.0957985 249:-0.48053 250:-0.234133 251:0.0349334 252:-0.383311 253:0.970295 254:-0.368901 255:0.717778 256:-0.686883 257:-0.656977 258:0.0438634 259:-0.404132 260:0.346964 261:-0.113001 262:0.129882 263:-0.730797 264:0.380113 265:-0.298197 266:-0.169812 267:0.217307 268:-0.666116 269:-0.52 270:0.232562 271:-0.233015 272:0.202123 273:0.0667104 274:0.263249 275:-0.0788438 276:-0.129871 277:-0.535162 278:0.280484 279:-0.349608 280:-0.712366 281:-0.746631 282:0.238613 283:-0.4869 284:0.245047 285:-0.40895 286:-0.193982 287:-0.0974909 288:-0.649815 289:0.366863 290:0.0291249 291:0.357149 292:-0.616783 293:-0.585903 294:0.228612 295:-0.181797 296:-0.143089 297:-0.012379 298:0.177919 299:0.0215054 300:0.496165 301:-0.669127 302:0.781107 303:-0.719175 304:-0.639073 305:-0.374376 306:0.300336 307:-0.067359 308:0.109814 309:-0.680017 310:-0.502664 311:0.0409953 312:-0.726758 313:-0.536867 314:0.219618 315:-0.359417 316:-0.678019 317:-0.60745 318:0.26551 319:-0.130225 320:0.0590561 321:-0.627299 322:-0.442001 323:-0.220141 324:-0.253671 325:-0.116881 326:-0.401936 327:0.241521 328:-0.634969 329:-0.649275 330:0.0389296 331:-0.353622 332:0.235511 333:-0.207074 334:-0.0202824 335:-0.573963 336:0.517483 337:-0.303956 338:0.172256 339:-0.0469112 340:-0.714286 341:-0.285171 342:0.116884 343:-0.0908236 344:-0.248791 345:-0.341169 346:-0.113164 347:-0.30684 348:0.00352949 349:0.114387 350:0.911815 351:-0.530029 352:-0.501511 353:-0.552137 354:-0.217816 355:-0.439716 356:0.558651 357:-0.800605 358:-0.650261 359:0.95405 360:1 361:0.517956 362:0.0487893 363:0.409882 364:-0.629344 365:-0.441683 366:0.7413 367:0.732282 368:-0.350327 369:-0.135751 370:0.157792 371:-0.197377 372:-0.602342 373:0.889324 374:-0.779575 375:0.83445 376:-0.696527 377:-0.757241 378:0.102722 379:0.400434 380:-0.50166 381:-0.221051 382:0.246682 383:0.474419 384:-0.877734 
0.1694410983703706 0 0 0 0.1870485450505031 0.4941006483752259 1:-0.484117 2:-0.670779 3:-0.483197 4:-0.976501 5:-0.626506 6:-0.278029 7:-0.960516 8:0.645693 9:-0.760617 10:-0.243054 11:-0.666746 12:-0.886727 13:0.185827 14:0.565176 15:-0.39592 16:-0.626781 17:-0.966278 18:0.291503 19:0.890585 20:-0.290682 21:-0.740307 22:-0.360978 23:-0.172866 24:-0.561489 25:0.0614953 26:0.425877 27:-0.378692 28:-0.563981 29:-0.770764 30:0.432762 31:0.533868 32:-0.00595554 33:-0.223573 34:0.0891679 35:0.243611 36:-0.751723 37:0.0943665 38:-0.020948 39:0.0333807 40:-0.601236 41:-0.696784 42:0.250719 43:0.547419 44:-0.216502 45:0.11342 46:0.331956 47:0.112393 48:-0.498854 49:0.015351 50:0.34085 51:-0.358263 52:-0.55096 53:-0.688259 54:0.36885 55:0.0524659 56:0.0249646 57:-0.32849 58:-0.0143326 59:0.170444 60:-0.835246 61:-0.432969 62:-0.400856 63:-0.0075596 64:-0.727412 65:-0.866142 66:-0.248054 67:1 68:-0.93884 69:0.415727 70:0.766979 71:0.163067 72:-0.942587 73:-0.325783 74:0.247013 75:-0.391391 76:-0.701843 77:-0.605341 78:0.115174 79:0.298964 80:-0.0590927 81:-0.0366935 82:0.0805927 83:0.0139287 84:-0.899671 85:-0.142706 86:0.120693 87:-0.210099 88:-0.585106 89:-0.69873 90:-0.138708 91:-0.0898972 92:0.00551925 93:-0.256411 94:-0.0774271 95:0.323505 96:-0.562964 97:-0.473696 98:0.40517 99:-0.618157 100:-0.603558 101:-0.772 102:0.0537667 103:-0.0990357 104:0.156906 105:-0.528207 106:-0.416391 107:0.125135 108:-0.755712 109:-0.834855 110:0.0322741 111:-0.558902 112:-0.524962 113:-0.615975 114:-0.3813 115:0.309971 116:-0.444592 117:-0.428879 118:-0.261637 119:-0.172936 120:-0.566577 121:-0.460976 122:0.193743 123:-0.455854 124:-0.661891 125:-0.961315 126:-0.0814975 127:0.740772 128:-0.463164 129:-0.579635 130:-0.0704391 131:0.00941141 132:-0.703594 133:-0.608367 134:0.0645202 135:-0.594945 136:-0.747126 137:-0.977143 138:0.0465437 139:0.621728 140:-0.316372 141:-0.556636 142:-0.243793 143:-0.0521818 144:-0.577741 145:-0.664905 146:-0.3951 147:-0.0158411 148:-0.599309 149:-0.785455 150:-0.607897 151:0.165993 152:-0.487177 153:-0.349131 154:-0.15068 155:-0.240269 156:-0.395133 157:0.194595 158:-0.869565 159:0.193029 160:-0.94003 161:-0.637288 162:-0.558483 163:-0.717092 164:0.23433 165:-0.612099 166:-0.33676 167:0.164174 168:-0.209612 169:0.567558 170:0.347513 171:0.312541 172:-0.473498 173:-0.985294 174:0.382449 175:0.872249 176:-0.259897 177:-0.0546921 178:0.372718 179:-0.726088 180:-0.943446 181:0.916667 183:0.916667 184:-0.540856 185:-1 186:-0.0227817 187:0.846165 188:-0.46706 189:-0.312326 190:0.253585 191:-0.875338 192:-0.973362 193:-0.638347 194:0.540354 195:-0.578785 196:-0.971242 197:-0.96 198:0.46625 199:0.13607 200:-0.156182 201:-0.679488 202:-0.33883 203:0.0759712 204:-0.858047 205:-0.529679 206:0.587094 207:-0.591111 208:-0.774096 209:-0.782148 210:-0.217771 211:0.0612787 212:-0.304013 213:-0.68274 214:-0.517471 215:-0.129787 216:-0.790515 217:-0.135626 218:0.340903 219:-0.2083 220:-0.785381 221:-0.794953 222:0.119339 223:0.259556 224:-0.156978 225:-0.0973209 226:0.147322 227:0.422986 228:-0.881192 229:-0.161566 230:0.336425 231:-0.184836 232:-0.677215 233:-0.727975 234:-0.0482131 235:0.275745 236:-0.154251 237:0.282852 238:0.440189 239:0.0556171 240:-0.81378 241:-0.454527 242:0.605782 243:-0.547908 244:-0.755459 245:-0.77094 246:0.706028 247:-0.162482 248:0.246562 249:-0.277812 250:-0.0178275 251:0.0810739 252:-0.851497 253:0.116157 254:-0.00458974 255:0.0767849 256:-0.757405 257:-0.65407 258:0.434025 259:0.44177 260:-0.295373 261:0.24703 262:0.45227 263:-0.311378 264:-0.796172 265:-0.539229 266:0.221468 267:-0.220834 268:-0.573554 269:-0.972 270:0.362912 271:0.0978437 272:0.0533939 273:0.0368346 274:0.2406 275:-0.223896 276:-0.522805 277:-0.745534 278:0.205941 279:-0.425012 280:-0.817204 281:-0.681941 282:0.348552 283:0.186321 284:-0.247072 285:-0.330407 286:-0.0952083 287:-0.313751 288:-0.710231 289:-0.612971 290:0.432478 291:-0.499863 292:-0.608392 293:-0.832599 294:0.426865 295:0.335064 296:-0.569107 297:-0.471255 298:-0.273967 299:-0.157778 300:-0.59053 301:-0.178462 302:0.850286 303:-0.503667 304:-0.576159 305:-0.97005 306:-0.00318126 307:0.651661 308:-0.595456 309:-0.664734 310:-0.464639 311:0.586576 312:-0.185307 313:-0.555843 314:0.535992 315:-0.553566 316:-0.882353 317:-0.853868 318:0.103341 319:0.358958 320:-0.365228 321:-0.467678 322:-0.246051 323:0.192869 324:-0.752144 325:-0.112327 326:0.109258 327:-0.070226 328:-0.800613 329:-0.849275 330:0.436381 331:-0.0286537 332:0.153407 333:-0.0425206 334:0.143045 335:-0.231478 336:-0.563804 337:-0.558234 338:0.794584 339:-0.657942 340:-0.786535 341:-0.790875 342:0.422493 343:0.148062 344:-0.216372 345:-0.591132 346:-0.394183 347:0.446117 348:-0.46497 349:0.101877 350:0.0410957 351:-0.0280282 352:-0.957704 353:-0.928205 354:-0.180927 355:-0.637789 356:0.699554 357:-0.171114 358:0.0879582 359:-0.195898 360:-0.381207 361:0.37976 362:-0.340713 363:0.56095 364:-0.687259 365:-0.586998 366:0.498819 367:-0.180391 368:0.538092 369:0.218981 370:0.460146 371:-0.249981 372:-0.752858 373:0.927083 374:-0.90625 375:0.916667 376:-0.575868 377:-0.668966 378:-0.433794 379:-0.292773 380:0.267378 381:0.0157616 382:0.426491 383:0.521742 384:-0.909132 
0.361533228947785 1.554989692723336 0 0.5667258464505607 0.1586584150600617 1.833140084697416 1:-0.84186 2:-0.828103 3:-0.841218 4:-0.968668 5:-0.578313 6:-0.62962 7:-0.219935 8:-0.146867 9:-0.899094 10:-0.714924 11:-0.66046 12:-0.887264 13:0.313778 14:0.437063 15:-0.196352 16:-0.564103 17:-0.738003 18:0.37215 19:0.187481 20:0.061686 21:-0.520011 22:-0.314261 23:-0.0450563 24:-0.587651 25:0.21682 26:-0.0236445 27:0.124065 28:-0.478673 29:-0.960133 30:0.252049 31:0.98356 32:-0.407684 33:0.144147 34:0.599387 35:0.15603 36:-0.921331 37:-0.288076 38:-0.0499672 39:-0.260438 40:-0.715611 41:-0.865237 42:-0.154579 43:-0.063981 44:-0.190724 45:-0.194167 46:-0.0903926 47:-0.0264233 48:-0.669309 49:0.107984 50:0.672086 51:-0.613487 52:-0.79616 53:-0.493927 54:0.50305 55:0.0139755 56:0.128149 57:-0.417764 58:-0.108226 59:0.356819 60:-0.955401 61:-0.483564 62:-0.46428 63:0.00648551 64:-0.981623 65:-0.909449 66:-0.143165 67:-0.214462 68:-0.116169 69:0.176319 70:0.347597 71:0.0279685 72:-0.82424 73:-0.413065 74:-0.446737 75:0.206489 76:-0.956449 77:-0.554896 78:-0.0759116 79:-0.373871 80:0.237277 81:0.000726365 82:0.122924 83:-0.389597 84:-0.239672 85:0.13422 86:0.389651 87:-0.229803 88:-0.994681 89:-0.669691 90:0.0758717 91:-0.209745 92:0.22661 93:-0.201016 94:-0.0287441 95:0.0745389 96:-0.744013 97:-0.296749 98:-0.011946 99:-0.106684 100:-0.819568 101:-0.784 102:-0.146863 103:-0.443346 104:0.290493 105:-0.27057 106:-0.0272875 107:0.267486 108:-0.615208 109:-0.814558 110:-0.106661 111:-0.414499 112:-0.969743 113:-0.671275 114:-0.314387 115:-0.144607 116:-0.118743 117:-0.437397 118:-0.27298 119:-0.235543 120:-0.513039 121:-0.538086 122:-0.0128951 123:-0.344236 124:-0.799427 125:-0.705996 126:-0.502927 127:-0.252184 128:-0.13188 129:-0.598666 130:-0.467861 131:0.378281 132:-0.168429 133:-0.760976 134:-0.201185 135:-0.51922 136:-0.597701 137:-0.965714 138:-0.211298 139:0.367192 140:-0.382384 141:-0.585309 142:-0.352384 143:-0.058898 144:-0.489393 145:-0.55307 146:-0.569726 147:0.197578 148:-0.758204 149:-0.596364 150:-0.621998 151:-0.0590115 152:-0.336617 153:-0.353325 154:-0.131053 155:-0.18418 156:-0.415737 157:0.175675 158:-0.869565 159:0.174262 160:-0.67916 161:-0.420339 162:-0.594458 163:-0.231288 164:-0.169458 165:-0.638693 166:-0.470408 167:0.485142 168:0.234406 169:0.409309 170:0.873186 171:0.0208903 172:-0.787986 173:-0.977941 174:0.484436 175:0.300843 176:0.0772955 177:-0.0482336 178:0.245448 179:-0.730944 180:-0.945412 181:0.189286 183:0.189286 184:-0.914397 185:-1 186:-0.134039 187:0.208523 188:-0.222062 189:-0.477613 190:0.0204616 191:-0.927453 192:-0.983355 193:-0.886362 194:0.645308 195:-0.788646 196:-0.963399 197:-0.952 198:0.465953 199:0.5456 200:-0.527589 201:-0.919644 202:-0.753305 203:-0.440061 204:-0.743157 205:-0.412365 206:-0.104264 207:-0.1545 208:-0.689759 209:-0.921331 210:-0.176978 211:-0.286124 212:0.12744 213:-0.391914 214:-0.16987 215:-0.360292 216:-0.57754 217:0.36782 218:-0.202275 219:0.399109 220:-0.542768 221:-0.977918 222:-0.237593 223:0.17638 224:-0.22935 225:0.0170802 226:0.251104 227:0.0547465 228:-0.567757 229:-0.143661 230:0.886087 231:-0.505255 232:-0.658228 233:-0.715611 234:-0.340024 235:0.472621 236:-0.461509 237:-0.3843 238:-0.193041 239:0.35958 240:-0.551582 241:-0.479285 242:0.484398 243:-0.49174 244:-0.857351 245:-0.719658 246:0.268578 247:-0.287895 248:0.224109 249:-0.398317 250:-0.144192 251:-0.135393 252:-0.692612 253:-0.203778 254:-0.0875484 255:-0.0170968 256:-0.90409 257:-0.953488 258:0.183216 259:0.291211 260:-0.316287 261:0.125823 262:0.350783 263:-0.366439 264:-0.649479 265:0.306653 266:0.000856434 267:0.496545 268:-0.51405 269:-0.568 270:0.101213 271:0.274521 272:-0.302657 273:0.185572 274:0.376713 275:0.13944 276:0.407717 277:-0.734672 278:0.386065 279:-0.532854 280:-0.811828 281:-0.97035 282:-0.0745923 283:-0.0459917 284:-0.214381 285:-0.669261 286:-0.488262 287:-0.0336138 288:-0.583131 289:0.0323647 290:0.432938 291:-0.115045 292:-0.843357 293:-0.685756 294:0.437523 295:0.272833 296:-0.592804 297:-0.152543 298:0.0597288 299:0.405901 300:-0.503431 301:-0.597343 302:0.194287 303:-0.334853 304:-0.642384 305:-0.963394 306:0.14224 307:0.237759 308:-0.201189 309:-0.597442 310:-0.392564 311:-0.735397 312:0.219043 313:-0.353726 314:0.231589 315:-0.246045 316:-0.80805 317:-0.934097 318:-0.0637186 319:0.424987 320:-0.578486 321:-0.268958 322:-0.0303635 323:-0.170012 324:-0.544506 325:-0.406485 326:0.647442 327:-0.558911 328:-0.966258 329:-0.973913 330:0.128306 331:0.642444 332:-0.689646 333:-0.596783 334:-0.420501 335:0.266717 336:-0.617177 337:-0.450641 338:0.482033 339:-0.364245 340:-0.789819 341:-0.737643 342:0.0928448 343:0.342005 344:-0.596742 345:-0.197608 346:0.0412185 347:0.400759 348:-0.57767 349:-0.0107236 350:-0.319349 351:0.11962 352:-0.697885 353:-0.634188 354:-0.185431 355:-0.574338 356:0.668848 357:-0.422654 358:-0.169259 359:-0.487743 360:0.245648 361:-0.0124307 362:-0.185805 363:0.250006 364:-0.579151 365:-0.900574 366:0.208647 367:0.115803 368:0.228341 369:0.116146 370:0.375572 371:-0.348965 372:-0.827209 373:0.187947 374:-0.0262922 375:0.10712 376:-0.926874 377:-0.721379 378:-0.433794 379:-0.119584 380:0.113959 381:-0.325845 382:0.162011 383:0.437165 384:-0.939484 
0 3.185679434898639 0 0 0 0 1:-0.618074 2:-0.817793 3:-0.616961 4:-0.97389 5:-0.987952 6:-0.29777 7:-0.094712 8:0.0860038 9:-0.676077 10:-0.344942 11:-0.622483 12:-0.885922 13:0.286505 14:-0.199025 15:0.301199 16:-0.760684 17:-0.320363 18:0.111049 19:-0.0549609 20:-0.0130317 21:0.0171576 22:0.217362 23:-0.523742 24:-0.328073 25:-0.118739 26:0.00916821 27:-0.131684 28:-0.535545 29:-0.86711 30:0.0835522 31:0.164112 32:-0.117128 33:-0.402933 34:-0.141262 35:-0.14026 36:-0.554804 37:-0.306376 38:-0.400293 39:0.00367885 40:-0.502318 41:-0.445636 42:-0.163713 43:-0.0397028 44:-0.232778 45:0.227578 46:0.32852 47:-0.240038 48:-0.615427 49:-0.35398 50:0.163382 51:-0.413091 52:-0.556869 53:-0.259109 54:-0.0140663 55:-0.206267 56:-0.13803 57:-0.374459 58:-0.0899231 59:0.358121 60:-0.848093 61:-0.645761 62:-0.271331 63:-0.271941 64:-0.996937 65:-0.106299 66:-0.268704 67:-0.313041 68:-0.092082 69:-0.26837 70:-0.031547 71:0.432292 72:-0.845494 73:-0.228458 74:0.142102 75:-0.20782 76:-0.363484 77:-0.169139 78:-0.0737594 79:-0.081009 80:0.0621106 81:0.0656965 82:0.128767 83:-0.0892581 84:-0.86107 85:-0.226124 86:-0.299104 87:0.0653231 88:-0.204787 89:-0.876588 90:-0.366369 91:0.0925193 92:-0.416513 93:-0.0304319 94:0.222208 95:0.0740277 96:-0.882192 97:-0.342325 98:-0.372619 99:0.197136 100:-0.308767 101:-0.136 102:0.0474744 103:0.00146231 104:0.0687995 105:0.275336 106:0.398995 107:-0.351904 108:-0.403716 109:-0.435672 110:-0.264468 111:0.00789955 112:-0.803328 113:-0.698925 114:-0.235337 115:-0.175716 116:0.0775291 117:-0.0677124 118:0.126286 119:-0.320705 120:-0.593149 121:-0.670164 122:-0.0573473 123:-0.418894 124:-0.487106 125:-0.733075 126:-0.446023 127:-0.0665801 128:-0.285913 129:-0.388278 130:-0.200635 131:0.349875 132:-0.810621 133:-0.446603 134:-0.150552 135:-0.344499 136:-0.310345 137:-0.977143 138:-0.044856 139:0.33554 140:-0.359137 141:-0.349881 142:-0.0528291 143:0.0668205 144:-0.628235 145:-0.218442 146:0.0720638 147:0.0757606 148:-0.816926 149:-0.334545 150:-0.362934 151:0.138187 152:-0.211656 153:0.101492 154:0.260059 155:0.0517724 156:-0.950378 157:-0.175676 158:-0.782609 159:-0.179625 160:-0.211394 161:-0.745763 162:-0.417767 163:-0.237851 164:-0.0536302 165:-0.398199 166:-0.225936 167:-0.140252 168:-0.593716 169:0.766999 170:-0.106027 171:0.615644 172:-0.293286 173:-0.382353 174:0.774784 175:-0.0126734 176:0.408714 177:0.873225 178:0.896414 179:-0.805818 180:-0.984968 181:0.664447 183:0.664447 184:-0.785992 185:-1 186:0.450637 187:0.0769089 188:0.207963 189:0.1595 190:0.511761 191:-0.977275 192:-0.985532 193:-0.690795 194:0.550547 195:-0.61775 196:-0.932026 197:-0.884 198:0.47797 199:0.782203 200:-0.603888 201:-0.650297 202:-0.302417 203:-0.0631852 204:-0.934501 205:0.328611 206:0.295789 207:0.0993807 208:-0.939759 209:-0.960666 210:0.340672 211:0.211622 212:-0.369284 213:-0.346739 214:-0.124603 215:0.46895 216:-0.366199 217:0.0680144 218:0.131979 219:0.0313501 220:-0.732504 221:-0.911672 222:0.0562754 223:-0.154892 224:-0.0645805 225:-0.109421 226:0.134857 227:0.510856 228:-0.830226 229:-0.504696 230:0.106646 231:-0.25386 232:-0.512658 233:-0.92272 234:-0.428211 235:0.127795 236:-0.141493 237:-0.121754 238:0.0718915 239:-0.124364 240:-0.728772 241:-0.426911 242:0.577437 243:-0.518176 244:-0.804949 245:-0.979487 246:-0.487718 247:-0.515786 248:0.17802 249:-0.475203 250:-0.230356 251:0.288216 252:-0.722658 253:0.438275 254:0.143632 255:0.128193 256:-0.196051 257:-0.194767 258:-0.253194 259:-0.390206 260:0.157624 261:-0.11854 262:0.125328 263:0.0857684 264:-0.668726 265:0.211252 266:-0.189134 267:0.568555 268:-0.0644628 269:0.108 270:-0.159297 271:-0.327542 272:0.0960164 273:0.304695 274:0.464416 275:-0.0462404 276:-0.253625 277:0.346453 278:-0.0199047 279:0.354808 280:-0.897849 281:-0.743935 282:0.111349 283:-0.539456 284:0.14017 285:0.0142224 286:0.225775 287:0.291618 288:-0.595905 289:-0.075893 290:-0.316677 291:0.326331 292:-0.636364 293:-0.603524 294:0.373534 295:-0.251803 296:-0.114422 297:0.377527 298:0.521942 299:-0.44594 300:-0.417719 301:-0.100889 302:-0.00128228 303:0.0401479 304:-0.0662252 305:-0.673877 306:-0.0725405 307:-0.0512573 308:-0.136404 309:-0.130332 310:0.105616 311:-0.282762 312:-0.461358 313:-0.439247 314:0.218379 315:-0.29461 316:-0.789474 317:-0.842407 318:-0.0630363 319:-0.193061 320:-0.0613731 321:-0.259739 322:-0.030303 323:-0.0057684 324:-0.606779 325:0.0782114 326:0.416937 327:-0.157052 328:-0.484663 329:-0.510145 330:-0.001094 331:-0.332488 332:0.0846821 333:-0.0373626 334:0.146927 335:0.204866 336:-0.626675 337:-0.0822181 338:0.263105 339:0.033516 340:-0.178982 341:-0.34981 342:-0.201543 343:-0.372193 344:-0.00544059 345:-0.00812689 346:0.207981 347:0.103964 348:-0.593721 349:0.107239 350:-0.0385276 351:0.0215219 352:-0.864048 353:-0.82906 354:-0.184331 355:-0.387055 356:0.550699 357:-0.280033 358:-0.0208762 359:-0.16438 360:-0.384279 361:0.443786 362:-0.53408 363:0.71036 364:-0.343629 365:-0.85086 366:0.00432511 367:0.407442 368:-0.017508 369:0.0997068 370:0.360648 371:-0.326596 372:-0.519764 373:0.668768 374:-0.604965 375:0.636867 376:-0.806216 377:-0.878621 378:-0.0794591 379:0.186736 380:-0.0885484 381:-0.286965 382:0.19322 383:0.452899 384:-0.898651 
0.1001055881635595 0 0 0 0.1158483504834586 0 1:-0.722698 2:-0.778795 3:-0.721954 4:-0.877285 5:-1 6:-0.144789 7:0.000278465 8:-0.0251119 9:-0.622026 10:-0.30271 11:-0.855674 12:-0.976917 13:0.224982 14:-0.590906 15:0.574434 16:-0.723647 17:-0.86511 18:0.151047 19:0.468092 20:-0.247427 21:0.0835807 22:0.366448 23:-0.512014 24:-0.423821 25:-0.0126991 26:0.103035 27:-0.143111 28:-0.42812 29:-0.774086 30:0.247391 31:0.140776 32:0.0560795 33:0.0326572 34:0.26202 35:-0.0639161 36:-0.678103 37:-0.462108 38:0.0834989 39:-0.51107 40:-0.443586 41:-0.638591 42:-0.259238 43:0.121977 44:-0.410179 45:-0.415981 46:-0.318973 47:0.245331 48:-0.961307 49:0.053362 50:0.404869 51:-0.395543 52:-0.660266 53:-0.740891 54:0.185292 55:0.148242 56:-0.219345 57:-0.378944 58:-0.0177491 59:0.59073 60:-0.826854 61:-0.731179 62:-0.332029 63:-0.286086 64:-0.987749 65:-0.34252 66:-0.462352 67:0.0598516 68:-0.625428 69:-0.337033 70:-0.114358 71:0.345899 72:-0.653311 73:-0.272073 74:0.357616 75:-0.453167 76:-0.98325 77:-0.88724 78:-0.112468 79:0.0132353 80:-0.0616306 81:-0.337488 82:-0.216609 83:0.433675 84:-0.446444 85:-0.242332 86:-0.146691 87:-0.0672837 88:-0.494681 89:-0.480944 90:-0.568505 91:-0.0824487 92:-0.331937 93:0.0131886 94:0.174529 95:0.337669 96:-0.684072 97:-0.546927 98:0.454946 99:-0.715526 100:-0.982211 101:-0.328 102:0.0239419 103:0.0580422 104:0.00210822 105:-0.377088 106:-0.239131 107:0.331287 108:-0.987861 109:-0.0584991 110:0.0573597 111:-0.0185768 112:-0.866868 113:-0.9447 114:0.00847742 115:0.169414 116:-0.0623727 117:-0.428952 118:-0.278155 119:-0.208625 120:-0.199892 121:-0.128208 122:0.0990238 123:-0.0901881 124:-0.893983 125:-0.49323 126:-0.470658 127:-0.738763 128:0.272657 129:-0.119173 130:0.218841 131:0.625796 132:-0.329221 133:0.311708 134:0.103738 135:-0.0110383 136:-0.903448 137:-0.645714 138:0.00175076 139:-0.723729 140:0.64763 141:0.0439065 142:0.501864 143:0.719867 144:-0.302256 145:0.132191 146:0.538304 147:0.0828158 148:-0.841105 149:-0.676364 150:-0.0349499 151:-0.563316 152:0.597535 153:-0.197444 154:0.212776 155:0.559762 156:-0.695512 157:0.362162 158:-0.913043 159:0.36193 160:-0.55922 161:-0.99661 162:-0.250113 163:-0.216465 164:-0.0172209 165:-0.0225821 166:0.0827508 167:-0.20637 168:-0.645183 169:0.973597 170:1 171:0.443494 172:-0.848057 173:-0.477941 174:0.94778 175:0.0571492 176:0.497786 177:0.737421 178:0.809219 179:-0.835771 180:-0.960187 181:0.932381 183:0.932381 184:-0.828794 185:-1 186:0.559831 187:-0.435641 188:0.614887 189:0.302545 190:0.633733 191:-0.920395 192:-0.978728 193:-0.610457 194:0.370779 195:-0.484005 196:-0.636601 197:-0.812 198:0.471702 199:0.339699 200:-0.216469 201:-0.557179 202:-0.186477 203:-0.0442862 204:-0.924152 205:0.0934715 206:-0.111193 207:0.165906 208:-0.572289 209:-0.697428 210:-0.0952482 211:-0.0632692 212:-0.0897862 213:-0.0921187 214:0.130538 215:0.0879716 216:-0.371048 217:0.305782 218:0.146978 219:0.166121 220:-0.698289 221:-0.529968 222:-0.0100232 223:0.14831 224:-0.20318 225:0.0452379 226:0.276239 227:0.0471529 228:-0.697044 229:-0.688321 230:0.0231828 231:-0.314604 232:-0.911392 233:-0.891808 234:-0.227588 235:0.440078 236:-0.432553 237:-0.338284 238:-0.143821 239:-0.335344 240:-0.474513 241:-0.644614 242:0.284663 243:-0.461304 244:-0.871907 245:-0.6 246:-0.171338 247:-0.085136 248:-0.163615 249:-0.35944 250:-0.0987466 251:-0.224029 252:-0.761844 253:-0.0939862 254:-0.226633 255:0.126775 256:-0.526093 257:-0.982558 258:0.0312418 259:0.375584 260:-0.543854 261:-0.318078 262:-0.056797 263:-0.310722 264:-0.266576 265:-0.601466 266:0.593581 267:-0.526887 268:-0.553719 269:-0.54 270:0.0136182 271:0.104804 272:-0.207699 273:-0.356592 274:-0.133337 275:0.192509 276:-0.68226 277:-0.71032 278:0.136104 279:-0.360214 280:-0.510753 281:-0.832884 282:-0.0310591 283:0.164489 284:-0.536486 285:-0.263254 286:-0.018724 287:-0.155105 288:-0.811907 289:-0.372708 290:0.237042 291:-0.22456 292:-0.80979 293:-0.506608 294:0.204832 295:0.0285974 296:-0.383991 297:-0.385095 298:-0.1894 299:0.11128 300:-0.344972 301:-0.214179 302:0.18472 303:-0.128978 304:-0.407285 305:-0.846922 306:0.105454 307:-0.0100176 308:0.0391042 309:-0.41199 310:-0.183004 311:0.0117737 312:-0.194196 313:-0.340732 314:0.444464 315:-0.359765 316:-0.44582 317:-0.968481 318:0.224905 319:0.146767 320:-0.2312 321:-0.428291 322:-0.204219 323:0.280057 324:-0.578259 325:0.29689 326:0.326266 327:0.016064 328:-0.947853 329:-0.573913 330:0.0531443 331:0.0186537 332:-0.132162 333:-0.151545 334:0.0403463 335:0.188032 336:-0.196157 337:-0.511491 338:0.453203 339:-0.383532 340:-0.399015 341:-0.828897 342:0.0868738 343:-0.329868 344:0.145245 345:-0.441289 346:-0.227519 347:0.2763 348:-0.484172 349:0.430741 350:-0.343323 351:0.380881 352:-0.570997 353:-0.497436 354:-0.170344 355:-0.611652 356:0.745126 357:0.514564 358:0.662188 359:-0.278518 360:-0.534366 361:0.575738 362:-0.578652 363:0.810547 364:-0.752896 365:-0.824092 366:-0.0869037 367:-0.122171 368:0.474493 369:0.583058 370:0.727806 371:-0.307016 372:-0.72346 373:0.632651 374:-0.755222 375:0.693938 376:-0.886654 377:-0.862069 378:-0.433794 379:-0.341798 380:0.50431 381:0.14833 382:0.518416 383:0.460988 384:-0.91746 
6.945426773214842 0.7448678930777567 0 4.944794489802002 1.857463749007829 0.4140295403712312 1:-0.44449 2:-0.742486 3:-0.443239 4:-0.869452 5:-0.436145 6:-0.00761543 7:-0.220635 8:0.366097 9:-0.557429 10:-0.176191 11:-0.769009 12:-0.935258 13:0.0166898 14:-0.32871 15:0.205889 16:-0.373219 17:-0.514916 18:-0.0646612 19:0.047358 20:-0.179551 21:0.191381 22:0.381541 23:-0.511293 24:-0.461402 25:0.206797 26:0.560146 27:-0.39935 28:-0.304897 29:-0.960133 30:0.395429 31:0.228727 32:0.0673164 33:-0.62381 34:-0.384689 35:0.484943 36:-0.176971 37:-0.00549028 38:0.130535 39:-0.170141 40:-0.440495 41:-0.6049 42:0.280611 43:0.610606 44:-0.45059 45:-0.386878 46:0.0684619 47:-0.0430807 48:-0.804532 49:-0.0512153 50:0.568104 51:-0.611337 52:-0.512555 53:-0.502024 54:0.321029 55:-0.191139 56:0.10933 57:-0.614478 58:-0.36561 59:0.41316 60:-0.814857 61:-0.441606 62:-0.382772 63:-0.0287598 64:-0.687596 65:-0.838583 66:-0.475286 67:0.165771 68:-0.773281 69:0.104852 70:0.330901 71:0.530448 72:-0.838263 73:-0.543757 74:-0.0380151 75:-0.299249 76:-0.443886 77:-0.866469 78:-0.421632 79:-0.0393725 80:-0.256649 81:0.147066 82:0.188566 83:0.100069 84:-0.80817 85:-0.0634329 86:0.206465 87:-0.222723 88:-0.994681 89:-0.553539 90:0.0328968 91:-0.140542 92:0.135165 93:-0.545384 94:-0.381628 95:0.140131 96:-0.265997 97:-0.0723259 98:-0.324344 99:0.34045 100:-0.499365 101:-0.884 102:-0.0721495 103:0.102333 104:-0.145965 105:0.417258 106:0.528901 107:0.280103 108:-0.679972 109:-0.662882 110:-0.234814 111:-0.18476 112:-0.990923 113:-0.652842 114:-0.286207 115:0.0550816 116:-0.220197 117:-0.29171 118:-0.145924 119:-0.307106 120:-0.371962 121:-0.679908 122:-0.0997336 123:-0.39081 124:-0.386819 125:-0.852998 126:-0.335106 127:0.344296 128:-0.58005 129:-0.374718 130:0.0610801 131:-0.122795 132:-0.703803 133:-0.794537 134:-0.196534 135:-0.544568 136:-0.809195 137:-0.504762 138:-0.105562 139:0.491235 140:-0.50241 141:-0.483211 142:-0.127306 143:-0.157482 144:-0.669256 145:-0.746789 146:-0.133955 147:-0.259155 148:-0.982729 149:-0.556364 150:-0.448368 151:0.174813 152:-0.340541 153:-0.420006 154:-0.223578 155:-0.37448 156:-0.655907 157:0.337838 158:-0.913043 159:0.337801 160:-0.817091 161:-0.183051 162:-0.163561 163:-0.454114 164:0.323642 165:0.0881714 166:0.204765 167:-0.307139 168:-0.725209 169:0.734848 170:0.494316 171:0.404137 172:-0.618375 173:-0.389706 174:0.3145 175:-0.0480698 176:0.166571 177:0.268587 178:0.470842 179:-0.614647 180:-0.969063 181:0.447252 183:0.447252 184:-0.583658 185:-1 186:-0.061062 187:-0.0412204 188:-0.0167906 189:-0.277376 190:0.194413 191:-0.901862 192:-0.981146 193:-0.508338 194:0.400272 195:-0.430399 196:-0.864052 197:-0.268 198:0.473864 199:0.546891 200:-0.31874 201:-0.49008 202:-0.111441 203:-0.0268093 204:-0.935826 205:0.431301 206:-0.19105 207:0.419407 208:-0.430723 209:-0.763994 210:-0.18709 211:0.10612 212:-0.307307 213:0.138109 214:0.338021 215:-0.0421992 216:-0.596591 217:-0.128506 218:0.592318 219:-0.344841 220:-0.772939 221:-0.488959 222:-0.257614 223:-0.280371 224:0.126015 225:-0.310724 226:-0.0645547 227:0.629583 228:-0.865926 229:-0.221991 230:0.176286 231:-0.124871 232:-0.651899 233:-0.953632 234:0.0555852 235:0.0241422 236:0.150895 237:-0.155014 238:0.0394518 239:-0.255102 240:-0.566735 241:-0.351221 242:0.323547 243:-0.337276 244:-0.962154 245:-0.432479 246:0.0316135 247:-0.456187 248:0.266698 249:-0.489856 250:-0.246731 251:0.473553 252:-0.421427 253:0.102679 254:-0.499895 255:0.400562 256:-0.390691 257:-0.703488 258:-0.0986531 259:-0.0935524 260:-0.177824 261:0.180329 262:0.39291 263:-0.433624 264:-0.650725 265:-0.640314 266:0.0141614 267:-0.140266 268:-0.477686 269:-0.9 270:-0.0669438 271:-0.0839877 272:-0.16137 273:0.110186 274:0.306866 275:-0.327547 276:-0.730545 277:-0.245536 278:0.392218 279:-0.251572 280:-0.806452 281:-0.541779 282:-0.151477 283:-0.531801 284:0.174855 285:-0.549762 286:-0.354151 287:0.211539 288:-0.592836 289:0.171004 290:0.366605 291:0.0124672 292:-0.524476 293:-0.74743 294:0.263992 295:-0.117459 296:-0.292437 297:0.46935 298:0.600677 299:0.325062 300:-0.751472 301:-0.345853 302:0.618737 303:-0.45429 304:-0.609272 305:-0.71381 306:-0.0948603 307:0.0251378 308:-0.163747 309:-0.401762 310:-0.169418 311:0.0933524 312:-0.810555 313:-0.286193 314:0.294793 315:-0.238002 316:-0.773994 317:-0.381089 318:-0.272573 319:0.033895 320:-0.399301 321:-0.370694 322:-0.141677 323:-0.126379 324:-0.443975 325:-0.136798 326:0.396263 327:-0.259762 328:-0.601227 329:-0.976812 330:-0.0859543 331:-0.0680363 332:-0.232928 333:-0.10887 334:0.0831609 335:-0.0497705 336:-0.663605 337:-0.236419 338:0.380527 339:-0.151382 340:-0.46798 341:-0.410646 342:0.0232374 343:-0.17286 344:-0.195048 345:-0.304335 346:-0.0761874 347:-0.16782 348:-0.355473 349:0.30831 350:-0.240583 351:0.252252 352:-0.830816 353:-0.917949 354:-0.203528 355:-0.49206 356:0.656669 357:0.388707 358:0.565858 359:-0.166945 360:-0.617404 361:0.646615 362:-0.461525 363:0.781568 364:-0.602317 365:-0.873805 366:-0.121302 367:0.144487 368:0.285116 369:0.39278 370:0.590128 371:-0.237008 372:-0.773797 373:0.454455 374:-0.400138 375:0.427296 376:-0.616088 377:-0.732414 378:-0.433794 379:0.0690136 380:-0.0157707 381:-0.253345 382:0.221791 383:0.481194 384:-0.925951 
0 3.457214445435752 0 0 0 0 1:-0.532101 2:-0.767407 3:-0.530964 4:-0.851175 5:-0.783133 6:-0.0608576 7:0.139028 8:-0.117445 9:-0.539827 10:-0.203881 11:-0.739437 12:-0.935099 13:0.0681735 14:-0.611695 15:0.474609 16:-0.319088 17:-0.483787 18:-0.240102 19:-0.183007 20:-0.127713 21:0.529431 22:0.644299 23:-0.510615 24:-0.567382 25:-0.355592 26:0.12105 27:-0.39072 28:-0.235387 29:-0.837209 30:0.114371 31:-0.000551601 32:0.0590896 33:-0.457071 34:-0.220343 35:-0.0592797 36:-0.543038 37:-0.226818 38:-0.0973835 39:-0.171869 40:-0.282844 41:-0.555896 42:0.157391 43:0.559997 44:-0.51515 45:-0.172761 46:0.239438 47:0.0256762 48:-0.901178 49:-0.232218 50:0.373138 51:-0.5369 52:-0.279173 53:-0.348178 54:-0.043879 55:-0.417521 56:0.0473843 57:-0.52484 58:-0.239918 59:0.660771 60:-0.788456 61:-0.758003 62:-0.37923 63:-0.26756 64:-0.445636 65:-0.877953 66:-0.573989 67:-0.103998 68:-0.626887 69:-0.113422 70:0.0919248 71:0.495724 72:-0.891548 73:-0.468447 74:0.00885471 75:-0.281136 76:-0.919598 77:-0.335312 78:-0.372069 79:-0.444738 80:0.17778 81:-0.151764 82:0.0943318 83:0.117884 84:-0.729017 85:-0.395103 86:-0.339458 87:-0.0211016 88:-0.981383 89:-0.499093 90:-0.136652 91:-0.0862196 92:-0.0363853 93:-0.274391 94:-0.0870754 95:-0.198319 96:-0.492227 97:0.000476897 98:-0.335689 99:0.401762 100:-0.987294 101:-0.796 102:0.0559791 103:-0.203417 104:0.323251 105:0.279815 106:0.434862 107:-0.0708448 108:-0.532549 109:-0.601082 110:-0.613624 111:0.213648 112:-0.984871 113:-0.695853 114:-0.211367 115:-0.162603 116:0.0349639 117:-0.223153 118:-0.0386392 119:-0.851603 120:0.675975 121:0.0571659 122:-0.127156 123:0.262474 124:-0.441261 125:-0.883946 126:-0.142048 127:0.241182 128:-0.345338 129:0.455057 130:0.696933 131:0.150437 132:-0.583827 133:-0.220042 134:-0.0914833 135:-0.233615 136:-0.908046 137:-0.470476 138:0.131522 139:-0.00951347 140:0.204485 141:0.0618434 142:0.245282 143:-0.0408656 144:-0.640136 145:0.268719 146:0.42897 147:0.275534 148:-0.336788 149:-0.650909 150:0.0248783 151:0.148742 152:0.109008 153:-0.330997 154:-0.130827 155:0.858097 156:0.114405 157:0.491892 158:-0.956522 159:0.493297 160:-0.928036 161:-1 162:0.109739 163:-0.315307 164:0.283929 165:0.449716 166:0.413531 167:-0.451174 168:-0.814391 169:0.927931 170:0.473337 171:0.568598 172:-0.862191 173:-0.834559 174:0.6487 175:-0.135162 176:0.444121 177:0.67553 178:0.764538 179:-0.631036 180:-0.971332 181:0.861111 183:0.861111 184:-0.836576 185:-1 186:0.452698 187:0.0276606 188:0.257841 189:0.457282 190:0.693813 191:-0.929287 192:-0.983413 193:-0.628221 194:0.579984 195:-0.59003 196:-0.775163 197:-0.196 198:0.574856 199:0.592791 200:-0.374826 201:-0.587108 202:-0.222678 203:0.069561 204:-0.944922 205:0.208485 206:-0.0771366 207:0.220041 208:-0.373494 209:-0.812405 210:0.693863 211:0.463057 212:-0.684554 213:-0.0202919 214:0.198832 215:-0.0279212 216:-0.498253 217:0.0716049 218:0.393475 219:-0.112963 220:-0.748056 221:-0.861199 222:0.267742 223:0.0705053 224:-0.218567 225:-0.271357 226:-0.0197584 227:0.397108 228:-0.721016 229:-0.373018 230:0.486556 231:-0.403179 232:-0.607595 233:-0.591963 234:-0.038932 235:0.18861 236:-0.122347 237:-0.332587 238:-0.141354 239:-0.194646 240:-0.719011 241:-0.249015 242:0.484063 243:-0.376991 244:-0.691412 245:-0.603419 246:0.298543 247:-0.151482 248:-0.150332 249:-0.444675 250:-0.188626 251:0.153695 252:-0.609241 253:-0.0729745 254:0.182496 255:-0.136064 256:-0.610719 257:-0.360465 258:-0.312845 259:-0.146109 260:-0.170803 261:0.123598 262:0.344288 263:-0.127614 264:-0.948617 265:-0.701449 266:0.0841953 267:-0.230609 268:-0.801653 269:-0.116 270:-0.678667 271:-0.379687 272:0.106414 273:-0.139021 274:0.0723288 275:-0.353114 276:-0.396986 277:-0.217085 278:0.10824 279:-0.0549801 280:-0.615591 281:-0.983827 282:-0.496388 283:-0.624108 284:0.222869 285:-0.259078 286:-0.0392139 287:-0.0939786 288:-0.606775 289:0.384239 290:-0.105522 291:0.458404 292:-0.6 293:-0.85022 294:-0.537047 295:-0.481158 296:0.183717 297:0.511591 298:0.627439 299:-0.0791781 300:-0.182352 301:-0.224928 302:0.311442 303:-0.209489 304:-0.662252 305:-0.677205 306:-0.224768 307:-0.0565991 308:-0.0755551 309:-0.286224 310:-0.0496432 311:0.13811 312:-0.604619 313:0.480885 314:0.107616 315:0.373139 316:-0.910217 317:-0.882521 318:-0.261772 319:-0.110488 320:-0.181745 321:0.348591 322:0.517111 323:0.352709 324:-0.438102 325:0.121935 326:0.298632 327:-0.0608674 328:-0.763804 329:-0.602899 330:-0.313464 331:-0.518085 332:0.329289 333:0.0533787 334:0.229285 335:0.15215 336:-0.509061 337:-0.415704 338:0.198359 339:-0.13878 340:-0.382594 341:-0.26616 342:-0.170345 343:-0.707687 344:0.61185 345:-0.143557 346:0.079894 347:-0.152949 348:-0.3949 349:0.287757 350:-0.243151 351:0.242243 352:-0.809668 353:-0.911111 354:-0.166678 355:-0.537065 356:0.744674 357:0.349216 358:0.536079 359:-0.0856201 360:-0.618457 361:0.626667 362:-0.694192 363:0.906931 364:-0.274131 365:-0.847036 366:0.228417 367:0.610046 368:-0.319583 369:0.780915 370:0.855426 371:-0.32476 372:-0.728947 373:0.839881 374:-0.864583 375:0.852232 376:-0.301645 377:-0.878621 378:0.0482426 379:0.137912 380:-0.0181832 381:0.812863 382:0.902127 383:0.443154 384:-0.940253 
0 0.4012844922039778 0 0 0 0 1:-0.60869 2:-0.738632 3:-0.607823 4:-0.960836 5:-0.344578 6:-0.440408 7:-0.209359 8:0.120944 9:-0.741583 10:-0.402098 11:-0.529931 12:-0.833445 13:0.411039 14:0.203747 15:0.0660127 16:-0.333333 17:-0.559014 18:0.14874 19:0.216184 20:-0.193958 21:-0.499759 22:-0.235202 23:-0.135863 24:-0.542556 25:-0.124978 26:0.0291766 27:-0.153606 28:-0.516588 29:-0.913621 30:-0.149919 31:0.2956 32:-0.372777 33:-0.386244 34:-0.0823039 35:0.0788761 36:-0.419638 37:-0.631733 38:-0.311844 39:-0.336477 40:-0.508501 41:-0.751914 42:-0.597683 43:0.0953509 44:-0.72113 45:-0.306017 46:-0.182531 47:0.0911679 48:-0.86886 49:-0.142933 50:0.0901102 51:-0.217891 52:-0.205318 53:-0.720648 54:-0.147575 55:-0.125338 56:-0.312021 57:-0.367333 58:-0.0678307 59:0.568031 60:-0.734505 61:-0.174771 62:-0.299298 63:0.102061 64:-0.182236 65:-0.956693 66:-0.247364 67:-0.0661223 68:-0.343506 69:0.0678242 70:0.257384 71:0.584963 72:-0.656488 73:-0.374404 74:0.150086 75:-0.338561 76:-0.711893 77:-0.379822 78:0.0885621 79:-0.130218 80:0.232728 81:-0.0657975 82:0.0301914 83:-0.298847 84:-0.679041 85:-0.247426 86:-0.307219 87:0.0568373 88:-0.279255 89:-0.183303 90:-0.450887 91:0.100554 92:-0.451208 93:-0.0358514 94:0.202511 95:0.0639666 96:-0.759481 97:-0.374414 98:-0.50964 99:0.302258 100:-0.728081 101:-0.036 102:-0.0221579 103:0.087889 104:-0.101057 105:0.0854735 106:0.238772 107:-0.138756 108:-0.413067 109:-0.438886 110:-0.397524 111:0.129744 112:-0.322239 113:-0.741935 114:-0.133458 115:0.0779126 116:-0.118147 117:-0.189695 118:-0.0492868 119:-0.392925 120:-0.344678 121:0.203149 122:0.0389997 123:0.244471 124:-0.618911 125:-0.415861 126:0.105587 127:0.0243748 128:0.030025 129:0.00874363 130:0.223242 131:0.391399 132:-0.273645 133:0.564139 134:-0.00752015 135:0.230401 136:-0.694253 137:-0.032381 138:0.586171 139:-0.035685 140:0.618356 141:0.625113 142:0.678301 143:0.154876 144:-0.5708 145:0.234284 146:0.72462 147:0.0518483 148:-0.533679 149:-0.16 150:0.371521 151:0.236766 152:0.326649 153:0.473098 154:0.542654 155:0.279052 156:-0.91017 157:0.548649 158:-0.869565 159:0.544236 160:-0.478261 161:-0.0779661 162:-0.366459 163:-0.399125 164:0.188355 165:-0.491969 166:-0.273836 167:0.253493 168:-0.109938 169:0.999106 170:0.608108 171:0.585261 172:-0.526502 173:-0.323529 174:0.88266 175:-0.229326 176:0.67806 177:0.833617 178:0.877483 179:-0.728847 180:-0.972534 181:1 183:1 184:-0.478599 185:-1 186:0.776753 187:-0.0729237 188:0.555015 189:0.905332 190:0.939447 191:-0.94541 192:-0.984464 193:-0.742622 194:0.330787 195:-0.552562 196:-0.715033 197:-0.94 198:0.461763 199:0.764993 200:-0.624137 201:-0.715817 202:-0.391494 203:-0.323754 204:-0.87884 205:-0.632528 206:-0.119602 207:-0.284314 208:-0.487952 209:-0.494705 210:0.135523 211:0.0073715 212:-0.0363404 213:-0.537516 214:-0.336615 215:-1 216:-0.343876 217:0.246171 218:0.224019 219:0.0870714 220:-0.542768 221:-0.709779 222:-0.0162474 223:-0.209275 224:0.0506964 225:-0.236223 226:0.0116075 227:0.567844 228:-0.737523 229:-0.310565 230:-0.129486 231:0.00583785 232:-0.813291 233:-0.483771 234:-0.340332 235:0.318975 236:-0.432826 237:-0.184485 238:0.013399 239:-0.0470924 240:-0.585941 241:-0.0556086 242:0.195779 243:-0.118121 244:-0.307132 245:-0.145299 246:0.157463 247:-0.314142 248:0.0155174 249:-0.259652 250:0.00166747 251:-0.207804 252:-0.455714 253:-0.214048 254:-0.00636348 255:-0.0759837 256:-0.61354 257:-0.47093 258:0.316381 259:-0.114467 260:-0.107043 261:0.0899463 262:0.317204 263:-0.499921 264:-0.863931 265:-0.47354 266:0.0124553 267:-0.028568 268:-0.586777 269:-0.628 270:0.155176 271:-0.375767 272:0.327641 273:-0.0893774 274:0.1196 275:-0.50241 276:-0.491957 277:-0.368107 278:0.260515 279:-0.239551 280:-0.561828 281:-0.38814 282:0.103027 283:-0.368888 284:-0.0944828 285:-0.305686 286:-0.0770554 287:0.0599228 288:-0.767587 289:0.268333 290:-0.0761517 291:0.369409 292:-0.468531 293:-0.577093 294:0.284702 295:-0.207155 296:-0.176781 297:-0.0287257 298:0.163585 299:0.271076 300:-0.168809 301:-0.113785 302:0.438963 303:-0.226777 304:-0.718543 305:-0.384359 306:0.167024 307:-0.0695467 308:0.00975047 309:-0.384616 310:-0.152668 311:-0.244124 312:-0.555941 313:-0.1016 314:0.19804 315:-0.0612368 316:-0.408669 317:-0.722063 318:0.00862744 319:-0.273459 320:0.141906 321:0.0227472 322:0.237719 323:-0.00879176 324:-0.659395 325:0.437442 326:0.0128195 327:0.284165 328:-0.509202 329:-0.762319 330:-0.109192 331:-0.469453 332:0.311904 333:0.825246 334:0.870245 335:-0.223584 336:-0.765393 337:-0.410362 338:0.232836 339:-0.159899 340:-0.973727 341:-0.486692 342:-0.0255833 343:-0.493169 344:0.289496 345:0.0743955 346:0.280707 347:-0.249195 348:-0.586426 349:0.543342 350:-0.563356 351:0.572573 352:-0.489426 353:-0.401709 354:-0.234671 355:-0.393586 356:0.518273 357:0.061583 358:0.297566 359:-0.279356 360:-0.0703015 361:0.602954 362:-0.766281 363:0.935937 364:-0.571429 365:-0.173996 366:0.031033 367:0.107912 368:0.45775 369:0.61331 370:0.747952 371:-0.365457 372:-0.694331 373:0.934875 374:-0.966912 375:0.950893 376:-0.180987 377:-0.616552 378:-0.433794 379:-0.0558696 380:0.3088 381:0.526531 382:0.747767 383:0.461651 384:-0.926492 
0.01994354042146665 1.818095877904958 0 0 0.8471150743540495 1.968843858329568 1:-0.715286 2:-0.906441 3:-0.714093 4:-0.913838 5:-0.992771 6:-0.808665 7:0.0424976 8:-0.440289 9:-0.938498 10:-0.849879 11:-0.292638 12:-0.545303 13:0.467966 14:0.0660833 15:0.220473 16:-0.111111 17:-0.276265 18:0.19566 19:-0.257971 20:0.236271 21:-0.466776 22:-0.267762 23:-0.243322 24:-0.227571 25:0.548235 26:-0.162319 27:0.4707 28:-0.0458136 29:-0.162791 30:0.0346296 31:0.161024 32:-0.1689 33:0.0532237 34:0.296902 35:0.175808 36:-0.353824 37:-0.406743 38:-0.316625 39:-0.146202 40:-0.653787 41:-0.476263 42:-0.34675 43:-0.0618936 44:-0.36066 45:-0.15608 46:-0.0495659 47:-0.0219674 48:-0.689377 49:-0.0245175 50:0.0719019 51:-0.129853 52:0.0398818 53:-0.0445344 54:0.0698162 55:-0.158182 56:-0.151275 57:-0.148253 58:0.146437 59:0.273516 60:-0.796741 61:0.112639 62:-0.484745 63:0.467726 64:-0.0627871 65:-0.53937 66:-0.195337 67:0.278535 68:-0.775143 69:-0.103345 70:0.291498 71:0.273307 72:-0.541531 73:-0.0670417 74:0.123208 75:-0.0534811 76:-0.293132 77:-0.442136 78:0.076333 79:0.113192 80:-0.0870204 81:0.230921 82:0.284284 83:-0.0640411 84:-0.855255 85:-0.0377877 86:-0.420185 87:0.293742 88:-1 89:-0.368421 90:-0.378868 91:-0.166395 92:-0.169487 93:0.44768 94:0.525971 95:0.230527 96:-0.710415 97:0.328566 98:-0.313846 99:0.610168 100:-0.138501 101:-0.136 102:-0.0925316 103:0.203433 104:-0.398142 105:-0.121062 106:0.118965 107:0.289521 108:-0.529288 109:-0.173537 110:-0.263305 111:0.197159 112:-0.0136157 113:-0.419355 114:-0.277541 115:0.229941 116:-0.435383 117:-0.331468 118:-0.135316 119:-0.155772 120:-0.252834 121:-0.280098 122:-0.470185 123:0.268984 124:-0.108883 125:-0.945841 126:-0.366885 127:0.158685 128:-0.580089 129:-0.037544 130:0.348241 131:0.127692 132:-0.535009 133:-0.407315 134:-0.0689957 135:-0.372751 136:-0.255172 137:-0.900952 138:-0.0595613 139:0.336923 140:-0.428098 141:-0.33438 142:-0.00640889 143:0.189111 144:-0.70528 145:-0.240304 146:0.0381696 147:0.0784708 148:-0.0846287 149:-0.32 150:-0.376899 151:0.463917 152:-0.684401 153:-0.115743 154:0.157865 155:0.206647 156:-0.873927 157:0.248648 158:-0.956522 159:0.252011 160:-0.148426 161:-1 162:-0.500281 163:-0.12701 164:-0.284769 165:-0.56647 166:-0.382382 167:0.197589 168:-0.147837 169:0.800978 170:0.832215 171:0.35401 172:-0.04947 173:0.0808824 174:0.636927 175:-0.100855 176:0.415658 177:0.362382 178:0.541676 179:-0.771519 180:-0.96298 181:0.95154 183:0.95154 184:0.350195 185:-1 186:0.272656 187:0.0748443 188:0.0883781 189:0.191444 190:0.532639 191:-0.890019 192:-0.977834 193:-0.661732 194:0.61979 195:-0.629947 196:-0.911111 197:-0.868 198:0.470902 199:0.928148 200:-0.871286 201:-0.910235 202:-0.733061 203:0.0489544 204:-0.622086 205:0.150981 206:0.081629 207:0.100637 208:-0.0903614 209:-0.15885 210:-0.0473028 211:0.143902 212:-0.315584 213:-0.384726 214:-0.165291 215:0.0795549 216:-0.539893 217:0.0482758 218:0.091508 219:0.0421332 220:-0.18507 221:-0.0315457 222:0.189011 223:-0.241457 224:0.0457261 225:-0.0466407 226:0.192086 227:0.229844 228:-0.819018 229:-0.481899 230:0.0559937 231:-0.209549 232:-0.439873 233:-0.496136 234:0.160834 235:0.190577 236:-0.143402 237:-0.495359 238:-0.319474 239:-0.384251 240:-0.257603 241:-0.452108 242:0.67494 243:-0.585723 244:-0.342067 245:-0.292308 246:0.108791 247:-0.452282 248:0.130767 249:-0.596444 250:-0.371542 251:-0.137169 252:-0.704172 253:0.308748 254:-0.225062 255:0.313495 256:-0.667137 257:-0.677326 258:0.197786 259:-0.374298 260:0.197369 261:-0.107382 262:0.136498 263:-0.251711 264:-0.407748 265:0.24655 266:-0.415111 267:0.752762 268:-0.507438 269:-0.4 270:0.0660151 271:-0.390312 272:0.230548 273:0.0903561 274:0.282776 275:-0.0485556 276:-0.17402 277:0.125125 278:0.0761643 279:0.164872 280:-0.392473 281:-0.180593 282:-0.144518 283:-0.538224 284:-0.0237704 285:-0.159368 286:0.0654442 287:0.172065 288:-0.610384 289:-0.139403 290:0.0966923 291:0.00940836 292:-0.401399 293:-0.594714 294:0.111089 295:-0.283688 296:-0.176588 297:-0.357382 298:-0.166399 299:0.295674 300:-0.469228 301:-0.341918 302:0.688213 303:-0.493294 304:0.0463576 305:-0.450915 306:0.0149573 307:-0.178852 308:0.0974613 309:-0.620557 310:-0.427431 311:0.228387 312:-0.573974 313:-0.252237 314:-0.0467749 315:-0.0195485 316:-0.637771 317:-0.919771 318:0.122822 319:-0.238745 320:0.0366156 321:-0.199561 322:0.0294485 323:-0.375951 324:-0.451576 325:0.473471 326:-0.3084 327:0.500933 328:-0.895706 329:-0.217391 330:-0.0709489 331:-0.304377 332:-0.0682735 333:-0.205695 334:-0.0154852 335:-0.208825 336:-0.0256152 337:-0.177895 338:0.115294 339:0.076372 340:-0.825944 341:-0.828897 342:-0.201295 343:-0.364915 344:-0.0846633 345:-0.0701672 346:0.151477 347:-0.0796024 348:-0.353514 349:0.101877 350:-0.339897 351:0.194695 352:-0.1571 353:-0.558974 354:-0.176448 355:-0.36387 356:0.535548 357:-0.249625 358:0.0094363 359:-0.345647 360:-0.140813 361:0.378195 362:-0.201634 363:0.478447 364:-0.200772 365:-0.323136 366:-0.326954 367:0.516098 368:-0.291681 369:0.375115 370:0.57363 371:-0.235172 372:-0.880808 373:0.884103 374:-0.938761 375:0.911432 376:-0.934186 377:-0.0344828 378:-0.433794 379:0.159419 380:-0.0509431 381:0.154798 382:0.518699 383:0.426716 384:-0.921178 
0 2.676663759579168 0 0.08461291116377075 0 0 1:-0.349989 2:-0.895815 3:-0.348006 4:-0.921671 5:-0.990361 6:-0.0355344 7:0.209424 8:-0.153022 9:-0.33522 10:0.0190412 11:-0.64306 12:-0.896523 13:-0.174966 14:-0.412868 15:0.131708 16:-0.538462 17:-0.670558 18:-0.639987 19:-0.0009176 20:-0.48073 21:-0.522724 22:-0.342655 23:-0.182156 24:0.240944 25:-0.583257 26:-0.568973 27:0.0661214 28:-0.472354 29:-0.508306 30:-1 31:-0.296319 32:-0.520443 33:0.279101 34:0.491991 35:0.163629 36:-0.887611 37:-0.424601 38:0.272087 39:-0.630331 40:-0.511592 41:-0.739663 42:-0.129129 43:0.246042 44:-0.376381 45:-0.93258 46:-1 47:0.315647 48:-0.457306 49:-0.771579 50:-0.128378 51:-0.389625 52:-0.497784 53:-0.975709 54:-0.504283 55:-0.00797774 56:-0.605426 57:-0.140752 58:0.161066 59:0.224489 60:-0.87018 61:-0.361114 62:-0.0882559 63:-0.209136 64:-0.748851 65:-0.96063 66:0.0664732 67:0.0505761 68:-0.0830543 69:-0.0613514 70:0.149366 71:0.28666 72:-0.901283 73:-0.735356 74:-0.47334 75:-0.0394123 76:-0.728643 77:-0.89911 78:-0.438659 79:0.00362201 80:-0.302295 81:-0.00015889 82:0.0738182 83:-0.688928 84:-0.0925724 85:0.0304002 86:-0.267338 87:0.219986 88:-0.965426 89:-0.782214 90:0.232044 91:-0.468701 92:0.497176 93:0.120357 94:0.278216 95:-0.423336 96:-0.475313 97:-0.265756 98:0.487006 99:-0.549336 100:-0.656925 101:-0.78 102:0.154593 103:-0.0544704 104:0.211179 105:-0.407894 106:-0.275843 107:0.411007 108:-0.801475 109:-0.286009 110:-0.0239174 111:-0.107925 112:-0.467474 113:-0.956989 114:-0.355763 115:0.299096 116:-0.435627 117:0.0197029 118:0.156367 119:-0.000185441 120:-0.633413 121:-0.465036 122:0.129954 123:-0.40453 124:-0.647564 125:-0.59381 126:-0.0477149 127:-0.147736 128:0.123717 129:-0.565166 130:-0.428058 131:0.0800307 132:-0.356132 133:0.233965 134:-0.236965 135:0.164257 136:-0.721839 137:-0.409524 138:0.527699 139:-0.245236 140:0.679352 141:0.788508 142:0.812944 143:0.206485 144:-0.527524 145:-0.175901 146:0.374672 147:-0.084074 148:-0.626943 149:-0.981818 150:0.267871 151:0.0374339 152:0.391728 153:-0.116227 154:0.0789818 155:0.0476549 156:-0.814535 157:-0.335135 158:0.391305 159:-0.410188 160:-0.604198 161:-0.433898 162:0.230387 163:0.0323506 164:-0.0156844 165:-0.768494 166:-0.594357 167:-0.397515 168:-0.576593 169:0.899838 170:0.32393 171:0.591701 172:-0.590106 173:-0.724265 174:0.944636 175:-0.0891781 176:0.588024 177:1 178:0.974124 179:-0.936122 180:-0.964155 181:0.980243 183:0.980243 184:-0.548638 185:-1 186:1 187:-0.263175 188:0.77699 189:0.787306 190:0.885423 191:-1 192:-0.983871 193:-0.566116 194:0.0419818 195:-0.30661 196:-0.918954 197:-0.876 198:0.602102 199:0.18714 200:-0.0852103 201:-0.363874 202:0.0200398 203:-0.143331 204:-0.852138 205:-0.208684 206:0.253102 207:-0.214663 208:-0.611446 209:-0.624811 210:0.112765 211:-0.167615 212:0.0650822 213:-0.530162 214:-0.327043 215:-0.015667 216:-0.268597 217:0.261422 218:0.097666 219:0.167032 220:-0.866252 221:-0.470032 222:-0.730765 223:0.38939 224:-0.552653 225:0.048779 226:0.281823 227:0.363676 228:-0.710304 229:-0.441459 230:0.820536 231:-0.645836 232:-0.509494 233:-0.517774 234:-0.370944 235:0.353852 236:-0.345799 237:-0.761155 238:-0.645807 239:0.364771 240:-0.43232 241:0.733797 242:0.21586 243:0.263285 244:-0.80786 245:-0.976068 246:-1 247:-0.214129 248:-0.169868 249:0.231576 250:0.439983 251:0.403694 252:-0.474216 253:-0.0163094 254:0.050676 255:-0.0218032 256:-0.602257 257:-0.985465 258:-1 259:-1 260:0.747554 261:-0.248853 262:0.00105348 263:-0.292315 264:-0.583672 265:-0.022563 266:0.4291 267:-0.0263216 268:-0.900826 269:-0.804 270:-0.24297 271:0.047065 272:-0.16511 273:-0.0291325 274:0.182023 275:0.32964 276:-0.541317 277:-0.390819 278:0.435762 279:-0.363877 280:-0.825269 281:-0.90566 282:-0.471103 283:-0.20467 284:-0.152528 285:9.91416e-05 286:0.215999 287:0.02446 288:-0.935058 289:-0.68098 290:0.751137 291:-0.755541 292:-0.675524 293:-0.659325 294:0.405687 295:-0.144285 296:-0.0491575 297:-0.528935 298:-0.358444 299:0.147234 300:-1 301:-0.343576 302:0.468322 303:-0.364204 304:-0.453642 305:-0.963394 306:0.14946 307:0.519967 308:-0.533276 309:-0.339533 310:-0.0916004 311:0.000300823 312:-0.578294 313:-0.853093 314:0.247379 315:-0.582987 316:-0.876161 317:-0.644699 318:-0.233983 319:0.0351974 320:-0.212632 321:-0.37874 322:-0.153183 323:-0.364816 324:-0.779762 325:-0.410121 326:-0.338804 327:0.0453067 328:-0.705521 329:-0.881159 330:0.105331 331:-0.554284 332:0.524515 333:0.427612 334:0.555719 335:-0.443637 336:-0.572866 337:-0.230244 338:0.160618 339:0.00970181 340:-0.835796 341:-0.752852 342:-0.552962 343:-0.791348 344:0.552115 345:0.132598 346:0.332603 347:-0.084655 348:-0.705918 349:-0.313673 350:0.690068 351:-0.64014 352:-0.625378 353:-0.54188 354:0.0351707 355:-0.385641 356:0.579747 357:-0.758363 358:-0.589203 359:0.162682 360:-0.483267 361:0.138 362:-0.387515 363:0.452787 364:-0.710425 365:-0.6826 366:-0.136543 367:-0.601649 368:0.930144 369:0.266433 370:0.507563 371:-0.212192 372:-0.74293 373:0.650001 374:-0.835535 375:0.742767 376:-0.645338 377:-0.649655 378:-0.433794 379:-0.653008 380:0.875018 381:0.276627 382:0.604616 383:0.37794 384:-0.914955 
0 5.918321657608662 0 0 0 0 1:-0.629761 2:-0.926283 3:-0.628309 4:-0.955614 5:-0.655422 6:-0.458097 7:-0.37848 8:0.0264039 9:-0.617605 10:-0.259716 11:-0.62729 12:-0.909187 13:-0.285442 14:0.373444 15:-0.590706 16:-0.646724 17:-0.818418 18:-0.209512 19:0.373247 20:-0.350229 21:-0.743298 22:-0.575055 23:-0.0149173 24:-0.5393 25:-0.534738 26:-0.581034 27:0.109576 28:-0.772512 29:-0.651163 30:-0.657717 31:0.720011 32:-0.794646 33:0.695283 34:0.850407 35:-0.159735 36:-0.891255 37:-0.602771 38:0.365366 39:-0.852355 40:-0.737249 41:-0.699847 42:-0.266747 43:0.286549 44:-0.46842 45:-0.718753 46:-0.685967 47:0.430374 48:-0.808023 49:-0.744249 50:0.230339 51:-0.709761 52:-0.60709 53:-0.558704 54:-0.350676 55:-0.00229754 56:-0.461422 57:-0.509635 58:-0.223074 59:0.581135 60:-0.883452 61:0.0834671 62:0.239438 63:-0.145125 64:-0.678407 65:-0.681102 66:0.194347 67:-0.282387 68:0.247191 69:0.320109 70:0.466241 71:0.691025 72:-0.91078 73:-0.165725 74:-0.132172 75:0.110512 76:-0.98995 77:-0.632047 78:-0.525686 79:-0.784014 80:0.0816545 81:-0.15577 82:0.107412 83:0.329234 84:0.115451 85:-0.333179 86:-0.249204 87:-0.0494597 88:-0.965426 89:-1 90:-0.358495 91:-0.0920837 92:-0.149466 93:-0.106089 94:0.0638666 95:-0.207272 96:-0.627325 97:-0.523881 98:-0.174694 99:-0.1136 100:-0.989835 101:-0.688 102:-0.401391 103:-0.416141 104:-0.0062491 105:-0.214365 106:-0.00891336 107:0.255263 108:-0.697179 109:-0.800894 110:-0.324174 111:-0.201578 112:-0.909228 113:-0.741935 114:-0.596551 115:-0.727731 116:-0.0695711 117:-0.303504 118:0.0164298 119:-0.174807 120:-0.538922 121:-0.762391 122:-0.319778 123:-0.272265 124:-0.593123 125:-0.636364 126:-0.536206 127:-0.181386 128:-0.205514 129:-0.522289 130:-0.377296 131:-0.0570306 132:-0.0511278 133:-0.126744 134:-0.198531 135:-0.100486 136:-0.74023 137:-0.554286 138:0.140368 139:-0.911183 140:0.711497 141:-0.00746168 142:0.42394 143:0.0801541 144:-0.629475 145:0.531027 146:0.624244 147:0.381076 148:-0.806563 149:-0.76 150:0.219248 151:-0.22099 152:0.47533 153:-0.107241 154:0.115575 155:0.633709 156:-0.222473 157:-0.14054 158:0.26087 159:-0.209115 160:-0.772114 161:-0.555932 162:-0.300283 163:-0.399729 164:0.0884731 165:-0.697435 166:-0.523993 167:0.0635128 168:-0.233512 169:0.84964 170:0.937125 171:0.361463 172:-0.600707 173:-0.496324 174:0.866451 175:-0.132593 176:0.559355 177:0.610237 178:0.719211 179:-0.819034 180:-0.955418 181:0.825075 183:0.825075 184:-0.937743 185:-1 186:0.759191 187:-0.0407298 188:0.485326 189:0.503026 190:0.720587 191:-0.977046 192:-0.984164 193:-0.621756 194:0.822323 195:-0.695128 196:-0.952941 197:-0.988 198:0.464696 199:0.136807 200:-0.238388 201:-0.72882 202:-0.4083 203:0.282517 204:-0.871773 205:-0.887023 206:0.524636 207:-0.782081 208:-0.783133 209:-0.815431 210:-0.20964 211:0.210961 212:-0.456035 213:-0.726498 214:-0.575715 215:-0.171355 216:-1 217:-0.0200879 218:-0.431322 219:0.293826 220:-0.642302 221:-0.933754 222:0.796571 223:0.288612 224:0.0280461 225:0.333835 226:0.516391 227:-0.279836 228:-0.688994 229:-0.562455 230:0.773774 231:-0.690824 232:-0.75 233:-0.731066 234:0.220203 235:-0.328884 236:0.463833 237:-0.32293 238:-0.128418 239:0.0299916 240:-0.998399 241:0.0244534 242:0.398474 243:-0.192648 244:-0.802038 245:-0.664957 246:0.0640406 247:0.377684 248:-0.351769 249:-0.0328636 250:0.221571 251:0.3925 252:-0.638443 253:0.38183 254:0.421475 255:-0.0832708 256:-0.937941 257:-0.668605 258:-0.593881 259:0.149207 260:-0.245886 261:-0.239423 262:0.0123561 263:0.540616 264:-0.301048 265:-0.580006 266:0.358991 267:-0.34572 268:-0.864463 269:-0.984 270:-0.506488 271:1 272:-0.984497 273:0.00719453 274:0.242524 275:-0.227084 276:-0.904894 277:0.107959 278:-0.105883 279:0.270257 280:-0.983871 281:-0.994609 282:0.322703 283:-0.262294 284:0.241531 285:0.220215 286:0.404961 287:0.258867 288:-0.673967 289:-0.426726 290:-0.344613 291:0.135814 292:-0.823776 293:-0.770925 294:0.113138 295:0.502578 296:-0.745941 297:0.17496 298:0.36575 299:-0.626186 300:-0.350858 301:-0.1862 302:0.477786 303:-0.287561 304:-0.857616 305:-0.990017 306:-0.450706 307:0.667887 308:-0.640561 309:-0.0776561 310:0.164282 311:0.111687 312:-0.858103 313:-0.84648 314:0.348467 315:-0.636699 316:-0.786378 317:-0.991404 318:0.46152 319:0.464604 320:-0.27616 321:-0.609834 322:-0.412477 323:-0.177441 324:-0.63582 325:-0.130725 326:-0.0824953 327:0.037755 328:-0.800613 329:-0.666667 330:0.190339 331:-0.140747 332:0.210196 333:0.496299 334:0.613727 335:-0.376262 336:-0.794916 337:0.141672 338:-0.0883308 339:0.431188 340:-0.832512 341:-0.790875 342:0.197131 343:-0.411742 344:0.317931 345:0.806187 346:0.862448 347:-0.0115228 348:-0.524017 349:-0.169795 350:0.196061 351:-0.270771 352:-0.78852 353:-0.733333 354:-0.205441 355:-0.589068 356:0.617873 357:-0.57198 358:-0.341916 359:-0.23797 360:-0.116952 361:0.164483 362:-0.0154976 363:0.249305 364:-0.976834 365:-0.824092 366:-0.462861 367:-1 368:0.94783 369:0.249166 370:0.497051 371:-0.319007 372:-0.888023 373:0.727683 374:-0.82714 375:0.777412 376:-0.798903 377:-0.950345 378:-0.433794 379:-1 380:1 381:0.535213 382:0.759582 383:0.428823 384:-0.934028 
0 4.270724809002221 0 0 0 0 1:-0.486476 2:-0.903374 3:-0.484777 4:-0.415144 5:-0.281928 6:-0.458503 7:0.143415 8:-0.390781 9:-0.628863 10:-0.313689 11:-0.42347 12:-0.787112 13:-0.0389896 14:0.336201 15:-0.37689 16:-0.803419 17:-0.346304 18:-0.399999 19:-0.278989 20:-0.135438 21:-0.665767 22:-0.510399 23:-0.0211192 24:-0.716136 25:-0.343941 26:-0.710814 27:0.353335 28:-0.191153 29:-0.358804 30:-0.71146 31:-0.053714 32:-0.432526 33:0.325996 34:0.50526 35:0.0458179 36:-0.753426 37:-0.585481 38:-0.268354 39:-0.332815 40:-0.931994 41:-0.491577 42:-0.376335 43:-0.283636 44:-0.125774 45:-0.606616 46:-0.514379 47:-0.175247 48:-0.47939 49:-0.466183 50:-0.35266 51:0.00377307 52:-0.134417 53:-0.785425 54:-0.49461 55:-0.0367127 56:-0.690184 57:-0.109617 58:0.221341 59:0.453554 60:-0.83315 61:-0.0451979 62:0.0465829 63:-0.083645 64:-0.316998 65:-0.326772 66:0.133097 67:-0.0145976 68:-0.0343585 69:-0.129833 70:0.0892891 71:0.737246 72:-0.751419 73:-0.260736 74:-0.959455 75:0.831118 76:-0.9933 77:-0.602374 78:-0.454748 79:-0.0325265 80:-0.288017 81:0.159499 82:0.197967 83:0.00903597 84:0.0985197 85:-0.228488 86:-0.566483 87:0.276356 88:-0.702128 89:0.00907441 90:-0.616912 91:-0.234145 92:-0.265576 93:0.509284 94:0.5692 95:-0.031568 96:-0.616025 97:0.417198 98:-0.350421 99:0.705989 100:-0.229987 101:-0.744 102:0.155371 103:0.312183 104:-0.306705 105:-0.0549365 106:0.242684 107:-0.0723236 108:-0.183304 109:-0.132565 110:-0.55626 111:0.500318 112:-0.252648 113:-0.97235 114:-0.338929 115:0.448421 116:-0.700393 117:-0.0293548 118:0.26192 119:-0.0673106 120:-0.43555 121:0.170562 122:-0.0236774 123:0.270468 124:-0.289398 125:0.0522244 126:-0.184636 127:-0.107611 128:-0.0468446 129:0.372097 130:0.499417 131:0.645368 132:-0.151766 133:0.632113 134:-0.123308 135:0.35256 136:-0.418391 137:0.0552381 138:0.469512 139:0.371309 140:0.0136511 141:0.176082 142:0.423143 143:0.321694 144:-0.532235 145:0.179146 146:0.336799 147:0.256141 148:-0.557858 149:-0.789091 150:0.318388 151:0.713484 152:-0.326317 153:0.301552 154:0.623047 155:0.0743416 156:-0.945102 157:0.205405 158:-0.826087 159:0.201072 160:-0.67916 161:0.0440678 162:0.0630586 163:-0.180124 164:0.0851342 165:-0.585203 166:-0.412 167:-0.243944 168:-0.501025 169:0.916853 170:0.599771 171:0.52053 172:-0.558304 173:-0.988971 174:0.714968 175:-0.101384 176:0.461496 177:0.756104 178:0.817674 179:-0.647358 180:-0.975473 181:0.941176 183:0.941176 184:-0.513619 185:-1 186:0.605171 187:0.0162925 188:0.367523 189:0.690336 190:0.824297 191:-0.935921 192:-0.983683 193:-0.478885 194:0.500089 195:-0.456133 196:-0.40915 197:-0.092 198:0.462175 199:0.82352 200:-0.683675 201:-0.613301 202:-0.255709 203:0.0670777 204:-0.841434 205:-0.565652 206:0.554323 207:-0.596425 208:-0.463855 209:-0.691377 210:0.487098 211:0.00689097 212:0.0901204 213:-0.65915 214:-0.485626 215:-0.313092 216:-0.84907 217:0.199377 218:0.0557691 219:0.15314 220:-0.219285 221:-0.908517 222:0.0817992 223:-0.0932926 224:-0.166273 225:0.210709 226:0.416934 227:0.190883 228:-0.820138 229:0.140082 230:0.0514217 231:0.16933 232:-0.468354 233:-0.919629 234:0.000416373 235:0.213821 236:-0.1984 237:-0.320286 238:-0.127583 239:-0.0976738 240:-0.354889 241:0.526109 242:-0.114426 243:0.346304 244:-0.164483 245:-0.733333 246:0.0748588 247:-0.263176 248:-0.184338 249:0.50252 250:0.653711 251:0.165716 252:-0.698023 253:-0.302276 254:0.0578818 255:-0.15993 256:-0.51481 257:-0.30814 258:-0.144514 259:-0.40348 260:0.210013 261:-0.441563 262:-0.202865 263:-0.540578 264:-0.416459 265:0.719923 266:-0.319266 267:0.998148 268:-0.570248 269:-0.22 270:-0.224418 271:-0.217691 272:-0.148241 273:0.413409 274:0.555543 275:0.119503 276:0.436876 277:-0.0767838 278:0.269515 279:-0.0754054 280:-0.55914 281:-0.296496 282:0.0506505 283:-0.452962 284:-0.0516153 285:-0.185962 286:0.0415125 287:0.309886 288:-0.666074 289:-0.482605 290:0.410439 291:-0.407185 292:-0.451748 293:-0.823789 294:0.401365 295:-0.279264 296:-0.0488784 297:-0.241372 298:-0.0465665 299:-0.293594 300:-0.750236 301:-0.515308 302:0.212467 303:-0.30273 304:-0.0629139 305:-0.976705 306:-0.0429385 307:-0.126899 308:0.0155058 309:-0.362192 310:-0.129486 311:-0.211502 312:-0.583628 313:0.0977299 314:0.105116 315:0.123004 316:-0.151703 317:-0.286533 318:0.206649 319:-0.331105 320:0.291149 321:0.353298 322:0.518924 323:0.181554 324:-0.708944 325:-0.189292 326:0.0200703 327:-0.0567234 328:-0.107362 329:-0.550725 330:-0.0474796 331:-0.273573 332:-0.0422668 333:0.0553707 334:0.235004 335:-0.342559 336:-0.52711 337:0.146256 338:0.111634 339:0.291397 340:-0.862069 341:-0.825095 342:0.0478316 343:-0.489045 344:0.283027 345:0.714855 346:0.795978 347:0.0564057 348:-0.612471 349:0.175156 350:0.138698 351:-0.0440438 352:-0.691843 353:-0.634188 354:-0.267439 355:-0.384621 356:0.509192 357:-0.259752 358:-0.000518472 359:0.025194 360:-0.391299 361:0.742576 362:-0.47186 363:0.841471 364:-0.289575 365:-0.869981 366:-0.0079957 367:0.227202 368:0.323786 369:0.760037 370:0.844946 371:-0.213273 372:-0.855623 373:0.79666 374:-0.709008 375:0.752834 376:-0.564899 377:-0.605517 378:-0.433794 379:0.0545871 380:0.146867 381:0.802983 382:0.898064 383:0.456039 384:-0.939816 
