svm_type c_svc
kernel_type rbf
gamma 0.0078125
nr_class 7
total_sv 380
rho 0.371433 -0.488396 0.186425 0.655396 -0.112864 0.0203375 -0.0111983 -0.00382925 0.210103 0.591241 0.107474 0.23823 0.309768 -0.0652225 0.123812 0.0583231 -0.0966204 -0.439059 -0.356604 -0.682388 -0.137314
label 5 7 1 6 4 2 3
probA -4.50869 -2.79694 -4.03588 -3.12034 -4.43073 -3.91158 -4.6892 -4.60547 -4.97762 -4.71451 -4.96531 -4.21509 -4.82603 -4.52423 -4.42589 -4.52381 -3.38657 -4.80654 -4.38203 -4.23643 -4.91158
probB -0.0228138 0.0412221 -0.125497 0.0392887 0.163707 0.191942 -0.111184 0.382865 0.210469 0.19241 0.461985 -0.0862312 0.315183 0.0617468 0.270106 -0.0315407 -0.126299 0.146044 0.0772751 -0.000591723 0.0291216
nr_sv 53 58 81 40 52 60 36
SV
2.750704301139341 2.19097808595213 0.9211363688316955 4.546037118469701 1.031631487813965 1.326966773885148 1:-0.880785 2:-0.790745 3:-0.879518 4:-0.929504 5:-0.99759 6:-0.777313 7:0.110366 8:-0.505668 9:-0.9018 10:-0.767896 11:-0.57626 12:-0.863661 13:0.277193 14:-0.336666 15:0.284414 16:-0.693182 17:-0.647211 18:0.0222107 19:-0.479529 20:0.181357 21:-0.125334 22:0.104398 23:-0.377627 24:-0.340043 25:0.0700215 26:0.126069 27:-0.124599 28:-0.807267 29:-0.886477 30:0.209309 31:-0.42784 32:0.346549 33:-0.357348 34:-0.030833 35:0.0596571 36:-0.457976 37:-0.186897 38:0.041226 39:-0.0957534 40:-0.76507 41:-0.679279 42:-0.128822 43:-0.177584 44:0.046519 45:-0.305062 46:-0.193467 47:-0.0193467 48:-0.446384 49:-0.279068 50:0.560546 51:-0.740781 52:-0.754801 53:-0.451613 54:0.245773 55:-0.24384 56:0.260463 57:-0.708752 58:-0.495418 59:0.235008 60:-0.752066 61:-0.50869 62:-0.147983 63:-0.290094 64:-0.504188 65:-0.492126 66:0.054808 67:-0.228931 68:0.0937713 69:-0.250829 70:-0.0384658 71:-0.242157 72:-0.572308 73:-0.479017 74:-0.140148 75:-0.161937 76:-0.826087 77:-0.908012 78:-0.234107 79:0.0615881 80:-0.189113 81:-0.187411 82:-0.0786383 83:-0.330846 84:-0.478275 85:-0.135712 86:0.334182 87:-0.362919 88:-0.941489 89:-0.796733 90:0.250042 91:-0.534636 92:0.526808 93:-0.668893 94:-0.483044 95:-0.278811 96:-0.516268 97:-0.141907 98:0.0643562 99:-0.0622552 100:-0.542567 101:-0.728 102:0.184072 103:0.334919 104:-0.100009 105:0.0834445 106:0.295612 107:0.0394798 108:-0.74364 109:-0.173401 110:-0.598851 111:0.5056 112:-0.549168 113:-0.84639 114:0.312521 115:0.184506 116:0.00934607 117:0.838727 118:0.751972 119:-0.765107 120:0.13795 121:-0.8775 122:-0.150545 123:-0.574067 124:-0.679083 125:-0.876209 126:-0.436758 127:0.13653 128:-0.391236 129:-0.600222 130:-0.440499 131:-0.269848 132:-0.541764 133:-0.549597 134:0.338346 135:-0.726238 136:-0.586207 137:-0.577143 138:0.302067 139:0.192837 140:0.22456 141:-0.548906 142:-0.358888 143:-0.0976913 144:-0.704775 145:-0.36993 146:0.190909 147:-0.144601 148:-0.533679 149:-0.696833 150:-0.327518 151:0.259538 152:-0.327233 153:-0.354107 154:-0.16325 155:-0.190043 156:-0.728726 157:-0.0540542 158:-0.956522 159:-0.0482574 160:-0.592204 161:-0.99661 162:-0.290982 163:0.174441 164:-0.406645 165:-0.441802 166:-0.205539 167:-0.181287 168:-0.582767 169:0.37634 170:0.372274 171:0.203197 172:-0.793103 173:-0.698885 174:-0.389311 175:-0.242776 176:-0.318741 177:-0.532568 178:-0.248352 179:-0.252374 180:-0.769178 181:0.0819673 183:0.0819673 184:-0.494163 185:-1 186:-0.782328 187:0.0796062 188:-0.702444 189:-0.819626 190:-0.403961 191:-0.635228 192:-0.925612 193:-0.816724 194:0.739145 195:-0.774005 196:-0.926797 197:-0.888 198:0.475922 199:0.676273 200:-0.656546 201:-0.893989 202:-0.696441 203:-0.201503 204:-0.831574 205:-0.665859 206:0.424468 207:-0.590968 208:-0.560241 209:-0.727685 210:0.113728 211:0.0110265 212:-0.150365 213:-0.650624 214:-0.475732 215:0.0752035 216:-0.802111 217:-0.00615739 218:-0.487329 219:0.274818 220:-0.946875 221:-0.899213 222:-0.416974 223:-0.237383 224:0.110906 225:-0.227933 226:0.0189461 227:-0.22367 228:-0.434764 229:-0.537284 230:0.125931 231:-0.171955 232:-0.563291 233:-0.728027 234:-0.172215 235:0.384514 236:-0.265102 237:-0.0551411 238:0.123274 239:-0.354622 240:-0.798968 241:-0.815509 242:0.203286 243:-0.503007 244:-0.892285 245:-0.712821 246:0.201059 247:-0.201836 248:0.0588032 249:-0.492796 250:-0.247428 251:-0.140737 252:-0.540546 253:-0.577879 254:0.422971 255:-0.532712 256:-0.940762 257:-0.65407 258:-0.168033 259:-0.0808157 260:-0.0447694 261:-0.31166 262:-0.0770914 263:-0.28139 264:-0.936762 265:-0.340484 266:0.064412 267:-0.00489194 268:-0.895349 269:-0.675351 270:-0.22277 271:-0.052733 272:-0.0677527 273:-0.119884 274:0.095758 275:0.278645 276:-0.572397 277:-0.495838 278:0.529611 279:-0.44503 280:-0.706989 281:-0.727763 282:-0.196939 283:-0.706163 284:0.424613 285:-0.404929 286:-0.207105 287:0.114818 288:-0.896169 289:0.311862 290:-0.134244 291:0.458006 292:-0.860724 293:-0.853157 294:0.485147 295:-0.0290943 296:-0.206 297:0.435993 298:0.560437 299:0.222743 300:0.0135279 301:0.381995 302:0.293941 303:0.117997 304:-0.645695 305:-0.836938 306:0.0329198 307:-0.0497859 308:0.0788319 309:-0.0945341 310:0.13708 311:0.242943 312:-0.0607613 313:-0.31185 314:0.244353 315:-0.26859 316:-0.576159 317:-0.911175 318:-0.27588 319:0.114527 320:-0.337875 321:-0.316648 322:-0.0858421 323:0.152725 324:-0.424983 325:-0.621105 326:0.115766 327:-0.289966 328:-0.745399 329:-0.675362 330:-0.275917 331:-0.413531 332:0.246827 333:-0.289674 334:-0.0699229 335:-0.437509 336:-0.562478 337:-0.0875954 338:0.442628 339:-0.138424 340:-0.569787 341:-0.429658 342:-0.333696 343:-0.185497 344:-0.117494 345:0.127812 346:0.326716 347:0.570232 348:-0.404453 349:0.0584259 350:0.40839 351:-0.311311 352:-0.607251 353:-0.675214 354:-0.0727242 355:-0.483128 356:0.707247 357:-0.49667 358:-0.262653 359:0.168514 360:-0.399932 361:-0.240285 362:0.343789 363:-0.169608 364:-0.799228 365:-0.510516 366:-0.232472 367:0.139992 368:0.115843 369:-0.486423 370:-0.193327 371:-0.109842 372:-0.91421 373:0.0819675 374:-0.0819675 375:0.0819674 376:-0.531993 377:-0.635862 378:-0.235271 379:0.603024 380:-0.364464 381:-0.726008 382:-0.260494 383:0.258641 384:-0.882695 
2.064102709546496 1.002229901662032 0.2417248843552736 2.674092596640036 2.875658704548405 2.321534492269836 1:-0.595596 2:-0.769088 3:-0.593879 4:-0.791123 5:-0.995181 6:-0.0560289 7:0.0219658 8:0.0657865 9:-0.624396 10:-0.303534 11:-0.822601 12:-0.951273 13:-0.133671 14:-0.214756 15:-0.109627 16:-0.661932 17:-0.776913 18:-0.338208 19:0.089345 20:-0.383648 21:-0.169787 22:0.0554862 23:-0.299684 24:-0.688739 25:0.181299 26:0.284141 27:-0.190301 28:-0.889415 29:-0.298831 30:0.231466 31:-0.192899 32:0.259721 33:-0.657432 34:-0.418324 35:-0.188717 36:0.159383 37:-0.533639 38:-0.0221754 39:-0.350455 40:-0.956723 41:-0.246847 42:-0.311094 43:-0.589429 44:0.282545 45:-0.479545 46:-0.157613 47:0.0587582 48:-0.813164 49:-0.168783 50:0.308261 51:-0.438028 52:-0.296898 53:-0.770161 54:0.0417319 55:-0.202768 56:0.0418363 57:-0.561727 58:-0.301995 59:0.761877 60:-0.695369 61:-0.536226 62:-0.712448 63:0.140434 64:-0.20603 65:-0.11811 66:-0.391863 67:-0.00320986 68:-0.53511 69:-0.106183 70:0.107553 71:-0.120216 72:-0.40085 73:-0.865463 74:0.0639714 75:-0.692572 76:-0.992095 77:-0.578635 78:-0.386285 79:0.113226 80:-0.374676 81:-0.527913 82:-0.383785 83:-0.454751 84:-0.589337 85:-0.306292 86:0.121785 87:-0.309754 88:-0.5 89:-0.807623 90:-0.307026 91:0.500725 92:-0.60218 93:-0.448815 94:0.0671852 95:0.0856498 96:-0.925714 97:-0.827164 98:-0.373418 99:-0.13683 100:-0.949174 101:-0.512 102:-0.711025 103:-0.255863 104:-0.247181 105:-0.427517 106:-0.217966 107:0.462541 108:-0.627183 109:-0.807857 110:-0.60703 111:0.0640382 112:-0.555219 113:-0.815668 114:-0.59045 115:0.374038 116:-0.90143 117:0.750603 118:0.759315 119:-0.195497 120:-0.772948 121:-0.727062 122:-0.0288885 123:-0.543516 124:-0.659026 125:-0.199226 126:-0.578801 127:0.0243397 128:-0.447654 129:-0.220473 130:-0.0340619 131:0.160173 132:-0.986104 133:-0.135405 134:-0.179329 135:-0.111252 136:-0.875862 137:-0.481905 138:-0.132637 139:-0.243405 140:0.283673 141:-0.292351 142:-0.0110237 143:0.445609 144:-0.353504 145:-0.724717 146:-0.102939 147:-0.262225 148:-0.606218 149:-0.950226 150:-0.588622 151:0.295792 152:-0.613991 153:-0.233006 154:-0.0396378 155:-0.169927 156:-0.914285 157:0.218919 158:-0.565217 159:0.198391 160:-0.868066 161:-0.491525 162:0.0242279 163:-0.260254 164:0.171536 165:0.387471 166:0.357271 167:-0.298276 168:-0.729209 169:0.649177 170:0.878479 171:0.272119 172:-0.582375 173:-0.263941 174:0.335206 175:-0.392692 176:0.369527 177:0.237649 178:0.507102 179:-0.564542 180:-0.960771 181:0.472222 183:0.472222 184:-0.770428 185:-1 186:-0.06235 187:-0.365787 188:0.313371 189:-0.124069 190:0.363867 191:-0.872737 192:-0.980339 193:-0.782136 194:0.492269 195:-0.629222 196:-0.788235 197:-0.68 198:0.521327 199:0.555406 200:-0.338338 201:-0.652438 202:-0.304118 203:-0.240734 204:-0.941865 205:-0.158671 206:-0.112695 207:0.00879725 208:-0.506024 209:-0.903177 210:0.105286 211:0.182035 212:-0.369571 213:-0.583689 214:-0.392974 215:-0.173335 216:0.147183 217:-0.479711 218:0.577703 219:-0.565273 220:-0.415625 221:-0.351181 222:-0.405645 223:-0.363638 224:0.210546 225:-0.643525 226:-0.445207 227:0.107573 228:-0.824804 229:-0.717691 230:-0.000568372 231:-0.206056 232:-0.306962 233:-0.681592 234:-0.244433 235:0.431902 236:-0.403517 237:-0.359189 238:-0.182131 239:-0.690373 240:-0.30012 241:-0.335965 242:0.479658 243:-0.420953 244:-0.912664 245:-0.186325 246:-0.0152752 247:-0.498287 248:0.302643 249:-0.578336 250:-0.351688 251:0.700088 252:-0.410038 253:0.789727 254:-0.540591 255:0.743767 256:-0.365303 257:-0.994186 258:-0.17535 259:-0.170049 260:-0.0777882 261:-0.0808089 262:0.1494 263:-0.0763087 264:0.0651785 265:-0.3577 266:0.150424 267:-0.0778623 268:-0.344961 269:-0.61523 270:-0.342205 271:-0.340108 272:0.157679 273:-0.198155 274:0.0158782 275:-0.0879223 276:-0.210413 277:-0.446337 278:0.336866 279:-0.288019 280:-0.518817 281:-0.74124 282:-0.407749 283:-0.577664 284:0.121851 285:-0.620641 286:-0.451894 287:0.0391158 288:-0.463438 289:-0.295982 290:0.451207 291:-0.300123 292:-0.791086 293:-0.715125 294:-0.00685002 295:-0.101174 296:-0.375898 297:-0.16889 298:0.0220485 299:0.10628 300:-0.606611 301:-0.302826 302:0.559136 303:-0.396582 304:-0.417219 305:-0.603993 306:-0.313559 307:-0.0446451 308:-0.106165 309:-0.34207 310:-0.107493 311:0.176458 312:-0.648526 313:-0.531654 314:0.0924862 315:-0.334277 316:-0.476821 317:-0.498567 318:-0.329888 319:-0.10191 320:-0.204606 321:-0.215578 322:0.0146018 323:0.0855025 324:-0.704862 325:-0.159193 326:0.0774028 327:-0.0319251 328:-0.579755 329:-0.657971 330:0.00960139 331:-0.0991721 332:-0.149197 333:-0.0763623 334:0.145536 335:-0.376568 336:-0.504492 337:-0.752075 338:0.209125 339:-0.400597 340:-0.727422 341:-0.634981 342:0.292763 343:-0.130269 344:-0.19183 345:-0.301627 346:-0.0769033 347:-0.703609 348:-0.49844 349:0.222598 350:-0.0513701 351:0.0425429 352:-0.900302 353:-0.302564 354:-0.0255382 355:-0.259801 356:0.555073 357:0.302405 358:0.491371 359:-0.262214 360:-0.520634 361:0.0869016 362:0.0185611 363:0.213617 364:-0.301158 365:-0.502868 366:0.0316417 367:0.179763 368:0.26461 369:-0.0742705 370:0.215666 371:-0.358748 372:-0.78452 373:0.347702 374:-0.416111 375:0.381907 376:-0.73309 377:-0.812414 378:-0.235271 379:0.401964 380:-0.027269 381:-0.178702 382:0.281306 383:0.241157 384:-0.923195 
0 1.192798065952705 0 0 0 0 1:-0.61503 2:-0.809561 3:-0.613217 4:-0.97389 5:-0.987952 6:-0.309191 7:-0.0726215 8:0.0847674 9:-0.676077 10:-0.344942 11:-0.622483 12:-0.885922 13:0.286505 14:-0.350294 15:0.301199 16:-0.755682 17:-0.320363 18:0.123578 19:-0.0549609 20:-0.0130317 21:0.0203624 22:0.217362 23:-0.588813 24:-0.232124 25:-0.118739 26:0.00916821 27:-0.149045 28:-0.535545 29:-0.876461 30:0.0835522 31:0.173761 32:-0.163899 33:-0.402933 34:-0.141262 35:-0.15102 36:-0.571599 37:-0.367851 38:-0.400293 39:0.141711 40:-0.502318 41:-0.347748 42:-0.269909 43:-0.0174162 44:-0.2206 45:0.232214 46:0.352277 47:-0.240038 48:-0.619908 49:-0.35398 50:0.163382 51:-0.413091 52:-0.556869 53:-0.254032 54:-0.0140663 55:-0.206267 56:-0.0174633 57:-0.374459 58:-0.0899231 59:0.358121 60:-0.848093 61:-0.645761 62:-0.298597 63:-0.271941 64:-0.99665 65:-0.106299 66:-0.268704 67:-0.313041 68:-0.092082 69:-0.26837 70:-0.031547 71:0.432292 72:-0.845494 73:-0.228458 74:0.142102 75:-0.224796 76:-0.249012 77:-0.169139 78:-0.0737594 79:-0.081009 80:0.0621106 81:0.0656965 82:0.128767 83:-0.0892581 84:-0.86107 85:-0.226124 86:-0.270096 87:0.0653231 88:-0.204787 89:-0.876588 90:-0.366369 91:0.0972552 92:-0.416513 93:-0.0304319 94:0.263582 95:0.0740277 96:-0.900136 97:-0.345436 98:-0.36967 99:0.197136 100:-0.308767 101:-0.136 102:0.0474744 103:0.00146231 104:0.0825049 105:0.275336 106:0.407325 107:-0.351904 108:-0.403716 109:-0.420246 110:-0.214569 111:0.00789955 112:-0.803328 113:-0.698925 114:-0.0606985 115:-0.19525 116:0.134996 117:0.202421 118:0.351459 119:-0.320705 120:-0.593149 121:-0.670164 122:-0.128741 123:-0.414919 124:-0.487106 125:-0.733075 126:-0.446023 127:0.0308288 128:-0.384349 129:-0.388278 130:-0.200223 131:0.373861 132:-0.9249 133:-0.446603 134:-0.150552 135:-0.335175 136:-0.310345 137:-0.977143 138:-0.044856 139:0.33554 140:-0.325514 141:-0.332454 142:-0.0528291 143:0.0668205 144:-0.693807 145:-0.219217 146:0.0913953 147:0.0601514 148:-0.816926 149:-0.171946 150:-0.362934 151:0.138187 152:-0.234184 153:0.101492 154:0.254646 155:0.0631839 156:-0.942744 157:-0.175676 158:-0.782609 159:-0.179625 160:-0.211394 161:-0.745763 162:-0.417767 163:-0.237851 164:-0.0536302 165:-0.307327 166:-0.158126 167:-0.140252 168:-0.593716 169:0.771291 170:-0.102011 171:0.662289 172:-0.241379 173:-0.375465 174:0.778749 175:-0.0126734 176:0.327015 177:0.873225 178:0.921796 179:-0.805818 180:-0.984968 181:0.664447 183:0.664447 184:-0.785992 185:-1 186:0.450637 187:0.151597 188:0.250053 189:0.1595 190:0.511761 191:-0.977275 192:-0.985532 193:-0.690795 194:0.59007 195:-0.61775 196:-0.932026 197:-0.884 198:0.47797 199:0.782203 200:-0.603888 201:-0.650297 202:-0.302417 203:-0.0631852 204:-0.947506 205:0.328611 206:0.295789 207:0.0993807 208:-0.939759 209:-0.960666 210:0.389465 211:0.211622 212:-0.369284 213:-0.346739 214:-0.124603 215:0.486896 216:-0.366199 217:0.0713877 218:0.068366 219:0.0313501 220:-0.740625 221:-0.908661 222:0.0668298 223:-0.154892 224:-0.0563607 225:-0.109421 226:0.134857 227:0.510273 228:-0.830226 229:-0.493675 230:0.106646 231:-0.128618 232:-0.512658 233:-0.917081 234:-0.428211 235:0.272615 236:-0.242792 237:0.0129771 238:0.187094 239:-0.257811 240:-0.728772 241:-0.426911 242:0.571433 243:-0.518176 244:-0.804949 245:-0.979487 246:-0.438869 247:-0.515786 248:0.17802 249:-0.475203 250:-0.230356 251:0.288216 252:-0.722658 253:0.445614 254:0.143632 255:0.128193 256:-0.196051 257:-0.194767 258:-0.253194 259:-0.390206 260:0.157624 261:-0.141902 262:0.0890871 263:0.235633 264:-0.668726 265:0.234939 266:-0.189134 267:0.568555 268:0.0968992 269:0.106212 270:-0.159297 271:-0.327542 272:0.0960164 273:0.304695 274:0.464416 275:0.024708 276:-0.253625 277:0.346453 278:-0.183169 279:0.585364 280:-0.897849 281:-0.743935 282:-0.00955571 283:-0.611357 284:0.14017 285:0.217895 286:0.39767 287:0.291618 288:-0.595905 289:-0.0889219 290:-0.263644 291:0.295671 292:-0.629526 293:-0.603524 294:0.356786 295:-0.251803 296:-0.114422 297:0.429761 298:0.552714 299:-0.434326 300:-0.417719 301:-0.100889 302:-0.00128228 303:0.0401479 304:-0.0662252 305:-0.673877 306:-0.0725405 307:-0.0512573 308:-0.136404 309:-0.130332 310:0.105616 311:-0.282762 312:-0.465588 313:-0.439247 314:0.133056 315:-0.29461 316:-0.774834 317:-0.842407 318:-0.0630363 319:-0.193061 320:-0.0613731 321:-0.259739 322:-0.030303 323:0.0169397 324:-0.442128 325:0.101285 326:0.369751 327:-0.0712355 328:-0.484663 329:-0.510145 330:-0.001094 331:-0.332488 332:0.0846821 333:0.036085 334:0.2457 335:0.204866 336:-0.626675 337:-0.0822181 338:0.215646 339:0.033516 340:-0.178982 341:-0.34981 342:-0.201543 343:-0.372193 344:-0.00544059 345:0.0573877 346:0.263449 347:-0.00197105 348:-0.593721 349:0.196524 350:-0.0385276 351:0.0215219 352:-0.864048 353:-0.82906 354:-0.132592 355:-0.264638 356:0.550699 357:-0.182343 358:0.0659183 359:-0.16438 360:-0.384279 361:0.443786 362:-0.53408 363:0.750495 364:-0.343629 365:-0.85086 366:0.00432511 367:0.407442 368:-0.017508 369:0.0997068 370:0.360648 371:-0.326596 372:-0.519764 373:0.668768 374:-0.604965 375:0.636867 376:-0.806216 377:-0.878621 378:0.243302 379:0.5648 380:-0.106495 381:-0.286965 382:0.19322 383:0.271013 384:-0.898651 
0.126057434291324 0.3645215607747873 0 0 1.007626282800812 0.9974436830603002 1:-0.712058 2:-0.902214 3:-0.710125 4:-0.913838 5:-0.992771 6:-0.824582 7:0.0679362 8:-0.442237 9:-0.938498 10:-0.849879 11:-0.292638 12:-0.545303 13:0.467966 14:-0.0517402 15:0.220473 16:-0.107955 17:-0.276265 18:0.209144 19:-0.257971 20:0.236271 21:-0.465096 22:-0.267762 23:-0.296417 24:-0.117271 25:0.548235 26:-0.162319 27:0.46258 28:-0.0458136 29:-0.168614 30:0.0346296 31:0.170647 32:-0.217838 33:0.0532237 34:0.296902 35:0.161093 36:-0.368447 37:-0.472941 38:-0.316625 39:-0.0287825 40:-0.653787 41:-0.383784 42:-0.429703 43:-0.0391313 44:-0.350512 45:-0.152893 46:-0.0325702 47:-0.0219674 48:-0.694063 49:-0.0245175 50:0.0719019 51:-0.129853 52:0.0398818 53:-0.0403226 54:0.0698162 55:-0.158182 56:-0.0325608 57:-0.148253 58:0.146437 59:0.273516 60:-0.796741 61:0.112639 62:-0.516588 63:0.467726 64:0.0251256 65:-0.53937 66:-0.195337 67:0.278535 68:-0.775143 69:-0.103345 70:0.291498 71:0.273307 72:-0.541531 73:-0.0670417 74:0.123208 75:-0.0682876 76:-0.166008 77:-0.442136 78:0.076333 79:0.113192 80:-0.0870204 81:0.230921 82:0.284284 83:-0.0640411 84:-0.855255 85:-0.0377877 86:-0.388474 87:0.293742 88:-1 89:-0.368421 90:-0.378868 91:-0.185738 92:-0.169487 93:0.44768 94:0.577628 95:0.230527 96:-0.72672 97:0.322281 98:-0.310621 99:0.610168 100:-0.138501 101:-0.136 102:-0.0925316 103:0.203433 104:-0.390424 105:-0.121062 106:0.131176 107:0.289521 108:-0.529288 109:-0.150946 110:-0.213278 111:0.197159 112:-0.0136157 113:-0.419355 114:-0.112541 115:0.217147 116:-0.461382 117:-0.137759 118:0.0375553 119:-0.155772 120:-0.252834 121:-0.280098 122:-0.569454 123:0.271032 124:-0.108883 125:-0.945841 126:-0.366885 127:0.279602 128:-0.701043 129:-0.037544 130:0.348465 131:0.14773 132:-0.60016 133:-0.407315 134:-0.0689957 135:-0.363231 136:-0.255172 137:-0.900952 138:-0.0595613 139:0.336923 140:-0.398093 141:-0.316538 142:-0.00640889 143:0.189111 144:-0.773955 145:-0.241094 146:0.0587701 147:0.0629074 148:-0.0846287 149:-0.153846 150:-0.376899 151:0.463917 152:-0.715718 153:-0.115743 154:0.151705 155:0.219739 156:-0.866592 157:0.248648 158:-0.956522 159:0.252011 160:-0.148426 161:-1 162:-0.500281 163:-0.12701 164:-0.284769 165:-0.501007 166:-0.328277 167:0.197589 168:-0.147837 169:0.804773 170:0.840446 171:0.408683 172:0.0229885 173:0.0929368 174:0.643319 175:-0.100855 176:0.334919 177:0.362382 178:0.5648 179:-0.771519 180:-0.96298 181:0.95154 183:0.95154 184:0.350195 185:-1 186:0.272656 187:0.14932 188:0.0945307 189:0.191444 190:0.532639 191:-0.890019 192:-0.977834 193:-0.661732 194:0.653224 195:-0.629947 196:-0.911111 197:-0.868 198:0.470902 199:0.928148 200:-0.871286 201:-0.910235 202:-0.733061 203:0.0489544 204:-0.632992 205:0.150981 206:0.081629 207:0.100637 208:-0.0903614 209:-0.15885 210:-0.0126296 211:0.143902 212:-0.315584 213:-0.384726 214:-0.165291 215:0.11066 216:-0.539893 217:0.0515868 218:0.024929 219:0.0421332 220:-0.190625 221:-0.0299213 222:0.200891 223:-0.241457 224:0.0549152 225:-0.0466407 226:0.192086 227:0.22937 228:-0.819018 229:-0.470085 230:0.0559937 231:-0.0768692 232:-0.439873 233:-0.45937 234:0.160834 235:0.343459 236:-0.24487 237:-0.417943 238:-0.246333 239:-0.548542 240:-0.257603 241:-0.452108 242:0.668566 243:-0.585723 244:-0.342067 245:-0.292308 246:0.214521 247:-0.452282 248:0.130767 249:-0.596444 250:-0.371542 251:-0.137169 252:-0.704172 253:0.315426 254:-0.225062 255:0.313495 256:-0.667137 257:-0.677326 258:0.197786 259:-0.374298 260:0.197369 261:-0.13051 262:0.10072 263:-0.148427 264:-0.407748 265:0.269177 266:-0.415111 267:0.752762 268:-0.422481 269:-0.402806 270:0.0660151 271:-0.390312 272:0.230548 273:0.0903561 274:0.282776 275:0.0222206 276:-0.17402 277:0.125125 278:-0.0717215 279:0.363105 280:-0.392473 281:-0.180593 282:-0.303634 283:-0.610067 284:-0.0237704 285:0.00944444 286:0.214855 287:0.172065 288:-0.610384 289:-0.153201 290:0.181807 291:-0.0356754 292:-0.395543 293:-0.594714 294:0.0873242 295:-0.283688 296:-0.176588 297:-0.335078 298:-0.151499 299:0.322835 300:-0.469228 301:-0.341918 302:0.688213 303:-0.493294 304:0.0463576 305:-0.450915 306:0.0149573 307:-0.178852 308:0.0974613 309:-0.620557 310:-0.427431 311:0.228387 312:-0.57853 313:-0.252237 314:-0.161043 315:-0.0195485 316:-0.612583 317:-0.919771 318:0.122822 319:-0.238745 320:0.0366156 321:-0.199561 322:0.0294485 323:-0.361698 324:-0.221938 325:0.486651 326:-0.331431 327:0.537948 328:-0.895706 329:-0.217391 330:-0.0709489 331:-0.304377 332:-0.0682735 333:-0.120329 334:0.102092 335:-0.208825 336:-0.0256152 337:-0.177895 338:0.0733891 339:0.076372 340:-0.825944 341:-0.828897 342:-0.201295 343:-0.364915 344:-0.0846633 345:-0.00875047 346:0.204351 347:-0.20724 348:-0.353514 349:0.19073 350:-0.339897 351:0.194695 352:-0.1571 353:-0.558974 354:-0.124209 355:-0.236822 356:0.535548 357:-0.147809 358:0.0989178 359:-0.345647 360:-0.140813 361:0.378195 362:-0.201634 363:0.513141 364:-0.200772 365:-0.323136 366:-0.326954 367:0.516098 368:-0.291681 369:0.375115 370:0.57363 371:-0.235172 372:-0.880808 373:0.884103 374:-0.938761 375:0.911432 376:-0.934186 377:-0.0344828 378:-0.235271 379:0.528781 380:-0.0682693 381:0.154798 382:0.518699 383:0.248108 384:-0.921178 
0 4.586412534878086 0 0 0 0 1:-0.483679 2:-0.899009 3:-0.481339 4:-0.415144 5:-0.281928 6:-0.471339 7:0.171316 8:-0.392662 9:-0.628863 10:-0.313689 11:-0.42347 12:-0.787112 13:-0.0389896 14:0.252455 15:-0.37689 16:-0.798295 17:-0.346304 18:-0.393233 19:-0.278989 20:-0.135438 21:-0.664714 22:-0.510399 23:-0.0647254 24:-0.675601 25:-0.343941 26:-0.710814 27:0.343414 28:-0.191153 29:-0.365609 30:-0.71146 31:-0.045871 32:-0.492501 33:0.325996 34:0.50526 35:0.0327297 36:-0.772366 37:-0.66009 38:-0.268354 39:-0.24106 40:-0.931994 41:-0.401802 42:-0.455531 43:-0.256121 44:-0.111897 45:-0.605131 46:-0.505695 47:-0.175247 48:-0.483493 49:-0.466183 50:-0.35266 51:0.00377307 52:-0.134417 53:-0.778226 54:-0.49461 55:-0.0367127 56:-0.646848 57:-0.109617 58:0.221341 59:0.453554 60:-0.83315 61:-0.0451979 62:0.026135 63:-0.083645 64:-0.252931 65:-0.326772 66:0.133097 67:-0.0145976 68:-0.0343585 69:-0.129833 70:0.0892891 71:0.737246 72:-0.751419 73:-0.260736 74:-0.959455 75:0.828745 76:-0.992095 77:-0.602374 78:-0.454748 79:-0.0325265 80:-0.288017 81:0.159499 82:0.197967 83:0.00903597 84:0.0985197 85:-0.228488 86:-0.531505 87:0.276356 88:-0.702128 89:0.00907441 90:-0.616912 91:-0.259789 92:-0.265576 93:0.509284 94:0.622321 95:-0.031568 96:-0.631431 97:0.410493 98:-0.347367 99:0.705989 100:-0.229987 101:-0.744 102:0.155371 103:0.312183 104:-0.297815 105:-0.0549365 106:0.253181 107:-0.0723236 108:-0.183304 109:-0.108853 110:-0.538331 111:0.500318 112:-0.252648 113:-0.97235 114:-0.18795 115:0.439257 116:-0.769517 117:0.251893 118:0.514209 119:-0.0673106 120:-0.43555 121:0.170562 122:-0.0927978 123:0.272511 124:-0.289398 125:0.0522244 126:-0.184636 127:-0.0144836 128:-0.126979 129:0.372097 130:0.499588 131:0.674604 132:-0.148603 133:0.632113 134:-0.123308 135:0.35705 136:-0.418391 137:0.0552381 138:0.469512 139:0.371309 140:0.0668332 141:0.207607 142:0.423143 143:0.321694 144:-0.593941 145:0.178624 146:0.346219 147:0.243579 148:-0.557858 149:-0.737557 150:0.318388 151:0.713484 152:-0.350977 153:0.301552 154:0.620289 155:0.0859979 156:-0.937488 157:0.205405 158:-0.826087 159:0.201072 160:-0.67916 161:0.0440678 162:0.0630586 163:-0.180124 164:0.0851342 165:-0.522568 166:-0.360489 167:-0.243944 168:-0.501025 169:0.918951 170:0.606957 171:0.570094 172:-0.528736 173:-0.988848 174:0.719986 175:-0.101384 176:0.38709 177:0.756104 178:0.842555 179:-0.647358 180:-0.975473 181:0.941176 183:0.941176 184:-0.513619 185:-1 186:0.605171 187:0.0847438 188:0.457565 189:0.690336 190:0.824297 191:-0.935921 192:-0.983683 193:-0.478885 194:0.544049 195:-0.456133 196:-0.40915 197:-0.092 198:0.462175 199:0.82352 200:-0.683675 201:-0.613301 202:-0.255709 203:0.0670777 204:-0.853814 205:-0.565652 206:0.554323 207:-0.596425 208:-0.463855 209:-0.691377 210:0.541221 211:0.00689097 212:0.0901204 213:-0.65915 214:-0.485626 215:-0.268718 216:-0.84907 217:0.203166 218:-0.013429 219:0.15314 220:-0.225 221:-0.905512 222:0.0926086 223:-0.0932926 224:-0.158946 225:0.210709 226:0.416934 227:0.190423 228:-0.820138 229:0.173502 230:0.0514217 231:0.365605 232:-0.468354 233:-0.913765 234:0.000416373 235:0.369687 236:-0.30475 237:-0.216012 238:-0.0338183 239:-0.227953 240:-0.354889 241:0.526109 242:-0.117796 243:0.346304 244:-0.164483 245:-0.733333 246:0.177353 247:-0.263176 248:-0.184338 249:0.50252 250:0.653711 251:0.165716 252:-0.698023 253:-0.298716 254:0.0578818 255:-0.15993 256:-0.51481 257:-0.30814 258:-0.144514 259:-0.40348 260:0.210013 261:-0.471671 262:-0.252705 263:-0.477166 264:-0.416459 265:0.728334 266:-0.319266 267:0.998148 268:-0.496124 269:-0.222445 270:-0.224418 271:-0.217691 272:-0.148241 273:0.413409 274:0.555543 275:0.202781 276:0.436876 277:-0.0767838 278:0.15258 279:0.0819388 280:-0.55914 281:-0.296496 282:-0.0793192 283:-0.520823 284:-0.0516153 285:-0.0224896 286:0.187567 287:0.309886 288:-0.666074 289:-0.500559 290:0.519903 291:-0.471229 292:-0.445682 293:-0.823789 294:0.38536 295:-0.279264 296:-0.0488784 297:-0.214343 298:-0.028903 299:-0.278786 300:-0.750236 301:-0.515308 302:0.212467 303:-0.30273 304:-0.0629139 305:-0.976705 306:-0.0429385 307:-0.126899 308:0.0155058 309:-0.362192 310:-0.129486 311:-0.211502 312:-0.588212 313:0.0977299 314:0.00742925 315:0.123004 316:-0.0927152 317:-0.286533 318:0.206649 319:-0.331105 320:0.291149 321:0.353298 322:0.518924 323:0.208541 324:-0.587072 325:-0.159523 326:-0.0138996 327:0.0216515 328:-0.107362 329:-0.550725 330:-0.0474796 331:-0.273573 332:-0.0422668 333:0.122253 334:0.323579 335:-0.342559 336:-0.52711 337:0.146256 338:0.0698666 339:0.291397 340:-0.862069 341:-0.825095 342:0.0478316 343:-0.489045 344:0.283027 345:0.828123 346:0.878446 347:-0.0551522 348:-0.612471 349:0.269918 350:0.138698 351:-0.0440438 352:-0.691843 353:-0.634188 354:-0.220972 355:-0.261717 356:0.509192 357:-0.159311 358:0.0880806 359:0.025194 360:-0.391299 361:0.742576 362:-0.47186 363:0.884684 364:-0.289575 365:-0.869981 366:-0.0079957 367:0.227202 368:0.323786 369:0.760037 370:0.844946 371:-0.213273 372:-0.855623 373:0.79666 374:-0.709008 375:0.752834 376:-0.564899 377:-0.605517 378:-0.235271 379:0.390552 380:0.132802 381:0.802983 382:0.898064 383:0.27376 384:-0.939816 
0 2.774851013034247 0 0 0 0 1:-0.778226 2:-0.829985 3:-0.776645 4:-0.801567 5:-0.99759 6:-0.465861 7:0.0281004 8:-0.214978 9:-0.818586 10:-0.59577 11:-0.669658 12:-0.899646 13:0.268776 14:-0.0690802 15:0.0847021 16:-0.414773 17:-0.750973 18:0.362512 19:0.394813 20:-0.122431 21:-0.405748 22:-0.10084 23:-0.59609 24:-0.196461 25:-0.0173855 26:0.0173685 27:-0.0868864 28:-0.560821 29:-0.716194 30:-0.0797323 31:0.16368 32:-0.229431 33:-0.377035 34:-0.125374 35:0.154712 36:-0.424078 37:-0.110684 38:-0.0528645 39:0.0581915 40:-0.372488 41:-0.405405 42:-0.212801 43:0.376407 44:-0.483368 45:0.0672313 46:0.301303 47:0.282637 48:-0.794231 49:0.0292689 50:0.599088 51:-0.592176 52:-0.400295 53:-0.669355 54:0.496726 55:-0.190758 56:0.420596 57:-0.451764 58:-0.174289 59:0.30024 60:-0.889282 61:-0.313792 62:-0.55208 63:0.178135 64:-0.98325 65:-0.909449 66:-0.378508 67:-0.644268 68:0.00830726 69:-0.113132 70:0.196543 71:0.474558 72:-0.623361 73:0.0747896 74:0.317852 75:-0.138097 76:-0.501976 77:-0.925816 78:0.172273 79:-0.143748 80:0.286236 81:-0.330229 82:-0.201523 83:0.230715 84:-0.137332 85:-0.471799 86:-0.0955749 87:-0.248994 88:-1 89:-0.931034 90:-0.660787 91:-0.460769 92:-0.167617 93:-0.581009 94:-0.383989 95:0.588801 96:-0.268712 97:-0.445279 98:-0.412628 99:0.166984 100:-0.989835 101:-0.552 102:-0.871815 103:-0.183323 104:-0.487812 105:-0.029619 106:0.154029 107:0.472419 108:-0.525034 109:1 110:0.0648529 111:0.776718 112:-0.878971 113:-0.784946 114:0.538276 115:-0.334172 116:0.628247 117:0.858744 118:0.840423 119:0.282007 120:-0.207035 121:-0.418019 122:-0.204763 123:-0.1391 124:-0.398281 125:-0.338491 126:-0.183323 127:-0.274216 128:0.128152 129:-0.217399 130:-0.0250423 131:-0.189776 132:-0.337852 133:-0.0702086 134:-0.144915 135:-0.0910798 136:-0.542529 137:-0.375238 138:0.22811 139:0.154693 140:0.182001 141:0.0700155 142:0.224974 143:0.201656 144:-0.584623 145:-0.74963 146:0.44724 147:-0.664325 148:-0.253886 149:-0.850679 150:-0.405184 151:0.308836 152:-0.44945 153:-0.78556 154:-0.671243 155:0.106987 156:-0.861984 157:0.243243 158:-0.869565 159:0.241287 160:-0.694153 161:-0.267797 162:-0.36776 163:-0.435556 164:0.170693 165:-0.364793 166:-0.170758 167:0.0109528 168:-0.42029 169:0.795567 170:0.0870358 171:0.625552 172:-0.390805 173:-0.981413 174:0.181821 175:0.58903 176:-0.56725 177:0.092315 178:0.500449 179:-0.473067 180:-0.903838 181:0.411016 183:0.411016 184:-0.357977 185:-1 186:-0.318526 187:0.562067 188:-0.714586 189:-0.351575 190:0.176765 191:-0.803815 192:-0.969752 193:-0.671789 194:0.779521 195:-0.69901 196:-0.754248 197:-0.632 198:0.478219 199:0.625329 200:-0.514291 201:-0.74387 202:-0.431952 203:0.0640839 204:-0.96107 205:0.21055 206:0.295897 207:0.0253926 208:-0.704819 209:-0.588502 210:0.0861825 211:-0.174464 212:0.145396 213:-0.423773 214:-0.205113 215:0.548389 216:-0.252463 217:0.339117 218:-0.247445 219:0.356876 220:-0.5875 221:-0.546457 222:-0.0417434 223:0.145966 224:-0.284161 225:-0.151008 226:0.0980437 227:0.112861 228:-0.530064 229:0.19129 230:0.268781 231:0.224772 232:-0.708861 233:-0.472637 234:-0.0549818 235:0.464833 236:-0.364891 237:-0.0669924 238:0.113261 239:-0.195732 240:-0.54472 241:-0.478454 242:0.386415 243:-0.439034 244:-0.842795 245:-0.651282 246:0.00591314 247:-0.289372 248:0.0462197 249:-0.35146 250:-0.0932935 251:-0.166115 252:-0.720719 253:0.130182 254:-0.277485 255:0.262501 256:-0.932299 257:-0.453488 258:0.0938458 259:0.220149 260:-0.463094 261:0.0874202 262:0.308942 263:-0.582648 264:-0.585401 265:-0.630712 266:0.278676 267:-0.355601 268:-0.55814 269:-0.470942 270:0.0597535 271:-0.0701047 272:-0.0581853 273:-0.258319 274:-0.0368471 275:-0.0930777 276:-0.544383 277:-0.399909 278:0.405861 279:-0.300459 280:-0.763441 281:-0.946092 282:-0.224026 283:-0.12127 284:-0.383232 285:-0.539092 286:-0.332861 287:0.0477646 288:-0.656603 289:-0.162848 290:0.680052 291:-0.367914 292:-0.43454 293:-0.668135 294:0.315188 295:0.190427 296:-0.713228 297:-0.11084 298:0.0947649 299:0.323043 300:-0.76118 301:0.589474 302:-0.093568 303:0.455432 304:-0.480132 305:-0.777038 306:-0.0358954 307:-0.109592 308:0.0949597 309:1 310:1 311:0.0616871 312:-0.597495 313:-0.574801 314:0.398762 315:-0.521186 316:-0.927152 317:-0.945559 318:-0.0475863 319:0.138558 320:-0.394923 321:-0.158024 322:0.0753679 323:0.332887 324:-0.823815 325:0.379756 326:0.342156 327:0.0869589 328:-0.444785 329:-0.533333 330:0.088289 331:-0.0652906 332:-0.100404 333:0.119034 334:0.322261 335:0.0320206 336:-0.567351 337:-0.691036 338:0.651612 339:-0.688913 340:-0.697865 341:-0.422053 342:0.416248 343:-0.167344 344:-0.0443632 345:-0.56473 346:-0.371145 347:-0.20489 348:-0.797102 349:0.180106 350:-0.121576 351:0.0615622 352:-0.70997 353:-0.651282 354:-0.140001 355:-0.420724 356:0.662144 357:-0.0340698 358:0.206263 359:-0.239702 360:-0.199466 361:0.060151 362:0.00677035 363:0.205339 364:-0.764479 365:-0.487572 366:0.488239 367:0.427434 368:-0.00201354 369:-0.0785456 370:0.20873 371:-0.201786 372:-0.864624 373:0.235126 374:-0.272849 375:0.253988 376:-0.422303 377:-0.52 378:0.510086 379:0.76509 380:-0.408781 381:-0.483451 382:0.0151069 383:0.276797 384:-0.914574 
1.159588300491729 3.547733798524486 0.8445665690089185 3.010664565590603 1.071307140925584 0.5142365567577692 1:-0.853783 2:-0.8422 3:-0.852301 4:-0.665796 5:-0.79759 6:-0.648346 7:0.132318 8:-0.444443 9:-0.888044 10:-0.737535 11:-0.666951 12:-0.886015 13:0.374057 14:-0.802222 15:0.693095 16:-0.332386 17:-0.488975 18:0.0223575 19:-0.044151 20:-0.0697742 21:0.545249 22:0.655945 23:-0.517303 24:-0.524679 25:-0.386167 26:0.0162421 27:-0.338852 28:-0.241706 29:-0.96995 30:0.117161 31:0.208398 32:-0.144211 33:-0.352889 34:-0.0877431 35:-0.0646858 36:-0.794399 37:-0.00434276 38:-0.0818332 39:0.180209 40:-0.607419 41:-0.495495 42:0.104451 43:0.116989 44:0.0140628 45:-0.317655 46:-0.18817 47:-0.062777 48:-0.406092 49:0.380167 50:0.58505 51:-0.368742 52:-0.282127 53:-0.979839 54:0.450922 55:-0.20704 56:0.388793 57:-0.542441 58:-0.27909 59:0.581724 60:-0.717421 61:-0.606156 62:-0.286312 63:-0.252228 64:-0.18593 65:-0.122047 66:-0.0663585 67:-0.281493 68:0.0441101 69:-0.366739 70:-0.147178 71:-0.117608 72:-0.624557 73:-0.0674828 74:0.501626 75:-0.440065 76:-0.442688 77:-0.661721 78:0.0231718 79:-0.0538404 80:0.0983924 81:-0.615632 82:-0.497558 83:0.238021 84:-0.16736 85:0.332631 86:0.130564 87:0.131255 88:-0.37766 89:-0.753176 90:0.452807 91:0.247484 92:0.131131 93:-0.397557 94:-0.044008 95:-0.0810615 96:-0.31102 97:-0.129918 98:-0.523785 99:0.490829 100:-0.374841 101:-0.14 102:0.152246 103:-0.346343 104:0.598821 105:-0.0511754 106:0.218948 107:-0.408457 108:-0.111414 109:-0.913902 110:-0.465209 111:-0.130204 112:-1 113:-0.711214 114:-0.354981 115:0.00635079 116:-0.354294 117:-0.208872 118:-0.0867607 119:-0.222812 120:-0.271187 121:-0.772911 122:-0.516009 123:-0.191712 124:-0.472779 125:-0.624758 126:-0.568447 127:-0.0815886 128:-0.339882 129:-0.388845 130:-0.223774 131:-0.478063 132:0.124412 133:-0.0279935 134:0.43864 135:-0.44912 136:-0.827586 137:-0.36 138:0.315337 139:-0.0500587 140:0.472876 141:-0.726235 142:-0.558287 143:0.718406 144:-0.109285 145:-0.502195 146:-0.282821 147:0.0628217 148:-0.765112 149:-0.977376 150:-0.255874 151:0.321691 152:-0.341895 153:-0.523095 154:-0.334724 155:-0.356372 156:-0.350532 157:0.362162 158:-0.869565 159:0.359249 160:-0.94003 161:-0.715254 162:-0.055825 163:-0.470297 164:0.404761 165:0.0820264 166:0.203467 167:-0.340922 168:-0.719066 169:0.690133 170:-0.18338 171:0.621186 172:-0.56705 173:-0.60223 174:-0.296615 175:0.106032 176:-0.541379 177:-0.417995 178:-0.106639 179:-0.254605 180:-0.713331 181:0.467375 183:0.467375 184:-0.552529 185:-1 186:-0.677339 187:0.114794 188:-0.643693 189:-0.616476 190:-0.130976 191:-0.625971 192:-0.920876 193:-0.822758 194:0.788342 195:-0.802295 196:-0.662745 197:-0.488 198:0.471105 199:0.784346 200:-0.691646 201:-0.873651 202:-0.654518 203:-0.126704 204:-0.940571 205:0.27754 206:-0.382547 207:0.423706 208:-0.807229 209:-0.824508 210:-0.419034 211:0.0671062 212:-0.299932 213:0.428987 214:0.579196 215:0.0680626 216:-0.677964 217:0.130318 218:0.163291 219:0.0171825 220:-0.51875 221:-0.971654 222:0.217141 223:-0.533425 224:0.573923 225:-0.0458121 226:0.191289 227:0.505474 228:-0.726575 229:-0.158964 230:0.320057 231:-0.0503701 232:-0.924051 233:-0.558872 234:0.4424 235:0.153236 236:0.188611 237:-0.133181 238:0.0474353 239:-0.192834 240:-0.644984 241:-0.514953 242:0.618778 243:-0.588792 244:-0.746725 245:-0.634188 246:0.333905 247:-0.678814 248:0.65427 249:-0.36958 250:-0.115675 251:0.21586 252:-0.784766 253:0.0563835 254:0.0688842 255:-0.0025451 256:-0.712271 257:-0.389535 258:-0.0879937 259:-0.376035 260:0.241366 261:-0.249256 262:-0.0162995 263:-0.0397543 264:-0.695059 265:0.0794267 266:0.509889 267:-0.035132 268:-0.488372 269:-0.903808 270:-0.101843 271:-0.510072 272:0.490526 273:-0.341899 274:-0.131608 275:0.264614 276:-0.102024 277:-0.0950298 278:0.432874 279:-0.109724 280:-0.615591 281:-0.814016 282:0.295212 283:-0.8943 284:0.736204 285:-0.278316 286:-0.0739929 287:0.302835 288:-0.551294 289:-0.386454 290:0.00546337 291:-0.0639875 292:-0.345404 293:-0.38326 294:0.262691 295:-0.357384 296:0.152899 297:-0.0901756 298:0.0893414 299:-0.281404 300:-0.254025 301:-0.139311 302:0.526379 303:-0.291779 304:-0.682119 305:-0.301165 306:-0.196376 307:0.0480755 308:-0.241446 309:-0.448242 310:-0.21951 311:0.243328 312:-0.372592 313:-0.135793 314:0.0610982 315:-0.0581106 316:-0.678808 317:-0.472779 318:-0.343277 319:-0.08252 320:-0.257996 321:-0.278543 322:-0.0481507 323:0.358481 324:0.028241 325:-0.100314 326:0.295066 327:-0.130038 328:-0.806748 329:-0.582609 330:0.0978166 331:-0.547271 332:0.506046 333:-0.324403 334:-0.106464 335:-0.0593676 336:-0.310277 337:-0.249852 338:0.128111 339:-0.0113837 340:-0.963875 341:-0.977186 342:0.311725 343:-0.555403 344:0.478084 345:-0.0492127 346:0.164113 347:-0.27773 348:-0.520372 349:0.225495 350:-0.154966 351:0.104605 352:-0.957704 353:-0.917949 354:-0.182934 355:-0.299973 356:0.540016 357:0.211146 358:0.41734 359:-0.166154 360:-0.628528 361:0.57873 362:-0.214271 363:0.635877 364:-0.571429 365:-0.552581 366:-0.293777 367:0.291283 368:0.0343805 369:-0.153216 370:0.143096 371:-0.201711 372:-0.703212 373:0.469282 374:-0.349589 375:0.409435 376:-0.586837 377:-0.903448 378:-0.235271 379:0.626909 380:-0.349987 381:-0.439747 382:0.0573402 383:0.290203 384:-0.891167 
0 1.692228813323861 0 0 0 0 1:-0.709522 2:-0.99693 3:-0.707278 4:-1 5:-1 6:-0.633288 7:-0.143435 8:0.0142369 9:-0.879724 10:-0.620117 11:-0.56222 12:-0.84075 13:0.477143 14:0.0884143 15:0.125985 16:-0.252841 17:-0.483787 18:0.510404 19:-0.0329497 20:0.201731 21:-0.420297 22:-0.22073 23:-0.434988 24:-0.123877 25:0.0446768 26:0.00282687 27:-0.031245 28:-0.279621 29:-0.585977 30:0.0237818 31:0.299418 32:-0.349708 33:-0.319368 34:0.00590228 35:-0.0689985 36:-0.354492 37:0.0893212 38:0.369053 39:-0.144346 40:-0.409583 41:-0.0594595 42:-0.075533 43:0.0584204 44:-0.133798 45:-0.155851 46:-0.0174596 47:0.556678 48:-0.580665 49:-0.397882 50:-0.0807296 51:-0.210397 52:-0.296898 53:-0.721774 54:-0.090775 55:0.0165317 56:-0.395571 57:-0.25854 58:0.124432 59:-0.0913546 60:-0.657068 61:0.0275259 62:-0.702536 63:0.552854 64:-0.698492 65:-0.141732 66:-0.361438 67:0.00168805 68:-0.553991 69:0.576284 70:0.673346 71:0.239671 72:-0.733585 73:0.575698 74:0.343138 75:0.26522 76:-0.296443 77:-0.95549 78:0.623437 79:0.0515145 80:0.429293 81:-0.0269818 82:0.0613723 83:0.0368714 84:-0.317705 85:-0.0688205 86:-0.360308 87:0.249058 88:-0.444149 89:-0.368421 90:-0.32543 91:0.0738261 92:-0.384062 93:-0.295312 94:0.0151152 95:0.208332 96:-0.524303 97:-0.535356 98:-0.122501 99:-0.164805 100:-0.466328 101:-0.736 102:-0.253103 103:0.118799 104:-0.357004 105:-0.329371 106:-0.143149 107:0.184905 108:-0.617141 109:0.53516 110:0.652705 111:-0.0462897 112:-0.797277 113:-0.582181 114:0.829004 115:-0.173647 116:0.807529 117:0.0623823 118:0.23397 119:0.229085 120:-0.570103 121:-0.354828 122:-0.0859805 123:-0.180574 124:-0.541547 125:-0.914894 126:-0.347056 127:0.135031 128:-0.451481 129:-0.0207327 130:0.219079 131:0.306712 132:-0.789755 133:-0.135385 134:0.10511 135:-0.299305 136:-0.586207 137:-0.481905 138:0.472611 139:0.207937 140:0.283553 141:-0.615542 142:-0.414145 143:0.234017 144:-0.309285 145:-0.473201 146:-0.0965952 147:-0.0394851 148:-0.944732 149:-0.434389 150:-0.574266 151:0.182757 152:-0.481307 153:-0.0441507 154:0.127744 155:-0.19262 156:-0.802111 157:0.92973 158:-0.913043 159:0.924933 160:-1 161:0.101695 162:-0.44858 163:-0.431848 164:0.257726 165:-0.523937 166:-0.266054 167:0.348645 168:0.053378 169:0.158734 170:-1 171:0.436548 172:-0.463602 173:-1 174:-0.200465 175:-0.190658 176:-0.162366 177:-0.449433 178:-0.150063 179:-0.559752 180:-0.88959 181:0.577817 183:0.577817 184:-0.933852 185:-1 186:-0.700338 187:-0.0925917 188:-0.40769 189:-0.723943 190:-0.234539 191:-0.600723 192:-0.901678 193:-0.778369 194:0.623718 195:-0.691777 196:-0.997386 197:-1 198:0.474682 199:0.872848 200:-0.769345 201:-0.863317 202:-0.63442 203:-0.16489 204:-0.872829 205:-0.392911 206:0.082334 207:-0.24033 208:-0.981928 209:-0.888048 210:-0.343195 211:0.116168 212:-0.337782 213:-0.55153 214:-0.35413 215:-0.559548 216:-0.309445 217:0.162607 218:0.426909 219:-0.101017 220:-0.44375 221:-0.275591 222:0.0372171 223:-0.312502 224:0.178676 225:-0.304143 226:-0.0576656 227:0.293343 228:-0.773 229:0.122327 230:0.453753 231:0.0475217 232:-0.962025 233:-0.343284 234:-0.15267 235:0.250098 236:-0.128509 237:-0.179004 238:0.00188361 239:0.160924 240:-0.425983 241:-0.285 242:-0.0730871 243:-0.0825494 244:-0.487627 245:-0.408547 246:0.195822 247:-0.474831 248:0.214676 249:-0.399406 250:-0.145721 251:0.200939 252:-0.347235 253:0.469073 254:-0.607441 255:0.639575 256:-0.892807 257:-0.453488 258:-0.0294213 259:-0.302836 260:0.0254375 261:0.666398 262:0.761449 263:-0.0797068 264:-0.646912 265:-0.281901 266:-0.431096 267:0.387758 268:-0.562016 269:-0.282565 270:0.0431893 271:-0.525441 272:0.541357 273:0.0197067 274:0.217616 275:-0.0553705 276:-0.264547 277:-0.0915124 278:0.431241 279:-0.106281 280:-0.521505 281:-0.245283 282:-0.0147797 283:-0.746442 284:0.367276 285:-0.186031 286:0.0217043 287:0.211324 288:-0.62086 289:-0.100921 290:0.0966436 291:0.0523268 292:-0.972145 293:-0.38326 294:0.435231 295:-0.340674 296:0.0938356 297:-0.123973 298:0.0579121 299:-0.236802 300:-0.440651 301:-0.249021 302:0.348001 303:-0.243685 304:-0.850993 305:-0.144759 306:0.110517 307:-0.313526 308:0.428435 309:-0.385918 310:-0.157008 311:-0.050477 312:-0.423091 313:-0.063937 314:0.288819 315:-0.128838 316:-0.721854 317:-0.223496 318:-0.00797642 319:-0.201402 320:-0.0515391 321:-0.339175 322:-0.112232 323:0.413013 324:-0.248585 325:0.0838009 326:0.166795 327:0.0393206 328:-0.582822 329:-0.22029 330:0.139702 331:-0.518427 332:0.456023 333:0.0351458 334:0.242715 335:-0.0739501 336:-0.470998 337:-0.460384 338:0.0446626 339:-0.0874262 340:-0.152709 341:-0.813688 342:0.17007 343:-0.348516 344:0.00642207 345:0.0117608 346:0.223044 347:-0.239776 348:-0.590149 349:0.232255 350:-0.371576 351:0.234735 352:-0.398792 353:-1 354:-0.745998 355:0.246845 356:-0.530531 357:-0.360524 358:-0.103183 359:-0.721838 360:0.163314 361:0.00707552 362:0.0927814 363:0.123199 364:-0.953668 365:-0.862333 366:0.237655 367:0.361001 368:0.152329 369:-0.477863 370:-0.184739 371:-0.19315 372:-0.714357 373:0.57622 374:-0.578616 375:0.577418 376:-0.945155 377:-0.947586 378:-0.235271 379:0.673886 380:-0.395269 381:-0.66415 382:-0.181375 383:0.391038 384:-0.820226 
0 0.7689871846443798 0 0 0 0 1:-0.86007 2:-0.598053 3:-0.859386 4:-0.490862 5:-0.390361 6:-0.210786 7:-0.0562484 8:0.0782988 9:-0.791609 10:-0.529793 11:-0.930403 12:-0.988061 13:0.219709 14:-0.523812 15:0.376907 16:-0.326705 17:-0.481193 18:-0.270494 19:0.306586 20:-0.515521 21:-0.326862 22:-0.0199341 23:-0.439934 24:-0.185664 25:-0.00682622 26:0.181685 27:-0.227289 28:-0.21643 29:-0.502504 30:0.187173 31:0.439543 32:-0.297685 33:-0.667003 34:-0.32631 35:-0.186198 36:-0.0619522 37:-0.526158 38:0.121957 39:-0.474426 40:-0.378671 41:-0.47027 42:-0.387095 43:0.541024 44:-0.884833 45:-0.692853 46:-0.29654 47:0.327649 48:-0.792937 49:-0.362738 50:0.372883 51:-0.614871 52:-0.79616 53:-0.423387 54:-0.0348974 55:-0.180049 56:-0.0524018 57:-0.579769 58:-0.32007 59:0.570674 60:-0.792077 61:-0.864267 62:-0.418918 63:-0.338715 64:-0.705193 65:-0.5 66:-0.637767 67:-0.279749 68:-0.522233 69:-0.123971 70:0.0932818 71:0.36716 72:-0.955777 73:-0.65333 74:0.0962945 75:-0.542982 76:-0.916996 77:-0.477745 78:-0.398492 79:-0.133408 80:-0.142363 81:-0.466743 82:-0.330367 83:0.142248 84:-0.68486 85:0.0849 86:0.064701 87:0.0110805 88:-0.691489 89:-0.477314 90:-0.0338036 91:-0.165385 92:0.0880287 93:-0.383631 94:-0.179417 95:0.201556 96:-0.360438 97:-0.624392 98:-0.426982 99:0.0548123 100:-0.712834 101:-0.496 102:-0.358138 103:-0.179575 104:-0.0261984 105:-0.198273 106:-0.00223581 107:0.0197452 108:-0.579084 109:0.77235 110:0.334404 111:0.389089 112:-0.652042 113:-0.428571 114:-0.0135337 115:-0.0192111 116:-0.0641076 117:0.418121 118:0.445599 119:1 120:0.942817 121:0.38991 122:0.15188 123:0.263059 124:-0.704871 125:-0.353965 126:0.289579 127:-0.340531 128:0.593626 129:0.384019 130:0.541145 131:0.371939 132:-0.422034 133:0.314125 134:-0.197679 135:0.196856 136:-0.71954 137:-0.386667 138:0.439771 139:-0.280274 140:0.847507 141:0.277476 142:0.485965 143:0.304077 144:-0.608072 145:0.208728 146:-0.468837 147:0.833122 148:-0.723661 149:-0.493213 150:-0.0309974 151:-0.735511 152:0.991099 153:0.0340202 154:0.702853 155:0.105606 156:-0.741201 157:0.310811 158:-0.521739 159:0.286863 160:-0.925037 161:-0.705085 162:-0.0367782 163:-0.472983 164:0.428462 165:0.182984 166:0.277336 167:-0.307688 168:-0.722487 169:0.901636 170:0.573194 171:0.566207 172:-0.816092 173:-0.665428 174:0.480216 175:0.0622967 176:0.0524013 177:0.677799 178:0.797909 179:-0.586255 180:-0.973947 181:1 183:1 184:-0.59144 185:-1 186:0.280584 187:0.123303 188:0.145753 189:0.440661 190:0.68424 191:-0.88537 192:-0.979512 193:-0.73198 194:0.696842 195:-0.697552 196:-0.780392 197:-0.204 198:0.439341 199:0.6648 200:-0.476876 201:-0.8108 202:-0.538018 203:-0.104653 204:-0.931461 205:-0.340348 206:0.0555335 207:-0.193337 208:-0.38253 209:-0.400908 210:0.197358 211:0.0598238 212:-0.137717 213:-0.562904 214:-0.367436 215:-0.131935 216:-0.484397 217:0.175878 218:0.635308 219:-0.201812 220:-0.5375 221:-0.820472 222:0.353834 223:-0.365692 224:0.376385 225:-0.532537 226:-0.308937 227:0.999229 228:-0.44045 229:-0.113809 230:0.553019 231:-0.183507 232:-0.306962 233:-0.300166 234:-0.103896 235:0.407824 236:-0.349532 237:-0.520311 238:-0.360811 239:-0.0484802 240:-0.411207 241:-0.120124 242:0.755597 243:-0.469848 244:-0.822416 245:-0.907692 246:0.154555 247:-0.308868 248:0.0125919 249:-0.601987 250:-0.376738 251:0.523737 252:-0.456078 253:-0.125222 254:0.157315 255:-0.145713 256:-0.765867 257:-0.372093 258:-0.0393708 259:-0.0888366 260:-0.211623 261:-0.299584 262:-0.0613096 263:-0.200042 264:-0.593228 265:-0.467375 266:0.303945 267:-0.262026 268:-0.953488 269:-0.8998 270:-0.0842887 271:-0.314224 272:0.168579 273:-0.315271 274:-0.100626 275:0.0901437 276:-0.505854 277:-0.178774 278:0.741345 279:-0.364092 280:-0.524194 281:-0.665768 282:-0.325951 283:-0.70309 284:0.298722 285:-0.534958 286:-0.35267 287:0.352722 288:-0.742024 289:-0.0854718 290:-0.0107394 291:0.132174 292:-0.97493 293:-0.553598 294:0.185656 295:-0.184891 296:-0.213067 297:0.0944641 298:0.266318 299:0.304858 300:-0.402061 301:-0.379691 302:-0.0553364 303:-0.0735909 304:-0.645695 305:-0.597338 306:-0.0507852 307:-0.0331543 308:-0.0865606 309:-0.409581 310:-0.179101 311:-0.816112 312:0.265665 313:-0.365135 314:-0.00812158 315:-0.172853 316:-0.960265 317:-0.624642 318:-0.11951 319:-0.330558 320:0.203279 321:-0.28666 322:-0.0596916 323:-0.00317985 324:-0.259662 325:-0.043553 326:0.102857 327:0.0120391 328:-0.668712 329:-0.982609 330:-0.0801929 331:-0.449346 332:0.299211 333:0.00381605 334:0.214557 335:-0.0402691 336:-0.490282 337:0.514578 338:0.236786 339:0.408904 340:-0.612479 341:-0.585551 342:-0.135334 343:-0.412133 344:0.133442 345:0.334553 346:0.499899 347:0.591118 348:0.00910258 349:0.036214 350:-0.255137 351:0.0650655 352:-0.812689 353:-0.91453 354:-0.147914 355:-0.319021 356:0.585865 357:0.318622 358:0.505066 359:-0.361681 360:-0.662839 361:0.39148 362:-0.406533 363:0.643847 364:-0.830116 365:-0.606119 366:-0.142185 367:0.051012 368:0.465166 369:0.543844 370:0.700623 371:-0.228777 372:-0.866524 373:0.803208 374:-1 375:0.901604 376:-0.641682 377:-0.704828 378:-0.235271 379:0.341837 380:0.103443 381:0.585798 382:0.780133 383:0.260475 384:-0.927361 
0.1748732244608754 3.084647314819916 0 2.746673618732111 0 0 1:-0.739599 2:-0.695754 3:-0.738381 4:-0.840731 5:-0.987952 6:-0.47192 7:-0.0212282 8:-0.169182 9:-0.812434 10:-0.578915 11:-0.622945 12:-0.881185 13:-0.157284 14:0.346679 15:-0.533082 16:-0.448864 17:-0.800259 18:0.0179648 19:0.371586 20:-0.314735 21:-0.986325 22:-0.864836 23:-0.123978 24:-0.169732 25:0.0183693 26:-0.0456312 27:-0.00574976 28:-0.447077 29:-0.886477 30:0.152602 31:0.744244 32:-0.471799 33:-0.000348371 34:0.434072 35:0.169195 36:-0.842698 37:-0.528675 38:-0.443227 39:0.0358458 40:-0.42813 41:-0.740541 42:-0.453177 43:0.500298 44:-0.805753 45:0.261589 46:0.53818 47:0.0104513 48:-0.947322 49:-0.441083 50:0.306953 51:-0.599968 52:-0.376662 53:-0.653226 54:-0.207708 55:-0.093971 56:-0.258794 57:-0.591021 58:-0.321201 59:0.620086 60:-0.785935 61:-0.832553 62:-0.217368 63:-0.476125 64:-0.795645 65:-0.484252 66:-0.511165 67:-0.471413 68:-0.269637 69:-0.412358 70:-0.157971 71:0.300826 72:-0.872072 73:-0.557854 74:0.248441 75:-0.610704 76:-0.960474 77:-0.931751 78:0.0342556 79:0.20556 80:-0.113412 81:-0.517599 82:-0.35105 83:-0.22829 84:-0.688882 85:-0.510713 86:-0.4143 87:-0.0169639 88:-0.978723 89:-0.647913 90:-0.838047 91:-0.648515 92:-0.179653 93:-0.0111167 94:0.247351 95:0.229203 96:-0.683301 97:-0.0511236 98:-0.29208 99:0.331437 100:-0.908513 101:-0.352 102:-0.437406 103:-0.488432 104:0.187183 105:-0.101414 106:0.218703 107:0.599697 108:-0.486302 109:-1 110:-0.19738 111:-0.416335 112:-0.76702 113:-0.646697 114:-0.68567 115:-0.0427431 116:-0.571477 117:0.164085 118:0.246033 119:-0.194463 120:-0.775542 121:-0.315622 122:-0.0872712 123:-0.146137 124:-0.621777 125:-0.338491 126:-0.124923 127:-0.492446 128:0.352403 129:-0.318689 130:-0.0569803 131:-0.0294063 132:-0.351079 133:0.39339 134:-0.0211304 135:0.132315 136:-0.668966 137:-0.420952 138:-0.188182 139:-0.0708486 140:0.0329589 141:-0.236586 142:-0.030991 143:1 144:0.827493 145:-0.251323 146:0.611974 147:-0.32802 148:-0.668394 149:-0.289593 150:0.0859397 151:-0.0947435 152:0.353239 153:-0.385001 154:-0.149991 155:0.169788 156:-0.883479 157:0.0486486 158:-0.434783 159:0.0214475 160:-0.754123 161:-0.986441 162:-0.529155 163:-0.382962 164:0.0310673 165:-0.727668 166:-0.555845 167:0.238262 168:0.040836 169:0.886707 170:0.40443 171:0.604428 172:-0.452107 173:-0.962825 174:0.717034 175:0.478349 176:-0.0829314 177:0.51304 178:0.761459 179:-0.723198 180:-0.955795 181:0.721997 183:0.721997 184:-0.428016 185:-1 186:0.467863 187:0.22286 188:0.225187 189:0.387157 190:0.654761 191:-0.936708 192:-0.984069 193:-0.75654 194:0.612901 195:-0.672122 196:-0.837908 197:-0.752 198:0.474006 199:0.612887 200:-0.509962 201:-0.767465 202:-0.467852 203:-0.0351054 204:-0.903077 205:-0.559965 206:0.854184 207:-0.75037 208:-0.76506 209:-0.824508 210:0.509748 211:0.109238 212:-0.169357 213:-0.938574 214:-0.892798 215:0.0770449 216:-0.329283 217:0.04413 218:-0.0487257 219:0.0760981 220:-0.63125 221:-0.593701 222:0.0479185 223:0.171855 224:-0.276896 225:-0.266946 226:-0.0151254 227:0.0934022 228:-0.657544 229:0.179185 230:0.211634 231:0.256728 232:-0.873418 233:-0.791045 234:-0.0710111 235:0.724336 236:-0.688699 237:-0.0198151 238:0.164243 239:0.0674667 240:-0.362786 241:-0.858943 242:0.609148 243:-0.754475 244:-0.737991 245:-0.832479 246:0.768876 247:-0.153061 248:0.0429056 249:-0.617634 250:-0.394238 251:-0.184974 252:-0.888187 253:-0.209312 254:0.107796 255:-0.151722 256:-0.836389 257:-0.976744 258:-0.150055 259:0.0769036 260:-0.322384 261:-0.505939 262:-0.283323 263:-0.25122 264:-0.423159 265:-0.879871 266:0.435216 267:-0.637177 268:-0.732558 269:-0.671343 270:-0.180298 271:-0.350945 272:0.264154 273:-0.366559 274:-0.155994 275:-0.266403 276:-0.831843 277:-0.144314 278:-0.0598139 279:0.171667 280:-0.5 281:-0.87062 282:-0.193587 283:-0.150754 284:-0.31491 285:0.0252571 286:0.239702 287:-0.22665 288:-0.752051 289:0.0100825 290:-0.333803 291:0.402651 292:-0.857939 293:-0.729809 294:-0.165016 295:-0.207771 296:-0.162397 297:0.5466 298:0.645726 299:-0.50264 300:-0.153477 301:-0.544954 302:0.627401 303:-0.563449 304:-0.821192 305:-0.840266 306:-0.658303 307:-0.0424707 308:-0.151156 309:-0.676961 310:-0.498465 311:-0.203054 312:-0.411488 313:-0.430068 314:-0.121823 315:-0.156616 316:-0.589404 317:-0.575931 318:-0.813527 319:-0.164685 320:-0.22676 321:-0.0521742 322:0.169886 323:0.000669953 324:-0.46374 325:0.778237 326:-0.120604 327:0.562483 328:-0.595092 329:-0.57971 330:-0.581599 331:-0.311335 332:-0.00280578 333:0.396609 334:0.551337 335:0.123081 336:0.066207 337:-0.323149 338:0.406153 339:-0.265715 340:-0.80624 341:-0.505703 342:-0.530449 343:-0.774075 344:0.584225 345:-0.243125 346:-0.0226351 347:-0.0350712 348:-0.51414 349:-0.0487687 350:0.0453769 351:-0.154655 352:-0.767372 353:-0.716239 354:-0.210996 355:-0.243307 356:0.43922 357:-0.550882 358:-0.329073 359:-0.285291 360:-0.0774676 361:0.458166 362:-0.497087 363:0.736532 364:-0.459459 365:-0.724665 366:0.587561 367:0.194824 368:0.319595 369:0.726967 370:0.821641 371:-0.210372 372:-0.829166 373:0.644253 374:-0.604965 375:0.624609 376:-0.477148 377:-0.787586 378:0.436678 379:0.368638 380:0.0878988 381:0.46647 382:0.711293 383:0.264342 384:-0.937898 
0.6126847577884694 3.409184828993727 0.05409354556452595 1.330043768688652 2.351382799655209 0.7297277346453405 1:-0.619799 2:-0.870228 3:-0.6178 4:-0.963446 5:-0.404819 6:-0.667165 7:-0.137881 8:-0.11612 9:-0.864642 10:-0.632264 11:-0.292722 12:-0.624009 13:-0.0189814 14:-0.604683 15:0.257654 16:-0.346591 17:-0.483787 18:-0.214742 19:-0.0696492 20:-0.198995 21:0.0957525 22:0.282574 23:-0.667894 24:-0.0824012 25:-0.352482 26:0.114971 27:-0.404458 28:-0.440758 29:-0.929883 30:0.183862 31:0.380654 32:-0.241686 33:-0.416123 34:-0.0897317 35:-0.269113 36:-0.574799 37:-0.341744 38:0.13766 39:-0.322626 40:-0.301391 41:-0.718919 42:-0.0935452 43:0.454307 44:-0.504141 45:-0.649944 46:-0.358568 47:0.00615331 48:-0.572421 49:-0.199422 50:0.11679 51:-0.276769 52:-0.908419 53:-0.443548 54:-0.116703 55:-0.270529 56:-0.0221079 57:-0.260365 58:0.0225325 59:0.433506 60:-0.794075 61:-0.721877 62:-0.00777728 63:-0.561087 64:-0.283082 65:-0.492126 66:-0.234114 67:-0.0722169 68:-0.318856 69:-0.484858 70:-0.286681 71:0.457792 72:-0.79983 73:-0.783496 74:-0.30885 75:-0.256606 76:-0.0355731 77:-0.48368 78:-0.559761 79:0.0535605 80:-0.45443 81:0.135671 82:0.185559 83:-0.0866886 84:-0.814155 85:-0.491408 86:0.53626 87:-0.776828 88:-0.5 89:-0.833031 90:0.0642153 91:0.00308113 92:0.0317945 93:-0.794567 94:-0.633418 95:-0.14622 96:-0.802928 97:-0.571067 98:-0.0981022 99:-0.212415 100:-0.484117 101:-0.532 102:-0.256052 103:0.0148193 104:-0.185704 105:-0.328945 106:-0.171182 107:0.221433 108:-0.65122 109:-0.775748 110:-0.305866 111:-0.166581 112:-0.561271 113:-0.689708 114:-0.398587 115:0.0645329 116:-0.447933 117:-0.167087 118:-0.0489761 119:-0.387345 120:-0.333541 121:-0.379212 122:0.315963 123:-0.523868 124:-0.366762 125:-0.528046 126:-0.107054 127:0.354731 128:-0.412622 129:-0.645245 130:-0.321774 131:0.511036 132:-0.220368 133:-0.640953 134:-0.698544 135:-0.100815 136:-0.772414 137:-0.790476 138:-0.239333 139:0.325119 140:-0.422553 141:0.154681 142:0.334033 143:-0.0179386 144:-0.737274 145:0.177161 146:0.178844 147:0.35774 148:-0.816926 149:-0.239819 150:-0.116322 151:0.120981 152:-0.00624698 153:-0.454822 154:-0.26522 155:0.634655 156:0.178961 157:0.459459 158:-1 159:0.463807 160:-0.898051 161:-0.166102 162:0.0298664 163:-0.353274 164:0.296931 165:0.542777 166:0.468733 167:-0.330144 168:-0.744642 169:0.800743 170:0.843824 171:0.404433 172:-0.544061 173:-0.223048 174:0.277844 175:-0.217556 176:0.175697 177:0.249092 178:0.485864 179:-0.504094 180:-0.925994 181:0.450951 183:0.450951 184:-0.529183 185:-1 186:-0.0919955 187:-0.107999 188:0.0593326 189:-0.217268 190:0.253225 191:-0.866147 192:-0.977538 193:-0.674013 194:0.472269 195:-0.548482 196:-0.963399 197:-0.944 198:0.471609 199:0.791184 200:-0.701505 201:-0.841733 202:-0.593521 203:-0.178299 204:-0.659407 205:-0.465267 206:0.0214895 207:-0.253682 208:-0.376506 209:-0.918306 210:-0.0251873 211:0.111992 212:-0.282877 213:-0.424297 214:-0.208444 215:-0.372297 216:-0.614064 217:0.344282 218:-0.0276844 219:0.245286 220:-0.790625 221:-0.568504 222:-0.0819446 223:-0.157866 224:0.0017614 225:0.020311 226:0.25218 227:0.586766 228:-0.668384 229:-0.438719 230:0.784934 231:-0.568483 232:-0.876582 233:-0.419569 234:-0.118085 235:0.266605 236:-0.134701 237:-0.639076 238:-0.503433 239:0.2257 240:-0.425612 241:0.540014 242:0.241825 243:0.149551 244:-0.930131 245:-0.94188 246:0.118483 247:-0.260222 248:-0.0570403 249:0.0812435 250:0.3162 251:0.490379 252:-0.589453 253:-0.752285 254:0.0729603 255:-0.380373 256:-0.610719 257:-0.375 258:-0.0134009 259:-0.27647 260:0.107272 261:-0.711288 262:-0.54503 263:-0.664474 264:-0.217183 265:-0.233642 266:-0.28108 267:0.313957 268:-0.736434 269:-0.855711 270:-0.0403252 271:-0.160926 272:-0.0537677 273:0.436081 274:0.572594 275:-0.0308514 276:-0.282598 277:-0.540256 278:0.517977 279:-0.467895 280:-0.836022 281:-0.733154 282:-0.286875 283:-0.663774 284:0.256859 285:-0.422474 286:-0.224171 287:0.00354086 288:-0.873874 289:-0.203819 290:0.477597 291:-0.260588 292:-0.718663 293:-0.894273 294:0.319436 295:-0.203402 296:-0.129954 297:-0.351616 298:-0.168673 299:0.0520019 300:-0.391012 301:-0.33768 302:0.611468 303:-0.445723 304:-0.65894 305:-0.281198 306:0.0359237 307:0.00705181 308:-0.117277 309:-0.535362 310:-0.32058 311:-0.108135 312:-0.64015 313:-0.418722 314:0.552375 315:-0.498244 316:-0.470199 317:-0.82235 318:-0.0928965 319:-0.18107 320:-0.021673 321:-0.409852 322:-0.188659 323:0.599222 324:-0.458683 325:0.56053 326:-0.211869 327:0.505229 328:-0.56135 329:-0.455072 330:-0.0246215 331:-0.1827 332:-0.0681999 333:0.79111 334:0.854692 335:-0.249785 336:-0.62458 337:0.629547 338:0.199675 339:0.511778 340:-0.83908 341:-0.536122 342:-0.0986878 343:-0.479352 344:0.258549 345:0.0740892 346:0.276771 347:0.470654 348:0.582795 349:0.257364 350:-0.122432 351:0.102103 352:-0.92145 353:-0.876923 354:-0.165282 355:-0.387974 356:0.65753 357:0.146866 358:0.364814 359:-0.131449 360:-0.477585 361:0.65506 362:-0.231404 363:0.689996 364:-0.552124 365:-0.732314 366:-0.170249 367:0.130973 368:0.313592 369:0.0896037 370:0.356086 371:-0.182639 372:-0.701335 373:0.450979 374:-0.427405 375:0.439192 376:-0.564899 377:-0.693793 378:-0.235271 379:0.439627 380:-0.0628023 381:-0.168043 382:0.289387 383:0.314076 384:-0.927907 
0 4.565819774192602 0.2256733953816134 6.004214030069437 1.679190278189458 3.920138114398653 1:-0.837535 2:-0.768771 3:-0.83626 4:-0.704961 5:-0.990361 6:-0.202138 7:-0.069282 8:0.0163976 9:-0.747619 10:-0.471444 11:-0.916709 12:-0.983189 13:-0.204278 14:-0.255705 15:-0.132593 16:-0.602273 17:-0.789883 18:-0.228866 19:-0.213995 20:-0.118898 21:-0.587749 22:-0.428309 23:-0.334634 24:-0.158628 25:-0.349775 26:0.21355 27:-0.49118 28:-0.63981 29:-0.592654 30:-0.127952 31:0.405565 32:-0.384531 33:-0.301302 34:-0.0102761 35:-0.010951 36:-0.911056 37:-0.347072 38:-0.317161 39:0.0850327 40:-0.50541 41:-0.54955 42:-0.278297 43:0.449049 44:-0.524566 45:0.523872 46:0.696118 47:-0.0320465 48:-0.865072 49:-0.133085 50:0.695932 51:-0.780311 52:-0.521418 53:-0.983871 54:0.394397 55:0.208325 56:0.0514199 57:-0.789184 58:-0.488747 59:0.554648 60:-0.799788 61:-0.435427 62:-0.00269677 63:-0.351566 64:-0.872697 65:-0.633858 66:-0.0600833 67:-0.326738 68:0.0393415 69:-0.176278 70:0.041665 71:0.385701 72:-0.878449 73:-0.338349 74:0.298015 75:-0.471743 76:-0.964427 77:-0.928783 78:-0.0606477 79:-0.16844 80:0.106104 81:-0.144261 82:-0.0374712 83:-0.0841696 84:-0.869834 85:-0.106284 86:0.0490239 87:-0.110264 88:-0.56117 89:-0.607985 90:0.107325 91:2.9427e-05 92:0.124782 93:-0.0973551 94:0.121307 95:-0.107452 96:-0.821317 97:-0.451581 98:-0.108954 99:-0.118668 100:-0.931385 101:-0.804 102:-0.285048 103:-0.136772 104:-0.0722321 105:-0.406651 106:-0.248885 107:0.235405 108:-0.543045 109:-0.527319 110:0.104757 111:-0.336373 112:-0.909228 113:-0.849462 114:-0.221782 115:-0.341319 116:-0.0151873 117:-0.180453 118:0.0150399 119:0.118674 120:-0.648389 121:-0.118215 122:-0.00870418 123:-0.0409945 124:-0.547278 125:-0.655706 126:0.0307558 127:0.268507 128:-0.106546 129:0.5763 130:0.696209 131:0.404775 132:-0.831968 133:-0.767268 134:0.0627533 135:-0.687338 136:-0.988506 137:-0.60381 138:-0.284797 139:-0.273341 140:0.0794242 141:-0.77807 142:-0.571353 143:0.369045 144:-0.453934 145:-0.81648 146:0.344257 147:-0.653635 148:-0.398964 149:-0.696833 150:-0.540879 151:0.103131 152:-0.405844 153:-0.691192 154:-0.546105 155:0.00174671 156:-0.824361 157:-0.143243 158:-0.260869 159:-0.179625 160:-0.70015 161:-0.454237 162:-0.244862 163:-0.213943 164:-0.0184746 165:-0.537098 166:-0.375668 167:-0.23432 168:-0.574023 169:0.465467 170:0.542059 171:0.224394 172:-0.586207 173:-0.780669 174:-0.155163 175:0.344217 176:-0.542244 177:-0.183966 178:0.153758 179:-0.176939 180:-0.787681 181:0.333645 183:0.333645 184:-0.505837 185:-1 186:-0.496019 187:0.62714 188:-0.831401 189:-0.331488 190:0.186468 191:-0.717944 192:-0.955836 193:-0.82469 194:0.711622 195:-0.76561 196:-0.699346 197:-0.976 198:0.47754 199:0.237117 200:-0.173358 201:-0.769425 202:-0.468871 203:-0.197178 204:-0.9653 205:-0.550595 206:0.720281 207:-0.674168 208:-0.753012 209:-0.782148 210:-0.341227 211:0.137357 212:-0.416121 213:-0.702995 214:-0.544268 215:0.0560223 216:-0.773256 217:0.189686 218:0.120914 219:0.0749345 220:-0.9625 221:-0.628346 222:-0.00344603 223:0.0181601 224:-0.0204105 225:-0.204146 226:0.0438666 227:0.0649237 228:-0.5545 229:-0.259317 230:0.529581 231:-0.266324 232:-0.566456 233:-0.927032 234:-0.0692209 235:0.256995 236:-0.0943571 237:-0.367883 238:-0.193403 239:-0.12076 240:-0.553177 241:-0.97306 242:0.182696 243:-0.569729 244:-0.679767 245:-0.6 246:-0.16769 247:-0.351784 248:0.174857 249:-0.666038 250:-0.461633 251:-0.698576 252:-0.20734 253:-0.114937 254:0.0393194 255:-0.0623131 256:-0.921016 257:-0.94186 258:-0.250536 259:-0.00916544 260:-0.112892 261:-0.167917 262:0.0670458 263:-0.0535921 264:-0.669357 265:-0.155192 266:0.32629 267:-0.0647123 268:-0.918605 269:-0.955912 270:-0.252419 271:-0.040389 272:-0.0545716 273:-0.227142 274:-0.00829901 275:0.416728 276:-0.116316 277:-0.535369 278:0.587447 279:-0.50898 280:-0.75 281:-0.978437 282:0.276987 283:-0.308663 284:0.126826 285:-0.254681 286:-0.0406519 287:0.0879615 288:-0.87371 289:-0.00238212 290:-0.184889 291:0.297445 292:-0.866295 293:-0.920705 294:0.307471 295:0.0992677 296:-0.384071 297:-0.147089 298:0.0461504 299:-0.188508 300:0.46076 301:-0.780404 302:0.174181 303:-0.418626 304:-0.943709 305:-0.846922 306:-0.158824 307:0.302561 308:-0.348217 309:-0.72119 310:-0.549461 311:-0.924064 312:0.296047 313:-0.654094 314:0.427301 315:-0.588025 316:-0.864238 317:-0.750716 318:0.04496 319:-0.168513 320:0.113389 321:-0.505703 322:-0.297158 323:-0.0401889 324:-0.569912 325:-0.485933 326:0.288808 327:-0.322922 328:-0.730061 329:-0.86087 330:0.0040621 331:0.145115 332:-0.218476 333:-0.295734 334:-0.0688756 335:-0.455674 336:-0.685643 337:-0.43001 338:0.55463 339:-0.445908 340:-0.760263 341:-0.768061 342:0.0113757 343:0.275923 344:-0.534742 345:-0.381975 346:-0.154281 347:-0.0667108 348:-0.526458 349:-0.369387 350:0.0265406 351:-0.30981 352:-0.712991 353:-0.654701 354:-0.0734765 355:-0.473477 356:0.680422 357:-0.18532 358:0.0643683 359:-0.365885 360:-0.641442 361:0.0574148 362:-0.196918 363:0.326119 364:-0.656371 365:-0.583174 366:-0.161867 367:-0.20849 368:0.476785 369:-0.148392 370:0.153435 371:-0.349206 372:-0.659103 373:0.316765 374:-0.254547 375:0.285656 376:-0.561243 377:-0.622069 378:-0.235271 379:0.395577 380:-0.153045 381:-0.433696 382:0.0637373 383:0.277002 384:-0.888085 
0 5.402668843306501 0 1.103428865048721 0 0 1:-0.736344 2:-0.658697 3:-0.735239 4:-0.861619 5:-0.506024 6:-0.0950955 7:-0.00699419 8:0.0516035 9:-0.706124 10:-0.41382 11:-0.892649 12:-0.969769 13:-0.325548 14:-0.518957 15:-0.0325719 16:-0.471591 17:-0.618677 18:-0.727629 19:0.0728989 20:-0.592543 21:-0.522991 22:-0.33244 23:-0.237727 24:0.304653 25:-0.381272 26:-0.493164 27:0.122235 28:-0.548183 29:-0.616027 30:-0.497068 31:0.0572473 32:-0.442052 33:0.126196 34:0.337716 35:0.0747989 36:-0.654549 37:-0.391287 38:-0.241516 39:-0.0233763 40:-0.802164 41:-0.69009 42:-0.231273 43:0.112585 44:-0.272609 45:-0.35209 46:-0.237586 47:0.0122346 48:-0.533335 49:-0.526133 50:0.138951 51:-0.493329 52:-0.577548 53:-0.358871 54:-0.32049 55:0.04958 56:-0.474951 57:-0.305143 58:0.0297048 59:0.439834 60:-0.893824 61:-0.613803 62:-0.403253 63:-0.164484 64:-0.477387 65:-0.46063 66:-0.074308 67:0.271536 68:-0.411808 69:-0.138196 70:0.131871 71:-0.239381 72:-0.592092 73:-0.470271 74:-0.543049 75:0.240968 76:-0.525692 77:-0.94362 78:-0.204707 79:0.26428 80:-0.338374 81:0.403417 82:0.419309 83:-0.624271 84:-0.314337 85:-0.110253 86:0.388093 87:-0.388926 88:-0.462766 89:-0.422868 90:-0.107718 91:0.0955177 92:-0.118065 93:-0.404272 94:-0.154842 95:0.271473 96:-0.801005 97:0.0575121 98:-0.142438 99:0.268948 100:-0.550191 101:-0.76 102:-0.029061 103:0.447191 104:-0.424877 105:-0.037151 106:0.254224 107:0.352849 108:-0.63139 109:-0.767019 110:-0.665635 111:0.142197 112:-0.645991 113:-0.462366 114:-0.252407 115:-0.514417 116:0.15811 117:-0.000115426 118:0.302684 119:-0.849992 120:0.411661 121:0.0880163 122:-0.0508709 123:0.168543 124:-0.610315 125:-0.705996 126:0.155028 127:0.127027 128:0.0597121 129:-0.0428401 130:0.154418 131:0.217202 132:-0.04417 133:0.543945 134:-0.278167 135:0.401389 136:-0.685057 137:-0.36 138:0.565099 139:-0.267294 140:0.85907 141:0.323892 142:0.479629 143:-0.0915286 144:-0.174789 145:-0.089831 146:0.380847 147:-0.0227258 148:-0.841105 149:-0.158371 150:0.153132 151:-0.216406 152:0.510522 153:-0.131044 154:0.125502 155:0.0877241 156:-0.820538 157:0.356756 158:-1 159:0.36193 160:-0.571214 161:-0.874576 162:0.245898 163:-0.0622429 164:0.0588502 165:-0.136136 166:-0.00727759 167:-0.236202 168:-0.574293 169:0.732372 170:0.478957 171:0.458016 172:-0.766284 173:-0.635688 174:0.357368 175:-0.0218366 176:0.0580965 177:0.530906 178:0.688395 179:-0.611154 180:-0.988635 181:0.881724 183:0.881724 184:-0.7393 185:-1 186:0.379846 187:-0.0495132 188:0.36959 189:0.589665 190:0.771958 191:-0.904873 192:-0.982909 193:-0.831144 194:0.481175 195:-0.655847 196:-0.803922 197:-0.788 198:0.468321 199:0.399514 200:-0.235684 201:-0.705924 202:-0.375654 203:-0.270908 204:-0.968817 205:-0.653891 206:0.532905 207:-0.640431 208:-0.554217 209:-0.585477 210:-0.0636192 211:0.23187 212:-0.474732 213:-0.970951 214:-0.948178 215:-0.18846 216:-0.114389 217:-0.249465 218:-0.0914687 219:-0.077828 220:-0.921875 221:-0.382677 222:-0.326448 223:0.437693 224:-0.633316 225:-0.192723 226:0.0628602 227:-0.304354 228:-0.825945 229:-0.541074 230:0.398796 231:-0.366581 232:-0.721519 233:-0.638474 234:-0.0904223 235:0.492652 236:-0.393216 237:-0.361538 238:-0.184178 239:-0.301481 240:-0.529409 241:0.0273377 242:0.198286 243:-0.0808522 244:-0.813683 245:-0.85641 246:0.329085 247:-0.041528 248:-0.178694 249:-0.232317 250:0.0322114 251:-0.248651 252:-0.40825 253:0.392146 254:0.0361657 255:0.175005 256:-0.813822 257:-0.84593 258:-0.180679 259:-0.2796 260:0.144022 261:-0.210636 262:0.0226667 263:-0.100708 264:-0.338829 265:0.683037 266:0.0729342 267:0.688093 268:-0.94186 269:-0.839679 270:0.0599457 271:-0.212917 272:0.164856 273:0.220811 274:0.39518 275:0.657 276:0.503653 277:-0.590478 278:0.574729 279:-0.538446 280:-0.768817 281:-0.997305 282:0.128498 283:-0.428078 284:0.127865 285:-0.466519 286:-0.267823 287:-0.0129167 288:-0.891999 289:0.0433386 290:0.577347 291:-0.173544 292:-0.83844 293:-0.876652 294:0.27943 295:-0.201228 296:-0.0523111 297:0.200641 298:0.357664 299:0.369898 300:-0.697261 301:-0.517279 302:0.80468 303:-0.65376 304:-0.834437 305:-0.986689 306:-0.149798 307:-0.0164223 308:-0.044277 309:-0.68886 310:-0.513671 311:0.00592227 312:-0.817221 313:-0.355555 314:-0.487507 315:0.0816482 316:-0.36755 317:-0.7851 318:-0.129799 319:-0.0385684 320:-0.156133 321:-0.0223035 322:0.198895 323:-0.198942 324:-0.0484603 325:-0.332052 326:0.221363 327:-0.204781 328:-0.484663 329:-0.6 330:-0.246739 331:-0.330511 332:0.13908 333:-0.0853743 334:0.132357 335:-0.130806 336:-0.660768 337:-0.136384 338:0.5484 339:-0.248875 340:-0.865353 341:-0.596958 342:-0.294846 343:-0.494716 344:0.256666 345:-0.179812 346:0.0391781 347:0.131193 348:-0.540033 349:0.337518 350:0.52226 351:-0.233233 352:-0.589124 353:-0.682051 354:-0.0155964 355:-0.458444 356:0.740859 357:-0.341391 358:-0.092194 359:0.334938 360:-0.381651 361:0.172051 362:-0.218376 363:0.404831 364:-0.710425 365:-0.755258 366:-0.482787 367:0.0603017 368:0.203147 369:0.173615 370:0.423344 371:-0.258129 372:-0.802478 373:0.856605 374:-0.889849 375:0.873226 376:-0.835466 377:-0.809655 378:-0.235271 379:0.0678358 380:0.319974 381:0.447412 382:0.702183 383:0.256166 384:-0.922302 
0 0 0.8502377321167033 0 0 0.002258289096924838 1:-0.686677 2:-0.918106 3:-0.684646 4:-0.673629 5:-0.992771 6:-0.768114 7:0.205215 8:-0.615913 9:-0.921985 10:-0.810042 11:-0.271458 12:-0.532671 13:-0.548208 14:-0.729615 15:-0.0460633 16:-0.78125 17:-0.481193 18:-0.76014 19:-0.0510467 20:-0.553988 21:-0.566526 22:-0.398 23:-0.518833 24:0.215818 25:-0.422802 26:-0.378681 27:-0.00912237 28:-0.200632 29:-0.552588 30:-0.441551 31:0.151001 32:-0.488086 33:-0.0795239 34:0.166359 35:0.107387 36:-0.718248 37:-0.213745 38:0.148212 39:-0.216948 40:-0.27357 41:-0.787387 42:-0.0700012 43:0.631277 44:-0.678101 45:-0.748299 46:-0.23731 47:0.602583 48:-0.425023 49:-0.583178 50:0.156951 51:-0.544398 52:-0.246677 53:-0.451613 54:-0.46308 55:-0.387939 56:-0.183786 57:-0.4438 58:-0.154344 59:0.73438 60:-0.817635 61:-0.537665 62:-0.190498 63:-0.277725 64:-0.534338 65:-0.511811 66:-0.378285 67:-0.0449666 68:-0.491152 69:-0.3061 70:-0.0910128 71:0.520874 72:-0.807238 73:-0.437621 74:-0.237555 75:-0.0309535 76:-0.438735 77:-0.655786 78:-0.630834 79:-0.170884 80:-0.280822 81:-0.0382594 82:0.060871 83:0.178631 84:-0.524553 85:-0.254155 86:0.642919 87:-0.697194 88:-0.468085 89:-0.568058 90:0.224999 91:0.154151 92:0.022456 93:-0.789825 94:-0.537473 95:0.231347 96:-0.87472 97:-0.110914 98:0.307778 99:-0.265981 100:-0.750953 101:-0.544 102:-0.105104 103:-0.0896107 104:0.0727784 105:-0.622041 106:-0.509378 107:0.885547 108:-0.315285 109:-0.0801628 110:-0.261788 111:0.287991 112:-0.688351 113:-0.265745 114:-0.281004 115:-0.157909 116:-0.119228 117:-0.040276 118:0.111598 119:0.1442 120:-0.0998984 121:1 122:0.136551 123:0.795137 124:-0.710602 125:-0.957447 126:0.652844 127:0.288249 128:0.232867 129:0.91435 130:1 131:0.659242 132:-0.157893 133:0.087646 134:-0.0615828 135:-0.0422443 136:-0.781609 137:-0.184762 138:0.320146 139:-0.256635 140:0.71998 141:-0.0835959 142:0.193351 143:-0.10253 144:-0.548974 145:0.29414 146:0.60078 147:0.17225 148:-0.350604 149:-0.972851 150:0.644843 151:-0.0681799 152:0.893725 153:0.195666 154:0.372228 155:0.12481 156:-0.822309 157:-0.0378379 158:-1 159:-0.0294907 160:-0.811094 161:-1 162:0.350139 163:-0.251276 164:0.321149 165:-0.100612 166:0.0123526 167:-0.629938 168:-0.874708 169:0.931465 170:0.62095 171:0.576 172:-0.639847 173:-0.0408922 174:0.528024 175:0.0936243 176:0.05491 177:0.684944 178:0.806933 179:-0.627411 180:-0.966062 181:0.922689 183:0.922689 184:-0.264591 185:-1 186:0.499782 187:0.173842 188:0.277681 189:0.61307 190:0.78317 191:-0.922678 192:-0.983361 193:-0.665761 194:0.748712 195:-0.679821 196:-0.667974 197:-0.5 198:0.471064 199:0.837287 200:-0.767998 201:-0.921134 202:-0.758121 203:0.412333 204:-0.502405 205:-0.255306 206:0.279044 207:-0.257484 208:-0.394578 209:-0.757943 210:-0.0554508 211:0.121198 212:-0.302561 213:-0.68618 214:-0.522045 215:-0.195342 216:-0.313216 217:-0.147177 218:0.232993 219:-0.185764 220:-0.55625 221:-0.524409 222:0.0850378 223:-0.0827965 224:-0.0793976 225:-0.180819 226:0.0672923 227:0.0992238 228:-0.865916 229:-0.981514 230:0.587394 231:-0.799922 232:-0.509494 233:-0.827529 234:-0.0189005 235:0.236568 236:-0.0628494 237:-0.842303 238:-0.767727 239:-0.37073 240:-0.538184 241:-0.710286 242:0.482965 243:-0.609054 244:-0.577875 245:-0.97265 246:-0.0697846 247:-0.161994 248:-0.282347 249:-0.524553 250:-0.278697 251:-0.099819 252:-0.623286 253:0.133854 254:0.136959 255:-0.0119723 256:-0.771509 257:-0.386628 258:-0.159662 259:-0.0772964 260:-0.270611 261:-0.468729 262:-0.242268 263:0.155662 264:-0.296217 265:-0.311861 266:-0.286247 267:0.264211 268:-0.333333 269:-0.559118 270:0.0936518 271:-0.178061 272:-0.00705633 273:0.108783 274:0.303178 275:-0.27327 276:-0.386424 277:-0.414378 278:0.750503 279:-0.530688 280:-0.658602 281:-0.436658 282:-0.0990486 283:-0.693638 284:0.331977 285:-0.624249 286:-0.45953 287:0.332309 288:-0.812617 289:-0.922106 290:0.840064 291:-0.940775 292:-0.529248 293:-0.380323 294:0.0802484 295:-0.186961 296:-0.23896 297:-0.895764 298:-0.831664 299:-0.413801 300:-0.45496 301:-0.464601 302:0.442571 303:-0.412226 304:-0.68543 305:-0.291181 306:-0.220419 307:0.0023868 308:-0.193341 309:-0.620446 310:-0.423445 311:-0.392618 312:-0.497905 313:-0.371767 314:-0.0658413 315:-0.147322 316:-0.407285 317:-0.638968 318:0.0239905 319:-0.542857 320:0.597622 321:0.0018884 322:0.219055 323:-0.085427 324:-0.689429 325:-0.0934929 326:0.167874 327:-0.0516891 328:-0.687117 329:-0.373913 330:0.109951 331:-0.538602 332:0.495669 333:-0.0797338 334:0.136624 335:-0.068853 336:-0.587605 337:-0.115404 338:0.437192 339:-0.152613 340:-0.399015 341:-0.78327 342:-0.332114 343:-0.600443 344:0.405382 345:0.122343 346:0.319312 347:0.0633719 348:-0.562086 349:-0.133751 350:0.0308217 351:-0.19019 352:-0.827795 353:-0.295726 354:-0.124869 355:-0.470439 356:0.791916 357:0.0993237 358:0.326289 359:-0.181359 360:-0.789776 361:0.451058 362:-0.587655 363:0.786853 364:-0.72973 365:-0.330784 366:-0.252519 367:0.0991005 368:0.366815 369:0.623283 370:0.754526 371:-0.24965 372:-0.863033 373:0.923846 374:-0.887802 375:0.905823 376:-0.316271 377:-0.45931 378:-0.235271 379:0.282116 380:0.202843 381:0.627197 382:0.803715 383:0.263241 384:-0.935445 
1.129682098465532 0 0 2.192784232367713 0 0.5428835164297344 1:-0.631476 2:-0.882263 3:-0.62946 4:-0.908616 5:-1 6:-0.602783 7:-0.18629 8:-0.150926 9:-0.75157 10:-0.4625 11:-0.529125 12:-0.835813 13:0.220272 14:-0.093384 15:0.0661585 16:-0.849432 17:-0.699092 18:0.0424023 19:-0.188287 20:0.0356724 21:-0.143093 22:0.0580944 23:-0.237857 24:-0.420112 25:-0.552687 26:-0.0193726 27:-0.42108 28:-0.535545 29:-0.866444 30:-0.125222 31:0.619715 32:-0.488639 33:-0.323681 34:0.0230756 35:-0.0631126 36:-0.850429 37:-0.17083 38:-0.610402 39:0.509641 40:-0.709428 41:-0.816216 42:-0.375358 43:0.501428 44:-0.633086 45:0.239778 46:0.45798 47:0.0748304 48:-0.593323 49:-0.368708 50:0.0607444 51:-0.325632 52:-0.654357 53:-0.830645 54:0.103487 55:0.295817 56:-0.237273 57:-0.555052 58:-0.172531 59:-0.00958831 60:-0.616937 61:0.0791053 62:-0.471352 63:0.406575 64:-0.872697 65:-0.681102 66:0.0908699 67:-0.0891893 68:0.036718 69:0.325839 70:0.468067 71:0.0761087 72:-0.636337 73:-0.507538 74:-0.360143 75:0.0296005 76:-0.956522 77:-0.940653 78:-0.092783 79:0.163514 80:-0.140231 81:0.103426 82:0.168447 83:-0.420727 84:-0.367191 85:0.00597168 86:0.516854 87:-0.412167 88:-0.904255 89:-0.731397 90:0.228494 91:-0.257764 92:0.35231 93:-0.466614 94:-0.275403 95:-0.0416993 96:-0.760306 97:0.180116 98:0.414805 99:-0.161243 100:-0.639136 101:-0.592 102:0.24613 103:-0.0219781 104:0.27412 105:-0.588726 106:-0.475868 107:0.57126 108:-0.361985 109:-0.490428 110:-0.322316 111:0.0489218 112:-0.615734 113:-0.827957 114:0.0803642 115:0.146361 116:-0.131154 117:-0.256622 118:-0.129949 119:-0.75134 120:0.675355 121:-0.755597 122:0.155286 123:-0.715609 124:-0.530086 125:-0.647969 126:-0.255819 127:-0.190264 128:-0.0178755 129:-0.540198 130:-0.394977 131:0.0337642 132:-0.815404 133:-0.543926 134:0.121305 135:-0.579 136:-0.636782 137:-0.897143 138:0.0207615 139:0.598421 140:-0.304841 141:-0.562458 142:-0.261257 143:0.232325 144:-0.647944 145:-0.479489 146:-0.177829 147:0.0108845 148:-0.440415 149:-0.950226 150:-0.45357 151:1 152:-0.944411 153:-0.102225 154:0.247474 155:-0.30484 156:-0.689651 157:0.262162 158:2.6087e-07 159:0.206434 160:-0.634183 161:-0.620339 162:-0.0862442 163:-0.0332746 164:-0.0958646 165:0.00899415 166:0.102973 167:-0.152528 168:-0.594375 169:0.509809 170:-0.127486 171:0.4594 172:-0.777778 173:-0.743494 174:-0.261526 175:-0.505437 176:-0.0759968 177:0.00410028 178:0.314402 179:-0.125184 180:-0.787584 181:0.307225 183:0.307225 184:-0.918288 185:-1 186:-0.582663 187:-0.423212 188:-0.218273 189:-0.574089 190:-0.0409842 191:-0.714727 192:-0.952539 193:-0.621504 194:0.74002 195:-0.646522 196:-0.905882 197:-0.836 198:0.472468 199:0.454329 200:-0.458053 201:-0.753727 202:-0.446504 203:0.103137 204:-0.853272 205:-0.0894633 206:-0.0183889 207:0.00260127 208:-0.644578 209:-0.748865 210:0.135851 211:-0.103345 212:-0.0396802 213:-0.0616587 214:0.159154 215:0.0550851 216:-0.707767 217:-0.295172 218:0.0222943 219:-0.164637 220:-0.953125 221:-0.987402 222:-0.0157417 223:0.446815 224:-0.378945 225:-0.259756 226:-0.00649389 227:-0.334195 228:-0.825316 229:-0.0486236 230:-0.232537 231:0.41385 232:-0.835443 233:-0.694859 234:-0.0979674 235:0.742956 236:-0.578791 237:0.608439 238:0.702654 239:-0.0506458 240:-0.525485 241:-0.666973 242:0.908803 243:-0.828679 244:-0.950509 245:-0.982906 246:0.148941 247:0.0989756 248:-0.208716 249:-0.623687 250:-0.399182 251:0.208929 252:-0.80098 253:0.350615 254:0.199726 255:0.0467473 256:-0.90409 257:-0.706395 258:0.150979 259:0.394746 260:-0.378451 261:0.0409926 262:0.266766 263:0.254352 264:-0.735011 265:-0.0786693 266:-0.779214 267:0.774307 268:-0.934109 269:-0.891784 270:-0.00173917 271:0.43689 272:-0.452697 273:0.847277 274:0.88776 275:-0.167881 276:-0.326382 277:-0.484347 278:0.377813 279:-0.340132 280:-0.701613 281:-0.80593 282:0.170317 283:-0.326779 284:0.15403 285:-0.430727 286:-0.22844 287:-0.035505 288:-0.595975 289:-0.371171 290:0.362045 291:-0.288086 292:-0.980501 293:-0.947137 294:0.436314 295:-0.0820202 296:-0.0848893 297:-0.0091411 298:0.170074 299:0.0682483 300:-0.694436 301:-0.605682 302:0.510604 303:-0.526154 304:-0.764901 305:-0.510815 306:0.105941 307:0.193596 308:-0.129197 309:-0.333963 310:-0.0967827 311:-0.147265 312:-0.844423 313:-0.328304 314:0.433193 315:-0.377169 316:-0.698675 317:-0.951289 318:0.125908 319:0.445654 320:-0.485959 321:-0.375941 322:-0.142376 323:0.421309 324:-0.203552 325:-0.622402 326:0.21659 327:-0.349976 328:-0.957055 329:-0.843478 330:0.164663 331:0.269529 332:-0.248065 333:-0.233485 334:-0.00377562 335:-0.482743 336:-0.690819 337:-0.334133 338:0.404139 339:-0.271419 340:-0.786535 341:-0.69962 342:0.154099 343:0.161577 344:-0.329792 345:-0.00286832 346:0.215368 347:-0.0850162 348:-0.66173 349:0.287301 350:-0.114727 351:0.113114 352:-0.652568 353:-0.579487 354:-0.17771 355:-0.623621 356:0.741655 357:0.308684 358:0.499506 359:-0.159073 360:-0.551651 361:-0.264877 362:-0.0938928 363:0.0791776 364:-0.953668 365:-0.6826 366:0.271483 367:0.220575 368:0.111578 369:-0.157275 370:0.138789 371:-0.651618 372:-0.780681 373:0.249598 374:-0.308801 375:0.279199 376:-0.937843 377:-0.936552 378:-0.235271 379:0.422342 380:-0.19839 381:-0.55249 382:-0.0544207 383:0.224251 384:-0.882978 
1.695451726595255 6.164838981211967 2.34345956849585 7.164556213022558 1.05728714366022 3.990303818211112 1:0.312201 2:-0.596838 3:0.315019 4:-0.558747 5:-1 6:0.265722 7:1 8:-0.841711 9:0.541116 10:0.871082 11:-0.40487 12:-0.77523 13:-0.0664591 14:-0.465164 15:0.121443 16:-0.440341 17:-0.548638 18:-0.088602 19:-0.243628 20:-0.00198207 21:-0.148986 22:0.055839 23:-0.739886 24:0.394532 25:-0.28733 26:0.20589 27:-0.441461 28:-0.766193 29:-0.499165 30:0.356542 31:-0.420814 32:0.504924 33:-0.550833 34:-0.196989 35:-0.291739 36:-0.58509 37:-0.628053 38:0.163724 39:-0.604045 40:-0.650696 41:-0.441441 42:-0.0792629 43:-0.304869 44:0.224001 45:-0.641329 46:-0.565389 47:-0.454407 48:-0.60567 49:-0.279759 50:0.463592 51:-0.650244 52:-0.604136 53:-0.754032 54:0.407635 55:-0.508459 56:0.647306 57:-0.258028 58:0.0622914 59:0.075793 60:-0.951591 61:-0.439721 62:-0.142508 63:-0.243046 64:-0.916248 65:-0.566929 66:0.283144 67:-0.385905 68:0.46665 69:-0.127514 70:0.10591 71:-0.271058 72:-0.637394 73:-0.384166 74:-0.212049 75:-0.0102988 76:-0.529644 77:-0.688427 78:0.312118 79:-0.191608 80:0.439947 81:0.200024 82:0.245203 83:-0.946288 84:-0.19879 85:0.471631 86:0.212668 87:0.16195 88:-0.414894 89:-0.488203 90:0.565319 91:-0.592213 92:0.835008 93:-0.00116903 94:0.246293 95:-0.326366 96:-0.699516 97:0.0939168 98:-0.284034 99:0.425582 100:-0.532402 101:-0.616 102:0.429048 103:-0.295821 104:0.73345 105:0.27575 106:0.464336 107:-0.359389 108:-0.373399 109:-0.448841 110:0.18231 111:-0.346134 112:-0.431165 113:-0.674347 114:0.235536 115:-0.113659 116:0.205361 117:0.0577005 118:0.171744 119:-0.337723 120:-0.700757 121:-0.622303 122:0.0767409 123:-0.539022 124:-0.358166 125:-0.466151 126:0.023811 127:-0.379651 128:0.389809 129:-0.330486 130:-0.107643 131:-0.251573 132:-0.805348 133:-0.349017 134:0.174041 135:-0.485538 136:-0.602299 137:-0.550476 138:0.405 139:0.0252217 140:0.46098 141:-0.458729 142:-0.264356 143:-0.0935894 144:-0.623112 145:-0.826478 146:-0.25056 147:-0.252261 148:-0.837651 149:-0.375566 150:-0.411504 151:-0.302485 152:0.111819 153:-0.263133 154:0.0645589 155:-0.564808 156:-0.687701 157:0.218919 158:-0.913043 159:0.219839 160:-0.484258 161:-0.881356 162:-0.533518 163:0.244943 164:-0.679547 165:-0.210841 166:0.058589 167:0.0575522 168:-0.407148 169:0.642943 170:0.664264 171:0.33087 172:-0.452107 173:-0.821561 174:-0.207378 175:0.207692 176:-0.545851 177:-0.101172 178:0.218376 179:-0.0416268 180:-0.701534 181:0.878263 183:0.878263 184:-0.669261 185:-1 186:-0.52271 187:0.244227 188:-0.625498 189:-0.380426 190:0.109596 191:-0.690677 192:-0.940825 193:-0.24455 194:-0.069422 195:0.000871695 196:-0.576471 197:-0.312 198:0.504856 199:0.35855 200:-0.0906856 201:-0.3365 202:0.0466534 203:-0.303953 204:-0.657053 205:-0.482001 206:-0.00157093 207:-0.252048 208:-0.445783 209:-0.503782 210:0.0799245 211:0.209281 212:-0.415419 213:-0.703637 214:-0.545088 215:-0.177534 216:0.181177 217:-0.174805 218:0.0243347 219:-0.0934505 220:-0.39375 221:-0.332283 222:-0.0400666 223:-0.247546 224:0.161185 225:-0.428536 226:-0.189918 227:-0.127138 228:-0.517639 229:-0.420437 230:0.19995 231:-0.144299 232:-0.598101 233:-0.605307 234:0.157997 235:0.380057 236:-0.205228 237:-0.470802 238:-0.305422 239:-0.317967 240:-0.313817 241:-0.387184 242:0.239027 243:-0.310154 244:-0.63901 245:-0.538462 246:0.156053 247:-0.315891 248:0.0957985 249:-0.48053 250:-0.234133 251:0.0349334 252:-0.383311 253:0.980348 254:-0.368901 255:0.717778 256:-0.686883 257:-0.656977 258:0.0438634 259:-0.404132 260:0.346964 261:-0.136247 262:0.0938293 263:-0.69364 264:0.380113 265:-0.259211 266:-0.169812 267:0.217307 268:-0.608527 269:-0.523046 270:0.232562 271:-0.233015 272:0.202123 273:0.0667104 274:0.263249 275:-0.0103207 276:-0.129871 277:-0.535162 278:0.165306 279:-0.238927 280:-0.712366 281:-0.746631 282:0.136714 283:-0.556346 284:0.245047 285:-0.290258 286:-0.080951 287:-0.0974909 288:-0.649815 289:0.359195 290:0.108996 291:0.327892 292:-0.610028 293:-0.585903 294:0.207989 295:-0.181797 296:-0.143089 297:0.0239756 298:0.200759 299:0.0429187 300:0.496165 301:-0.669127 302:0.781107 303:-0.719175 304:-0.639073 305:-0.374376 306:0.300336 307:-0.067359 308:0.109814 309:-0.680017 310:-0.502664 311:0.0409953 312:-0.731756 313:-0.536867 314:0.13443 315:-0.359417 316:-0.655629 317:-0.60745 318:0.26551 319:-0.130225 320:0.0590561 321:-0.627299 322:-0.442001 323:-0.202329 324:0.0588342 325:-0.0889245 326:-0.421853 327:0.297775 328:-0.634969 329:-0.649275 330:0.0389296 331:-0.353622 332:0.235511 333:-0.121611 334:0.0978507 335:-0.573963 336:0.517483 337:-0.303956 338:0.128211 339:-0.0469112 340:-0.714286 341:-0.285171 342:0.116884 343:-0.0908236 344:-0.248791 345:-0.297653 346:-0.0724423 347:-0.461343 348:0.00352949 349:0.204249 350:0.911815 351:-0.530029 352:-0.501511 353:-0.552137 354:-0.168201 355:-0.327815 356:0.558651 357:-0.773549 358:-0.619258 359:0.95405 360:1 361:0.517956 362:0.0487893 363:0.442966 364:-0.629344 365:-0.441683 366:0.7413 367:0.732282 368:-0.350327 369:-0.135751 370:0.157792 371:-0.197377 372:-0.602342 373:0.889324 374:-0.779575 375:0.83445 376:-0.696527 377:-0.757241 378:0.48936 379:0.846577 380:-0.526417 381:-0.221051 382:0.246682 383:0.289838 384:-0.877734 
6.06734585987315 3.407220282142084 0 5.93560211863149 2.406520566944048 1.224709308016831 1:-0.441772 2:-0.730851 3:-0.439897 4:-0.869452 5:-0.436145 6:-0.016483 7:-0.201618 8:0.36524 9:-0.557429 10:-0.176191 11:-0.769009 12:-0.935258 13:0.0166898 14:-0.49634 15:0.205889 16:-0.369318 17:-0.514916 18:-0.0541134 19:0.047358 20:-0.179551 21:0.195134 22:0.381541 23:-0.575831 24:-0.384491 25:0.206797 26:0.560146 27:-0.420816 28:-0.304897 29:-0.96995 30:0.395429 31:0.238911 32:0.0282681 33:-0.62381 34:-0.384689 35:0.466359 36:-0.189684 37:-0.0528066 38:0.130535 39:-0.0560138 40:-0.440495 41:-0.535135 42:0.117992 43:0.618953 44:-0.441869 45:-0.384562 46:0.0875682 47:-0.0430807 48:-0.809538 49:-0.0512153 50:0.568104 51:-0.611337 52:-0.512555 53:-0.495968 54:0.321029 55:-0.191139 56:0.264496 57:-0.614478 58:-0.36561 59:0.41316 60:-0.814857 61:-0.441606 62:-0.412428 63:-0.0287598 64:-0.658291 65:-0.838583 66:-0.475286 67:0.165771 68:-0.773281 69:0.104852 70:0.330901 71:0.530448 72:-0.838263 73:-0.543757 74:-0.0380151 75:-0.31751 76:-0.343874 77:-0.866469 78:-0.421632 79:-0.0393725 80:-0.256649 81:0.147066 82:0.188566 83:0.100069 84:-0.80817 85:-0.0634329 86:0.224184 87:-0.222723 88:-0.994681 89:-0.553539 90:0.0328968 91:-0.15748 92:0.135165 93:-0.545384 94:-0.360695 95:0.140131 96:-0.278066 97:-0.0767146 98:-0.321168 99:0.34045 100:-0.499365 101:-0.884 102:-0.0721495 103:0.102333 104:-0.135013 105:0.417258 106:0.53543 107:0.280103 108:-0.679972 109:-0.653666 110:-0.181666 111:-0.18476 112:-0.990923 113:-0.652842 114:-0.123187 115:0.0393824 116:-0.211178 117:-0.0864812 118:0.0248269 119:-0.307106 120:-0.371962 121:-0.679908 122:-0.173989 123:-0.386914 124:-0.386819 125:-0.852998 126:-0.335106 127:0.484582 128:-0.701002 129:-0.374718 130:0.061402 131:-0.107208 132:-0.799041 133:-0.794537 134:-0.196534 135:-0.533856 136:-0.809195 137:-0.504762 138:-0.105562 139:0.491235 140:-0.476304 141:-0.469358 142:-0.127306 143:-0.157482 144:-0.73648 145:-0.7479 146:-0.10691 147:-0.28042 148:-0.982729 149:-0.447964 150:-0.448368 151:0.174813 152:-0.365465 153:-0.420006 154:-0.232529 155:-0.367693 156:-0.649425 157:0.337838 158:-0.913043 159:0.337801 160:-0.817091 161:-0.183051 162:-0.163561 163:-0.454114 164:0.323642 165:0.252485 166:0.310307 167:-0.307139 168:-0.725209 169:0.739611 170:0.501028 171:0.457272 172:-0.59387 173:-0.3829 174:0.326568 175:-0.0480698 176:0.051415 177:0.268587 178:0.493517 179:-0.614647 180:-0.969063 181:0.447252 183:0.447252 184:-0.583658 185:-1 186:-0.061062 187:0.0213136 188:-0.0422434 189:-0.277376 190:0.194413 191:-0.901862 192:-0.981146 193:-0.508338 194:0.45301 195:-0.430399 196:-0.864052 197:-0.268 198:0.473864 199:0.546891 200:-0.31874 201:-0.49008 202:-0.111441 203:-0.0268093 204:-0.948841 205:0.431301 206:-0.19105 207:0.419407 208:-0.430723 209:-0.763994 210:-0.157504 211:0.10612 212:-0.307307 213:0.138109 214:0.338021 215:-0.00697945 216:-0.596591 217:-0.125754 218:0.562441 219:-0.344841 220:-0.78125 221:-0.486614 222:-0.250196 223:-0.280371 224:0.13591 225:-0.310724 226:-0.0645547 227:0.628954 228:-0.865926 229:-0.201149 230:0.176286 231:0.0220224 232:-0.651899 233:-0.950249 234:0.0555852 235:0.155652 236:0.0755436 237:-0.0253856 238:0.151168 239:-0.404065 240:-0.566735 241:-0.351221 242:0.31851 243:-0.337276 244:-0.962154 245:-0.432479 246:0.129984 247:-0.456187 248:0.266698 249:-0.489856 250:-0.246731 251:0.473553 252:-0.421427 253:0.108306 254:-0.499895 255:0.400562 256:-0.390691 257:-0.703488 258:-0.0986531 259:-0.0935524 260:-0.177824 261:0.163209 262:0.367756 263:-0.355449 264:-0.650725 265:-0.591054 266:0.0141614 267:-0.140266 268:-0.387597 269:-0.903808 270:-0.0669438 271:-0.0839877 272:-0.16137 273:0.110186 274:0.306866 275:-0.277525 276:-0.730545 277:-0.245536 278:0.294926 279:-0.124207 280:-0.806452 281:-0.541779 282:-0.311633 283:-0.603344 284:0.174855 285:-0.459346 286:-0.263582 287:0.211539 288:-0.592836 289:0.160965 290:0.472667 291:-0.0324774 292:-0.518106 293:-0.74743 294:0.244315 295:-0.117459 296:-0.292437 297:0.525324 298:0.633266 299:0.352839 300:-0.751472 301:-0.345853 302:0.618737 303:-0.45429 304:-0.609272 305:-0.71381 306:-0.0948603 307:0.0251378 308:-0.163747 309:-0.401762 310:-0.169418 311:0.0933524 312:-0.815795 313:-0.286193 314:0.217811 315:-0.238002 316:-0.758278 317:-0.381089 318:-0.272573 319:0.033895 320:-0.399301 321:-0.370694 322:-0.141677 323:-0.106426 324:-0.211154 325:-0.108343 326:0.349765 327:-0.166328 328:-0.601227 329:-0.976812 330:-0.0859543 331:-0.0680363 332:-0.232928 333:-0.0303593 334:0.189317 335:-0.0497705 336:-0.663605 337:-0.236419 338:0.328657 339:-0.151382 340:-0.46798 341:-0.410646 342:0.0232374 343:-0.17286 344:-0.195048 345:-0.258386 346:-0.0337675 347:-0.305888 348:-0.355473 349:0.413809 350:-0.240583 351:0.252252 352:-0.830816 353:-0.917949 354:-0.153007 355:-0.390614 356:0.656669 357:0.577135 358:0.704664 359:-0.166945 360:-0.617404 361:0.646615 362:-0.461525 363:0.823375 364:-0.602317 365:-0.873805 366:-0.121302 367:0.144487 368:0.285116 369:0.39278 370:0.590128 371:-0.237008 372:-0.773797 373:0.454455 374:-0.400138 375:0.427296 376:-0.616088 377:-0.732414 378:-0.235271 379:0.409575 380:-0.032517 381:-0.253345 382:0.221791 383:0.295766 384:-0.925951 
0.2448767739809728 3.343815740046421 0 3.547174986716462 0 1.98695330693832 1:-0.816656 2:-0.858399 3:-0.815054 4:-0.801567 5:-1 6:-0.463091 7:-0.280179 8:-0.0213293 9:-0.858898 10:-0.632023 11:-0.792711 12:-0.939278 13:-0.146502 14:0.112043 15:-0.355431 16:-0.616477 17:-0.953307 18:-0.138385 19:0.637877 20:-0.429874 21:-0.545942 22:-0.25622 23:-0.241244 24:-0.742873 25:-0.131891 26:-0.106023 27:-0.0545602 28:-0.933649 29:-0.669449 30:0.0239127 31:-0.0825285 32:-0.0085571 33:-0.278353 34:-0.029115 35:-0.0367583 36:-0.34095 37:-0.0835967 38:0.0057825 39:0.029396 40:-0.601236 41:-0.693694 42:-0.210764 43:0.581881 44:-0.483119 45:-0.277525 46:-0.044385 47:0.393836 48:-0.40075 49:0.366704 50:0.0958172 51:0.0821396 52:-0.935007 53:-0.625 54:0.481249 55:-0.65347 56:0.718766 57:-0.210614 58:0.110654 59:-0.28961 60:-0.285731 61:-0.505523 62:-0.474051 63:-0.0271747 64:-0.61809 65:-0.866142 66:-0.26011 67:0.454015 68:-0.608038 69:0.234733 70:0.453967 71:0.152738 72:-0.832559 73:0.192041 74:0.0531016 75:0.22196 76:-0.656126 77:-0.860534 78:-0.0163914 79:0.470835 80:-0.246774 81:0.269459 82:0.346841 83:0.0783059 84:-0.390717 85:0.00811269 86:-0.823803 87:0.680134 88:-0.707447 89:-0.69147 90:-0.680269 91:-0.604016 92:-0.162437 93:1 94:1 95:0.22839 96:-0.636549 97:-0.417721 98:-0.246846 99:0.0327536 100:-0.936468 101:-0.796 102:0.191662 103:0.211224 104:0.0592541 105:-0.190942 106:-0.00970273 107:-0.584766 108:0.185363 109:-0.265556 110:0.712164 111:-0.662257 112:-0.742814 113:-0.803379 114:0.431669 115:0.0938047 116:0.177182 117:-0.550573 118:-0.442511 119:0.0217998 120:-0.562178 121:-0.618787 122:-0.0825774 123:-0.40819 124:-0.982808 125:-0.829787 126:-0.38547 127:0.575033 128:-0.570136 129:-0.115475 130:0.179927 131:0.175904 132:-1 133:-0.472585 134:0.260497 135:-0.62406 136:-0.8 137:-0.977143 138:0.353517 139:0.130412 140:0.327829 141:-0.589424 142:-0.411333 143:-0.0418949 144:-0.659466 145:-0.673303 146:0.382293 147:-0.550592 148:-0.993092 149:-0.466063 150:-0.408308 151:-0.0245258 152:-0.218436 153:-0.627962 154:-0.454576 155:0.0175593 156:-0.830805 157:0.183784 158:-0.913043 159:0.184987 160:-0.928036 161:-0.627119 162:-0.161806 163:-0.765555 164:0.433256 165:-0.239641 166:-0.00411893 167:-0.330263 168:-0.693697 169:0.547551 170:-0.143317 171:0.494492 172:-0.793103 173:-0.576208 174:-0.291735 175:-0.348134 176:-0.213461 177:0.211043 178:0.458751 179:-0.060001 180:-0.795723 181:0.307401 183:0.307401 184:-0.735409 185:-1 186:-0.463169 187:-0.127169 188:-0.322443 189:-0.372151 190:0.117245 191:-0.769288 192:-0.96721 193:-0.73386 194:0.672691 195:-0.686837 196:-0.796078 197:-0.696 198:0.473573 199:0.176478 200:-0.253282 201:-0.753652 202:-0.445209 203:-0.0891121 204:-0.958532 205:-0.501695 206:0.495424 207:-0.525436 208:-0.774096 209:-0.948563 210:0.121547 211:-0.0645095 212:-0.114371 213:-0.391012 214:-0.171532 215:0.284783 216:-0.916267 217:-0.206781 218:0.304251 219:-0.258731 220:-0.690625 221:-0.858268 222:-0.119268 223:0.793916 224:-0.588351 225:-0.222525 226:0.0338962 227:0.298924 228:-0.8651 229:-0.526363 230:0.171476 231:-0.196556 232:-0.667722 233:-0.575456 234:-0.296831 235:0.986596 236:-0.791908 237:-0.0776285 238:0.110475 239:-0.513268 240:-0.616163 241:-0.422999 242:0.0338525 243:-0.211771 244:-0.752547 245:-0.675214 246:0.00403875 247:0.0356048 248:-0.0953349 249:-0.152621 250:0.106282 251:-0.225217 252:-0.592949 253:-0.0209478 254:0.244617 255:-0.155521 256:-0.80536 257:-0.665698 258:0.00179093 259:0.774943 260:-0.660388 261:0.301544 262:0.492383 263:-0.068095 264:-1 265:-0.337544 266:0.450389 267:-0.277574 268:-0.697674 269:-0.827655 270:0.0177312 271:0.449925 272:-0.343233 273:-0.159281 274:0.0685802 275:0.41351 276:-0.682111 277:0.278384 278:0.262295 279:0.254103 280:-0.725806 281:-0.681941 282:0.0199435 283:0.609481 284:-0.646328 285:0.34517 286:0.532649 287:0.472901 288:-0.72135 289:-0.100274 290:-0.105124 291:0.18486 292:-0.852368 293:-0.85022 294:0.214371 295:0.19451 296:-0.398153 297:0.300072 298:0.450764 299:-0.213209 300:-0.224808 301:-0.376575 302:0.483204 303:-0.390243 304:-0.745033 305:-0.717138 306:-0.097934 307:0.249705 308:-0.178185 309:-0.32773 310:-0.0903295 311:-0.0242789 312:-0.612501 313:-0.108974 314:0.50035 315:-0.267933 316:-0.784768 317:-0.659026 318:0.125102 319:0.759473 320:-0.681714 321:-0.172882 322:0.0692259 323:0.586681 324:-0.249951 325:-0.194441 326:0.16833 327:-0.103416 328:-0.773006 329:-0.971014 330:-0.116696 331:0.136816 332:-0.138667 333:0.0624113 334:0.271773 335:-0.225584 336:-0.594889 337:-0.626299 338:0.208742 339:-0.317893 340:-0.727422 341:-0.551331 342:-0.0236983 343:0.221911 344:-0.344559 345:-0.236999 346:-0.00922678 347:-0.733775 348:-0.359636 349:0.045872 350:0.0821916 351:-0.127127 352:-0.945619 353:-0.91453 354:-0.15281 355:-0.790215 356:0.831215 357:0.550011 358:0.687384 359:-0.163016 360:-0.825674 361:0.322378 362:-0.295057 363:0.537208 364:-0.69112 365:-0.74761 366:-0.200145 367:0.0824584 368:0.0790261 369:0.157742 370:0.408612 371:-0.259742 372:-0.615977 373:0.233838 374:-0.310617 375:0.272228 376:-0.619744 377:-0.806897 378:-0.235271 379:0.231246 380:-0.0610681 381:-0.32388 382:0.162625 383:0.231132 384:-0.903278 
4.639901169185624 1.841659950479057 1.578083761531612 0.2501198628700705 3.357024175006073 3.025772788853869 1:-0.664827 2:-0.939536 3:-0.662686 4:-0.984334 5:-0.566265 6:-0.743214 7:-0.313032 8:-0.0931265 9:-0.855278 10:-0.590439 11:-0.387973 12:-0.74169 13:0.573856 14:-0.0645893 15:0.308602 16:-0.556818 17:-0.722438 18:0.313981 19:0.0631957 20:0.0733573 21:-0.485243 22:-0.293047 23:-0.0782557 24:-0.125922 25:-0.0440149 26:-0.291378 27:0.172273 28:-0.595577 29:-0.529215 30:-0.285046 31:0.293833 32:-0.437661 33:0.11909 34:0.352184 35:0.103346 36:-0.591385 37:-0.245394 38:-0.215471 39:0.0843629 40:-0.706337 41:-0.866667 42:-0.187049 43:0.809061 44:-0.714255 45:-0.274545 46:0.17896 47:-0.141205 48:-0.663384 49:-0.0692811 50:0.300127 51:-0.370774 52:-0.615953 53:-0.967742 54:0.32934 55:0.478897 56:-0.235685 57:-0.650691 58:-0.136693 59:0.283533 60:-0.836916 61:-0.516382 62:-0.0819936 63:-0.348561 64:-0.98995 65:-0.590551 66:-0.0771986 67:-0.0872087 68:-0.135532 69:-0.490485 70:-0.295198 71:0.201527 72:-0.75672 73:0.111415 74:0.0439813 75:0.161999 76:-0.44664 77:-0.931751 78:0.0830722 79:0.133157 80:0.00190573 81:0.419599 82:0.398172 83:0.0355287 84:-0.459067 85:-0.00992076 86:0.712419 87:-0.582432 88:-0.558511 89:-0.724138 90:0.223847 91:-0.0743298 92:0.245394 93:-0.75274 94:-0.615214 95:0.34095 96:-0.54647 97:0.154516 98:0.234547 99:-0.0122348 100:-0.573062 101:-0.644 102:0.0694794 103:0.590866 104:-0.425084 105:-0.428487 106:-0.0715411 107:0.746202 108:-0.32465 109:-0.401949 110:0.46563 111:-0.551296 112:-0.70348 113:-0.815668 114:0.312792 115:-0.19858 116:0.301714 117:-0.400123 118:-0.240505 119:-0.133747 120:-0.658959 121:-0.677438 122:0.189512 123:-0.676483 124:-0.988539 125:-0.814313 126:-0.370091 127:0.0304444 128:-0.26106 129:-0.674037 130:-0.556456 131:0.671486 132:-0.329005 133:-0.40892 134:0.427919 135:-0.692838 136:-0.63908 137:-0.893333 138:0.309583 139:0.481363 140:-0.00272208 141:-0.735068 142:-0.489202 143:0.324146 144:-0.623603 145:-0.774474 146:0.0176298 147:-0.390343 148:-0.364421 149:-0.945701 150:-0.586738 151:0.568467 152:-0.798888 153:-0.490961 154:-0.253156 155:-0.12728 156:-0.857901 157:0.181081 158:-1 159:0.187667 160:-0.661169 161:-0.386441 162:-0.401861 163:-0.224015 164:-0.0830488 165:-0.60434 166:-0.445783 167:0.0910706 168:-0.140426 169:0.33164 170:0.31834 171:0.183272 172:-0.927203 173:-0.98513 174:-0.317777 175:-0.639796 176:0.00709772 177:-0.491979 178:-0.106824 179:-0.19199 180:-0.767843 181:0.148026 183:0.148026 184:-0.914397 185:-1 186:-0.654463 187:-0.309903 188:-0.320094 189:-0.717714 190:-0.214091 191:-0.714393 192:-0.950355 193:-0.595897 194:0.622133 195:-0.571429 196:-0.979085 197:-0.952 198:0.470306 199:0.649037 200:-0.625866 201:-0.838501 202:-0.587332 203:0.255505 204:-0.627923 205:-0.32144 206:0.0918224 207:-0.200558 208:-0.671687 209:-0.676248 210:-0.195883 211:-0.195061 212:0.0309834 213:-0.29101 214:-0.0642602 215:-0.0370301 216:-0.695372 217:0.275956 218:-0.557866 219:0.480971 220:-0.678125 221:-0.587402 222:-0.304641 223:0.0889349 224:-0.183954 225:0.054598 226:0.28357 227:0.0660392 228:-0.581547 229:0.036041 230:0.201839 231:0.165925 232:-0.639241 233:-0.691542 234:-0.10804 235:0.213896 236:-0.0593856 237:-0.0264736 238:0.149906 239:0.0166654 240:-0.476123 241:-0.846438 242:0.194366 243:-0.513343 244:-0.845706 245:-0.548718 246:0.568183 247:-0.242434 248:0.189221 249:-0.594452 250:-0.368794 251:-0.425224 252:-0.400962 253:0.169102 254:-0.0608011 255:0.136161 256:-0.734838 257:-0.715116 258:0.148178 259:-0.159549 260:0.138695 261:-0.346026 262:-0.114131 263:-0.170015 264:-0.353172 265:-0.259525 266:-0.138432 267:0.194759 268:-0.503876 269:-0.603206 270:-0.162414 271:-0.190925 272:0.117528 273:0.389318 274:0.532195 275:-0.172698 276:-0.503824 277:-0.868444 278:1 279:-1 280:-0.825269 281:-0.735849 282:-0.0707942 283:-0.592467 284:0.32776 285:-0.810064 286:-0.703448 287:0.292969 288:-1 289:-0.484929 290:0.35416 291:-0.35305 292:-0.952646 293:-0.559471 294:0.512856 295:-0.0769537 296:-0.128485 297:-0.0901697 298:0.0950541 299:0.171179 300:-0.794817 301:-0.630229 302:0.650044 303:-0.62139 304:-0.701987 305:-0.673877 306:-0.343679 307:-0.0397604 308:-0.0288174 309:-0.582443 310:-0.379988 311:-0.176683 312:-0.717327 313:-0.756983 314:0.483561 315:-0.684709 316:-0.950331 317:-0.719198 318:-0.433216 319:0.193481 320:-0.477999 321:-0.645936 322:-0.459847 323:0.0861269 324:-0.530726 325:-0.378139 326:0.32652 327:-0.290174 328:-0.858896 329:-0.918841 330:0.252295 331:-0.119809 332:0.105849 333:-0.458892 334:-0.248865 335:-0.12154 336:-0.442723 337:-0.644577 338:0.631042 339:-0.643207 340:-0.471264 341:-0.889734 342:0.346853 343:0.0962953 344:-0.295743 345:-0.455555 346:-0.239517 347:-0.237304 348:-0.791318 349:0.128923 350:-0.161815 351:0.0585586 352:-0.676737 353:-0.613675 354:-0.147447 355:-0.504208 356:0.691427 357:-0.166091 358:0.0836594 359:-0.269646 360:-0.364813 361:-0.365384 362:0.222112 363:-0.16835 364:-0.953668 365:-0.923518 366:-0.20817 367:0.154074 368:0.103616 369:-0.406563 370:-0.106013 371:-0.432907 372:-0.896542 373:-0.0368068 374:-0.149245 375:0.0562196 376:-0.945155 377:-0.933793 378:-0.235271 379:0.525386 380:-0.278167 381:-0.693321 382:-0.217343 383:0.187996 384:-0.895484 
