svm_type c_svc
kernel_type rbf
gamma 0.0078125
nr_class 7
total_sv 426
rho -0.704482 -0.295053 -0.105421 -0.551385 -0.00267511 -1.00588 -0.020108 0.502643 -0.580656 0.168396 0.00152413 -0.576476 0.0292737 -0.0458787 -0.195201 -0.201953 -0.148075 -0.22505 0.308028 0.348083 -0.695775
label 4 5 2 7 1 6 3
probA -3.11824 -4.66795 -5.49693 -4.37607 -4.39355 -4.95996 -4.45823 -4.02953 -2.87507 -4.07538 -4.01162 -4.56276 -4.57738 -4.47153 -5.25677 -4.65729 -4.5939 -4.95376 -4.30498 -4.7288 -4.39912
probB -0.0868175 -0.0753118 -0.328445 -0.381207 -0.0871001 0.21379 -0.0311503 -0.026853 0.08994 -0.191874 -0.0474256 -0.102129 -0.120459 0.371384 0.142875 -0.0472334 0.478965 0.34531 -0.115313 0.135458 0.0322858
nr_sv 60 59 68 62 93 40 44
SV
6.230983108544083 1.42293096604768 4.851423267450058 4.473429344330686 0.07775432893797371 3.367423564417137 1:-0.435992 2:-0.895926 3:-0.433589 4:-0.673629 5:-0.573494 6:-0.127599 7:0.31025 8:-0.306345 9:-0.424918 10:-0.0657496 11:-0.606464 12:-0.881481 13:-0.102509 14:-0.270127 15:0.0522757 16:-0.715909 17:-0.662776 18:-0.110157 19:-0.466299 20:0.0935561 21:-0.242374 22:-0.0144657 23:-0.704314 24:0.0672683 25:-0.436486 26:0.193281 27:-0.535656 28:-0.494471 29:-0.646077 30:0.0539638 31:-0.357075 32:0.218461 33:-0.412817 34:-0.115596 35:-0.0477859 36:-0.831084 37:-0.273846 38:-0.479042 39:0.238808 40:-0.777434 41:-0.660031 42:-0.536848 43:-0.516449 44:-0.122194 45:0.213504 46:0.398933 47:0.162251 48:-0.728585 49:-0.204958 50:0.44198 51:-0.585146 52:-0.539143 53:-0.907258 54:0.0774683 55:0.431253 56:-0.47261 57:-0.673131 58:-0.203853 59:0.429328 60:-0.889307 61:0.103104 62:-0.152517 63:0.1946 64:-0.568147 65:-0.728346 66:0.174061 67:0.320095 68:-0.15881 69:-0.11124 70:0.154252 71:-0.0824978 72:-0.502208 73:-0.404068 74:-0.735948 75:0.493985 76:-0.872697 77:-0.928783 78:-0.708546 79:0.347767 80:-0.754364 81:0.461452 82:0.470521 83:-0.209212 84:-0.468581 85:-0.262323 86:0.647553 87:-0.706694 88:-0.957447 89:-0.502722 90:0.17069 91:-0.345795 92:0.378954 93:-0.652687 94:-0.506691 95:0.306061 96:-0.716615 97:-0.0612359 98:-1 99:1 100:-0.557814 101:-0.82 102:-0.155922 103:0.28178 104:-0.329488 105:1 106:1 107:-0.187227 108:-0.49106 109:-0.145631 110:-0.150373 111:0.0708217 112:-0.470499 113:-0.655914 114:-0.519307 115:0.20434 116:-0.507972 117:-0.0197094 118:0.181569 119:0.513703 120:-0.178157 121:-0.571495 122:0.204634 123:-0.555265 124:-0.994269 125:-0.802708 126:-0.170976 127:0.0388898 128:-0.102252 129:-0.388648 130:-0.195314 131:0.0761951 132:-0.69622 133:-0.671691 134:-0.489564 135:-0.259227 136:-1 137:-0.619048 138:-0.446124 139:0.302148 140:-0.532496 141:-0.257841 142:-0.02565 143:0.0888089 144:-0.520765 145:-0.425584 146:-0.242828 147:0.118476 148:-0.409326 149:-0.487273 150:-0.561233 151:0.112351 152:-0.331935 153:-0.129248 154:0.0630779 155:-0.0350532 156:-0.538118 157:0.0891888 158:-0.869565 159:0.0884715 160:-0.613193 161:-0.389831 162:-0.248287 163:0.204818 164:-0.404695 165:-0.274716 166:-0.0518509 167:-0.017978 168:-0.482558 169:0.758555 170:0.651737 171:0.401648 172:-0.819788 173:-0.724265 174:0.422542 175:-0.562897 176:0.540775 177:0.252695 178:0.512131 179:-0.668897 180:-0.945814 181:0.397999 183:0.397999 184:-0.530534 185:-1 186:0.0988318 187:-0.54975 188:0.369783 189:-0.17634 190:0.328839 191:-0.924224 192:-0.984155 193:-0.808471 194:0.291193 195:-0.547013 196:-0.68366 197:-0.492 198:0.463813 199:0.244959 200:-0.152811 201:-0.675539 202:-0.333507 203:-0.696506 204:-0.75689 205:-0.560025 206:0.25222 207:-0.459582 208:-0.60241 209:-0.630862 210:0.00917191 211:0.117488 212:-0.300301 213:-0.631667 214:-0.452213 215:-0.0281359 216:-0.633982 217:-0.280482 218:0.211157 219:-0.226597 220:-0.46875 221:-0.91811 222:0.0564566 223:-0.115267 224:0.0991853 225:-0.384055 226:-0.141045 227:0.0194471 228:-0.770247 229:-0.157236 230:0.111485 231:-0.0867138 232:-0.735669 233:-0.758887 234:-0.243748 235:0.741263 236:-0.747779 237:-0.104843 238:0.099676 239:-0.249353 240:-0.327014 241:-0.796983 242:0.416517 243:-0.614554 244:-0.755459 245:-0.818493 246:0.387647 247:-0.120509 248:0.0504245 249:-0.617129 250:-0.394826 251:-0.0633189 252:-0.485039 253:0.866424 254:-0.20952 255:0.558725 256:-0.80536 257:-0.982558 258:-0.188213 259:-0.257373 260:0.160626 261:0.233061 262:0.432667 263:-0.347395 264:-0.343493 265:-0.287773 266:-0.389136 267:0.353886 268:-0.900826 269:-0.836 270:0.0159852 271:0.194844 272:-0.263807 273:0.695103 274:0.773613 275:-0.496442 276:-0.205115 277:-0.457681 278:0.215587 279:-0.319052 280:-0.916667 281:-0.778976 282:-0.00580373 283:-0.311046 284:0.079934 285:-0.314121 286:-0.0910374 287:-0.424783 288:-0.611843 289:0.463874 290:-0.078669 291:0.596421 292:-0.559889 293:-0.885463 294:0.334809 295:0.105239 296:-0.415718 297:0.315469 298:0.476884 299:0.406118 300:0.102454 301:-0.479736 302:0.308978 303:-0.380577 304:-0.460265 305:-0.687188 306:0.085447 307:0.345579 308:-0.358119 309:-0.546447 310:-0.327206 311:-0.0893742 312:-0.612952 313:-0.508672 314:0.62819 315:-0.571444 316:-0.622291 317:-0.598854 318:-0.281345 319:0.473296 320:-0.730709 321:-0.430882 322:-0.19885 323:0.497946 324:-0.603356 325:-0.354176 326:-0.632198 327:0.274392 328:-0.760736 329:-0.771014 330:-0.226055 331:0.79075 332:-0.997083 333:0.157294 334:0.375601 335:-0.659757 336:0.0945463 337:-0.333004 338:0.457078 339:-0.309959 340:-0.714286 341:-0.463878 342:-0.197095 343:0.0288456 344:-0.325457 345:-0.238036 346:-0.00715275 347:0.184539 348:-0.56612 349:-0.0330657 350:0.522479 351:-0.367867 352:-0.63142 353:-0.531624 354:-0.183308 355:-0.650676 356:0.759557 357:-0.681229 358:-0.477803 359:0.323416 360:0.0520749 361:0.488019 362:-0.322647 363:0.614904 364:-0.841699 365:-0.674952 366:0.156154 367:0.247146 368:0.0824175 369:0.21177 370:0.437885 371:-0.0201019 372:-0.643423 373:0.32285 374:-0.407683 375:0.365267 376:-0.842779 377:-0.655172 378:0.00151323 379:0.0295113 380:0.0312268 381:-0.0758819 382:0.358645 383:0.23102 384:-0.932183 
3.552679945801653 0 0 3.131375012429394 0 0 1:-0.483578 2:-0.822385 3:-0.481511 4:-0.751958 5:-0.985542 6:-0.389716 7:-0.0537798 8:-0.159991 9:-0.718643 10:-0.433763 11:-0.399148 12:-0.702095 13:-0.291488 14:0.0399445 15:-0.337251 16:-0.823864 17:-0.958495 18:-0.194705 19:0.58869 20:-0.451042 21:-0.598229 22:-0.322591 23:-0.331847 24:-0.44091 25:-0.488581 26:0.291314 27:-0.65974 28:-0.85466 29:-0.612688 30:0.0851885 31:0.36001 32:-0.145651 33:-0.522675 34:-0.26236 35:0.122712 36:-0.753606 37:-0.68284 38:-0.195034 39:-0.401742 40:-0.987635 41:-0.721286 42:-0.348073 43:0.0365244 44:-0.315866 45:-0.250453 46:-0.14706 47:-0.350555 48:-0.695916 49:-0.277454 50:0.254554 51:-0.452763 52:-0.562777 53:-0.528226 54:0.00410199 55:0.00733418 56:-0.214282 57:-0.40231 58:-0.100389 59:0.491674 60:-0.804838 61:-0.256436 62:-0.266797 63:0.0447558 64:-0.987749 65:-0.496063 66:-0.176751 67:0.118794 68:-0.346518 69:0.488721 70:0.604722 71:0.0640471 72:-0.854345 73:-0.058856 74:0.0651144 75:0.00964414 76:-0.701843 77:-0.810089 78:-0.0869238 79:-0.000574339 80:-0.0271562 81:0.415054 82:0.38447 83:0.0587146 84:-0.740492 85:-0.642706 86:0.211206 87:-0.618477 88:-0.848404 89:-0.705989 90:-0.225943 91:-0.586459 92:0.198962 93:-0.589959 94:-0.396742 95:-0.0003548 96:-0.723629 97:-0.127218 98:-0.552802 99:0.538924 100:-0.992376 101:-0.76 102:-0.275591 103:-0.85562 104:0.461373 105:0.0217423 106:0.42079 107:-0.223634 108:-0.281304 109:-0.699561 110:-0.428872 111:-0.0914113 112:-1 113:-0.895545 114:-0.816295 115:-0.0588011 116:-0.588934 117:0.18316 118:0.361637 119:-0.0306934 120:-0.501239 121:-0.566148 122:-0.0195575 123:-0.358671 124:-0.730659 125:-0.841393 126:-0.302818 127:-0.17869 128:-0.0381254 129:-0.304649 130:-0.133298 131:0.176514 132:-0.702311 133:-0.793331 134:-0.144722 135:-0.567319 136:-1 137:-0.805714 138:-0.207666 139:-0.20492 140:0.0137171 141:-0.522158 142:-0.289466 143:-0.152347 144:-0.587315 145:-0.47626 146:0.370283 147:-0.342552 148:-0.906736 149:-0.825455 150:-0.501275 151:0.118876 152:-0.297272 153:-0.55822 154:-0.37272 155:0.196845 156:-0.67671 157:-0.0540542 158:-0.73913 159:-0.0616623 160:-0.934033 161:-0.979661 162:-0.245502 163:-0.634389 164:0.308227 165:-0.534297 166:-0.292734 167:-0.237909 168:-0.602608 169:0.694628 170:0.643908 171:0.353351 172:-0.625442 173:-0.569853 174:0.214451 175:0.853128 176:-0.350256 177:0.358114 178:0.672036 179:-0.495108 180:-0.976444 181:0.488889 183:0.488889 184:-0.568702 185:-1 186:-0.0155558 187:0.788291 188:-0.422872 189:-0.159057 190:0.354272 191:-0.892797 192:-0.981934 193:-0.556885 194:0.23515 195:-0.354442 196:-0.74902 197:-0.616 198:0.480407 199:0.192863 200:-0.236193 201:-0.61439 202:-0.255259 203:-0.369121 204:-0.665886 205:-0.565304 206:0.348094 207:-0.509996 208:-0.933735 209:-0.954614 210:0.388933 211:0.0162273 212:-0.113617 213:-0.49779 214:-0.291093 215:0.00787341 216:-0.837142 217:-0.144354 218:0.385567 219:-0.242862 220:-0.8875 221:-0.902362 222:-0.69262 223:0.0797261 224:-0.179964 225:-0.28346 226:-0.0351341 227:0.331758 228:-0.839183 229:-0.419967 230:0.337872 231:-0.393322 232:-0.818471 233:-0.984544 234:-0.21897 235:0.37509 236:-0.286697 237:-0.0523905 238:0.139957 239:0.097228 240:-0.920238 241:-0.392787 242:0.275461 243:-0.333574 244:-1 245:-0.979452 246:0.258142 247:-0.230945 248:0.218025 249:-0.200997 250:0.0571126 251:-0.0729865 252:-0.788223 253:0.93611 254:0.0571147 255:0.413371 256:-0.619182 257:-0.988372 258:-0.323315 259:0.199501 260:-0.259472 261:0.150698 262:0.368395 263:0.20705 264:-0.337449 265:-0.492908 266:-0.100293 267:0.00821944 268:-0.877686 269:-0.972 270:-0.51353 271:-0.34014 272:0.230003 273:0.00933736 274:0.209039 275:-0.243975 276:-0.490094 277:-0.616857 278:0.337064 279:-0.472492 280:-0.873656 281:-0.681941 282:-0.240761 283:-0.603684 284:0.391092 285:-0.547628 286:-0.355119 287:-0.660775 288:-0.542036 289:0.0989713 290:-0.554923 291:0.707687 292:-0.835655 293:-0.823789 294:0.0116962 295:0.54391 296:-0.893642 297:0.402244 298:0.563927 299:-0.229572 300:0.0118156 301:-0.345765 302:-0.0888071 303:-0.101505 304:-0.52649 305:-0.906822 306:-0.334409 307:1 308:-1 309:-0.430737 310:-0.174758 311:-0.0579137 312:-0.605996 313:-0.484212 314:0.236853 315:-0.331271 316:-0.786378 317:-0.659026 318:-0.330859 319:0.588878 320:-0.710811 321:-0.0390646 322:0.192198 323:0.157666 324:-0.671163 325:-0.493774 326:0.285905 327:-0.334609 328:-0.969325 329:-0.771014 330:-0.484422 331:0.515301 332:-0.621974 333:-0.257515 334:-0.0238515 335:-0.184941 336:-0.635366 337:-0.688375 338:0.0993804 339:-0.277426 340:-0.885057 341:-0.901141 342:0.0192217 343:-0.159453 344:0.0155452 345:-0.335686 346:-0.112068 347:-0.572911 348:-0.332826 349:-0.117069 350:0.29725 351:-0.285786 352:-0.954683 353:-0.921368 354:-0.237511 355:-0.542487 356:0.578259 357:-0.0719821 358:0.179344 359:-0.210808 360:-0.789584 361:-0.00110401 362:-0.34657 363:0.342795 364:-0.610039 365:-0.854685 366:0.0611241 367:-0.512573 368:0.718289 369:0.0865126 370:0.345397 371:-0.598607 372:-0.637593 373:0.464855 374:-0.489584 375:0.47722 376:-0.616088 377:-0.682759 378:-0.433794 379:-0.329373 380:0.292494 381:-0.267438 382:0.212658 383:0.178989 384:-0.900436 
0.227350940614707 0 0 0.8640658838983416 0 0 1:-0.70342 2:-0.847721 3:-0.701668 4:-0.744125 5:-1 6:-0.699151 7:0.0949584 8:-0.474863 9:-0.859158 10:-0.677657 11:-0.336381 12:-0.672292 13:-0.600423 14:0.0227869 15:-0.547389 16:-0.838068 17:-0.953307 18:-0.587899 19:0.172497 20:-0.524375 21:-0.685984 22:-0.528759 23:-0.338029 24:-0.376685 25:-0.379042 26:0.328199 27:-0.617653 28:-0.867299 29:-0.656093 30:0.27658 31:0.0162757 32:0.150733 33:-0.635657 34:-0.432427 35:-0.414621 36:-0.1186 37:-0.51465 38:0.0718141 39:-0.484839 40:-0.604328 41:-0.678407 42:-0.0845467 43:0.0882926 44:-0.104725 45:-0.471376 46:-0.397464 47:-0.123992 48:-0.535096 49:-0.178874 50:0.525684 51:-0.648039 52:-0.559823 53:-0.524194 54:0.313258 55:0.035072 56:-0.0137563 57:-0.580229 58:-0.290909 59:0.49448 60:-0.901717 61:-0.0791984 62:0.0845291 63:-0.152285 64:-0.638591 65:-0.84252 66:0.133178 67:0.287894 68:-0.152279 69:-0.387553 70:-0.131874 71:0.184008 72:-0.725109 73:0.0975391 74:0.18534 75:0.0251043 76:-0.701843 77:-0.890208 78:0.293262 79:0.338939 80:0.0421469 81:-0.219427 82:-0.0566049 83:-0.198654 84:-0.345131 85:-0.32781 86:0.187907 87:-0.378646 88:-0.574468 89:-0.713249 90:-0.0115264 91:0.0145037 92:0.0385968 93:-0.231253 94:-0.0408888 95:-0.280114 96:-0.745486 97:-0.176321 98:-0.0417109 99:0.0299019 100:-0.697586 101:-0.756 102:-0.222709 103:-0.101344 104:-0.0548201 105:-0.184915 106:-0.0165816 107:0.36299 108:-0.653701 109:-0.844889 110:-0.515366 111:-0.121443 112:-0.636914 113:-0.800307 114:-0.609845 115:0.388467 116:-0.682318 117:0.465709 118:0.637277 119:-0.193906 120:-0.787387 121:-0.61076 122:0.0969631 123:-0.496488 124:-0.974212 125:-0.744681 126:-0.243371 127:-0.132612 128:-0.0260297 129:-0.244511 130:-0.0694032 131:0.145089 132:-0.837842 133:-0.759048 134:-0.420652 135:-0.362307 136:-0.737931 137:-0.782857 138:-0.125459 139:0.358996 140:-0.29305 141:-0.222471 142:0.0145393 143:-0.209328 144:-0.481023 145:-0.595997 146:0.31452 147:-0.41111 148:-0.630397 149:-0.68 150:-0.234029 151:0.13691 152:-0.0738062 153:-0.431128 154:-0.232961 155:-0.0276646 156:-0.895683 157:0.105405 158:-0.521739 159:0.0831098 160:-0.931034 161:-0.979661 162:-0.0388565 163:-0.514265 164:0.330513 165:-0.268513 166:-0.0792611 167:-0.382116 168:-0.726799 169:0.794167 170:-0.0768485 171:0.643966 172:-0.766784 173:-0.985294 174:-0.593493 175:-0.205544 176:-0.318646 177:-0.248833 178:0.0362837 179:0.435685 180:-0.252204 181:0.316513 183:0.316513 184:-0.729008 185:-1 186:-0.756829 187:-0.227067 188:-0.381581 189:-0.641046 190:-0.145443 191:-0.555088 192:-0.903095 193:-0.67644 194:0.444748 195:-0.536459 196:-0.743791 197:-0.608 198:0.475334 199:0.53529 200:-0.549753 201:-0.807563 202:-0.532912 203:-0.293727 204:-0.614727 205:-0.404279 206:0.325509 207:-0.398061 208:-0.873494 209:-0.951589 210:-0.152712 211:0.444433 212:-0.705375 213:-0.636776 214:-0.457486 215:-0.0452477 216:-0.591147 217:-0.269193 218:0.44422 219:-0.351069 220:-0.675 221:-0.631496 222:0.00578434 223:0.0312902 224:-0.0107285 225:-0.610761 226:-0.401544 227:0.0214365 228:-0.768455 229:-0.0406778 230:0.0615232 231:0.0177291 232:-0.633758 233:-0.981453 234:0.112845 235:-0.0404188 236:0.198744 237:-0.259355 238:-0.0652002 239:0.0159292 240:-0.277291 241:-0.43828 242:0.128872 243:-0.273189 244:-0.726346 245:-0.592466 246:0.321012 247:-0.26745 248:0.241225 249:-0.254494 250:0.0045337 251:-0.423653 252:-0.510855 253:0.0548652 254:0.519344 255:-0.303427 256:-0.610719 257:-0.656977 258:0.164421 259:-0.198594 260:0.232564 261:-0.481754 262:-0.24736 263:0.217011 264:-0.641144 265:-0.756779 266:-0.0993553 267:-0.172668 268:-0.957025 269:-0.868 270:0.176102 271:0.00494237 272:0.0637599 273:-0.287358 274:-0.0682818 275:-0.732361 276:0.0132468 277:-0.259641 278:0.278803 279:-0.264017 280:-0.75 281:-0.730458 282:-0.075019 283:-0.11848 284:-0.0848809 285:-0.185605 286:0.0419431 287:0.0268919 288:-0.815478 289:-0.623672 290:0.270023 291:-0.352543 292:-0.749304 293:-0.650514 294:0.405995 295:0.242465 296:-0.500753 297:-0.498095 298:-0.307654 299:-0.256044 300:-0.675383 301:0.182328 302:0.0496507 303:0.129334 304:-0.778146 305:-0.843594 306:-0.168116 307:0.631421 308:-0.659475 309:-0.0550101 310:0.187924 311:0.205372 312:-0.677353 313:-0.240133 314:-0.010384 315:-0.0298142 316:-0.786378 317:-0.974212 318:-0.340157 319:0.387355 320:-0.57371 321:-0.116951 322:0.116357 323:0.112291 324:-0.232315 325:0.291313 326:0.130899 327:0.142255 328:-0.819018 329:-0.736232 330:-0.215259 331:0.355543 332:-0.450244 333:0.117514 334:0.325681 335:0.212675 336:-0.356394 337:-0.384463 338:0.694521 339:-0.519857 340:-0.783251 341:-0.882129 342:-0.162097 343:-0.0427696 344:-0.179708 345:-0.445489 346:-0.228625 347:0.180137 348:-0.572665 349:-0.0527258 350:0.0475777 351:-0.106607 352:-0.879154 353:-0.91453 354:-0.138585 355:-0.634286 356:0.730644 357:0.293442 358:0.491694 359:-0.259727 360:-0.763129 361:-0.139586 362:-0.0691279 363:0.0894925 364:-0.872587 365:-0.739962 366:-0.159025 367:0.127758 368:0.0913684 369:-0.398328 370:-0.118381 371:-0.522905 372:-0.496067 373:0.2784 374:-0.334497 375:0.306448 376:-0.864717 377:-0.798621 378:-0.433794 379:0.174862 380:-0.305514 381:-0.674299 382:-0.19365 383:0.101556 384:-0.771073 
2.021995259061761 0 0 3.15102823732066 0 0.5174054255513652 1:-0.137462 2:-0.727856 3:-0.135081 4:-0.436031 5:-0.744578 6:-0.224797 7:0.458944 8:-0.657452 9:-0.310125 10:0.0976886 11:-0.203428 12:-0.624138 13:-0.0898708 14:-0.425374 15:0.187835 16:-0.542614 17:-0.418936 18:-0.504421 19:-0.0854822 20:-0.366152 21:-0.024826 22:0.17215 23:-0.308792 24:-0.589902 25:-0.348939 26:0.654846 27:-0.891085 28:-0.374408 29:-0.816361 30:0.341423 31:0.211906 32:0.0326503 33:-0.885737 34:-0.74945 35:0.200372 36:-0.677663 37:-0.412407 38:-0.60427 39:0.221811 40:-0.576507 41:-0.497703 42:-0.0572512 43:-0.145485 44:0.10164 45:-0.456066 46:-0.378652 47:-1 48:1 49:-0.299158 50:0.586672 51:-0.777329 52:-0.40325 53:-0.798387 54:0.336463 55:-0.256491 56:0.179595 57:-0.779017 58:-0.597579 59:0.314861 60:-0.716062 61:-0.120453 62:-0.37918 63:0.244329 64:-0.295559 65:-0.011811 66:-0.345643 67:-0.354282 68:-0.155435 69:0.112247 70:0.318479 71:0.466061 72:-0.68386 73:-0.419294 74:-0.429245 75:0.184309 76:-0.457286 77:-0.706231 78:-0.195705 79:-0.271652 80:0.158824 81:0.0638487 82:0.177142 83:-0.169426 84:-0.496178 85:-0.0271765 86:0.372232 87:-0.317749 88:-0.680851 89:-0.676951 90:0.180694 91:-0.383763 92:0.454366 93:-0.639152 94:-0.472217 95:0.212378 96:-0.431198 97:-0.469905 98:-0.557209 99:0.309451 100:-1 101:-0.572 102:-0.289346 103:-0.169035 104:0.022042 105:0.288006 106:0.44238 107:-0.0814741 108:-0.611371 109:-0.198407 110:-0.416446 111:0.27892 112:-0.939486 113:-0.72043 114:-0.734882 115:-0.191185 116:-0.348351 117:0.720523 118:0.85703 119:0.191888 120:-0.646191 121:0.531424 122:0.0561714 123:0.511557 124:-0.381089 125:-0.868472 126:-0.216761 127:0.00503162 128:-0.175449 129:-0.173063 130:0.0411606 131:0.56547 132:0.823071 133:0.298585 134:-0.206961 135:0.192762 136:-0.767816 137:-0.817143 138:0.0545994 139:0.0879014 140:0.0400447 141:0.618296 142:0.662623 143:0.357546 144:-0.678467 145:-0.264356 146:0.175718 147:-0.0222501 148:-0.260794 149:-0.301818 150:-0.123676 151:-0.0293485 152:0.233027 153:-0.298644 154:-0.0503391 155:-0.203327 156:-0.687554 157:0.0162162 158:-0.782609 159:0.0107238 160:-0.811094 161:-0.528814 162:0.0447999 163:-0.327496 164:0.278868 165:0.126382 166:0.202955 167:-0.552625 168:-0.88206 169:0.911485 170:0.26306 171:0.636921 172:-0.303887 173:-0.996324 174:-0.0431487 175:0.35623 176:-0.420451 177:0.446368 178:0.688625 179:-0.197725 180:-0.88089 181:0.62349 183:0.62349 184:-0.610687 185:-1 186:-0.221224 187:0.425424 188:-0.515372 189:-0.09602 190:0.386456 191:-0.817884 192:-0.974729 193:-0.426516 194:-0.0175408 195:-0.144023 196:-0.440523 197:-0.124 198:0.545921 199:0.692051 200:-0.505709 201:-0.584122 202:-0.219605 203:-0.476355 204:-0.579391 205:-0.189241 206:0.122887 207:-0.163842 208:-0.939759 209:-0.346445 210:0.199474 211:0.337094 212:-0.613307 213:-0.370795 214:-0.149354 215:0.00444339 216:-0.720335 217:-0.459412 218:0.341402 219:-0.4077 220:-0.446875 221:-0.370079 222:0.135239 223:-0.182637 224:0.0598063 225:-0.588836 226:-0.374897 227:-0.104345 228:-0.807024 229:-0.170415 230:0.036439 231:-0.0480328 232:-0.474522 233:-0.539413 234:0.411729 235:0.0289139 236:0.24121 237:-0.309191 238:-0.117036 239:0.0215502 240:-0.254237 241:-0.50049 242:0.511404 243:-0.520785 244:-0.705968 245:-0.308219 246:0.0559994 247:-0.428977 248:0.201748 249:-0.521533 250:-0.282642 251:0.0643383 252:-0.603934 253:0.287368 254:0.169452 255:0.0375838 256:-0.622003 257:-0.587209 258:0.0286096 259:-0.263816 260:0.0776893 261:0.097565 262:0.320334 263:-0.0165179 264:-0.823425 265:-0.115779 266:0.0553024 267:0.155061 268:-0.682645 269:-0.336 270:-0.24108 271:-0.281834 272:0.0573711 273:0.213084 274:0.388925 275:0.0387232 276:-0.646106 277:-0.0206246 278:0.138327 279:-0.0601928 280:-0.642473 281:-0.619946 282:-0.253185 283:-0.677099 284:0.352496 285:-0.203821 286:0.0153881 287:-0.0887134 288:-0.752392 289:0.019109 290:-0.270875 291:0.450821 292:-0.707521 293:-0.682819 294:-0.521345 295:-0.34251 296:-0.0891131 297:0.478235 298:0.601455 299:-0.00921258 300:-0.284149 301:0.179116 302:-0.2337 303:0.27183 304:-0.966887 305:-0.913478 306:-0.579637 307:-0.0445943 308:-0.21238 309:0.0507566 310:0.271088 311:-0.294536 312:-0.656849 313:0.181743 314:-0.102523 315:0.299236 316:-0.356037 317:-0.378223 318:-0.505804 319:-0.471915 320:0.308544 321:0.32891 322:0.499177 323:0.580623 324:-0.422437 325:0.168202 326:-0.115522 327:0.226838 328:-0.91411 329:-0.884058 330:-0.497695 331:-0.617993 332:0.417441 333:0.44183 334:0.586406 335:0.0982428 336:-0.514221 337:-0.26757 338:0.339424 339:-0.179783 340:-0.45156 341:-0.102662 342:-0.558649 343:-0.531013 344:0.234695 345:-0.3422 346:-0.121293 347:0.147146 348:-0.531456 349:-0.104557 350:0.0362282 351:-0.129129 352:-0.347432 353:-0.213675 354:-0.17364 355:-0.484011 356:0.682296 357:0.0888174 358:0.32241 359:-0.150809 360:-0.836524 361:0.3949 362:-0.440612 363:0.633434 364:-0.640927 365:-0.17782 366:0.601861 367:0.483709 368:-0.0273346 369:0.443688 370:0.614674 371:-0.468471 372:-0.662501 373:0.564487 374:-0.627602 375:0.596045 376:-0.597806 377:-0.713103 378:0.187229 379:0.370591 380:-0.444024 381:0.00265797 382:0.414328 383:0.251591 384:-0.918463 
2.204609237934822 0 0 3.393439802573739 0 0 1:-0.535836 2:-0.784568 3:-0.533991 4:-0.370757 5:-0.845783 6:-0.55051 7:0.263236 8:-0.643155 9:-0.793054 10:-0.529157 11:-0.4424 12:-0.750164 13:0.315863 14:0.134534 15:0.0263228 16:-0.213068 17:-0.361868 18:-0.170292 19:0.0328817 20:-0.271387 21:-0.615105 22:-0.43424 23:0.0494304 24:-0.469731 25:-0.370449 26:0.0906782 27:-0.397874 28:-0.121643 29:-0.188648 30:0.116893 31:0.182465 32:-0.116835 33:-0.626893 34:-0.389083 35:0.0695669 36:-0.4679 37:-0.556618 38:-0.602735 39:0.0850173 40:-0.941267 41:-0.274119 42:-0.316624 43:-0.0336421 44:-0.258382 45:-0.355061 46:-0.267141 47:-0.657727 48:0.189732 49:-0.299345 50:0.458864 51:-0.657544 52:-0.985229 53:-0.66129 54:0.170192 55:-0.330506 56:0.141921 57:-0.666723 58:-0.431024 59:0.450637 60:-0.749162 61:-0.495281 62:-0.0917055 63:-0.285302 64:-0.163859 65:0.161417 66:-0.124294 67:-0.175776 68:-0.103797 69:-0.430642 70:-0.227706 71:0.113566 72:-0.607163 73:-0.393256 74:-0.0343993 75:-0.175896 76:-0.142379 77:-0.382789 78:-0.23561 79:-0.0800042 80:-0.0614186 81:0.0419205 82:0.110103 83:-0.112672 84:-0.652195 85:-0.200599 86:0.194123 87:-0.294476 88:-0.664894 89:-0.368421 90:-0.0260243 91:-0.455111 92:0.404072 93:-0.585147 94:-0.36283 95:0.155012 96:-0.450857 97:-0.156469 98:-0.37368 99:0.352319 100:-0.580686 101:-0.42 102:-0.280817 103:-0.523809 104:0.61288 105:0.249668 106:0.722292 107:0.0357564 108:-0.811465 109:-0.126316 110:-0.0548568 111:-0.00360127 112:-0.464448 113:-0.142857 114:-0.364815 115:-0.282238 116:0.100286 117:0.0568386 118:0.436025 119:0.235697 120:-0.681373 121:0.084265 122:0.0968257 123:0.0957685 124:-0.704871 125:-0.0522244 126:-0.224557 127:-0.591212 128:0.536787 129:-0.373904 130:0.0512359 131:0.620927 132:-0.0998965 133:0.160818 134:-0.611867 135:0.36977 136:-0.889655 137:-0.264762 138:-0.0751761 139:-0.372326 140:0.536456 141:0.178532 142:0.563219 143:0.0685295 144:-0.617227 145:0.0858962 146:0.656272 147:-0.0370895 148:-0.278066 149:0.0290909 150:0.161094 151:-0.104321 152:0.623795 153:-0.544393 154:-0.226797 155:0.325964 156:-0.367347 157:-0.232432 158:-0.782609 159:-0.235925 160:-0.244378 161:-0.569492 162:-0.397132 163:-0.192634 164:-0.11451 165:-0.645182 166:-0.478174 167:-0.391808 168:-0.718681 169:0.786651 170:-0.0454654 171:0.628793 172:-0.254417 173:-0.882353 174:-0.0217249 175:0.172576 176:-0.289233 177:0.587822 178:0.743642 179:-0.255476 180:-0.902395 181:0.725439 183:0.725439 184:-0.812977 185:-1 186:-0.182811 187:0.1863 188:-0.310955 189:0.0124308 190:0.422911 191:-0.819671 192:-0.974716 193:-0.7048 194:0.204308 195:-0.436105 196:-0.364706 197:-0.036 198:0.478596 199:0.848777 200:-0.730077 201:-0.761571 202:-0.459546 203:-0.38739 204:-0.658986 205:-0.542102 206:0.36973 207:-0.506096 208:-0.183735 209:-0.255673 210:0.0800965 211:0.167744 212:-0.342404 213:-0.641611 214:-0.464804 215:-0.226143 216:-0.684871 217:-0.176512 218:0.111618 219:-0.107927 220:-0.240625 221:-0.634646 222:0.0410696 223:-0.341296 224:0.228763 225:-0.526837 226:-0.301958 227:0.0427672 228:-0.662405 229:0.611208 230:-0.377218 231:0.701544 232:-0.251592 233:-0.295209 234:-0.0302762 235:0.135599 236:-0.0579505 237:-0.0341306 238:0.155816 239:0.153823 240:0.442803 241:-0.665391 242:0.745986 243:-0.73568 244:-0.231441 245:-0.10274 246:0.0411545 247:-0.497467 248:0.261272 249:-0.525499 250:-0.287918 251:0.130365 252:-0.861664 253:0.0247653 254:0.276027 255:-0.155248 256:-0.399154 257:-0.723837 258:-0.0677653 259:-0.421488 260:0.263026 261:-0.222686 262:0.0250253 263:-0.3176 264:-0.795918 265:-0.254206 266:0.0867207 267:0.0381572 268:-0.47438 269:-0.248 270:-0.175636 271:-0.347769 272:0.119475 273:0.109405 274:0.299879 275:0.0607303 276:-0.533758 277:-0.610645 278:0.360029 279:-0.484066 280:-0.696237 281:-0.975741 282:-0.0913148 283:-0.692044 284:0.375231 285:-0.390476 286:-0.177186 287:-0.114122 288:-0.863411 289:0.0381193 290:0.269277 291:0.0717805 292:-0.704735 293:-0.580029 294:0.15162 295:-0.275716 296:-0.125674 297:0.0303684 298:0.216948 299:0.431176 300:-0.602366 301:-0.196472 302:-0.126392 303:0.0028343 304:-0.609272 305:-0.836938 306:-0.157687 307:-0.164431 308:0.0571497 309:-0.3772 310:-0.146324 311:-0.591118 312:-0.3629 313:-0.0281405 314:-0.0940787 315:0.156953 316:-0.705882 317:-0.60745 318:-0.268971 319:-0.338195 320:0.147088 321:0.0783114 322:0.286909 323:-0.111665 324:-0.409653 325:0.908765 326:-0.811041 327:1 328:-0.748466 329:-0.428986 330:0.00264803 331:-0.313794 332:0.040776 333:0.838754 334:0.888032 335:-0.317902 336:0.00376708 337:-0.553026 338:0.17143 339:-0.242192 340:0.0114943 341:-0.205323 342:0.286198 343:-0.463314 344:0.28393 345:-0.3521 346:-0.131266 347:-0.259196 348:-0.482539 349:-0.484361 350:0.450895 351:-0.579579 352:-0.731118 353:-0.138462 354:-0.180652 355:-0.378821 356:0.541822 357:-0.644445 358:-0.433728 359:-0.123267 360:-0.748924 361:0.521717 362:-0.395148 363:0.679636 364:0.0694981 365:-0.189293 366:0.108458 367:0.496883 368:-0.156551 369:0.577118 370:0.711208 371:-0.444495 372:-0.805427 373:0.546304 374:-0.698472 375:0.622388 376:-0.718464 377:-0.85931 378:-0.433794 379:0.184827 380:-0.167299 381:0.0870831 382:0.473107 383:0.218312 384:-0.926427 
0.2048515972648491 0 0 0 0 0 1:-0.627942 2:-0.848813 3:-0.626049 4:-0.498695 5:-1 6:-0.493669 7:0.308475 8:-0.62472 9:-0.762023 10:-0.47603 11:-0.481707 12:-0.800071 13:-0.116643 14:0.0352194 15:-0.206569 16:-0.838068 17:-0.769131 18:-0.2355 19:0.0843616 20:-0.324768 21:-0.738542 22:-0.59072 23:-0.289705 24:-0.136603 25:-0.407485 26:0.0541391 27:-0.390432 28:-0.949447 29:-0.335559 30:0.304865 31:-0.00295762 32:0.18921 33:-0.63421 34:-0.429745 35:-0.592869 36:0.356393 37:-0.198566 38:-0.587968 39:0.407876 40:-0.938176 41:-0.399694 42:-0.153901 43:-0.287065 44:0.151411 45:-0.088933 46:0.0704087 47:-0.508692 48:-0.131798 49:-0.257647 50:0.444653 51:-0.619227 52:-0.228951 53:-0.173387 54:0.195202 55:-0.481379 56:0.294593 57:-0.716195 58:-0.449939 59:0.281349 60:-0.772 61:-0.596243 62:-0.215491 63:-0.243172 64:-0.892802 65:-0.0629921 66:-0.290321 67:-0.513517 68:0.0534866 69:-0.151386 70:0.141428 71:0.18009 72:-0.854673 73:-0.480499 74:-0.122102 75:-0.164548 76:-0.708543 77:-0.436202 78:-0.172552 79:-0.264378 80:0.167121 81:-0.343756 82:-0.165327 83:-0.234831 84:-0.560078 85:-0.0676556 86:0.134294 87:-0.152548 88:-0.664894 89:-0.310345 90:-0.0480784 91:-0.624992 92:0.496541 93:-0.458161 94:-0.156484 95:-0.00914236 96:-0.533242 97:-0.315619 98:-0.284349 99:0.160724 100:-0.336722 101:-0.552 102:-0.514615 103:-0.523828 104:0.285582 105:0.152957 106:0.546296 107:0.384348 108:-0.981815 109:-0.324482 110:-0.29439 111:0.0689265 112:-0.597579 113:-0.840246 114:-0.657562 115:-0.392106 116:-0.0979568 117:0.40632 118:0.755899 119:0.138826 120:-0.677569 121:0.241689 122:0.00604725 123:0.307648 124:-0.492837 125:-0.686654 126:-0.150139 127:-0.150441 128:0.0390055 129:0.21225 130:0.358636 131:0.377891 132:-0.483494 133:-0.377739 134:-0.229664 135:-0.237527 136:-0.708046 137:-0.866667 138:-0.188032 139:-0.112674 140:0.0598764 141:0.199966 142:0.381977 143:0.185429 144:-0.80553 145:-0.47428 146:0.408761 147:-0.3669 148:-0.499136 149:-0.8 150:-0.0140068 151:0.0398615 152:0.253641 153:-0.610269 154:-0.40487 155:-0.0581951 156:-0.88411 157:0.202703 158:-0.826087 159:0.198391 160:-0.709145 161:-0.389831 162:-0.381421 163:-0.348156 164:0.102027 165:-0.478818 166:-0.282132 167:0.0750515 168:-0.299797 169:0.838026 170:0.605021 171:0.478277 172:-0.784452 173:-0.676471 174:-0.0198366 175:0.569355 176:-0.586952 177:0.253044 178:0.649843 179:-0.200312 180:-0.857154 181:0.851307 183:0.851307 184:-0.320611 185:-1 186:-0.179626 187:0.708704 188:-0.727474 189:-0.103252 190:0.47623 191:-0.799388 192:-0.970181 193:-0.69656 194:0.839307 195:-0.744815 196:-0.505882 197:-0.228 198:0.520308 199:0.764191 200:-0.636763 201:-0.87852 202:-0.664117 203:0.16474 204:-0.797234 205:-0.380206 206:0.868448 207:-0.649756 208:-0.716867 209:-0.972769 210:0.0116064 211:0.106398 212:-0.252 213:-0.65155 214:-0.477265 215:0.564487 216:-0.821842 217:-0.568003 218:0.175079 219:-0.379409 220:-0.853125 221:-0.423622 222:-0.514861 223:-0.526675 224:0.391823 225:-0.691998 226:-0.508658 227:-0.196006 228:-0.648852 229:0.171954 230:0.129629 231:0.108619 232:-0.541401 233:-0.443586 234:-0.295563 235:0.0504853 236:0.0270168 237:0.0653578 238:0.247929 239:0.112992 240:-0.481713 241:-0.849618 242:0.568046 243:-0.726558 244:-0.953421 245:-0.376712 246:0.0617684 247:-0.23523 248:-0.113707 249:-0.608185 250:-0.381948 251:-0.387245 252:-0.756821 253:0.521721 254:0.265297 255:0.0824223 256:-0.317348 257:-0.747093 258:-0.0262646 259:-0.0954361 260:-0.205965 261:-0.189208 262:0.0634027 263:0.274914 264:-0.529953 265:0.408189 266:0.322373 267:0.322858 268:-0.378512 269:-0.788 270:-0.445614 271:-0.364276 272:0.13601 273:0.0661464 274:0.26074 275:0.555314 276:-0.298591 277:-0.260826 278:0.49245 279:-0.400011 280:-0.682796 281:-0.932615 282:-0.479933 283:-0.722407 284:0.370966 285:-0.588889 286:-0.404883 287:-0.202607 288:-0.694193 289:0.0357513 290:0.0660047 291:0.217487 292:-0.48468 293:-0.456681 294:0.519631 295:-0.0539 296:-0.40265 297:0.303316 298:0.467566 299:0.537596 300:-0.493176 301:-0.338795 302:0.0419469 303:-0.164129 304:-0.745033 305:-0.530782 306:-0.333252 307:0.019248 308:-0.252788 309:-0.381837 310:-0.147373 311:-0.27238 312:-0.58939 313:-0.0493584 314:-0.061595 315:0.124452 316:-0.609907 317:-0.578797 318:-0.321456 319:-0.196061 320:-0.0856351 321:0.332501 322:0.503091 323:0.268273 324:-0.556227 325:0.412267 326:-0.368147 327:0.495424 328:-0.892638 329:-0.886957 330:0.0306882 331:-0.0373564 332:-0.293856 333:0.641157 334:0.747454 335:-0.1809 336:-0.289663 337:-0.534455 338:0.542114 339:-0.505063 340:-0.799672 341:-0.448669 342:-0.130006 343:-0.335824 344:0.00194286 345:-0.63886 346:-0.459997 347:0.0562189 348:-0.502172 349:-0.0446829 350:-0.0196422 351:-0.0635634 352:-0.734139 353:-0.661538 354:-0.153774 355:-0.376296 356:0.523118 357:-0.312356 358:-0.0541532 359:-0.32977 360:-0.460996 361:0.588988 362:-0.186852 363:0.589922 364:-0.451737 365:-0.552581 366:-0.149039 367:0.340757 368:0.00806097 369:0.272568 370:0.485876 371:-0.0936651 372:-0.773049 373:0.549123 374:-0.853554 375:0.701339 376:-0.42596 377:-0.503448 378:-0.433794 379:0.128134 380:-0.103042 381:0.12976 382:0.501953 383:0.233904 384:-0.91421 
0 0.7780546900469634 2.047820382743385 0 0 0 1:-0.888247 2:-0.481753 3:-0.888064 4:-0.767624 5:-0.995181 6:-0.19339 7:0.270764 8:-0.295783 9:-0.867235 10:-0.684041 11:-0.939608 12:-0.971523 13:-0.0421073 14:0.665637 15:-0.665741 16:-0.6875 17:-0.85214 18:0.155922 19:0.29712 20:-0.111893 21:-0.74967 22:-0.589572 23:-0.0451242 24:-0.728078 25:0.372956 26:0.21096 27:0.00485196 28:-0.693523 29:-0.923205 30:0.17478 31:0.213893 32:-0.0191245 33:-0.555563 34:-0.322315 35:0.591332 36:0.521695 37:-0.422705 38:0.314331 39:-0.617552 40:-0.972179 41:-0.803982 42:0.0295173 43:0.141998 44:-0.0290258 45:-0.662399 46:-0.636476 47:-0.0676854 48:-0.618234 49:-0.57652 50:-0.255688 51:-0.153311 52:-0.825702 53:-0.443548 54:-0.596748 55:-0.978011 56:-0.0737331 57:-0.109764 58:0.313226 59:0.352848 60:-0.875648 61:-0.538657 62:0.178534 63:-0.564218 64:-0.895865 65:-0.602362 66:-0.110175 67:-0.359142 68:-0.000140163 69:-0.8595 70:-0.769145 71:0.286383 72:-0.542655 73:-1 74:-0.132236 75:-0.592609 76:-1 77:-0.602374 78:-0.815911 79:-0.33015 80:-0.376054 81:-0.342395 82:-0.185563 83:-0.119412 84:-0.652669 85:-1 86:-0.480183 87:-0.306555 88:-0.989362 89:-0.709619 90:-1 91:-0.292515 92:-0.522405 93:-0.416232 94:-0.24351 95:0.0819561 96:-0.445582 97:-0.820363 98:0.0965669 99:-0.537737 100:-0.946633 101:-0.488 102:-0.410819 103:-1 104:0.495272 105:-0.909185 106:-0.367623 107:0.548817 108:-0.801482 109:-0.719664 110:-0.534965 111:-0.00771853 112:-0.981846 113:-0.612903 114:-0.828664 115:-0.724195 116:-0.207915 117:-0.353953 118:0.139087 119:-0.0638403 120:-0.286179 121:-0.640302 122:-0.28629 123:-0.19337 124:-0.988539 125:-0.907157 126:-0.62613 127:-0.327544 128:-0.175734 129:-0.381673 130:-0.207418 131:0.182172 132:-0.348258 133:-0.051846 134:-0.17329 135:-0.0602286 136:-0.682759 137:-0.68 138:-0.345155 139:-0.175983 140:-0.109276 141:-0.0995181 142:0.122384 143:0.570211 144:-0.216109 145:-0.359854 146:0.443343 147:-0.28869 148:-0.533679 149:-0.865455 150:-0.133261 151:0.467972 152:-0.199911 153:-0.66464 154:-0.485768 155:0.326776 156:-0.471687 157:0.0594593 158:2.6087e-07 159:0.00536171 160:-0.811094 161:-1 162:-0.583112 163:-0.508677 164:0.0617745 165:-0.7446 166:-0.550162 167:0.280352 168:-0.0065593 169:0.822004 170:0.0208235 171:0.637292 172:-0.519435 173:-0.875 174:0.709372 175:1 176:-0.141514 177:0.377915 178:0.745933 179:-0.819048 180:-0.932909 181:0.529347 183:0.529347 184:-0.477099 185:-1 186:0.399943 187:0.817243 188:-0.191619 189:-0.0290263 190:0.457548 191:-0.959856 192:-0.983877 193:-0.851204 194:0.869234 195:-0.860947 196:-0.853595 197:-0.76 198:0.477115 199:0.115723 200:-0.110425 201:-0.883757 202:-0.670813 203:-0.128398 204:-0.971273 205:-0.187325 206:0.220949 207:-0.210825 208:-0.948795 209:-0.948563 210:0.0761016 211:-0.385578 212:0.25349 213:-0.379015 214:-0.155118 215:0.32792 216:-0.802829 217:-0.174801 218:0.0869786 219:-0.0930196 220:-0.725 221:-0.927559 222:-0.0650606 223:-0.466023 224:0.405998 225:-0.199128 226:0.0467321 227:-0.000835203 228:-0.795243 229:-0.760541 230:0.654283 231:-0.805133 232:-0.993631 233:-0.854714 234:-0.170991 235:-0.00116272 236:0.0855875 237:-0.516459 238:-0.344774 239:-0.289847 240:-0.765207 241:-0.127822 242:-0.0238806 243:-0.032221 244:-0.764192 245:-0.784247 246:-0.349604 247:0.340577 248:-0.530992 249:0.60037 250:0.729516 251:0.159073 252:-0.908463 253:-0.583331 254:0.223835 255:-0.402541 256:-0.949224 257:-0.901163 258:-0.13066 259:-0.140332 260:0.0964205 261:-0.760649 262:-0.599113 263:-0.479293 264:-0.141575 265:-0.419986 266:0.118122 267:-0.0974142 268:-0.87438 269:-0.968 270:-0.120192 271:0.59073 272:-0.622691 273:-0.0901098 274:0.142966 275:-0.175157 276:-0.664355 277:-0.0855317 278:0.38501 279:-0.247727 280:-0.768817 281:-0.708895 282:-0.0849298 283:0.160091 284:-0.357304 285:-0.275934 286:-0.0393461 287:-0.0569068 288:-0.761597 289:-0.878882 290:0.787924 291:-0.891067 292:-0.899721 293:-0.79442 294:0.29869 295:0.104795 296:-0.34182 297:-0.747489 298:-0.619219 299:-0.177756 300:-0.877794 301:-0.474686 302:0.452963 303:-0.451036 304:-0.493377 305:-0.980033 306:0.109981 307:0.545242 308:-0.480259 309:-0.426323 310:-0.186524 311:-0.0398424 312:-0.935105 313:-0.13979 314:0.0542218 315:-0.00110792 316:-0.891641 317:-0.939828 318:0.0457917 319:0.445748 320:-0.491231 321:0.192687 322:0.394256 323:-0.0133794 324:-0.422188 325:-0.118032 326:-0.0508548 327:0.0481794 328:-0.935583 329:-0.597101 330:-0.1095 331:0.852902 332:-0.866561 333:0.547647 334:0.688724 335:0.1884 336:-0.686175 337:-0.649323 338:0.58706 339:-0.613684 340:-0.625616 341:-0.874525 342:-0.0331272 343:-0.0643389 344:-0.117155 345:-0.553747 346:-0.35367 347:-0.0852181 348:-0.657797 349:-0.234138 350:-0.109559 351:-0.118118 352:-0.824773 353:-0.784615 354:-0.0255909 355:-0.338443 356:0.496327 357:-0.403343 358:-0.15059 359:-0.433088 360:-0.317879 361:0.18425 362:-0.443793 363:0.511828 364:-0.857143 365:-0.407266 366:-0.120524 367:-0.792579 368:1 369:0.788825 370:0.872598 371:-0.45942 372:-0.935164 373:0.522225 374:-0.517754 375:0.519989 376:-0.528336 377:-0.608276 378:-0.433794 379:-0.512528 380:0.566307 381:0.330469 382:0.634282 383:0.253131 384:-0.946035 
0 0.2259469470846299 0 0 2.461161532382167 2.35749470450684 1:0.394693 2:-0.766058 3:0.398172 4:-0.712794 5:-1 6:-0.0291016 7:1 8:-0.802275 9:0.661188 10:0.88263 11:-0.220664 12:-0.673939 13:-0.196491 14:-0.412024 15:0.0996227 16:-0.738636 17:-0.714656 18:-0.493391 19:0.131783 20:-0.44487 21:-0.396921 22:-0.188454 23:-0.473716 24:-0.0219543 25:-0.226743 26:0.275683 27:-0.465673 28:-0.50079 29:-0.786311 30:0.0910434 31:-0.00445494 32:0.0379861 33:-0.601057 34:-0.388877 35:0.054478 36:-0.648408 37:-0.27412 38:0.697567 39:-0.824181 40:-0.829985 41:-0.696784 42:0.155974 43:0.0370643 44:0.153564 45:-0.851554 46:-0.930733 47:0.310473 48:-0.544372 49:-0.0741636 50:0.448302 51:-0.512703 52:-0.589365 53:-0.625 54:0.750275 55:0.0228251 56:0.318061 57:-0.759754 58:-0.528656 59:-0.0307852 60:-0.385119 61:-0.27669 62:0.51491 63:-0.687484 64:-0.88974 65:-0.637795 66:0.504625 67:0.226146 68:0.256794 69:-0.876102 70:-0.760243 71:-0.0227001 72:-0.6028 73:-0.557874 74:0.374943 75:-0.71083 76:-0.979899 77:-0.732938 78:0.217654 79:0.161726 80:0.10008 81:-0.545741 82:-0.405725 83:-0.102573 84:-0.67742 85:-0.220369 86:-0.262823 87:0.0634423 88:-0.984043 89:-0.6951 90:-0.170408 91:-0.807314 92:0.373565 93:-0.308027 94:-0.0302928 95:-0.247853 96:-0.136207 97:-0.246245 98:0.899138 99:-0.893186 100:-0.621347 101:-0.792 102:0.719529 103:0.0354166 104:0.624609 105:-0.875372 106:-0.883924 107:0.375192 108:-0.708377 109:1 110:1 111:-0.129709 112:-0.534039 113:-0.72043 114:1 115:0.371039 116:0.631753 117:-0.284167 118:-0.0456145 119:0.28519 120:-0.218277 121:-0.326688 122:0.334755 123:-0.458156 124:-0.593123 125:-0.59381 126:0.512047 127:-0.144435 128:0.529979 129:-0.382162 130:-0.215961 131:-0.196084 132:-0.385776 133:-0.47707 134:-0.00559249 135:-0.451079 136:-0.65977 137:-0.51619 138:0.294748 139:0.142339 140:0.202019 141:-0.614431 142:-0.42769 143:-0.54392 144:0.270075 145:-0.389663 146:0.628648 147:-0.440908 148:-0.48532 149:-0.64 150:-0.0901969 151:0.324262 152:-0.0716193 153:-0.546047 154:-0.359859 155:-0.160669 156:-0.67604 157:-0.343243 158:-1 159:-0.33244 160:-0.646177 161:-0.972881 162:0.0131715 163:-0.169441 164:0.066574 165:-0.306536 166:-0.145639 167:-0.743651 168:-0.920633 169:0.59809 170:0.559017 171:0.301893 172:-0.452297 173:-0.470588 174:-0.785727 175:0.832323 176:-1 177:-0.63732 178:-0.162964 179:0.753396 180:0.0886228 181:0.931933 183:0.931933 184:-0.377863 185:-1 186:-0.701755 187:1 188:-1 189:-0.45282 190:0.186788 191:-0.484024 192:-0.870851 193:-0.31423 194:0.0696458 195:-0.113577 196:-0.722876 197:-0.556 198:0.485821 199:0.00166607 200:0.0255559 201:-0.366342 202:0.0182605 203:-0.252481 204:-0.628906 205:-0.277669 206:0.177274 207:-0.245941 208:-0.650602 209:-0.670197 210:0.0476446 211:0.121324 212:-0.301113 213:-0.59283 214:-0.404089 215:0.467542 216:-0.187313 217:-0.563285 218:0.312133 219:-0.453762 220:-0.55625 221:-0.546457 222:0.0377783 223:0.440359 224:-0.354798 225:-0.450393 226:-0.207672 227:0.0841083 228:-0.87039 229:-0.672205 230:0.483014 231:-0.642508 232:-0.942675 233:-0.659969 234:0.0680459 235:0.0867491 236:0.0585551 237:-0.597781 238:-0.440999 239:-0.0064155 240:-0.453821 241:-0.546359 242:0.540415 243:-0.560036 244:-0.714702 245:-0.674658 246:0.224511 247:-0.314157 248:0.268714 249:-0.720057 250:-0.53403 251:0.498144 252:-0.244591 253:-0.781187 254:0.686268 255:-0.802474 256:-0.689704 257:-0.584302 258:0.367573 259:-0.228286 260:0.323162 261:-0.73352 262:-0.562099 263:-0.331858 264:-0.841254 265:-0.269322 266:0.298422 267:-0.122828 268:-0.765289 269:-0.652 270:-0.0106999 271:0.171869 272:-0.165104 273:-0.132593 274:0.0879156 275:-0.0301086 276:-0.568439 277:-0.245772 278:0.256727 279:-0.243363 280:-0.637097 281:-0.768194 282:-0.029639 283:-0.0774252 284:-0.111021 285:-0.155563 286:0.0721368 287:-0.10346 288:-0.820524 289:-0.80913 290:1 291:-1 292:-0.802228 293:-0.891336 294:0.540127 295:-0.27863 296:0.188689 297:-1 298:-1 299:0.285504 300:-0.654388 301:-0.558332 302:0.180568 303:-0.360021 304:-0.695364 305:-0.487521 306:0.0963277 307:-0.491041 308:0.593587 309:-0.623068 310:-0.431257 311:-0.502645 312:-0.575385 313:-0.641554 314:0.582588 315:-0.632345 316:-0.820433 317:-0.719198 318:0.00965981 319:-0.382463 320:0.337261 321:-0.513934 322:-0.307671 323:0.126495 324:-0.715826 325:0.152451 326:0.0782517 327:0.105038 328:-0.607362 329:-0.631884 330:0.331096 331:0.0570236 332:0.0184668 333:-0.411089 334:-0.193939 335:0.0215113 336:0.426729 337:-0.72997 338:0.634856 339:-0.701994 340:-0.747126 341:-0.726236 342:0.174952 343:-0.167823 344:0.0346346 345:-0.664264 346:-0.491732 347:-0.0188167 348:-0.712479 349:-0.522788 350:0.383675 351:-0.562562 352:-0.670695 353:-0.699145 354:-0.185974 355:-0.845519 356:0.909804 357:-0.476918 358:-0.223905 359:-0.318769 360:-0.828549 361:0.139753 362:0.103617 363:0.146236 364:-0.440154 365:-0.407266 366:0.842761 367:0.877503 368:-0.402858 369:-0.712014 370:-0.498497 371:-0.231593 372:0.271385 373:0.700936 374:-0.415301 375:0.558119 376:-0.458867 377:-0.561379 378:1 379:1 380:-1 381:-0.750731 382:-0.28642 383:0.618545 384:-0.633254 
0 0 0 0 0 1.498005949082487 1:0.556642 2:-0.732257 3:0.560303 4:-0.911227 5:-0.992771 6:0.3562 7:-0.713341 8:0.849234 9:0.413719 10:0.702478 11:-0.326962 12:-0.680307 13:-0.276533 14:-0.275316 15:-0.0697395 16:-0.860795 17:-0.955901 18:-0.550912 19:0.533628 20:-0.65655 21:-0.331841 22:-0.0430736 23:-0.141988 24:-0.634361 25:-0.562733 26:0.0663518 27:-0.508148 28:-0.794629 29:-0.692821 30:0.396909 31:-0.0685202 32:0.272953 33:-0.64728 34:-0.444065 35:-1 36:1 37:-0.0154329 38:0.351177 39:-0.26842 40:-0.629057 41:-0.754977 42:0.0803041 43:-0.0305473 44:0.125284 45:-0.47941 46:-0.415899 47:0.552976 48:-0.328048 49:-0.173692 50:-0.0091215 51:-0.143234 52:-0.837518 53:-0.645161 54:0.498512 55:-0.523448 56:0.45792 57:-0.301508 58:0.00237187 59:-0.683816 60:0.0507663 61:-0.562112 62:-0.0288608 63:-0.390377 64:-0.730475 65:-0.866142 66:0.0885151 67:0.219513 68:-0.14407 69:-0.496896 70:-0.268946 71:-0.247612 72:-0.510018 73:-0.564882 74:0.311916 75:-0.655736 76:-0.9933 77:-0.896142 78:0.0935872 79:0.265535 80:-0.0536692 81:-0.486152 82:-0.325469 83:-0.0323979 84:-0.63441 85:-0.253329 86:-0.235886 87:0.0184067 88:-0.603723 89:-0.709619 90:-0.273244 91:0.192694 92:-0.241978 93:0.0765266 94:0.263781 95:0.0432604 96:-0.648969 97:-0.63897 98:0.662934 99:-0.941087 100:-0.956798 101:-0.7 102:0.326029 103:0.0881816 104:0.256193 105:-0.808575 106:-0.774598 107:0.23069 108:-0.698963 109:-0.589038 110:0.555035 111:-0.925439 112:-0.527988 113:-0.837174 114:0.069796 115:0.240201 116:-0.0393263 117:-0.695056 118:-0.567447 119:-0.229899 120:-0.681951 121:-0.479922 122:0.141143 123:-0.422862 124:-0.616046 125:-0.702128 126:0.115694 127:0.614212 128:-0.23629 129:-0.397989 130:0.0235892 131:-0.137891 132:-0.671248 133:-0.235628 134:0.744606 135:-0.788128 136:-0.754023 137:-0.889524 138:0.786062 139:0.374006 140:0.456566 141:-0.87073 142:-0.732544 143:0.108378 144:-0.413906 145:-0.634917 146:-0.161287 147:-0.122855 148:-0.499136 149:-0.669091 150:-0.569099 151:0.358536 152:-0.502852 153:-0.348754 154:-0.146497 155:-0.105028 156:-0.689608 157:0.0756756 158:-0.826087 159:0.072386 160:-0.934033 161:-0.508475 162:0.264493 163:-0.952922 164:0.811724 165:-0.0390257 166:0.221897 167:-0.650437 168:-0.910139 169:-0.632127 170:0.468207 171:-0.645112 172:-0.717314 173:-0.625 174:-0.874423 175:-0.0129031 176:-0.59833 177:-0.857716 178:-0.720357 179:-0.0599125 180:-0.747769 181:-1 183:-1 184:-1 185:-1 186:-1 187:0.0301604 188:-0.675113 189:-1 190:-1 191:-0.966962 192:-1 193:0.274339 194:-0.824129 195:0.714192 196:-0.905882 197:-0.864 198:0.473973 199:-0.425441 200:0.420372 201:1 202:1 203:-0.167478 204:-0.707197 205:-0.21941 206:0.915324 207:-0.572095 208:-0.879518 209:-0.80938 210:0.0262459 211:0.475337 212:-0.679629 213:-0.351373 214:-0.12846 215:0.854529 216:-0.699268 217:-0.0388869 218:0.3689 219:-0.169967 220:-0.671875 221:-0.669291 222:-0.317662 223:0.199236 224:-0.202398 225:-0.431827 226:-0.190779 227:0.438619 228:-0.464825 229:-0.325339 230:0.242436 231:-0.274195 232:-0.869427 233:-0.632148 234:-0.323197 235:0.0895679 236:-0.0431167 237:-0.347347 238:-0.15757 239:-0.331981 240:-0.429727 241:0.238952 242:0.201726 243:0.0224804 244:-0.723435 245:-0.739726 246:-0.162179 247:-0.273587 248:0.151279 249:-0.291577 250:-0.0329608 251:0.225545 252:-0.0467588 253:-0.0213326 254:0.173262 255:-0.10815 256:-0.822285 257:-0.869186 258:-0.183167 259:0.0237809 260:-0.0638722 261:-0.424024 262:-0.180509 263:-0.220814 264:-0.205047 265:-0.603936 266:0.487151 267:-0.485678 268:-0.897521 269:-0.968 270:-0.328294 271:0.0639635 272:-0.122027 273:-0.477716 274:-0.270308 275:0.270465 276:-0.535687 277:-0.411563 278:0.839425 279:-0.692334 280:-0.83871 281:-0.881402 282:-0.0597077 283:0.108901 284:-0.269094 285:-0.590839 286:-0.388942 287:0.342781 288:-0.836816 289:-0.938288 290:0.667157 291:-0.84164 292:-0.749304 293:-0.923642 294:0.33806 295:-0.0319858 296:-0.146877 297:-0.838985 298:-0.750257 299:-0.127935 300:-0.667196 301:-0.822403 302:0.365598 303:-0.604966 304:-0.854305 305:-0.830283 306:0.166024 307:0.209213 308:-0.100934 309:-0.773634 310:-0.626531 311:-0.621513 312:-0.492123 313:-0.381784 314:0.382662 315:-0.347712 316:-0.758514 317:-0.830946 318:0.0999834 319:0.100871 320:-0.107794 321:-0.337837 322:-0.10964 323:0.530706 324:-0.39507 325:-0.401138 326:0.530733 327:-0.433223 328:-0.788344 329:-0.689855 330:0.0528541 331:-0.999465 332:0.914255 333:-0.513711 334:-0.312712 335:-0.113115 336:-0.430101 337:-0.334802 338:0.73048 339:-0.513996 340:-0.681445 341:-0.669202 342:-0.0980378 343:0.258877 344:-0.445051 345:-0.669215 346:-0.488506 347:0.291936 348:-0.391047 349:-0.279714 350:0.101702 351:-0.264765 352:-0.885196 353:-0.846154 354:-0.187421 355:-0.968973 356:1 357:0.318989 358:0.517649 359:-0.3484 360:-0.895872 361:-0.49519 362:0.629164 363:-0.552184 364:-0.706564 365:-0.697897 366:-0.0935283 367:0.429202 368:-0.200596 369:-0.791825 370:-0.61653 371:-0.359904 372:-0.50061 373:-1 374:1 375:-1 376:-1 377:-1 378:-0.433794 379:0.313107 380:-0.48479 381:-1 382:-1 383:0.255097 384:-1 
0.3426537825368426 0 0 1.933757905479868 0 1.600804518060329 1:-0.560356 2:-0.847463 3:-0.558345 4:-0.446475 5:-0.390361 6:-0.256493 7:0.226616 8:-0.359077 9:-0.746853 10:-0.472084 11:-0.645088 12:-0.856872 13:0.000699044 14:-0.384193 15:0.22001 16:-0.480114 17:-0.434501 18:-0.241129 19:0.0294837 20:-0.283946 21:0.153491 22:0.344289 23:-0.334945 24:-0.665839 25:-0.232053 26:0.710796 27:-0.861114 28:-0.50079 29:-0.509182 30:0.287284 31:0.0205524 32:0.157701 33:-0.893144 34:-0.804147 35:0.444658 36:-0.328134 37:-0.522026 38:0.165831 39:-0.576683 40:-0.956723 41:-0.825421 42:-0.0380604 43:0.0813528 44:-0.10415 45:-0.675511 46:-0.650953 47:-0.377406 48:-0.469134 49:-0.428613 50:-0.404533 51:0.0749475 52:-0.618907 53:-0.391129 54:0.0689986 55:-0.258598 56:-0.0160191 57:-0.15377 58:0.124817 59:-0.493368 60:-0.18941 61:-0.346907 62:-0.472324 63:0.169389 64:-0.957121 65:-0.374016 66:-0.307946 67:-0.291585 68:-0.184138 69:-0.0105241 70:0.198193 71:-0.0101935 72:-0.656406 73:0.346601 74:0.150079 75:0.269158 76:-0.487437 77:-0.599407 78:0.0555019 79:0.129751 80:-0.0617172 81:-0.250634 82:-0.113438 83:0.453905 84:0.470915 85:-0.078878 86:-0.402844 87:0.276612 88:-0.986702 89:-0.313975 90:-0.499129 91:-0.363296 92:-0.0696253 93:0.0688961 94:0.228338 95:0.211703 96:-0.463862 97:-0.596515 98:-0.173932 99:-0.133473 100:-0.946633 101:-0.316 102:-0.2541 103:-0.322082 104:0.236485 105:-0.475539 106:-0.220392 107:0.321953 108:-0.497838 109:0.514338 110:0.0165912 111:0.41796 112:-0.515885 113:-0.49616 114:0.119633 115:-0.0226536 116:0.180268 117:-0.0572159 118:0.143077 119:0.284883 120:0.347816 121:-0.446372 122:-0.312822 123:-0.00542117 124:-0.461318 125:-0.098646 126:-0.510928 127:-0.120398 128:-0.252883 129:0.0331816 130:0.20246 131:-0.000448597 132:-0.548012 133:-0.0679527 134:0.48423 135:-0.505573 136:-0.457471 137:-0.813333 138:0.689261 139:0.278993 140:0.358208 141:-0.640532 142:-0.417004 143:0.269326 144:-0.383842 145:-0.713582 146:-0.35342 147:-0.0623901 148:-0.16753 149:-0.48 150:-0.667549 151:0.404011 152:-0.682816 153:-0.482596 154:-0.268999 155:-0.17954 156:-0.476114 157:-0.0513516 158:-0.608696 159:-0.067024 160:-0.607196 161:-0.135593 162:0.0382413 163:-0.348932 164:0.298417 165:-0.105361 166:0.0364453 167:-0.57964 168:-0.895745 169:0.157251 170:0.0296268 171:0.108566 172:-0.434629 173:-1 174:-0.40783 175:0.198219 176:-0.50522 177:-0.268245 178:0.0573525 179:-0.25585 180:-0.892627 181:-0.0479661 183:-0.0479661 184:-0.183206 185:-1 186:-0.639547 187:0.206359 188:-0.590783 189:-0.725521 190:-0.246996 191:-0.750536 192:-0.960534 193:-0.68352 194:0.588753 195:-0.612332 196:-0.675817 197:-0.148 198:0.440863 199:0.672874 200:-0.497354 201:-0.663126 202:-0.318815 203:-0.187873 204:-0.940677 205:0.0241954 206:-0.11032 207:0.0844017 208:-0.891566 209:-0.352496 210:-0.0998175 211:0.115259 212:-0.296718 213:0.153476 214:0.351302 215:0.118181 216:-0.878989 217:-0.20018 218:0.630834 219:-0.414621 220:-0.625 221:-0.247244 222:0.523088 223:-0.524907 224:0.622837 225:-0.602392 226:-0.393464 227:0.370729 228:-0.854127 229:-0.472 230:0.417636 231:-0.4759 232:-0.334395 233:-0.573416 234:-0.207719 235:0.152749 236:-0.113366 237:-0.436022 238:-0.2537 239:-0.107685 240:-0.677654 241:0.0475559 242:-0.133516 243:0.117123 244:-0.915575 245:-0.917808 246:0.215188 247:-0.409655 248:0.220327 249:-0.175402 250:0.0816108 251:-0.0618068 252:-0.395107 253:0.345936 254:0.00664482 255:0.173242 256:-0.96897 257:-0.747093 258:0.557633 259:-0.377496 260:0.423718 261:0.084428 262:0.307477 263:0.130096 264:-0.804862 265:0.0652149 266:0.0346964 267:0.293342 268:-0.527273 269:-0.472 270:0.136587 271:-0.285144 272:0.194027 273:-0.127705 274:0.0853753 275:0.161147 276:-0.203386 277:-0.138851 278:-0.000406874 279:-0.029029 280:-0.481183 281:-0.816712 282:0.110222 283:-0.356863 284:-0.0624659 285:0.00358265 286:0.22057 287:-0.179371 288:-0.780184 289:-0.628877 290:0.441342 291:-0.479956 292:-0.367688 293:-0.935389 294:0.43602 295:-0.203154 296:-0.11351 297:-0.708455 298:-0.575424 299:-0.176147 300:-0.443168 301:-0.444628 302:-0.379697 303:-0.00975435 304:-0.384106 305:-0.457571 306:0.171113 307:-0.289239 308:0.396598 309:-0.331559 310:-0.0992154 311:-1 312:0.138762 313:-0.00635438 314:-0.343945 315:0.314342 316:-0.448916 317:-0.495702 318:-0.0586351 319:-0.0973288 320:-0.150385 321:0.490162 322:0.629526 323:0.0214404 324:-0.410739 325:-0.180566 326:0.428389 327:-0.264638 328:-0.312883 329:-0.97971 330:-0.273919 331:-0.250074 332:-0.0588151 333:-0.0996846 334:0.120725 335:0.495074 336:-0.620897 337:0.0128094 338:0.0584007 339:0.212458 340:-0.756979 341:-0.452471 342:0.329418 343:-0.271331 344:0.00964385 345:-0.25586 346:-0.0287083 347:-0.0512528 348:0.103351 349:0.0670243 350:0.0257524 351:-0.0270264 352:-0.619335 353:-0.859829 354:-0.239463 355:-0.457521 356:0.601945 357:0.346517 358:0.532634 359:-0.285149 360:-0.832986 361:-0.078156 362:-0.00825924 363:0.0877812 364:-0.440154 365:-0.782027 366:0.0291499 367:0.249802 368:0.187633 369:-0.332756 370:-0.049216 371:-0.226993 372:-0.71932 373:-0.0494063 374:0.046819 375:-0.0481125 376:-0.224863 377:-0.404138 378:-0.433794 379:0.22798 380:-0.313143 381:-0.61228 382:-0.1203 383:0.302452 384:-0.918951 
0 0 0 0 0 0.3878489869106904 1:0.16489 2:-0.662823 3:0.167603 4:-0.762402 5:-0.626506 6:1 7:0.202873 8:0.529109 9:1 10:1 11:-0.66417 12:-0.916652 13:-0.847881 14:-0.287583 15:-0.474217 16:-0.974432 17:-0.758755 18:-0.831727 19:-0.0411854 20:-0.573819 21:0.0326125 22:0.225156 23:-0.289166 24:-0.965727 25:-0.461502 26:0.60047 27:-0.919501 28:-0.810427 29:-0.846411 30:0.445899 31:-0.122815 32:0.332235 33:-0.851773 34:-0.727209 35:-0.340616 36:-0.369027 37:-0.434616 38:0.338283 39:-0.650368 40:-0.897991 41:-0.6049 42:0.0750645 43:-0.561887 44:0.43518 45:-0.936376 46:-0.942825 47:-0.48015 48:0.0246456 49:-0.0315811 50:0.947407 51:-0.955396 52:-0.955687 53:-0.491935 54:0.670514 55:-0.111038 56:0.345195 57:-0.834266 58:-0.673088 59:0.648672 60:-0.854018 61:-0.758996 62:0.216073 63:-0.754838 64:-0.690658 65:-0.673228 66:0.0729403 67:-0.0345899 68:-0.0109186 69:-0.797246 70:-0.688782 71:-0.116928 72:-0.481403 73:-0.793813 74:0.201546 75:-0.741874 76:-0.628141 77:-0.902077 78:-0.316668 79:0.503185 80:-0.512341 81:-0.791344 82:-0.564521 83:0.214495 84:-0.368595 85:-0.567232 86:-0.115374 87:-0.299822 88:-0.606383 89:-0.727768 90:-0.261344 91:0.110044 92:-0.188609 93:-0.266406 94:-0.0619318 95:-0.0715438 96:-0.76691 97:-0.350804 98:0.443161 99:-0.540181 100:-1 101:-0.784 102:0.0860945 103:0.272466 104:-0.0842596 105:-0.566237 106:-0.410341 107:0.275604 108:-0.679268 109:-0.341901 110:0.372934 111:-0.567145 112:-0.848714 113:-0.898618 114:0.213546 115:0.432524 116:-0.0301943 117:-0.509662 118:-0.277212 119:-0.362682 120:-0.439505 121:-0.892406 122:-0.00598074 123:-0.648263 124:-0.570201 125:-0.470019 126:-0.8492 127:-0.488076 128:-0.240049 129:-0.662355 130:-0.506859 131:0.24617 132:-0.548325 133:-0.625322 134:0.396142 135:-0.814309 136:-0.703448 137:-0.904762 138:0.155596 139:-0.13129 140:0.26727 141:-0.661129 142:-0.466145 143:0.247783 144:-0.77522 145:-0.597899 146:0.350531 147:-0.437233 148:-0.813472 149:-0.603636 150:-0.385084 151:-0.194603 152:-0.00324634 153:-0.586649 154:-0.353798 155:0.172563 156:-0.713906 157:0.137838 158:0.304348 159:0.0643431 160:-0.616192 161:-0.789831 162:0.693108 163:-0.171557 164:0.393417 165:0.676575 166:0.543763 167:-0.794346 168:-1 169:-0.487927 170:0.738521 171:-0.610426 172:-0.710247 173:-0.551471 174:-0.889944 175:-0.319764 176:-0.450473 177:-0.921851 178:-0.817532 179:0.287444 180:-0.375933 181:-0.471457 183:-0.471457 184:-0.683206 185:-1 186:-0.977618 187:0.0366592 188:-0.664058 189:-0.983699 190:-0.820817 191:0.0726037 192:-0.44726 193:-0.353548 194:-0.360592 195:0.0734822 196:-0.769935 197:-0.636 198:0.439105 199:-1 200:1 201:0.634914 202:0.78728 203:-0.311966 204:-0.891414 205:-0.385051 206:0.156665 207:-0.30306 208:-0.710843 209:-0.960666 210:-0.306265 211:0.576422 212:-0.863409 213:-0.114999 214:0.109732 215:0.0169734 216:-0.911653 217:-0.730615 218:0.989013 219:-0.935764 220:-0.84375 221:-0.590551 222:0.419614 223:-0.478162 224:0.525753 225:-0.920891 226:-0.853871 227:0.284697 228:-0.724421 229:-0.448212 230:0.759261 231:-0.674719 232:-0.691083 233:-0.715611 234:-0.362176 235:0.38053 236:-0.331605 237:-0.560323 238:-0.394162 239:-0.0553207 240:-0.58029 241:-0.821517 242:0.674607 243:-0.772929 244:-0.621543 245:-0.623288 246:0.437249 247:-0.503512 248:0.522661 249:-0.647109 250:-0.438473 251:-0.198866 252:-0.687121 253:-0.313801 254:0.425057 255:-0.411607 256:-0.765867 257:-0.680233 258:0.748611 259:-0.4884 260:0.698368 261:-0.563472 262:-0.344731 263:-0.491315 264:-0.525521 265:-0.254191 266:0.706389 267:-0.402833 268:-0.580165 269:-0.924 270:0.580262 271:-0.113442 272:0.339451 273:-0.442562 274:-0.235517 275:0.302331 276:-0.565285 277:-0.332238 278:0.689244 279:-0.559046 280:-0.973118 281:-0.792453 282:0.34919 283:-0.194096 284:0.138486 285:-0.330523 286:-0.107353 287:0.207233 288:-0.893129 289:-0.802647 290:0.683951 291:-0.766945 292:-0.902507 293:-0.609398 294:0.0210792 295:0.468619 296:-0.817323 297:-0.668636 298:-0.497741 299:-0.138129 300:-0.827323 301:-0.455901 302:0.588117 303:-0.509159 304:-0.884106 305:-0.886855 306:0.0384777 307:-0.0421577 308:0.120367 309:-0.734756 310:-0.577048 311:0.0755057 312:-0.545834 313:-0.111395 314:0.607873 315:-0.299641 316:-0.560372 317:-0.922636 318:0.132451 319:0.587222 320:-0.569181 321:-0.432084 322:-0.20089 323:0.642243 324:-0.308334 325:-0.605094 326:0.634874 327:-0.594704 328:-0.659509 329:-0.915942 330:-0.374967 331:0.20739 332:-0.320204 333:-0.405042 334:-0.185178 335:0.241735 336:-0.893335 337:-0.696381 338:0.529765 339:-0.602008 340:-0.609195 341:-0.707224 342:-0.218159 343:0.00336269 344:-0.209202 345:-0.422484 346:-0.202872 347:-0.40079 348:-0.793207 349:-0.000894155 350:0.118289 351:-0.118118 352:-0.960725 353:-0.654701 354:-0.181554 355:-0.912625 356:0.9471 357:0.685949 358:0.790233 359:-0.143135 360:-0.911778 361:-0.352757 362:0.447493 363:-0.355958 364:-0.698842 365:-0.686424 366:-0.102837 367:0.353615 368:-0.132065 369:-0.796551 370:-0.623342 371:-0.3055 372:-0.253564 373:-0.405389 374:0.405389 375:-0.405389 376:-0.700183 377:-0.765517 378:-0.433794 379:0.298872 380:-0.467343 381:-0.969717 382:-0.754209 383:0.255302 384:-0.459718 
0 0 0.4680647342443554 0 0.09728069145805232 1.331922768362451 1:0.306845 2:-0.525944 3:0.309356 4:-0.704961 5:-0.638554 6:0.314854 7:0.266515 8:0.0388525 9:0.499367 10:0.689176 11:-0.483752 12:-0.812055 13:0.0250956 14:-0.177781 15:0.0696608 16:-0.900568 17:-0.696498 18:-0.379989 19:0.302357 20:-0.44358 21:0.263861 22:0.45698 23:-0.24275 24:-0.855627 25:-0.341117 26:0.431421 27:-0.684528 28:-0.71248 29:-0.833055 30:0.570904 31:0.129855 32:0.289958 33:-0.762809 34:-0.59919 35:-0.608284 36:0.287272 37:0.0797033 38:0.152972 39:-6.84724e-05 40:-0.891808 41:-0.929556 42:0.14345 43:-0.39974 44:0.403347 45:-0.361081 46:-0.232151 47:0.0403556 48:-0.298024 49:0.189511 50:0.708464 51:-0.598761 52:-0.961595 53:-0.584677 54:0.723736 55:-0.590102 56:0.662158 57:-0.777983 58:-0.547837 59:0.356571 60:-0.484943 61:-0.520021 62:0.298003 63:-0.660727 64:-0.862175 65:-0.858268 66:0.187415 67:-0.061263 68:0.118521 69:-0.643753 70:-0.479587 71:0.0765963 72:-0.760455 73:-0.429192 74:0.470336 75:-0.694695 76:-0.564489 77:-0.848665 78:0.123483 79:0.47792 80:-0.159928 81:-0.75052 82:-0.530412 83:0.469014 84:-0.244554 85:-0.196519 86:-0.106751 87:-0.0468139 88:-0.630319 89:-0.709619 90:-0.282078 91:0.564687 92:-0.441443 93:-0.428208 94:-0.0808785 95:-0.00513109 96:-0.457967 97:-0.524643 98:0.17929 99:-0.413147 100:-0.956798 101:-0.6 102:-0.17581 103:-0.177715 104:0.0383377 105:-0.540427 106:-0.402109 107:0.163272 108:-0.543045 109:0.168352 110:0.522417 111:-0.317791 112:-0.827534 113:-0.572965 114:0.580144 115:-0.557484 116:0.821472 117:-0.333829 118:0.033313 119:-0.192425 120:-0.379372 121:-0.52626 122:0.660975 123:-0.907618 124:-0.810888 125:-0.880077 126:0.346821 127:0.0898864 128:0.264215 129:-0.854862 130:-0.779597 131:0.126816 132:-0.516257 133:-0.546936 134:0.391189 135:-0.759424 136:-0.988506 137:-0.649524 138:0.188342 139:-0.251441 140:0.372306 141:-0.726895 142:-0.519308 143:0.255168 144:-0.617267 145:-0.694696 146:0.47598 147:-0.60836 148:-0.896373 149:-0.778182 150:-0.271002 151:0.166658 152:-0.127433 153:-0.714632 154:-0.56851 155:-0.212054 156:-0.716024 157:0.289189 158:-0.173913 159:0.243968 160:-0.634183 161:-0.501695 162:0.298952 163:-0.336029 164:0.335845 165:0.488493 166:0.434194 167:-0.610223 168:-0.919468 169:-0.217086 170:0.586583 171:-0.351405 172:-0.756184 173:-0.433824 174:-0.780141 175:-0.00625523 176:-0.542123 177:-0.727552 178:-0.516303 179:0.237962 180:-0.44717 181:-0.335533 183:-0.335533 184:-0.732824 185:-1 186:-0.924636 187:-0.0074026 188:-0.607812 189:-0.936529 190:-0.645872 191:-0.3886 192:-0.820885 193:0.36634 194:-0.481948 195:0.60521 196:-0.699346 197:-0.548 198:0.47425 199:-0.401444 200:0.386141 201:0.846233 202:0.911372 203:0.0602249 204:-0.74189 205:0.3301 206:-0.00395642 207:0.223703 208:-0.71988 209:-0.730711 210:0.0486403 211:0.0744469 212:-0.254636 213:0.318832 214:0.490286 215:0.738982 216:-0.583248 217:-0.634987 218:0.880927 219:-0.817303 220:-0.834375 221:-0.609449 222:-0.361463 223:-0.455339 224:0.329703 225:-0.801888 226:-0.663419 227:0.446135 228:-0.836935 229:-0.194083 230:0.0151845 231:-0.0495929 232:-0.936306 233:-0.965997 234:-0.39103 235:-0.11102 236:0.131842 237:0.202907 238:0.371282 239:-0.251311 240:-0.673214 241:-0.620192 242:0.493921 243:-0.570436 244:-0.679767 245:-0.842466 246:-0.0578683 247:-0.575902 248:0.474983 249:-0.554715 250:-0.323916 251:-0.0588467 252:-0.604704 253:-0.287663 254:0.435123 255:-0.40619 256:-0.771509 257:-0.909884 258:0.0713126 259:-0.115246 260:0.146113 261:-0.408978 262:-0.165892 263:-0.00624187 264:-0.753994 265:-0.239786 266:0.643049 267:-0.347916 268:-0.596694 269:-0.556 270:0.041486 271:-0.059539 272:0.119264 273:-0.466375 274:-0.260786 275:0.703189 276:-0.220746 277:0.275225 278:0.543323 279:-0.17483 280:-0.766129 281:-0.919137 282:0.236745 283:-0.221506 284:0.136477 285:-0.336507 286:-0.114248 287:0.610042 288:-0.440696 289:-0.134182 290:0.528013 291:-0.225947 292:-0.916435 293:-0.829662 294:0.175266 295:0.0549964 296:-0.287705 297:-0.0851385 298:0.112065 299:0.685437 300:-0.518487 301:-0.114423 302:0.293493 303:-0.164218 304:-0.880795 305:-0.883527 306:-0.714421 307:-0.297071 308:0.180286 309:-0.41132 310:-0.184637 311:0.0059126 312:-0.635851 313:-0.534712 314:0.865669 315:-0.724524 316:-0.900929 317:-0.587393 318:-0.216003 319:-0.327195 320:0.209624 321:-0.692396 322:-0.52792 323:0.94756 324:-0.454839 325:-0.0991189 326:0.466295 327:-0.246946 328:-0.717791 329:-0.637681 330:-0.0698716 331:0.317639 332:-0.319724 333:-0.337285 334:-0.110391 335:0.0867147 336:-0.588287 337:-0.654809 338:0.624226 339:-0.644854 340:-0.960591 341:-0.882129 342:-0.0761062 343:-0.310008 344:0.140525 345:-0.47734 346:-0.268341 347:-0.467228 348:-0.694957 349:0.124218 350:0.0886071 351:-0.0310306 352:-0.649547 353:-0.664957 354:-0.158705 355:-0.7949 356:0.849996 357:0.660235 358:0.769896 359:-0.123837 360:-0.80179 361:-0.520089 362:0.512745 363:-0.494592 364:-0.772201 365:-0.736138 366:-0.19917 367:0.0247365 368:0.155216 369:-0.722573 370:-0.510434 371:-0.449014 372:-0.618378 373:-0.473404 374:0.334983 375:-0.404194 376:-0.773309 377:-0.801379 378:-0.433794 379:0.265175 380:-0.426044 381:-0.955912 382:-0.703352 383:-0.171318 384:-0.608306 
0 0 0 2.025892849206579 0 0 1:0.190328 2:-0.753945 3:0.193394 4:-0.626632 5:-0.419277 6:0.058569 7:0.12615 8:-0.0237968 9:-0.447425 10:-0.0996474 11:-0.127146 12:-0.397459 13:-0.141926 14:-0.129387 15:-0.0908982 16:-0.911932 17:-0.618677 18:-0.0845514 19:0.171573 20:-0.277425 21:-0.360667 22:-0.117675 23:-0.442769 24:-0.41705 25:0.253812 26:0.0304409 27:0.0854955 28:-0.734597 29:-0.692821 30:0.431526 31:0.0711588 32:0.214338 33:-0.645449 34:-0.443382 35:0.0445028 36:0.818142 37:-0.326968 38:0.149946 39:-0.379184 40:-0.446677 41:-0.960184 42:-0.0532595 43:-0.0603255 44:0.019354 45:-0.690492 46:-0.693577 47:0.236626 48:-0.35816 49:-0.0659384 50:0.0995163 51:-0.180578 52:-0.536189 53:-0.681452 54:0.327894 55:-0.312313 56:0.224122 57:-0.323042 58:-0.038714 59:-0.0883033 60:-0.602884 61:-0.116437 62:-0.331792 63:0.203657 64:-0.525268 65:-0.346457 66:0.13632 67:-0.195215 68:0.163341 69:-0.298441 70:-0.0873147 71:-0.0301723 72:-0.493123 73:0.173651 74:0.48587 75:-0.201612 76:-0.326633 77:-0.47181 78:0.3217 79:0.236262 80:0.0493046 81:-0.258067 82:-0.0833684 83:0.531529 84:-0.179852 85:-0.282015 86:-0.425465 87:0.152533 88:-1 89:-0.568058 90:-0.425911 91:-0.478123 92:0.0710988 93:0.063743 94:0.248635 95:0.0250893 96:-0.782737 97:-0.352349 98:0.133003 99:-0.252643 100:-0.758577 101:-0.176 102:0.0730546 103:-0.297196 104:0.459519 105:-0.622889 106:-0.421725 107:-0.177167 108:-0.232073 109:0.0535929 110:-0.0853987 111:0.162011 112:-0.288956 113:-0.609831 114:-0.107664 115:-0.248194 116:0.188573 117:0.451948 118:0.667957 119:-0.128029 120:-0.506529 121:-0.475237 122:-0.171092 123:-0.151417 124:-0.323782 125:-0.686654 126:-0.25099 127:-0.375878 128:0.18917 129:-0.395263 130:-0.195528 131:-0.334132 132:-0.100465 133:-0.38607 134:0.276447 135:-0.577643 136:-0.786207 137:-0.927619 138:0.427894 139:0.136376 140:0.298635 141:-0.645337 142:-0.464178 143:0.0240532 144:-0.401028 145:-0.560838 146:-0.0763545 147:-0.114659 148:-1 149:-0.421818 150:-0.60114 151:-0.0460001 152:-0.185292 153:-0.505123 154:-0.26201 155:-0.144974 156:-0.615833 157:0.218919 158:-0.73913 159:0.209115 160:-0.964018 161:-0.19322 162:-0.163152 163:-0.470356 164:0.341227 165:-0.226176 166:-0.0251053 167:-0.158143 168:-0.57825 169:0.166391 170:0.702408 171:-0.0819317 172:-0.696113 173:-0.125 174:-0.568453 175:0.085766 176:-0.503728 177:-0.531465 178:-0.249072 179:0.21104 180:-0.531201 181:-0.154764 183:-0.154764 184:-0.664122 185:-1 186:-0.826594 187:0.163783 188:-0.669104 189:-0.831249 190:-0.411854 191:-0.567292 192:-0.908048 193:0.138156 194:-0.793442 195:0.609779 196:-0.618301 197:-0.428 198:0.456835 199:0.516354 200:-0.277187 201:0.0192313 202:0.353425 203:-0.359245 204:-0.410772 205:-0.41569 206:-0.215357 207:-0.139456 208:-0.885542 209:-0.888048 210:0.0250137 211:0.0255417 212:-0.12629 213:-0.522093 214:-0.318921 215:-0.53492 216:-0.348084 217:-0.0318441 218:-0.754911 219:0.467244 220:-0.709375 221:-0.716535 222:-0.0501443 223:-0.420937 224:0.354814 225:-0.315499 226:-0.0700429 227:-0.506779 228:0.0401277 229:-0.153056 230:0.882507 231:-0.566517 232:-0.455414 233:-0.984544 234:-0.0293723 235:0.102551 236:0.0118743 237:-0.320036 238:-0.128645 239:0.305003 240:-0.630834 241:-0.105804 242:0.298131 243:-0.203637 244:-0.644833 245:-0.616438 246:0.0127405 247:-0.37149 248:0.135669 249:-0.2524 250:0.00693504 251:0.220808 252:-0.628826 253:-0.225098 254:0.017364 255:-0.0987824 256:-0.571227 257:-0.534884 258:-0.226472 259:-0.115964 260:-0.175452 261:-0.02237 262:0.217245 263:-0.184264 264:-0.763535 265:-0.448899 266:0.41007 267:-0.324933 268:-0.775207 269:-0.624 270:0.0495356 271:-0.360923 272:0.309537 273:-0.207472 274:0.00636291 275:0.125146 276:-0.730336 277:0.205941 278:0.266346 279:-0.0325362 280:-0.905914 281:-0.867925 282:-0.26831 283:-0.322171 284:-0.170551 285:-0.0401587 286:0.18086 287:0.14314 288:-0.691904 289:-0.906677 290:0.575455 291:-0.754981 292:-0.640669 293:-0.538913 294:0.191231 295:-0.19157 296:-0.168685 297:-0.513678 298:-0.339248 299:-0.507819 300:-0.763245 301:-0.129307 302:-0.0475854 303:0.00102327 304:-0.284768 305:-0.341098 306:-0.44094 307:0.0382613 308:-0.269442 309:-0.252902 310:-0.0136454 311:-0.0237642 312:-0.60242 313:-0.0854502 314:-0.00383182 315:0.0677302 316:-0.733746 317:-0.418338 318:-0.0762269 319:-0.102342 320:-0.122349 321:-0.229332 322:0.000926283 323:0.160632 324:-0.339822 325:0.0969699 326:0.380154 327:-0.0999245 328:-0.935583 329:-0.405797 330:0.170636 331:-0.257192 332:0.12315 333:-0.336271 334:-0.116106 335:0.114084 336:-0.373125 337:-0.710763 338:0.319867 339:-0.455693 340:-0.458128 341:-0.391635 342:-0.213432 343:0.0369702 344:-0.574706 345:-0.358749 346:-0.125616 347:-0.326781 348:-0.718786 349:0.120644 350:-0.210825 351:0.138639 352:-0.984894 353:-0.476923 354:-0.177081 355:-0.503631 356:0.683293 357:0.166424 358:0.387938 359:-0.184847 360:-0.614496 361:-0.314038 362:0.181309 363:-0.168165 364:-0.687259 365:-0.487572 366:-0.352141 367:0.587157 368:-0.433591 369:-0.522737 370:-0.259912 371:-0.557895 372:-0.566939 373:-0.172245 374:0.152234 375:-0.162239 376:-0.235832 377:-0.751724 378:-0.433794 379:0.267279 380:-0.397457 381:-0.818402 382:-0.39803 383:0.264543 384:-0.830865 
0 1.795262728692311 1.170433552010738 0 3.362611217270755 0 1:-0.485534 2:-0.527193 3:-0.484463 4:-0.660574 5:-0.537349 6:-0.196525 7:0.0761399 8:-0.132406 9:-0.638438 10:-0.327333 11:-0.562782 12:-0.855439 13:-0.137532 14:0.227317 15:-0.378114 16:-0.522727 17:-0.924773 18:-0.0655607 19:0.253182 20:-0.267351 21:-0.448563 22:-0.212087 23:-0.317653 24:-0.607718 25:-0.166026 26:0.436967 27:-0.56916 28:-0.687204 29:-0.799666 30:0.521862 31:0.162779 32:0.224501 33:-0.705402 34:-0.513431 35:-0.273526 36:-0.422098 37:0.182275 38:0.590313 39:-0.298771 40:-0.87017 41:-0.546708 42:0.261521 43:-0.382373 44:0.551457 45:-0.596863 46:-0.498636 47:0.512067 48:-0.311274 49:-0.221567 50:0.524646 51:-0.672648 52:-0.745938 53:-0.516129 54:0.726877 55:-0.314393 56:0.511959 57:-0.756956 58:-0.562877 59:-0.182244 60:-0.454618 61:-0.0948078 62:0.535098 63:-0.57713 64:-0.638591 65:-0.389764 66:0.437712 67:0.0117315 68:0.303964 69:-0.734413 70:-0.590916 71:0.163848 72:-0.653911 73:-0.212453 74:0.682931 75:-0.717773 76:-0.59799 77:-0.949555 78:0.370162 79:0.343125 80:0.0554175 81:-0.849544 82:-0.667399 83:0.0574502 84:-0.430205 85:-0.626347 86:0.0452927 87:-0.47201 88:-0.494681 89:-0.872958 90:-0.550259 91:0.0775693 92:-0.423504 93:-0.608776 94:-0.414914 95:0.35779 96:-0.455863 97:-0.360044 98:0.572217 99:-0.666562 100:-1 101:-0.316 102:0.0841404 103:-0.0545408 104:0.17121 105:-0.795155 106:-0.757806 107:0.667373 108:-0.598532 109:-0.233273 110:0.276391 111:-0.394259 112:-0.996974 113:-0.502304 114:0.24944 115:-0.424314 116:0.546307 117:-0.394606 118:-0.0367471 119:-0.403649 120:-0.301243 121:-0.316924 122:0.655282 123:-0.724394 124:-0.52149 125:-0.415861 126:0.533104 127:0.137999 128:0.318984 129:-0.715272 130:-0.539245 131:-0.000441471 132:-0.627602 133:-0.467249 134:0.695176 135:-0.907948 136:-0.903448 137:-0.569524 138:0.63995 139:0.161663 140:0.463191 141:-0.794854 142:-0.660782 143:0.0153377 144:-0.581249 145:-0.65367 146:0.932282 147:-0.88151 148:-1 149:-0.72 150:-0.200437 151:0.0122265 152:0.0618786 153:-0.882304 154:-0.782985 155:0.214563 156:-0.790068 157:-0.132433 158:-0.73913 159:-0.13941 160:-0.577211 161:-0.352542 162:-0.338178 163:-0.445994 164:0.16729 165:-0.606259 166:-0.398442 167:-0.355059 168:-0.686617 169:-0.887384 170:0.666515 171:-0.905427 172:-0.325088 173:-0.764706 174:-0.964789 175:0.133473 176:-0.757205 177:-1 178:-0.977673 179:0.0600162 180:-0.559163 181:-1 183:-1 184:-1 185:-1 186:-1 187:0.0301604 188:-0.675113 189:-1 190:-1 191:-0.966962 192:-1 193:-0.469277 194:0.137778 195:-0.248872 196:-0.654902 197:-0.48 198:-0.312081 199:0.511598 200:-0.481306 201:-0.486352 202:-0.107818 203:-0.0593778 204:-0.796691 205:-0.226274 206:-0.163532 207:-0.046303 208:-0.906627 209:-0.588502 210:-0.00866411 211:-0.0996082 212:-0.0185585 213:-0.258477 214:-0.0318727 215:-0.334978 216:-0.437154 217:-0.518817 218:0.471362 219:-0.516669 220:-0.7125 221:-0.455118 222:0.290226 223:-0.948917 224:0.982579 225:-0.59021 226:-0.375213 227:0.155203 228:-0.885261 229:0.105705 230:0.302458 231:-0.0411155 232:-0.894904 233:-0.440495 234:-0.17528 235:-0.10228 236:0.223057 237:-0.10194 238:0.0921246 239:0.107634 240:-0.47458 241:-0.327485 242:0.79785 243:-0.596941 244:-0.726346 245:-0.482877 246:0.474322 247:-0.451173 248:0.430508 249:-0.515522 250:-0.276798 251:0.420982 252:-0.632806 253:-0.415511 254:0.369484 255:-0.421752 256:-0.881523 257:-0.56686 258:0.500358 259:-0.576969 260:0.71547 261:-0.558707 262:-0.33907 263:-0.150049 264:-0.573019 265:-0.230343 266:0.792665 267:-0.447945 268:-0.633058 269:-0.588 270:0.420924 271:-0.531803 272:0.698858 273:-0.621976 274:-0.448722 275:0.710608 276:-0.201932 277:-7.03417e-05 278:0.150834 279:-0.0582488 280:-0.954301 281:-0.93531 282:0.284598 283:-0.18834 284:-0.0378197 285:-0.380378 286:-0.155739 287:0.107606 288:-0.333626 289:-0.591494 290:0.539083 291:-0.526809 292:-0.933148 293:-0.550661 294:-0.0677142 295:0.0582717 296:-0.503789 297:-0.569751 298:-0.395557 299:0.00172527 300:-0.587789 301:-0.616994 302:0.640176 303:-0.627607 304:-0.721854 305:-0.750416 306:-0.432313 307:0.177606 308:-0.336898 309:-0.640896 310:-0.447014 311:-0.0483406 312:-0.913262 313:-0.509778 314:0.387283 315:-0.434179 316:-0.535604 317:-0.707736 318:0.401107 319:-0.213433 320:0.258154 321:-0.452071 322:-0.236353 323:-0.318839 324:-0.655979 325:-0.469129 326:0.545247 327:-0.475163 328:-0.51227 329:-0.742029 330:-0.0417424 331:-0.0366027 332:-0.107943 333:-0.412867 334:-0.195822 335:-0.169757 336:-0.635109 337:-0.782713 338:0.823183 339:-0.876291 340:-0.937603 341:-0.859316 342:-0.496578 343:-0.116885 344:-0.260913 345:-0.781183 346:-0.646118 347:0.0830296 348:-0.841427 349:-0.0464706 350:0.113051 351:-0.140641 352:-0.589124 353:-0.517949 354:-0.271739 355:-0.394225 356:0.452702 357:-0.172637 358:0.0842818 359:-0.205963 360:-0.642988 361:-0.866506 362:1 363:-1 364:-0.277992 365:-0.403442 366:-0.092461 367:0.639453 368:-0.419859 369:-0.941207 370:-0.874756 371:-0.246821 372:-0.776205 373:-1 374:1 375:-1 376:-1 377:-1 378:-0.433794 379:0.313107 380:-0.48479 381:-1 382:-1 383:0.255097 384:-1 
0 0 2.363407287719085 1.31817928517205 0 1.195506884322227 1:0.102727 2:-0.338638 3:0.104235 4:-0.746736 5:-0.987952 6:-0.12141 7:0.491283 8:-0.411959 9:-0.040089 10:0.303814 11:-0.196483 12:-0.628591 13:0.169444 14:-0.486009 15:0.425312 16:-0.772727 17:-0.740597 18:-0.0494974 19:-0.489358 20:0.114682 21:0.34992 22:0.514501 23:-0.302742 24:-0.555407 25:-0.309561 26:0.146955 27:-0.406692 28:-0.608215 29:-0.712855 30:0.128616 31:-0.282488 32:0.196313 33:-0.563315 34:-0.314422 35:-0.0104505 36:-0.416345 37:-0.153732 38:0.548168 39:-0.576202 40:-0.842349 41:-0.828484 42:0.0803107 43:-0.957129 44:0.660425 45:-0.861545 46:-0.597103 47:0.555176 48:-0.757545 49:-0.106801 50:0.18073 51:-0.281251 52:-0.837518 53:-0.758065 54:0.200248 55:-0.604361 56:0.278124 57:-0.466257 58:-0.156584 59:0.138161 60:-0.7235 61:-0.320643 62:0.282588 63:-0.505277 64:-0.776417 65:-0.799213 66:0.46816 67:0.221277 68:0.239634 69:-0.703277 70:-0.521254 71:-0.0421094 72:-0.522021 73:-0.24405 74:0.589812 75:-0.65428 76:-0.932998 77:-0.818991 78:0.54308 79:-0.135254 80:0.535817 81:-0.50867 82:-0.380354 83:-0.249648 84:-0.699519 85:-0.322981 86:0.337085 87:-0.496635 88:-0.904255 89:-0.735027 90:0.196937 91:-0.0807092 92:0.251415 93:-0.613212 94:-0.459575 95:-0.233429 96:-0.444009 97:-0.199801 98:0.646062 99:-0.626052 100:-0.931385 101:-0.684 102:0.59552 103:-0.0842958 104:0.611869 105:-0.631145 106:-0.527798 107:0.0370402 108:-0.647019 109:-0.713667 110:-0.225162 111:-0.292279 112:-0.93646 113:-0.760369 114:-0.0639765 115:0.0129989 116:-0.0202897 117:-0.47309 118:-0.304725 119:-0.710929 120:0.391741 121:-0.264237 122:0.419391 123:-0.477446 124:-0.813754 125:-0.852998 126:-0.0372135 127:-0.414623 128:0.299093 129:-0.642099 130:-0.501118 131:0.481261 132:-0.0414319 133:-0.31847 134:0.488426 135:-0.673291 136:-0.809195 137:-0.569524 138:0.663406 139:-0.194786 140:0.721802 141:-0.745245 142:-0.56117 143:-0.00575248 144:-0.380851 145:-0.455679 146:0.296489 147:-0.274196 148:-0.540587 149:-0.923636 150:-0.206534 151:0.693902 152:-0.389249 153:-0.550787 154:-0.308243 155:-0.242254 156:-0.632463 157:-0.162162 158:-1 159:-0.152815 160:-0.688156 161:-0.488136 162:-0.0981272 163:0.267876 164:-0.321964 165:-0.299065 166:-0.0756349 167:-0.475442 168:-0.804612 169:-0.621998 170:0.632476 171:-0.685374 172:-0.69258 173:-0.871324 174:-0.819238 175:0.0926814 176:-0.615188 177:-0.893582 178:-0.775264 179:-0.157675 180:-0.74065 181:-1 183:-1 184:-1 185:-1 186:-1 187:0.0301604 188:-0.675113 189:-1 190:-1 191:-0.966962 192:-1 193:-0.353289 194:-0.286036 195:0.036772 196:-0.751634 197:-0.608 198:0.415451 199:-0.059612 200:0.00174047 201:-0.278596 202:0.101798 203:-0.661269 204:-0.535103 205:0.223417 206:-0.358801 207:0.331247 208:-0.789157 209:-0.706505 210:-0.394635 211:-0.468267 212:0.186048 213:0.35118 214:0.520111 215:0.161687 216:-0.679073 217:-0.301774 218:-0.093624 219:-0.0677549 220:-0.640625 221:-0.593701 222:-0.215724 223:0.24468 224:-0.198225 225:-0.200694 226:0.0485365 227:-0.352988 228:-0.768936 229:-0.775157 230:-0.377431 231:-0.168769 232:-0.83121 233:-0.84544 234:-0.762216 235:0.447654 236:-0.488088 237:-0.382276 238:-0.19232 239:-0.732746 240:0.154483 241:0.321299 242:0.446929 243:-0.075423 244:-0.813683 245:-0.791096 246:-0.20318 247:0.100771 248:-0.203805 249:-0.0724105 250:0.181939 251:0.281639 252:-0.500637 253:0.177775 254:0.0814697 255:0.0453774 256:-0.853315 257:-0.784884 258:-0.270392 259:-0.113758 260:0.0574239 261:-0.477874 262:-0.242415 263:0.0351821 264:-0.00275427 265:-0.334585 266:0.372021 267:-0.21978 268:-0.963636 269:-0.48 270:0.601316 271:-0.567018 272:0.797511 273:0.019695 274:0.217491 275:0.12261 276:-0.678191 277:-0.314183 278:0.449153 279:-0.39819 280:-0.833333 281:-0.948787 282:0.550915 283:-0.666131 284:0.656662 285:-0.294132 286:-0.0765045 287:-0.325152 288:-0.803495 289:-0.26394 290:0.749995 291:-0.469814 292:-0.955432 293:-0.982379 294:-0.100897 295:-0.0832956 296:-0.181351 297:-0.440871 298:-0.258394 299:0.682744 300:-0.501285 301:0.0986626 302:0.359047 303:-0.0760073 304:-0.735099 305:-0.600666 306:0.0290355 307:0.0239207 308:0.0602034 309:-0.509686 310:-0.293492 311:0.135783 312:-0.196289 313:-0.393159 314:0.711477 315:-0.543505 316:-0.826625 317:-0.813754 318:-0.119256 319:0.154437 320:-0.215293 321:-0.382838 322:-0.156983 323:0.725621 324:-0.654727 325:-0.0387613 326:0.339533 327:-0.142682 328:-0.720859 329:-0.756522 330:0.0178223 331:-0.368199 332:0.333994 333:-0.260976 334:-0.040457 335:0.26287 336:-0.169755 337:-0.468598 338:0.566979 339:-0.480356 340:-0.576355 341:-0.91635 342:-0.123261 343:-0.176021 344:0.00405087 345:-0.289046 346:-0.0637932 347:0.0538415 348:-0.754784 349:-0.178731 350:0.347883 351:-0.349349 352:-0.706949 353:-0.74359 354:-0.186602 355:-0.873868 356:0.895346 357:-0.254473 358:0.0109472 359:-0.134221 360:-0.83437 361:-0.676476 362:0.924205 363:-0.841513 364:-0.853282 365:-0.671128 366:-0.179137 367:0.134102 368:0.0462824 369:-0.90186 370:-0.79657 371:-0.192338 372:-0.711736 373:-1 374:1 375:-1 376:-1 377:-1 378:-0.433794 379:0.313107 380:-0.48479 381:-1 382:-1 383:0.255097 384:-1 
0 2.539057150186604 2.573646418881124 0 2.655088691723629 0 1:-0.179874 2:-0.360605 3:-0.178807 4:-0.767624 5:-0.662651 6:-0.182225 7:0.436352 8:-0.398156 9:-0.108299 10:0.240208 11:-0.293718 12:-0.726285 13:0.225911 14:-0.479977 15:0.461361 16:-0.78125 17:-0.748379 18:-0.0202934 19:-1 20:0.340912 21:0.271612 22:0.532439 23:-0.346897 24:-0.524542 25:-0.368786 26:0.439451 27:-0.710778 28:-0.617694 29:-0.913189 30:0.215522 31:-0.0184962 32:0.125539 33:-0.704283 34:-0.521394 35:-0.128676 36:-0.546906 37:-0.112013 38:0.675905 39:-0.652404 40:-0.839258 41:-0.699847 42:0.124913 43:-0.578183 44:0.471645 45:-0.773913 46:-0.705688 47:0.606141 48:-0.551607 49:-0.291175 50:0.532155 51:-0.721403 52:-0.837518 53:-0.677419 54:0.252606 55:-0.439179 56:0.219664 57:-0.578254 58:-0.315286 59:0.252986 60:-0.888802 61:-0.182791 62:0.642232 63:-0.737867 64:-0.669219 65:-0.799213 66:0.500125 67:0.366262 68:0.200916 69:-0.846271 70:-0.687737 71:0.137887 72:-0.615841 73:-0.329155 74:0.824421 75:-0.95308 76:-0.58124 77:-0.821958 78:0.475544 79:0.251392 80:0.259701 81:-0.827935 82:-0.715526 83:-0.0498874 84:-0.696863 85:-0.194809 86:0.430223 87:-0.482513 88:-0.670213 89:-0.934664 90:0.158096 91:0.435363 92:-0.0266129 93:-0.6716 94:-0.410041 95:-0.166402 96:-0.469198 97:-0.0445189 98:0.802914 99:-0.666158 100:-0.954257 101:-0.692 102:0.567701 103:-0.0799574 104:0.583236 105:-0.820493 106:-0.79556 107:0.122211 108:-0.451601 109:-0.525598 110:0.0268507 111:-0.384149 112:-0.6823 113:-0.763441 114:-0.0765836 115:0.239688 116:-0.150483 117:-0.261262 118:-0.0580126 119:-0.236908 120:-0.511853 121:-0.585473 122:0.481609 123:-0.804424 124:-0.816619 125:-0.837524 126:0.0504962 127:-0.146546 128:0.199537 129:-0.835667 130:-0.793833 131:0.073983 132:-0.457555 133:-0.461726 134:0.386193 135:-0.700018 136:-0.956322 137:-0.695238 138:0.517781 139:-0.216214 140:0.607955 141:-0.725019 142:-0.532303 143:-0.180364 144:-0.392871 145:-0.455729 146:0.524493 147:-0.428942 148:-0.55095 149:-0.923636 150:-0.26714 151:0.855866 152:-0.523783 153:-0.767122 154:-0.522187 155:0.150848 156:-0.59369 157:-0.156757 158:-1 159:-0.147453 160:-0.70015 161:-0.99322 162:-0.205651 163:0.252906 164:-0.347795 165:-0.249997 166:-0.0438009 167:-0.395327 168:-0.772908 169:-0.660315 170:0.698373 171:-0.735068 172:-0.85159 173:-0.871324 174:-0.871456 175:-0.233687 176:-0.488001 177:-0.920405 178:-0.829839 179:-0.0179122 180:-0.59048 181:-1 183:-1 184:-1 185:-1 186:-1 187:0.0301604 188:-0.675113 189:-1 190:-1 191:-0.966962 192:-1 193:-0.165089 194:0.0607798 195:-0.011468 196:-0.762092 197:-0.62 198:0.466718 199:-0.100932 200:0.00234518 201:-0.389043 202:-0.0043756 203:0.0913698 204:-0.536394 205:-0.0616884 206:-0.236391 207:0.0925619 208:-0.840361 209:-0.806354 210:-0.406299 211:-0.392223 212:0.0834261 213:0.175141 214:0.372541 215:0.153793 216:-0.638164 217:-0.444904 218:0.335668 219:-0.395734 220:-0.921875 221:-0.606299 222:0.0267238 223:0.0413027 224:0.0357353 225:-0.316733 226:-0.0696972 227:-0.0885193 228:-0.883759 229:-0.729397 230:0.544803 231:-0.717078 232:-0.894904 233:-0.632148 234:-0.0519667 235:-0.24728 236:0.327152 237:-0.513339 238:-0.338993 239:-0.438128 240:-0.474108 241:-0.33072 242:0.41728 243:-0.383016 244:-0.819505 245:-0.722603 246:0.317699 247:-0.18776 248:0.214312 249:-0.370758 250:-0.114496 251:-0.104725 252:-0.583428 253:-0.39887 254:0.36207 255:-0.409093 256:-0.856135 257:-0.968023 258:0.445889 259:-0.679422 260:0.7869 261:-0.684084 262:-0.496781 263:-0.143442 264:-0.422081 265:-0.831828 266:0.398701 267:-0.578377 268:-0.761983 269:-0.496 270:0.292998 271:-0.536 272:0.673221 273:-0.561383 274:-0.375563 275:-0.110884 276:-0.622232 277:-0.599452 278:0.512153 279:-0.575117 280:-0.83871 281:-0.668464 282:0.0421924 283:-0.454894 284:0.338828 285:-0.374945 286:-0.159603 287:-0.150232 288:-0.895597 289:-0.378304 290:0.163916 291:-0.118571 292:-0.955432 293:-0.947137 294:0.070206 295:-0.237012 296:0.0496481 297:-0.392201 298:-0.208123 299:-0.196916 300:-0.249147 301:-0.384225 302:0.177577 303:-0.25914 304:-0.741722 305:-0.610649 306:-0.107366 307:0.281995 308:-0.203747 309:-0.419435 310:-0.187944 311:-0.434412 312:-0.60393 313:-0.787978 314:0.75757 315:-0.828462 316:-0.625387 317:-0.991404 318:0.165397 319:0.0746475 320:-0.0279734 321:-0.668992 322:-0.494207 323:0.378695 324:-0.722533 325:-0.574549 326:0.352969 327:-0.41376 328:-0.665644 329:-0.762319 330:0.160745 331:-0.255621 332:0.292679 333:-0.286151 334:-0.0656707 335:-0.0324664 336:-0.746161 337:-0.364106 338:0.577601 339:-0.419765 340:-0.589491 341:-0.787072 342:-0.330075 343:0.30304 344:-0.482075 345:-0.54347 346:-0.33479 347:0.388372 348:-0.355129 349:-0.137623 350:0.470973 351:-0.396897 352:-0.719033 353:-0.801709 354:-0.129127 355:-0.761822 356:0.805732 357:-0.225944 358:0.0363644 359:-0.0460698 360:-0.799057 361:-0.539163 362:0.752252 363:-0.654317 364:-0.853282 365:-0.835564 366:-0.254679 367:0.204145 368:-0.0506752 369:-0.883302 370:-0.764653 371:-0.108763 372:-0.559157 373:-1 374:1 375:-1 376:-1 377:-1 378:-0.433794 379:0.313107 380:-0.48479 381:-1 382:-1 383:0.255097 384:-1 
3.420608314815588 2.351127565293017 3.645101426627533 0.766554688700522 0 0 1:-0.826919 2:-0.74333 3:-0.825744 4:-0.81201 5:-0.640964 6:-0.529959 7:-0.120174 8:-0.202427 9:-0.8121 10:-0.576714 11:-0.788963 12:-0.953857 13:0.149821 14:-0.445772 15:0.378317 16:-0.866477 17:-0.805447 18:0.39309 19:-0.606157 20:0.44124 21:-0.330971 22:-0.0943716 23:-0.883614 24:0.670707 25:0.376548 26:-0.0920049 27:0.280121 28:-0.696682 29:-0.913189 30:0.0130031 31:0.729313 32:-0.365802 33:0.118554 34:0.431613 35:0.320694 36:-0.505872 37:-0.317826 38:0.32821 39:-0.53161 40:-0.780526 41:-0.972435 42:-0.106018 43:0.43498 44:-0.31407 45:-0.460883 46:-0.310366 47:0.270347 48:-0.861855 49:-0.61009 50:0.237708 51:-0.636283 52:-0.621861 53:-0.899194 54:0.0928217 55:0.395567 56:-0.360868 57:-0.639384 58:-0.252021 59:0.00410527 60:-0.694638 61:-0.303057 62:0.226605 63:-0.441402 64:-0.598775 65:-0.65748 66:0.220684 67:0.399637 68:-0.10347 69:-0.643184 70:-0.402354 71:0.223184 72:-0.652409 73:-0.0923373 74:0.43885 75:-0.380297 76:-0.969849 77:-0.747774 78:0.397896 79:-0.289858 80:0.515044 81:-0.50347 82:-0.353549 83:-0.188339 84:-0.430844 85:-0.426743 86:-0.448172 87:0.0694932 88:-0.787234 89:-0.789474 90:-0.425251 91:0.101255 92:-0.29851 93:-0.206179 94:-0.00788727 95:-0.0341241 96:-0.359913 97:-0.517241 98:0.491474 99:-0.698579 100:-0.707751 101:-0.832 102:0.0173166 103:0.460098 104:-0.270626 105:-0.8881 106:-0.782629 107:0.54101 108:-0.4583 109:-0.531556 110:0.14418 111:-0.498191 112:-0.591528 113:-0.87404 114:-0.247627 115:-0.235249 116:-0.0354712 117:0.0332237 118:0.254387 119:-0.101603 120:-0.782746 121:-0.924317 122:0.36637 123:-0.994397 124:-0.667622 125:-0.756286 126:-0.168649 127:0.0510954 128:-0.0795183 129:-0.881709 130:-0.834776 131:-0.203208 132:-0.5063 133:-0.659632 134:0.510202 135:-0.912313 136:-0.988506 137:-0.588571 138:0.376704 139:-0.151108 140:0.456209 141:-0.903019 142:-0.801454 143:-0.0596186 144:-0.575619 145:-0.72878 146:-0.39351 147:-0.0486925 148:-0.509499 149:-0.876364 150:-0.893708 151:0.731911 152:-1 153:-0.012306 154:0.212257 155:-0.0567177 156:-0.724199 157:0.010811 158:-0.260869 159:-0.0268095 160:-0.757121 161:-0.555932 162:-0.368735 163:-0.190643 164:-0.0971317 165:-0.577079 166:-0.403905 167:0.108419 168:-0.262508 169:0.00891461 170:0.757434 171:-0.222744 172:-0.621908 173:-0.466912 174:-0.277539 175:-0.217453 176:-0.119885 177:-0.445361 178:-0.164591 179:-0.270093 180:-0.841004 181:-0.204819 183:-0.204819 184:-0.839695 185:-1 186:-0.737822 187:-0.0160208 188:-0.484639 189:-0.788071 190:-0.35358 191:-0.703652 192:-0.951994 193:-0.874592 194:0.67244 195:-0.778927 196:-0.80915 197:-0.712 198:0.462606 199:0.278209 200:-0.343622 201:-0.809971 202:-0.535817 203:-0.277771 204:-0.943429 205:0.279896 206:-0.184859 207:0.281151 208:-0.768072 209:-0.72466 210:-0.507011 211:-0.686643 212:0.368879 213:-0.0814204 214:0.14696 215:0.385876 216:-0.104447 217:-0.192571 218:-0.758018 219:0.372213 220:-0.78125 221:-0.688189 222:0.295855 223:0.0753597 224:0.0592649 225:0.297012 226:0.485731 227:-0.379991 228:-0.641658 229:-0.124192 230:0.233399 231:-0.142247 232:-0.751592 233:-0.768161 234:0.277566 235:-0.342301 236:0.506194 237:-0.43854 238:-0.252742 239:-0.00678603 240:-0.303209 241:-0.67661 242:0.509347 243:-0.607241 244:-0.819505 245:-0.667808 246:0.192518 247:-0.318608 248:0.295696 249:-0.530194 250:-0.293403 251:-0.0583679 252:-0.77431 253:-0.00880684 254:-0.0343715 255:0.0360225 256:-0.788434 257:-0.761628 258:-0.139021 259:-0.419518 260:0.382246 261:-0.171724 262:0.0738942 263:-0.189399 264:-0.581406 265:-0.58661 266:0.239401 267:-0.297527 268:-0.68595 269:-0.956 270:-0.214914 271:-0.18327 272:0.177902 273:-0.222751 274:-0.00801877 275:-0.0989594 276:-0.575362 277:-0.123929 278:0.0271009 279:-0.0392988 280:-0.698925 281:-0.948787 282:0.0203681 283:-0.114347 284:0.00315143 285:-0.0378835 286:0.180567 287:-0.0806426 288:-0.489827 289:-0.762664 290:0.616451 291:-0.692453 292:-0.961003 293:-0.662261 294:0.266749 295:-0.0381935 296:-0.134692 297:-0.69959 298:-0.564641 299:0.184241 300:-0.774155 301:-0.625193 302:0.312096 303:-0.465172 304:-0.582781 305:-0.780366 306:-0.245035 307:0.35233 308:-0.321765 309:-0.454154 310:-0.224523 311:-0.046436 312:-0.835228 313:-0.516098 314:0.49923 315:-0.50244 316:-0.839009 317:-0.82235 318:-0.0686396 319:0.287327 320:-0.316539 321:-0.6242 322:-0.433494 323:0.0501531 324:-0.546566 325:-0.554552 326:0.933397 327:-0.745602 328:-0.668712 329:-0.637681 330:0.0786356 331:0.10699 332:-0.0568187 333:-0.707562 334:-0.548833 335:0.545246 336:-0.768311 337:-0.511315 338:0.0678775 339:-0.138027 340:-0.865353 341:-0.631179 342:0.135542 343:0.810354 344:-0.88977 345:0.057231 346:0.287912 347:-0.76724 348:-0.481287 349:0.0366393 350:0.135748 351:-0.107107 352:-0.773414 353:-0.719658 354:-0.128423 355:-0.34961 356:0.453965 357:-0.205986 358:0.0518094 359:-0.126868 360:-0.45532 361:-0.702094 362:0.383573 363:-0.521258 364:-0.957529 365:-0.586998 366:-0.149672 367:-0.370662 368:0.508847 369:-0.473039 370:-0.192326 371:-0.462748 372:-0.88908 373:-0.204819 374:0.237495 375:-0.221157 376:-0.853748 377:-0.691034 378:-0.433794 379:0.132753 380:-0.272299 381:-0.796975 382:-0.363066 383:0.259487 384:-0.886818 
0.9442317476258044 1.600295516525878 3.479903670586961 5.535924549364188 0.8433696345110949 1.49270036425374 1:-0.720435 2:-0.692344 3:-0.719237 4:-0.953003 5:-1 6:-0.529282 7:0.195125 8:-0.507899 9:-0.794327 10:-0.551352 11:-0.632672 12:-0.8939 13:0.611378 14:-0.530714 15:0.782292 16:-0.900568 17:-0.346304 18:-0.0548367 19:0.0467111 20:-0.19704 21:0.12631 22:0.327667 23:-0.34576 24:-0.458346 25:-0.223708 26:0.203412 27:-0.398511 28:-0.49763 29:-0.415693 30:0.207677 31:-0.125454 32:0.239722 33:-0.523401 34:-0.271644 35:-0.00564636 36:-0.607294 37:0.25218 38:0.26408 39:0.0615254 40:-0.706337 41:-0.255743 42:0.0957448 43:-0.0371361 44:0.134759 45:-0.258579 46:-0.158451 47:0.344809 48:-0.503243 49:-0.326941 50:-0.319812 51:0.0563946 52:-0.542097 53:-0.258065 54:0.19912 55:-0.414392 56:0.246803 57:-0.307581 58:-0.000896385 59:-0.66628 60:0.124176 61:-0.228192 62:-0.0706773 63:-0.115337 64:-0.672282 65:-0.0984252 66:0.0508237 67:-0.441886 68:0.352658 69:-0.375192 70:-0.0929505 71:-0.121987 72:-0.62061 73:0.275117 74:0.234554 75:0.127148 76:-0.386935 77:-0.554896 78:0.385446 79:0.0301389 80:0.283724 81:-0.372234 82:-0.245514 83:0.147598 84:0.0224131 85:0.0762725 86:-0.203488 87:0.223235 88:-0.550532 89:-0.197822 90:-0.0323301 91:-0.376283 92:0.302816 93:-0.272943 94:-0.0766604 95:-0.095922 96:-0.366878 97:-0.371797 98:0.213137 99:-0.340461 100:-0.306226 101:-0.632 102:0.0778947 103:-0.207137 104:0.40217 105:-0.615629 106:-0.444244 107:-0.0615031 108:-0.584565 109:-0.455909 110:0.0582703 111:-0.360363 112:-0.906203 113:-0.72043 114:-0.057695 115:-0.229255 116:0.261253 117:-0.276314 118:0.0488266 119:-0.399363 120:-0.529436 121:-0.650168 122:-0.342732 123:-0.153427 124:-0.507163 125:-0.272727 126:-0.313481 127:-0.574116 128:0.40978 129:-0.419236 130:-0.0510407 131:-0.351149 132:-0.203413 133:0.210867 134:0.337707 135:-0.225117 136:-0.577011 137:-0.626667 138:0.647534 139:0.225388 140:0.362243 141:-0.724012 142:-0.536161 143:0.358699 144:0.54358 145:-0.548606 146:-0.20966 147:-0.0133415 148:-0.457686 149:-0.138182 150:-0.390033 151:0.130489 152:-0.153564 153:-0.468131 154:-0.265255 155:-0.443955 156:-0.264167 157:-0.0378379 158:-0.434783 159:-0.0643431 160:-0.922039 161:-0.586441 162:-0.229301 163:-0.213079 164:-0.00372241 165:-0.299595 166:-0.139718 167:-0.261589 168:-0.666909 169:0.432333 170:0.547207 171:0.17417 172:-0.328622 173:-0.963235 174:-0.433171 175:0.220216 176:-0.57175 177:-0.332008 178:0.0165352 179:-0.145976 180:-0.811438 181:0.147542 183:0.147542 184:-0.267176 185:-1 186:-0.713179 187:0.21235 188:-0.661987 189:-0.751095 190:-0.274691 191:-0.666472 192:-0.936258 193:-0.700205 194:0.649486 195:-0.653307 196:-0.887582 197:-0.836 198:0.480389 199:0.813121 200:-0.690067 201:-0.712191 202:-0.38655 203:-0.060245 204:-0.91926 205:0.433708 206:-0.546425 207:0.555124 208:-0.915663 209:-0.939486 210:-0.057215 211:0.042816 212:-0.135054 213:0.170727 214:0.366604 215:0.170611 216:-0.525842 217:-0.122339 218:0.10542 219:-0.0718162 220:-0.29375 221:-0.294488 222:-0.322626 223:-0.422668 224:0.286386 225:-0.334616 226:-0.0899008 227:-0.00826882 228:-0.778909 229:0.156027 230:0.776909 231:-0.306383 232:-0.850318 233:-0.171561 234:-0.206563 235:-0.00796603 236:0.159454 237:-0.432253 238:-0.249016 239:0.45947 240:-0.239077 241:0.364509 242:0.716175 243:-0.206413 244:-0.44687 245:-0.886986 246:0.0105352 247:-0.569176 248:0.410485 249:-0.504132 250:-0.264132 251:1 252:0.00047732 253:0.073715 254:-0.135788 255:0.141883 256:-0.35402 257:-0.502907 258:0.0516531 259:-0.523137 260:0.500079 261:-0.250567 262:-0.00340458 263:-0.0998474 264:-0.436926 265:-0.335486 266:0.3012 267:-0.169994 268:-0.507438 269:-0.512 270:-0.0753174 271:-0.570951 272:0.598098 273:-0.195761 274:0.0159432 275:-0.00380348 276:-0.505719 277:-0.185704 278:-0.160791 279:0.0501338 280:-0.658602 281:-0.401617 282:-0.0279829 283:-0.841537 284:0.685249 285:0.0225485 286:0.228137 287:-0.278641 288:-0.735666 289:-0.129191 290:0.538338 291:-0.230231 292:-0.746518 293:-0.582966 294:0.317954 295:-0.356917 296:0.131487 297:-0.512269 298:-0.342686 299:0.413176 300:-0.313453 301:-0.499029 302:-0.0861005 303:-0.190347 304:-0.695364 305:-0.700499 306:-0.0287717 307:-0.166342 308:0.116159 309:-0.596913 310:-0.398432 311:-0.256744 312:-0.418888 313:-0.670399 314:0.198118 315:-0.431013 316:-0.414861 317:-0.507163 318:-0.149898 319:-0.27461 320:0.0804165 321:-0.351585 322:-0.12692 323:-0.59275 324:-0.69465 325:-0.30598 326:0.3869 327:-0.301817 328:-0.555215 329:-0.46087 330:0.034017 331:-0.625602 332:0.611785 333:-0.287404 334:-0.0678546 335:0.186526 336:-0.590081 337:-0.438819 338:0.278845 339:-0.247053 340:-0.740558 341:-0.00380228 342:0.0623225 343:-0.41094 344:0.149761 345:-0.173493 346:0.0510304 347:-0.215469 348:-0.527675 349:-0.00268075 350:-0.00218226 351:-0.0500498 352:-0.939577 353:-0.825641 354:-0.166277 355:-0.310841 356:0.419465 357:-0.121635 358:0.132221 359:-0.133967 360:-0.665374 361:-0.437854 362:0.355617 363:-0.348903 364:-0.868726 365:-0.0630975 366:-0.134594 367:0.341739 368:0.0443079 369:-0.588566 370:-0.336643 371:-0.42986 372:-0.826091 373:-0.0954742 374:-0.0339912 375:-0.0307418 376:-0.115174 377:-0.45931 378:-0.433794 379:0.259586 380:-0.36333 381:-0.754935 382:-0.300657 383:0.182417 384:-0.877625 
1.004849913134864 0 0 0 0 0 1:-0.663404 2:-0.787342 3:-0.661782 4:-0.869452 5:-0.992771 6:-0.246867 7:0.23655 8:-0.318181 9:-0.663037 10:-0.355072 11:-0.770189 12:-0.939113 13:-0.0448794 14:-0.143897 15:-0.00868591 16:-0.764205 17:-0.706874 18:0.0165215 19:0.217147 20:-0.187327 21:0.104814 22:0.319106 23:-0.57695 24:-0.431999 25:-0.240718 26:0.172787 27:-0.382628 28:-0.933649 29:-0.54591 30:0.209645 31:-0.412766 32:0.361305 33:-0.318802 34:0.00073596 35:0.0224229 36:-0.60839 37:-0.35407 38:0.295044 39:-0.535686 40:-0.882535 41:-0.513017 42:-0.182371 43:-0.684959 44:0.338582 45:-0.433819 46:-0.157792 47:0.273095 48:-0.972009 49:-0.376687 50:0.404591 51:-0.652975 52:-0.932053 53:-0.516129 54:0.0755645 55:-0.559921 56:0.198501 57:-0.613277 58:-0.321597 59:0.342942 60:-0.904403 61:-0.591966 62:-0.17325 63:-0.278933 64:-0.457887 65:-0.858268 66:-0.157169 67:0.0331228 68:-0.298613 69:-0.318862 70:-0.0999255 71:0.123859 72:-0.715571 73:-0.426603 74:0.459375 75:-0.681904 76:-0.547739 77:-0.575668 78:0.184703 79:-0.0226387 80:0.193145 81:-0.633011 82:-0.517391 83:0.0203485 84:-0.492927 85:-0.570606 86:-0.45439 87:-0.0263557 88:-0.526596 89:-0.622505 90:-0.408167 91:-0.339546 92:-0.0503698 93:0.0611085 94:0.213562 95:-0.320481 96:-0.583535 97:-0.465726 98:-0.200614 99:-0.0195005 100:-0.542567 101:-0.74 102:-0.375525 103:0.369313 104:-0.599856 105:-0.157414 106:0.0840989 107:0.209193 108:-0.717184 109:-0.648864 110:0.0369503 111:-0.487516 112:-0.700454 113:-0.880184 114:-0.318779 115:0.291317 116:-0.406453 117:-0.113934 118:0.111558 119:-0.190948 120:-0.770161 121:-0.93726 122:0.291311 123:-0.94113 124:-0.979943 125:-0.384913 126:-0.518248 127:-0.157262 128:-0.211574 129:-0.884662 130:-0.870136 131:0.255238 132:-0.446577 133:-0.601428 134:0.378347 135:-0.786811 136:-0.83908 137:-0.405714 138:0.279481 139:-0.168239 140:0.425005 141:-0.914686 142:-0.79769 143:0.0829976 144:-0.290747 145:-0.846918 146:-0.0332178 147:-0.398126 148:-0.989637 149:-0.527273 150:-0.846674 151:0.135779 152:-0.592613 153:-0.327316 154:-0.125607 155:0.0605347 156:-0.900732 157:0.156757 158:2.6087e-07 159:0.101876 160:-0.550225 161:-0.420339 162:0.0137429 163:-0.215191 164:0.106756 165:0.0636555 166:0.146202 167:-0.435905 168:-0.818525 169:0.399708 170:0.656403 171:0.116255 172:-0.44523 173:-0.992647 174:-0.065957 175:0.406422 176:-0.352428 177:-0.135111 178:0.203441 179:-0.349248 180:-0.900324 181:0.00619843 183:0.00619843 184:-0.862595 185:-1 186:-0.504726 187:0.402399 188:-0.582509 189:-0.61151 190:-0.0902776 191:-0.798574 192:-0.971272 193:-0.765832 194:0.494652 195:-0.619718 196:-0.871895 197:-0.796 198:0.475089 199:0.360621 200:-0.268717 201:-0.601126 202:-0.239117 203:-0.286542 204:-0.940561 205:0.13544 206:-0.388786 207:0.290887 208:-0.653614 209:-0.564297 210:0.114685 211:-0.173957 212:0.0892828 213:0.139093 214:0.340426 215:0.144096 216:-0.434267 217:0.152052 218:-0.0638956 219:0.188774 220:-0.6625 221:-0.52126 222:-0.0987703 223:-0.710251 224:0.639109 225:-0.0233981 226:0.212118 227:0.173999 228:-0.755786 229:-0.41494 230:0.837895 231:-0.70303 232:-0.5 233:-0.455951 234:-0.368697 235:0.104743 236:-0.0719189 237:-0.411537 238:-0.22693 239:0.317866 240:-0.70049 241:-0.593108 242:0.774022 243:-0.715597 244:-0.598253 245:-0.678082 246:0.0313582 247:-0.147192 248:-0.0207231 249:-0.6174 250:-0.395434 251:0.369312 252:-0.713098 253:-0.0236537 254:-0.173842 255:0.122077 256:-0.895628 257:-0.912791 258:-0.0247337 259:-0.234393 260:0.172013 261:-0.189521 262:0.0581645 263:-0.257247 264:-0.550628 265:-0.733216 266:0.289097 267:-0.433025 268:-0.950413 269:-0.88 270:-0.355799 271:-0.330787 272:0.221576 273:-0.243217 274:-0.0294331 275:-0.520361 276:-0.459807 277:0.456109 278:-0.164137 279:0.360471 280:-0.706989 281:-0.824798 282:-0.116222 283:-0.393054 284:0.131059 285:0.107689 286:0.308157 287:-0.332818 288:-0.301662 289:-0.731769 290:0.307436 291:-0.44886 292:-0.738162 293:-0.806167 294:0.569253 295:0.0271999 296:-0.267988 297:-0.331384 298:-0.13295 299:-0.497568 300:-0.564533 301:-0.249353 302:0.692437 303:-0.444426 304:-0.847682 305:-0.976705 306:-0.228232 307:0.151556 308:-0.22865 309:-0.647049 310:-0.456195 311:0.427805 312:-0.51454 313:-0.8773 314:0.744286 315:-0.879347 316:-0.820433 317:-0.573066 318:-0.362076 319:0.16503 320:-0.425124 321:-0.765493 322:-0.619048 323:-0.406785 324:-0.73396 325:-0.467194 326:0.0397471 327:-0.176655 328:-0.696319 329:-0.794203 330:0.0234076 331:-0.23804 332:0.155692 333:-0.495008 334:-0.291577 335:-0.264533 336:-0.214227 337:-0.443025 338:0.338986 339:-0.294433 340:-0.6289 341:-0.977186 342:0.183815 343:0.234517 344:-0.504544 345:-0.0650531 346:0.165829 347:-0.206745 348:-0.737592 349:0.255585 350:-0.177652 351:0.195196 352:-0.564955 353:-0.487179 354:-0.147738 355:-0.394212 356:0.506466 357:0.605403 358:0.726689 359:-0.236375 360:-0.735563 361:0.0619986 362:0.0721122 363:0.120159 364:-0.741313 365:-0.57935 366:-0.0778132 367:-0.0125361 368:0.326001 369:0.125733 370:0.371406 371:-0.156525 372:-0.876196 373:0.00185053 374:-0.008839 375:0.00534445 376:-0.875686 377:-0.895172 378:-0.433794 379:0.0915304 380:-0.160656 381:-0.427376 382:0.0695196 383:0.252042 384:-0.934605 
