svm_type c_svc
kernel_type rbf
gamma 0.0078125
nr_class 7
total_sv 405
rho 0.510307 -1.02094 0.152957 0.660213 -0.173459 0.125207 -0.362835 -0.125979 -0.0390481 0.244186 -0.414807 0.273404 0.455143 -0.11352 0.436469 -0.0167294 -0.130935 -0.554726 -0.363394 -0.770478 -0.18061
label 5 7 1 6 4 2 3
probA -4.64905 -2.99918 -4.11756 -2.60222 -4.45048 -4.32209 -4.67136 -4.51092 -5.41608 -5.3782 -5.14519 -4.22635 -5.31454 -4.46758 -4.91024 -4.63337 -2.37407 -4.42587 -5.02303 -4.59556 -4.92893
probB 0.170904 -0.115576 -0.0272845 -0.0160267 0.0470385 0.106064 -0.189054 0.313979 0.390215 0.0249221 0.584279 -0.0835952 0.565382 0.110638 0.528017 0.112581 0.103047 0.205128 -0.296303 0.0950327 0.273781
nr_sv 56 69 85 43 57 61 34
SV
2.909318154279258 1.147553960134423 0.9764912635588661 5.872585226340166 1.17593768647411 2.400461142766686 1:-0.880785 2:-0.778654 3:-0.879518 4:-0.929504 5:-0.99759 6:-0.761808 7:0.083917 8:-0.503634 9:-0.9018 10:-0.767896 11:-0.580505 12:-0.873949 13:0.219342 14:-0.364798 15:0.23437 16:-0.693182 17:-0.647211 18:-0.0800607 19:-0.479529 20:0.107473 21:-0.128082 22:0.104398 23:-0.321206 24:-0.422507 25:0.0700215 26:0.126069 27:-0.107608 28:-0.807267 29:-0.877076 30:0.209309 31:-0.432543 32:0.346549 33:-0.395613 34:-0.104101 35:0.0596571 36:-0.457976 37:-0.133554 38:0.0567496 39:-0.205076 40:-0.76507 41:-0.671587 42:-0.128822 43:-0.177584 44:0.0301671 45:-0.350477 46:-0.207636 47:-0.0193467 48:-0.442383 49:-0.332949 50:0.560546 51:-0.76709 52:-0.754801 53:-0.451613 54:0.108344 55:-0.24384 56:0.105792 57:-0.801372 58:-0.679702 59:0.235008 60:-0.752066 61:-0.534501 62:-0.12388 63:-0.290094 64:-0.504188 65:-0.492126 66:0.054808 67:-0.228931 68:0.0651848 69:-0.27674 70:-0.0700348 71:-0.242157 72:-0.572308 73:-0.479017 74:-0.140148 75:-0.145832 76:-0.826087 77:-0.908012 78:-0.359215 79:0.0615881 80:-0.305568 81:-0.109617 82:0.0844834 83:-0.330846 84:-0.478275 85:-0.135712 86:0.334182 87:-0.362919 88:-0.941489 89:-0.796733 90:0.250042 91:-0.463742 92:0.526808 93:-0.668893 94:-0.483044 95:-0.181029 96:-0.434122 97:-0.141907 98:0.0593771 99:-0.0622552 100:-0.542567 101:-0.728 102:0.184072 103:0.334919 104:-0.111404 105:0.0834445 106:0.295612 107:0.0394798 108:-0.74364 109:-0.13898 110:-0.633393 111:0.5056 112:-0.549168 113:-0.84639 114:0.0684929 115:0.184506 116:-0.0305356 117:0.425643 118:0.460068 119:-0.765107 120:0.13795 121:-0.868474 122:-0.0777723 123:-0.574067 124:-0.679083 125:-0.876209 126:-0.461093 127:0.0291324 128:-0.292311 129:-0.600222 130:-0.437832 131:-0.282596 132:-0.485448 133:-0.496373 134:0.338346 135:-0.638081 136:-0.586207 137:-0.577143 138:0.158665 139:0.160349 140:0.120653 141:-0.560682 142:-0.355971 143:-0.0976913 144:-0.638779 145:-0.279987 146:0.190909 147:-0.125591 148:-0.528796 149:-0.696833 150:-0.185606 151:0.259538 152:-0.299948 153:-0.222677 154:-0.0085724 155:-0.190043 156:-0.697612 157:-0.0540542 158:-0.947368 159:-0.0482574 160:-0.592204 161:-0.99596 162:-0.162466 163:0.174441 164:-0.406645 165:-0.515032 166:-0.26953 167:-0.316677 168:-0.582767 169:0.375734 170:0.366137 171:0.18259 172:-0.78626 173:-0.698885 174:-0.389311 175:-0.242776 176:-0.158649 177:-0.532568 178:-0.258012 179:-0.252374 180:-0.769178 181:0.0819673 183:0.0819673 184:-0.503817 185:-1 186:-0.782328 187:-0.00481662 188:-0.469989 189:-0.810664 190:-0.385352 191:-0.635228 192:-0.925612 193:-0.816724 194:0.739145 195:-0.774005 196:-0.926797 197:-0.88309 198:0.475922 199:0.676273 200:-0.656546 201:-0.893989 202:-0.696441 203:-0.201503 204:-0.819343 205:-0.665859 206:0.443875 207:-0.590968 208:-0.560241 209:-0.727685 210:0.0746175 211:0.0110265 212:-0.150365 213:-0.650624 214:-0.475732 215:0.0982513 216:-0.802111 217:-0.0468912 218:-0.389147 219:0.250753 220:-0.937792 221:-0.899213 222:-0.416974 223:-0.237383 224:0.101229 225:-0.234174 226:0.00915063 227:-0.22367 228:-0.434764 229:-0.546842 230:0.125931 231:-0.290969 232:-0.563291 233:-0.728027 234:-0.172215 235:0.22696 236:-0.161984 237:-0.202815 238:-0.0161143 239:-0.210904 240:-0.800409 241:-0.815509 242:0.203286 243:-0.516789 244:-0.892285 245:-0.712821 246:0.0965008 247:-0.201836 248:0.0588032 249:-0.578275 250:-0.388419 251:-0.156095 252:-0.540546 253:-0.580022 254:0.422971 255:-0.532712 256:-0.940762 257:-0.656477 258:-0.168033 259:-0.0808157 260:-0.0105321 261:-0.33928 262:-0.118573 263:-0.368548 264:-0.936762 265:-0.236819 266:0.064412 267:-0.00396962 268:-0.895349 269:-0.663934 270:-0.22277 271:-0.052733 272:-0.0677527 273:-0.168149 274:0.0278961 275:0.190115 276:-0.572397 277:-0.495838 278:0.59452 279:-0.525738 280:-0.706989 281:-0.727763 282:-0.0516863 283:-0.681028 284:0.424613 285:-0.504445 286:-0.304621 287:0.114818 288:-0.896169 289:0.320095 290:-0.196596 291:0.481599 292:-0.860724 293:-0.853157 294:0.498553 295:-0.0290943 296:-0.206 297:0.383515 298:0.529491 299:0.197637 300:0.0135279 301:0.369053 302:0.293941 303:0.117997 304:-0.645695 305:-0.836938 306:0.1661 307:-0.0497859 308:0.0788319 309:-0.0945341 310:0.13708 311:0.242943 312:-0.0577 313:-0.21752 314:0.318723 315:-0.21051 316:-0.576159 317:-0.911175 318:-0.27588 319:0.0193977 320:-0.367046 321:-0.316648 322:-0.0858421 323:0.126985 324:-0.594694 325:-0.621105 326:0.0877452 327:-0.289966 328:-0.745399 329:-0.675362 330:-0.275917 331:-0.413531 332:0.246827 333:-0.289674 334:-0.0699229 335:-0.437509 336:-0.650504 337:-0.0875954 338:0.442628 339:-0.138424 340:-0.569787 341:-0.429658 342:-0.333696 343:-0.245682 344:-0.116551 345:0.0579339 346:0.26847 347:0.735908 348:-0.465917 349:-0.0205542 350:0.40839 351:-0.311311 352:-0.609682 353:-0.675214 354:-0.128034 355:-0.5939 356:0.707247 357:-0.556805 358:-0.322693 359:0.168514 360:-0.45008 361:-0.240285 362:0.343789 363:-0.188647 364:-0.799228 365:-0.510516 366:-0.224459 367:0.139992 368:0.115843 369:-0.486423 370:-0.193327 371:-0.131602 372:-0.91421 373:0.0819675 374:-0.0819675 375:0.0819674 376:-0.531993 377:-0.635862 378:-0.433794 379:0.215724 380:-0.342334 381:-0.726008 382:-0.260494 383:0.258641 384:-0.882695 
0.3329429077687852 0 0 3.318713019937737 2.104471240950168 0.8036626643295666 1:-0.798601 2:-0.767686 3:-0.797217 4:-0.751958 5:-0.66747 6:-0.486921 7:-0.30342 8:0.0635868 9:-0.836386 10:-0.557659 11:-0.794411 12:-0.960958 13:-0.216511 14:0.00168207 15:-0.36473 16:-0.505682 17:-0.958495 18:-0.374383 19:0.215745 20:-0.494804 21:-0.689361 22:-0.508497 23:0.0245931 24:-0.392677 25:-0.489336 26:0.441597 27:-0.764757 28:-0.50079 29:-0.960133 30:0.135061 31:0.273325 32:-0.149998 33:-0.750511 34:-0.591063 35:0.0779186 36:-0.677765 37:-0.650652 38:-0.376476 39:-0.293329 40:-0.511592 41:-0.601476 42:-0.424908 43:0.233291 44:-0.550429 45:0.0174368 46:0.197392 47:-0.179222 48:-0.765378 49:-0.379784 50:-0.0497049 51:-0.2133 52:-0.462334 53:-0.508065 54:0.0417004 55:-0.0589515 56:-0.0721836 57:-0.472417 58:-0.231061 59:-0.23616 60:-0.395873 61:0.0655391 62:-0.275803 63:0.273783 64:-0.58794 65:-0.385827 66:-0.10163 67:0.355229 68:-0.533434 69:0.00537198 70:0.274581 71:0.3763 72:-0.565187 73:-0.177768 74:-0.192075 75:0.158339 76:-0.55336 77:-0.908012 78:-0.325883 79:0.424094 80:-0.593332 81:0.381918 82:0.630508 83:-0.0691446 84:-0.678669 85:-0.371522 86:-0.403932 87:0.0722321 88:-0.837766 89:-0.604356 90:-0.293902 91:-0.30901 92:0.03678 93:-0.356508 94:-0.148929 95:-0.140989 96:-0.198154 97:-0.336084 98:0.112004 99:-0.247239 100:-1 101:-0.808 102:-0.249309 103:-0.365047 104:0.175792 105:-0.185751 106:0.0570021 107:0.474477 108:-0.853597 109:-0.17903 110:-0.311753 111:0.17905 112:-0.658094 113:-0.778802 114:-0.485688 115:-0.00379862 116:-0.352977 117:0.494615 118:0.504681 119:-0.158382 120:-0.761818 121:-0.620997 122:0.0912728 123:-0.522493 124:-0.653295 125:-0.841393 126:-0.452505 127:0.446026 128:-0.62722 129:-0.481775 130:-0.0603282 131:0.18115 132:-0.830229 133:-0.333137 134:-0.225802 135:-0.0178918 136:-0.772414 137:-0.973333 138:0.0191372 139:0.801457 140:-0.517185 141:-0.245627 142:0.236401 143:-0.20108 144:-0.512654 145:-0.637061 146:-0.42195 147:0.0122066 148:-0.926702 149:-0.552036 150:-0.548848 151:0.246672 152:-0.561371 153:-0.0176857 154:0.184007 155:-0.221203 156:-0.6201 157:0.256756 158:-0.578947 159:0.241287 160:-0.94003 161:-0.442424 162:-0.0691682 163:-0.499186 164:0.284449 165:-0.530481 166:-0.30355 167:-0.0673285 168:-0.283988 169:0.703703 170:-0.0388139 171:0.561187 172:-0.694656 173:-0.453532 174:0.0571477 175:-0.369377 176:0.21055 177:0.408323 178:0.598508 179:-0.464042 180:-0.941286 181:0.356479 183:0.356479 184:-0.664122 185:-1 186:-0.247819 187:-0.274363 188:0.101544 189:-0.18212 190:0.294112 191:-0.833024 192:-0.976261 193:-0.665543 194:0.783318 195:-0.696796 196:-0.746405 197:-0.59499 198:0.448632 199:0.569656 200:-0.495113 201:-0.77564 202:-0.480583 203:0.103631 204:-0.914148 205:-0.749923 206:0.56609 207:-0.706943 208:-0.939759 209:-0.95764 210:-0.0191855 211:0.163296 212:-0.361916 213:-0.781407 214:-0.651679 215:0.0178322 216:-0.699774 217:-0.432065 218:0.756294 219:-0.646833 220:-0.962675 221:-0.971654 222:0.230826 223:-0.687735 224:0.702411 225:-0.649289 226:-0.455724 227:0.535059 228:-0.798386 229:-0.0963231 230:-0.303388 231:0.240192 232:-0.927215 233:-0.820896 234:-0.551066 235:0.155775 236:-0.180799 237:0.0251026 238:0.203657 239:-0.133145 240:-0.155414 241:-0.351977 242:0.63709 243:-0.532001 244:-0.627365 245:-0.894017 246:-0.340894 247:-0.444025 248:0.222409 249:-0.451557 250:-0.244734 251:0.356833 252:-0.715556 253:0.582033 254:0.310468 255:0.0840414 256:-0.757405 257:-0.770015 258:0.0835169 259:-0.321461 260:0.3325 261:-0.30415 262:-0.0847863 263:0.389122 264:-0.138116 265:-0.0386498 266:0.394036 267:-0.121701 268:-0.848837 269:-0.885246 270:0.134302 271:-0.557398 272:0.641875 273:-0.131017 274:0.0565157 275:0.388502 276:-0.385829 277:0.385943 278:0.416334 279:0.101315 280:-0.696237 281:-0.606469 282:-0.389333 283:-0.768093 284:0.428617 285:-0.00141031 286:0.206712 287:0.449708 288:-0.583318 289:-0.345278 290:0.36572 291:-0.295047 292:-0.866295 293:-0.565345 294:-0.345511 295:0.0201787 296:-0.528319 297:-0.162797 298:0.0397682 299:0.301573 300:-0.805643 301:-0.225331 302:0.383333 303:-0.239054 304:-0.831126 305:-0.777038 306:0.0189315 307:-0.0693142 308:0.0522949 309:-0.295323 310:-0.0601045 311:0.215451 312:-0.552795 313:-0.616658 314:0.441915 315:-0.533347 316:-0.831126 317:-0.931232 318:0.415534 319:-0.233979 320:0.125503 321:-0.427487 322:-0.207807 323:-0.181396 324:-0.646667 325:-0.26941 326:0.186279 327:-0.16691 328:-0.97546 329:-0.643478 330:-0.39163 331:0.155554 332:-0.451893 333:-0.155092 334:0.0738958 335:-0.378699 336:-0.654161 337:-0.658909 338:-0.370209 339:0.0903078 340:-0.740558 341:-0.619772 342:-0.240972 343:0.0945833 344:-0.53613 345:-0.205862 346:0.0293599 347:-1 348:0.676199 349:0.100982 350:0.291952 351:-0.175175 352:-0.960666 353:-0.921368 354:-0.179055 355:-0.377254 356:0.454029 357:-0.287482 358:-0.0290661 359:-0.0881884 360:-0.498753 361:0.568234 362:-0.0720526 363:0.509012 364:-0.610039 365:-0.674952 366:-0.641657 367:0.167054 368:0.00472083 369:-0.0054067 370:0.274398 371:-0.317579 372:-0.634675 373:0.331833 374:-0.359356 375:0.345594 376:-0.963437 377:-0.751724 378:-0.433794 379:0.013127 380:-0.0198714 381:-0.0961237 382:0.344003 383:0.253793 384:-0.927003 
0.5285394479454166 0 0 2.019668859433615 0 0 1:-0.631476 2:-0.87546 3:-0.62946 4:-0.908616 5:-1 6:-0.588801 7:-0.205673 8:-0.149372 9:-0.75157 10:-0.4625 11:-0.533243 12:-0.845947 13:0.157865 14:-0.116395 15:0.000851296 16:-0.849432 17:-0.699092 18:-0.05826 19:-0.188287 20:-0.0513601 21:-0.145784 22:0.0580944 23:-0.18716 24:-0.492571 25:-0.552687 26:-0.0193726 27:-0.39961 28:-0.535545 29:-0.857143 30:-0.125222 31:0.606401 32:-0.488639 33:-0.360997 34:-0.0463605 35:-0.0631126 36:-0.850429 37:-0.118209 38:-0.604594 39:0.327126 40:-0.709428 41:-0.811808 42:-0.375358 43:0.501428 44:-0.638819 45:0.210079 46:0.432366 47:0.0748304 48:-0.588915 49:-0.426366 50:0.0607444 51:-0.345667 52:-0.654357 53:-0.830645 54:-0.0598683 55:0.295817 56:-0.330867 57:-0.639341 58:-0.317026 59:-0.00958831 60:-0.616937 61:0.0633505 62:-0.440459 63:0.406575 64:-0.872697 65:-0.681102 66:0.0908699 67:-0.0891893 68:0.00633181 69:0.311874 70:0.451896 71:0.0761087 72:-0.636337 73:-0.507538 74:-0.360143 75:0.0430503 76:-0.956522 77:-0.940653 78:-0.203565 79:0.163514 80:-0.251899 81:0.222289 82:0.393237 83:-0.420727 84:-0.367191 85:0.00597168 86:0.516854 87:-0.412167 88:-0.904255 89:-0.731397 90:0.228494 91:-0.19966 92:0.35231 93:-0.466614 94:-0.275403 95:0.088232 96:-0.66494 97:0.180116 98:0.408187 99:-0.161243 100:-0.639136 101:-0.592 102:0.24613 103:-0.0219781 104:0.257989 105:-0.588726 106:-0.475868 107:0.57126 108:-0.361985 109:-0.433008 110:-0.380669 111:0.0489218 112:-0.615734 113:-0.827957 114:-0.120501 115:0.146361 116:-0.151372 117:-0.423628 118:-0.274912 119:-0.75134 120:0.675355 121:-0.73759 122:0.208715 123:-0.715609 124:-0.530086 125:-0.647969 126:-0.277089 127:-0.266781 128:0.0545013 129:-0.540198 130:-0.392092 131:0.0157163 132:-0.717691 133:-0.490031 134:0.121305 135:-0.44343 136:-0.636782 137:-0.897143 138:-0.180439 139:0.582257 140:-0.408133 141:-0.57388 142:-0.257896 143:0.232325 144:-0.584147 145:-0.404933 146:-0.177829 147:0.0273119 148:-0.434555 149:-0.950226 150:-0.338258 151:1 152:-0.90852 153:0.0804596 154:0.469714 155:-0.30484 156:-0.65924 157:0.262162 158:0.210526 159:0.206434 160:-0.634183 161:-0.547475 162:0.0793826 163:-0.0332746 164:-0.0958646 165:-0.123376 166:0.014132 167:-0.284622 168:-0.594375 169:0.509144 170:-0.131388 171:0.434404 172:-0.770992 173:-0.743494 174:-0.261526 175:-0.505437 176:0.0546266 177:0.00410028 178:0.297508 179:-0.125184 180:-0.787584 181:0.307225 183:0.307225 184:-0.919847 185:-1 186:-0.582663 187:-0.468315 188:-0.0550773 189:-0.552927 190:-0.0110421 191:-0.714727 192:-0.952539 193:-0.621504 194:0.74002 195:-0.646522 196:-0.905882 197:-0.82881 198:0.472468 199:0.454329 200:-0.458053 201:-0.753727 202:-0.446504 203:0.103137 204:-0.840896 205:-0.0894633 206:-0.00501547 207:0.00260127 208:-0.644578 209:-0.748865 210:0.0959632 211:-0.103345 212:-0.0396802 213:-0.0616587 214:0.159154 215:0.0777017 216:-0.707767 217:-0.345731 218:0.0830706 219:-0.203285 220:-0.944012 221:-0.987402 222:-0.0157417 223:0.446815 224:-0.384355 225:-0.266159 226:-0.0165434 227:-0.334195 228:-0.825316 229:-0.074586 230:-0.232537 231:0.21064 232:-0.835443 233:-0.694859 234:-0.0979674 235:0.544613 236:-0.450105 237:0.383227 238:0.523161 239:0.0608218 240:-0.526707 241:-0.666973 242:0.908803 243:-0.845447 244:-0.950509 245:-0.982906 246:0.0489201 247:0.0989756 248:-0.208716 249:-0.71666 250:-0.557325 251:0.198278 252:-0.80098 253:0.343759 254:0.199726 255:0.0467473 256:-0.90409 257:-0.708879 258:0.150979 259:0.394746 260:-0.356173 261:0.020798 262:0.238527 263:0.102216 264:-0.735011 265:0.0661488 266:-0.779214 267:0.775952 268:-0.934109 269:-0.885246 270:-0.00173917 271:0.43689 272:-0.452697 273:0.840695 274:0.879336 275:-0.225495 276:-0.326382 277:-0.484347 278:0.463668 279:-0.436095 280:-0.701613 281:-0.80593 282:0.26785 283:-0.307233 284:0.15403 285:-0.525928 286:-0.323331 287:-0.035505 288:-0.595975 289:-0.354765 290:0.263949 291:-0.232014 292:-0.980501 293:-0.947137 294:0.450991 295:-0.0820202 296:-0.0848893 297:-0.0441998 298:0.147926 299:0.0463149 300:-0.694436 301:-0.639307 302:0.510604 303:-0.526154 304:-0.764901 305:-0.510815 306:0.248536 307:0.193596 308:-0.129197 309:-0.333963 310:-0.0967827 311:-0.147265 312:-0.8391 313:-0.23623 314:0.488978 315:-0.32688 316:-0.698675 317:-0.951289 318:0.125908 319:0.402574 320:-0.524688 321:-0.375941 322:-0.142376 323:0.389572 324:-0.438617 325:-0.622402 326:0.191764 327:-0.349976 328:-0.957055 329:-0.843478 330:0.164663 331:0.269529 332:-0.248065 333:-0.233485 334:-0.00377562 335:-0.482743 336:-0.786075 337:-0.334133 338:0.404139 339:-0.271419 340:-0.786535 341:-0.69962 342:0.154099 343:0.119012 344:-0.329075 345:-0.0646495 346:0.162011 347:0.106329 348:-0.734453 349:0.191242 350:-0.114727 351:0.113114 352:-0.655068 353:-0.579487 354:-0.226758 355:-0.712849 356:0.741655 357:0.152329 358:0.377405 359:-0.159073 360:-0.607233 361:-0.264877 362:-0.0938928 363:0.0544342 364:-0.953668 365:-0.6826 366:0.27622 367:0.220575 368:0.111578 369:-0.157275 370:0.138789 371:-0.684001 372:-0.780681 373:0.249598 374:-0.308801 375:0.279199 376:-0.937843 377:-0.936552 378:-0.433794 379:0.0786964 380:-0.178953 381:-0.55249 382:-0.0544207 383:0.224251 384:-0.882978 
2.522149327539727 0.9038817385168277 0.1041237608271223 3.818977853601259 0.6120313089368741 0.2309582559001089 1:-0.50371 2:-0.769437 3:-0.501784 4:-0.960836 5:-0.848193 6:-0.405908 7:-0.099907 8:0.035206 9:-0.675316 10:-0.339864 11:-0.523923 12:-0.831056 13:0.181789 14:-0.612862 15:0.394589 16:-0.366477 17:-0.948119 18:-0.250224 19:0.0871701 20:-0.423778 21:0.125083 22:0.34533 23:-0.356309 24:-0.586317 25:-0.26878 26:0.281614 27:-0.474163 28:-0.406003 29:-0.431894 30:0.3101 31:0.0770287 32:0.0803006 33:-0.735929 34:-0.603628 35:0.0309396 36:-0.444488 37:0.148127 38:-0.256968 39:0.274795 40:-0.50541 41:-0.863469 42:-0.11083 43:0.0888875 44:-0.212813 45:-0.0324489 46:0.13601 47:0.112571 48:-0.520032 49:-0.307905 50:-0.206369 51:-0.0221572 52:-1 53:-0.294355 54:0.00492745 55:-0.305696 56:0.104408 57:-0.400167 58:-0.172067 59:-0.588693 60:-0.00876177 61:-0.595301 62:-0.374148 63:-0.130387 64:-0.152429 65:-0.468504 66:-0.0214184 67:-0.398987 68:0.238609 69:-0.572622 70:-0.318592 71:-0.148398 72:-0.42635 73:0.00697209 74:-0.160836 75:0.283814 76:0.00790514 77:-0.275964 78:-0.201197 79:-0.0815952 80:-0.0409184 81:0.0378431 82:0.219959 83:-0.482585 84:-0.106612 85:-0.0733916 86:0.0671873 87:-0.101971 88:-0.957447 89:-0.292196 90:0.217184 91:-0.0587433 92:0.205167 93:-0.598364 94:-0.407674 95:-0.199882 96:-0.254295 97:-0.0120094 98:-0.16315 99:0.235789 100:-0.997459 101:-0.244 102:-0.184587 103:-0.113049 104:0.0509903 105:0.151962 106:0.31504 107:0.353485 108:-0.770675 109:0.421552 110:-0.54122 111:0.847948 112:-0.207262 113:-0.397849 114:-0.0629235 115:0.104819 116:-0.110594 117:0.447905 118:0.473047 119:-0.446772 120:-0.108525 121:-0.328264 122:0.0711463 123:-0.272968 124:-0.492837 125:-0.222437 126:-0.312097 127:-0.282744 128:0.0983466 129:-0.574897 130:-0.420264 131:-0.198861 132:-0.361752 133:-0.577163 134:-0.130481 135:-0.291171 136:-0.308046 137:-0.965714 138:-0.195759 139:0.206885 140:-0.25806 141:-0.473392 142:-0.227291 143:-0.121676 144:-0.432768 145:-0.366022 146:-0.0390387 147:-0.0365607 148:-0.357766 149:-0.846154 150:-0.279636 151:0.316245 152:-0.473047 153:-0.215627 154:0.0141581 155:-0.177884 156:-0.600561 157:0.359459 158:-0.368421 159:0.332439 160:-0.844078 161:0.2 162:0.0698869 163:-0.311357 164:0.220755 165:-0.0972508 166:0.0402387 167:-0.515282 168:-0.733443 169:0.963733 170:-0.715061 171:0.965746 172:-0.217557 173:-0.996283 174:-0.13362 175:0.144127 176:-0.331746 177:0.29162 178:0.525062 179:-0.226568 180:-0.843776 181:0.198261 183:0.198261 184:-0.229008 185:-1 186:-0.467302 187:0.135326 188:-0.3942 189:-0.484321 190:0.0238699 191:-0.794435 192:-0.969912 193:-0.454762 194:0.431809 195:-0.384807 196:-0.884967 197:-0.820459 198:0.360869 199:0.83054 200:-0.697778 201:-0.570076 202:-0.203419 203:-0.0385208 204:-0.881701 205:-0.04666 206:0.247255 207:-0.101322 208:-0.85241 209:-0.951589 210:0.427946 211:0.0260792 212:0.0417293 213:-0.191219 214:0.0350268 215:0.270416 216:-0.783769 217:-0.262271 218:0.279378 219:-0.267463 220:-0.723173 221:-0.0614173 222:-0.429866 223:-0.408494 224:0.231711 225:-0.495867 226:-0.270247 227:0.215302 228:-0.825643 229:0.299638 230:-0.497045 231:0.596343 232:-1 233:-0.781095 234:-0.0334715 235:0.0143846 236:0.176584 237:0.468532 238:0.590049 239:-0.128753 240:-0.553438 241:-0.353557 242:0.250639 243:-0.311921 244:-0.44687 245:-1 246:-0.155838 247:-0.388546 248:-0.00489485 249:-0.537607 250:-0.340044 251:-0.252792 252:-0.612448 253:0.210137 254:0.0986063 255:0.0518332 256:-0.619182 257:-0.624454 258:0.224618 259:-0.522485 260:0.597267 261:-0.267266 262:-0.0479585 263:-0.243083 264:-0.574809 265:-0.120833 266:-0.10962 267:0.188517 268:-0.155039 269:-0.0245902 270:0.120983 271:-0.560633 272:0.639102 273:0.347941 274:0.481458 275:-0.0605613 276:-0.631429 277:-0.555709 278:0.696367 279:-0.625202 280:-1 281:-0.469003 282:-0.0135052 283:-0.876876 284:0.647989 285:-0.700261 286:-0.546087 287:0.0980541 288:-0.734792 289:0.511878 290:0.272387 291:0.279495 292:-0.479109 293:-0.418502 294:0.0848919 295:-0.164728 296:-0.412969 297:-0.219292 298:-0.016781 299:0.237813 300:-0.102112 301:-0.183777 302:0.38218 303:-0.217104 304:-0.195364 305:-0.657238 306:0.0114162 307:-0.118327 308:-0.0242641 309:-0.431907 310:-0.204792 311:-0.184335 312:-0.424565 313:-0.109223 314:0.154776 315:-0.0425775 316:-0.440397 317:-0.704871 318:-0.0140953 319:-0.495843 320:0.221929 321:-0.381799 322:-0.159666 323:-0.114163 324:-0.414892 325:0.0689464 326:0.00164247 327:0.110913 328:-0.794479 329:-0.973913 330:-0.138175 331:-0.2684 332:-0.0918661 333:-0.291492 334:-0.0677705 335:0.0451978 336:-0.134152 337:-0.0828733 338:0.143485 339:0.0866285 340:-0.868637 341:-0.684411 342:-0.018796 343:-0.506833 344:0.153172 345:-0.0953911 346:0.125932 347:0.343701 348:-0.358614 349:0.265416 350:-0.241439 351:0.228729 352:-0.863843 353:-0.818803 354:-0.227372 355:-0.411863 356:0.541504 357:0.185509 358:0.402531 359:-0.124725 360:-0.705497 361:0.208216 362:-0.224035 363:0.396232 364:-0.235521 365:-0.774379 366:0.119802 367:0.285476 368:0.254549 369:-0.0663493 370:0.222245 371:-0.257083 372:-0.706896 373:0.160805 374:-0.112818 375:0.136811 376:-0.265082 377:-0.456552 378:-0.433794 379:0.230541 380:-0.279134 381:-0.637038 382:-0.14872 383:0.329627 384:-0.89419 
0.4829007779375284 0 0.2849512120009554 2.937360558048796 0 1.14891117360984 1:-0.259445 2:-0.61736 3:-0.257536 4:-0.681462 5:-0.995181 6:0.0571794 7:0.268379 8:-0.172759 9:-0.22873 10:0.126195 11:-0.612537 12:-0.888864 13:-0.122745 14:-0.614799 15:0.171437 16:-0.730114 17:-0.670558 18:-0.385874 19:-0.0507003 20:-0.341054 21:-0.0793651 22:0.124655 23:-0.56825 24:-0.376643 25:-0.325325 26:0.205113 27:-0.444663 28:-0.968404 29:-0.787375 30:0.351298 31:-0.289851 32:0.381296 33:-0.699542 34:-0.492524 35:-0.253121 36:-0.19951 37:-0.161521 38:-0.16704 39:-0.0524677 40:-0.965997 41:-0.453875 42:-0.233012 43:-0.607959 44:0.285197 45:-0.296628 46:0.024092 47:0.142428 48:-0.60252 49:-0.206717 50:0.422688 51:-0.562131 52:-0.819793 53:-0.681452 54:-0.00359653 55:-0.255387 56:0.04305 57:-0.632981 58:-0.448849 59:0.349785 60:-0.855401 61:-0.219944 62:-0.120193 63:-0.0625104 64:-0.346734 65:-0.255906 66:-0.0860469 67:0.126066 68:-0.356409 69:-0.313149 70:-0.0791147 71:0.478597 72:-0.546755 73:-0.436322 74:-0.116875 75:-0.132371 76:-0.245059 77:-0.676558 78:-0.265739 79:-0.156184 80:-0.0465645 81:0.115038 82:0.295621 83:-0.40544 84:-0.489561 85:-0.114316 86:-0.238459 87:0.118007 88:-0.590426 89:-0.833031 90:-0.291371 91:0.291144 92:-0.360327 93:0.061707 94:0.343881 95:-0.173048 96:-0.627942 97:-0.572469 98:0.176507 99:-0.472837 100:-0.768742 101:-0.96 102:-0.462673 103:-0.0170481 104:-0.330112 105:-0.447928 106:-0.305272 107:0.5667 108:-0.808974 109:-0.518679 110:-0.644946 111:0.226865 112:-0.966717 113:-0.708141 114:-0.458899 115:-0.0709108 116:-0.279414 117:0.0208842 118:0.143247 119:-0.348402 120:-0.347146 121:-0.522525 122:-0.110451 123:-0.271562 124:-0.415473 125:-0.798839 126:-0.386713 127:0.0189272 128:-0.250824 129:-0.251539 130:-0.0437354 131:0.127192 132:-0.620896 133:-0.467003 134:-0.523398 135:0.138028 136:-0.54023 137:-0.459048 138:-0.186019 139:-0.363971 140:0.324348 141:-0.135495 142:0.160841 143:-0.165979 144:-0.441797 145:-0.677275 146:-0.602729 147:0.103554 148:-0.280977 149:-0.647059 150:-0.629056 151:0.209658 152:-0.59146 153:0.118057 154:0.302338 155:-0.317656 156:-0.66053 157:0.416216 158:-0.684211 159:0.404826 160:-0.49925 161:-0.531313 162:0.189481 163:-0.226051 164:0.116961 165:0.35423 166:0.345054 167:-0.441463 168:-0.72679 169:0.534585 170:0.537673 171:0.257902 172:-0.80916 173:-0.977695 174:-0.111889 175:-0.253015 176:0.0353872 177:0.0133396 178:0.278359 179:-0.331448 180:-0.914738 181:0.389826 183:0.389826 184:-0.805344 185:-1 186:-0.366348 187:-0.170636 188:-0.0479289 189:-0.267994 190:0.216569 191:-0.792761 192:-0.96966 193:-0.284179 194:0.308897 195:-0.212234 196:-0.584314 197:-0.762004 198:0.493343 199:0.351512 200:-0.155466 201:-0.233478 202:0.142144 203:0.0502372 204:-0.859536 205:0.240587 206:0.32839 207:0.0365124 208:-0.608434 209:-0.512859 210:-0.0940289 211:0.21292 212:-0.448908 213:-0.176634 214:0.0484437 215:0.518898 216:-0.306435 217:-0.321263 218:0.444044 219:-0.398668 220:-0.520995 221:-0.464567 222:-0.231253 223:-0.457869 224:0.359375 225:-0.780909 226:-0.635694 227:-0.00212128 228:-0.553053 229:-0.54625 230:0.360543 231:-0.431996 232:-0.901899 233:-0.475954 234:-0.294451 235:0.0988836 236:-0.047763 237:-0.00479827 238:0.175604 239:-0.207471 240:-0.84103 241:0.0892273 242:0.836261 243:-0.42432 244:-0.845706 245:-0.425641 246:0.208 247:-0.461578 248:0.360751 249:-0.650614 250:-0.48125 251:0.92634 252:-0.140376 253:0.832835 254:-0.31876 255:0.620278 256:-0.461213 257:-0.994178 258:0.535379 259:-0.177969 260:0.257745 261:-0.0633545 262:0.153304 263:0.226133 264:-0.00333024 265:-0.455615 266:-0.514627 267:0.27924 268:-0.406977 269:-0.704918 270:-0.227598 271:-0.256645 272:0.127647 273:0.0635481 274:0.24028 275:-0.464709 276:0.0619823 277:-0.297307 278:0.00511303 279:-0.0363828 280:-0.774194 281:-0.638814 282:-0.405204 283:-0.392142 284:-0.0633073 285:-0.00185499 286:0.212603 287:-0.170424 288:-0.753241 289:-0.485727 290:0.443725 291:-0.431516 292:-0.966574 293:-0.597651 294:-0.260101 295:-0.447742 296:0.194119 297:-0.362837 298:-0.177903 299:0.00336688 300:-0.466451 301:-0.297467 302:-0.452503 303:0.218006 304:-0.827815 305:-0.687188 306:-0.190527 307:-0.148877 308:0.0933719 309:-0.0514637 310:0.176405 311:-0.821616 312:0.677972 313:-0.514511 314:0.205487 315:-0.32461 316:-0.536424 317:-0.730659 318:-0.0934462 319:0.141939 320:-0.529495 321:-0.344495 322:-0.110712 323:-0.207457 324:-0.747678 325:-0.243503 326:-0.207713 327:0.0710918 328:-0.441718 329:-0.57971 330:0.147123 331:0.127868 332:-0.292037 333:0.176967 334:0.376294 335:-0.530604 336:-0.532021 337:0.199654 338:0.251789 339:0.191406 340:-0.724138 341:-0.642586 342:0.57907 343:-0.0739601 344:-0.18262 345:0.111632 346:0.319977 347:-0.0107403 348:-0.412605 349:0.541555 350:-0.265411 351:0.397398 352:-0.515885 353:-0.425641 354:-0.166664 355:-0.517549 356:0.634549 357:0.605994 358:0.728049 359:-0.102094 360:-0.597495 361:-0.113444 362:0.223443 363:-0.0468552 364:-0.474903 365:-0.678776 366:-0.187183 367:0.117232 368:0.212919 369:-0.224888 370:0.0779738 371:-0.1607 372:-0.853389 373:0.145634 374:-0.211239 375:0.178437 376:-0.711152 377:-0.754483 378:-0.433794 379:0.0885847 380:-0.115514 381:-0.437328 382:0.0604224 383:0.25112 384:-0.914361 
0.951302715228506 2.741491257228142 0.1230390313133273 3.949414973771549 1.751850015510481 2.299118113527567 1:-0.595596 2:-0.755745 3:-0.593879 4:-0.791123 5:-0.995181 6:-0.0468164 7:-0.00237779 8:0.0670485 9:-0.624396 10:-0.303534 11:-0.827509 12:-0.962044 13:-0.224406 14:-0.240321 15:-0.187227 16:-0.661932 17:-0.776913 18:-0.469201 19:0.089345 20:-0.508525 21:-0.172395 22:0.0554862 23:-0.246455 24:-0.727633 25:0.181299 26:0.284141 27:-0.172317 28:-0.889415 29:-0.292359 30:0.231466 31:-0.199533 32:0.259721 33:-0.704156 34:-0.519133 35:-0.188717 36:0.159383 37:-0.464713 38:-0.00759704 39:-0.428984 40:-0.956723 41:-0.228782 42:-0.311094 43:-0.589429 44:0.262505 45:-0.529992 46:-0.172412 47:0.0587582 48:-0.808148 49:-0.218018 50:0.308261 51:-0.459761 52:-0.296898 53:-0.770161 54:-0.132875 55:-0.202768 56:-0.0860075 57:-0.646378 58:-0.462444 59:0.761877 60:-0.695369 61:-0.562508 62:-0.676492 63:0.140434 64:-0.20603 65:-0.11811 66:-0.391863 67:-0.00320986 68:-0.583534 69:-0.129098 70:0.0804233 71:-0.120216 72:-0.40085 73:-0.865463 74:0.0639714 75:-0.669113 76:-0.992095 77:-0.578635 78:-0.526821 79:0.113226 80:-0.509303 81:-0.4982 82:-0.296823 83:-0.454751 84:-0.589337 85:-0.306292 86:0.121785 87:-0.309754 88:-0.5 89:-0.807623 90:-0.307026 91:0.52379 92:-0.60218 93:-0.448815 94:0.0671852 95:0.232848 96:-0.821386 97:-0.827164 98:-0.376349 99:-0.13683 100:-0.949174 101:-0.512 102:-0.711025 103:-0.255863 104:-0.256713 105:-0.427517 106:-0.217966 107:0.462541 108:-0.627183 109:-0.727409 110:-0.640867 111:0.0640382 112:-0.555219 113:-0.815668 114:-0.666595 115:0.374038 116:-0.813844 117:0.357316 118:0.466188 119:-0.195497 120:-0.772948 121:-0.706953 122:0.0361896 123:-0.543516 124:-0.659026 125:-0.199226 126:-0.605542 127:-0.0724559 128:-0.344718 129:-0.220473 130:-0.0294564 131:0.139918 132:-0.862567 133:-0.0332356 134:-0.179329 135:0.174942 136:-0.875862 137:-0.481905 138:-0.365356 139:-0.293453 140:0.179696 141:-0.310824 142:-0.00652401 143:0.445609 144:-0.301106 145:-0.684602 146:-0.102939 147:-0.241262 148:-0.602094 149:-0.950226 150:-0.501809 151:0.295792 152:-0.582707 153:-0.0769338 154:0.135374 155:-0.169927 156:-0.879831 157:0.218919 158:-0.473684 159:0.198391 160:-0.868066 161:-0.393939 162:0.209879 163:-0.260254 164:0.171536 165:0.205449 166:0.247947 167:-0.447074 168:-0.729209 169:0.648451 170:0.870079 171:0.250331 172:-0.576336 173:-0.263941 174:0.335206 175:-0.392692 176:0.446065 177:0.237649 178:0.487731 179:-0.564542 180:-0.960771 181:0.472222 183:0.472222 184:-0.774809 185:-1 186:-0.06235 187:-0.415381 188:0.400516 189:-0.0805472 190:0.406449 191:-0.872737 192:-0.980339 193:-0.782136 194:0.492269 195:-0.629222 196:-0.788235 197:-0.665971 198:0.521327 199:0.555406 200:-0.338338 201:-0.652438 202:-0.304118 203:-0.240734 204:-0.928897 205:-0.158671 206:-0.100606 207:0.00879725 208:-0.506024 209:-0.903177 210:0.0664719 211:0.182035 212:-0.369571 213:-0.583689 214:-0.392974 215:-0.155614 216:0.147183 217:-0.536542 218:0.597713 219:-0.617215 220:-0.40902 221:-0.351181 222:-0.405645 223:-0.363638 224:0.200001 225:-0.651878 226:-0.459637 227:0.107573 228:-0.824804 229:-0.721191 230:-0.000568372 231:-0.320168 232:-0.306962 233:-0.681592 234:-0.244433 235:0.268956 236:-0.289118 237:-0.471335 238:-0.30038 239:-0.511034 240:-0.301161 241:-0.335965 242:0.479658 243:-0.433982 244:-0.912664 245:-0.186325 246:-0.101 247:-0.498287 248:0.302643 249:-0.668713 250:-0.504463 251:0.69605 252:-0.410038 253:0.780641 254:-0.540591 255:0.743767 256:-0.365303 257:-0.997089 258:-0.17535 259:-0.170049 260:-0.0447344 261:-0.103568 262:0.116641 263:-0.18834 264:0.0651785 265:-0.256741 266:0.150424 267:-0.0770077 268:-0.344961 269:-0.602459 270:-0.342205 271:-0.340108 272:0.157679 273:-0.249793 274:-0.0579785 275:-0.151072 276:-0.210413 277:-0.446337 278:0.428371 279:-0.391561 280:-0.518817 281:-0.74124 282:-0.235104 283:-0.554422 284:0.121851 285:-0.684082 286:-0.519304 287:0.0391158 288:-0.463438 289:-0.280475 290:0.34669 291:-0.243528 292:-0.791086 293:-0.715125 294:0.019367 295:-0.101174 296:-0.375898 297:-0.197697 298:0.00323658 299:0.0835662 300:-0.606611 301:-0.330109 302:0.559136 303:-0.396582 304:-0.417219 305:-0.603993 306:-0.225052 307:-0.0446451 308:-0.106165 309:-0.34207 310:-0.107493 311:0.176458 312:-0.643768 313:-0.467455 314:0.181802 315:-0.28091 316:-0.476821 317:-0.498567 318:-0.329888 319:-0.231062 320:-0.225174 321:-0.215578 322:0.0146018 323:0.0612635 324:-0.791969 325:-0.159193 326:0.0481663 327:-0.0319251 328:-0.579755 329:-0.657971 330:0.00960139 331:-0.0991721 332:-0.149197 333:-0.0763623 334:0.145536 335:-0.376568 336:-0.589251 337:-0.752075 338:0.209125 339:-0.400597 340:-0.727422 341:-0.634981 342:0.292763 343:-0.187651 344:-0.190966 345:-0.344898 346:-0.117429 347:-0.48803 348:-0.564017 349:0.131367 350:-0.0513701 351:0.0425429 352:-0.903177 353:-0.302564 354:-0.0836625 355:-0.404817 356:0.555073 357:0.1468 358:0.369933 359:-0.262214 360:-0.575105 361:0.0869016 362:0.0185611 363:0.185791 364:-0.301158 365:-0.502868 366:0.0379374 367:0.179763 368:0.26461 369:-0.0742705 370:0.215666 371:-0.385389 372:-0.78452 373:0.347702 374:-0.416111 375:0.381907 376:-0.73309 377:-0.812414 378:-0.433794 379:0.0632419 380:-0.0106078 381:-0.178702 382:0.281306 383:0.241157 384:-0.923195 
1.314381907635625 3.989191313716272 0.9994032647434484 7.346601678891037 0.05609372005193593 1.964341814828094 1:-0.146499 2:-0.697753 3:-0.144139 4:-0.872063 5:-0.761446 6:0.0783836 7:0.222588 8:-0.124292 9:-0.117897 10:0.222738 11:-0.460859 12:-0.810722 13:0.00086345 14:-0.53991 15:0.205879 16:-0.548295 17:-0.51751 18:-0.258802 19:-0.0765282 20:-0.249174 21:0.0232668 22:0.219477 23:-0.447108 24:-0.504664 25:-0.509983 26:0.691651 27:-1 28:-0.763033 29:-1 30:0.240847 31:0.00262999 32:0.103472 33:-0.980047 34:-0.991815 35:0.249208 36:-0.822458 37:-0.179086 38:-0.212186 39:-0.0315636 40:-0.913447 41:-0.520295 42:0.0738488 43:0.0974299 44:-0.000760584 45:-0.0488099 46:0.110036 47:-0.373889 48:-0.521812 49:-0.363276 50:-0.189956 51:-0.0701061 52:-0.77548 53:-0.487903 54:-0.0331756 55:-0.41331 56:0.16023 57:-0.659524 58:-0.462443 59:-0.526995 60:0.364032 61:-0.563094 62:-0.363492 63:-0.115476 64:-0.229481 65:-0.838583 66:-0.292844 67:-0.279698 68:-0.230691 69:-0.322624 70:-0.108741 71:0.173602 72:-0.664855 73:-0.633964 74:-0.190147 75:-0.22804 76:-0.478261 77:-0.52819 78:-0.554814 79:-0.119838 80:-0.291057 81:0.0546678 82:0.237927 83:-0.2433 84:-0.648044 85:-0.220738 86:0.384104 87:-0.463176 88:-0.960106 89:-0.68784 90:0.157396 91:-0.332019 92:0.400733 93:-0.698028 94:-0.540545 95:0.0587165 96:-0.415173 97:-0.305483 98:0.0562366 99:-0.173913 100:-1 101:-0.18 102:-0.290333 103:-0.287358 104:0.115552 105:-0.145742 106:0.084567 107:0.348864 108:-0.848108 109:-0.310524 110:-0.339256 111:0.104151 112:-0.694402 113:-0.738863 114:-0.264691 115:-0.331959 116:0.102029 117:0.241726 118:0.397209 119:-0.275291 120:-0.649896 121:-0.450173 122:-0.632456 123:0.232988 124:-0.988539 125:-0.667311 126:-0.337958 127:-0.377291 128:0.13592 129:-0.257536 130:-0.0484348 131:-0.563579 132:0.372637 133:-0.205867 134:0.157829 135:-0.254149 136:-0.549425 137:-0.824762 138:-0.101967 139:0.0664216 140:0.00350506 141:-0.544555 142:-0.343942 143:0.275963 144:-0.478339 145:-0.575461 146:0.31705 147:-0.441245 148:-1 149:-0.447964 150:-0.180535 151:-0.162085 152:0.0917584 153:-0.680611 154:-0.402763 155:-0.0915627 156:-0.677964 157:0.0432431 158:-0.684211 159:0.0348524 160:-0.943028 161:-0.684848 162:0.0761503 163:-0.426127 164:0.310515 165:-0.103172 166:0.0531048 167:-0.549318 168:-0.772968 169:0.771427 170:0.341885 171:0.502902 172:-0.603053 173:-0.364312 174:-0.0376339 175:0.333922 176:-0.353515 177:0.0725673 178:0.384537 179:-0.357548 180:-0.915957 181:0.513963 183:0.513963 184:-0.59542 185:-1 186:-0.343453 187:0.393894 188:-0.483015 189:-0.469668 190:0.0781329 191:-0.827888 192:-0.971967 193:-0.276453 194:-0.0757028 195:-0.0169258 196:-0.869281 197:-0.795407 198:0.459512 199:0.46995 200:-0.238686 201:-0.219471 202:0.154346 203:-0.287235 204:-0.728398 205:-0.487342 206:0.0751458 207:-0.288099 208:-0.493976 209:-0.842663 210:-0.526567 211:0.0984382 212:-0.382734 213:-0.217 214:0.00867649 215:-0.116746 216:-0.932575 217:-0.702743 218:0.709764 219:-0.782106 220:-0.542768 221:-0.807874 222:0.348913 223:-0.770313 224:0.872751 225:-0.811665 226:-0.678606 227:0.225274 228:-0.860532 229:0.907029 230:0.122706 231:0.590159 232:-0.927215 233:-0.960199 234:-0.0802118 235:0.0762151 236:0.0374094 237:0.151102 238:0.318317 239:0.399215 240:0.0665626 241:-0.223311 242:0.350336 243:-0.303508 244:-0.609898 245:-0.558974 246:-0.0919819 247:-0.288511 248:0.00750955 249:-0.568865 250:-0.377029 251:0.0888522 252:-0.345575 253:1 254:0.183397 255:0.363588 256:-0.396333 257:-0.901019 258:0.478855 259:-0.0667869 260:0.0201127 261:-0.0162905 262:0.199702 263:0.1331 264:-0.398949 265:0.00951887 266:-0.409102 267:0.478855 268:-0.531008 269:-0.180328 270:0.207303 271:-0.169169 272:0.0868096 273:0.234684 274:0.392634 275:-0.409624 276:-0.207193 277:-0.506181 278:0.503026 279:-0.473773 280:-0.639785 281:-0.908356 282:0.0419338 283:-0.631967 284:0.321038 285:-0.437519 286:-0.227513 287:0.150322 288:-0.839443 289:-0.285097 290:0.400296 291:-0.282469 292:-0.389972 293:-0.929515 294:-0.123084 295:-0.0282378 296:-0.51586 297:-0.186787 298:0.0174506 299:0.155214 300:-0.678459 301:0.121566 302:-0.0687885 303:0.205701 304:-0.264901 305:-0.657238 306:-0.0155409 307:0.195624 308:-0.401147 309:0.273479 310:0.466049 311:0.0194291 312:-0.306827 313:-0.249494 314:-0.690569 315:0.390924 316:-0.268212 317:-0.756447 318:0.0598889 319:-0.191268 320:-0.124327 321:0.0296817 322:0.246215 323:-0.469798 324:-0.0442555 325:-0.344559 326:0.166633 327:-0.194007 328:-0.521472 329:-0.431884 330:0.0885224 331:-0.395108 332:0.300207 333:-0.249658 334:-0.028628 335:-0.202949 336:-0.581342 337:-0.484794 338:0.607853 339:-0.521297 340:-0.399015 341:-0.494297 342:-0.423054 343:-0.213629 344:-0.294551 345:-0.376221 346:-0.151952 347:0.632235 348:-0.689589 349:0.00446777 350:0.0804789 351:-0.105605 352:-0.963691 353:-0.921368 354:-0.189267 355:-0.53446 356:0.674439 357:-0.00938603 358:0.236698 359:-0.189204 360:-0.801862 361:0.598697 362:-0.265255 363:0.639494 364:-0.6139 365:-0.147228 366:-0.606067 367:0.334004 368:-0.13881 369:0.479015 370:0.649927 371:-0.217555 372:-0.834079 373:0.481953 374:-0.506669 375:0.494311 376:-0.6234 377:-0.702069 378:-0.433794 379:0.124312 380:-0.139941 381:-0.276706 382:0.201931 383:0.228684 384:-0.924687 
2.064632332427176 5.393277975541994 2.030663150810004 6.422568390157927 0.9401555831561796 4.383318410197268 1:0.312201 2:-0.573543 3:0.315019 4:-0.558747 5:-1 6:0.272128 7:0.952359 8:-0.839223 9:0.541116 10:0.871082 11:-0.408653 12:-0.78503 13:-0.151814 14:-0.496 15:0.0600016 16:-0.440341 17:-0.548638 18:-0.199704 19:-0.243628 20:-0.0924129 21:-0.151659 22:0.055839 23:-0.668628 24:0.22028 25:-0.28733 26:0.20589 27:-0.419682 28:-0.766193 29:-0.491694 30:0.356542 31:-0.425575 32:0.504924 33:-0.594552 34:-0.282067 35:-0.291739 36:-0.58509 37:-0.554883 38:0.181074 39:-0.651916 40:-0.650696 41:-0.428044 42:-0.0792629 43:-0.304869 44:0.204876 45:-0.696442 46:-0.573024 47:-0.454407 48:-0.601228 49:-0.33367 50:0.463592 51:-0.675184 52:-0.604136 53:-0.754032 54:0.299699 55:-0.508459 56:0.445165 57:-0.326218 58:-0.0532651 59:0.075793 60:-0.951591 61:-0.464352 62:-0.11852 63:-0.243046 64:-0.916248 65:-0.566929 66:0.283144 67:-0.385905 68:0.449826 69:-0.15087 70:0.0787305 71:-0.271058 72:-0.637394 73:-0.384166 74:-0.212049 75:0.00370404 76:-0.529644 77:-0.688427 78:0.242383 79:-0.191608 80:0.385099 81:0.332527 82:0.48915 83:-0.946288 84:-0.19879 85:0.471631 86:0.212668 87:0.16195 88:-0.414894 89:-0.488203 90:0.565319 91:-0.518659 92:0.835008 93:-0.00116903 94:0.246293 95:-0.235031 96:-0.607442 97:0.0939168 98:-0.287383 99:0.425582 100:-0.532402 101:-0.616 102:0.429048 103:-0.295821 104:0.711504 105:0.27575 106:0.464336 107:-0.359389 108:-0.373399 109:-0.394438 110:0.0805053 111:-0.346134 112:-0.431165 113:-0.674347 114:0.00582067 115:-0.113659 116:0.138046 117:-0.17992 118:-0.0234859 119:-0.337723 120:-0.700757 121:-0.594476 122:0.135138 123:-0.539022 124:-0.358166 125:-0.466151 126:0.0072766 127:-0.438272 128:0.433197 129:-0.330486 130:-0.103389 131:-0.264639 132:-0.709156 133:-0.27209 134:0.174041 135:-0.319871 136:-0.602299 137:-0.550476 138:0.282747 139:-0.0140137 140:0.356798 141:-0.472858 142:-0.261009 143:-0.0935894 144:-0.560277 145:-0.800656 146:-0.25056 147:-0.231463 148:-0.835951 149:-0.375566 150:-0.287315 151:-0.302485 152:0.132981 153:-0.113191 154:0.25671 155:-0.564808 156:-0.657325 157:0.218919 158:-0.894737 159:0.219839 160:-0.484258 161:-0.858586 162:-0.448963 163:0.244943 164:-0.679547 165:-0.314371 166:-0.0266773 167:-0.0504638 168:-0.407148 169:0.64222 170:0.656822 171:0.308076 172:-0.446565 173:-0.821561 174:-0.207378 175:0.207692 176:-0.358188 177:-0.101172 178:0.202716 179:-0.0416268 180:-0.701534 181:0.878263 183:0.878263 184:-0.675573 185:-1 186:-0.52271 187:0.146931 188:-0.404049 189:-0.349642 190:0.144239 191:-0.690677 192:-0.940825 193:-0.24455 194:-0.069422 195:0.000871695 196:-0.576471 197:-0.281837 198:0.504856 199:0.35855 200:-0.0906856 201:-0.3365 202:0.0466534 203:-0.303953 204:-0.645987 205:-0.482001 206:0.0120316 207:-0.252048 208:-0.445783 209:-0.503782 210:0.0420011 211:0.209281 212:-0.415419 213:-0.703637 214:-0.545088 215:-0.159904 216:0.181177 217:-0.221272 218:0.0849612 219:-0.129736 220:-0.387247 221:-0.332283 222:-0.0400666 223:-0.247546 224:0.15107 225:-0.435796 226:-0.201799 227:-0.127138 228:-0.517639 229:-0.433917 230:0.19995 231:-0.267287 232:-0.598101 233:-0.605307 234:0.157997 235:0.223011 236:-0.106991 237:-0.569906 238:-0.415137 239:-0.178138 240:-0.314869 241:-0.387184 242:0.239027 243:-0.322168 244:-0.63901 245:-0.538462 246:0.0554125 247:-0.315891 248:0.0957985 249:-0.565307 250:-0.373621 251:0.0219404 252:-0.383311 253:0.970295 254:-0.368901 255:0.717778 256:-0.686883 257:-0.659389 258:0.0438634 259:-0.404132 260:0.395241 261:-0.160174 262:0.0589305 263:-0.730797 264:0.380113 265:-0.142771 266:-0.169812 267:0.218435 268:-0.608527 269:-0.508197 270:0.232562 271:-0.233015 272:0.202123 273:0.0264876 274:0.207957 275:-0.0788438 276:-0.129871 277:-0.535162 278:0.280484 279:-0.349608 280:-0.712366 281:-0.746631 282:0.238613 283:-0.533418 284:0.245047 285:-0.40895 286:-0.193982 287:-0.0974909 288:-0.649815 289:0.366863 290:0.0291249 291:0.357149 292:-0.610028 293:-0.585903 294:0.228612 295:-0.181797 296:-0.143089 297:-0.012379 298:0.177919 299:0.0215054 300:0.496165 301:-0.704081 302:0.781107 303:-0.719175 304:-0.639073 305:-0.374376 306:0.467995 307:-0.067359 308:0.109814 309:-0.680017 310:-0.502664 311:0.0409953 312:-0.726758 313:-0.473383 314:0.219618 315:-0.307854 316:-0.655629 317:-0.60745 318:0.26551 319:-0.263828 320:0.0555062 321:-0.627299 322:-0.442001 323:-0.220141 324:-0.253671 325:-0.0889245 326:-0.46691 327:0.297775 328:-0.634969 329:-0.649275 330:0.0389296 331:-0.353622 332:0.235511 333:-0.121611 334:0.0978507 335:-0.573963 336:0.4903 337:-0.303956 338:0.128211 339:-0.0469112 340:-0.714286 341:-0.285171 342:0.116884 343:-0.146202 344:-0.247988 345:-0.341169 346:-0.113164 347:-0.255255 348:-0.0400795 349:0.114387 350:0.911815 351:-0.530029 352:-0.503782 353:-0.552137 354:-0.217816 355:-0.462402 356:0.558651 357:-0.800605 358:-0.650261 359:0.95405 360:1 361:0.517956 362:0.0487893 363:0.409882 364:-0.629344 365:-0.441683 366:0.742982 367:0.732282 368:-0.350327 369:-0.135751 370:0.157792 371:-0.220854 372:-0.602342 373:0.889324 374:-0.779575 375:0.83445 376:-0.696527 377:-0.757241 378:0.102722 379:0.400434 380:-0.50166 381:-0.221051 382:0.246682 383:0.289838 384:-0.877734 
0 0 0 0.1468924751876029 0 0.06291259092220847 1:-0.481324 2:-0.636021 3:-0.479763 4:-0.976501 5:-0.626506 6:-0.278029 7:-0.960516 8:0.645693 9:-0.760617 10:-0.243054 11:-0.671234 12:-0.897142 13:0.120663 14:0.500013 15:-0.493542 16:-0.622159 17:-0.966278 18:0.226417 19:0.890585 20:-0.407169 21:-0.740307 22:-0.360978 23:-0.172866 24:-0.561489 25:0.0614953 26:0.425877 27:-0.378692 28:-0.563981 29:-0.770764 30:0.432762 31:0.533868 32:-0.0480715 33:-0.258067 34:0.0244295 35:0.228047 36:-0.770644 37:0.0943665 38:-0.00635135 39:0.0333807 40:-0.601236 41:-0.634686 42:0.091896 43:0.55712 44:-0.216502 45:0.0844028 46:0.331956 47:0.112393 48:-0.498854 49:-0.0261281 50:0.34085 51:-0.378791 52:-0.55096 53:-0.681452 54:0.253847 55:0.0524659 56:0.0249646 57:-0.400499 58:-0.139332 59:0.170444 60:-0.835246 61:-0.457485 62:-0.400856 63:-0.0075596 64:-0.701843 65:-0.866142 66:-0.248054 67:1 68:-1 69:0.403624 70:0.759895 71:0.163067 72:-0.942587 73:-0.325783 74:0.247013 75:-0.391391 76:-0.648221 77:-0.605341 78:0.0254739 79:0.298964 80:-0.162814 81:0.0623839 82:0.283456 83:0.0139287 84:-0.899671 85:-0.142706 86:0.140327 87:-0.210099 88:-0.585106 89:-0.69873 90:-0.138708 91:-0.051212 92:0.00551925 93:-0.256411 94:-0.0461961 95:0.502952 96:-0.492381 97:-0.476186 98:0.40517 99:-0.618157 100:-0.603558 101:-0.772 102:0.0537667 103:-0.0990357 104:0.156906 105:-0.528207 106:-0.39676 107:0.125135 108:-0.755712 109:-0.748261 110:0.018704 111:-0.558902 112:-0.524962 113:-0.615975 114:-0.3813 115:0.298506 116:-0.444592 117:-0.428879 118:-0.261637 119:-0.172936 120:-0.566577 121:-0.421262 122:0.193743 123:-0.451776 124:-0.661891 125:-0.961315 126:-0.0998156 127:0.740772 128:-0.463164 129:-0.579635 130:-0.0656382 131:0.00941141 132:-0.703594 133:-0.562088 134:0.0645202 135:-0.449887 136:-0.747126 137:-0.977143 138:-0.149359 139:0.606502 140:-0.383824 141:-0.556636 142:-0.240352 143:-0.0521818 144:-0.577741 145:-0.617598 146:-0.358277 147:-0.0158411 148:-0.595113 149:-0.733032 150:-0.525152 151:0.165993 152:-0.484927 153:-0.216688 154:-0.00373661 155:-0.232026 156:-0.36466 157:0.194595 158:-0.842105 159:0.193029 160:-0.94003 161:-0.567677 162:-0.478454 163:-0.717092 164:0.23433 165:-0.612099 166:-0.33676 167:0.0683776 168:-0.209612 169:0.574077 170:0.347513 171:0.345048 172:-0.431298 173:-0.98513 174:0.393321 175:0.872249 176:-0.259897 177:-0.0546921 178:0.376841 179:-0.726088 180:-0.943446 181:0.916667 183:0.916667 184:-0.549618 185:-1 186:-0.0227817 187:0.843604 188:-0.406047 189:-0.278159 190:0.292724 191:-0.875338 192:-0.973362 193:-0.638347 194:0.580773 195:-0.578785 196:-0.971242 197:-0.958246 198:0.46625 199:0.13607 200:-0.156182 201:-0.679488 202:-0.33883 203:0.0759712 204:-0.858047 205:-0.529679 206:0.608716 207:-0.591111 208:-0.774096 209:-0.782148 210:-0.217771 211:0.0612787 212:-0.304013 213:-0.68274 214:-0.517471 215:-0.0721349 216:-0.790515 217:-0.177938 218:0.333537 219:-0.248396 220:-0.785381 221:-0.792126 222:0.130523 223:0.259556 224:-0.156978 225:-0.102898 226:0.138808 227:0.422437 228:-0.881192 229:-0.161566 230:0.336425 231:-0.184836 232:-0.677215 233:-0.708126 234:-0.0482131 235:0.275745 236:-0.154251 237:0.269489 238:0.422936 239:0.0556171 240:-0.815233 241:-0.454527 242:0.599671 243:-0.562102 244:-0.755459 245:-0.77094 246:0.706028 247:-0.162482 248:0.246562 249:-0.350981 250:-0.132868 251:0.0687021 252:-0.851497 253:0.116157 254:-0.00458974 255:0.0767849 256:-0.757405 257:-0.656477 258:0.434025 259:0.44177 260:-0.270118 261:0.215117 262:0.407607 263:-0.311378 264:-0.796172 265:-0.413313 266:0.221468 267:-0.220112 268:-0.5 269:-0.971311 270:0.362912 271:0.0978437 272:0.0533939 273:-0.00467573 274:0.183608 275:-0.223896 276:-0.522805 277:-0.745534 278:0.205941 279:-0.425012 280:-0.817204 281:-0.681941 282:0.348552 283:0.160865 284:-0.247072 285:-0.330407 286:-0.0952083 287:-0.313751 288:-0.710231 289:-0.612971 290:0.432478 291:-0.499863 292:-0.601671 293:-0.832599 294:0.426865 295:0.335064 296:-0.569107 297:-0.471255 298:-0.273967 299:-0.157778 300:-0.59053 301:-0.20314 302:0.850286 303:-0.503667 304:-0.576159 305:-0.97005 306:0.125344 307:0.651661 308:-0.595456 309:-0.664734 310:-0.464639 311:0.586576 312:-0.185307 313:-0.49496 314:0.535992 315:-0.515937 316:-0.874172 317:-0.853868 318:0.103341 319:0.302251 320:-0.396164 321:-0.467678 322:-0.246051 323:0.192869 324:-0.752144 325:-0.0844839 326:0.0429208 327:0.00915037 328:-0.800613 329:-0.849275 330:0.436381 331:-0.0286537 332:0.153407 333:0.0312923 334:0.242267 335:-0.231478 336:-0.651904 337:-0.558234 338:0.727156 339:-0.657942 340:-0.786535 341:-0.790875 342:0.422493 343:0.104811 344:-0.215534 345:-0.591132 346:-0.394183 347:0.553737 348:-0.529082 349:0.101877 350:0.0410957 351:-0.0280282 352:-0.960666 353:-0.928205 354:-0.180927 355:-0.663597 356:0.699554 357:-0.171114 358:0.0879582 359:-0.195898 360:-0.430684 361:0.37976 362:-0.340713 363:0.56095 364:-0.687259 365:-0.586998 366:0.502078 367:-0.180391 368:0.538092 369:0.218981 370:0.460146 371:-0.27449 372:-0.752858 373:0.927083 374:-0.90625 375:0.916667 376:-0.575868 377:-0.668966 378:-0.433794 379:-0.292773 380:0.267378 381:0.0157616 382:0.426491 383:0.331237 384:-0.909132 
0.5742840667855729 0 0 0 0 0.4927626297338521 1:-0.838394 2:-0.809955 3:-0.836955 4:-0.968668 5:-0.578313 6:-0.62962 7:-0.219935 8:-0.146867 9:-0.899094 10:-0.714924 11:-0.664931 12:-0.897682 13:0.258856 14:0.3527 15:-0.280018 16:-0.559659 17:-0.738003 18:0.314472 19:0.187481 20:-0.0229987 21:-0.520011 22:-0.314261 23:-0.0450563 24:-0.587651 25:0.21682 26:-0.0236445 27:0.124065 28:-0.478673 29:-0.960133 30:0.252049 31:0.98356 32:-0.466618 33:0.120019 34:0.570913 35:0.141562 36:-0.942085 37:-0.288076 38:-0.0358032 39:-0.260438 40:-0.715611 41:-0.837638 42:-0.261935 43:-0.041174 44:-0.190724 45:-0.233252 46:-0.0903926 47:-0.0264233 48:-0.669309 49:0.0704071 50:0.672086 51:-0.637872 52:-0.79616 53:-0.487903 54:0.4125 55:0.0139755 56:0.128149 57:-0.494612 58:-0.244795 59:0.356819 60:-0.955401 61:-0.508945 62:-0.46428 63:0.00648551 64:-0.979899 65:-0.909449 66:-0.143165 67:-0.214462 68:-0.151378 69:0.159256 70:0.327764 71:0.0279685 72:-0.82424 73:-0.413065 74:-0.446737 75:0.206489 76:-0.948617 77:-0.554896 78:-0.184983 79:-0.373871 80:0.16258 81:0.105088 82:0.336352 83:-0.389597 84:-0.239672 85:0.13422 86:0.403279 87:-0.229803 88:-0.994681 89:-0.669691 90:0.0758717 91:-0.176154 92:0.22661 93:-0.201016 94:0.0041348 95:0.22023 96:-0.665254 97:-0.300076 98:-0.011946 99:-0.106684 100:-0.819568 101:-0.784 102:-0.146863 103:-0.443346 104:0.290493 105:-0.27057 106:-0.0130494 107:0.267486 108:-0.615208 109:-0.728922 110:-0.122179 111:-0.414499 112:-0.969743 113:-0.671275 114:-0.314387 115:-0.163624 116:-0.118743 117:-0.437397 118:-0.27298 119:-0.235543 120:-0.513039 121:-0.504054 122:-0.0128951 123:-0.34047 124:-0.799427 125:-0.705996 126:-0.528383 127:-0.252184 128:-0.13188 129:-0.598666 130:-0.464818 131:0.378281 132:-0.168429 133:-0.73273 134:-0.201185 135:-0.35047 136:-0.597701 137:-0.965714 138:-0.460179 139:0.341721 140:-0.453219 141:-0.585309 142:-0.349437 143:-0.058898 144:-0.489393 145:-0.489975 146:-0.526365 147:0.197578 148:-0.755672 149:-0.497738 150:-0.542229 151:-0.0590115 152:-0.333706 153:-0.221735 154:0.0192865 155:-0.175329 156:-0.384814 157:0.175675 158:-0.842105 159:0.174262 160:-0.67916 161:-0.309091 162:-0.520949 163:-0.231288 164:-0.169458 165:-0.638693 166:-0.470408 167:0.426133 168:0.234406 169:0.418214 170:0.873186 171:0.0671891 172:-0.770992 173:-0.977695 174:0.493512 175:0.300843 176:0.0772955 177:-0.0482336 178:0.250407 179:-0.730944 180:-0.945412 181:0.189286 183:0.189286 184:-0.916031 185:-1 186:-0.134039 187:0.195349 188:-0.133 189:-0.451658 190:0.0523221 191:-0.927453 192:-0.983355 193:-0.886362 194:0.676498 195:-0.788646 196:-0.963399 197:-0.949896 198:0.465953 199:0.5456 200:-0.527589 201:-0.919644 202:-0.753305 203:-0.440061 204:-0.743157 205:-0.412365 206:-0.0920604 207:-0.1545 208:-0.689759 209:-0.921331 210:-0.176978 211:-0.286124 212:0.12744 213:-0.391914 214:-0.16987 215:-0.299625 216:-0.57754 217:0.344266 218:-0.206658 219:0.379169 220:-0.542768 221:-0.974803 222:-0.229975 223:0.17638 224:-0.22935 225:0.0120846 226:0.243627 227:0.0543399 228:-0.567757 229:-0.143661 230:0.886087 231:-0.505255 232:-0.658228 233:-0.694859 234:-0.340024 235:0.472621 236:-0.461509 237:-0.410095 238:-0.229809 239:0.35958 240:-0.552825 241:-0.479285 242:0.478748 243:-0.505419 244:-0.857351 245:-0.719658 246:0.268578 247:-0.287895 248:0.224109 249:-0.478386 250:-0.273515 251:-0.15068 252:-0.692612 253:-0.203778 254:-0.0875484 255:-0.0170968 256:-0.90409 257:-0.956332 258:0.183216 259:0.291211 260:-0.291782 261:0.0887721 262:0.297845 263:-0.366439 264:-0.649479 265:0.536133 266:0.000856434 267:0.497932 268:-0.430233 269:-0.557377 270:0.101213 271:0.274521 272:-0.302657 273:0.150472 274:0.329936 275:0.13944 276:0.407717 277:-0.734672 278:0.386065 279:-0.532854 280:-0.811828 281:-0.97035 282:-0.0745923 283:-0.0787159 284:-0.214381 285:-0.669261 286:-0.488262 287:-0.0336138 288:-0.583131 289:0.0323647 290:0.432938 291:-0.115045 292:-0.835655 293:-0.685756 294:0.437523 295:0.272833 296:-0.592804 297:-0.152543 298:0.0597288 299:0.405901 300:-0.503431 301:-0.630794 302:0.194287 303:-0.334853 304:-0.642384 305:-0.963394 306:0.289515 307:0.237759 308:-0.201189 309:-0.597442 310:-0.392564 311:-0.735397 312:0.219043 313:-0.265137 314:0.231589 315:-0.186346 316:-0.794702 317:-0.934097 318:-0.0637186 319:0.378659 320:-0.623187 321:-0.268958 322:-0.0303635 323:-0.170012 324:-0.544506 325:-0.371279 326:0.579669 327:-0.44329 328:-0.966258 329:-0.973913 330:0.128306 331:0.642444 332:-0.689646 333:-0.483727 334:-0.256029 335:0.266717 336:-0.708285 337:-0.450641 338:0.426349 339:-0.364245 340:-0.789819 341:-0.737643 342:0.0928448 343:0.3086 344:-0.59631 345:-0.197608 346:0.0412185 347:0.505003 348:-0.646714 349:-0.0107236 350:-0.319349 351:0.11962 352:-0.700454 353:-0.634188 354:-0.185431 355:-0.599146 356:0.668848 357:-0.422654 358:-0.169259 359:-0.487743 360:0.218626 361:-0.0124307 362:-0.185805 363:0.250006 364:-0.579151 365:-0.900574 366:0.213792 367:0.115803 368:0.228341 369:0.116146 370:0.375572 371:-0.375414 372:-0.827209 373:0.187947 374:-0.0262922 375:0.10712 376:-0.926874 377:-0.721379 378:-0.433794 379:-0.119584 380:0.113959 381:-0.325845 382:0.162011 383:0.257249 384:-0.939484 
0 1.92658057496846 0 0 0 0 1:-0.61503 2:-0.798557 3:-0.613217 4:-0.97389 5:-0.987952 6:-0.29777 7:-0.094712 8:0.0860038 9:-0.676077 10:-0.344942 11:-0.626852 12:-0.896333 13:0.2294 14:-0.378712 15:0.252329 16:-0.755682 17:-0.320363 18:0.0293848 19:-0.0549609 20:-0.10446 21:0.0171576 22:0.217362 23:-0.523742 24:-0.328073 25:-0.118739 26:0.00916821 27:-0.131684 28:-0.535545 29:-0.86711 30:0.0835522 31:0.164112 32:-0.163899 33:-0.442483 34:-0.222378 35:-0.15102 36:-0.571599 37:-0.306376 38:-0.391352 39:0.00367885 40:-0.502318 41:-0.332103 42:-0.269909 43:-0.0174162 44:-0.232778 45:0.202297 46:0.32852 47:-0.240038 48:-0.615427 49:-0.411018 50:0.163382 51:-0.434447 52:-0.556869 53:-0.254032 54:-0.198841 55:-0.206267 56:-0.13803 57:-0.448959 58:-0.224238 59:0.358121 60:-0.848093 61:-0.673917 62:-0.271331 63:-0.271941 64:-0.99665 65:-0.106299 66:-0.268704 67:-0.313041 68:-0.126531 69:-0.294644 70:-0.0629056 71:0.432292 72:-0.845494 73:-0.228458 74:0.142102 75:-0.20782 76:-0.249012 77:-0.169139 78:-0.182613 79:-0.081009 80:-0.0297409 81:0.179232 82:0.343653 83:-0.0892581 84:-0.86107 85:-0.226124 86:-0.270096 87:0.0653231 88:-0.204787 89:-0.876588 90:-0.366369 91:0.138958 92:-0.416513 93:-0.0304319 94:0.263582 95:0.21965 96:-0.797193 97:-0.345436 98:-0.372619 99:0.197136 100:-0.308767 101:-0.136 102:0.0474744 103:0.00146231 104:0.0687995 105:0.275336 106:0.407325 107:-0.351904 108:-0.403716 109:-0.367918 110:-0.2822 111:0.00789955 112:-0.803328 113:-0.698925 114:-0.235337 115:-0.19525 116:0.0775291 117:-0.0677124 118:0.126286 119:-0.320705 120:-0.593149 121:-0.645862 122:-0.0573473 123:-0.414919 124:-0.487106 125:-0.733075 126:-0.470515 127:-0.0665801 128:-0.285913 129:-0.388278 130:-0.19641 131:0.349875 132:-0.810621 133:-0.381208 134:-0.150552 135:-0.121089 136:-0.310345 137:-0.977143 138:-0.259539 139:0.308795 140:-0.428781 141:-0.349881 142:-0.0485196 143:0.0668205 144:-0.628235 145:-0.108107 146:0.0913953 147:0.0757606 148:-0.815009 149:-0.171946 150:-0.228495 151:0.138187 152:-0.208197 153:0.32563 154:0.478065 155:0.0631839 156:-0.907778 157:-0.175676 158:-0.736842 159:-0.179625 160:-0.211394 161:-0.69697 162:-0.312232 163:-0.237851 164:-0.0536302 165:-0.398199 166:-0.225936 167:-0.270938 168:-0.593716 169:0.770512 170:-0.106027 171:0.633818 172:-0.236641 173:-0.375465 174:0.778749 175:-0.0126734 176:0.408714 177:0.873225 178:0.897095 179:-0.805818 180:-0.984968 181:0.664447 183:0.664447 184:-0.790076 185:-1 186:0.450637 187:0.0615446 188:0.346256 189:0.217111 190:0.558961 191:-0.977275 192:-0.985532 193:-0.690795 194:0.59007 195:-0.61775 196:-0.932026 197:-0.878914 198:0.47797 199:0.782203 200:-0.603888 201:-0.650297 202:-0.302417 203:-0.0631852 204:-0.934501 205:0.328611 206:0.313443 207:0.0993807 208:-0.939759 209:-0.960666 210:0.340672 211:0.211622 212:-0.369284 213:-0.346739 214:-0.124603 215:0.518769 216:-0.366199 217:0.0332899 218:0.125761 219:-0.00079353 220:-0.732504 221:-0.908661 222:0.0668298 223:-0.154892 224:-0.0645805 225:-0.115059 226:0.126219 227:0.510273 228:-0.830226 229:-0.504696 230:0.106646 231:-0.25386 232:-0.512658 233:-0.917081 234:-0.428211 235:0.127795 236:-0.141493 237:-0.142656 238:0.0432883 239:-0.124364 240:-0.730157 241:-0.426911 242:0.571433 243:-0.532098 244:-0.804949 245:-0.979487 246:-0.487718 247:-0.515786 248:0.17802 249:-0.559675 250:-0.369417 251:0.278633 252:-0.722658 253:0.438275 254:0.143632 255:0.128193 256:-0.196051 257:-0.196507 258:-0.253194 259:-0.390206 260:0.199115 261:-0.165948 262:0.0540056 263:0.0857684 264:-0.668726 265:0.429051 266:-0.189134 267:0.570009 268:0.0968992 269:0.135246 270:-0.159297 271:-0.327542 272:0.0960164 273:0.274729 274:0.424221 275:-0.0462404 276:-0.253625 277:0.346453 278:-0.0199047 279:0.354808 280:-0.897849 281:-0.743935 282:0.111349 283:-0.587618 284:0.14017 285:0.0142224 286:0.225775 287:0.291618 288:-0.595905 289:-0.075893 290:-0.316677 291:0.326331 292:-0.629526 293:-0.603524 294:0.373534 295:-0.251803 296:-0.114422 297:0.377527 298:0.521942 299:-0.44594 300:-0.417719 301:-0.123943 302:-0.00128228 303:0.0401479 304:-0.0662252 305:-0.673877 306:0.047042 307:-0.0512573 308:-0.136404 309:-0.130332 310:0.105616 311:-0.282762 312:-0.461358 313:-0.362381 314:0.218379 315:-0.238397 316:-0.774834 317:-0.842407 318:-0.0630363 319:-0.336541 320:-0.0726963 321:-0.259739 322:-0.030303 323:-0.0057684 324:-0.606779 325:0.101285 326:0.349779 327:-0.0712355 328:-0.484663 329:-0.510145 330:-0.001094 331:-0.332488 332:0.0846821 333:0.036085 334:0.2457 335:0.204866 336:-0.718317 337:-0.0822181 338:0.215646 339:0.033516 340:-0.178982 341:-0.34981 342:-0.201543 343:-0.441856 344:-0.00437725 345:-0.00812689 346:0.207981 347:0.186121 348:-0.663467 349:0.107239 350:-0.0385276 351:0.0215219 352:-0.866868 353:-0.82906 354:-0.184331 355:-0.408912 356:0.550699 357:-0.280033 358:-0.0208762 359:-0.16438 360:-0.433866 361:0.443786 362:-0.53408 363:0.71036 364:-0.343629 365:-0.85086 366:0.0107984 367:0.407442 368:-0.017508 369:0.0997068 370:0.360648 371:-0.352607 372:-0.519764 373:0.668768 374:-0.604965 375:0.636867 376:-0.806216 377:-0.878621 378:-0.0794591 379:0.186736 380:-0.0885484 381:-0.286965 382:0.19322 383:0.271013 384:-0.898651 
0.5464920534227012 0 0 0 0.5705910206123562 0 1:-0.719457 2:-0.75544 3:-0.717967 4:-0.877285 5:-1 6:-0.144789 7:0.000278465 8:-0.0251119 9:-0.622026 10:-0.30271 11:-0.860671 12:-0.98783 13:0.162953 14:-0.829322 15:0.544673 16:-0.71875 17:-0.86511 18:0.0730576 19:0.468092 20:-0.36001 21:0.0835807 22:0.366448 23:-0.512014 24:-0.423821 25:-0.0126991 26:0.103035 27:-0.143111 28:-0.42812 29:-0.774086 30:0.247391 31:0.140776 32:0.0165607 33:0.0053868 34:0.209567 35:-0.075631 36:-0.696229 37:-0.462108 38:0.0996527 39:-0.51107 40:-0.443586 41:-0.564576 42:-0.353304 43:0.140798 44:-0.410179 45:-0.462325 46:-0.318973 47:0.245331 48:-0.961307 49:0.0134842 50:0.404869 51:-0.416634 52:-0.660266 53:-0.733871 54:0.0368428 55:0.148242 56:-0.219345 57:-0.453687 58:-0.143169 59:0.59073 60:-0.826854 61:-0.760797 62:-0.332029 63:-0.286086 64:-0.9866 65:-0.34252 66:-0.462352 67:0.0598516 68:-0.676701 69:-0.36473 70:-0.148234 71:0.345899 72:-0.653311 73:-0.272073 74:0.357616 75:-0.453167 76:-0.980237 77:-0.88724 78:-0.225245 79:0.0132353 80:-0.165601 81:-0.280885 82:-0.0879225 83:0.433675 84:-0.446444 85:-0.242332 86:-0.121087 87:-0.0672837 88:-0.494681 89:-0.480944 90:-0.568505 91:-0.0434469 92:-0.331937 93:0.0131886 94:0.214289 95:0.519037 96:-0.60802 97:-0.549071 98:0.454946 99:-0.715526 100:-0.982211 101:-0.328 102:0.0239419 103:0.0580422 104:0.00210822 105:-0.377088 106:-0.221956 107:0.331287 108:-0.987861 109:-0.00854459 110:0.0441413 111:-0.0185768 112:-0.866868 113:-0.9447 114:0.00847742 115:0.155614 116:-0.0623727 117:-0.428952 118:-0.278155 119:-0.208625 120:-0.199892 121:-0.0639775 122:0.0990238 123:-0.0871342 124:-0.893983 125:-0.49323 126:-0.495567 127:-0.738763 128:0.272657 129:-0.119173 130:0.224921 131:0.625796 132:-0.329221 133:0.466713 134:0.103738 135:0.316696 136:-0.903448 137:-0.645714 138:-0.203356 139:-0.79311 140:0.629574 141:0.0439065 142:0.508698 143:0.719867 144:-0.302256 145:0.292026 146:0.540179 147:0.0828158 148:-0.839442 149:-0.597285 150:0.168703 151:-0.563316 152:0.604545 153:-0.0341347 154:0.422602 155:0.576685 156:-0.658478 157:0.362162 158:-0.894737 159:0.36193 160:-0.55922 161:-0.99596 162:-0.114189 163:-0.216465 164:-0.0172209 165:-0.0225821 166:0.0827508 167:-0.344634 168:-0.645183 169:0.973995 170:1 171:0.469809 172:-0.835878 173:-0.472119 174:0.948699 175:0.0571492 176:0.497786 177:0.737421 178:0.810473 179:-0.835771 180:-0.960187 181:0.932381 183:0.932381 184:-0.832061 185:-1 186:0.559831 187:-0.459537 188:0.799766 189:0.367263 190:0.684741 191:-0.920395 192:-0.978728 193:-0.610457 194:0.42611 195:-0.484005 196:-0.636601 197:-0.803758 198:0.471702 199:0.339699 200:-0.216469 201:-0.557179 202:-0.186477 203:-0.0442862 204:-0.924152 205:0.0934715 206:-0.0990844 207:0.165906 208:-0.572289 209:-0.697428 210:-0.0952482 211:-0.0632692 212:-0.0897862 213:-0.0921187 214:0.130538 215:0.142775 216:-0.371048 217:0.279917 218:0.140677 219:0.13845 220:-0.698289 221:-0.527559 222:-0.000131261 223:0.14831 224:-0.20318 225:0.0403854 226:0.269012 227:0.0467492 228:-0.697044 229:-0.688321 230:0.0231828 231:-0.314604 232:-0.911392 233:-0.883914 234:-0.227588 235:0.440078 236:-0.432553 237:-0.363221 238:-0.179072 239:-0.335344 240:-0.475694 241:-0.644614 242:0.279774 243:-0.474704 244:-0.871907 245:-0.6 246:-0.171338 247:-0.085136 248:-0.163615 249:-0.437283 250:-0.222933 251:-0.240508 252:-0.761844 253:-0.0939862 254:-0.226633 255:0.126775 256:-0.526093 257:-0.985444 258:0.0312418 259:0.375584 260:-0.527505 261:-0.373942 262:-0.142971 263:-0.310722 264:-0.266576 265:-0.48317 266:0.593581 267:-0.526449 268:-0.476744 269:-0.528689 270:0.0136182 271:0.104804 272:-0.207699 273:-0.415058 274:-0.218392 275:0.192509 276:-0.68226 277:-0.71032 278:0.136104 279:-0.360214 280:-0.510753 281:-0.832884 282:-0.0310591 283:0.13835 284:-0.536486 285:-0.263254 286:-0.018724 287:-0.155105 288:-0.811907 289:-0.372708 290:0.237042 291:-0.22456 292:-0.802228 293:-0.506608 294:0.204832 295:0.0285974 296:-0.383991 297:-0.385095 298:-0.1894 299:0.11128 300:-0.344972 301:-0.239605 302:0.18472 303:-0.128978 304:-0.407285 305:-0.846922 306:0.247986 307:-0.0100176 308:0.0391042 309:-0.41199 310:-0.183004 311:0.0117737 312:-0.194196 313:-0.250362 314:0.444464 315:-0.308228 316:-0.407285 317:-0.968481 318:0.224905 319:0.0567052 320:-0.253485 321:-0.428291 322:-0.204219 323:0.280057 324:-0.578259 325:0.314489 326:0.25935 327:0.0890405 328:-0.947853 329:-0.573913 330:0.0531443 331:0.0186537 332:-0.132162 333:-0.0700128 334:0.151459 335:0.188032 336:-0.263546 337:-0.511491 338:0.398603 339:-0.383532 340:-0.399015 341:-0.828897 342:0.0868738 343:-0.397382 344:0.14647 345:-0.441289 346:-0.227519 347:0.371282 348:-0.549124 349:0.430741 350:-0.343323 351:0.380881 352:-0.573374 353:-0.497436 354:-0.170344 355:-0.637048 356:0.745126 357:0.514564 358:0.662188 359:-0.278518 360:-0.58933 361:0.575738 362:-0.578652 363:0.810547 364:-0.752896 365:-0.824092 366:-0.0798373 367:-0.122171 368:0.474493 369:0.583058 370:0.727806 371:-0.332643 372:-0.72346 373:0.632651 374:-0.755222 375:0.693938 376:-0.886654 377:-0.862069 378:-0.433794 379:-0.341798 380:0.50431 381:0.14833 382:0.518416 383:0.278089 384:-0.91746 
5.944436408420119 0.5966178621784446 0 3.369039966622901 2.194033818091532 0.09219894165390888 1:-0.441772 2:-0.715299 3:-0.439897 4:-0.869452 5:-0.436145 6:-0.00761543 7:-0.220635 8:0.366097 9:-0.557429 10:-0.176191 11:-0.773773 12:-0.94594 13:-0.0620105 14:-0.527832 15:0.150354 16:-0.369318 17:-0.514916 18:-0.162467 19:0.047358 20:-0.286007 21:0.191381 22:0.381541 23:-0.511293 24:-0.461402 25:0.206797 26:0.560146 27:-0.39935 28:-0.304897 29:-0.960133 30:0.395429 31:0.228727 32:0.0282681 33:-0.669587 34:-0.483108 35:0.466359 36:-0.189684 37:-0.00549028 38:0.147391 39:-0.170141 40:-0.440495 41:-0.523985 42:0.117992 43:0.618953 44:-0.45059 45:-0.43227 46:0.0684619 47:-0.0430807 48:-0.804532 49:-0.0954985 50:0.568104 51:-0.63569 52:-0.512555 53:-0.495968 54:0.197313 55:-0.191139 56:0.10933 57:-0.701989 58:-0.533898 59:0.41316 60:-0.814857 61:-0.466269 62:-0.382772 63:-0.0287598 64:-0.658291 65:-0.838583 66:-0.475286 67:0.165771 68:-0.829218 69:0.0863086 70:0.310561 71:0.530448 72:-0.838263 73:-0.543757 74:-0.0380151 75:-0.299249 76:-0.343874 77:-0.866469 78:-0.565751 79:-0.0393725 80:-0.379718 81:0.272092 82:0.418378 83:0.100069 84:-0.80817 85:-0.0634329 86:0.224184 87:-0.222723 88:-0.994681 89:-0.553539 90:0.0328968 91:-0.104009 92:0.135165 93:-0.545384 94:-0.360695 95:0.294715 96:-0.208825 97:-0.0767146 98:-0.324344 99:0.34045 100:-0.499365 101:-0.884 102:-0.0721495 103:0.102333 104:-0.145965 105:0.417258 106:0.53543 107:0.280103 108:-0.679972 109:-0.584404 110:-0.25213 111:-0.18476 112:-0.990923 113:-0.652842 114:-0.286207 115:0.0393824 116:-0.220197 117:-0.29171 118:-0.145924 119:-0.307106 120:-0.371962 121:-0.656325 122:-0.0997336 123:-0.386914 124:-0.386819 125:-0.852998 126:-0.35772 127:0.344296 128:-0.58005 129:-0.374718 130:0.0664627 131:-0.122795 132:-0.703803 133:-0.770258 134:-0.196534 135:-0.383749 136:-0.809195 137:-0.504762 138:-0.332718 139:0.470757 140:-0.579396 141:-0.483211 142:-0.123336 143:-0.157482 144:-0.669256 145:-0.711042 146:-0.10691 147:-0.259155 148:-0.982548 149:-0.447964 150:-0.331958 151:0.174813 152:-0.337647 153:-0.301985 154:-0.0892464 155:-0.367693 156:-0.619738 157:0.337838 158:-0.894737 159:0.337801 160:-0.817091 161:-0.0262626 162:-0.0119482 163:-0.454114 164:0.323642 165:0.0881714 166:0.204765 167:-0.456953 168:-0.725209 169:0.738845 170:0.494316 171:0.432314 172:-0.587786 173:-0.3829 174:0.326568 175:-0.0480698 176:0.166571 177:0.268587 178:0.47432 179:-0.614647 180:-0.969063 181:0.447252 183:0.447252 184:-0.591603 185:-1 186:-0.061062 187:-0.0585509 188:0.0957712 189:-0.241472 190:0.231705 191:-0.901862 192:-0.981146 193:-0.508338 194:0.45301 195:-0.430399 196:-0.864052 197:-0.235908 198:0.473864 199:0.546891 200:-0.31874 201:-0.49008 202:-0.111441 203:-0.0268093 204:-0.935826 205:0.431301 206:-0.180029 207:0.419407 208:-0.430723 209:-0.763994 210:-0.18709 211:0.10612 212:-0.307307 213:0.138109 214:0.338021 215:0.0143067 216:-0.596591 217:-0.170553 218:0.583571 219:-0.389469 220:-0.772939 221:-0.486614 222:-0.250196 223:-0.280371 224:0.126015 225:-0.317386 226:-0.0751839 227:0.628954 228:-0.865926 229:-0.221991 230:0.176286 231:-0.124871 232:-0.651899 233:-0.950249 234:0.0555852 235:0.0241422 236:0.150895 237:-0.176536 238:0.00984888 239:-0.255102 240:-0.56799 241:-0.351221 242:0.31851 243:-0.349538 244:-0.962154 245:-0.432479 246:0.0316135 247:-0.456187 248:0.266698 249:-0.575167 250:-0.387644 251:0.466466 252:-0.421427 253:0.102679 254:-0.499895 255:0.400562 256:-0.390691 257:-0.705968 258:-0.0986531 259:-0.0935524 260:-0.148356 261:0.145588 262:0.343407 263:-0.433624 264:-0.650725 265:-0.526775 266:0.0141614 267:-0.139469 268:-0.387597 269:-0.897541 270:-0.0669438 271:-0.0839877 272:-0.16137 273:0.0718371 274:0.254848 275:-0.327547 276:-0.730545 277:-0.245536 278:0.392218 279:-0.251572 280:-0.806452 281:-0.541779 282:-0.151477 283:-0.579724 284:0.174855 285:-0.549762 286:-0.354151 287:0.211539 288:-0.592836 289:0.171004 290:0.366605 291:0.0124672 292:-0.518106 293:-0.74743 294:0.263992 295:-0.117459 296:-0.292437 297:0.46935 298:0.600677 299:0.325062 300:-0.751472 301:-0.374037 302:0.618737 303:-0.45429 304:-0.609272 305:-0.71381 306:0.0218444 307:0.0251378 308:-0.163747 309:-0.401762 310:-0.169418 311:0.0933524 312:-0.810555 313:-0.188346 314:0.294793 315:-0.177726 316:-0.758278 317:-0.381089 318:-0.272573 319:-0.0739094 320:-0.432437 321:-0.370694 322:-0.141677 323:-0.126379 324:-0.443975 325:-0.108343 326:0.329159 327:-0.166328 328:-0.601227 329:-0.976812 330:-0.0859543 331:-0.0680363 332:-0.232928 333:-0.0303593 334:0.189317 335:-0.0497705 336:-0.757328 337:-0.236419 338:0.328657 339:-0.151382 340:-0.46798 341:-0.410646 342:0.0232374 343:-0.232403 344:-0.194187 345:-0.304335 346:-0.0761874 347:-0.10589 348:-0.414793 349:0.30831 350:-0.240583 351:0.252252 352:-0.833585 353:-0.917949 354:-0.203528 355:-0.515572 356:0.656669 357:0.388707 358:0.565858 359:-0.166945 360:-0.675342 361:0.646615 362:-0.461525 363:0.781568 364:-0.602317 365:-0.873805 366:-0.114012 367:0.144487 368:0.285116 369:0.39278 370:0.590128 371:-0.261263 372:-0.773797 373:0.454455 374:-0.400138 375:0.427296 376:-0.616088 377:-0.732414 378:-0.433794 379:0.0690136 380:-0.0157707 381:-0.253345 382:0.221791 383:0.295766 384:-0.925951 
0 3.990627184992741 0 0 0 0 1:-0.529218 2:-0.742851 3:-0.527419 4:-0.851175 5:-0.783133 6:-0.0608576 7:0.139028 8:-0.117445 9:-0.539827 10:-0.203881 11:-0.744121 12:-0.945782 13:-0.00640629 14:-0.853227 15:0.437866 16:-0.315341 17:-0.483787 18:-0.354025 19:-0.183007 20:-0.229491 21:0.529431 22:0.644299 23:-0.510615 24:-0.567382 25:-0.355592 26:0.12105 27:-0.39072 28:-0.235387 29:-0.837209 30:0.114371 31:-0.000551601 32:0.0196969 33:-0.498147 34:-0.30708 35:-0.0710526 36:-0.559705 37:-0.226818 38:-0.0839265 39:-0.171869 40:-0.282844 41:-0.464945 42:0.0104193 43:0.569429 44:-0.51515 45:-0.211146 46:0.239438 47:0.0256762 48:-0.901178 49:-0.284126 50:0.373138 51:-0.560128 52:-0.279173 53:-0.342742 54:-0.234086 55:-0.417521 56:0.0473843 57:-0.607491 58:-0.392717 59:0.660771 60:-0.788456 61:-0.788079 62:-0.37923 63:-0.26756 64:-0.393635 65:-0.877953 66:-0.573989 67:-0.103998 68:-0.678206 69:-0.136487 70:0.0643197 71:0.495724 72:-0.891548 73:-0.468447 74:0.00885471 75:-0.281136 76:-0.905138 77:-0.335312 78:-0.511163 79:-0.444738 80:0.0972568 81:-0.068935 82:0.300624 83:0.117884 84:-0.729017 85:-0.395103 86:-0.30955 87:-0.0211016 88:-0.981383 89:-0.499093 90:-0.136652 91:-0.047378 92:-0.0363853 93:-0.274391 94:-0.0561711 95:-0.0896232 96:-0.424839 97:-0.00425621 98:-0.335689 99:0.401762 100:-0.987294 101:-0.796 102:0.0559791 103:-0.203417 104:0.323251 105:0.279815 106:0.442695 107:-0.0708448 108:-0.532549 109:-0.525521 110:-0.636251 111:0.213648 112:-0.984871 113:-0.695853 114:-0.211367 115:-0.181918 116:0.0349639 117:-0.223153 118:-0.0386392 119:-0.851603 120:0.675975 121:0.135054 122:-0.127156 123:0.26454 124:-0.441261 125:-0.883946 126:-0.161392 127:0.241182 128:-0.345338 129:0.455057 130:0.705128 131:0.150437 132:-0.583827 133:-0.127874 134:-0.0914833 135:0.0244858 136:-0.908046 137:-0.470476 138:-0.0469213 139:-0.050147 140:0.163722 141:0.0618434 142:0.250948 143:-0.0408656 144:-0.640136 145:0.447827 146:0.434938 147:0.275534 148:-0.329843 149:-0.565611 150:0.241157 151:0.148742 152:0.113875 153:-0.194864 154:0.0195513 155:0.878256 156:0.133748 157:0.491892 158:-0.947368 159:0.493297 160:-0.928036 161:-1 162:0.31089 163:-0.315307 164:0.283929 165:0.449716 166:0.413531 167:-0.617496 168:-0.814391 169:0.929018 170:0.473337 171:0.588998 172:-0.851145 173:-0.832714 174:0.654885 175:-0.135162 176:0.444121 177:0.67553 178:0.766085 179:-0.631036 180:-0.971332 181:0.861111 183:0.861111 184:-0.839695 185:-1 186:0.452698 187:0.0114766 188:0.401843 189:0.529688 190:0.746697 191:-0.929287 192:-0.983413 193:-0.628221 194:0.616918 195:-0.59003 196:-0.775163 197:-0.160752 198:0.574856 199:0.592791 200:-0.374826 201:-0.587108 202:-0.222678 203:0.069561 204:-0.944922 205:0.208485 206:-0.0645636 207:0.220041 208:-0.373494 209:-0.812405 210:0.693863 211:0.463057 212:-0.684554 213:-0.0202919 214:0.198832 215:0.028398 216:-0.498253 217:0.0370142 218:0.38582 219:-0.149896 220:-0.748056 221:-0.858268 222:0.280409 223:0.0705053 224:-0.218567 225:-0.277818 226:-0.0299404 227:0.396569 228:-0.721016 229:-0.373018 230:0.486556 231:-0.403179 232:-0.607595 233:-0.562189 234:-0.038932 235:0.18861 236:-0.122347 237:-0.357418 238:-0.176529 239:-0.194646 240:-0.720388 241:-0.249015 242:0.478415 243:-0.389618 244:-0.691412 245:-0.603419 246:0.298543 247:-0.151482 248:-0.150332 249:-0.527398 250:-0.32297 251:0.1423 252:-0.609241 253:-0.0729745 254:0.182496 255:-0.136064 256:-0.610719 257:-0.362445 258:-0.312845 259:-0.146109 260:-0.141083 261:0.0864536 262:0.29082 263:-0.127614 264:-0.948617 265:-0.595394 266:0.0841953 267:-0.229895 268:-0.767442 269:-0.0942623 270:-0.678667 271:-0.379687 272:0.106414 273:-0.188111 274:0.00270857 275:-0.353114 276:-0.396986 277:-0.217085 278:0.10824 279:-0.0549801 280:-0.615591 281:-0.983827 282:-0.496388 283:-0.674918 284:0.222869 285:-0.259078 286:-0.0392139 287:-0.0939786 288:-0.606775 289:0.384239 290:-0.105522 291:0.458404 292:-0.593315 293:-0.85022 294:-0.537047 295:-0.481158 296:0.183717 297:0.511591 298:0.627439 299:-0.0791781 300:-0.182352 301:-0.25058 302:0.311442 303:-0.209489 304:-0.662252 305:-0.677205 306:-0.124813 307:-0.0565991 308:-0.0755551 309:-0.286224 310:-0.0496432 311:0.13811 312:-0.604619 313:0.68388 314:0.107616 315:0.477274 316:-0.903974 317:-0.882521 318:-0.261772 319:-0.240988 320:-0.200837 321:0.348591 322:0.517111 323:0.352709 324:-0.438102 325:0.143914 326:0.231789 327:0.0178149 328:-0.763804 329:-0.602899 330:-0.313464 331:-0.518085 332:0.329289 333:0.120402 334:0.318522 335:0.15215 336:-0.594077 337:-0.415704 338:0.153333 339:-0.13878 340:-0.382594 341:-0.26616 342:-0.170345 343:-0.794382 344:0.613573 345:-0.143557 346:0.079894 347:-0.0899115 348:-0.455946 349:0.287757 350:-0.243151 351:0.242243 352:-0.812405 353:-0.911111 354:-0.166678 355:-0.561286 356:0.744674 357:0.349216 358:0.536079 359:-0.0856201 360:-0.676433 361:0.626667 362:-0.694192 363:0.906931 364:-0.274131 365:-0.847036 366:0.233434 367:0.610046 368:-0.319583 369:0.780915 370:0.855426 371:-0.350734 372:-0.728947 373:0.839881 374:-0.864583 375:0.852232 376:-0.301645 377:-0.878621 378:0.0482426 379:0.137912 380:-0.0181832 381:0.812863 382:0.902127 383:0.262488 384:-0.940253 
0.1325887769456765 1.696918953498677 0 0 0.8294699696648211 2.80688861632043 1:-0.712058 2:-0.896563 3:-0.710125 4:-0.913838 5:-0.992771 6:-0.808665 7:0.0424976 8:-0.440289 9:-0.938498 10:-0.849879 11:-0.296119 12:-0.553833 13:0.425384 14:-0.0738751 15:0.165958 16:-0.107955 17:-0.276265 18:0.121769 19:-0.257971 20:0.167343 21:-0.466776 22:-0.267762 23:-0.243322 24:-0.227571 25:0.548235 26:-0.162319 27:0.4707 28:-0.0458136 29:-0.162791 30:0.0346296 31:0.161024 32:-0.217838 33:0.0265331 34:0.246928 35:0.161093 36:-0.368447 37:-0.406743 38:-0.306436 39:-0.146202 40:-0.653787 41:-0.369004 42:-0.429703 43:-0.0391313 44:-0.36066 45:-0.193918 46:-0.0495659 47:-0.0219674 48:-0.689377 49:-0.0676761 50:0.0719019 51:-0.146929 52:0.0398818 53:-0.0403226 54:-0.099674 55:-0.158182 56:-0.151275 57:-0.210493 58:0.0412495 59:0.273516 60:-0.796741 61:0.0974582 62:-0.484745 63:0.467726 64:0.0251256 65:-0.53937 66:-0.195337 67:0.278535 68:-0.831139 69:-0.126201 70:0.26996 71:0.273307 72:-0.541531 73:-0.0670417 74:0.123208 75:-0.0534811 76:-0.166008 77:-0.442136 78:-0.0173043 79:0.113192 80:-0.193477 81:0.367787 82:0.537985 83:-0.0640411 84:-0.855255 85:-0.0377877 86:-0.388474 87:0.293742 88:-1 89:-0.368421 90:-0.378868 91:-0.130962 92:-0.169487 93:0.44768 94:0.577628 95:0.397368 96:-0.633173 97:0.322281 98:-0.313846 99:0.610168 100:-0.138501 101:-0.136 102:-0.0925316 103:0.203433 104:-0.398142 105:-0.121062 106:0.131176 107:0.289521 108:-0.529288 109:-0.118154 110:-0.28102 111:0.197159 112:-0.0136157 113:-0.419355 114:-0.277541 115:0.217147 116:-0.435383 117:-0.331468 118:-0.135316 119:-0.155772 120:-0.252834 121:-0.227059 122:-0.470185 123:0.271032 124:-0.108883 125:-0.945841 126:-0.390037 127:0.158685 128:-0.580089 129:-0.037544 130:0.354894 131:0.127692 132:-0.535009 133:-0.337277 134:-0.0689957 135:-0.158178 136:-0.255172 137:-0.900952 138:-0.277265 139:0.310234 140:-0.501275 141:-0.33438 142:-0.0018882 143:0.189111 144:-0.70528 145:-0.133056 146:0.0587701 147:0.0784708 148:-0.0750436 149:-0.153846 150:-0.245407 151:0.463917 152:-0.683016 153:0.0641908 154:0.358191 155:0.219739 156:-0.832996 157:0.248648 158:-0.947368 159:0.252011 160:-0.148426 161:-1 162:-0.409702 163:-0.12701 164:-0.284769 165:-0.56647 166:-0.382382 167:0.105623 168:-0.147837 169:0.803978 170:0.832215 171:0.384557 172:0.0267176 173:0.0929368 174:0.643319 175:-0.100855 176:0.415658 177:0.362382 178:0.544688 179:-0.771519 180:-0.96298 181:0.95154 183:0.95154 184:0.324427 185:-1 186:0.272656 187:0.0594456 188:0.21298 189:0.250641 190:0.58049 191:-0.890019 192:-0.977834 193:-0.661732 194:0.653224 195:-0.629947 196:-0.911111 197:-0.862213 198:0.470902 199:0.928148 200:-0.871286 201:-0.910235 202:-0.733061 203:0.0489544 204:-0.622086 205:0.150981 206:0.096365 207:0.100637 208:-0.0903614 209:-0.15885 210:-0.0473028 211:0.143902 212:-0.315584 213:-0.384726 214:-0.165291 215:0.134468 216:-0.539893 217:0.0128159 218:0.0855119 219:0.0103474 220:-0.18507 221:-0.0299213 222:0.200891 223:-0.241457 224:0.0457261 225:-0.0519602 226:0.18402 227:0.22937 228:-0.819018 229:-0.481899 230:0.0559937 231:-0.209549 232:-0.439873 233:-0.45937 234:0.160834 235:0.190577 236:-0.143402 237:-0.523223 238:-0.360138 239:-0.384251 240:-0.25861 241:-0.452108 242:0.668566 243:-0.600264 244:-0.342067 245:-0.292308 246:0.108791 247:-0.452282 248:0.130767 249:-0.687857 250:-0.526561 251:-0.152479 252:-0.704172 253:0.308748 254:-0.225062 255:0.313495 256:-0.667137 257:-0.679767 258:0.197786 259:-0.374298 260:0.240284 261:-0.154317 262:0.0660864 263:-0.251711 264:-0.407748 265:0.468671 266:-0.415111 267:0.754386 268:-0.422481 269:-0.385246 270:0.0660151 271:-0.390312 272:0.230548 273:0.0511524 274:0.22895 275:-0.0485556 276:-0.17402 277:0.125125 278:0.0761643 279:0.164872 280:-0.392473 281:-0.180593 282:-0.144518 283:-0.586347 284:-0.0237704 285:-0.159368 286:0.0654442 287:0.172065 288:-0.610384 289:-0.139403 290:0.0966923 291:0.00940836 292:-0.395543 293:-0.594714 294:0.111089 295:-0.283688 296:-0.176588 297:-0.357382 298:-0.166399 299:0.295674 300:-0.469228 301:-0.37002 302:0.688213 303:-0.493294 304:0.0463576 305:-0.450915 306:0.145821 307:-0.178852 308:0.0974613 309:-0.620557 310:-0.427431 311:0.228387 312:-0.573974 313:-0.149737 314:-0.0467749 315:0.0564051 316:-0.612583 317:-0.919771 318:0.122822 319:-0.389406 320:0.0316172 321:-0.199561 322:0.0294485 323:-0.375951 324:-0.451576 325:0.486651 326:-0.373623 327:0.537948 328:-0.895706 329:-0.217391 330:-0.0709489 331:-0.304377 332:-0.0682735 333:-0.120329 334:0.102092 335:-0.208825 336:-0.0833956 337:-0.177895 338:0.0733891 339:0.076372 340:-0.825944 341:-0.828897 342:-0.201295 343:-0.434208 344:-0.0836847 345:-0.0701672 346:0.151477 347:-0.0111066 348:-0.412749 349:0.101877 350:-0.339897 351:0.194695 352:-0.15885 353:-0.558974 354:-0.176448 355:-0.385361 356:0.535548 357:-0.249625 358:0.0094363 359:-0.345647 360:-0.181679 361:0.378195 362:-0.201634 363:0.478447 364:-0.200772 365:-0.323136 366:-0.318327 367:0.516098 368:-0.291681 369:0.375115 370:0.57363 371:-0.25939 372:-0.880808 373:0.884103 374:-0.938761 375:0.911432 376:-0.934186 377:-0.0344828 378:-0.433794 379:0.159419 380:-0.0509431 381:0.154798 382:0.518699 383:0.248108 384:-0.921178 
0 5.48342082891366 0.08152776839299321 0.8399186511019847 0 0 1:-0.347449 2:-0.884816 3:-0.344885 4:-0.921671 5:-0.990361 6:-0.0355344 7:0.209424 8:-0.153022 9:-0.33522 10:0.0190412 11:-0.647484 12:-0.906992 13:-0.269006 14:-0.624603 15:0.0709854 16:-0.534091 17:-0.670558 18:-0.790645 19:-0.0009176 20:-0.614368 21:-0.522724 22:-0.342655 23:-0.182156 24:0.240944 25:-0.583257 26:-0.568973 27:0.0661214 28:-0.472354 29:-0.508306 30:-1 31:-0.296319 32:-0.584099 33:0.258779 34:0.455884 35:0.149066 36:-0.908 37:-0.424601 38:0.291053 39:-0.630331 40:-0.511592 41:-0.686347 42:-0.239716 43:0.262203 44:-0.376381 45:-0.995833 46:-1 47:0.315647 48:-0.457306 49:-0.846208 50:-0.128378 51:-0.410627 52:-0.497784 53:-0.967742 54:-0.778381 55:-0.00797774 56:-0.605426 57:-0.202585 58:0.0576823 59:0.224489 60:-0.87018 61:-0.3844 62:-0.0882559 63:-0.209136 64:-0.725293 65:-0.96063 66:0.0664732 67:0.0505761 68:-0.117219 69:-0.0833375 70:0.123507 71:0.28666 72:-0.901283 73:-0.735356 74:-0.47334 75:-0.0394123 76:-0.679842 77:-0.89911 78:-0.584504 79:0.00362201 80:-0.429835 81:0.104077 82:0.27499 83:-0.688928 84:-0.0925724 85:0.0304002 86:-0.23904 87:0.219986 88:-0.965426 89:-0.782214 90:0.232044 91:-0.446118 92:0.497176 93:0.120357 94:0.321486 95:-0.345149 96:-0.408689 97:-0.269229 98:0.487006 99:-0.549336 100:-0.656925 101:-0.78 102:0.154593 103:-0.0544704 104:0.211179 105:-0.407894 106:-0.25816 107:0.411007 108:-0.801475 109:-0.225318 110:-0.0382754 111:-0.107925 112:-0.467474 113:-0.956989 114:-0.355763 115:0.287451 116:-0.435627 117:0.0197029 118:0.156367 119:-0.000185441 120:-0.633413 121:-0.425622 122:0.129954 123:-0.400596 124:-0.647564 125:-0.59381 126:-0.0654608 127:-0.147736 128:0.123717 129:-0.565166 130:-0.424839 131:0.0800307 132:-0.356132 133:0.379783 134:-0.236965 135:0.546833 136:-0.721839 137:-0.409524 138:0.430657 139:-0.295357 140:0.662922 141:0.788508 142:0.821192 143:0.206485 144:-0.527524 145:-0.0595605 146:0.382674 147:-0.084074 148:-0.623037 149:-0.977376 150:0.535428 151:0.0374339 152:0.397835 153:0.0636082 154:0.26566 155:0.0590217 156:-0.774902 157:-0.335135 158:0.684211 159:-0.410188 160:-0.604198 161:-0.325253 162:0.453406 163:0.0323506 164:-0.0156844 165:-0.768494 166:-0.594357 167:-0.557687 168:-0.576593 169:0.901348 170:0.32393 171:0.611008 172:-0.557252 173:-0.72119 174:0.94561 175:-0.0891781 176:0.588024 177:1 178:0.974294 179:-0.936122 180:-0.964155 181:0.980243 183:0.980243 184:-0.557252 185:-1 186:1 187:-0.2842 188:0.980427 189:0.876109 190:0.944289 191:-1 192:-0.983871 193:-0.566116 194:0.126226 195:-0.30661 196:-0.918954 197:-0.870564 198:0.602102 199:0.18714 200:-0.0852103 201:-0.363874 202:0.0200398 203:-0.143331 204:-0.852138 205:-0.208684 206:0.270174 207:-0.214663 208:-0.611446 209:-0.624811 210:0.112765 211:-0.167615 212:0.0650822 213:-0.530162 214:-0.327043 215:0.0404918 216:-0.268597 217:0.233904 218:0.0916361 219:0.13939 220:-0.866252 221:-0.467717 222:-0.728075 223:0.38939 224:-0.552653 225:0.0439445 226:0.274652 227:0.36315 228:-0.710304 229:-0.441459 230:0.820536 231:-0.645836 232:-0.509494 233:-0.482587 234:-0.370944 235:0.353852 236:-0.345799 237:-0.793971 238:-0.696529 239:0.364771 240:-0.433468 241:0.733797 242:0.211233 243:0.25653 244:-0.80786 245:-0.976068 246:-1 247:-0.214129 248:-0.169868 249:0.187576 250:0.376687 251:0.395666 252:-0.474216 253:-0.0163094 254:0.050676 255:-0.0218032 256:-0.602257 257:-0.988355 258:-1 259:-1 260:0.810189 261:-0.301783 262:-0.0804028 263:-0.292315 264:-0.583672 265:0.16661 266:0.4291 267:-0.0254192 268:-0.883721 269:-0.79918 270:-0.24297 271:0.047065 272:-0.16511 273:-0.0734859 274:0.120635 275:0.32964 276:-0.541317 277:-0.390819 278:0.435762 279:-0.363877 280:-0.825269 281:-0.90566 282:-0.471103 283:-0.242358 284:-0.152528 285:9.91416e-05 286:0.215999 287:0.02446 288:-0.935058 289:-0.68098 290:0.751137 291:-0.755541 292:-0.668524 293:-0.659325 294:0.405687 295:-0.144285 296:-0.0491575 297:-0.528935 298:-0.358444 299:0.147234 300:-1 301:-0.371713 302:0.468322 303:-0.364204 304:-0.453642 305:-0.963394 306:0.297667 307:0.519967 308:-0.533276 309:-0.339533 310:-0.0916004 311:0.000300823 312:-0.578294 313:-0.832956 314:0.247379 315:-0.54747 316:-0.86755 317:-0.644699 318:-0.233983 319:-0.0724022 320:-0.233718 321:-0.37874 322:-0.153183 323:-0.364816 324:-0.779762 325:-0.374824 326:-0.403947 327:0.116114 328:-0.705521 329:-0.881159 330:0.105331 331:-0.554284 332:0.524515 333:0.468138 334:0.60716 335:-0.443637 336:-0.661477 337:-0.230244 338:0.11701 339:0.00970181 340:-0.835796 341:-0.752852 342:-0.552962 343:-0.882291 344:0.553775 345:0.132598 346:0.332603 347:-0.0165352 348:-0.780574 349:-0.313673 350:0.690068 351:-0.64014 352:-0.627837 353:-0.54188 354:0.0351707 355:-0.407476 356:0.579747 357:-0.758363 358:-0.589203 359:0.162682 360:-0.5364 361:0.138 362:-0.387515 363:0.452787 364:-0.710425 365:-0.6826 366:-0.129154 367:-0.601649 368:0.930144 369:0.266433 370:0.507563 371:-0.23596 372:-0.74293 373:0.650001 374:-0.835535 375:0.742767 376:-0.645338 377:-0.649655 378:-0.433794 379:-0.653008 380:0.875018 381:0.276627 382:0.604616 383:0.205437 384:-0.914955 
0 3.777334740448997 0 0.01489456105285849 0 0 1:-0.626695 2:-0.9185 3:-0.624539 4:-0.955614 5:-0.655422 6:-0.458097 7:-0.37848 8:0.0264039 9:-0.617605 10:-0.259716 11:-0.631672 12:-0.919726 13:-0.388324 14:0.279547 15:-0.70195 16:-0.642045 17:-0.818418 18:-0.320625 19:0.373247 20:-0.47209 21:-0.743298 22:-0.575055 23:-0.0149173 24:-0.5393 25:-0.534738 26:-0.581034 27:0.109576 28:-0.772512 29:-0.651163 30:-0.657717 31:0.720011 32:-0.869781 33:0.686693 34:0.839775 35:-0.170251 36:-0.911683 37:-0.602771 38:0.385722 39:-0.852355 40:-0.737249 41:-0.638376 42:-0.359859 43:0.301842 44:-0.46842 45:-0.775008 46:-0.685967 47:0.430374 48:-0.808023 49:-0.817727 50:0.230339 51:-0.735601 52:-0.60709 53:-0.552419 54:-0.596785 55:-0.00229754 56:-0.461422 57:-0.591463 58:-0.373797 59:0.581135 60:-0.883452 61:0.067787 62:0.239438 63:-0.145125 64:-0.648241 65:-0.681102 66:0.194347 67:-0.282387 68:0.223444 69:0.306025 70:0.450015 71:0.691025 72:-0.91078 73:-0.165725 74:-0.132172 75:0.110512 76:-0.988142 77:-0.632047 78:-0.680354 79:-0.784014 80:-0.00828294 81:-0.0735073 82:0.316969 83:0.329234 84:0.115451 85:-0.333179 86:-0.221311 87:-0.0494597 88:-0.965426 89:-1 90:-0.358495 91:-0.0534914 92:-0.149466 93:-0.106089 94:0.0998806 95:-0.0997897 96:-0.553836 97:-0.526133 98:-0.174694 99:-0.1136 100:-0.989835 101:-0.688 102:-0.401391 103:-0.416141 104:-0.0062491 105:-0.214365 106:0.00507009 107:0.255263 108:-0.697179 109:-0.715903 110:-0.342743 111:-0.201578 112:-0.909228 113:-0.741935 114:-0.596551 115:-0.756436 116:-0.0695711 117:-0.303504 118:0.0164298 119:-0.174807 120:-0.538922 121:-0.744885 122:-0.319778 123:-0.268701 124:-0.593123 125:-0.636364 126:-0.562225 127:-0.181386 128:-0.205514 129:-0.522289 130:-0.373852 131:-0.0570306 132:-0.0511278 133:-0.0235516 134:-0.198531 135:0.199265 136:-0.74023 137:-0.554286 138:-0.036257 139:-0.988109 140:0.696714 141:-0.00746168 142:0.430418 143:0.0801541 144:-0.629475 145:0.747167 146:0.622901 147:0.381076 148:-0.804538 149:-0.701357 150:0.476544 151:-0.22099 152:0.481804 153:0.0744224 154:0.308584 155:0.651434 156:-0.195772 157:-0.14054 158:0.526316 159:-0.209115 160:-0.772114 161:-0.470707 162:-0.173452 163:-0.399729 164:0.0884731 165:-0.697435 166:-0.523993 167:-0.04382 168:-0.233512 169:0.851907 170:0.937125 171:0.391657 172:-0.568702 173:-0.490706 174:0.868802 175:-0.132593 176:0.559355 177:0.610237 178:0.721057 179:-0.819034 180:-0.955418 181:0.825075 183:0.825075 184:-0.938931 185:-1 186:0.759191 187:-0.0580521 188:0.655372 189:0.577706 190:0.774307 191:-0.977046 192:-0.984164 193:-0.621756 194:0.837947 195:-0.695128 196:-0.952941 197:-0.987474 198:0.464696 199:0.136807 200:-0.238388 201:-0.72882 202:-0.4083 203:0.282517 204:-0.871773 205:-0.887023 206:0.545408 207:-0.782081 208:-0.783133 209:-0.815431 210:-0.20964 211:0.210961 212:-0.456035 213:-0.726498 214:-0.575715 215:-0.113159 216:-1 217:-0.058095 218:-0.434446 219:0.270393 220:-0.642302 221:-0.930709 222:0.814522 223:0.288612 224:0.0280461 225:0.330449 226:0.511562 227:-0.280114 228:-0.688994 229:-0.562455 230:0.773774 231:-0.690824 232:-0.75 233:-0.711443 234:0.220203 235:-0.328884 236:0.463833 237:-0.347581 238:-0.163195 239:0.0299916 240:-1 241:0.0244534 242:0.393152 243:-0.203584 244:-0.802038 245:-0.664957 246:0.0640406 247:0.377684 248:-0.351769 249:-0.0920062 250:0.133588 251:0.384321 252:-0.638443 253:0.38183 254:0.421475 255:-0.0832708 256:-0.937941 257:-0.671033 258:-0.593881 259:0.149207 260:-0.218857 261:-0.291954 262:-0.0681786 263:0.540616 264:-0.301048 265:-0.459083 266:0.358991 267:-0.345113 268:-0.841085 269:-0.983607 270:-0.506488 271:1 272:-0.984497 273:-0.0355933 274:0.185677 275:-0.227084 276:-0.904894 277:0.107959 278:-0.105883 279:0.270257 280:-0.983871 281:-0.994609 282:0.322703 283:-0.301786 284:0.241531 285:0.220215 286:0.404961 287:0.258867 288:-0.673967 289:-0.426726 290:-0.344613 291:0.135814 292:-0.816156 293:-0.770925 294:0.113138 295:0.502578 296:-0.745941 297:0.17496 298:0.36575 299:-0.626186 300:-0.350858 301:-0.21104 302:0.477786 303:-0.287561 304:-0.857616 305:-0.990017 306:-0.379883 307:0.667887 308:-0.640561 309:-0.0776561 310:0.164282 311:0.111687 312:-0.858103 313:-0.825436 314:0.348467 315:-0.605036 316:-0.771523 317:-0.991404 318:0.46152 319:0.424503 320:-0.301348 321:-0.609834 322:-0.412477 323:-0.177441 324:-0.63582 325:-0.102421 326:-0.148321 327:0.109123 328:-0.800613 329:-0.666667 330:0.190339 331:-0.140747 332:0.210196 333:0.531962 334:0.658452 335:-0.376262 336:-0.896037 337:0.141672 338:-0.122585 339:0.431188 340:-0.832512 341:-0.790875 342:0.197131 343:-0.483413 344:0.319341 345:0.806187 346:0.862448 347:0.0620395 348:-0.590714 349:-0.169795 350:0.196061 351:-0.270771 352:-0.791225 353:-0.733333 354:-0.205441 355:-0.614108 356:0.617873 357:-0.57198 358:-0.341916 359:-0.23797 360:-0.156963 361:0.164483 362:-0.0154976 363:0.249305 364:-0.976834 365:-0.824092 366:-0.453351 367:-1 368:0.94783 369:0.249166 370:0.497051 371:-0.344869 372:-0.888023 373:0.727683 374:-0.82714 375:0.777412 376:-0.798903 377:-0.950345 378:-0.433794 379:-1 380:1 381:0.535213 382:0.759582 383:0.249951 384:-0.934028 
0 4.366572706279366 0 0 0 0 1:-0.483679 2:-0.893173 3:-0.481339 4:-0.415144 5:-0.281928 6:-0.458503 7:0.143415 8:-0.390781 9:-0.628863 10:-0.313689 11:-0.427303 12:-0.796977 13:-0.122146 14:0.236723 15:-0.473181 16:-0.798295 17:-0.346304 18:-0.528611 19:-0.278989 20:-0.237913 21:-0.665767 22:-0.510399 23:-0.0211192 24:-0.716136 25:-0.343941 26:-0.710814 27:0.353335 28:-0.191153 29:-0.358804 30:-0.71146 31:-0.053714 32:-0.492501 33:0.306995 34:0.470096 35:0.0327297 36:-0.772366 37:-0.585481 38:-0.257446 39:-0.332815 40:-0.931994 41:-0.387454 42:-0.455531 43:-0.256121 44:-0.125774 45:-0.6592 46:-0.514379 47:-0.175247 48:-0.47939 49:-0.527947 50:-0.35266 51:-0.0112832 52:-0.134417 53:-0.778226 54:-0.766945 55:-0.0367127 56:-0.690184 57:-0.169762 58:0.125384 59:0.453554 60:-0.83315 61:-0.0630793 62:0.0465829 63:-0.083645 64:-0.252931 65:-0.326772 66:0.133097 67:-0.0145976 68:-0.0669868 69:-0.153237 70:0.0616039 71:0.737246 72:-0.751419 73:-0.260736 74:-0.959455 75:0.831118 76:-0.992095 77:-0.602374 78:-0.602224 79:-0.0325265 80:-0.414158 81:0.286281 82:0.430125 83:0.00903597 84:0.0985197 85:-0.228488 86:-0.531505 87:0.276356 88:-0.702128 89:0.00907441 90:-0.616912 91:-0.201591 92:-0.265576 93:0.509284 94:0.622321 95:0.0997369 96:-0.543046 97:0.410493 98:-0.350421 99:0.705989 100:-0.229987 101:-0.744 102:0.155371 103:0.312183 104:-0.306705 105:-0.0549365 106:0.253181 107:-0.0723236 108:-0.183304 109:-0.0791146 110:-0.578083 111:0.500318 112:-0.252648 113:-0.97235 114:-0.338929 115:0.439257 116:-0.700393 117:-0.0293548 118:0.26192 119:-0.0673106 120:-0.43555 121:0.256804 122:-0.0236774 123:0.272511 124:-0.289398 125:0.0522244 126:-0.204701 127:-0.107611 128:-0.0468446 129:0.372097 130:0.506738 131:0.645368 132:-0.151766 133:0.82498 134:-0.123308 135:0.794046 136:-0.418391 137:0.0552381 138:0.360515 139:0.346004 140:-0.0368907 141:0.176082 142:0.429618 143:0.321694 144:-0.532235 145:0.34561 146:0.346219 147:0.256141 148:-0.553229 149:-0.737557 150:0.596605 151:0.713484 152:-0.323361 153:0.566399 154:0.903854 155:0.0859979 156:-0.902617 157:0.205405 158:-0.789474 159:0.201072 160:-0.67916 161:0.244444 162:0.255748 163:-0.180124 164:0.0851342 165:-0.585203 166:-0.412 167:-0.386515 168:-0.501025 169:0.918106 170:0.599771 171:0.543202 172:-0.522901 173:-0.988848 174:0.719986 175:-0.101384 176:0.461496 177:0.756104 178:0.818873 179:-0.647358 180:-0.975473 181:0.941176 183:0.941176 184:-0.522901 185:-1 186:0.605171 187:-8.0777e-05 188:0.524083 189:0.774322 190:0.881254 191:-0.935921 192:-0.983683 193:-0.478885 194:0.544049 195:-0.456133 196:-0.40915 197:-0.0521921 198:0.462175 199:0.82352 200:-0.683675 201:-0.613301 202:-0.255709 203:0.0670777 204:-0.841434 205:-0.565652 206:0.575499 207:-0.596425 208:-0.463855 209:-0.691377 210:0.487098 211:0.00689097 212:0.0901204 213:-0.65915 214:-0.485626 215:-0.253042 216:-0.84907 217:0.169547 218:0.0499694 219:0.125037 220:-0.219285 221:-0.905512 222:0.0926086 223:-0.0932926 224:-0.166273 225:0.206698 226:0.411112 227:0.190423 228:-0.820138 229:0.140082 230:0.0514217 231:0.16933 232:-0.468354 233:-0.913765 234:0.000416373 235:0.213821 236:-0.1984 237:-0.344888 238:-0.162333 239:-0.0976738 240:-0.355975 241:0.526109 242:-0.117796 243:0.34031 244:-0.164483 245:-0.733333 246:0.0748588 247:-0.263176 248:-0.184338 249:0.474034 250:0.614572 251:0.154483 252:-0.698023 253:-0.302276 254:0.0578818 255:-0.15993 256:-0.51481 257:-0.310044 258:-0.144514 259:-0.40348 260:0.253382 261:-0.502662 262:-0.300949 263:-0.540578 264:-0.416459 265:1 266:-0.319266 267:1 268:-0.496124 269:-0.20082 270:-0.224418 271:-0.217691 272:-0.148241 273:0.388129 274:0.522188 275:0.119503 276:0.436876 277:-0.0767838 278:0.269515 279:-0.0754054 280:-0.55914 281:-0.296496 282:0.0506505 283:-0.498418 284:-0.0516153 285:-0.185962 286:0.0415125 287:0.309886 288:-0.666074 289:-0.482605 290:0.410439 291:-0.407185 292:-0.445682 293:-0.823789 294:0.401365 295:-0.279264 296:-0.0488784 297:-0.241372 298:-0.0465665 299:-0.293594 300:-0.750236 301:-0.547041 302:0.212467 303:-0.30273 304:-0.0629139 305:-0.976705 306:0.0804607 307:-0.126899 308:0.0155058 309:-0.362192 310:-0.129486 311:-0.211502 312:-0.583628 313:0.248203 314:0.105116 315:0.209188 316:-0.0927152 317:-0.286533 318:0.206649 319:-0.496285 320:0.30258 321:0.353298 322:0.518924 323:0.181554 324:-0.708944 325:-0.159523 326:-0.0460293 327:0.0216515 328:-0.107362 329:-0.550725 330:-0.0474796 331:-0.273573 332:-0.0422668 333:0.122253 334:0.323579 335:-0.342559 336:-0.613143 337:0.146256 338:0.0698666 339:0.291397 340:-0.862069 341:-0.825095 342:0.0478316 343:-0.564641 344:0.284399 345:0.714855 346:0.795978 347:0.135023 348:-0.683038 349:0.175156 350:0.138698 351:-0.0440438 352:-0.694402 353:-0.634188 354:-0.267439 355:-0.406439 356:0.509192 357:-0.259752 358:-0.000518472 359:0.025194 360:-0.441138 361:0.742576 362:-0.47186 363:0.841471 364:-0.289575 365:-0.869981 366:-0.00144226 367:0.227202 368:0.323786 369:0.760037 370:0.844946 371:-0.237062 372:-0.855623 373:0.79666 374:-0.709008 375:0.752834 376:-0.564899 377:-0.605517 378:-0.433794 379:0.0545871 380:0.146867 381:0.802983 382:0.898064 383:0.27376 384:-0.939816 
0 7.579497888318576 0 0.6974143650465686 0 1.410195079695244 1:-0.53657 2:-0.873662 3:-0.534386 4:-0.362924 5:-0.219277 6:-0.277751 7:0.0812916 8:-0.174301 9:-0.638692 10:-0.327446 11:-0.526676 12:-0.851646 13:-0.0470537 14:0.280457 15:-0.450925 16:-0.130682 17:-0.284047 18:-0.256004 19:-0.196069 20:-0.144607 21:-0.659249 22:-0.516897 23:0.0269355 24:-0.705446 25:0.166666 26:-0.416362 27:0.437728 28:-0.0616114 29:-0.186047 30:-0.479681 31:0.0568624 32:-0.447451 33:0.142388 34:0.326842 35:0.308151 36:-0.507213 37:-0.45454 38:0.0801451 39:-0.489475 40:-0.919629 41:-0.394834 42:-0.426313 43:-0.293463 44:-0.0387561 45:-0.660656 46:-0.48042 47:0.2179 48:-0.688187 49:0.17493 50:-0.0565946 51:0.117041 52:-0.113737 53:-0.633065 54:-0.454847 55:-0.0816782 56:-0.454528 57:-0.111896 58:0.162244 59:0.444734 60:-0.766554 61:-0.480775 62:-0.0357359 63:-0.322654 64:-0.477387 65:-0.649606 66:-0.0177816 67:0.0344403 68:-0.291797 69:-0.406643 70:-0.174124 71:0.3576 72:-0.821165 73:-0.573571 74:-0.519793 75:0.141912 76:-0.988142 77:-0.587537 78:-0.965173 79:-0.0656382 80:-0.644034 81:-0.05188 82:0.135765 83:0.098528 84:-0.118791 85:-0.00211046 86:-0.227575 87:0.187855 88:-0.81117 89:0.103448 90:-0.584632 91:-0.434678 92:0.00457657 93:-0.351743 94:-0.07951 95:0.802573 96:0.00137495 97:0.0473995 98:-0.367292 99:0.46735 100:-0.878018 101:-0.72 102:-0.108972 103:0.156654 104:-0.306283 105:-0.318059 106:-0.11109 107:-0.0531618 108:-0.0753578 109:-0.357491 110:-0.665972 111:0.369058 112:-0.0347958 113:-0.966206 114:-0.75566 115:0.307372 116:-0.908277 117:-0.133327 118:0.0895831 119:-0.0244625 120:-0.409199 121:-0.52731 122:-0.456486 123:0.0210474 124:-0.630372 125:0.121857 126:-0.663534 127:-0.473921 128:0.104686 129:-0.258741 130:0.0573198 131:0.0455327 132:-0.606145 133:0.0357244 134:-0.223552 135:0.267279 136:-0.694253 137:0.139048 138:-0.321198 139:-0.0304992 140:-0.0276253 141:0.140141 142:0.316257 143:0.446089 144:-0.576664 145:0.0360464 146:-0.316705 147:0.464901 148:-0.511344 149:-0.696833 150:-0.333804 151:0.24891 152:-0.428453 153:-0.0541764 154:0.1528 155:0.497138 156:-0.321769 157:-0.0621623 158:-0.789474 159:-0.0643431 160:-0.154423 161:0.305051 162:-0.0902698 163:-0.11137 164:-0.170569 165:-0.670212 166:-0.492678 167:-0.351851 168:-0.491822 169:0.895528 170:0.54285 171:0.542061 172:-0.385496 173:0.185874 174:0.600484 175:-0.121516 176:0.409031 177:0.747463 178:0.813937 179:-0.60493 180:-0.972091 181:0.721997 183:0.721997 184:-0.492366 185:-1 186:0.277446 187:-0.059513 188:0.360209 189:0.380681 190:0.661787 191:-0.906195 192:-0.9823 193:-0.578094 194:0.698891 195:-0.597733 196:-0.607843 197:-0.361169 198:0.48362 199:0.806986 200:-0.625197 201:-0.682136 202:-0.34471 203:0.103436 204:-0.873493 205:-0.510541 206:0.522516 207:-0.534456 208:-0.105422 209:-0.66112 210:0.0495533 211:0.0785838 212:-0.154359 213:-0.590067 214:-0.400248 215:0.0182113 216:-0.849059 217:0.465825 218:-0.167708 219:0.429414 220:-0.489891 221:-0.886614 222:-0.111918 223:-0.228575 224:-0.0111102 225:-0.0112607 226:0.220868 227:0.0230035 228:-0.672525 229:0.056804 230:0.586917 231:-0.203739 232:-0.446203 233:-0.127695 234:-0.266753 235:0.117624 236:-0.0851576 237:-0.445517 238:-0.273206 239:0.132783 240:-0.489569 241:0.0201595 242:-0.0542863 243:0.0499902 244:-0.0975255 245:-0.705983 246:-0.27003 247:-0.421064 248:0.0160204 249:0.586025 250:0.69752 251:0.243503 252:-0.858161 253:-0.443061 254:0.487906 255:-0.512128 256:-0.923836 257:-0.761281 258:-0.285642 259:-0.416153 260:0.220603 261:-0.660579 262:-0.492031 263:-0.19013 264:-0.859101 265:0.422018 266:0.169261 267:0.310558 268:-0.79845 269:-0.442623 270:-0.186552 271:-0.262511 272:-0.0805182 273:0.0708265 274:0.250971 275:0.285727 276:-0.209127 277:-0.439467 278:0.0307692 279:-0.135529 280:-0.16129 281:-0.296496 282:-0.186848 283:-0.643437 284:0.136569 285:-0.453076 286:-0.242647 287:-0.126623 288:-0.491609 289:-0.470424 290:0.196151 291:-0.255274 292:-0.401114 293:-0.39207 294:0.288032 295:-0.259813 296:-0.149587 297:-0.340014 298:-0.147494 299:-0.455415 300:-0.47086 301:-0.672925 302:0.400562 303:-0.478326 304:0.0298013 305:-0.97005 306:-0.0207919 307:-0.0226503 308:-0.245221 309:-0.586371 310:-0.379756 311:-0.328789 312:-0.520882 313:0.178247 314:-0.11494 315:0.30134 316:-0.599338 317:-0.630372 318:0.0755141 319:-0.271479 320:-0.175528 321:-0.0675589 322:0.157951 323:0.0321466 324:-0.460236 325:-0.242385 326:0.236502 327:-0.181788 328:-0.904908 329:-0.171014 330:0.231614 331:-0.296503 332:0.0637926 333:-0.0226618 334:0.193319 335:-0.0793759 336:-0.757275 337:-0.0376665 338:0.248379 339:0.0384228 340:-0.596059 341:-0.596958 342:-0.102701 343:-0.448306 344:0.00639784 345:-0.135763 346:0.0885404 347:0.250639 348:-0.306016 349:0.0866844 350:0.257705 351:-0.163163 352:-0.66112 353:-0.596581 354:-0.151082 355:-0.386097 356:0.535283 357:-0.403349 358:-0.150074 359:0.0227032 360:-0.489621 361:0.410377 362:-0.573956 363:0.71502 364:-0.204633 365:-0.449331 366:-0.0827634 367:0.233631 368:0.324391 369:0.787028 370:0.862872 371:-0.328197 372:-0.879661 373:0.55108 374:-0.642455 375:0.596767 376:-0.806216 377:-0.591724 378:-0.433794 379:0.128205 380:-0.00815214 381:0.343131 382:0.637903 383:0.231241 384:-0.939951 
