svm_type c_svc
kernel_type rbf
gamma 0.0078125
nr_class 7
total_sv 385
rho 0.339798 -1.05497 0.171833 0.378431 -0.158656 -0.38099 -0.293496 -0.170019 -0.124349 0.361056 -0.686414 0.307676 0.39409 0.00499615 -0.0815588 -0.330022 -0.0790026 -0.814466 -0.137736 -0.952108 -0.0960397
label 5 7 1 6 4 2 3
probA -4.37403 -2.98223 -4.06856 -3.36711 -4.48536 -4.17285 -4.5065 -4.20978 -5.78684 -5.77758 -4.65909 -4.27074 -4.96408 -4.52349 -4.91908 -4.40493 -3.66172 -4.48251 -4.69106 -4.85693 -4.7255
probB -0.00309873 -0.00972086 -0.00622226 0.00989795 -0.00449655 0.0201549 -0.272738 0.205215 0.287765 0.00316503 0.355084 -0.14411 0.405604 0.145475 0.2159 0.0772092 -0.187415 0.0475589 0.0582486 0.0680179 0.200749
nr_sv 53 59 85 40 51 60 37
SV
4.260611985080716 3.84261076290107 1.165852578969977 5.086051236042134 1.622440718456837 2.80921786791384 1:-0.880785 2:-0.799791 3:-0.879518 4:-0.892 5:-0.9967 6:-0.761808 7:0.083917 8:-0.503634 9:-0.9018 10:-0.767896 11:-0.57626 12:-0.863661 13:0.277193 14:-0.186923 15:0.33301 16:-0.693182 17:-0.588502 18:0.00651961 19:-0.479529 20:0.181357 21:-0.135823 22:0.0964199 23:-0.321206 24:-0.422507 25:0.1072 26:0.126069 27:-0.107608 28:-0.807267 29:-0.877076 30:0.147026 31:-0.432543 32:0.372807 33:-0.391536 34:-0.108638 35:0.0596571 36:-0.442396 37:-0.133554 38:0.0192752 39:-0.205076 40:-0.767802 41:-0.727412 42:-0.128822 43:-0.159781 44:0.00981503 45:-0.307677 46:-0.237596 47:-0.0193467 48:-0.442383 49:-0.279068 50:0.560546 51:-0.740781 52:-0.754801 53:-0.441478 54:0.245773 55:-0.24384 56:0.105792 57:-0.708752 58:-0.495418 59:0.308337 60:-0.752066 61:-0.50869 62:-0.12388 63:-0.290094 64:-0.546708 65:-0.492126 66:0.054808 67:-0.212914 68:0.101136 69:-0.250829 70:-0.0384658 71:-0.204804 72:-0.572308 73:-0.449574 74:-0.140148 75:-0.145832 76:-0.852596 77:-0.908012 78:-0.234107 79:0.0615881 80:-0.207582 81:-0.187411 82:-0.0224041 83:-0.362418 84:-0.478275 85:-0.135712 86:0.334182 87:-0.362919 88:-0.915709 89:-0.796733 90:0.250042 91:-0.485607 92:0.526808 93:-0.681 94:-0.512936 95:-0.181029 96:-0.434122 97:-0.141907 98:0.0593771 99:-0.0622552 100:-0.400998 101:-0.714286 102:0.128196 103:0.537877 104:-0.119918 105:0.0834445 106:0.294596 107:0.0394798 108:-0.754287 109:-0.13898 110:-0.610805 111:0.5056 112:-0.513866 113:-0.84639 114:0.00592168 115:0.197834 116:-0.0305356 117:0.425643 118:0.460068 119:-0.786982 120:0.12388 121:-0.8775 122:-0.0777723 123:-0.574067 124:-0.679083 125:-0.876209 126:-0.461093 127:0.0291324 128:-0.292311 129:-0.600222 130:-0.440499 131:-0.322913 132:-0.485448 133:-0.549597 134:0.367837 135:-0.726238 136:-0.412724 137:-0.535565 138:0.302067 139:0.192837 140:0.163515 141:-0.560682 142:-0.358888 143:-0.276585 144:-0.60612 145:-0.3625 146:0.190909 147:-0.125591 148:-0.528796 149:-0.756364 150:-0.327518 151:0.146693 152:-0.299948 153:-0.354107 154:-0.154802 155:-0.198737 156:-0.697612 157:-0.0540542 158:-0.956522 159:-0.0444145 160:-0.592204 161:-0.99596 162:-0.290982 163:0.174441 164:-0.406645 165:-0.515032 166:-0.26953 167:-0.181287 168:-0.582767 169:0.375734 170:0.366137 171:0.18259 172:-0.80212 173:-0.702206 174:-0.373234 175:-0.242776 176:-0.158649 177:-0.531786 178:-0.258012 179:-0.252374 180:-0.772737 181:0.0819673 183:0.0819673 184:-0.503817 185:-1 186:-0.774116 187:0.0116342 188:-0.524434 189:-0.819626 190:-0.403961 191:-0.635489 192:-0.925612 193:-0.816724 194:0.739145 195:-0.774005 196:-0.917933 197:-0.888 198:0.475922 199:0.683859 200:-0.666975 201:-0.893989 202:-0.696441 203:-0.201503 204:-0.819343 205:-0.665859 206:0.424468 207:-0.590968 208:-0.560241 209:-0.727685 210:0.0746175 211:0.146239 212:-0.210663 213:-0.615611 214:-0.455117 215:0.0660118 216:-0.802111 217:-0.00928653 218:-0.389147 219:0.291041 220:-0.937792 221:-0.899213 222:-0.549108 223:-0.260889 224:0.101229 225:-0.114531 226:0.113961 227:-0.351586 228:-0.434764 229:-0.546842 230:0.151685 231:-0.290969 232:-0.549249 233:-0.746522 234:-0.219638 235:0.22696 236:-0.123043 237:-0.202815 238:-0.0161143 239:-0.0950365 240:-0.780074 241:-0.815509 242:0.203286 243:-0.475318 244:-0.892285 245:-0.715753 246:-0.14366 247:-0.201836 248:0.0507572 249:-0.492796 250:-0.247428 251:-0.140737 252:-0.453033 253:-0.580022 254:0.422971 255:-0.532712 256:-0.940762 257:-0.65407 258:-0.453027 259:-0.131622 260:-0.0436776 261:-0.284825 262:-0.0342387 263:-0.376513 264:-0.936762 265:-0.240894 266:0.064412 267:-0.00489194 268:-0.910744 269:-0.672 270:-0.22277 271:-0.052733 272:-0.0482171 273:-0.119884 274:0.095758 275:0.190115 276:-0.572397 277:-0.495838 278:0.59452 279:-0.525738 280:-0.616872 281:-0.688272 282:-0.0516863 283:-0.630032 284:0.424613 285:-0.504445 286:-0.304621 287:0.114818 288:-0.86613 289:0.320095 290:-0.196596 291:0.481599 292:-0.860724 293:-0.853157 294:0.498553 295:-0.270016 296:-0.141664 297:0.383515 298:0.529491 299:0.197637 300:0.0301747 301:0.369053 302:0.0278032 303:0.498597 304:-0.605166 305:-0.84 306:0.0329198 307:-0.0620061 308:0.11558 309:-0.0945341 310:0.13708 311:0.213065 312:-0.0577 313:-0.312829 314:0.318723 315:-0.26529 316:-0.603715 317:-0.916667 318:-0.27588 319:0.114527 320:-0.337875 321:-0.316648 322:-0.0858421 323:0.126985 324:-0.594694 325:-0.621105 326:0.115766 327:-0.234842 328:-0.723794 329:-0.675362 330:-0.275917 331:-0.413531 332:0.246827 333:-0.289674 334:-0.0699229 335:-0.437509 336:-0.509091 337:-0.0875954 338:0.442628 339:-0.147236 340:-0.580372 341:-0.429658 342:-0.310553 343:-0.185497 344:-0.117494 345:0.0537129 346:0.26251 347:0.61567 348:-0.368077 349:-0.17732 350:0.385778 351:-0.365011 352:-0.607251 353:-0.675214 354:-0.128034 355:-0.569173 356:0.707247 357:-0.556805 358:-0.322693 359:0.105222 360:-0.399932 361:-0.240285 362:0.256957 363:-0.188647 364:-0.794466 365:-0.498039 366:-0.224459 367:0.139992 368:0.115843 369:-0.430502 370:-0.140933 371:-0.109842 372:-0.91421 373:0.0819675 374:-0.0819675 375:0.0819674 376:-0.507692 377:-0.498099 378:-0.433794 379:0.215724 380:-0.342334 381:-0.712451 382:-0.24343 383:0.438757 384:-0.882695 
1.391407984613275 0.9611422013868485 0.2010563527404817 2.905420725779707 1.920314413664642 2.916052027159427 1:-0.595596 2:-0.77907 3:-0.593879 4:-0.68 5:-0.993399 6:-0.0468164 7:-0.00237779 8:0.0670485 9:-0.624396 10:-0.303534 11:-0.822601 12:-0.951273 13:-0.133671 14:-0.0786699 15:-0.0759393 16:-0.661932 17:-0.739788 18:-0.351426 19:0.089345 20:-0.383648 21:-0.180441 22:0.0470726 23:-0.246455 24:-0.727633 25:0.222343 26:0.284141 27:-0.172317 28:-0.889415 29:-0.292359 30:0.170928 31:-0.199533 32:0.289468 33:-0.699178 34:-0.525376 35:-0.188717 36:0.168366 37:-0.464713 38:-0.0455777 39:-0.428984 40:-0.959752 41:-0.359877 42:-0.311094 43:-0.580542 44:0.247029 45:-0.481503 46:-0.201498 47:0.0587582 48:-0.808148 49:-0.168783 50:0.308261 51:-0.438028 52:-0.296898 53:-0.765914 54:0.0417319 55:-0.202768 56:-0.0860075 57:-0.561727 58:-0.301995 59:0.866488 60:-0.695369 61:-0.536226 62:-0.676492 63:0.140434 64:-0.274119 65:-0.11811 66:-0.391863 67:0.017495 68:-0.53198 69:-0.106183 70:0.107553 71:-0.0768531 72:-0.40085 73:-0.85786 74:0.0639714 75:-0.669113 76:-0.9933 77:-0.578635 78:-0.386285 79:0.113226 80:-0.396027 81:-0.527913 82:-0.346176 83:-0.489262 84:-0.589337 85:-0.306292 86:0.121785 87:-0.309754 88:-0.279693 89:-0.807623 90:-0.307026 91:0.46166 92:-0.60218 93:-0.459325 94:0.0238771 95:0.232848 96:-0.821386 97:-0.827164 98:-0.376349 99:-0.13683 100:-0.933444 101:-0.487395 102:-0.828199 103:-0.142726 104:-0.26634 105:-0.427517 106:-0.219723 107:0.462541 108:-0.63712 109:-0.727409 110:-0.618176 111:0.0640382 112:-0.520392 113:-0.815668 114:-0.778543 115:0.384268 116:-0.813844 117:0.357316 118:0.466188 119:-0.210313 120:-0.867657 121:-0.727062 122:0.0361896 123:-0.543516 124:-0.659026 125:-0.199226 126:-0.605542 127:-0.0724559 128:-0.344718 129:-0.220473 130:-0.0340619 131:0.112883 132:-0.862567 133:-0.135405 134:-0.175479 135:-0.111252 136:-0.823817 137:-0.430962 138:-0.132637 139:-0.243405 140:0.219681 141:-0.310824 142:-0.0110237 143:0.355258 144:-0.237919 145:-0.720747 146:-0.102939 147:-0.241262 148:-0.602094 149:-0.96 150:-0.588622 151:0.188472 152:-0.582707 153:-0.233006 154:-0.0320877 155:-0.178836 156:-0.879831 157:0.218919 158:-0.565217 159:0.20323 160:-0.868066 161:-0.393939 162:0.0242279 163:-0.260254 164:0.171536 165:0.205449 166:0.247947 167:-0.298276 168:-0.729209 169:0.648451 170:0.870079 171:0.250331 172:-0.607774 173:-0.272059 174:0.370357 175:-0.392692 176:0.446065 177:0.244106 178:0.487731 179:-0.564542 180:-0.964715 181:0.472222 183:0.472222 184:-0.774809 185:-1 186:-0.0269757 187:-0.392208 188:0.25665 189:-0.124069 190:0.363867 191:-0.873036 192:-0.980339 193:-0.782136 194:0.492269 195:-0.629222 196:-0.756839 197:-0.68 198:0.521327 199:0.562445 200:-0.346765 201:-0.652438 202:-0.304118 203:-0.240734 204:-0.928897 205:-0.158671 206:-0.112695 207:0.00879725 208:-0.506024 209:-0.903177 210:0.0664719 211:0.340118 212:-0.441358 213:-0.536092 214:-0.360446 215:-0.19693 216:0.147183 217:-0.481349 218:0.597713 219:-0.559741 220:-0.40902 221:-0.351181 222:-0.536894 223:-0.390228 224:0.200001 225:-0.591166 226:-0.393473 227:0.0142836 228:-0.824804 229:-0.721191 230:0.0222919 231:-0.320168 232:-0.278798 233:-0.703246 234:-0.315158 235:0.268956 236:-0.256084 237:-0.471335 238:-0.30038 239:-0.439236 240:-0.234342 241:-0.335965 242:0.479658 243:-0.388693 244:-0.912664 245:-0.188356 246:-0.393659 247:-0.498287 248:0.296682 249:-0.578336 250:-0.351688 251:0.700088 252:-0.297668 253:0.780641 254:-0.540591 255:0.743767 256:-0.365303 257:-0.994186 258:-0.46213 259:-0.227438 260:-0.0790017 261:-0.0586972 262:0.183242 263:-0.195256 264:0.0651785 265:-0.260881 266:0.150424 267:-0.0778623 268:-0.441322 269:-0.612 270:-0.342205 271:-0.340108 272:0.185831 273:-0.198155 274:0.0158782 275:-0.151072 276:-0.210413 277:-0.446337 278:0.428371 279:-0.391561 280:-0.370826 281:-0.703704 282:-0.235104 283:-0.507267 284:0.121851 285:-0.684082 286:-0.519304 287:0.0391158 288:-0.308211 289:-0.280475 290:0.34669 291:-0.243528 292:-0.791086 293:-0.715125 294:0.019367 295:-0.35897 296:-0.344199 297:-0.197697 298:0.00323658 299:0.0835662 300:-0.608445 301:-0.330109 302:0.39296 303:-0.19116 304:-0.350554 305:-0.606667 306:-0.313559 307:-0.0568054 308:-0.0757189 309:-0.34207 310:-0.107493 311:0.143956 312:-0.643768 313:-0.532798 314:0.181802 315:-0.330806 316:-0.510836 317:-0.502874 318:-0.329888 319:-0.10191 320:-0.204606 321:-0.215578 322:0.0146018 323:0.0612635 324:-0.791969 325:-0.159193 326:0.0774028 327:0.0432323 328:-0.544093 329:-0.657971 330:0.00960139 331:-0.0991721 332:-0.149197 333:-0.0763623 334:0.145536 335:-0.376568 336:-0.444029 337:-0.752075 338:0.209125 339:-0.411438 340:-0.742809 341:-0.634981 342:0.337664 343:-0.130269 344:-0.19183 345:-0.350923 346:-0.126533 347:-0.523492 348:-0.467805 349:-0.00206171 350:-0.0915554 351:0.0167388 352:-0.900302 353:-0.302564 354:-0.0836625 355:-0.383023 356:0.555073 357:0.1468 358:0.369933 359:-0.358294 360:-0.520634 361:0.0869016 362:-0.111305 363:0.185791 364:-0.284585 365:-0.490196 366:0.0379374 367:0.179763 368:0.26461 369:0.0265273 370:0.294623 371:-0.358748 372:-0.78452 373:0.347702 374:-0.416111 375:0.381907 376:-0.719231 377:-0.741445 378:-0.433794 379:0.0632419 380:-0.0106078 381:-0.138064 382:0.310873 383:0.418771 384:-0.923195 
0.1437100131538791 2.772178524100094 0 0 0 0 1:-0.61503 2:-0.817793 3:-0.613217 4:-0.96 5:-0.983498 6:-0.29777 7:-0.094712 8:0.0860038 9:-0.676077 10:-0.344942 11:-0.622483 12:-0.885922 13:0.286505 14:-0.199025 15:0.35043 16:-0.755682 17:-0.207262 18:0.107192 19:-0.0549609 20:-0.0130317 21:0.0104125 22:0.21039 23:-0.523742 24:-0.328073 25:-0.0881198 26:0.00916821 27:-0.131684 28:-0.535545 29:-0.86711 30:0.011363 31:0.164112 32:-0.117128 33:-0.438269 34:-0.227401 35:-0.15102 36:-0.554804 37:-0.306376 38:-0.432352 39:0.00367885 40:-0.504644 41:-0.445636 42:-0.269909 43:0.0038534 44:-0.258648 45:0.227578 46:0.311862 47:-0.240038 48:-0.615427 49:-0.35398 50:0.163382 51:-0.413091 52:-0.556869 53:-0.240246 54:-0.0140663 55:-0.206267 56:-0.13803 57:-0.374459 58:-0.0899231 59:0.438758 60:-0.848093 61:-0.645761 62:-0.271331 63:-0.271941 64:-0.996937 65:-0.106299 66:-0.268704 67:-0.298772 68:-0.0859688 69:-0.26837 70:-0.031547 71:0.502888 72:-0.845494 73:-0.184855 74:0.142102 75:-0.20782 76:-0.363484 77:-0.169139 78:-0.0737594 79:-0.081009 80:0.0475436 81:0.0656965 82:0.197659 83:-0.115099 84:-0.86107 85:-0.226124 86:-0.270096 87:0.0653231 88:0.145594 89:-0.876588 90:-0.366369 91:0.0925193 92:-0.416513 93:-0.0379072 94:0.215485 95:0.21965 96:-0.797193 97:-0.345436 98:-0.372619 99:0.197136 100:-0.0948419 101:-0.092437 102:-0.0177563 103:0.153723 104:0.0616655 105:0.275336 106:0.40647 107:-0.351904 108:-0.412287 109:-0.367918 110:-0.264468 111:0.00789955 112:-0.787928 113:-0.698925 114:-0.318317 115:-0.175716 116:0.0775291 117:-0.0677124 118:0.126286 119:-0.337072 120:-0.671941 121:-0.670164 122:-0.0573473 123:-0.414919 124:-0.487106 125:-0.733075 126:-0.470515 127:-0.0665801 128:-0.285913 129:-0.388278 130:-0.200223 131:0.329439 132:-0.810621 133:-0.446603 134:-0.145277 135:-0.335175 136:-0.0212072 137:-0.974895 138:-0.044856 139:0.33554 140:-0.359137 141:-0.349881 142:-0.0528291 143:-0.0852627 144:-0.594624 145:-0.210318 146:0.0913953 147:0.0757606 148:-0.815009 149:-0.334545 150:-0.362934 151:0.00684785 152:-0.208197 153:0.101492 154:0.260059 155:0.0517724 156:-0.907778 157:-0.175676 158:-0.782609 159:-0.176312 160:-0.211394 161:-0.69697 162:-0.417767 163:-0.237851 164:-0.0536302 165:-0.398199 166:-0.225936 167:-0.140252 168:-0.593716 169:0.770512 170:-0.106027 171:0.633818 172:-0.293286 173:-0.382353 174:0.825575 175:-0.0126734 176:0.408714 177:0.884366 178:0.897095 179:-0.805818 180:-0.98896 181:0.664447 183:0.664447 184:-0.790076 185:-1 186:0.505364 187:0.0769089 188:0.207963 189:0.1595 190:0.511761 191:-0.977591 192:-0.985532 193:-0.690795 194:0.59007 195:-0.61775 196:-0.924012 197:-0.884 198:0.47797 199:0.790269 200:-0.613986 201:-0.650297 202:-0.302417 203:-0.0631852 204:-0.934501 205:0.328611 206:0.295789 207:0.0993807 208:-0.939759 209:-0.960666 210:0.340672 211:0.373662 212:-0.441056 213:-0.254594 214:-0.0534392 215:0.501564 216:-0.366199 217:0.0680144 218:0.125761 219:0.0444751 220:-0.732504 221:-0.908661 222:-0.0275446 223:-0.176382 224:-0.0645805 225:0.0213881 226:0.24068 227:0.45908 228:-0.830226 229:-0.504696 230:0.131958 231:-0.25386 232:-0.495826 233:-0.92272 234:-0.55823 235:0.127795 236:-0.101599 237:-0.142656 238:0.0432883 239:0.00421069 240:-0.703281 241:-0.426911 242:0.571433 243:-0.491333 244:-0.804949 245:-0.982877 246:-0.883172 247:-0.515786 248:0.170993 249:-0.475203 250:-0.230356 251:0.288216 252:-0.669832 253:0.438275 254:0.143632 255:0.128193 256:-0.196051 257:-0.194767 258:-0.558967 259:-0.463835 260:0.172846 261:-0.11854 262:0.125328 263:0.080447 264:-0.668726 265:0.42717 266:-0.189134 267:0.568555 268:-0.0644628 269:0.108 270:-0.159297 271:-0.327542 272:0.121811 273:0.304695 274:0.464416 275:-0.0462404 276:-0.253625 277:0.346453 278:-0.0199047 279:0.354808 280:-0.866432 281:-0.70679 282:0.111349 283:-0.539456 284:0.14017 285:0.0142224 286:0.225775 287:0.291618 288:-0.479001 289:-0.075893 290:-0.316677 291:0.326331 292:-0.629526 293:-0.603524 294:0.373534 295:-0.544863 296:-0.032495 297:0.377527 298:0.521942 299:-0.44594 300:-0.413924 301:-0.123943 302:-0.378699 303:0.394245 304:0.0405904 305:-0.676667 306:-0.0725405 307:-0.0634946 308:-0.106988 309:-0.130332 310:0.105616 311:-0.333388 312:-0.461358 313:-0.440322 314:0.218379 315:-0.291243 316:-0.789474 317:-0.847701 318:-0.0630363 319:-0.193061 320:-0.0613731 321:-0.259739 322:-0.030303 323:-0.0057684 324:-0.606779 325:0.101285 326:0.369751 327:0.00087002 328:-0.440932 329:-0.510145 330:-0.001094 331:-0.332488 332:0.0846821 333:0.036085 334:0.2457 335:0.204866 336:-0.581121 337:-0.0822181 338:0.215646 339:0.0260348 340:-0.177665 341:-0.34981 342:-0.17381 343:-0.372193 344:-0.00544059 345:-0.0126438 346:0.201528 347:0.103964 348:-0.568905 349:-0.0298968 350:-0.0782221 351:-0.00593942 352:-0.864048 353:-0.82906 354:-0.184331 355:-0.387055 356:0.550699 357:-0.280033 358:-0.0208762 359:-0.253012 360:-0.384279 361:0.443786 362:-0.737073 363:0.71036 364:-0.328063 365:-0.847059 366:0.0107984 367:0.407442 368:-0.017508 369:0.219448 370:0.449022 371:-0.326596 372:-0.519764 373:0.668768 374:-0.604965 375:0.636867 376:-0.796154 377:-0.8327 378:-0.0794591 379:0.186736 380:-0.0885484 381:-0.251684 382:0.220755 383:0.452899 384:-0.898651 
0 1.60257831246806 0 0 0.385936505792649 2.130325123510512 1:-0.712058 2:-0.906441 3:-0.710125 4:-0.868 5:-0.990099 6:-0.808665 7:0.0424976 8:-0.440289 9:-0.938498 10:-0.849879 11:-0.292638 12:-0.545303 13:0.467966 14:0.0660833 15:0.26665 16:-0.107955 17:-0.155825 18:0.19217 19:-0.257971 20:0.236271 21:-0.476842 22:-0.279056 23:-0.243322 24:-0.227571 25:0.602029 26:-0.162319 27:0.4707 28:-0.0458136 29:-0.162791 30:-0.0414133 31:0.161024 32:-0.1689 33:0.0293771 34:0.243834 35:0.161093 36:-0.353824 37:-0.406743 38:-0.346769 39:-0.146202 40:-0.656347 41:-0.476263 42:-0.429703 43:-0.0183317 44:-0.389214 45:-0.15608 46:-0.0756042 47:-0.0219674 48:-0.689377 49:-0.0245175 50:0.0719019 51:-0.129853 52:0.0398818 53:-0.0225873 54:0.0698162 55:-0.158182 56:-0.151275 57:-0.148253 58:0.146437 59:0.34913 60:-0.796741 61:0.112639 62:-0.484745 63:0.467726 64:-0.0627871 65:-0.53937 66:-0.195337 67:0.305092 68:-0.773629 69:-0.103345 70:0.291498 71:0.336066 72:-0.541531 73:-0.0143169 74:0.123208 75:-0.0534811 76:-0.293132 77:-0.442136 78:0.076333 79:0.113192 80:-0.103904 81:0.230921 82:0.362669 83:-0.0892839 84:-0.855255 85:-0.0377877 86:-0.388474 87:0.293742 88:-1 89:-0.368421 90:-0.378868 91:-0.166395 92:-0.169487 93:0.443673 94:0.521874 95:0.397368 96:-0.633173 97:0.322281 98:-0.313846 99:0.610168 100:0.12812 101:-0.092437 102:-0.16735 103:0.3864 104:-0.408853 105:-0.121062 106:0.129923 107:0.289521 108:-0.538626 109:-0.118154 110:-0.263305 111:0.197159 112:0.0636215 113:-0.419355 114:-0.363356 115:0.229941 116:-0.435383 117:-0.331468 118:-0.135316 119:-0.170095 120:-0.301499 121:-0.280098 122:-0.470185 123:0.271032 124:-0.108883 125:-0.945841 126:-0.390037 127:0.158685 128:-0.580089 129:-0.037544 130:0.348465 131:0.100272 132:-0.535009 133:-0.407315 134:-0.0596805 135:-0.363231 136:0.0570962 137:-0.891213 138:-0.0595613 139:0.336923 140:-0.428098 141:-0.33438 142:-0.00640889 143:0.0569582 144:-0.678634 145:-0.232408 146:0.0587701 147:0.0784708 148:-0.0750436 149:-0.32 150:-0.376899 151:0.382219 152:-0.683016 153:-0.115743 154:0.157865 155:0.206647 156:-0.832996 157:0.248648 158:-0.956522 159:0.257066 160:-0.148426 161:-1 162:-0.500281 163:-0.12701 164:-0.284769 165:-0.56647 166:-0.382382 167:0.197589 168:-0.147837 169:0.803978 170:0.832215 171:0.384557 172:-0.04947 173:0.0808824 174:0.686581 175:-0.100855 176:0.415658 177:0.369759 178:0.544688 179:-0.771519 180:-0.966928 181:0.95154 183:0.95154 184:0.324427 185:-1 186:0.320669 187:0.0748443 188:0.0883781 189:0.191444 190:0.532639 191:-0.890321 192:-0.977834 193:-0.661732 194:0.653224 195:-0.629947 196:-0.899696 197:-0.868 198:0.470902 199:0.936874 200:-0.883068 201:-0.910235 202:-0.733061 203:0.0489544 204:-0.622086 205:0.150981 206:0.081629 207:0.100637 208:-0.0903614 209:-0.15885 210:-0.0473028 211:0.296885 212:-0.384542 213:-0.299722 214:-0.0999851 215:0.103523 216:-0.539893 217:0.0482758 218:0.0855119 219:0.0553954 220:-0.18507 221:-0.0299213 222:0.11698 223:-0.265062 224:0.0457261 225:0.0933891 226:0.303246 227:0.148812 228:-0.819018 229:-0.481899 230:0.0801477 231:-0.209549 232:-0.419032 233:-0.496136 234:0.220867 235:0.190577 236:-0.103597 237:-0.523223 238:-0.360138 239:-0.293836 240:-0.18783 241:-0.452108 242:0.668566 243:-0.562643 244:-0.342067 245:-0.294521 246:-0.128103 247:-0.452282 248:0.123336 249:-0.596444 250:-0.371542 251:-0.137169 252:-0.647825 253:0.308748 254:-0.225062 255:0.313495 256:-0.667137 257:-0.677326 258:0.00205029 259:-0.446753 260:0.215366 261:-0.107382 262:0.136498 263:-0.258997 264:-0.407748 265:0.46692 266:-0.415111 267:0.752762 268:-0.507438 269:-0.4 270:0.0660151 271:-0.390312 272:0.261485 273:0.0903561 274:0.282776 275:-0.0485556 276:-0.17402 277:0.125125 278:0.0761643 279:0.164872 280:-0.205624 281:-0.0617284 282:-0.144518 283:-0.538224 284:-0.0237704 285:-0.159368 286:0.0654442 287:0.172065 288:-0.497669 289:-0.139403 290:0.0966923 291:0.00940836 292:-0.395543 293:-0.594714 294:0.111089 295:-0.584212 296:-0.106603 297:-0.357382 298:-0.166399 299:0.295674 300:-0.466968 301:-0.37002 302:0.57069 303:-0.320796 304:0.166052 305:-0.453333 306:0.0149573 307:-0.192574 308:0.134844 309:-0.620557 310:-0.427431 311:0.197934 312:-0.573974 313:-0.253173 314:-0.0467749 315:-0.0168964 316:-0.637771 317:-0.925287 318:0.122822 319:-0.238745 320:0.0366156 321:-0.199561 322:0.0294485 323:-0.375951 324:-0.451576 325:0.486651 326:-0.331431 327:0.657348 328:-0.886855 329:-0.217391 330:-0.0709489 331:-0.304377 332:-0.0682735 333:-0.120329 334:0.102092 335:-0.208825 336:0.0932809 337:-0.177895 338:0.0733891 339:0.0692225 340:-0.844332 341:-0.828897 342:-0.173553 343:-0.364915 344:-0.0846633 345:-0.0749621 346:0.144564 347:-0.0796024 348:-0.314027 349:-0.0360823 350:-0.391111 351:0.180885 352:-0.1571 353:-0.558974 354:-0.176448 355:-0.36387 356:0.535548 357:-0.249625 358:0.0094363 359:-0.448076 360:-0.140813 361:0.378195 362:-0.360637 363:0.478447 364:-0.181818 365:-0.305882 366:-0.318327 367:0.516098 368:-0.291681 369:0.524844 370:0.675837 371:-0.235172 372:-0.880808 373:0.884103 374:-0.938761 375:0.911432 376:-0.930769 377:0.330798 378:-0.433794 379:0.159419 380:-0.0509431 381:0.211937 382:0.553744 383:0.426716 384:-0.921178 
0 2.856459541481274 0 0 0 0 1:-0.483679 2:-0.903374 3:-0.481339 4:-0.104 5:-0.0165017 6:-0.458503 7:0.143415 8:-0.390781 9:-0.628863 10:-0.313689 11:-0.42347 12:-0.787112 13:-0.0389896 14:0.336201 15:-0.353314 16:-0.798295 17:-0.237519 18:-0.406074 19:-0.278989 20:-0.135438 21:-0.677198 22:-0.523853 23:-0.0211192 24:-0.716136 25:-0.321146 26:-0.710814 27:0.353335 28:-0.191153 29:-0.358804 30:-0.846272 31:-0.053714 32:-0.432526 33:0.30902 34:0.467919 35:0.0327297 36:-0.753426 37:-0.585481 38:-0.297392 39:-0.332815 40:-0.934985 41:-0.491577 42:-0.455531 43:-0.240018 44:-0.149399 45:-0.606616 46:-0.551948 47:-0.175247 48:-0.47939 49:-0.466183 50:-0.35266 51:0.00377307 52:-0.134417 53:-0.774127 54:-0.49461 55:-0.0367127 56:-0.690184 57:-0.109617 58:0.221341 59:0.539859 60:-0.83315 61:-0.0451979 62:0.0465829 63:-0.083645 64:-0.316998 65:-0.326772 66:0.133097 67:0.00587074 68:-0.0278566 69:-0.129833 70:0.0892891 71:0.822872 72:-0.751419 73:-0.218957 74:-0.959455 75:0.831118 76:-0.9933 77:-0.602374 78:-0.454748 79:-0.0325265 80:-0.308022 81:0.159499 82:0.271083 83:-0.0144731 84:0.0985197 85:-0.228488 86:-0.531505 87:0.276356 88:-0.570881 89:0.00907441 90:-0.616912 91:-0.234145 92:-0.265576 93:0.505725 94:0.565477 95:0.0997369 96:-0.543046 97:0.410493 98:-0.350421 99:0.705989 100:0.00831947 101:-0.731092 102:0.0975289 103:0.511685 104:-0.316716 105:-0.0549365 106:0.252103 107:-0.0723236 108:-0.190529 109:-0.0791146 110:-0.55626 111:0.500318 112:-0.194127 113:-0.97235 114:-0.428868 115:0.448421 116:-0.700393 117:-0.0293548 118:0.26192 119:-0.0805379 120:-0.50039 121:0.170562 122:-0.0236774 123:0.272511 124:-0.289398 125:0.0522244 126:-0.204701 127:-0.107611 128:-0.0468446 129:0.372097 130:0.499588 131:0.63422 132:-0.151766 133:0.632113 134:-0.116683 135:0.35705 136:-0.174551 137:0.158996 138:0.469512 139:0.371309 140:0.0136511 141:0.176082 142:0.423143 143:0.211148 144:-0.489944 145:0.191403 146:0.346219 147:0.256141 148:-0.553229 149:-0.789091 150:0.318388 151:0.669819 152:-0.323361 153:0.301552 154:0.623047 155:0.0743416 156:-0.902617 157:0.205405 158:-0.826087 159:0.205922 160:-0.67916 161:0.244444 162:0.0630586 163:-0.180124 164:0.0851342 165:-0.585203 166:-0.412 167:-0.243944 168:-0.501025 169:0.918106 170:0.599771 171:0.543202 172:-0.558304 173:-0.988971 174:0.765266 175:-0.101384 176:0.461496 177:0.766382 178:0.818873 179:-0.647358 180:-0.979446 181:0.941176 183:0.941176 184:-0.522901 185:-1 186:0.665729 187:0.0162925 188:0.367523 189:0.690336 190:0.824297 191:-0.93623 192:-0.983683 193:-0.478885 194:0.544049 195:-0.456133 196:-0.316109 197:-0.092 198:0.462175 199:0.831772 200:-0.694276 201:-0.613301 202:-0.255709 203:0.0670777 204:-0.841434 205:-0.565652 206:0.554323 207:-0.596425 208:-0.463855 209:-0.691377 210:0.487098 211:0.141551 212:0.0424282 213:-0.62574 214:-0.466436 215:-0.297841 216:-0.84907 217:0.199377 218:0.0499694 219:0.167814 220:-0.219285 221:-0.905512 222:0.000246201 223:-0.113278 224:-0.166273 225:0.388539 226:0.54906 227:0.105794 228:-0.820138 229:0.140082 230:0.0754711 231:0.16933 232:-0.449082 233:-0.919629 234:0.00869191 235:0.213821 236:-0.161151 237:-0.344888 238:-0.162333 239:0.0348202 240:-0.29426 241:0.526109 242:-0.117796 243:0.421309 244:-0.164483 245:-0.736301 246:-0.171055 247:-0.263176 248:-0.194463 249:0.50252 250:0.653711 251:0.165716 252:-0.640506 253:-0.302276 254:0.0578818 255:-0.15993 256:-0.51481 257:-0.30814 258:-0.42377 259:-0.478088 260:0.228893 261:-0.441563 262:-0.202865 263:-0.549545 264:-0.416459 265:1 266:-0.319266 267:0.998148 268:-0.570248 269:-0.22 270:-0.224418 271:-0.217691 272:-0.131782 273:0.413409 274:0.555543 275:0.119503 276:0.436876 277:-0.0767838 278:0.269515 279:-0.0754054 280:-0.42355 281:-0.194444 282:0.0506505 283:-0.452962 284:-0.0516153 285:-0.185962 286:0.0415125 287:0.309886 288:-0.569469 289:-0.482605 290:0.410439 291:-0.407185 292:-0.445682 293:-0.823789 294:0.401365 295:-0.578752 296:0.0456392 297:-0.241372 298:-0.0465665 299:-0.293594 300:-0.756351 301:-0.547041 302:-0.084381 303:-0.0653582 304:0.0442804 305:-0.98 306:-0.0429385 307:-0.140017 308:0.0500967 309:-0.362192 310:-0.129486 311:-0.259316 312:-0.583628 313:0.0970561 314:0.105116 315:0.125285 316:-0.151703 317:-0.29023 318:0.206649 319:-0.331105 320:0.291149 321:0.353298 322:0.518924 323:0.181554 324:-0.708944 325:-0.159523 326:-0.0138996 327:0.100968 328:-0.031614 329:-0.550725 330:-0.0474796 331:-0.273573 332:-0.0422668 333:0.122253 334:0.323579 335:-0.342559 336:-0.469407 337:0.146256 338:0.0698666 339:0.285912 340:-0.881557 341:-0.825095 342:0.0842258 343:-0.489045 344:0.283027 345:0.713577 346:0.794316 347:0.0564057 348:-0.588801 349:0.0484533 350:0.105778 351:-0.076674 352:-0.691843 353:-0.634188 354:-0.267439 355:-0.384621 356:0.509192 357:-0.259752 358:-0.000518472 359:-0.0490077 360:-0.391299 361:0.742576 362:-0.66662 363:0.841471 364:-0.272727 365:-0.866667 366:-0.00144226 367:0.227202 368:0.323786 369:0.951678 370:0.964774 371:-0.213273 372:-0.855623 373:0.79666 374:-0.709008 375:0.752834 376:-0.542308 377:-0.456274 378:-0.433794 379:0.0545871 380:0.146867 381:0.892194 382:0.941863 383:0.456039 384:-0.939816 
0 3.460312672496369 0 0 0 0 1:-0.778226 2:-0.837334 3:-0.776645 4:-0.696 5:-0.9967 6:-0.453073 7:0.00361069 8:-0.213337 9:-0.818586 10:-0.59577 11:-0.669658 12:-0.899646 13:0.268776 14:0.0506858 15:0.125742 16:-0.414773 17:-0.709531 18:0.344486 19:0.394813 20:-0.122431 21:-0.417274 22:-0.110646 23:-0.530722 24:-0.296866 25:0.0167556 26:0.0173685 27:-0.0704649 28:-0.560821 29:-0.707641 30:-0.164784 31:0.154115 32:-0.180027 33:-0.411718 34:-0.210314 35:0.154712 36:-0.40886 37:-0.0607664 38:-0.0769695 39:-0.0697432 40:-0.374613 41:-0.49464 42:-0.212801 43:0.406202 44:-0.522739 45:0.0632161 46:0.260541 47:0.282637 48:-0.789268 49:0.0292689 50:0.599088 51:-0.592176 52:-0.400295 53:-0.663244 54:0.496726 55:-0.190758 56:0.246274 57:-0.451764 58:-0.174289 59:0.377441 60:-0.889282 61:-0.313792 62:-0.519492 63:0.178135 64:-0.984686 65:-0.909449 66:-0.378508 67:-0.636879 68:0.0150964 69:-0.113132 70:0.196543 71:0.547237 72:-0.623361 73:0.13553 74:0.317852 75:-0.122323 76:-0.577889 77:-0.925816 78:0.172273 79:-0.143748 80:0.275151 81:-0.330229 82:-0.152789 83:0.212465 84:-0.137332 85:-0.471799 86:-0.0955749 87:-0.248994 88:-1 89:-0.931034 90:-0.660787 91:-0.418025 92:-0.167617 93:-0.592479 94:-0.416296 95:0.804218 96:-0.199978 97:-0.445279 98:-0.415376 99:0.166984 100:-0.986689 101:-0.529412 102:-1 103:-0.0591576 104:-0.505744 105:-0.029619 106:0.152808 107:0.472419 108:-0.534346 109:0.949295 110:-0.0126378 111:0.776718 112:-0.869494 113:-0.784946 114:0.202049 115:-0.312368 116:0.501747 117:0.441162 118:0.533781 119:0.273109 120:-0.251645 121:-0.418019 122:-0.128561 123:-0.1391 124:-0.398281 125:-0.338491 126:-0.203365 127:-0.342799 128:0.190146 129:-0.217399 130:-0.0250423 131:-0.241766 132:-0.312385 133:-0.0702086 134:-0.13936 135:-0.0910798 136:-0.350734 137:-0.313808 138:0.22811 139:0.154693 140:0.123078 141:0.0420827 142:0.224974 143:0.0715479 144:-0.480177 145:-0.745903 146:0.44724 147:-0.636683 148:-0.246073 149:-0.88 150:-0.405184 151:0.203504 152:-0.420461 153:-0.78556 154:-0.659106 155:0.0951057 156:-0.828471 157:0.243243 158:-0.869565 159:0.246299 160:-0.694153 161:-0.127273 162:-0.36776 163:-0.435556 164:0.170693 165:-0.448126 166:-0.237551 167:0.0109528 168:-0.42029 169:0.794777 170:0.0821747 171:0.597711 172:-0.431095 173:-0.981618 174:0.212933 175:0.58903 176:-0.37699 177:0.0977016 178:0.481164 179:-0.473067 180:-0.907667 181:0.411016 183:0.411016 184:-0.370229 185:-1 186:-0.292816 187:0.449086 188:-0.533769 189:-0.351575 190:0.176765 191:-0.804103 192:-0.969752 193:-0.671789 194:0.779521 195:-0.69901 196:-0.717325 197:-0.632 198:0.478219 199:0.632685 200:-0.523825 201:-0.74387 202:-0.431952 203:0.0640839 204:-0.947974 205:0.21055 206:0.295897 207:0.0253926 208:-0.704819 209:-0.588502 210:0.0480393 211:-0.0640589 212:0.100601 213:-0.346111 214:-0.14554 215:0.56662 216:-0.252463 217:0.334901 218:-0.16687 219:0.374144 220:-0.580093 221:-0.546457 222:-0.144591 223:0.131826 224:-0.290396 225:-0.026308 226:0.200434 227:0.020124 228:-0.530064 229:0.157273 230:0.297802 231:0.0487384 232:-0.702838 233:-0.508501 234:-0.0645802 235:0.298139 236:-0.218958 237:-0.213281 238:-0.0254348 239:0.0678516 240:-0.501931 241:-0.478454 242:0.386415 243:-0.407782 244:-0.842795 245:-0.65411 246:-0.369174 247:-0.289372 248:0.0380661 249:-0.35146 250:-0.0932935 251:-0.166115 252:-0.667524 253:0.124445 254:-0.277485 255:0.262501 256:-0.932299 257:-0.453488 258:-0.127251 259:0.191543 260:-0.491208 261:0.10609 262:0.336436 263:-0.642774 264:-0.585401 265:-0.577848 266:0.278676 267:-0.355601 268:-0.62314 269:-0.468 270:0.0597535 271:-0.0701047 272:-0.038284 273:-0.258319 274:-0.0368471 275:-0.155871 276:-0.544383 277:-0.399909 278:0.487846 279:-0.402192 280:-0.690685 281:-0.938272 282:-0.0752533 283:-0.0712372 284:-0.383232 285:-0.616171 286:-0.41491 287:0.0477646 288:-0.557259 289:-0.148935 290:0.559053 291:-0.308368 292:-0.43454 293:-0.668135 294:0.33302 295:0.000897936 296:-0.746328 297:-0.141919 298:0.074314 299:0.295878 300:-0.767621 301:0.580877 302:-0.505771 303:0.950905 304:-0.420664 305:-0.78 306:-0.0358954 307:-0.122508 308:0.132257 309:1 310:1 311:0.0246551 312:-0.592884 313:-0.575977 314:0.457935 315:-0.51723 316:-0.931889 317:-0.951149 318:-0.0475863 319:0.138558 320:-0.394923 321:-0.158024 322:0.0753679 323:0.303124 324:-0.875814 325:0.379756 326:0.342156 327:0.171346 328:-0.397671 329:-0.533333 330:0.088289 331:-0.0652906 332:-0.100404 333:0.119034 334:0.322261 335:0.0320206 336:-0.514558 337:-0.691036 338:0.651612 339:-0.701987 340:-0.712352 341:-0.422053 342:0.465439 343:-0.167344 344:-0.0443632 345:-0.59883 346:-0.410149 347:-0.0775012 348:-0.784709 349:-0.0474229 350:-0.164445 351:0.0372573 352:-0.70997 353:-0.651282 354:-0.191298 355:-0.517158 356:0.662144 357:-0.149474 358:0.108041 359:-0.334067 360:-0.199466 361:0.060151 362:-0.124656 363:0.177703 364:-0.758893 365:-0.47451 366:0.491566 367:0.427434 368:-0.00201354 369:0.0217866 370:0.287237 371:-0.201786 372:-0.864624 373:0.235126 374:-0.272849 375:0.253988 376:-0.392308 377:-0.338403 378:0.118068 379:0.338634 380:-0.385932 381:-0.457893 382:0.0385313 383:0.459511 384:-0.914574 
1.834394555215059 4.359688660340134 0.6881557251805475 3.069084952068999 1.645545522143712 0.6738118138036743 1:-0.853783 2:-0.849022 3:-0.852301 4:-0.488 5:-0.722772 6:-0.633966 7:0.105346 8:-0.442492 9:-0.888044 10:-0.737535 11:-0.666951 12:-0.886015 13:0.374057 14:-0.600324 15:0.757153 16:-0.332386 17:-0.403933 18:0.00666545 19:-0.044151 20:-0.0697742 21:0.537242 22:0.65288 23:-0.455161 24:-0.584072 25:-0.364839 26:0.0162421 27:-0.318623 28:-0.241706 29:-0.960133 30:0.0476189 31:0.198465 32:-0.0982317 33:-0.386965 34:-0.169843 35:-0.0646858 36:-0.775224 37:0.0407954 38:-0.106601 39:0.037522 40:-0.609907 41:-0.57121 42:0.104451 43:0.141168 44:-0.0228045 45:-0.320222 46:-0.232262 47:-0.062777 48:-0.402203 49:0.380167 50:0.58505 51:-0.368742 52:-0.282127 53:-0.979466 54:0.450922 55:-0.20704 56:0.218374 57:-0.542441 58:-0.27909 59:0.675639 60:-0.717421 61:-0.606156 62:-0.259304 63:-0.252228 64:-0.255743 65:-0.122047 66:-0.0663585 67:-0.266569 68:0.0511403 69:-0.366739 70:-0.147178 71:-0.0741167 72:-0.624557 73:-0.0147829 74:0.501626 75:-0.420106 76:-0.527638 77:-0.661721 78:0.0231718 79:-0.0538404 80:0.0843889 81:-0.615632 82:-0.466892 83:0.219945 84:-0.16736 85:0.332631 86:0.130564 87:0.131255 88:-0.103448 89:-0.753176 90:0.452807 91:0.229965 92:0.131131 93:-0.407696 94:-0.0846049 95:0.0435328 96:-0.239994 97:-0.129918 98:-0.526013 99:0.490829 100:-0.181364 101:-0.0966387 102:0.0941904 103:-0.246962 104:0.57535 105:-0.0511754 106:0.217821 107:-0.408457 108:-0.118201 109:-0.825761 110:-0.490359 111:-0.130204 112:-1 113:-0.711214 114:-0.573977 115:0.0225898 116:-0.343282 117:-0.386605 118:-0.23892 119:-0.237967 120:-0.321476 121:-0.772911 122:-0.42012 123:-0.191712 124:-0.472779 125:-0.624758 126:-0.595013 127:-0.168375 128:-0.244609 129:-0.388845 130:-0.223774 131:-0.533923 132:0.0799455 133:-0.0279935 134:0.473098 135:-0.44912 136:-0.755302 137:-0.297071 138:0.315337 139:-0.0500587 140:0.399452 141:-0.733381 142:-0.558287 143:0.672514 144:0.0180709 145:-0.496055 146:-0.282821 147:0.0783865 148:-0.762653 149:-0.981818 150:-0.255874 151:0.218318 152:-0.314405 153:-0.523095 154:-0.325031 155:-0.36328 156:-0.326225 157:0.362162 158:-0.869565 159:0.364737 160:-0.94003 161:-0.660606 162:-0.055825 163:-0.470297 164:0.404761 165:-0.0599244 166:0.106531 167:-0.340922 168:-0.719066 169:0.689389 170:-0.187032 171:0.59342 172:-0.59364 173:-0.606618 174:-0.278098 175:0.106032 176:-0.354259 177:-0.416369 178:-0.118121 179:-0.254605 180:-0.716777 181:0.467375 183:0.467375 184:-0.561069 185:-1 186:-0.665166 187:0.0435389 188:-0.479258 189:-0.616476 190:-0.130976 191:-0.62623 192:-0.920876 193:-0.822758 194:0.788342 195:-0.802295 196:-0.610942 197:-0.488 198:0.471105 199:0.792421 200:-0.702297 201:-0.873651 202:-0.654518 203:-0.126704 204:-0.927612 205:0.27754 206:-0.382547 207:0.423706 208:-0.807229 209:-0.824508 210:-0.439436 211:0.209819 212:-0.368069 213:0.666972 214:0.751678 215:0.0584571 216:-0.677964 217:0.126759 218:0.213718 219:0.0301272 220:-0.511664 221:-0.971654 222:0.134497 223:-0.564163 224:0.560213 225:0.0943394 226:0.302374 227:0.453779 228:-0.726575 229:-0.181222 230:0.350251 231:-0.186858 232:-0.929883 233:-0.588872 234:0.593279 235:0.0220012 236:0.313053 237:-0.271736 238:-0.0867039 239:0.0708225 240:-0.611618 241:-0.514953 242:0.618778 243:-0.565883 244:-0.746725 245:-0.636986 246:0.00985906 247:-0.678814 248:0.651314 249:-0.36958 250:-0.115675 251:0.21586 252:-0.743771 253:0.0510207 254:0.0688842 255:-0.0025451 256:-0.712271 257:-0.389535 258:-0.353459 259:-0.448619 260:0.262434 261:-0.223698 262:0.0241346 263:-0.162949 264:-0.695059 265:0.246621 266:0.509889 267:-0.035132 268:-0.563636 269:-0.9 270:-0.101843 271:-0.510072 272:0.5314 273:-0.341899 274:-0.131608 275:0.177055 276:-0.102024 277:-0.0950298 278:0.511131 279:-0.239195 280:-0.497364 281:-0.787037 282:0.376517 283:-0.809773 284:0.736204 285:-0.399006 286:-0.187879 287:0.302835 288:-0.421484 289:-0.369865 290:-0.0669509 291:-0.0176713 292:-0.345404 293:-0.38326 294:0.28189 295:-0.675161 296:0.286177 297:-0.122063 298:0.0690127 299:-0.296158 300:-0.245352 301:-0.163169 302:0.347855 303:-0.0506791 304:-0.645756 305:-0.303333 306:-0.196376 307:0.0369945 308:-0.215608 309:-0.448242 310:-0.21951 311:0.213465 312:-0.368631 313:-0.136642 314:0.153503 315:-0.0553583 316:-0.69969 317:-0.477011 318:-0.343277 319:-0.08252 320:-0.257996 321:-0.278543 322:-0.0481507 323:0.328146 324:-0.275235 325:-0.100314 326:0.295066 327:-0.0624973 328:-0.790349 329:-0.582609 330:0.0978166 331:-0.547271 332:0.506046 333:-0.324403 334:-0.106464 335:-0.0593676 336:-0.226116 337:-0.249852 338:0.128111 339:-0.0192125 340:-0.986464 341:-0.977186 342:0.357285 343:-0.555403 344:0.478084 345:-0.113087 346:0.10578 347:-0.14264 348:-0.491076 349:0.00103107 350:-0.199111 351:0.0836932 352:-0.957704 353:-0.917949 354:-0.23167 355:-0.416508 356:0.540016 357:0.0664439 358:0.30193 359:-0.254922 360:-0.628528 361:0.57873 362:-0.374946 363:0.598369 364:-0.561265 365:-0.541176 366:-0.285366 367:0.291283 368:0.0343805 369:-0.0610142 370:0.21734 371:-0.201711 372:-0.703212 373:0.469282 374:-0.349589 375:0.409435 376:-0.565385 377:-0.86692 378:-0.433794 379:0.233839 380:-0.328091 381:-0.412026 382:0.0817392 383:0.474835 384:-0.891167 
1.282964517892979 1.862975823483013 0 0 0 0 1:-0.709522 2:-0.997063 3:-0.707278 4:-1 5:-1 6:-0.61904 7:-0.163839 8:0.0155685 9:-0.879724 10:-0.620117 11:-0.56222 12:-0.84075 13:0.477143 14:0.190537 15:0.168587 16:-0.252841 17:-0.397882 18:0.491363 19:-0.0329497 20:0.201731 21:-0.431878 22:-0.231604 23:-0.376218 24:-0.233352 25:0.0809743 26:0.00282687 27:-0.0156642 28:-0.279621 29:-0.578073 30:-0.0531156 31:0.288736 32:-0.295471 33:-0.352599 34:-0.0691296 35:-0.0689985 36:-0.340017 37:0.13025 38:0.354607 39:-0.247794 40:-0.411765 41:-0.200613 42:-0.075533 43:0.0813317 44:-0.171409 45:-0.159027 46:-0.0603907 47:0.556678 48:-0.576293 49:-0.397882 50:-0.0807296 51:-0.210397 52:-0.296898 53:-0.716632 54:-0.090775 55:0.0165317 56:-0.46974 57:-0.25854 58:0.124432 59:-0.0374041 60:-0.657068 61:0.0275259 62:-0.666789 63:0.552854 64:-0.724349 65:-0.141732 66:-0.361438 67:0.0224946 68:-0.550988 69:0.576284 70:0.673346 71:0.300772 72:-0.733585 73:0.664746 74:0.343138 75:0.275404 76:-0.403685 77:-0.95549 78:0.623437 79:0.0515145 80:0.420428 81:-0.0269818 82:0.126152 83:0.0140227 84:-0.317705 85:-0.0688205 86:-0.360308 87:0.249058 88:-0.199234 89:-0.368421 90:-0.32543 91:0.0710838 92:-0.384062 93:-0.304709 94:-0.0269232 95:0.372164 96:-0.441722 97:-0.535356 98:-0.126606 99:-0.164805 100:-0.301165 101:-0.722689 102:-0.338918 103:0.288899 104:-0.375603 105:-0.329371 106:-0.144798 107:0.184905 108:-0.627016 109:0.518178 110:0.517167 111:-0.0462897 112:-0.781403 113:-0.582181 114:0.454621 115:-0.154466 116:0.655938 117:-0.17629 118:0.0283726 119:0.219531 120:-0.646854 121:-0.354828 122:-0.0172913 123:-0.180574 124:-0.541547 125:-0.914894 126:-0.369872 127:0.0277754 128:-0.348272 129:-0.0207327 130:0.219079 131:0.261389 132:-0.695922 133:-0.135385 134:0.123049 135:-0.299305 136:-0.412724 137:-0.430962 138:0.472611 139:0.207937 140:0.219567 141:-0.625578 142:-0.414145 143:0.109183 144:-0.191568 145:-0.466778 146:-0.0965952 147:-0.0222211 148:-0.944154 149:-0.545455 150:-0.574266 151:0.0582101 152:-0.451873 153:-0.0441507 154:0.134079 155:-0.201286 156:-0.769676 157:0.92973 158:-0.913043 159:0.932705 160:-1 161:0.313131 162:-0.44858 163:-0.431848 164:0.257726 165:-0.586392 166:-0.325171 167:0.348645 168:0.053378 169:0.158224 170:-1 171:0.411944 172:-0.498233 173:-1 174:-0.179416 175:-0.190658 176:-0.0212576 177:-0.448039 178:-0.160988 179:-0.559752 180:-0.89339 181:0.577817 183:0.577817 184:-0.935115 185:-1 186:-0.689033 187:-0.1445 188:-0.29779 189:-0.723943 190:-0.234539 191:-0.600978 192:-0.901678 193:-0.778369 194:0.623718 195:-0.691777 196:-1 197:-1 198:0.474682 199:0.881324 200:-0.780485 201:-0.863317 202:-0.63442 203:-0.16489 204:-0.860322 205:-0.392911 206:0.082334 207:-0.24033 208:-0.981928 209:-0.888048 210:-0.36626 211:0.265442 212:-0.407903 213:-0.497886 214:-0.316009 215:-0.605526 216:-0.309445 217:0.158947 218:0.457987 219:-0.0895762 220:-0.437014 221:-0.275591 222:-0.0594684 223:-0.337843 224:0.168409 225:-0.201935 226:0.0302049 227:0.219472 228:-0.773 229:0.0906257 230:0.487005 231:-0.103036 232:-0.96995 233:-0.387944 234:-0.193788 235:0.107841 236:0.00824608 237:-0.312204 238:-0.129103 239:0.433482 240:-0.372034 241:-0.285 242:-0.0730871 243:-0.0314367 244:-0.487627 245:-0.410959 246:-0.149712 247:-0.474831 248:0.207962 249:-0.399406 250:-0.145721 251:0.200939 252:-0.222902 253:0.461615 254:-0.607441 255:0.639575 256:-0.892807 257:-0.453488 258:-0.280595 259:-0.37002 260:0.0314309 261:0.673223 262:0.77094 263:-0.19826 264:-0.646912 265:-0.172879 266:-0.431096 267:0.387758 268:-0.626446 269:-0.28 270:0.0431893 271:-0.525441 272:0.584173 273:0.0197067 274:0.217616 275:-0.120774 276:-0.264547 277:-0.0915124 278:0.509724 279:-0.236253 280:-0.374341 281:-0.135802 282:0.106804 283:-0.668513 284:0.367276 285:-0.322154 286:-0.103951 287:0.211324 288:-0.511175 289:-0.0877484 290:0.0176624 291:0.0935797 292:-0.972145 293:-0.38326 294:0.449937 295:-0.654539 296:0.215768 297:-0.154538 298:0.0382919 299:-0.252472 300:-0.43754 301:-0.275177 302:0.10224 303:0.0137873 304:-0.833948 305:-0.146667 306:0.110517 307:-0.328816 308:0.477092 309:-0.385918 310:-0.157008 311:-0.0919357 312:-0.418984 313:-0.0647316 314:0.358812 315:-0.125902 316:-0.739938 317:-0.227011 318:-0.00797642 319:-0.201402 320:-0.0515391 321:-0.339175 322:-0.112232 323:0.38146 324:-0.470358 325:0.0838009 326:0.166795 327:0.120009 328:-0.547421 329:-0.22029 330:0.139702 331:-0.518427 332:0.456023 333:0.0351458 334:0.242715 335:-0.0739501 336:-0.406448 337:-0.460384 338:0.0446626 339:-0.0958436 340:-0.150592 341:-0.813688 342:0.210709 343:-0.348516 344:0.00642207 345:-0.0556355 346:0.162582 347:-0.108699 348:-0.565115 349:0.00824715 350:-0.424 351:0.224082 352:-0.398792 353:-1 354:-0.761149 355:0.0392801 356:-0.530531 357:-0.436926 358:-0.176208 359:-0.852903 360:0.163314 361:0.00707552 362:-0.0272641 363:0.097446 364:-0.952569 365:-0.858824 366:0.242611 367:0.361001 368:0.152329 369:-0.42101 370:-0.131789 371:-0.19315 372:-0.714357 373:0.57622 374:-0.578616 375:0.577418 376:-0.942308 377:-0.927757 378:-0.433794 379:0.269466 380:-0.372639 381:-0.647532 382:-0.162485 383:0.5901 384:-0.820226 
0 1.821785410010441 0 2.912777544080357 0 0 1:-0.739599 2:-0.708906 3:-0.738381 4:-0.756 5:-0.983498 6:-0.45908 7:-0.0445429 8:-0.167602 9:-0.812434 10:-0.578915 11:-0.622945 12:-0.881185 13:-0.157284 14:0.419869 15:-0.515416 16:-0.448864 17:-0.76702 18:0.00230285 19:0.371586 20:-0.314735 21:-1 22:-0.881448 23:-0.0779454 24:-0.273478 25:0.0537528 26:-0.0456312 27:0.00944584 28:-0.447077 29:-0.877076 30:0.0858518 31:0.729906 32:-0.412655 33:-0.0255443 34:0.391357 35:0.169195 36:-0.823006 37:-0.459972 38:-0.476269 39:-0.0893874 40:-0.430341 41:-0.779479 42:-0.453177 43:0.532774 44:-0.846746 45:0.256842 46:0.49903 47:0.0104513 48:-0.941935 49:-0.441083 50:0.306953 51:-0.599968 52:-0.376662 53:-0.646817 54:-0.207708 55:-0.093971 56:-0.349748 57:-0.591021 58:-0.321201 59:0.716279 60:-0.785935 61:-0.832553 62:-0.191808 63:-0.476125 64:-0.81317 65:-0.484252 66:-0.511165 67:-0.460434 68:-0.264719 69:-0.412358 70:-0.157971 71:0.364942 72:-0.872072 73:-0.532867 74:0.248441 75:-0.588379 76:-0.966499 77:-0.931751 78:0.0342556 79:0.20556 80:-0.130705 81:-0.517599 82:-0.311442 83:-0.257429 84:-0.688882 85:-0.510713 86:-0.4143 87:-0.0169639 88:-0.969349 89:-0.647913 90:-0.838047 91:-0.589796 92:-0.179653 93:-0.0184519 94:0.19965 95:0.395864 96:-0.592106 97:-0.0511236 98:-0.295392 99:0.331437 100:-0.8802 101:-0.319328 102:-0.535842 103:-0.410654 104:0.16581 105:-0.101414 106:0.217575 107:0.599697 108:-0.495378 109:-0.905613 110:-0.248977 111:-0.416335 112:-0.748777 113:-0.646697 114:-0.861267 115:-0.0257018 116:-0.530069 117:-0.0974363 118:0.0384262 119:-0.209266 120:-0.870481 121:-0.315622 122:-0.0185003 123:-0.146137 124:-0.621777 125:-0.338491 126:-0.143976 127:-0.540408 128:0.398451 129:-0.318689 130:-0.0569803 131:-0.0792421 132:-0.32361 133:0.39339 134:-0.00944443 135:0.132315 136:-0.530179 137:-0.364017 138:-0.188182 139:-0.0708486 140:-0.0185345 141:-0.256515 142:-0.030991 143:1 144:1 145:-0.242736 146:0.611974 147:-0.305964 148:-0.664921 149:-0.429091 150:0.0859397 151:-0.261581 152:0.371035 153:-0.385001 154:-0.141639 155:0.157233 156:-0.84958 157:0.0486486 158:-0.434783 159:0.0255718 160:-0.754123 161:-0.983838 162:-0.529155 163:-0.382962 164:0.0310673 165:-0.763395 166:-0.59162 167:0.238262 168:0.040836 169:0.885876 170:0.39815 171:0.576949 172:-0.487633 173:-0.963235 174:0.762236 175:0.478349 176:0.0485339 177:0.521527 178:0.738819 179:-0.723198 180:-0.959729 181:0.721997 183:0.721997 184:-0.438931 185:-1 186:0.52324 187:0.141524 188:0.188843 189:0.387157 190:0.654761 191:-0.937017 192:-0.984069 193:-0.75654 194:0.612901 195:-0.672122 196:-0.81459 197:-0.752 198:0.474006 199:0.620187 200:-0.519468 201:-0.767465 202:-0.467852 203:-0.0351054 204:-0.890368 205:-0.559965 206:0.854184 207:-0.75037 208:-0.76506 209:-0.824508 210:0.45673 211:0.257586 212:-0.23065 213:-0.957697 214:-0.932224 215:0.06796 216:-0.329283 217:0.0408425 218:0.0172635 219:0.0897925 220:-0.623639 221:-0.593701 222:-0.0479318 223:0.158347 224:-0.283195 225:-0.159275 226:0.0767119 227:-0.00136902 228:-0.657544 229:0.145574 230:0.239348 231:0.0761008 232:-0.876461 233:-0.805255 234:-0.0857814 235:0.528112 236:-0.530193 237:-0.171617 238:0.0220186 239:0.337673 240:-0.302898 241:-0.858943 242:0.609148 243:-0.740797 244:-0.737991 245:-0.835616 246:0.512518 247:-0.153061 248:0.0347236 249:-0.617634 250:-0.394238 251:-0.184974 252:-0.866889 253:-0.213326 254:0.107796 255:-0.151722 256:-0.836389 257:-0.976744 258:-0.430663 259:0.0377316 260:-0.340675 261:-0.47513 262:-0.232265 263:-0.349848 264:-0.423159 265:-0.86712 266:0.435216 267:-0.637177 268:-0.771901 269:-0.668 270:-0.180298 271:-0.350945 272:0.296376 273:-0.366559 274:-0.155994 275:-0.317196 276:-0.831843 277:-0.144314 278:0.0864288 279:0.00127362 280:-0.346221 281:-0.851852 282:-0.0487702 283:-0.0994058 284:-0.31491 285:-0.1462 286:0.0872358 287:-0.22665 288:-0.68032 289:0.0219268 290:-0.381783 291:0.428654 292:-0.857939 293:-0.729809 294:-0.13468 295:-0.490522 296:-0.0896856 297:0.489794 298:0.612857 299:-0.512851 300:-0.141807 301:-0.577308 302:0.486955 303:-0.414834 304:-0.800738 305:-0.843333 306:-0.658303 307:-0.0546057 308:-0.122242 309:-0.676961 310:-0.498465 311:-0.250534 312:-0.407415 313:-0.431136 314:-0.0114153 315:-0.153607 316:-0.616099 317:-0.58046 318:-0.813527 319:-0.164685 320:-0.22676 321:-0.0521742 322:0.169886 323:-0.0216748 324:-0.622013 325:0.778237 326:-0.120604 327:0.683788 328:-0.560732 329:-0.57971 330:-0.581599 331:-0.311335 332:-0.00280578 333:0.396609 334:0.551337 335:0.123081 336:0.196307 337:-0.323149 338:0.406153 339:-0.275513 340:-0.824027 341:-0.505703 342:-0.51414 343:-0.774075 344:0.584225 345:-0.2958 346:-0.0742248 347:0.0743635 348:-0.484464 349:-0.291753 350:0.00888938 351:-0.196005 352:-0.767372 353:-0.716239 354:-0.258058 355:-0.369276 356:0.43922 357:-0.60454 358:-0.383704 359:-0.383127 360:-0.0774676 361:0.458166 362:-0.695185 363:0.696716 364:-0.44664 365:-0.717647 366:0.590242 367:0.194824 368:0.319595 369:0.915007 370:0.939956 371:-0.210372 372:-0.829166 373:0.644253 374:-0.604965 375:0.624609 376:-0.45 377:-0.707224 378:0.063717 379:0.0379676 380:0.102692 381:0.53903 382:0.750782 383:0.445274 384:-0.937898 
2.013333230193849 4.272289079035657 0 2.934268150237798 2.370318275217939 1.562361470816124 1:-0.619799 2:-0.875838 3:-0.6178 4:-0.944 5:-0.184818 6:-0.652621 7:-0.158417 8:-0.114612 9:-0.864642 10:-0.632264 11:-0.292722 12:-0.624009 13:-0.0189814 14:-0.424915 15:0.305237 16:-0.346591 17:-0.397882 18:-0.228807 19:-0.0696492 20:-0.198995 21:0.0860816 22:0.276183 23:-0.599585 24:-0.197059 25:-0.329984 26:0.114971 27:-0.383238 28:-0.440758 29:-0.920266 30:0.119574 31:0.369305 32:-0.191789 33:-0.451791 34:-0.171982 35:-0.269113 36:-0.557971 37:-0.281442 38:0.117917 39:-0.40452 40:-0.303406 41:-0.761103 42:-0.0935452 43:0.485788 44:-0.543616 45:-0.651261 46:-0.40382 47:0.00615331 48:-0.568072 49:-0.199422 50:0.11679 51:-0.276769 52:-0.908419 53:-0.433265 54:-0.116703 55:-0.270529 56:-0.142105 57:-0.260365 58:0.0225325 59:0.51862 60:-0.794075 61:-0.721877 62:0.0133826 63:-0.561087 64:-0.344564 65:-0.492126 66:-0.234114 67:-0.0529454 68:-0.314269 69:-0.484858 70:-0.286681 71:0.529645 72:-0.79983 73:-0.77126 74:-0.30885 75:-0.239189 76:-0.18258 77:-0.48368 78:-0.559761 79:0.0535605 80:-0.47702 81:0.135671 82:0.257918 83:-0.112469 84:-0.814155 85:-0.491408 86:0.53626 87:-0.776828 88:-0.279693 89:-0.833031 90:0.0642153 91:0.00635817 92:0.0317945 93:-0.807586 94:-0.659643 95:-0.0304596 96:-0.705252 97:-0.571067 98:-0.102321 99:-0.212415 100:-0.324459 101:-0.508403 102:-0.342069 103:0.16911 104:-0.205176 105:-0.328945 106:-0.172871 107:0.221433 108:-0.661303 109:-0.697629 110:-0.346751 111:-0.166581 112:-0.526917 113:-0.689708 114:-0.611861 115:0.079821 116:-0.423816 117:-0.354207 118:-0.20743 119:-0.404538 120:-0.38935 121:-0.379212 122:0.359229 123:-0.523868 124:-0.366762 125:-0.528046 126:-0.125804 127:0.226715 128:-0.312176 129:-0.645245 130:-0.321774 131:0.468457 132:-0.212674 133:-0.640953 134:-0.72041 135:-0.100815 136:-0.676998 137:-0.769874 138:-0.239333 139:0.325119 140:-0.451339 141:0.124538 142:0.334033 143:-0.183835 144:-0.640185 145:0.189926 146:0.178844 147:0.368406 148:-0.815009 149:-0.389091 150:-0.116322 151:-0.0129803 152:0.0165616 153:-0.454822 154:-0.256032 155:0.61711 156:0.193738 157:0.459459 158:-1 159:0.469717 160:-0.898051 161:-0.00606061 162:0.0298664 163:-0.353274 164:0.296931 165:0.34038 166:0.350431 167:-0.330144 168:-0.744642 169:0.79995 170:0.835578 171:0.380379 172:-0.572438 173:-0.231618 174:0.311484 175:-0.217556 176:0.275765 177:0.255634 178:0.466766 179:-0.504094 180:-0.929868 181:0.450951 183:0.450951 184:-0.538168 185:-1 186:-0.0577396 187:-0.15847 188:0.0613134 189:-0.217268 190:0.253225 191:-0.866445 192:-0.977538 193:-0.674013 194:0.472269 195:-0.548482 196:-0.960486 197:-0.944 198:0.471609 199:0.799291 200:-0.712218 201:-0.841733 202:-0.593521 203:-0.178299 204:-0.648325 205:-0.465267 206:0.0214895 207:-0.253682 208:-0.376506 209:-0.918306 210:-0.0594196 211:0.260708 212:-0.35012 213:-0.346733 214:-0.14935 215:-0.407423 216:-0.614064 217:0.340049 218:0.0367603 219:0.261133 220:-0.782271 221:-0.568504 222:-0.18793 223:-0.179429 224:-0.00696468 225:0.170175 226:0.368944 227:0.543569 228:-0.668384 229:-0.451585 230:0.825761 231:-0.630504 232:-0.8798 233:-0.459042 234:-0.148044 235:0.122469 236:0.00229499 237:-0.718517 238:-0.599442 239:0.499889 240:-0.371629 241:0.540014 242:0.241825 243:0.213595 244:-0.930131 245:-0.945205 246:-0.239086 247:-0.260222 248:-0.0660766 249:0.0812435 250:0.3162 251:0.490379 252:-0.511255 253:-0.753542 254:0.0729603 255:-0.380373 256:-0.610719 257:-0.375 258:-0.260666 259:-0.341709 260:0.118979 261:-0.676278 262:-0.48356 263:-0.715094 264:-0.217183 265:-0.11685 266:-0.28108 267:0.313957 268:-0.775207 269:-0.852 270:-0.0403252 271:-0.160926 272:-0.0336976 273:0.436081 274:0.572594 275:-0.097953 276:-0.282598 277:-0.540256 278:0.584491 279:-0.545278 280:-0.785589 281:-0.694444 282:-0.129936 283:-0.589534 284:0.256859 285:-0.519055 286:-0.319587 287:0.00354086 288:-0.837386 289:-0.189415 290:0.371179 291:-0.205714 292:-0.718663 293:-0.894273 294:0.337157 295:-0.485131 296:-0.05101 297:-0.373273 298:-0.183186 299:0.030402 300:-0.386421 301:-0.365693 302:0.465017 303:-0.25703 304:-0.619926 305:-0.283333 306:0.0359237 307:-0.00450674 308:-0.087209 309:-0.535362 310:-0.32058 311:-0.151869 312:-0.635416 313:-0.419782 314:0.596429 315:-0.494347 316:-0.504644 317:-0.827586 318:-0.0928965 319:-0.18107 320:-0.021673 321:-0.409852 322:-0.188659 323:0.563511 324:-0.618448 325:0.56053 326:-0.211869 327:0.622089 328:-0.524126 329:-0.455072 330:-0.0246215 331:-0.1827 332:-0.0681999 333:0.79111 334:0.854692 335:-0.249785 336:-0.578771 337:0.629547 338:0.199675 339:0.507999 340:-0.857868 341:-0.536122 342:-0.0673826 343:-0.479352 344:0.258549 345:0.00309302 346:0.214368 347:0.52662 348:0.679471 349:0.0350517 350:-0.165334 351:0.0809938 352:-0.92145 353:-0.876923 354:-0.215071 355:-0.48986 356:0.65753 357:0.00984411 358:0.253681 359:-0.217574 360:-0.477585 361:0.65506 362:-0.394347 363:0.651247 364:-0.541502 365:-0.72549 366:-0.16264 367:0.130973 368:0.313592 369:0.208245 370:0.444164 371:-0.182639 372:-0.701335 373:0.450979 374:-0.427405 375:0.439192 376:-0.542308 377:-0.577947 378:-0.433794 379:0.091805 380:-0.0455647 381:-0.126879 382:0.319141 383:0.502125 384:-0.927907 
0.5263404232028158 4.196720552852998 0.02807920439809309 7.69060277048905 1.376129102313545 3.023452498234439 1:-0.837535 2:-0.778767 3:-0.83626 4:-0.548 5:-0.986799 6:-0.191651 7:-0.091452 8:0.0177264 9:-0.747619 10:-0.471444 11:-0.916709 12:-0.983189 13:-0.204278 14:-0.115032 15:-0.0997741 16:-0.602273 17:-0.754917 18:-0.242834 19:-0.213995 20:-0.118898 21:-0.59995 22:-0.441033 23:-0.279973 24:-0.263761 25:-0.327183 26:0.21355 27:-0.46865 28:-0.63981 29:-0.584718 30:-0.216802 31:0.394011 32:-0.328894 33:-0.334078 34:-0.0865291 35:-0.010951 36:-0.890634 37:-0.28653 38:-0.347317 39:-0.0461472 40:-0.50774 41:-0.617152 42:-0.278297 43:0.480416 44:-0.564144 45:0.518139 46:0.658043 47:-0.0320465 48:-0.859913 49:-0.133085 50:0.695932 51:-0.780311 52:-0.521418 53:-0.983573 54:0.394397 55:0.208325 56:-0.0776 57:-0.789184 58:-0.488747 59:0.646954 60:-0.799788 61:-0.435427 62:0.0183565 63:-0.351566 64:-0.883614 65:-0.633858 66:-0.0600833 67:-0.312754 68:0.0463396 69:-0.176278 70:0.041665 71:0.454 72:-0.878449 73:-0.300957 74:0.298015 75:-0.451345 76:-0.969849 77:-0.928783 78:-0.0606477 79:-0.16844 80:0.0922203 81:-0.144261 82:0.0212756 83:-0.10989 84:-0.869834 85:-0.106284 86:0.0490239 87:-0.110264 88:-0.367816 89:-0.607985 90:0.107325 91:0.00356613 92:0.124782 93:-0.105316 94:0.076679 95:0.0135646 96:-0.722645 97:-0.451581 98:-0.113123 99:-0.118668 100:-0.91015 101:-0.794118 102:-0.373051 103:-0.00552797 104:-0.0922829 105:-0.406651 106:-0.250687 107:0.235405 108:-0.552467 109:-0.467223 110:0.0233263 111:-0.336373 112:-0.902121 113:-0.849462 114:-0.458259 115:-0.319398 116:-0.0516354 117:-0.364571 118:-0.15408 119:0.107752 120:-0.732071 121:-0.118215 122:0.0550972 123:-0.0409945 124:-0.547278 125:-0.655706 126:0.014339 127:0.148639 128:-0.0278641 129:0.5763 130:0.696209 131:0.360769 132:-0.731749 133:-0.767268 134:0.0785941 135:-0.687338 136:-0.983687 137:-0.564854 138:-0.284797 139:-0.273341 140:0.0256144 141:-0.783864 142:-0.571353 143:0.266216 144:-0.343189 145:-0.813405 146:0.344257 147:-0.626171 148:-0.39267 149:-0.756364 150:-0.540879 151:-0.0335502 152:-0.377463 153:-0.691192 154:-0.534877 155:-0.00900536 156:-0.791525 157:-0.143243 158:-0.260869 159:-0.176312 160:-0.70015 161:-0.349495 162:-0.244862 163:-0.213943 164:-0.0184746 165:-0.597826 166:-0.425956 167:-0.23432 168:-0.574023 169:0.464821 170:0.535163 171:0.203424 172:-0.611307 173:-0.783088 174:-0.132922 175:0.344217 176:-0.35502 177:-0.180615 178:0.138929 179:-0.176939 180:-0.791276 181:0.333645 183:0.333645 184:-0.515267 185:-1 186:-0.477005 187:0.508089 188:-0.623592 189:-0.331488 190:0.186468 191:-0.718219 192:-0.955836 193:-0.82469 194:0.711622 195:-0.76561 196:-0.653495 197:-0.976 198:0.47754 199:0.242716 200:-0.180745 201:-0.769425 202:-0.468871 203:-0.197178 204:-0.952176 205:-0.550595 206:0.720281 207:-0.674168 208:-0.753012 209:-0.782148 210:-0.364361 211:0.289465 212:-0.490348 213:-0.677828 214:-0.533519 215:0.045719 216:-0.773256 217:0.18594 218:0.174452 219:0.0886141 220:-0.953344 221:-0.628346 222:-0.103305 223:0.000897483 224:-0.0289435 225:-0.0872504 226:0.141205 227:-0.0328245 228:-0.5545 229:-0.278206 230:0.564567 231:-0.371774 232:-0.552588 233:-0.931994 234:-0.0834135 235:0.113953 236:0.041072 237:-0.479013 238:-0.310872 239:0.14471 240:-0.511184 241:-0.97306 242:0.182696 243:-0.545758 244:-0.679767 245:-0.60274 246:-0.569792 247:-0.351784 248:0.167803 249:-0.666038 250:-0.461633 251:-0.698576 252:-0.0563611 253:-0.11943 254:0.0393194 255:-0.0623131 256:-0.921016 257:-0.94186 258:-0.555661 259:-0.0546863 260:-0.116557 261:-0.144023 262:0.104164 263:-0.175179 264:-0.669357 265:-0.0257699 266:0.32629 267:-0.0647123 268:-0.930579 269:-0.952 270:-0.252419 271:-0.040389 272:-0.0345322 273:-0.227142 274:-0.00829901 275:0.318637 276:-0.116316 277:-0.535369 278:0.644375 279:-0.580388 280:-0.673111 281:-0.975309 282:0.36066 283:-0.250268 284:0.126826 285:-0.379323 286:-0.158639 287:0.0879615 288:-0.837174 289:0.00961133 290:-0.243594 291:0.328028 292:-0.866295 293:-0.920705 294:0.325503 295:-0.111603 296:-0.353942 297:-0.17675 298:0.0267952 299:-0.20517 300:0.490735 301:-0.817688 302:-0.137097 303:-0.22071 304:-0.937269 305:-0.85 306:-0.158824 307:0.294442 308:-0.326015 309:-0.72119 310:-0.549461 311:-1 312:0.298079 313:-0.655329 314:0.483665 315:-0.583894 316:-0.873065 317:-0.755747 318:0.04496 319:-0.168513 320:0.113389 321:-0.505703 322:-0.297158 323:-0.0616213 324:-0.696849 325:-0.485933 326:0.288808 327:-0.270357 328:-0.707155 329:-0.86087 330:0.0040621 331:0.145115 332:-0.218476 333:-0.295734 334:-0.0688756 335:-0.455674 336:-0.647285 337:-0.43001 338:0.55463 339:-0.4571 340:-0.77665 341:-0.768061 342:0.0465037 343:0.275923 344:-0.534742 345:-0.42663 346:-0.201116 347:0.0460691 348:-0.497535 349:-0.634021 350:-0.0106669 351:-0.363391 352:-0.712991 353:-0.654701 354:-0.128741 355:-0.561129 356:0.680422 357:-0.282654 358:-0.0223 359:-0.469856 360:-0.641442 361:0.0574148 362:-0.355297 363:0.295714 364:-0.648221 365:-0.572549 366:-0.154313 367:-0.20849 368:0.476785 369:-0.0556647 370:0.22835 371:-0.349206 372:-0.659103 373:0.316765 374:-0.254547 375:0.285656 376:-0.538462 377:-0.479087 378:-0.433794 379:0.0583981 380:-0.134344 381:-0.405675 382:0.0882839 383:0.459745 384:-0.888085 
0 3.923240026334437 0 0 0 0 1:-0.736344 2:-0.673451 3:-0.735239 4:-0.788 5:-0.323432 6:-0.0855421 7:-0.030648 8:0.0528846 9:-0.706124 10:-0.41382 11:-0.892649 12:-0.969769 13:-0.325548 14:-0.348793 15:0.00403087 16:-0.471591 17:-0.555219 18:-0.738176 19:0.0728989 20:-0.592543 21:-0.534951 22:-0.344309 23:-0.187035 24:0.141631 25:-0.359774 26:-0.493164 27:0.135497 28:-0.548183 29:-0.607973 30:-0.614993 31:0.0485567 32:-0.384104 33:0.104188 34:0.287728 35:0.0747989 36:-0.636868 37:-0.328759 38:-0.26994 39:-0.14145 40:-0.804954 41:-0.7366 42:-0.231273 43:0.136669 44:-0.310919 45:-0.354528 46:-0.282015 47:0.0122346 48:-0.529093 49:-0.526133 50:0.138951 51:-0.493329 52:-0.577548 53:-0.347023 54:-0.32049 55:0.04958 56:-0.539379 57:-0.305143 58:0.0297048 59:0.525323 60:-0.893824 61:-0.613803 62:-0.373789 63:-0.164484 64:-0.522205 65:-0.46063 66:-0.074308 67:0.297948 68:-0.407847 69:-0.138196 70:0.131871 71:-0.201891 72:-0.592092 73:-0.440334 74:-0.543049 75:0.251488 76:-0.59799 77:-0.94362 78:-0.204707 79:0.26428 80:-0.359161 81:0.403417 82:0.505935 83:-0.662805 84:-0.314337 85:-0.110253 86:0.388093 87:-0.388926 88:-0.226054 89:-0.422868 90:-0.107718 91:0.0909297 92:-0.118065 93:-0.41446 94:-0.192737 95:0.443866 96:-0.703434 97:0.0575121 98:-0.14645 99:0.268948 100:-0.410982 101:-0.747899 102:-0.099533 103:0.667219 104:-0.44313 105:-0.037151 106:0.253149 107:0.352849 108:-0.641352 109:-0.689534 110:-0.670994 111:0.142197 112:-0.618271 113:-0.462366 114:-0.484865 115:-0.489667 116:0.0974078 117:-0.224747 118:0.085638 119:-0.872919 120:0.421822 121:0.0880163 122:0.0155976 123:0.168543 124:-0.610315 125:-0.705996 126:0.140716 127:0.0205276 128:0.126572 129:-0.0428401 130:0.154418 131:0.170678 132:-0.0631324 133:0.543945 134:-0.279212 135:0.401389 136:-0.553018 137:-0.297071 138:0.565099 139:-0.267294 140:0.766395 141:0.289332 142:0.479629 143:-0.269418 144:-0.0505901 145:-0.0796694 146:0.380847 147:-0.00574015 148:-0.839442 149:-0.323636 150:0.153132 151:-0.401785 152:0.526125 153:-0.131044 154:0.131853 155:0.0760493 156:-0.787771 157:0.356756 158:-1 159:0.367429 160:-0.571214 161:-0.850505 162:0.245898 163:-0.0622429 164:0.0588502 165:-0.249466 166:-0.0872385 167:-0.236202 168:-0.574293 169:0.73161 170:0.472344 171:0.433045 172:-0.777385 173:-0.639706 174:0.393102 175:-0.0218366 176:0.172441 177:0.539525 178:0.666694 179:-0.611154 180:-0.992635 181:0.881724 183:0.881724 184:-0.744275 185:-1 186:0.431903 187:-0.10544 188:0.299877 189:0.589665 190:0.771958 191:-0.905177 192:-0.982909 193:-0.831144 194:0.481175 195:-0.655847 196:-0.775076 197:-0.788 198:0.468321 199:0.405848 200:-0.243464 201:-0.705924 202:-0.375654 203:-0.270908 204:-0.955669 205:-0.653891 206:0.532905 207:-0.640431 208:-0.554217 209:-0.585477 210:-0.0965019 211:0.396618 212:-0.552032 213:-0.996161 214:-0.995576 215:-0.212933 216:-0.114389 217:-0.251828 218:-0.0223422 219:-0.0660924 220:-0.912908 221:-0.382677 222:-0.451517 223:0.430679 224:-0.63651 225:-0.0741499 226:0.161969 227:-0.440704 228:-0.825945 229:-0.550504 230:0.430791 231:-0.457621 232:-0.716194 233:-0.66306 234:-0.111455 235:0.322793 236:-0.246183 237:-0.473409 238:-0.302285 239:-0.0405582 240:-0.485181 241:0.0273377 242:0.198286 243:-0.0296449 244:-0.813683 245:-0.859589 246:0.00428892 247:-0.041528 248:-0.18877 249:-0.232317 250:0.0322114 251:-0.248651 252:-0.295538 253:0.385078 254:0.0361657 255:0.175005 256:-0.813822 257:-0.84593 258:-0.468759 259:-0.34507 260:0.158294 261:-0.185869 262:0.0615505 263:-0.216821 264:-0.338829 265:0.94741 266:0.0729342 267:0.688093 268:-0.950413 269:-0.836 270:0.0599457 271:-0.212917 272:0.193282 273:0.220811 274:0.39518 275:0.542273 276:0.503653 277:-0.590478 278:0.633411 279:-0.605569 280:-0.697715 281:-0.996914 282:0.231464 283:-0.364355 284:0.127865 285:-0.555734 286:-0.357871 287:-0.0129167 288:-0.860754 289:0.054785 290:0.463746 291:-0.122459 292:-0.83844 293:-0.876652 294:0.298193 295:-0.482448 296:0.0415471 297:0.157373 298:0.331288 299:0.341771 300:-0.701797 301:-0.549053 302:0.731057 303:-0.535889 304:-0.815498 305:-0.99 306:-0.149798 307:-0.0282541 308:-0.0117225 309:-0.68886 310:-0.513671 311:-0.0333106 312:-0.811977 313:-0.356568 314:-0.341109 315:0.084037 316:-0.408669 317:-0.79023 318:-0.129799 319:-0.0385684 320:-0.156133 321:-0.0223035 322:0.198895 323:-0.216829 324:-0.329299 325:-0.332052 326:0.221363 327:-0.143043 328:-0.440932 329:-0.6 330:-0.246739 331:-0.330511 332:0.13908 333:-0.0853743 334:0.132357 335:-0.130806 336:-0.619374 337:-0.136384 338:0.5484 339:-0.258543 340:-0.884941 341:-0.596958 342:-0.270354 343:-0.494716 344:0.256666 345:-0.236144 346:-0.0146439 347:0.22305 348:-0.511939 349:0.120618 350:0.504 351:-0.280778 352:-0.589124 353:-0.682051 354:-0.0743138 355:-0.548598 356:0.740859 357:-0.420078 358:-0.166114 359:0.284314 360:-0.381651 361:0.172051 362:-0.379595 363:0.372621 364:-0.703557 365:-0.74902 366:-0.473147 367:0.0603017 368:0.203147 369:0.301403 370:0.51579 371:-0.258129 372:-0.802478 373:0.856605 374:-0.889849 375:0.873226 376:-0.826923 377:-0.737643 378:-0.433794 379:-0.190159 380:0.331004 381:0.519029 382:0.741462 383:0.435927 384:-0.922302 
0 0 0.6992177801657254 1.16221208955814 0 0 1:-0.686677 2:-0.921646 3:-0.684646 4:-0.5 5:-0.990099 6:-0.75269 7:0.176507 8:-0.61373 9:-0.921985 10:-0.810042 11:-0.271458 12:-0.532671 13:-0.548208 14:-0.535851 15:-0.00997098 16:-0.78125 17:-0.394856 18:-0.770464 19:-0.0510467 20:-0.553988 21:-0.578647 22:-0.410454 23:-0.456628 24:0.063897 25:-0.402747 26:-0.378681 27:0.00612419 28:-0.200632 29:-0.54485 30:-0.555103 31:0.14154 32:-0.428289 33:-0.106714 34:0.103438 35:0.107387 36:-0.699887 37:-0.159195 38:0.128711 39:-0.311619 40:-0.275542 41:-0.819296 42:-0.0700012 43:0.666589 44:-0.718452 45:-0.749246 46:-0.281738 47:0.602583 48:-0.421081 49:-0.583178 50:0.156951 51:-0.544398 52:-0.246677 53:-0.441478 54:-0.46308 55:-0.387939 56:-0.283943 57:-0.4438 58:-0.154344 59:0.837358 60:-0.817635 61:-0.537665 62:-0.165502 63:-0.277725 64:-0.574273 65:-0.511811 66:-0.378285 67:-0.0251291 68:-0.487726 69:-0.3061 70:-0.0910128 71:0.595836 72:-0.807238 73:-0.405839 74:-0.237555 75:-0.0166644 76:-0.524288 77:-0.655786 78:-0.630834 79:-0.170884 80:-0.300715 81:-0.0382594 82:0.12562 83:0.159145 84:-0.524553 85:-0.254155 86:0.642919 87:-0.697194 88:-0.233716 89:-0.568058 90:0.224999 91:0.144574 92:0.022456 93:-0.80281 94:-0.566038 95:0.3983 96:-0.773155 97:-0.110914 98:0.30166 99:-0.265981 100:-0.673877 101:-0.521008 102:-0.180783 103:0.0488031 104:0.0519886 105:-0.622041 106:-0.511555 107:0.885547 108:-0.323316 109:-0.052506 110:-0.307025 111:0.287991 112:-0.663948 113:-0.265745 114:-0.50971 115:-0.138986 116:-0.141115 117:-0.255886 118:-0.0736107 119:0.133594 120:-0.135024 121:1 122:0.191165 123:0.795137 124:-0.710602 125:-0.957447 126:0.646964 127:0.166515 128:0.287415 129:0.91435 130:1 131:0.618653 132:-0.159651 133:0.087646 134:-0.0519004 135:-0.0422443 136:-0.690049 137:-0.104603 138:0.320146 139:-0.256635 140:0.634238 141:-0.107519 142:0.193351 143:-0.282213 144:-0.442809 145:0.308046 146:0.60078 147:0.185997 148:-0.343805 149:-0.978182 150:0.644843 151:-0.230969 152:0.903983 153:0.195666 154:0.376787 155:0.112737 156:-0.78951 157:-0.0378379 158:-1 159:-0.0255721 160:-0.811094 161:-1 162:0.350139 163:-0.251276 164:0.321149 165:-0.218603 166:-0.0691894 167:-0.629938 168:-0.874708 169:0.930615 170:0.613702 171:0.549008 172:-0.660777 173:-0.0514706 174:0.568251 175:0.0936243 176:0.169642 177:0.694698 178:0.783708 179:-0.627411 180:-0.970016 181:0.922689 183:0.922689 184:-0.278626 185:-1 186:0.556363 187:0.0970783 188:0.229206 189:0.61307 190:0.78317 191:-0.922985 192:-0.983361 193:-0.665761 194:0.748712 195:-0.679821 196:-0.617021 197:-0.5 198:0.471064 199:0.845602 200:-0.779129 201:-0.921134 202:-0.758121 203:0.412333 204:-0.492371 205:-0.255306 206:0.279044 207:-0.257484 208:-0.394578 209:-0.757943 210:-0.0886203 211:0.271145 212:-0.370835 213:-0.657851 214:-0.508098 215:-0.220213 216:-0.313216 217:-0.149862 218:0.278304 219:-0.175402 220:-0.548989 221:-0.524409 222:-0.00791553 223:-0.102525 224:-0.0874168 225:-0.0604974 226:0.166815 227:0.00506117 228:-0.865916 229:-0.976158 230:0.623703 231:-0.828679 232:-0.492487 233:-0.839258 234:-0.0168575 235:0.0958505 236:0.0713563 237:-0.897997 238:-0.845442 239:-0.11155 240:-0.494781 241:-0.710286 242:0.482965 243:-0.587274 244:-0.577875 245:-0.976027 246:-0.456651 247:-0.161994 248:-0.29331 249:-0.524553 250:-0.278697 251:-0.099819 252:-0.551533 253:0.128098 254:0.136959 255:-0.0119723 256:-0.771509 257:-0.386628 258:-0.442614 259:-0.127843 260:-0.285287 261:-0.438681 262:-0.192843 263:0.00976617 264:-0.296217 265:-0.207663 266:-0.286247 267:0.264211 268:-0.431405 269:-0.556 270:0.0936518 271:-0.178061 272:0.0147991 273:0.108783 274:0.303178 275:-0.323587 276:-0.386424 277:-0.414378 278:0.78493 279:-0.598939 280:-0.553603 281:-0.354938 282:0.0334846 283:-0.618066 284:0.331977 285:-0.687087 286:-0.526001 287:0.332309 288:-0.758407 289:-0.899108 290:0.707541 291:-0.856292 292:-0.529248 293:-0.380323 294:0.104198 295:-0.464841 296:-0.180956 297:-0.896127 298:-0.831234 299:-0.425837 300:-0.452275 301:-0.495272 302:0.232458 303:-0.21213 304:-0.649446 305:-0.293333 306:-0.220419 307:-0.00922606 308:-0.165864 309:-0.620446 310:-0.423445 311:-0.44758 312:-0.493582 313:-0.372792 314:0.0390571 315:-0.144338 316:-0.44582 317:-0.643678 318:0.0239905 319:-0.542857 320:0.597622 321:0.0018884 322:0.219055 323:-0.105849 324:-0.781091 325:-0.0934929 326:0.167874 327:0.0219339 328:-0.660566 329:-0.373913 330:0.109951 331:-0.538602 332:0.495669 333:-0.0797338 334:0.136624 335:-0.068853 336:-0.537284 337:-0.115404 338:0.437192 339:-0.161535 340:-0.404399 341:-0.78327 342:-0.308917 343:-0.600443 344:0.405382 345:0.0485604 346:0.255374 347:0.162399 348:-0.535338 349:-0.382474 350:-0.00622208 351:-0.234341 352:-0.827795 353:-0.295726 354:-0.177069 355:-0.558597 356:0.791916 357:-0.0320182 358:0.218293 359:-0.271284 360:-0.789776 361:0.451058 362:-0.797738 363:0.745883 364:-0.72332 365:-0.313725 366:-0.244376 367:0.0991005 368:0.366815 369:0.800033 370:0.868482 371:-0.24965 372:-0.863033 373:0.923846 374:-0.887802 375:0.905823 376:-0.280769 377:-0.254753 378:-0.433794 379:-0.02765 380:0.215772 381:0.70771 382:0.845338 383:0.444015 384:-0.935445 
0.9680911459787945 1.611906329132927 0 3.344107726653614 1.789740571733291 1.574814090577206 1:-0.798601 2:-0.78987 3:-0.797217 4:-0.62 5:-0.544554 6:-0.486921 7:-0.30342 8:0.0635868 9:-0.836386 10:-0.557659 11:-0.789592 12:-0.950192 13:-0.126361 14:0.131793 15:-0.248117 16:-0.505682 17:-0.951589 18:-0.264209 19:0.215745 20:-0.371063 21:-0.700955 22:-0.521935 23:0.0245931 24:-0.392677 25:-0.471593 26:0.441597 27:-0.764757 28:-0.50079 29:-0.960133 30:0.0669288 31:0.273325 32:-0.103786 33:-0.745397 34:-0.597601 35:0.0779186 36:-0.659836 37:-0.650652 38:-0.417359 39:-0.293329 40:-0.513932 41:-0.669219 42:-0.424908 43:0.259988 44:-0.582965 45:0.0485767 46:0.177481 47:-0.179222 48:-0.765378 49:-0.324009 50:-0.0497049 51:-0.195236 52:-0.462334 53:-0.498973 54:0.189401 55:-0.0589515 56:-0.0721836 57:-0.396711 58:-0.0959978 59:-0.190807 60:-0.395873 61:0.081257 62:-0.275803 63:0.273783 64:-0.623277 65:-0.385827 66:-0.10163 67:0.38338 68:-0.483085 69:0.0255577 70:0.295983 71:0.444135 72:-0.565187 73:-0.131301 74:-0.192075 75:0.158339 76:-0.621441 77:-0.908012 78:-0.203843 79:0.424094 80:-0.473749 81:0.243303 82:0.441231 83:-0.0945084 84:-0.678669 85:-0.371522 86:-0.403932 87:0.0722321 88:-0.766284 89:-0.604356 90:-0.293902 91:-0.337184 92:0.03678 93:-0.366349 94:-0.186968 95:-0.140989 96:-0.198154 97:-0.336084 98:0.112004 99:-0.247239 100:-1 101:-0.798319 102:-0.334864 103:-0.268511 104:0.169478 105:-0.185751 106:0.0556417 107:0.474477 108:-0.864916 109:-0.17903 110:-0.293613 111:0.17905 112:-0.631321 113:-0.778802 114:-0.585485 115:0.0126062 116:-0.352977 117:0.494615 118:0.504681 119:-0.172738 120:-0.855541 121:-0.647004 122:0.0912728 123:-0.522493 124:-0.653295 125:-0.841393 126:-0.452505 127:0.446026 128:-0.62722 129:-0.481775 130:-0.0647872 131:0.155411 132:-0.830229 133:-0.403612 134:-0.224254 135:-0.257115 136:-0.676998 137:-0.970711 138:0.186321 139:0.809139 140:-0.443232 141:-0.245627 142:0.230801 143:-0.396823 144:-0.468593 145:-0.678654 146:-0.42195 147:0.0122066 148:-0.926702 149:-0.64 150:-0.627464 151:0.131866 152:-0.561371 153:-0.183776 154:0.0093726 155:-0.229562 156:-0.6201 157:0.256756 158:-0.652174 159:0.246299 160:-0.94003 161:-0.442424 162:-0.212001 163:-0.499186 164:0.284449 165:-0.530481 166:-0.30355 167:0.0424216 168:-0.283988 169:0.703703 170:-0.0388139 171:0.561187 172:-0.717314 173:-0.459559 174:0.0849779 175:-0.369377 176:0.21055 177:0.416038 178:0.598508 179:-0.464042 180:-0.945191 181:0.356479 183:0.356479 184:-0.664122 185:-1 186:-0.219442 187:-0.253499 188:-0.0116111 189:-0.220833 190:0.254931 191:-0.833317 192:-0.976261 193:-0.665543 194:0.783318 195:-0.696796 196:-0.708207 197:-0.612 198:0.448632 199:0.57676 200:-0.504527 201:-0.77564 202:-0.480583 203:0.103631 204:-0.914148 205:-0.749923 206:0.54504 207:-0.706943 208:-0.939759 209:-0.95764 210:-0.0191855 211:0.318874 212:-0.433302 213:-0.770982 214:-0.656394 215:-0.0172825 216:-0.699774 217:-0.380625 218:0.756294 219:-0.588772 220:-0.962675 221:-0.971654 222:0.149251 223:-0.722242 224:0.702411 225:-0.588211 226:-0.389239 227:0.486456 228:-0.798386 229:-0.0963231 230:-0.287454 231:0.240192 232:-0.933222 233:-0.833076 234:-0.720724 235:0.155775 236:-0.142732 237:0.0251026 238:0.203657 239:-0.00585948 240:-0.0750254 241:-0.351977 242:0.63709 243:-0.491232 244:-0.627365 245:-0.89726 246:-0.69732 247:-0.444025 248:0.215762 249:-0.372941 250:-0.118334 251:0.365377 252:-0.661378 253:0.582033 254:0.310468 255:0.0840414 256:-0.757405 257:-0.767442 258:-0.1401 259:-0.390019 260:0.310606 261:-0.251123 262:-0.00299946 263:0.385566 264:-0.138116 265:-0.0420718 266:0.394036 267:-0.122515 268:-0.871074 269:-0.888 270:0.134302 271:-0.557398 272:0.688533 273:-0.0842862 274:0.12238 275:0.388502 276:-0.385829 277:0.385943 278:0.416334 279:0.101315 280:-0.602812 281:-0.549383 282:-0.389333 283:-0.714456 284:0.428617 285:-0.00141031 286:0.206712 287:0.449708 288:-0.462772 289:-0.345278 290:0.36572 291:-0.295047 292:-0.866295 293:-0.565345 294:-0.345511 295:-0.209207 296:-0.525899 297:-0.162797 298:0.0397682 299:0.301573 300:-0.813409 301:-0.225331 302:0.150891 303:0.0199947 304:-0.811808 305:-0.78 306:-0.0974405 307:-0.0817617 308:0.088139 309:-0.295323 310:-0.0601045 311:0.184488 312:-0.552795 313:-0.664113 314:0.441915 315:-0.565727 316:-0.842105 317:-0.936782 318:0.415534 319:-0.104431 320:0.124809 321:-0.427487 322:-0.207807 323:-0.181396 324:-0.646667 325:-0.26941 326:0.211273 327:-0.102232 328:-0.973378 329:-0.643478 330:-0.39163 331:0.155554 332:-0.451893 333:-0.155092 334:0.0738958 335:-0.378699 336:-0.512975 337:-0.658909 338:-0.370209 339:0.0832662 340:-0.756345 341:-0.619772 342:-0.214608 343:0.138328 344:-0.536625 345:-0.211265 346:0.0214521 347:-1 348:0.792986 349:-0.0371141 350:0.264889 351:-0.218142 352:-0.957704 353:-0.921368 354:-0.179055 355:-0.355888 356:0.454029 357:-0.287482 358:-0.0290661 359:-0.171021 360:-0.446922 361:0.568234 362:-0.213909 363:0.509012 364:-0.600791 365:-0.666667 366:-0.641657 367:0.167054 368:0.00472083 369:0.102889 370:0.35717 371:-0.292242 372:-0.634675 373:0.331833 374:-0.359356 375:0.345594 376:-0.961538 377:-0.657795 378:-0.433794 379:0.013127 380:-0.0198714 381:-0.0514004 382:0.375017 383:0.433216 384:-0.927003 
1.974628902633066 4.554626515692618 0.8358214443483249 7.048226314655761 0.1350498498232997 1.552595909845415 1:-0.146499 2:-0.726616 3:-0.144139 4:-0.804 5:-0.673267 6:0.0783836 7:0.222588 8:-0.124292 9:-0.117897 10:0.222738 11:-0.456936 12:-0.800781 13:0.0749045 14:-0.339213 15:0.305373 16:-0.548295 17:-0.437216 18:-0.157894 19:-0.0765282 20:-0.145766 21:0.0165637 22:0.212524 23:-0.447108 24:-0.504664 25:-0.492958 26:0.691651 27:-1 28:-0.763033 29:-1 30:0.181047 31:0.00262999 32:0.139498 33:-0.974262 34:-1 35:0.249208 36:-0.802982 37:-0.179086 38:-0.251776 39:-0.0315636 40:-0.916409 41:-0.601838 42:0.0738488 43:0.121186 44:-0.0217617 45:-0.0155705 46:0.0879574 47:-0.373889 48:-0.521812 49:-0.308168 50:-0.189956 51:-0.0541741 52:-0.77548 53:-0.478439 54:0.126065 55:-0.41331 56:0.16023 57:-0.574197 58:-0.301995 59:-0.498911 60:0.364032 61:-0.536803 62:-0.363492 63:-0.115476 64:-0.295559 65:-0.838583 66:-0.292844 67:-0.264736 68:-0.187623 69:-0.295781 70:-0.0760299 71:0.231447 72:-0.664855 73:-0.613278 74:-0.190147 75:-0.22804 76:-0.557789 77:-0.52819 78:-0.411702 79:-0.119838 80:-0.19416 81:-0.0434547 82:0.107886 83:-0.272795 84:-0.648044 85:-0.220738 86:0.384104 87:-0.463176 88:-0.942529 89:-0.68784 90:0.157396 91:-0.359254 92:0.400733 93:-0.710346 94:-0.569035 95:0.0587165 96:-0.415173 97:-0.305483 98:0.0562366 99:-0.173913 100:-1 101:-0.138655 102:-0.378698 103:-0.179009 104:0.108776 105:-0.145742 106:0.0832464 107:0.348864 108:-0.859394 109:-0.310524 110:-0.320735 111:0.104151 112:-0.670473 113:-0.738863 114:-0.349642 115:-0.310191 116:0.102029 117:0.241726 118:0.397209 119:-0.291095 120:-0.733711 121:-0.487902 122:-0.632456 123:0.232988 124:-0.988539 125:-0.667311 126:-0.337958 127:-0.377291 128:0.13592 129:-0.257536 130:-0.0529503 131:-0.612728 132:0.372637 133:-0.289792 134:0.178379 135:-0.435825 136:-0.360522 137:-0.807531 138:0.085858 139:0.102545 140:0.0520779 141:-0.544555 142:-0.346913 143:0.157965 144:-0.431175 145:-0.624113 146:0.31705 147:-0.441245 148:-1 149:-0.556364 150:-0.323331 151:-0.339184 152:0.0917584 153:-0.734613 154:-0.490852 155:-0.101313 156:-0.677964 157:0.0432431 158:-0.73913 159:0.0390308 160:-0.943028 161:-0.684848 162:-0.0889806 163:-0.426127 164:0.310515 165:-0.103172 166:0.0531048 167:-0.390007 168:-0.772968 169:0.771427 170:0.341885 171:0.502902 172:-0.632509 173:-0.371324 174:-0.012299 175:0.333922 176:-0.353515 177:0.0778084 178:0.384537 179:-0.357548 180:-0.91981 181:0.513963 183:0.513963 184:-0.59542 185:-1 186:-0.318684 187:0.403817 188:-0.536121 189:-0.49477 190:0.045491 191:-0.82818 192:-0.971967 193:-0.276453 194:-0.0757028 195:-0.0169258 196:-0.851064 197:-0.804 198:0.459512 199:0.476602 200:-0.246485 201:-0.219471 202:0.154346 203:-0.287235 204:-0.728398 205:-0.487342 206:0.060695 207:-0.288099 208:-0.493976 209:-0.842663 210:-0.526567 211:0.245341 212:-0.455211 213:-0.100463 214:0.0990266 215:-0.156673 216:-0.932575 217:-0.64158 218:0.709764 219:-0.721366 220:-0.542768 221:-0.807874 222:0.276554 223:-0.806838 224:0.872751 225:-0.773496 226:-0.630494 227:0.144288 228:-0.860532 229:0.907029 230:0.148386 231:0.590159 232:-0.933222 233:-0.962906 234:-0.0979506 235:0.0762151 236:0.0856163 237:0.151102 238:0.318317 239:0.60467 240:0.167619 241:-0.223311 242:0.350336 243:-0.252202 244:-0.609898 245:-0.561644 246:-0.382244 247:-0.288511 248:-0.000974953 249:-0.483896 250:-0.237195 251:0.100956 252:-0.220926 253:1 254:0.183397 255:0.363588 256:-0.396333 257:-0.898256 258:0.351698 259:-0.116558 260:-0.0120276 261:0.025032 262:0.26004 263:0.128054 264:-0.398949 265:0.00625562 266:-0.409102 267:0.477485 268:-0.6 269:-0.2 270:0.207303 271:-0.169169 272:0.112253 273:0.266305 274:0.435033 275:-0.409624 276:-0.207193 277:-0.506181 278:0.503026 279:-0.473773 280:-0.528998 281:-0.895062 282:0.0419338 283:-0.582459 284:0.321038 285:-0.437519 286:-0.227513 287:0.150322 288:-0.792994 289:-0.285097 290:0.400296 291:-0.282469 292:-0.389972 293:-0.929515 294:-0.123084 295:-0.268959 296:-0.511046 297:-0.186787 298:0.0174506 299:0.155214 300:-0.682434 301:0.121566 302:-0.471651 303:0.616158 304:-0.180812 305:-0.66 306:-0.127976 307:0.18626 308:-0.380748 309:0.273479 310:0.466049 311:-0.0192707 312:-0.306827 313:-0.34097 314:-0.690569 315:0.294411 316:-0.315789 317:-0.761494 318:0.0598889 319:-0.0675221 320:-0.109874 321:0.0296817 322:0.246215 323:-0.469798 324:-0.0442555 325:-0.344559 326:0.192231 327:-0.131433 328:-0.480865 329:-0.431884 330:0.0885224 331:-0.395108 332:0.300207 333:-0.249658 334:-0.028628 335:-0.202949 336:-0.435628 337:-0.484794 338:0.607853 339:-0.533073 340:-0.404399 341:-0.494297 342:-0.403015 343:-0.154993 344:-0.295305 345:-0.382387 346:-0.161337 347:0.519178 348:-0.59546 349:-0.148454 350:0.0453331 351:-0.143089 352:-0.960725 353:-0.921368 354:-0.189267 355:-0.510655 356:0.674439 357:-0.00938603 358:0.236698 359:-0.279726 360:-0.739549 361:0.598697 362:-0.432677 363:0.639494 364:-0.604743 365:-0.12549 366:-0.606067 367:0.334004 368:-0.13881 369:0.640057 370:0.757089 371:-0.194141 372:-0.834079 373:0.481953 374:-0.506669 375:0.494311 376:-0.603846 377:-0.589354 378:-0.433794 379:0.124312 380:-0.139941 381:-0.240918 382:0.229666 383:0.404513 384:-0.924687 
0 0 0 0 0.5821779895549922 0 1:-0.719457 2:-0.778795 3:-0.717967 4:-0.812 5:-1 6:-0.144789 7:0.000278465 8:-0.0251119 9:-0.622026 10:-0.30271 11:-0.855674 12:-0.976917 13:0.224982 14:-0.590906 15:0.634003 16:-0.71875 17:-0.842663 18:0.147364 19:0.468092 20:-0.247427 21:0.0772915 22:0.360804 23:-0.512014 24:-0.423821 25:0.0216048 26:0.103035 27:-0.143111 28:-0.42812 29:-0.774086 30:0.188108 31:0.140776 32:0.0560795 33:0.00829259 34:0.206319 35:-0.075631 36:-0.678103 37:-0.462108 38:0.0625159 39:-0.51107 40:-0.44582 41:-0.638591 42:-0.353304 43:0.165492 44:-0.439771 45:-0.415981 46:-0.351695 47:0.245331 48:-0.961307 49:0.053362 50:0.404869 51:-0.395543 52:-0.660266 53:-0.728953 54:0.185292 55:0.148242 56:-0.219345 57:-0.378944 58:-0.0177491 59:0.685179 60:-0.826854 61:-0.731179 62:-0.332029 63:-0.286086 64:-0.987749 65:-0.34252 66:-0.462352 67:0.0818663 68:-0.622906 69:-0.337033 70:-0.114358 71:0.412236 72:-0.653311 73:-0.230935 74:0.357616 75:-0.453167 76:-0.98325 77:-0.88724 78:-0.112468 79:0.0132353 80:-0.0781195 81:-0.337488 82:-0.168796 83:0.42024 84:-0.446444 85:-0.242332 86:-0.121087 87:-0.0672837 88:-0.272031 89:-0.480944 90:-0.568505 91:-0.0824487 92:-0.331937 93:0.00602966 94:0.167394 95:0.519037 96:-0.60802 97:-0.549071 98:0.454946 99:-0.715526 100:-0.976705 101:-0.294118 102:-0.0429003 103:0.218905 104:-0.00553669 105:-0.377088 106:-0.223719 107:0.331287 108:-1 109:-0.00854459 110:0.0573597 111:-0.0185768 112:-0.856444 113:-0.9447 114:-0.0581251 115:0.169414 116:-0.0623727 117:-0.428952 118:-0.278155 119:-0.223603 120:-0.24387 121:-0.128208 122:0.0990238 123:-0.0871342 124:-0.893983 125:-0.49323 126:-0.495567 127:-0.738763 128:0.272657 129:-0.119173 130:0.219109 131:0.614033 132:-0.329221 133:0.311708 134:0.121609 135:-0.00402675 136:-0.862969 137:-0.610879 138:0.00175076 139:-0.723729 140:0.64763 141:0.0439065 142:0.501864 143:0.674213 144:-0.239172 145:0.14396 146:0.540179 147:0.0828158 148:-0.839442 149:-0.676364 150:-0.0349499 151:-0.801563 152:0.604545 153:-0.197444 154:0.212776 155:0.559762 156:-0.658478 157:0.362162 158:-0.913043 159:0.367429 160:-0.55922 161:-0.99596 162:-0.250113 163:-0.216465 164:-0.0172209 165:-0.0225821 166:0.0827508 167:-0.20637 168:-0.645183 169:0.973995 170:1 171:0.469809 172:-0.848057 173:-0.477941 174:1 175:0.0571492 176:0.497786 177:0.747562 178:0.810473 179:-0.835771 180:-0.96413 181:0.932381 183:0.932381 184:-0.832061 185:-1 186:0.618679 187:-0.435641 188:0.614887 189:0.302545 190:0.633733 191:-0.920701 192:-0.978728 193:-0.610457 194:0.42611 195:-0.484005 196:-0.580547 197:-0.812 198:0.471702 199:0.345763 200:-0.224128 201:-0.557179 202:-0.186477 203:-0.0442862 204:-0.924152 205:0.0934715 206:-0.111193 207:0.165906 208:-0.572289 209:-0.697428 210:-0.0952482 211:0.0620074 212:-0.146908 213:0.0478961 214:0.238431 215:0.112127 216:-0.371048 217:0.305782 218:0.140677 219:0.180961 220:-0.698289 221:-0.527559 222:-0.0997317 223:0.134226 224:-0.20318 225:0.198763 226:0.395245 227:-0.0528989 228:-0.697044 229:-0.688321 230:0.0465863 231:-0.314604 232:-0.916528 233:-0.891808 234:-0.292876 235:0.440078 236:-0.406184 237:-0.363221 238:-0.179072 239:-0.237749 240:-0.425126 241:-0.644614 242:0.279774 243:-0.431292 244:-0.871907 245:-0.60274 246:-0.482693 247:-0.085136 248:-0.173562 249:-0.35944 250:-0.0987466 251:-0.224029 252:-0.716482 253:-0.0939862 254:-0.226633 255:0.126775 256:-0.526093 257:-0.982558 258:-0.20513 259:0.358445 260:-0.577608 261:-0.318078 262:-0.056797 263:-0.318352 264:-0.266576 265:-0.488057 266:0.593581 267:-0.526887 268:-0.553719 269:-0.54 270:0.0136182 271:0.104804 272:-0.193513 273:-0.356592 274:-0.133337 275:0.192509 276:-0.68226 277:-0.71032 278:0.136104 279:-0.360214 280:-0.360281 281:-0.808642 282:-0.0310591 283:0.164489 284:-0.536486 285:-0.263254 286:-0.018724 287:-0.155105 288:-0.757492 289:-0.372708 290:0.237042 291:-0.22456 292:-0.802228 293:-0.506608 294:0.204832 295:-0.198818 296:-0.353846 297:-0.385095 298:-0.1894 299:0.11128 300:-0.339009 301:-0.239605 302:-0.122586 303:0.167543 304:-0.339483 305:-0.85 306:0.105454 307:-0.0217748 308:0.074499 309:-0.41199 310:-0.183004 311:-0.0272282 312:-0.194196 313:-0.341734 314:0.444464 315:-0.356228 316:-0.44582 317:-0.974138 318:0.224905 319:0.146767 320:-0.2312 321:-0.428291 322:-0.204219 323:0.280057 324:-0.578259 325:0.314489 326:0.282099 327:0.173589 328:-0.943428 329:-0.573913 330:0.0531443 331:0.0186537 332:-0.132162 333:-0.0700128 334:0.151459 335:0.188032 336:-0.0980712 337:-0.511491 338:0.398603 339:-0.394242 340:-0.404399 341:-0.828897 342:0.124624 343:-0.329868 344:0.145245 345:-0.447747 346:-0.23752 347:0.2763 348:-0.452665 349:0.343298 350:-0.394667 351:0.381749 352:-0.570997 353:-0.497436 354:-0.170344 355:-0.611652 356:0.745126 357:0.514564 358:0.662188 359:-0.375838 360:-0.534366 361:0.575738 362:-0.787543 363:0.810547 364:-0.747036 365:-0.819608 366:-0.0798373 367:-0.122171 368:0.474493 369:0.755428 370:0.840026 371:-0.307016 372:-0.72346 373:0.632651 374:-0.755222 375:0.693938 376:-0.880769 377:-0.809886 378:-0.433794 379:-0.341798 380:0.50431 381:0.205149 382:0.553455 383:0.460988 384:-0.91746 
0 6.511145982482502 0 2.217417401629074 0 0.9270352306174958 1:-0.53657 2:-0.885727 3:-0.534386 4:-0.024 5:0.0693069 6:-0.277751 7:0.0812916 8:-0.174301 9:-0.638692 10:-0.327446 11:-0.522576 12:-0.84148 13:0.0305383 14:0.374236 15:-0.331726 16:-0.130682 17:-0.164902 18:-0.155319 19:-0.196069 20:-0.0498552 21:-0.670636 22:-0.530409 23:0.0269355 24:-0.705446 25:0.207202 26:-0.416362 27:0.437728 28:-0.0616114 29:-0.186047 30:-0.596237 31:0.0568624 32:-0.389286 33:0.144893 34:0.324076 35:0.308151 36:-0.491107 37:-0.45454 38:0.0428549 39:-0.489475 40:-0.922601 41:-0.497703 42:-0.426313 43:-0.278168 44:-0.0605545 45:-0.608026 46:-0.517147 47:0.2179 48:-0.688187 49:0.208281 50:-0.0565946 51:0.130187 52:-0.113737 53:-0.626283 54:-0.230614 55:-0.0816782 56:-0.454528 57:-0.0547261 58:0.254156 59:0.530515 60:-0.766554 61:-0.455868 62:-0.0357359 63:-0.322654 64:-0.522205 65:-0.649606 66:-0.0177816 67:0.0559272 68:-0.247259 69:-0.378096 70:-0.139484 71:0.424514 72:-0.821165 73:-0.549472 74:-0.519793 75:0.141912 76:-0.98995 77:-0.587537 78:-0.78429 79:-0.0656382 80:-0.520645 81:-0.136819 82:0.0211398 83:0.0771419 84:-0.118791 85:-0.00211046 86:-0.227575 87:0.187855 88:-0.727969 89:0.103448 90:-0.584632 91:-0.457728 92:0.00457657 93:-0.361549 94:-0.119241 95:0.802573 96:0.00137495 97:0.0473995 98:-0.367292 99:0.46735 100:-0.840266 101:-0.705882 102:-0.184916 103:0.332509 104:-0.31629 105:-0.318059 106:-0.112693 107:-0.0531618 108:-0.0819244 109:-0.357491 110:-0.642933 111:0.369058 112:0.040783 113:-0.966206 114:-0.873591 115:0.318691 116:-0.908277 117:-0.133327 118:0.0895831 119:-0.0371588 120:-0.471706 121:-0.559746 122:-0.456486 123:0.0210474 124:-0.630372 125:0.121857 126:-0.663534 127:-0.473921 128:0.104686 129:-0.258741 130:0.0523025 131:0.0155301 132:-0.606145 133:-0.0737327 134:-0.221892 135:-0.0414066 136:-0.566069 137:0.251046 138:-0.0960058 139:0.00937413 140:0.0224649 141:0.140141 142:0.310295 143:0.355816 144:-0.53839 145:-0.0826842 146:-0.316705 147:0.464901 148:-0.511344 149:-0.756364 150:-0.449892 151:0.134446 152:-0.428453 153:-0.214097 154:-0.0172319 155:0.481068 156:-0.321769 157:-0.0621623 158:-0.826087 159:-0.0605653 160:-0.154423 161:0.305051 162:-0.229864 163:-0.11137 164:-0.170569 165:-0.670212 166:-0.492678 167:-0.212845 168:-0.491822 169:0.895528 170:0.54285 171:0.542061 172:-0.431095 173:0.172794 174:0.642618 175:-0.121516 176:0.409031 177:0.757678 178:0.813937 179:-0.60493 180:-0.976058 181:0.721997 183:0.721997 184:-0.492366 185:-1 186:0.325639 187:-0.0421667 188:0.220483 189:0.315328 190:0.611474 191:-0.9065 192:-0.9823 193:-0.578094 194:0.698891 195:-0.597733 196:-0.547112 197:-0.388 198:0.48362 199:0.815164 200:-0.635429 201:-0.682136 202:-0.34471 203:0.103436 204:-0.873493 205:-0.510541 206:0.502052 207:-0.534456 208:-0.105422 209:-0.66112 210:0.0495533 211:0.222832 212:-0.214865 213:-0.543669 214:-0.368766 215:-0.0168898 216:-0.849059 217:0.485013 218:-0.167708 219:0.466164 220:-0.489891 221:-0.886614 222:-0.220243 223:-0.251865 224:-0.0111102 225:0.13983 226:0.343132 227:-0.0791268 228:-0.672525 229:0.056804 230:0.623215 231:-0.203739 232:-0.42571 233:-0.187017 234:-0.344679 235:0.117624 236:-0.0426461 237:-0.445517 238:-0.273206 239:0.299116 240:-0.440292 241:0.0201595 242:-0.0542863 243:0.1176 244:-0.0975255 245:-0.708904 246:-0.607619 247:-0.421064 248:0.0076086 249:0.608446 250:0.728236 251:0.253552 252:-0.831145 253:-0.443061 254:0.487906 255:-0.512128 256:-0.923836 257:-0.758721 258:-0.599332 259:-0.491696 260:0.195039 261:-0.593059 262:-0.37954 263:-0.197057 264:-0.859101 265:0.420114 266:0.169261 267:0.309344 268:-0.828099 269:-0.456 270:-0.186552 271:-0.262511 272:-0.0614705 273:0.109217 274:0.30326 275:0.285727 276:-0.209127 277:-0.439467 278:0.0307692 279:-0.135529 280:0.0966608 281:-0.194444 282:-0.186848 283:-0.593581 284:0.136569 285:-0.453076 286:-0.242647 287:-0.126623 288:-0.344532 289:-0.470424 290:0.196151 291:-0.255274 292:-0.401114 293:-0.39207 294:0.288032 295:-0.554748 296:-0.0744148 297:-0.340014 298:-0.147494 299:-0.455415 300:-0.468649 301:-0.672925 302:0.174614 303:-0.300733 304:0.147601 305:-0.973333 306:-0.132627 307:-0.0345546 308:-0.219512 309:-0.586371 310:-0.379756 311:-0.381232 312:-0.520882 313:0.0354881 314:-0.11494 315:0.211043 316:-0.625387 317:-0.635057 318:0.0755141 319:-0.136837 320:-0.15797 321:-0.0675589 322:0.157951 323:0.0321466 324:-0.460236 325:-0.242385 326:0.259953 327:-0.118266 328:-0.896839 329:-0.171014 330:0.231614 331:-0.296503 332:0.0637926 333:-0.0226618 334:0.193319 335:-0.0793759 336:-0.622501 337:-0.0376665 338:0.248379 339:0.0309795 340:-0.607445 341:-0.596958 342:-0.0715354 343:-0.378331 344:0.005323 345:-0.140852 346:0.0811147 347:0.164014 348:-0.205524 349:-0.0536085 350:0.229333 351:-0.205183 352:-0.65861 353:-0.596581 354:-0.151082 355:-0.364594 356:0.535283 357:-0.403349 358:-0.150074 359:-0.0516882 360:-0.438106 361:0.410377 362:-0.782226 363:0.71502 364:-0.185771 365:-0.435294 366:-0.0827634 367:0.233631 368:0.324391 369:0.981608 370:0.983865 371:-0.302656 372:-0.879661 373:0.55108 374:-0.642455 375:0.596767 376:-0.796154 377:-0.437262 378:-0.433794 379:0.128205 380:-0.00815214 381:0.409589 382:0.675699 383:0.407436 384:-0.939951 
0.1918601628611062 5.368731063675476 0 0 0 0 1:-0.591771 2:-0.850802 3:-0.589806 4:-0.852 5:-0.425743 6:-0.549007 7:-0.351773 8:0.0209562 9:-0.819768 10:-0.530864 11:-0.525648 12:-0.793366 13:0.270628 14:-0.128603 15:0.278659 16:-0.556818 17:-0.878971 18:0.00922121 19:0.778832 20:-0.460076 21:-0.309524 22:0.0958072 23:-0.271776 24:-0.451821 25:-0.524723 26:0.173798 27:-0.562451 28:-0.85466 29:-0.810631 30:-0.133022 31:0.394706 32:-0.27757 33:-0.45506 34:-0.216192 35:-0.0597531 36:-0.766786 37:-0.143842 38:-0.50462 39:0.194704 40:-0.569659 41:-0.684533 42:-0.308338 43:0.795859 44:-0.802552 45:0.189045 46:0.511155 47:-0.145503 48:-0.616142 49:0.216776 50:0.12141 51:-0.0317084 52:-0.518464 53:-0.650924 54:0.298541 55:0.25545 56:-0.179154 57:-0.398078 58:-0.0118008 59:0.479392 60:-0.628677 61:-0.705639 62:0.0329555 63:-0.564955 64:-0.500766 65:-0.484252 66:-0.0667582 67:0.481922 68:-0.470427 69:-0.398233 70:-0.086163 71:0.12266 72:-0.914287 73:0.0421266 74:0.0865816 75:0.0269968 76:-0.691792 77:-0.964392 78:0.173413 79:0.347493 80:-0.0867215 81:-0.192872 82:0.0349079 83:-0.274554 84:-0.328247 85:0.140869 86:0.112481 87:0.011463 88:-0.609195 89:-0.796733 90:0.179759 91:-0.572458 92:0.5161 93:-0.304211 94:-0.0872589 95:-0.329745 96:-0.0732369 97:0.00776036 98:-0.16877 99:0.254866 100:-0.437604 101:-0.47479 102:-0.427272 103:0.323274 104:-0.376687 105:0.186647 106:0.339661 107:0.311044 108:-0.576417 109:0.000540509 110:-0.0127246 111:0.0537548 112:-0.957586 113:-0.806452 114:-0.229903 115:-0.337219 116:0.132726 117:0.0605307 118:0.227038 119:0.0360126 120:-0.63183 121:-0.673549 122:-0.279302 123:-0.227681 124:-0.667622 125:-0.864603 126:-0.558695 127:0.169361 128:-0.451236 129:-0.395823 130:-0.165646 131:-0.137705 132:-0.509019 133:-0.366925 134:0.305181 135:-0.566493 136:-0.491028 137:-0.640167 138:0.207181 139:0.720317 140:-0.294397 141:-0.609559 142:-0.219506 143:0.186512 144:-0.478228 145:-0.847629 146:-0.259833 147:-0.24639 148:-0.577661 149:-0.778182 150:-0.541986 151:0.0705743 152:-0.442811 153:-0.538665 154:-0.354111 155:-0.421952 156:-0.318817 157:0.156757 158:-0.956522 159:0.165545 160:-0.931034 161:-0.535354 162:-0.251423 163:-0.830524 164:0.526441 165:-0.347461 166:-0.0274537 167:-0.0816859 168:-0.523235 169:0.356013 170:0.233493 171:0.205965 172:-0.759717 173:-0.547794 174:-0.0763604 175:0.0558213 176:-0.154238 177:-0.0126653 178:0.247242 179:-0.411471 180:-0.903236 181:0.285978 183:0.285978 184:-0.721374 185:-1 186:-0.344736 187:0.0543449 188:-0.284199 189:-0.356822 190:0.125379 191:-0.809548 192:-0.972931 193:-0.686925 194:0.486734 195:-0.564098 196:-0.887538 197:-0.856 198:0.467708 199:0.490198 200:-0.467956 201:-0.735705 202:-0.419603 203:-0.173994 204:-0.824029 205:0.0328818 206:-0.163956 207:0.155677 208:-0.759036 209:-0.951589 210:-0.171491 211:-0.0598312 212:-0.0620926 213:-0.0370353 214:0.160853 215:0.400182 216:-0.436056 217:0.0122956 218:0.00647711 219:0.0785365 220:-0.664075 221:-0.845669 222:0.34026 223:-0.40606 224:0.430419 225:0.0178837 226:0.234965 227:0.0694089 228:-0.733627 229:-0.066093 230:-0.13741 231:0.170073 232:-0.809683 233:-0.76507 234:0.109252 235:0.0668987 236:0.132511 237:0.227356 238:0.385699 239:-0.0732502 240:-0.6407 241:-0.469882 242:0.00353265 243:-0.174353 244:-0.740902 245:-0.705479 246:0.25857 247:-0.332667 248:0.304718 249:-0.203325 250:0.0543432 251:-0.242693 252:-0.442815 253:-0.306628 254:0.254548 255:-0.293014 256:-0.7433 257:-0.642442 258:0.651878 259:-0.317104 260:0.463337 261:-0.425392 262:-0.184776 263:-0.277202 264:-0.546984 265:-0.24203 266:0.149625 267:-0.0662049 268:-0.841322 269:-0.964 270:0.434164 271:-0.255153 272:0.435003 273:-0.0206887 274:0.183125 275:0.103968 276:-0.599788 277:0.251322 278:0.138819 279:0.198734 280:-0.669596 281:-0.685185 282:-0.151893 283:-0.327687 284:0.0804243 285:-0.155991 286:0.0664793 287:0.0376084 288:-0.0377692 289:0.599574 290:0.0437915 291:0.48613 292:-0.880223 293:-0.829662 294:0.434031 295:-0.117087 296:-0.314395 297:0.325211 298:0.483959 299:0.385358 300:0.232044 301:0.0198525 302:-0.336028 303:0.468349 304:-0.830258 305:-0.803333 306:0.0189652 307:0.0318693 308:0.0223759 309:-0.185781 310:0.0507121 311:-0.0844434 312:0.0735558 313:-0.623357 314:0.376248 315:-0.501445 316:-0.894737 317:-0.652299 318:0.0389426 319:0.0184129 320:-0.0936135 321:-0.291219 322:-0.0616402 323:0.0444696 324:-0.735319 325:-0.211116 326:0.473415 327:-0.236497 328:-0.657238 329:-0.73913 330:0.0740345 331:-0.527911 332:0.487783 333:-0.267547 334:-0.0475856 335:0.0716785 336:-0.630702 337:0.12567 338:0.634914 339:-0.15018 340:-0.796954 341:-0.676806 342:0.400557 343:-0.187217 344:0.0701433 345:-0.348323 346:-0.127882 347:0.630026 348:0.167138 349:-0.171134 350:-0.0817773 351:-0.0777541 352:-0.951662 353:-0.842735 354:-0.342281 355:-0.392098 356:0.405303 357:0.0221621 358:0.262793 359:-0.350904 360:-0.48736 361:0.331014 362:-0.159776 363:0.347867 364:-0.660079 365:-0.647059 366:-0.147459 367:-0.0867364 368:0.34891 369:0.0829799 370:0.343767 371:-0.105477 372:-0.74421 373:0.144445 374:-0.288013 375:0.216229 376:-0.434615 377:-0.714829 378:-0.433794 379:-0.00601976 380:-0.0457128 381:-0.227277 382:0.241129 383:0.379124 384:-0.925227 
1.133036492942329 3.163848805416623 0.7168648863639667 0.7960746250391934 0 0 1:0.191862 2:-1 3:0.19576 4:-0.98 5:-0.432343 6:-0.0568459 7:-0.103544 8:0.255483 9:-0.384194 10:-0.0053447 11:-0.31001 12:-0.601756 13:0.311492 14:-0.0620716 15:0.254023 16:-0.471591 17:-0.857791 18:0.316012 19:0.0785987 20:-0.000598637 21:-0.159698 22:0.0787599 23:-0.615066 24:-0.185164 25:0.172759 26:0.00428121 27:0.0429775 28:-0.971564 29:-0.531561 30:-0.115389 31:-0.00439056 32:-0.0305565 33:-0.139158 34:0.0637221 35:0.286264 36:-0.460058 37:0.0277983 38:-0.178213 39:0.0825615 40:-0.934985 41:-0.699847 42:-0.263051 43:0.112389 44:-0.379054 45:0.0627334 46:0.175355 47:0.249136 48:-0.649378 49:-0.0898096 50:-0.153869 51:0.0428178 52:-0.967504 53:-0.63039 54:0.254701 55:-0.323798 56:0.195 57:-0.0865543 58:0.190431 59:-0.201793 60:-0.503769 61:-0.140465 62:-0.132825 63:-0.00823834 64:-0.669219 65:-0.216535 66:-0.0308486 67:-0.294023 68:0.14774 69:-0.291901 70:-0.0562713 71:0.275276 72:-0.655128 73:0.320607 74:0.21822 75:0.121757 76:-0.112228 77:-0.860534 78:0.441952 79:-0.0491684 80:0.409461 81:-0.114931 82:0.0392429 83:0.0225576 84:-0.411767 85:-0.159123 86:-0.261722 87:0.105506 88:-0.896552 89:-0.0235935 90:0.152017 91:-0.353562 92:0.425345 93:-0.166056 94:0.0211165 95:-0.609 96:-0.156896 97:-0.0507424 98:0.00673864 99:0.0505816 100:-0.510815 101:-0.932773 102:-0.100314 103:0.176241 104:-0.0319224 105:-0.177221 106:-0.0128242 107:0.278979 108:-0.662938 109:-0.416931 110:0.0809486 111:-0.351823 112:-0.399674 113:-0.533026 114:-0.348542 115:-0.0295833 116:-0.106261 117:-0.350172 118:-0.191846 119:-0.201095 120:-0.690203 121:-0.325979 122:-0.536192 123:0.288484 124:-0.690544 125:-0.632495 126:-0.651992 127:-0.174356 128:-0.2821 129:0.0168432 130:0.183479 131:-0.160373 132:-0.166235 133:0.0384072 134:0.143038 135:-0.197471 136:-0.49429 137:-0.694561 138:0.186283 139:0.0982855 140:0.134445 141:-0.475293 142:-0.269547 143:0.666209 144:0.445974 145:-0.565848 146:-0.171281 147:-0.0586707 148:-0.609075 149:-0.0690909 150:-0.287035 151:-0.0154757 152:-0.115555 153:-0.445744 154:-0.243417 155:-0.111769 156:-0.637162 157:1 158:-0.869565 159:1 160:-0.484258 161:-0.987879 162:0.0818414 163:-0.307932 164:0.294152 165:0.501149 166:0.448131 167:-0.0657968 168:-0.517544 169:0.581698 170:-1 171:0.747116 172:-0.646643 173:-0.367647 174:-0.244394 175:0.00208857 176:-0.263159 177:-0.234336 178:0.0494407 179:-0.395138 180:-0.745225 181:0.599443 183:0.599443 184:-0.828244 185:-1 186:-0.614373 187:0.0153615 188:-0.422192 189:-0.544763 190:-0.0531588 191:-0.653394 192:-0.930746 193:0.0951289 194:-0.29961 195:0.337307 196:-0.981763 197:-0.98 198:0.469142 199:0.737156 200:-0.504914 201:-0.0113978 202:0.328586 203:-0.079716 204:-0.717297 205:-0.0630725 206:-0.55907 207:0.303128 208:-0.150602 209:-0.431165 210:-0.188346 211:0.190259 212:-0.226202 213:-0.0358574 214:0.160818 215:-0.801523 216:-0.304066 217:0.0886364 218:0.389978 219:-0.0936592 220:-0.860031 221:-0.253543 222:-0.13386 223:-0.528272 224:0.469579 225:0.0583149 226:0.270811 227:0.416743 228:-0.877674 229:0.11072 230:0.126133 231:0.121727 232:-0.956594 233:-0.755796 234:-0.31049 235:0.163698 236:-0.123367 237:0.28068 238:0.432322 239:0.379195 240:-0.731106 241:-0.0246345 242:0.338016 243:-0.140487 244:-0.208151 245:-0.688356 246:-0.521016 247:-0.52388 248:0.255012 249:-0.341135 250:-0.0849013 251:0.508795 252:-0.475529 253:0.0113739 254:-0.0559818 255:0.0621785 256:-0.430183 257:-0.68314 258:-0.206228 259:-0.45586 260:0.243978 261:-0.154115 262:0.0918415 263:-0.462078 264:-0.61628 265:-0.111416 266:-0.0662352 267:0.164253 268:-0.735537 269:0.104 270:-0.0218589 271:-0.486243 272:0.488217 273:0.0979752 274:0.287123 275:-0.16159 276:-0.504696 277:-0.342315 278:0.665342 279:-0.481121 280:-0.0404218 281:-0.16358 282:-0.0754331 283:-0.686522 284:0.374739 285:-0.42027 286:-0.20958 287:0.352786 288:-0.739968 289:-0.151337 290:0.101716 291:-0.00110514 292:-0.958217 293:-0.362702 294:0.374333 295:-0.682326 296:0.276946 297:0.246164 298:0.406843 299:-0.269821 300:-0.513957 301:-0.524555 302:0.174187 303:-0.198694 304:-0.782288 305:-0.636667 306:0.0375539 307:-0.122417 308:0.0395408 309:-0.410621 310:-0.181294 311:-0.265279 312:-0.74572 313:0.450664 314:0.00851877 315:0.412009 316:-0.693498 317:-0.692529 318:0.0564044 319:-0.155662 320:-0.0954879 321:-0.0709525 322:0.153922 323:0.614864 324:0.0343524 325:-0.144557 326:0.21205 327:-0.0341401 328:-0.896839 329:-0.42029 330:0.26802 331:-0.42739 332:0.341119 333:-0.129996 334:0.0895749 335:-0.108761 336:-0.567233 337:0.307886 338:0.311329 339:0.212099 340:-0.133672 341:-0.026616 342:0.326795 343:-0.351329 344:0.0637208 345:-0.306503 346:-0.084169 347:0.494901 348:0.400455 349:1 350:-0.846222 351:1 352:-0.498489 353:-0.391453 354:-0.206728 355:-0.429736 356:0.617915 357:1 358:1 359:-0.306391 360:-0.497205 361:0.239832 362:-0.36115 363:0.401088 364:-0.679842 365:-0.611765 366:-0.139466 367:0.388603 368:-0.0197483 369:-0.0657781 370:0.212306 371:-0.378158 372:-0.764145 373:0.608147 374:-0.529692 375:0.568919 376:-0.834615 377:-0.813688 378:-0.433794 379:0.252082 380:-0.337133 381:-0.367432 382:0.121978 383:0.407452 384:-0.881288 
