svm_type c_svc
kernel_type rbf
gamma 0.00195313
nr_class 7
total_sv 357
rho 0.464405 -1.02116 -0.243876 -0.0622549 -0.204238 -0.227633 -0.746045 -0.325414 -0.335977 1.52228 0.110994 0.197823 0.24712 -0.0340979 0.690545 0.595696 -0.594776 -0.584348 -0.544894 -0.730761 -0.262668
label 5 7 1 6 4 2 3
probA -4.23993 -2.52736 -3.66503 -2.48212 -4.04797 -3.6879 -4.02243 -3.60055 -5.03759 -4.12293 -4.03511 -3.80384 -4.33506 -4.17282 -4.52936 -3.40558 -2.62437 -3.66358 -3.96199 -4.51412 -4.15506
probB -0.0244519 0.0634107 -0.116734 0.0733189 -0.0252502 -0.100876 -0.166725 0.00848396 0.092573 0.15686 0.183998 -0.10336 0.157765 0.0955881 0.623418 0.261153 -0.0472114 0.305798 -0.0691173 0.237981 0.204048
nr_sv 51 58 73 32 50 57 36
SV
9.860221101459118 2.637430035257417 2.689533046695987 16.50843005126166 2.686971409708679 5.566033865226292 1:-0.863927 2:-0.799791 3:-0.863753 4:-0.929504 5:-0.99759 6:-0.728309 7:0.083917 8:-0.503634 9:-0.881771 10:-0.753426 11:-0.437717 12:-0.788035 13:0.310877 14:-0.0545433 15:0.23437 16:-0.693182 17:-0.647211 18:0.0108118 19:-0.458508 20:0.212741 21:-0.128082 22:0.104398 23:-0.321206 24:-0.481356 25:-0.0123614 26:0.134479 27:-0.107608 28:-0.78836 29:-0.860902 30:0.221871 31:-0.662508 32:0.489009 33:-0.357348 34:-0.030833 35:0.0667611 36:-0.442396 37:-0.133554 38:0.0567496 39:-0.205076 40:-0.76507 41:-0.727412 42:-0.128822 43:-0.177584 44:0.0301671 45:-0.353296 46:-0.207636 47:-0.0193467 48:-0.442383 49:-0.279068 50:0.560546 51:-0.740781 52:-0.754801 53:-0.451613 54:0.179242 55:-0.257668 56:0.105792 57:-0.708752 58:-0.495418 59:0.235008 60:-0.774408 61:-0.50869 62:-0.12388 63:-0.290094 64:-0.546708 65:-0.492126 66:0.054808 67:-0.228931 68:0.0651848 69:-0.250829 70:-0.0384658 71:-0.506598 72:-0.466117 73:-0.479017 74:-0.120315 75:-0.0875 76:-0.852596 77:-0.908012 78:-0.234107 79:0.0615881 80:-0.189113 81:-0.187411 82:-0.0786383 83:-0.330846 84:-0.491064 85:-0.135712 86:0.318976 87:-0.362919 88:-0.941489 89:-0.803279 90:0.250042 91:-0.485607 92:0.526808 93:-0.668893 94:-0.499971 95:-0.330594 96:-0.393208 97:-0.141907 98:0.0333043 99:0.0376699 100:-0.542567 101:-0.728 102:0.224083 103:0.334919 104:-0.111404 105:0.420303 106:0.404088 107:-0.0774028 108:-0.695431 109:-0.13898 110:-0.610805 111:0.504445 112:-0.549168 113:-0.845917 114:0.0684929 115:0.197834 116:-0.0305356 117:0.3808 118:0.404136 119:-0.765107 120:0.13795 121:-0.8775 122:-0.0726517 123:-0.577278 124:-0.679083 125:-0.876209 126:-0.436758 127:-0.0482567 128:-0.292286 129:-0.600222 130:-0.440993 131:-0.282596 132:-0.485448 133:-0.563447 134:0.338346 135:-0.738293 136:-0.586207 137:-0.583174 138:0.303829 139:0.184588 140:0.163515 141:-0.560682 142:-0.355971 143:-0.0976913 144:-0.638779 145:-0.369059 146:0.190909 147:-0.125591 148:-0.533679 149:-0.756364 150:-0.185606 151:0.259538 152:-0.303007 153:-0.330897 154:-0.0937473 155:-0.198737 156:-0.697612 157:-0.0540542 158:-0.956522 159:-0.0482574 160:-0.592204 161:-0.99661 162:-0.25295 163:0.15454 164:-0.402618 165:-0.535606 166:-0.332491 167:-0.256842 168:-0.615594 169:0.372521 170:0.366137 171:0.18259 172:-0.80212 173:-0.702206 174:-0.414208 175:-0.242776 176:-0.158649 177:-0.532568 178:-0.258012 179:-0.252374 180:-0.769178 181:0.0819673 183:0.0819673 184:-0.503817 185:-1 186:-0.782328 187:0.0116342 188:-0.524434 189:-0.808769 190:-0.3835 191:-0.635228 192:-0.925612 193:-0.760292 194:0.739145 195:-0.736325 196:-0.926797 197:-0.88309 198:0.636437 199:0.570899 200:-0.567244 201:-0.893989 202:-0.696441 203:-0.0882127 204:-0.764408 205:-0.601333 206:0.443875 207:-0.53107 208:-0.560241 209:-0.727685 210:0.0746175 211:0.0110265 212:-0.150365 213:-0.650624 214:-0.475732 215:0.0752035 216:-0.864984 217:-0.00928653 218:-0.389147 219:0.274818 220:-0.937792 221:-0.897707 222:-0.422742 223:-0.237383 224:0.0250614 225:-0.227933 226:0.0189461 227:-0.22367 228:0.0810827 229:-0.546842 230:0.125931 231:-0.290969 232:-0.563291 233:-0.746522 234:-0.172215 235:0.152211 236:-0.161984 237:-0.180812 238:0.0142649 239:-0.210904 240:-0.798968 241:-0.815509 242:0.23098 243:-0.516789 244:-0.892285 245:-0.712821 246:0.0965008 247:-0.332509 248:0.156407 249:-0.492796 250:-0.247428 251:-0.156095 252:-0.540546 253:-0.594553 254:0.403086 255:-0.52911 256:-0.957326 257:-0.656477 258:-0.168033 259:-0.0808157 260:-0.0447694 261:-0.231801 262:0.008557 263:-0.368548 264:-0.929674 265:-0.340484 266:-0.0156912 267:-0.0119382 268:-0.920266 269:-0.625571 270:-0.22277 271:-0.000310145 272:-0.0677527 273:-0.0471212 274:0.160908 275:0.190115 276:-0.572397 277:-0.495838 278:0.59452 279:-0.525738 280:-0.706989 281:-0.727763 282:-0.0516863 283:-0.630032 284:0.424613 285:-0.504445 286:-0.304621 287:-0.0777634 288:-0.896169 289:0.320095 290:-0.196596 291:0.481599 292:-0.868531 293:-0.853157 294:0.539967 295:0.0450441 296:-0.206 297:0.383515 298:0.529491 299:0.180386 300:0.0135279 301:0.381995 302:0.33425 303:0.0542102 304:-0.645695 305:-0.808594 306:0.146814 307:-0.0497859 308:0.0788319 309:-0.100613 310:0.128114 311:0.242943 312:-0.0577 313:-0.21752 314:0.356733 315:-0.21051 316:-0.603715 317:-0.911175 318:-0.352947 319:-0.00257558 320:-0.3196 321:-0.316648 322:-0.0858421 323:0.126985 324:-0.594694 325:-0.621105 326:0.154203 327:-0.393305 328:-0.74808 329:-0.675362 330:-0.290673 331:-0.413531 332:0.246827 333:-0.387944 334:-0.210025 335:-0.437509 336:-0.562478 337:-0.0875954 338:0.442628 339:-0.138424 340:-0.569787 341:-0.363057 342:-0.360437 343:-0.251867 344:-0.116551 345:0.0579339 346:0.26847 347:0.735908 348:-0.465917 349:-0.0205542 350:0.40839 351:-0.311311 352:-0.607251 353:-0.639469 354:-0.128034 355:-0.569173 356:0.707247 357:-0.602838 358:-0.401347 359:0.168514 360:-0.45008 361:-0.240285 362:0.343789 363:-0.188647 364:-0.799228 365:-0.510516 366:-0.224459 367:0.0529985 368:0.0639576 369:-0.486423 370:-0.193327 371:-0.109842 372:-0.920957 373:0.0819675 374:-0.0819675 375:0.0819674 376:-0.531993 377:-0.635862 378:-0.515092 379:0.0599149 380:-0.298496 381:-0.726008 382:-0.260494 383:0.258641 384:-0.882695 
8.384575838714637 0 2.334958937780666 15.92788992888551 11.02640948199918 13.93137560463521 1:-0.527801 2:-0.77907 3:-0.527827 4:-0.791123 5:-0.995181 6:0.0872409 7:-0.00237779 8:0.0670485 9:-0.547788 10:-0.260114 11:-0.7646 12:-0.924245 13:-0.110823 14:0.0713352 15:-0.187227 16:-0.661932 17:-0.776913 18:-0.345587 19:0.133341 20:-0.436631 21:-0.172395 22:0.0554862 23:-0.246455 24:-0.799104 25:0.108773 26:0.293732 27:-0.172317 28:-0.880071 29:-0.199248 30:0.244258 31:-0.392093 32:0.398616 33:-0.657432 34:-0.418324 35:-0.183278 36:0.168366 37:-0.464713 38:-0.00759704 39:-0.428984 40:-0.956723 41:-0.359877 42:-0.311094 43:-0.589429 44:0.262505 45:-0.533186 46:-0.172412 47:0.0587582 48:-0.808148 49:-0.168783 50:0.308261 51:-0.438028 52:-0.296898 53:-0.770161 54:-0.0439047 55:-0.216139 56:-0.0860075 57:-0.561727 58:-0.301995 59:0.761877 60:-0.716987 61:-0.536226 62:-0.676492 63:0.140434 64:-0.274119 65:-0.11811 66:-0.391863 67:-0.00320986 68:-0.583534 69:-0.106183 70:0.107553 71:-0.358697 72:-0.242991 73:-0.865463 74:0.0988472 75:-0.646516 76:-0.9933 77:-0.578635 78:-0.386285 79:0.113226 80:-0.374676 81:-0.527913 82:-0.383785 83:-0.454751 84:-0.603087 85:-0.306292 86:0.101727 87:-0.309754 88:-0.5 89:-0.814208 90:-0.307026 91:0.46166 92:-0.60218 93:-0.448815 94:0.0322417 95:0.0486251 96:-0.808472 97:-0.827164 98:-0.414499 99:-0.0448511 100:-0.949174 101:-0.512 102:-0.70126 103:-0.255863 104:-0.256713 105:-0.25746 106:-0.15249 107:0.438358 108:-0.557074 109:-0.727409 110:-0.618176 111:0.0618529 112:-0.555219 113:-0.8151 114:-0.666595 115:0.384268 116:-0.813844 117:0.307139 118:0.410889 119:-0.195497 120:-0.772948 121:-0.727062 122:0.041943 123:-0.546553 124:-0.659026 125:-0.199226 126:-0.578801 127:-0.157943 128:-0.344694 129:-0.220473 130:-0.0344166 131:0.139918 132:-0.862567 133:-0.145553 134:-0.179329 135:-0.119012 136:-0.875862 137:-0.487572 138:-0.131463 139:-0.256112 140:0.219681 141:-0.310824 142:-0.00652401 143:0.445609 144:-0.301106 145:-0.72362 146:-0.102939 147:-0.241262 148:-0.606218 149:-0.96 150:-0.501809 151:0.295792 152:-0.58453 153:-0.202826 154:0.0378321 155:-0.178836 156:-0.879831 157:0.218919 158:-0.565217 159:0.198391 160:-0.868066 161:-0.491525 162:0.0791676 163:-0.290634 164:0.179486 165:0.194659 166:0.21065 167:-0.385162 168:-0.775193 169:0.646642 170:0.870079 171:0.250331 172:-0.607774 173:-0.272059 174:0.323293 175:-0.392692 176:0.446065 177:0.237649 178:0.487731 179:-0.564542 180:-0.960771 181:0.472222 183:0.472222 184:-0.774809 185:-1 186:-0.06235 187:-0.392208 188:0.25665 189:-0.0713406 190:0.410685 191:-0.872737 192:-0.980339 193:-0.715054 194:0.492269 195:-0.567401 196:-0.788235 197:-0.665971 198:0.68678 199:0.410689 200:-0.166299 201:-0.652438 202:-0.304118 203:-0.141689 204:-0.907276 205:0.00379619 206:-0.100606 207:0.156524 208:-0.506024 209:-0.903177 210:0.0664719 211:0.182035 212:-0.369571 213:-0.583689 214:-0.392974 215:-0.173335 216:0.117429 217:-0.481349 218:0.597713 219:-0.565273 220:-0.40902 221:-0.283951 222:-0.411525 223:-0.363638 224:0.132204 225:-0.643525 226:-0.445207 227:0.107573 228:-0.664916 229:-0.721191 230:-0.000568372 231:-0.320168 232:-0.306962 233:-0.703246 234:-0.244433 235:0.198268 236:-0.289118 237:-0.44442 238:-0.261502 239:-0.511034 240:-0.30012 241:-0.335965 242:0.527314 243:-0.433982 244:-0.912664 245:-0.186325 246:-0.101 247:-0.661192 248:0.422725 249:-0.578336 250:-0.351688 251:0.69605 252:-0.410038 253:0.778623 254:-0.593683 255:0.757207 256:-0.376956 257:-0.997089 258:-0.17535 259:-0.170049 260:-0.0777882 261:0.0110923 262:0.235674 263:-0.18834 264:0.184565 265:-0.3577 266:0.0846643 267:-0.085556 268:-0.448505 269:-0.557078 270:-0.342205 271:-0.303589 272:0.157679 273:-0.131863 274:0.0762793 275:-0.151072 276:-0.210413 277:-0.446337 278:0.428371 279:-0.391561 280:-0.518817 281:-0.74124 282:-0.235104 283:-0.507267 284:0.121851 285:-0.684082 286:-0.519304 287:-0.169935 288:-0.463438 289:-0.280475 290:0.34669 291:-0.243528 292:-0.798601 293:-0.715125 294:0.0475382 295:-0.0325397 296:-0.375898 297:-0.197697 298:0.00323658 299:0.0638628 300:-0.606611 301:-0.302826 302:0.607706 303:-0.497584 304:-0.417219 305:-0.535156 306:-0.253384 307:-0.0446451 308:-0.106165 309:-0.349525 310:-0.119001 311:0.176458 312:-0.643768 313:-0.467455 314:0.215866 315:-0.28091 316:-0.510836 317:-0.498567 318:-0.410218 319:-0.247636 320:-0.182653 321:-0.215578 322:0.0146018 323:0.0612635 324:-0.791969 325:-0.159193 326:0.114518 327:-0.114592 328:-0.582181 329:-0.657971 330:-0.00185285 331:-0.0991721 332:-0.149197 333:-0.158378 334:0.0336469 335:-0.376568 336:-0.504492 337:-0.752075 338:0.209125 339:-0.400597 340:-0.727422 341:-0.592357 342:0.278582 343:-0.193548 344:-0.190966 345:-0.344898 346:-0.117429 347:-0.48803 348:-0.564017 349:0.131367 350:-0.0513701 351:0.0425429 352:-0.900302 353:-0.225806 354:-0.0836625 355:-0.383023 356:0.555073 357:0.121572 358:0.332466 359:-0.262214 360:-0.575105 361:0.0869016 362:0.0185611 363:0.185791 364:-0.301158 365:-0.502868 366:0.0379374 367:0.0967924 368:0.221455 369:-0.0742705 370:0.215666 371:-0.358748 372:-0.79081 373:0.347702 374:-0.416111 375:0.381907 376:-0.73309 377:-0.812414 378:-0.515092 379:-0.122861 380:0.0553415 381:-0.178702 382:0.281306 383:0.241157 384:-0.923195 
1.993039818986979 10.37844029552244 0 0.1558948976561493 0 0 1:-0.550705 2:-0.817793 3:-0.55057 4:-0.97389 5:-0.987952 6:-0.199007 7:-0.094712 8:0.0860038 9:-0.61001 10:-0.304104 11:-0.499053 12:-0.822645 13:0.320434 14:-0.0686147 15:0.252329 16:-0.755682 17:-0.320363 18:0.111049 19:-0.0167929 20:-0.0106743 21:0.0171576 22:0.217362 23:-0.523742 24:-0.383014 25:-0.217844 26:0.0167056 27:-0.131684 28:-0.485009 29:-0.849624 30:0.0948077 31:0.0299281 32:-0.0423972 33:-0.402933 34:-0.141262 35:-0.145328 36:-0.554804 37:-0.306376 38:-0.391352 39:0.00367885 40:-0.502318 41:-0.445636 42:-0.269909 43:-0.0174162 44:-0.232778 45:0.200631 46:0.32852 47:-0.240038 48:-0.615427 49:-0.35398 50:0.163382 51:-0.413091 52:-0.556869 53:-0.254032 54:-0.104928 55:-0.219677 56:-0.13803 57:-0.374459 58:-0.0899231 59:0.358121 60:-0.871659 61:-0.645761 62:-0.271331 63:-0.271941 64:-0.996937 65:-0.106299 66:-0.268704 67:-0.313041 68:-0.126531 69:-0.26837 70:-0.031547 71:0.311434 72:-0.821627 73:-0.228458 74:0.182735 75:-0.153721 76:-0.363484 77:-0.169139 78:-0.0737594 79:-0.081009 80:0.0621106 81:0.0656965 82:0.128767 83:-0.0892581 84:-0.877171 85:-0.226124 86:-0.299104 87:0.0653231 88:-0.204787 89:-0.883424 90:-0.366369 91:0.0925193 92:-0.416513 93:-0.0304319 94:0.222208 95:0.0365325 96:-0.78253 97:-0.345436 98:-0.410666 99:0.324702 100:-0.308767 101:-0.136 102:0.0828696 103:0.00146231 104:0.0687995 105:0.674837 106:0.525155 107:-0.554545 108:-0.291582 109:-0.367918 110:-0.264468 111:0.00558323 112:-0.803328 113:-0.697997 114:-0.235337 115:-0.175716 116:0.0775291 117:-0.151073 118:0.0357764 119:-0.320705 120:-0.593149 121:-0.670164 122:-0.0521132 123:-0.417224 124:-0.487106 125:-0.733075 126:-0.446023 127:-0.151599 128:-0.285888 129:-0.388278 130:-0.200635 131:0.349875 132:-0.810621 133:-0.459532 134:-0.150552 135:-0.344499 136:-0.310345 137:-0.984704 138:-0.0435632 139:0.328749 140:-0.359137 141:-0.349881 142:-0.0485196 143:0.0668205 144:-0.628235 145:-0.218442 146:0.0913953 147:0.0757606 148:-0.816926 149:-0.334545 150:-0.228495 151:0.138187 152:-0.211656 153:0.150927 154:0.351083 155:0.0517724 156:-0.907778 157:-0.175676 158:-0.782609 159:-0.179625 160:-0.211394 161:-0.745763 162:-0.386536 163:-0.267692 164:-0.0472081 165:-0.417186 166:-0.286735 167:-0.211832 168:-0.627526 169:0.769331 170:-0.106027 171:0.633818 172:-0.293286 173:-0.382353 174:0.774784 175:-0.0126734 176:0.408714 177:0.873225 178:0.897095 179:-0.805818 180:-0.984968 181:0.664447 183:0.664447 184:-0.790076 185:-1 186:0.450637 187:0.0769089 188:0.207963 189:0.229298 190:0.563656 191:-0.977275 192:-0.985532 193:-0.595588 194:0.59007 195:-0.554017 196:-0.932026 197:-0.878914 198:0.638708 199:0.71131 200:-0.500894 201:-0.650297 202:-0.302417 203:0.10033 204:-0.914584 205:0.585176 206:0.313443 207:0.260373 208:-0.939759 209:-0.960666 210:0.340672 211:0.211622 212:-0.369284 213:-0.346739 214:-0.124603 215:0.486896 216:-0.413863 217:0.0680144 218:0.125761 219:0.0313501 220:-0.732504 221:-0.908289 222:0.0562754 223:-0.154892 224:-0.1548 225:-0.109421 226:0.134857 227:0.510273 228:-0.675286 229:-0.504696 230:0.106646 231:-0.25386 232:-0.512658 233:-0.92272 234:-0.428211 235:0.0434567 236:-0.141493 237:-0.121754 238:0.0718915 239:-0.124364 240:-0.728772 241:-0.426911 242:0.625718 243:-0.532098 244:-0.804949 245:-0.979487 246:-0.487718 247:-0.680593 248:0.286613 249:-0.475203 250:-0.230356 251:0.278633 252:-0.722658 253:0.433109 254:0.11412 255:0.136889 256:-0.206259 257:-0.196507 258:-0.253194 259:-0.390206 260:0.157624 261:-0.0531875 262:0.175195 263:0.0857684 264:-0.631597 265:0.234939 266:-0.311519 267:0.566596 268:-0.0697674 269:0.26484 270:-0.159297 271:-0.290327 272:0.0960164 273:0.41256 274:0.551485 275:-0.0462404 276:-0.253625 277:0.346453 278:-0.0199047 279:0.354808 280:-0.897849 281:-0.743935 282:0.111349 283:-0.539456 284:0.14017 285:0.0142224 286:0.225775 287:0.137501 288:-0.595905 289:-0.075893 290:-0.316677 291:0.326331 292:-0.636364 293:-0.603524 294:0.411493 295:-0.194671 296:-0.114422 297:0.377527 298:0.521942 299:-0.477028 300:-0.417719 301:-0.100889 302:0.0298299 303:-0.0292694 304:-0.0662252 305:-0.617188 306:0.0250028 307:-0.0512573 308:-0.136404 309:-0.13661 310:0.0963231 311:-0.282762 312:-0.461358 313:-0.362381 314:0.253497 315:-0.238397 316:-0.789474 317:-0.842407 318:-0.127247 319:-0.350842 320:-0.0354667 321:-0.259739 322:-0.030303 323:-0.0057684 324:-0.606779 325:0.101285 326:0.416937 327:-0.157052 328:-0.486943 329:-0.510145 330:-0.0126719 331:-0.332488 332:0.0846821 333:-0.0373626 334:0.146927 335:0.204866 336:-0.626675 337:-0.0822181 338:0.215646 339:0.033516 340:-0.178982 341:-0.273885 342:-0.225634 343:-0.449016 344:-0.00437725 345:-0.00812689 346:0.207981 347:0.186121 348:-0.663467 349:0.107239 350:-0.0385276 351:0.0215219 352:-0.864048 353:-0.810247 354:-0.184331 355:-0.387055 356:0.550699 357:-0.317882 358:-0.0815826 359:-0.16438 360:-0.433866 361:0.443786 362:-0.53408 363:0.71036 364:-0.343629 365:-0.85086 366:0.0107984 367:0.347502 368:-0.0772186 369:0.0997068 370:0.360648 371:-0.326596 372:-0.525121 373:0.668768 374:-0.604965 375:0.636867 376:-0.806216 377:-0.878621 378:-0.140665 379:0.025167 380:-0.0277943 381:-0.286965 382:0.19322 383:0.271013 384:-0.898651 
0 7.866510600636109 0 0 4.206957028632602 8.48664872416097 1:-0.665064 2:-0.906441 3:-0.664538 4:-0.913838 5:-0.992771 6:-0.781755 7:0.0424976 8:-0.440289 9:-0.925954 10:-0.84052 11:-0.0613635 12:-0.293087 13:0.506681 14:0.239656 15:0.165958 16:-0.107955 17:-0.276265 18:0.19566 19:-0.228002 20:0.275855 21:-0.466776 22:-0.267762 23:-0.243322 24:-0.278355 25:0.508215 26:-0.156062 27:0.4707 28:0.0617284 29:-0.0526316 30:0.0453769 31:0.0263442 32:-0.0985515 33:0.0532237 34:0.296902 35:0.168877 36:-0.353824 37:-0.406743 38:-0.306436 39:-0.146202 40:-0.653787 41:-0.476263 42:-0.429703 43:-0.0391313 44:-0.36066 45:-0.196411 46:-0.0495659 47:-0.0219674 48:-0.689377 49:-0.0245175 50:0.0719019 51:-0.129853 52:0.0398818 53:-0.0403226 54:-0.0131908 55:-0.171057 56:-0.151275 57:-0.148253 58:0.146437 59:0.273516 60:-0.819651 61:0.112639 62:-0.484745 63:0.467726 64:-0.0627871 65:-0.53937 66:-0.195337 67:0.278535 68:-0.831139 69:-0.103345 70:0.291498 71:0.118602 72:-0.426067 73:-0.0670417 74:0.162449 75:0.011158 76:-0.293132 77:-0.442136 78:0.076333 79:0.113192 80:-0.0870204 81:0.230921 82:0.284284 83:-0.0640411 84:-0.871306 85:-0.0377877 86:-0.420185 87:0.293742 88:-1 89:-0.373406 90:-0.378868 91:-0.166395 92:-0.169487 93:0.44768 94:0.525971 95:0.199369 96:-0.606651 97:0.322281 98:-0.350264 99:0.781746 100:-0.138501 101:-0.136 102:-0.0618673 103:0.203433 104:-0.398142 105:0.149037 106:0.225885 107:0.227427 108:-0.440769 109:-0.118154 110:-0.263305 111:0.195284 112:-0.0136157 113:-0.417565 114:-0.277541 115:0.229941 116:-0.435383 117:-0.435421 118:-0.252926 119:-0.155772 120:-0.252834 121:-0.280098 122:-0.467243 123:0.27263 124:-0.108883 125:-0.945841 126:-0.366885 127:0.091623 128:-0.580074 129:-0.037544 130:0.348241 131:0.127692 132:-0.535009 133:-0.419893 134:-0.0689957 135:-0.372751 136:-0.255172 137:-0.908222 138:-0.0582884 139:0.330147 140:-0.428098 141:-0.33438 142:-0.0018882 143:0.189111 144:-0.70528 145:-0.240304 146:0.0587701 147:0.0784708 148:-0.0846287 149:-0.32 150:-0.245407 151:0.463917 152:-0.684401 153:-0.0788125 154:0.241507 155:0.206647 156:-0.832996 157:0.248648 158:-0.956522 159:0.252011 160:-0.148426 161:-1 162:-0.473476 163:-0.154178 164:-0.279915 165:-0.587742 166:-0.450939 167:0.158729 168:-0.141586 169:0.80297 170:0.832215 171:0.384557 172:-0.04947 173:0.0808824 174:0.636927 175:-0.100855 176:0.415658 177:0.362382 178:0.544688 179:-0.771519 180:-0.96298 181:0.95154 183:0.95154 184:0.324427 185:-1 186:0.272656 187:0.0748443 188:0.0883781 189:0.263164 190:0.585251 191:-0.890019 192:-0.977834 193:-0.557576 194:0.653224 195:-0.568247 196:-0.911111 197:-0.862213 198:0.630872 199:0.90476 200:-0.83782 201:-0.910235 202:-0.733061 203:0.25319 204:-0.50717 205:0.373244 206:0.096365 207:0.261813 208:-0.0903614 209:-0.15885 210:-0.0473028 211:0.143902 212:-0.315584 213:-0.384726 214:-0.165291 215:0.11066 216:-0.593617 217:0.0482758 218:0.0855119 219:0.0421332 220:-0.18507 221:0.0758377 222:0.189011 223:-0.241457 224:-0.035145 225:-0.0466407 226:0.192086 227:0.22937 228:-0.653849 229:-0.481899 230:0.0559937 231:-0.209549 232:-0.439873 233:-0.496136 234:0.160834 235:0.11231 236:-0.143402 237:-0.495359 238:-0.319474 239:-0.384251 240:-0.257603 241:-0.452108 242:0.729866 243:-0.600264 244:-0.342067 245:-0.292308 246:0.108791 247:-0.610185 248:0.235005 249:-0.596444 250:-0.371542 251:-0.152479 252:-0.704172 253:0.302391 254:-0.267281 255:0.323619 256:-0.681366 257:-0.679767 258:0.197786 259:-0.374298 260:0.197369 261:-0.0412021 262:0.18686 263:-0.251711 264:-0.341367 265:0.269177 266:-0.57518 267:0.752437 268:-0.51495 269:-0.315068 270:0.0660151 271:-0.356571 272:0.230548 273:0.180501 274:0.359046 275:-0.0485556 276:-0.17402 277:0.125125 278:0.0761643 279:0.164872 280:-0.392473 281:-0.180593 282:-0.144518 283:-0.538224 284:-0.0237704 285:-0.159368 286:0.0654442 287:-0.008061 288:-0.610384 289:-0.139403 290:0.0966923 291:0.00940836 292:-0.401399 293:-0.594714 294:0.141795 295:-0.22899 296:-0.176588 297:-0.357382 298:-0.166399 299:0.280531 300:-0.469228 301:-0.341918 302:0.740804 303:-0.601291 304:0.0463576 305:-0.355469 306:0.126067 307:-0.178852 308:0.0974613 309:-0.629558 310:-0.442263 311:0.228387 312:-0.573974 313:-0.149737 314:-0.0192996 315:0.0564051 316:-0.637771 317:-0.919771 318:0.0698377 319:-0.402568 320:0.0652264 321:-0.199561 322:0.0294485 323:-0.375951 324:-0.451576 325:0.486651 326:-0.3084 327:0.500933 328:-0.898618 329:-0.217391 330:-0.0833347 331:-0.304377 332:-0.0682735 333:-0.205695 334:-0.0154852 335:-0.208825 336:-0.0256152 337:-0.177895 338:0.0733891 339:0.076372 340:-0.825944 341:-0.808917 342:-0.225381 343:-0.44133 344:-0.0836847 345:-0.0701672 346:0.151477 347:-0.0111066 348:-0.412749 349:0.101877 350:-0.339897 351:0.194695 352:-0.1571 353:-0.510436 354:-0.176448 355:-0.36387 356:0.535548 357:-0.286575 358:-0.0494676 359:-0.345647 360:-0.181679 361:0.378195 362:-0.201634 363:0.478447 364:-0.200772 365:-0.323136 366:-0.318327 367:0.467149 368:-0.367481 369:0.375115 370:0.57363 371:-0.235172 372:-0.887438 373:0.884103 374:-0.938761 375:0.911432 376:-0.934186 377:-0.0344828 378:-0.515092 379:-0.00757652 380:0.0123176 381:0.154798 382:0.518699 383:0.248108 384:-0.921178 
0 13.68034819420366 0 0 0 0 1:-0.395894 2:-0.903374 3:-0.395474 4:-0.415144 5:-0.281928 6:-0.382346 7:0.143415 8:-0.390781 9:-0.553167 10:-0.270902 11:-0.234971 12:-0.669025 13:-0.0136447 14:0.553752 15:-0.473181 16:-0.798295 17:-0.346304 18:-0.399999 19:-0.249869 20:-0.151358 21:-0.665767 22:-0.510399 23:-0.0211192 24:-0.787132 25:-0.462996 26:-0.708654 27:0.353335 28:-0.100529 29:-0.274436 30:-0.708462 31:-0.222866 32:-0.384492 33:0.325996 34:0.50526 35:0.0396531 36:-0.753426 37:-0.585481 38:-0.257446 39:-0.332815 40:-0.931994 41:-0.491577 42:-0.455531 43:-0.256121 44:-0.125774 45:-0.662664 46:-0.514379 47:-0.175247 48:-0.47939 49:-0.466183 50:-0.35266 51:0.00377307 52:-0.134417 53:-0.778226 54:-0.630467 55:-0.0482376 56:-0.690184 57:-0.109617 58:0.221341 59:0.453554 60:-0.856525 61:-0.0451979 62:0.0465829 63:-0.083645 64:-0.316998 65:-0.326772 66:0.133097 67:-0.0145976 68:-0.0669868 69:-0.129833 70:0.0892891 71:0.681308 72:-0.699202 73:-0.260736 74:-1 75:0.956168 76:-0.9933 77:-0.602374 78:-0.454748 79:-0.0325265 80:-0.288017 81:0.159499 82:0.197967 83:0.00903597 84:0.0907204 85:-0.228488 86:-0.566483 87:0.276356 88:-0.702128 89:0.00546448 90:-0.616912 91:-0.234145 92:-0.265576 93:0.509284 94:0.5692 95:-0.0733391 96:-0.510008 97:0.410493 98:-0.387852 99:0.887777 100:-0.229987 101:-0.744 102:0.194412 103:0.312183 104:-0.306705 105:0.236748 106:0.358105 107:-0.213704 108:-0.0297213 109:-0.0791146 110:-0.55626 111:0.499151 112:-0.252648 113:-0.972265 114:-0.338929 115:0.448421 116:-0.700393 117:-0.109721 118:0.185461 119:-0.0673106 120:-0.43555 121:0.170562 122:-0.0182564 123:0.274117 124:-0.289398 125:0.0522244 126:-0.184636 127:-0.1959 128:-0.0468104 129:0.372097 130:0.499417 131:0.645368 132:-0.151766 133:0.628825 134:-0.123308 135:0.35256 136:-0.418391 137:0.0516252 138:0.471501 139:0.364884 140:0.0136511 141:0.176082 142:0.429618 143:0.321694 144:-0.532235 145:0.179146 146:0.346219 147:0.256141 148:-0.557858 149:-0.789091 150:0.596605 151:0.713484 152:-0.326317 153:0.362503 154:0.740292 155:0.0743416 156:-0.902617 157:0.205405 158:-0.826087 159:0.201072 160:-0.67916 161:0.0440678 162:0.120081 163:-0.208573 164:0.092498 165:-0.606729 166:-0.482026 167:-0.325567 168:-0.526507 169:0.917685 170:0.599771 171:0.543202 172:-0.558304 173:-0.988971 174:0.714968 175:-0.101384 176:0.461496 177:0.756104 178:0.818873 179:-0.647358 180:-0.975473 181:0.941176 183:0.941176 184:-0.522901 185:-1 186:0.605171 187:0.0162925 188:0.367523 189:0.792089 190:0.88692 191:-0.935921 192:-0.983683 193:-0.318429 194:0.544049 195:-0.365454 196:-0.40915 197:-0.0521921 198:0.621195 199:0.766075 200:-0.601428 201:-0.613301 202:-0.255709 203:0.277894 204:-0.793217 205:-0.481776 206:0.575499 207:-0.537326 208:-0.463855 209:-0.691377 210:0.487098 211:0.00689097 212:0.0901204 213:-0.65915 214:-0.485626 215:-0.268718 216:-0.913581 217:0.199377 218:0.0499694 219:0.15314 220:-0.219285 221:-0.904762 222:0.0817992 223:-0.0932926 224:-0.26511 225:0.210709 226:0.416934 227:0.190423 228:-0.655992 229:0.140082 230:0.0514217 231:0.16933 232:-0.468354 233:-0.919629 234:0.000416373 235:0.137801 236:-0.1984 237:-0.320286 238:-0.127583 239:-0.0976738 240:-0.354889 241:0.526109 242:-0.113293 243:0.34031 244:-0.164483 245:-0.733333 246:0.0748588 247:-0.400517 248:-0.109148 249:0.50252 250:0.653711 251:0.154483 252:-0.698023 253:-0.314253 254:0.0254144 255:-0.153455 256:-0.527738 257:-0.310044 258:-0.144514 259:-0.40348 260:0.210013 261:-0.40016 262:-0.167542 263:-0.540578 264:-0.351055 265:0.728334 266:-0.463351 267:1 268:-0.578073 269:-0.109589 270:-0.224418 271:-0.174397 272:-0.148241 273:0.530262 274:0.648031 275:0.119503 276:0.436876 277:-0.0767838 278:0.269515 279:-0.0754054 280:-0.55914 281:-0.296496 282:0.0506505 283:-0.452962 284:-0.0516153 285:-0.185962 286:0.0415125 287:0.159744 288:-0.666074 289:-0.482605 290:0.410439 291:-0.407185 292:-0.451748 293:-0.823789 294:0.440093 295:-0.224228 296:-0.0488784 297:-0.241372 298:-0.0465665 299:-0.321407 300:-0.750236 301:-0.515308 302:0.250238 303:-0.396944 304:-0.0629139 305:-0.972656 306:0.0591945 307:-0.126899 308:0.0155058 309:-0.369758 310:-0.141222 311:-0.211502 312:-0.583628 313:0.248203 314:0.13697 315:0.209188 316:-0.151703 317:-0.286533 318:0.158728 319:-0.507142 320:0.326785 321:0.353298 322:0.518924 323:0.181554 324:-0.708944 325:-0.159523 326:0.0200703 327:-0.0567234 328:-0.109063 329:-0.550725 330:-0.059594 331:-0.273573 332:-0.0422668 333:0.0553707 334:0.235004 335:-0.342559 336:-0.52711 337:0.146256 338:0.0698666 339:0.291397 340:-0.862069 341:-0.804671 342:0.0287399 343:-0.57241 344:0.284399 345:0.714855 346:0.795978 347:0.135023 348:-0.683038 349:0.175156 350:0.138698 351:-0.0440438 352:-0.691843 353:-0.593928 354:-0.267439 355:-0.384621 356:0.509192 357:-0.297002 358:-0.0600143 359:0.025194 360:-0.441138 361:0.742576 362:-0.47186 363:0.841471 364:-0.289575 365:-0.869981 366:-0.00144226 367:0.14903 368:0.284103 369:0.760037 370:0.844946 371:-0.213273 372:-0.862164 373:0.79666 374:-0.709008 375:0.752834 376:-0.564899 377:-0.605517 378:-0.515092 379:-0.133235 380:0.223313 381:0.802983 382:0.898064 383:0.27376 384:-0.939816 
0 13.65910691606411 0 0 0 0 1:-0.74305 2:-0.837334 3:-0.742769 4:-0.801567 5:-0.99759 6:-0.376153 7:0.00361069 8:-0.213337 9:-0.781585 10:-0.570569 11:-0.561652 12:-0.843981 13:0.302238 14:0.221752 15:0.0206918 16:-0.414773 17:-0.750973 18:0.347318 19:0.451147 20:-0.136409 21:-0.407614 22:-0.10084 23:-0.530722 24:-0.350517 25:-0.107511 26:0.0249672 27:-0.0704649 28:-0.513228 29:-0.669173 30:-0.070173 31:0.0183256 32:-0.11062 33:-0.377035 34:-0.125374 35:0.162453 36:-0.40886 37:-0.0607664 38:-0.0387437 39:-0.0697432 40:-0.372488 41:-0.49464 42:-0.212801 43:0.376407 44:-0.491441 45:0.0305357 46:0.278442 47:0.282637 48:-0.789268 49:0.0292689 50:0.599088 51:-0.592176 52:-0.400295 53:-0.669355 54:0.453693 55:-0.203995 56:0.246274 57:-0.451764 58:-0.174289 59:0.30024 60:-0.913373 61:-0.313792 62:-0.519492 63:0.178135 64:-0.984686 65:-0.909449 66:-0.378508 67:-0.644268 68:-0.0229752 69:-0.113132 70:0.196543 71:0.362698 72:-0.532556 73:0.0747896 74:0.371438 75:-0.0623855 76:-0.577889 77:-0.925816 78:0.172273 79:-0.143748 80:0.286236 81:-0.330229 82:-0.201523 83:0.230715 84:-0.147172 85:-0.471799 86:-0.120597 87:-0.248994 88:-1 89:-0.938069 90:-0.660787 91:-0.418025 92:-0.167617 93:-0.581009 94:-0.404159 95:0.57215 96:-0.142136 97:-0.445279 98:-0.454608 99:0.291336 100:-0.989835 101:-0.552 102:-0.867483 103:-0.183323 104:-0.494296 105:0.27033 106:0.250651 107:0.450401 108:-0.435715 109:0.949295 110:-0.0126378 111:0.776197 112:-0.878971 113:-0.784284 114:0.252275 115:-0.312368 116:0.501747 117:0.397532 118:0.485485 119:0.282007 120:-0.207035 121:-0.418019 122:-0.123722 123:-0.139836 124:-0.398281 125:-0.338491 126:-0.183323 127:-0.449836 128:0.190188 129:-0.217399 130:-0.0253939 131:-0.203922 132:-0.312385 133:-0.0797738 134:-0.144915 135:-0.0986993 136:-0.542529 137:-0.380497 138:0.229772 139:0.146055 140:0.123078 141:0.0420827 142:0.230547 143:0.201656 144:-0.523278 145:-0.748517 146:0.44724 147:-0.636683 148:-0.253886 149:-0.88 150:-0.279661 151:0.308836 152:-0.422993 153:-0.787185 154:-0.63448 155:0.0951057 156:-0.828471 157:0.243243 158:-0.869565 159:0.241287 160:-0.694153 161:-0.267797 162:-0.333846 163:-0.470162 164:0.178638 165:-0.467791 166:-0.298926 167:-0.0459836 168:-0.438518 169:0.79372 170:0.0821747 171:0.597711 172:-0.431095 173:-0.981618 174:0.167159 175:0.58903 176:-0.37699 177:0.092315 178:0.481164 179:-0.473067 180:-0.903838 181:0.411016 183:0.411016 184:-0.370229 185:-1 186:-0.318526 187:0.449086 188:-0.533769 189:-0.312542 190:0.21716 191:-0.803815 192:-0.969752 193:-0.57073 194:0.779521 195:-0.648826 196:-0.754248 197:-0.615866 198:0.638984 199:0.503373 200:-0.388001 201:-0.74387 202:-0.431952 203:0.273813 204:-0.932154 205:0.444316 206:0.313552 207:0.17555 208:-0.704819 209:-0.588502 210:0.0480393 211:-0.174464 212:0.145396 213:-0.423773 214:-0.205113 215:0.548389 216:-0.29616 217:0.334901 218:-0.16687 219:0.356876 220:-0.580093 221:-0.502646 222:-0.0512236 223:0.145966 224:-0.399752 225:-0.151008 226:0.0980437 227:0.112861 228:-0.10119 229:0.157273 230:0.268781 231:0.0487384 232:-0.708861 233:-0.508501 234:-0.0549818 235:0.230273 236:-0.25364 237:-0.191087 238:0.00522305 239:-0.0688716 240:-0.54472 241:-0.478454 242:0.427336 243:-0.452229 244:-0.842795 245:-0.651282 246:-0.0816565 247:-0.429562 248:0.142664 249:-0.35146 250:-0.0932935 251:-0.181815 252:-0.720719 253:0.116392 254:-0.32151 255:0.272233 256:-0.948791 257:-0.455604 258:0.0938458 259:0.220149 260:-0.463094 261:0.188097 262:0.395658 263:-0.633267 264:-0.538932 265:-0.630712 266:0.234304 267:-0.365758 268:-0.631229 269:-0.392694 270:0.0597535 271:-0.0186433 272:-0.0581853 273:-0.197001 274:0.020419 275:-0.155871 276:-0.544383 277:-0.399909 278:0.487846 279:-0.402192 280:-0.763441 281:-0.946092 282:-0.0752533 283:-0.0712372 284:-0.383232 285:-0.616171 286:-0.41491 287:-0.159405 288:-0.656603 289:-0.148935 290:0.559053 291:-0.308368 292:-0.440559 293:-0.668135 294:0.369859 295:0.281328 296:-0.713228 297:-0.141919 298:0.074314 299:0.28074 300:-0.76118 301:0.589474 302:-0.0653308 303:0.416049 304:-0.480132 305:-0.738281 306:0.0673295 307:-0.109592 308:0.0949597 309:1 310:1 311:0.0616871 312:-0.592884 313:-0.516516 314:0.499958 315:-0.481234 316:-0.931889 317:-0.945559 318:-0.110864 319:0.024633 320:-0.378223 321:-0.158024 322:0.0753679 323:0.303124 324:-0.875814 325:0.379756 326:0.388392 327:0.0138157 328:-0.447005 329:-0.533333 330:0.0777448 331:-0.0652906 332:-0.100404 333:0.0519066 334:0.233513 335:0.0320206 336:-0.567351 337:-0.691036 338:0.651612 339:-0.688913 340:-0.697865 341:-0.354565 342:0.404544 343:-0.232698 344:-0.0433415 345:-0.591699 346:-0.398753 347:-0.00884909 348:-0.875749 349:0.0920463 350:-0.121576 351:0.0615622 352:-0.70997 353:-0.612903 354:-0.191298 355:-0.517158 356:0.662144 357:-0.183463 358:0.0550005 359:-0.239702 360:-0.242433 361:0.060151 362:0.00677035 363:0.177703 364:-0.764479 365:-0.487572 366:0.491566 367:0.369516 368:-0.0608149 369:-0.0785456 370:0.20873 371:-0.201786 372:-0.871197 373:0.235126 374:-0.272849 375:0.253988 376:-0.422303 377:-0.52 378:0.0680618 379:0.207243 380:-0.345001 381:-0.483451 382:0.0151069 383:0.276797 384:-0.914574 
5.717767597887023 2.641241021773341 3.610022933619721 7.275805200758238 5.480788083598636 2.752683425666618 1:-0.832102 2:-0.849022 3:-0.831744 4:-0.665796 5:-0.79759 6:-0.582487 7:0.105346 8:-0.442492 9:-0.86521 10:-0.721172 11:-0.55806 12:-0.822789 13:0.410295 14:-0.535251 15:0.671632 16:-0.332386 17:-0.488975 18:0.010957 19:-0.00554634 20:-0.0758896 21:0.540396 22:0.655945 23:-0.455161 24:-0.649605 25:-0.508961 26:0.0238323 27:-0.318623 28:-0.156966 29:-0.954887 30:0.128765 31:0.0697952 32:-0.021901 33:-0.352889 34:-0.0877431 35:-0.0584155 36:-0.775224 37:0.0407954 38:-0.0681443 39:0.037522 40:-0.607419 41:-0.57121 42:0.104451 43:0.116989 44:-0.00178194 45:-0.366279 46:-0.202432 47:-0.062777 48:-0.402203 49:0.380167 50:0.58505 51:-0.368742 52:-0.282127 53:-0.979839 54:0.403599 55:-0.220458 56:0.218374 57:-0.542441 58:-0.27909 59:0.581724 60:-0.73932 61:-0.606156 62:-0.259304 63:-0.252228 64:-0.255743 65:-0.122047 66:-0.0663585 67:-0.281493 68:0.013957 69:-0.366739 70:-0.147178 71:-0.355534 72:-0.534111 73:-0.0674828 74:0.568755 75:-0.380504 76:-0.527638 77:-0.661721 78:0.0231718 79:-0.0538404 80:0.0983924 81:-0.615632 82:-0.497558 83:0.238021 84:-0.177459 85:0.332631 86:0.110708 87:0.131255 88:-0.37766 89:-0.759563 90:0.452807 91:0.229965 92:0.131131 93:-0.397557 94:-0.0753106 95:-0.124837 96:-0.185044 97:-0.129918 98:-0.568312 99:0.64969 100:-0.374841 101:-0.14 102:0.191182 103:-0.346343 104:0.578578 105:0.241737 106:0.321006 107:-0.62349 108:0.0556871 109:-0.825761 110:-0.490359 111:-0.132843 112:-1 113:-0.710324 114:-0.474905 115:0.0225898 116:-0.343282 117:-0.494863 118:-0.367262 119:-0.222812 120:-0.271187 121:-0.772911 122:-0.4169 123:-0.192748 124:-0.472779 125:-0.624758 126:-0.568447 127:-0.261507 128:-0.244582 129:-0.388845 130:-0.224194 131:-0.487175 132:0.0799455 133:-0.0371814 134:0.43864 135:-0.45924 136:-0.827586 137:-0.365201 138:0.317118 139:-0.0607899 140:0.399452 141:-0.733381 142:-0.556277 143:0.718406 144:-0.0663419 145:-0.50124 146:-0.282821 147:0.0783865 148:-0.765112 149:-0.981818 150:-0.0988423 151:0.321691 152:-0.317401 153:-0.509613 154:-0.276272 155:-0.36328 156:-0.326225 157:0.362162 158:-0.869565 159:0.359249 160:-0.94003 161:-0.715254 162:-0.0051793 163:-0.50574 164:0.414294 165:-0.074318 166:0.0622208 167:-0.431938 168:-0.76414 169:0.687791 170:-0.187032 171:0.59342 172:-0.59364 173:-0.606618 174:-0.319851 175:0.106032 176:-0.354259 177:-0.417995 178:-0.118121 179:-0.254605 180:-0.713331 181:0.467375 183:0.467375 184:-0.561069 185:-1 186:-0.677339 187:0.0435389 188:-0.479258 189:-0.59339 190:-0.101145 191:-0.625971 192:-0.920876 193:-0.768184 194:0.788342 195:-0.769331 196:-0.662745 197:-0.465553 198:0.631097 199:0.71415 200:-0.611471 201:-0.873651 202:-0.654518 203:0.0137465 204:-0.9056 205:0.524243 206:-0.374135 207:0.632192 208:-0.807229 209:-0.824508 210:-0.439436 211:0.0671062 212:-0.299932 213:0.428987 214:0.579196 215:0.0680626 216:-0.736506 217:0.126759 218:0.213718 219:0.0171825 220:-0.511664 221:-0.978836 222:0.205099 223:-0.533425 224:0.522942 225:-0.0458121 226:0.191289 227:0.505474 228:-0.477041 229:-0.181222 230:0.320057 231:-0.186858 232:-0.924051 233:-0.588872 234:0.4424 235:-0.0725666 236:0.254746 237:-0.248473 238:-0.0542142 239:-0.0662811 240:-0.644984 241:-0.514953 242:0.676482 243:-0.60336 244:-0.746725 245:-0.634188 246:0.217782 247:-0.861347 248:0.806766 249:-0.36958 250:-0.115675 251:0.205303 252:-0.784766 253:0.0422929 254:0.036796 255:0.00514312 256:-0.726885 257:-0.391557 258:-0.0879937 259:-0.376035 260:0.241366 261:-0.166142 262:0.0695169 263:-0.156219 264:-0.660881 265:0.0794267 266:0.504073 267:-0.0424465 268:-0.571429 269:-0.885845 270:-0.101843 271:-0.482959 272:0.490526 273:-0.287491 274:-0.0799764 275:0.177055 276:-0.102024 277:-0.0950298 278:0.511131 279:-0.239195 280:-0.615591 281:-0.814016 282:0.376517 283:-0.809773 284:0.736204 285:-0.399006 286:-0.187879 287:0.151159 288:-0.551294 289:-0.369865 290:-0.0669509 291:-0.0176713 292:-0.351049 293:-0.38326 294:0.317316 295:-0.308314 296:0.152899 297:-0.122063 298:0.0690127 299:-0.324026 300:-0.254025 301:-0.139311 302:0.573929 303:-0.385201 304:-0.682119 305:-0.179688 306:-0.118033 307:0.0480755 308:-0.241446 309:-0.456286 310:-0.232182 311:0.243328 312:-0.368631 313:-0.017331 314:0.186751 315:0.0150754 316:-0.69969 317:-0.472779 318:-0.424415 319:-0.225682 320:-0.237516 321:-0.278543 322:-0.0481507 323:0.328146 324:-0.275235 325:-0.100314 326:0.33968 327:-0.220564 328:-0.809524 329:-0.582609 330:0.0873826 331:-0.547271 332:0.506046 333:-0.425319 334:-0.251351 335:-0.0593676 336:-0.310277 337:-0.249852 338:0.128111 339:-0.0113837 340:-0.963875 341:-0.974522 342:0.297925 343:-0.642482 344:0.479664 345:-0.108122 346:0.113006 347:-0.0788355 348:-0.586908 349:0.134048 350:-0.154966 351:0.104605 352:-0.957704 353:-0.908918 354:-0.23167 355:-0.416508 356:0.540016 357:0.0388397 358:0.260419 359:-0.166154 360:-0.686864 361:0.57873 362:-0.214271 363:0.598369 364:-0.571429 365:-0.552581 366:-0.285366 367:0.219593 368:-0.0222852 369:-0.153216 370:0.143096 371:-0.201711 372:-0.709216 373:0.469282 374:-0.349589 375:0.409435 376:-0.586837 377:-0.903448 378:-0.515092 379:0.0816283 380:-0.283304 381:-0.439747 382:0.0573402 383:0.290203 384:-0.891167 
4.261187514037714 5.01323804600737 0 0 0 0 1:-0.662075 2:-0.997063 3:-0.66119 4:-1 5:-1 6:-0.565461 7:-0.163839 8:0.0155685 9:-0.855192 10:-0.596433 11:-0.419087 12:-0.752415 13:0.5161 14:0.384372 15:0.0648616 16:-0.252841 17:-0.483787 18:0.493561 19:0.00610727 20:0.236158 21:-0.422118 22:-0.22073 23:-0.376218 24:-0.284376 25:-0.0399513 26:0.0103169 27:-0.0156642 28:-0.199295 29:-0.522556 30:0.0344165 31:0.174558 32:-0.235835 33:-0.319368 34:0.00590228 35:-0.0627571 36:-0.340017 37:0.13025 38:0.389464 39:-0.247794 40:-0.409583 41:-0.200613 42:-0.075533 43:0.0584204 44:-0.147332 45:-0.199461 46:-0.0347208 47:0.556678 48:-0.576293 49:-0.397882 50:-0.0807296 51:-0.210397 52:-0.296898 53:-0.721774 54:-0.188819 55:0.00559871 56:-0.46974 57:-0.25854 58:0.124432 59:-0.0913546 60:-0.678198 61:0.0275259 62:-0.666789 63:0.552854 64:-0.724349 65:-0.141732 66:-0.361438 67:0.00168805 68:-0.603011 69:0.576284 70:0.673346 71:0.0778052 72:-0.675995 73:0.575698 74:0.398587 75:0.362503 76:-0.403685 77:-0.95549 78:0.623437 79:0.0515145 80:0.429293 81:-0.0269818 82:0.0613723 83:0.0368714 84:-0.329105 85:-0.0688205 86:-0.391376 87:0.249058 88:-0.444149 89:-0.373406 90:-0.32543 91:0.0710838 92:-0.384062 93:-0.295312 94:-0.0181232 95:0.176276 96:-0.401358 97:-0.535356 98:-0.157834 99:-0.0758071 100:-0.466328 101:-0.736 102:-0.227865 103:0.118799 104:-0.365145 105:-0.127275 106:-0.0714077 107:0.099888 108:-0.545143 109:0.518178 110:0.517167 111:-0.0487325 112:-0.797277 113:-0.580894 114:0.488949 115:-0.154466 116:0.655938 117:-0.268128 118:-0.0722801 119:0.229085 120:-0.570103 121:-0.354828 122:-0.0118348 123:-0.181546 124:-0.541547 125:-0.914894 126:-0.347056 127:-0.0497219 128:-0.348249 129:-0.0207327 130:0.218811 131:0.283898 132:-0.695922 133:-0.145533 134:0.10511 135:-0.308378 136:-0.586207 137:-0.487572 138:0.474604 139:0.199843 140:0.219567 141:-0.625578 142:-0.41148 143:0.234017 144:-0.258599 145:-0.472263 146:-0.0965952 147:-0.0222211 148:-0.944732 149:-0.545455 150:-0.484424 151:0.182757 152:-0.454268 153:-0.00309922 154:0.216002 155:-0.201286 156:-0.769676 157:0.92973 158:-0.913043 159:0.924933 160:-1 161:0.101695 162:-0.419001 163:-0.466365 164:0.266261 165:-0.607934 166:-0.390891 167:0.324414 168:0.0777074 169:0.153892 170:-1 171:0.411944 172:-0.498233 173:-1 174:-0.221978 175:-0.190658 176:-0.0212576 177:-0.449433 178:-0.160988 179:-0.559752 180:-0.88959 181:0.577817 183:0.577817 184:-0.935115 185:-1 186:-0.700338 187:-0.1445 188:-0.29779 189:-0.707325 190:-0.208263 191:-0.600723 192:-0.901678 193:-0.710128 194:0.623718 195:-0.640386 196:-0.997386 197:-1 198:0.635062 199:0.83146 200:-0.709372 201:-0.863317 202:-0.63442 203:-0.0383051 204:-0.817848 205:-0.275677 206:0.0970796 207:-0.129085 208:-0.981928 209:-0.888048 210:-0.36626 211:0.116168 212:-0.337782 213:-0.55153 214:-0.35413 215:-0.559548 216:-0.35513 217:0.158947 218:0.457987 219:-0.101017 220:-0.437014 221:-0.199295 222:0.0269557 223:-0.312502 224:0.0979344 225:-0.304143 226:-0.0576656 227:0.293343 228:-0.565834 229:0.0906257 230:0.453753 231:-0.103036 232:-0.962025 233:-0.387944 234:-0.15267 235:0.0215732 236:-0.0365252 237:-0.2882 238:-0.0953453 239:0.249945 240:-0.425983 241:-0.285 242:-0.065355 243:-0.092476 244:-0.487627 245:-0.408547 246:0.0917196 247:-0.635185 248:0.326648 249:-0.399406 250:-0.145721 251:0.190181 252:-0.347235 253:0.456663 254:-0.662837 255:0.652212 256:-0.908962 257:-0.455604 258:-0.0294213 259:-0.302836 260:0.0254375 261:0.797278 262:0.849416 263:-0.191326 264:-0.607338 265:-0.281901 266:-0.59383 267:0.384195 268:-0.634551 269:-0.178082 270:0.0431893 271:-0.499178 272:0.541357 273:0.104011 274:0.290012 275:-0.120774 276:-0.264547 277:-0.0915124 278:0.509724 279:-0.236253 280:-0.521505 281:-0.245283 282:0.106804 283:-0.668513 284:0.367276 285:-0.322154 286:-0.103951 287:0.0397388 288:-0.62086 289:-0.0877484 290:0.0176624 291:0.0935797 292:-0.98042 293:-0.38326 294:0.490007 295:-0.290327 296:0.0938356 297:-0.154538 298:0.0382919 299:-0.2794 300:-0.440651 301:-0.249021 302:0.389994 303:-0.333629 304:-0.850993 305:0.00390625 306:0.236442 307:-0.313526 308:0.428435 309:-0.393616 310:-0.16903 311:-0.050477 312:-0.418984 313:0.0643751 314:0.397978 315:-0.060728 316:-0.739938 317:-0.223496 318:-0.0688613 319:-0.360287 320:-0.0253614 321:-0.339175 322:-0.112232 323:0.38146 324:-0.470358 325:0.0838009 326:0.20699 327:-0.0376389 328:-0.585253 329:-0.22029 330:0.129752 331:-0.518427 332:0.456023 333:-0.0383734 334:0.143552 335:-0.0739501 336:-0.470998 337:-0.460384 338:0.0446626 339:-0.0874262 340:-0.152709 341:-0.791932 342:0.153429 343:-0.424013 344:0.00749809 345:-0.0509268 346:0.169349 347:-0.042368 348:-0.659739 349:0.140304 350:-0.371576 351:0.234735 352:-0.398792 353:-1 354:-0.761149 355:0.0392801 356:-0.530531 357:-0.479414 358:-0.246151 359:-0.721838 360:0.133343 361:0.00707552 362:0.0927814 363:0.097446 364:-0.953668 365:-0.862333 366:0.242611 367:0.296363 368:0.102585 369:-0.477863 370:-0.184739 371:-0.19315 372:-0.7204 373:0.57622 374:-0.578616 375:0.577418 376:-0.945155 377:-0.947586 378:-0.515092 379:0.124333 380:-0.330822 381:-0.66415 382:-0.181375 383:0.391038 384:-0.820226 
0.1243224985795695 1.452143359430346 0 8.712048642019347 0 0 1:-0.697524 2:-0.708906 3:-0.697768 4:-0.840731 5:-0.987952 6:-0.383004 7:-0.0445429 8:-0.167602 9:-0.774179 10:-0.552663 11:-0.499665 12:-0.81528 13:-0.135059 14:0.651043 15:-0.640297 16:-0.448864 17:-0.800259 18:0.00661327 19:0.426981 20:-0.357428 21:-0.986368 22:-0.864836 23:-0.0779454 24:-0.326161 25:-0.0685893 26:-0.0385031 27:0.00944584 28:-0.386243 29:-0.860902 30:0.164575 31:0.686548 32:-0.362939 33:-0.000348371 34:0.434072 35:0.177033 36:-0.823006 37:-0.459972 38:-0.434926 39:-0.0893874 40:-0.42813 41:-0.779479 42:-0.453177 43:0.500298 44:-0.808788 45:0.230916 46:0.511157 47:0.0104513 48:-0.941935 49:-0.441083 50:0.306953 51:-0.599968 52:-0.376662 53:-0.653226 54:-0.316701 55:-0.106132 56:-0.349748 57:-0.591021 58:-0.321201 59:0.620086 60:-0.808708 61:-0.832553 62:-0.191808 63:-0.476125 64:-0.81317 65:-0.484252 66:-0.511165 67:-0.471413 68:-0.309687 69:-0.412358 70:-0.157971 71:0.15198 72:-0.856214 73:-0.557854 74:0.296912 75:-0.560269 76:-0.966499 77:-0.931751 78:0.0342556 79:0.20556 80:-0.113412 81:-0.517599 82:-0.35105 83:-0.22829 84:-0.703493 85:-0.510713 86:-0.446601 87:-0.0169639 88:-0.978723 89:-0.653916 90:-0.838047 91:-0.589796 92:-0.179653 93:-0.0111167 94:0.206509 95:0.197991 96:-0.562615 97:-0.0511236 98:-0.331298 99:0.473313 100:-0.908513 101:-0.352 102:-0.418395 103:-0.488432 104:0.172152 105:0.175099 106:0.32074 107:0.605568 108:-0.389699 109:-0.905613 110:-0.248977 111:-0.419642 112:-0.76702 113:-0.645609 114:-0.744111 115:-0.0257018 116:-0.530069 117:-0.183117 118:-0.061185 119:-0.194463 120:-0.775542 121:-0.315622 122:-0.0130506 123:-0.146913 124:-0.621777 125:-0.338491 126:-0.124923 127:-0.663196 128:0.398501 129:-0.318689 130:-0.0573428 131:-0.0463513 132:-0.32361 133:0.387969 134:-0.0211304 135:0.126255 136:-0.668966 137:-0.426386 138:-0.187083 139:-0.0817923 140:-0.0185345 141:-0.256515 142:-0.0265822 143:1 144:0.834171 145:-0.250527 146:0.611974 147:-0.305964 148:-0.668394 149:-0.429091 150:0.315104 151:-0.0947435 152:0.365045 153:-0.363569 154:-0.0796335 155:0.157233 156:-0.84958 157:0.0486486 158:-0.434783 159:0.0214475 160:-0.754123 161:-0.986441 162:-0.503898 163:-0.4163 164:0.0380641 165:-0.787341 166:-0.670554 167:0.203341 168:0.0640386 169:0.885289 170:0.39815 171:0.576949 172:-0.487633 173:-0.963235 174:0.711963 175:0.478349 176:0.0485339 177:0.51304 178:0.738819 179:-0.723198 180:-0.955795 181:0.721997 183:0.721997 184:-0.438931 185:-1 186:0.467863 187:0.141524 188:0.188843 189:0.470659 190:0.711565 191:-0.936708 192:-0.984069 193:-0.681576 194:0.612901 195:-0.617455 196:-0.837908 197:-0.741127 198:0.634313 199:0.486881 200:-0.382547 201:-0.767465 202:-0.467852 203:0.138606 204:-0.85703 205:-0.474991 206:0.879445 207:-0.713815 208:-0.76506 209:-0.824508 210:0.45673 211:0.109238 212:-0.169357 213:-0.938574 214:-0.892798 215:0.0770449 216:-0.37566 217:0.0408425 218:0.0172635 219:0.0760981 220:-0.623639 221:-0.555556 222:0.0375512 223:0.171855 224:-0.391941 225:-0.266946 226:-0.0151254 227:0.0934022 228:-0.34501 229:0.145574 230:0.211634 231:0.0761008 232:-0.873418 233:-0.805255 234:-0.0710111 235:0.482482 236:-0.551055 237:-0.150185 238:0.0512577 239:0.166403 240:-0.362786 241:-0.858943 242:0.666156 243:-0.770563 244:-0.737991 245:-0.832479 246:0.614886 247:-0.27843 248:0.139044 249:-0.617634 250:-0.394238 251:-0.200927 252:-0.888187 253:-0.224485 254:0.077049 255:-0.145183 256:-0.852063 257:-0.979622 258:-0.150055 259:0.0769036 260:-0.322384 261:-0.436215 262:-0.198245 263:-0.342036 264:-0.358506 265:-0.879871 266:0.416947 267:-0.649832 268:-0.780731 269:-0.621005 270:-0.180298 271:-0.315025 272:0.264154 273:-0.31419 274:-0.105812 275:-0.317196 276:-0.831843 277:-0.144314 278:0.0864288 279:0.00127362 280:-0.5 281:-0.87062 282:-0.0487702 283:-0.0994058 284:-0.31491 285:-0.1462 286:0.0872358 287:-0.493521 288:-0.752051 289:0.0219268 290:-0.381783 291:0.428654 292:-0.865734 293:-0.729809 294:-0.110766 295:-0.147276 296:-0.162397 297:0.489794 298:0.612857 299:-0.545378 300:-0.153477 301:-0.544954 302:0.678098 303:-0.676519 304:-0.821192 305:-0.8125 306:-0.651578 307:-0.0424707 308:-0.151156 309:-0.686275 310:-0.514035 311:-0.203054 312:-0.407415 313:-0.351944 314:0.0170791 315:-0.0904991 316:-0.616099 317:-0.575931 318:-0.92307 319:-0.318714 320:-0.205418 321:-0.0521742 322:0.169886 323:-0.0216748 324:-0.622013 325:0.778237 326:-0.09031 327:0.527434 328:-0.597542 329:-0.57971 330:-0.59989 331:-0.311335 332:-0.00280578 333:0.350632 334:0.492586 335:0.123081 336:0.066207 337:-0.323149 338:0.406153 339:-0.265715 340:-0.80624 341:-0.447983 342:-0.561136 343:-0.873397 344:0.585919 345:-0.29002 346:-0.0655438 347:0.154317 348:-0.580404 349:-0.11975 350:0.0453769 351:-0.154655 352:-0.767372 353:-0.685009 354:-0.258058 355:-0.369276 356:0.43922 357:-0.651985 358:-0.465986 359:-0.285291 360:-0.116064 361:0.458166 362:-0.497087 363:0.696716 364:-0.459459 365:-0.724665 366:0.590242 367:0.113377 368:0.279666 369:0.726967 370:0.821641 371:-0.210372 372:-0.835614 373:0.644253 374:-0.604965 375:0.624609 376:-0.477148 377:-0.787586 378:0.0106289 379:-0.153156 380:0.176194 381:0.46647 382:0.711293 383:0.264342 384:-0.937898 
2.765845954261762 15.53784682922272 0 4.045603269542873 7.600041491443203 5.749464547979692 1:-0.556327 2:-0.875838 3:-0.555959 4:-0.963446 5:-0.404819 6:-0.603765 7:-0.158417 8:-0.114612 9:-0.837034 10:-0.609338 11:-0.0614753 12:-0.41545 13:0.00689123 14:-0.331283 15:0.205739 16:-0.346591 17:-0.483787 18:-0.223498 19:-0.0320744 20:-0.224406 21:0.0923109 22:0.282574 23:-0.599585 24:-0.246581 25:-0.472292 26:0.123299 27:-0.383238 28:-0.379189 29:-0.909774 30:0.196159 31:0.268061 32:-0.123378 33:-0.416123 34:-0.0897317 35:-0.264213 36:-0.557971 37:-0.281442 38:0.154621 39:-0.40452 40:-0.301391 41:-0.761103 42:-0.0935452 43:0.454307 44:-0.511889 45:-0.708867 46:-0.369837 47:0.00615331 48:-0.568072 49:-0.199422 50:0.11679 51:-0.276769 52:-0.908419 53:-0.443548 54:-0.217175 55:-0.284653 56:-0.142105 57:-0.260365 58:0.0225325 59:0.433506 60:-0.816952 61:-0.721877 62:0.0133826 63:-0.561087 64:-0.344564 65:-0.492126 66:-0.234114 67:-0.0722169 68:-0.360458 69:-0.484858 70:-0.286681 71:0.342363 72:-0.762203 73:-0.783496 74:-0.301449 75:-0.187232 76:-0.18258 77:-0.48368 78:-0.559761 79:0.0535605 80:-0.45443 81:0.135671 82:0.185559 83:-0.0866886 84:-0.829851 85:-0.491408 86:0.525669 87:-0.776828 88:-0.5 89:-0.839709 90:0.0642153 91:0.00635817 92:0.0317945 93:-0.794567 94:-0.645421 95:-0.192633 96:-0.683941 97:-0.571067 98:-0.132876 99:-0.12849 100:-0.484117 101:-0.532 102:-0.230914 103:0.0148193 104:-0.196013 105:-0.12671 106:-0.101788 107:0.14442 108:-0.58563 109:-0.697629 110:-0.346751 111:-0.169304 112:-0.561271 113:-0.688752 114:-0.510404 115:0.079821 116:-0.423816 117:-0.459936 118:-0.33251 119:-0.387345 120:-0.333541 121:-0.379212 122:0.366776 123:-0.526793 124:-0.366762 125:-0.528046 126:-0.107054 127:0.165075 128:-0.312151 129:-0.645245 130:-0.322227 131:0.484656 132:-0.212674 133:-0.655619 134:-0.698544 135:-0.108502 136:-0.772414 137:-0.797323 138:-0.238303 139:0.318222 140:-0.451339 141:0.124538 142:0.340103 143:-0.0179386 144:-0.670019 145:0.177684 146:0.178844 147:0.368406 148:-0.816926 149:-0.389091 150:0.0701594 151:0.120981 152:0.0121202 153:-0.437409 154:-0.202289 155:0.61711 156:0.193738 157:0.459459 158:-1 159:0.463807 160:-0.898051 161:-0.166102 162:0.0851086 163:-0.385897 164:0.305732 165:0.331422 166:0.318217 167:-0.420116 168:-0.792013 169:0.79892 170:0.835578 171:0.380379 172:-0.572438 173:-0.231618 174:0.264903 175:-0.217556 176:0.275765 177:0.249092 178:0.466766 179:-0.504094 180:-0.925994 181:0.450951 183:0.450951 184:-0.538168 185:-1 186:-0.0919955 187:-0.15847 188:0.0613134 189:-0.17015 190:0.296245 191:-0.866147 192:-0.977538 193:-0.573638 194:0.472269 195:-0.4732 196:-0.963399 197:-0.941545 198:0.631655 199:0.723214 200:-0.623893 201:-0.841733 202:-0.593521 203:-0.0565838 204:-0.541387 205:-0.362006 206:0.0354062 207:-0.144392 208:-0.376506 209:-0.918306 210:-0.0594196 211:0.111992 212:-0.282877 213:-0.424297 214:-0.208444 215:-0.372297 216:-0.670376 217:0.340049 218:0.0367603 219:0.245286 220:-0.782271 221:-0.527337 222:-0.0910272 223:-0.157866 224:-0.0923012 225:0.020311 226:0.25218 227:0.586766 228:-0.365743 229:-0.451585 230:0.784934 231:-0.630504 232:-0.876582 233:-0.459042 234:-0.118085 235:0.037616 236:-0.042212 237:-0.68708 238:-0.551623 239:0.307849 240:-0.425612 241:0.540014 242:0.272303 243:0.141753 244:-0.930131 245:-0.94188 246:0.021114 247:-0.397242 248:0.0298848 249:0.0812435 250:0.3162 251:0.483517 252:-0.589453 253:-0.76967 254:0.0410126 255:-0.375597 256:-0.624467 257:-0.377001 258:-0.0134009 259:-0.27647 260:0.107272 261:-0.652277 262:-0.460676 263:-0.705169 264:-0.129443 265:-0.233642 266:-0.418797 267:0.309739 268:-0.784053 269:-0.83105 270:-0.0403252 271:-0.114491 272:-0.0537677 273:0.554808 274:0.666096 275:-0.097953 276:-0.282598 277:-0.540256 278:0.584491 279:-0.545278 280:-0.836022 281:-0.733154 282:-0.129936 283:-0.589534 284:0.256859 285:-0.519055 286:-0.319587 287:-0.21325 288:-0.873874 289:-0.189415 290:0.371179 291:-0.205714 292:-0.725874 293:-0.894273 294:0.37411 295:-0.142574 296:-0.129954 297:-0.373273 298:-0.183186 299:0.00955559 300:-0.391012 301:-0.33768 302:0.661669 303:-0.550279 304:-0.65894 305:-0.15625 306:0.150284 307:0.00705181 308:-0.117277 309:-0.54389 310:-0.334302 311:-0.108135 312:-0.635416 313:-0.339043 314:0.642444 315:-0.456645 316:-0.504644 317:-0.82235 318:-0.158911 319:-0.337266 320:0.00532905 321:-0.409852 322:-0.188659 323:0.563511 324:-0.618448 325:0.56053 326:-0.184719 327:0.465593 328:-0.563748 329:-0.455072 330:-0.0364715 331:-0.1827 332:-0.0681999 333:0.775193 334:0.835665 335:-0.249785 336:-0.62458 337:0.629547 338:0.199675 339:0.511778 340:-0.83908 341:-0.481953 342:-0.120717 343:-0.562174 344:0.259895 345:0.00753976 346:0.220717 347:0.640231 348:0.564536 349:0.163539 350:-0.122432 351:0.102103 352:-0.92145 353:-0.863378 354:-0.215071 355:-0.48986 356:0.65753 357:-0.0194337 358:0.209302 359:-0.131449 360:-0.530514 361:0.65506 362:-0.231404 363:0.651247 364:-0.552124 365:-0.732314 366:-0.16264 367:0.0430672 368:0.273311 369:0.0896037 370:0.356086 371:-0.182639 372:-0.707332 373:0.450979 374:-0.427405 375:0.439192 376:-0.564899 377:-0.693793 378:-0.515092 379:-0.0886232 380:0.0180545 381:-0.168043 382:0.289387 383:0.314076 384:-0.927907 
6.308694082045384 30.28466065166667 2.754361478613269 32 10.81281462725953 19.33363371969802 1:-0.812953 2:-0.778767 3:-0.81288 4:-0.704961 5:-0.990361 6:-0.077963 7:-0.091452 8:0.0177264 9:-0.696144 10:-0.438492 11:-0.889477 12:-0.973863 13:-0.183292 14:0.0290531 15:-0.211799 16:-0.602273 17:-0.789883 18:-0.237465 19:-0.18225 20:-0.132349 21:-0.589044 22:-0.428309 23:-0.279973 24:-0.316042 25:-0.469346 26:0.222614 27:-0.46865 28:-0.601411 29:-0.530075 30:-0.118894 31:0.296732 32:-0.272088 33:-0.301302 34:-0.0102761 35:-0.00432046 36:-0.890634 37:-0.28653 38:-0.306981 39:-0.0461472 40:-0.50541 41:-0.617152 42:-0.278297 43:0.449049 44:-0.531995 45:0.501329 46:0.666321 47:-0.0320465 48:-0.859913 49:-0.133085 50:0.695932 51:-0.780311 52:-0.521418 53:-0.983871 54:0.341782 55:0.199524 56:-0.0776 57:-0.789184 58:-0.488747 59:0.554648 60:-0.822738 61:-0.435427 62:0.0183565 63:-0.351566 64:-0.883614 65:-0.633858 66:-0.0600833 67:-0.326738 68:0.009038 69:-0.176278 70:0.041665 71:0.254924 72:-0.864513 73:-0.338349 74:0.350138 75:-0.413876 76:-0.969849 77:-0.928783 78:-0.0606477 79:-0.16844 80:0.106104 81:-0.144261 82:-0.0374712 83:-0.0841696 84:-0.886011 85:-0.106284 86:0.0273048 87:-0.110264 88:-0.56117 89:-0.613843 90:0.107325 91:0.00356613 92:0.124782 93:-0.0973551 94:0.0845912 95:-0.152295 96:-0.702592 97:-0.451581 98:-0.143977 99:-0.0247542 100:-0.931385 101:-0.804 102:-0.260889 103:-0.136772 104:-0.0839784 105:-0.229782 106:-0.185997 107:0.161453 108:-0.457113 109:-0.467223 110:0.0233263 111:-0.339493 112:-0.909228 113:-0.848998 114:-0.366471 115:-0.319398 116:-0.0516354 117:-0.471108 118:-0.273634 119:0.118674 120:-0.648389 121:-0.118215 122:0.0609556 123:-0.0411722 124:-0.547278 125:-0.655706 126:0.0307558 127:0.0807756 128:-0.0278293 129:0.5763 130:0.696105 131:0.38025 132:-0.731749 133:-0.783063 134:0.0627533 135:-0.699121 136:-0.988506 137:-0.609943 138:-0.283829 139:-0.286355 140:0.0256144 141:-0.783864 142:-0.569402 143:0.369045 144:-0.397648 145:-0.815325 146:0.344257 147:-0.626171 148:-0.398964 149:-0.756364 150:-0.443991 151:0.103131 152:-0.380182 153:-0.687385 154:-0.501278 155:-0.00900536 156:-0.791525 157:-0.143243 158:-0.260869 159:-0.179625 160:-0.70015 161:-0.454237 162:-0.204357 163:-0.243207 164:-0.011814 165:-0.619524 166:-0.496675 167:-0.315011 168:-0.606065 169:0.462067 170:0.535163 171:0.203424 172:-0.611307 173:-0.783088 174:-0.175864 175:0.344217 176:-0.35502 177:-0.183966 178:0.138929 179:-0.176939 180:-0.787681 181:0.333645 183:0.333645 184:-0.515267 185:-1 186:-0.496019 187:0.508089 188:-0.623592 189:-0.291246 190:0.227197 191:-0.717944 192:-0.955836 193:-0.77071 194:0.711622 195:-0.72653 196:-0.699346 197:-0.974948 198:0.638231 199:-0.0112041 200:0.0415781 201:-0.769425 202:-0.468871 203:-0.0823169 204:-0.937634 205:-0.463812 206:0.743718 207:-0.626453 208:-0.753012 209:-0.782148 210:-0.364361 211:0.137357 212:-0.416121 213:-0.702995 214:-0.544268 215:0.0560223 216:-0.835122 217:0.18594 218:0.174452 219:0.0749345 220:-0.953344 221:-0.594356 222:-0.0133052 223:0.0181601 224:-0.116143 225:-0.204146 226:0.0438666 227:0.0649237 228:-0.147927 229:-0.278206 230:0.529581 231:-0.371774 232:-0.566456 233:-0.931994 234:-0.0692209 235:0.028276 236:-0.00515694 237:-0.451958 238:-0.27168 239:-0.00185374 240:-0.553177 241:-0.97306 242:0.208903 243:-0.584123 244:-0.679767 245:-0.6 246:-0.240146 247:-0.49876 248:0.283159 249:-0.666038 250:-0.461633 251:-0.721444 252:-0.20734 253:-0.129725 254:0.00621236 255:-0.0550856 256:-0.937411 257:-0.944687 258:-0.250536 259:-0.00916544 260:-0.112892 261:-0.0805595 262:0.153093 263:-0.168378 264:-0.632298 265:-0.155192 266:0.289857 267:-0.0722892 268:-0.940199 269:-0.945205 270:-0.252419 271:0.012717 272:-0.0545716 273:-0.163246 274:0.0506645 275:0.318637 276:-0.116316 277:-0.535369 278:0.644375 279:-0.580388 280:-0.75 281:-0.978437 282:0.36066 283:-0.250268 284:0.126826 285:-0.379323 286:-0.158639 287:-0.110463 288:-0.87371 289:0.00961133 290:-0.243594 291:0.328028 292:-0.874126 293:-0.920705 294:0.362135 295:0.183208 296:-0.384071 297:-0.17675 298:0.0267952 299:-0.231081 300:0.46076 301:-0.780404 302:0.21076 303:-0.521223 304:-0.943709 305:-0.820313 306:-0.0746579 307:0.302561 308:-0.348217 309:-0.73075 310:-0.565561 311:-0.924064 312:0.298079 313:-0.606679 314:0.52643 315:-0.552869 316:-0.873065 317:-0.750716 318:-0.0127273 319:-0.323047 320:0.144118 321:-0.505703 322:-0.297158 323:-0.0616213 324:-0.696849 325:-0.485933 326:0.333206 327:-0.428901 328:-0.732719 329:-0.86087 330:-0.0074562 331:0.145115 332:-0.218476 333:-0.394465 334:-0.208841 335:-0.455674 336:-0.685643 337:-0.43001 338:0.55463 339:-0.445908 340:-0.760263 341:-0.740977 342:-0.00844698 343:0.235386 344:-0.534245 345:-0.420267 346:-0.19141 347:0.123917 348:-0.593262 349:-0.416444 350:0.0265406 351:-0.30981 352:-0.712991 353:-0.616698 354:-0.128741 355:-0.561129 356:0.680422 357:-0.320581 358:-0.0830911 359:-0.365885 360:-0.700241 361:0.0574148 362:-0.196918 363:0.295714 364:-0.656371 365:-0.583174 366:-0.154313 367:-0.330734 368:0.446081 369:-0.148392 370:0.153435 371:-0.349206 372:-0.664951 373:0.316765 374:-0.254547 375:0.285656 376:-0.561243 377:-0.622069 378:-0.515092 379:-0.128667 380:-0.076642 381:-0.433696 382:0.0637373 383:0.277002 384:-0.888085 
0 6.660447018197239 0 0 0 0 1:-0.693688 2:-0.673451 3:-0.694073 4:-0.861619 5:-0.506024 6:0.0430687 7:-0.030648 8:0.0528846 9:-0.646186 10:-0.377276 11:-0.85755 12:-0.953 13:-0.30776 14:-0.242768 15:-0.104784 16:-0.471591 17:-0.618677 18:-0.730667 19:0.116231 20:-0.676719 21:-0.524489 22:-0.33244 23:-0.187035 24:0.106121 25:-0.503633 26:-0.489378 27:0.135497 28:-0.499118 29:-0.556391 30:-0.491843 31:-0.104178 32:-0.331971 33:0.126196 34:0.337716 35:0.0820044 36:-0.636868 37:-0.328759 38:-0.230208 39:-0.14145 40:-0.802164 41:-0.7366 42:-0.231273 43:0.112585 44:-0.283975 45:-0.401782 46:-0.25098 47:0.0122346 48:-0.529093 49:-0.526133 50:0.138951 51:-0.493329 52:-0.577548 53:-0.358871 54:-0.440043 55:0.0390144 56:-0.539379 57:-0.305143 58:0.0297048 59:0.439834 60:-0.917973 61:-0.613803 62:-0.373789 63:-0.164484 64:-0.522205 65:-0.46063 66:-0.074308 67:0.271536 68:-0.456343 69:-0.138196 70:0.131871 71:-0.503231 72:-0.491863 73:-0.470271 74:-0.552908 75:0.336954 76:-0.59799 77:-0.94362 78:-0.204707 79:0.26428 80:-0.338374 81:0.403417 82:0.419309 83:-0.624271 84:-0.325708 85:-0.110253 86:0.374118 87:-0.388926 88:-0.462766 89:-0.428051 90:-0.107718 91:0.0909297 92:-0.118065 93:-0.404272 94:-0.182516 95:0.241973 96:-0.681992 97:0.0575121 98:-0.178228 99:0.404165 100:-0.550191 101:-0.76 102:0.00374799 103:0.447191 104:-0.432158 105:0.26034 106:0.359236 107:0.304631 108:-0.562071 109:-0.689534 110:-0.670994 111:0.140195 112:-0.645991 113:-0.460709 114:-0.391402 115:-0.489667 116:0.0974078 117:-0.320368 118:-0.0090824 119:-0.849992 120:0.411661 121:0.0880163 122:0.0212367 123:0.169557 124:-0.610315 125:-0.705996 126:0.155028 127:-0.0575474 128:0.126612 129:-0.0428401 130:0.154128 131:0.195952 132:-0.0631324 133:0.539869 134:-0.278167 135:0.397208 136:-0.685057 137:-0.365201 138:0.567218 139:-0.280246 140:0.766395 141:0.289332 142:0.486361 143:-0.0915286 144:-0.12931 145:-0.0891377 146:0.380847 147:-0.00574015 148:-0.841105 149:-0.323636 150:0.396476 151:-0.216406 152:0.519457 153:-0.0949947 154:0.213615 155:0.0760493 156:-0.787771 157:0.356756 158:-1 159:0.36193 160:-0.571214 161:-0.874576 162:0.312729 163:-0.0878497 164:0.0660356 165:-0.266434 166:-0.141158 167:-0.317076 168:-0.606359 169:0.730229 170:0.472344 171:0.433045 172:-0.777385 173:-0.639706 174:0.345852 175:-0.0218366 176:0.172441 177:0.530906 178:0.666694 179:-0.611154 180:-0.988635 181:0.881724 183:0.881724 184:-0.744275 185:-1 186:0.379846 187:-0.10544 188:0.299877 189:0.685357 190:0.832786 191:-0.904873 192:-0.982909 193:-0.779152 194:0.481175 195:-0.598466 196:-0.803922 197:-0.778706 198:0.628009 199:0.204054 200:-0.0369536 201:-0.705924 202:-0.375654 203:-0.182821 204:-0.942189 205:-0.587055 206:0.553789 207:-0.587777 208:-0.554217 209:-0.585477 210:-0.0965019 211:0.23187 212:-0.474732 213:-0.970951 214:-0.948178 215:-0.18846 216:-0.153268 217:-0.251828 218:-0.0223422 219:-0.077828 220:-0.912908 221:-0.319224 222:-0.333112 223:0.437693 224:-0.775199 225:-0.192723 226:0.0628602 227:-0.304354 228:-0.667098 229:-0.550504 230:0.398796 231:-0.457621 232:-0.721519 233:-0.66306 234:-0.0904223 235:0.25731 236:-0.279656 237:-0.446457 238:-0.26335 239:-0.163401 240:-0.529409 241:0.0273377 242:0.225619 243:-0.0907632 244:-0.813683 245:-0.85641 246:0.213382 247:-0.154771 248:-0.102983 249:-0.232317 250:0.0322114 251:-0.265462 252:-0.40825 253:0.379423 254:0.00294999 255:0.184061 256:-0.829303 257:-0.848617 258:-0.180679 259:-0.2796 260:0.144022 261:-0.125508 262:0.108591 263:-0.20978 264:-0.264724 265:0.683037 266:-0.00574793 267:0.687194 268:-0.960133 269:-0.812785 270:0.0599457 271:-0.169359 272:0.164856 273:0.321741 274:0.478133 275:0.542273 276:0.503653 277:-0.590478 278:0.633411 279:-0.605569 280:-0.768817 281:-0.997305 282:0.231464 283:-0.364355 284:0.127865 285:-0.555734 286:-0.357871 287:-0.233288 288:-0.891999 289:0.054785 290:0.463746 291:-0.122459 292:-0.846154 293:-0.876652 294:0.33407 295:-0.140234 296:-0.0523111 297:0.157373 298:0.331288 299:0.327619 300:-0.697261 301:-0.517279 302:0.860899 303:-0.773361 304:-0.834437 305:-0.984375 306:-0.0642325 307:-0.0164223 308:-0.044277 309:-0.698241 310:-0.529399 311:0.00592227 312:-0.811977 313:-0.267217 314:-0.322118 315:0.164864 316:-0.408669 317:-0.7851 318:-0.198042 319:-0.175918 320:-0.132842 321:-0.0223035 322:0.198895 323:-0.216829 324:-0.329299 325:-0.332052 326:0.263438 327:-0.301295 328:-0.486943 329:-0.6 330:-0.261158 331:-0.330511 332:0.13908 333:-0.168077 334:0.0187428 335:-0.130806 336:-0.660768 337:-0.136384 338:0.5484 339:-0.248875 340:-0.865353 341:-0.549894 342:-0.320809 343:-0.578398 344:0.25801 345:-0.23063 346:-0.0064443 347:0.314069 348:-0.60743 349:0.237712 350:0.52226 351:-0.233233 352:-0.589124 353:-0.647059 354:-0.0743138 355:-0.548598 356:0.740859 357:-0.462068 358:-0.235457 359:0.334938 360:-0.431144 361:0.172051 362:-0.218376 363:0.372621 364:-0.710425 365:-0.755258 366:-0.473147 367:-0.0347527 368:0.156386 369:0.173615 370:0.423344 371:-0.258129 372:-0.808832 373:0.856605 374:-0.889849 375:0.873226 376:-0.835466 377:-0.809655 378:-0.515092 379:-0.426604 380:0.419724 381:0.447412 382:0.702183 383:0.256166 384:-0.922302 
0 0 2.065075206668323 0 0 0 1:-0.63515 2:-0.921646 3:-0.634574 4:-0.673629 5:-0.992771 6:-0.717908 7:0.176507 8:-0.61373 9:-0.906073 10:-0.798199 11:-0.0332588 12:-0.273449 13:-0.536293 14:-0.460282 15:-0.119219 16:-0.78125 17:-0.481193 18:-0.762815 19:-0.0127206 20:-0.632407 21:-0.567887 22:-0.398 23:-0.456628 24:0.0251709 25:-0.548842 26:-0.374041 27:0.00612419 28:-0.111111 29:-0.484962 30:-0.43575 31:0.00373213 32:-0.379896 33:-0.0795239 34:0.166359 35:0.114811 36:-0.699887 37:-0.159195 38:0.165331 39:-0.311619 40:-0.27357 41:-0.819296 42:-0.0700012 43:0.631277 44:-0.683131 45:-0.81027 46:-0.250709 47:0.602583 48:-0.421081 49:-0.583178 50:0.156951 51:-0.544398 52:-0.246677 53:-0.451613 54:-0.595985 55:-0.403368 56:-0.283943 57:-0.4438 58:-0.154344 59:0.73438 60:-0.840812 61:-0.537665 62:-0.165502 63:-0.277725 64:-0.574273 65:-0.511811 66:-0.378285 67:-0.0449666 68:-0.53819 69:-0.3061 70:-0.0910128 71:0.418874 72:-0.771842 73:-0.437621 74:-0.224901 75:0.0504889 76:-0.524288 77:-0.655786 78:-0.630834 79:-0.170884 80:-0.280822 81:-0.0382594 82:0.060871 83:0.178631 84:-0.537743 85:-0.254155 86:0.634763 87:-0.697194 88:-0.468085 89:-0.57377 90:0.224999 91:0.144574 92:0.022456 93:-0.789825 94:-0.552618 95:0.200223 96:-0.756754 97:-0.110914 98:0.282303 99:-0.187765 100:-0.750953 101:-0.544 102:-0.0748642 103:-0.0896107 104:0.0591961 105:-0.515486 106:-0.4683 107:0.954053 108:-0.186522 109:-0.052506 110:-0.307025 111:0.286329 112:-0.688351 113:-0.263482 114:-0.414683 115:-0.138986 116:-0.141115 117:-0.353938 118:-0.184828 119:0.1442 120:-0.0998984 121:1 122:0.197779 123:0.799717 124:-0.710602 125:-0.957447 126:0.652844 127:0.100077 128:0.287461 129:0.91435 130:1 131:0.630275 132:-0.159651 133:0.0794917 134:-0.0615828 135:-0.0495228 136:-0.781609 137:-0.189293 138:0.321933 139:-0.269477 140:0.634238 141:-0.107519 142:0.19878 143:-0.10253 144:-0.489009 145:0.294589 146:0.60078 147:0.185997 148:-0.350604 149:-0.978182 150:0.991952 151:-0.0681799 152:0.895664 153:0.250522 154:0.476243 155:0.112737 156:-0.78951 157:-0.0378379 158:-1 159:-0.0294907 160:-0.811094 161:-1 162:0.422561 163:-0.28144 164:0.330114 165:-0.235151 166:-0.122214 167:-0.748945 168:-0.933765 169:0.930258 170:0.613702 171:0.549008 172:-0.660777 173:-0.0514706 174:0.519566 175:0.0936243 176:0.169642 177:0.684944 178:0.783708 179:-0.627411 180:-0.966062 181:0.922689 183:0.922689 184:-0.278626 185:-1 186:0.499782 187:0.0970783 188:0.229206 189:0.710171 190:0.844382 191:-0.922678 192:-0.983361 193:-0.562846 194:0.748712 195:-0.626437 196:-0.667974 197:-0.478079 198:0.631051 199:0.784324 200:-0.707675 201:-0.921134 202:-0.758121 203:0.748517 204:-0.338011 205:-0.1115 206:0.29647 207:-0.148751 208:-0.394578 209:-0.757943 210:-0.0886203 211:0.121198 212:-0.302561 213:-0.68618 214:-0.522045 215:-0.195342 216:-0.359032 217:-0.149862 218:0.278304 219:-0.185764 220:-0.548989 221:-0.477954 222:0.0743032 223:-0.0827965 224:-0.179571 225:-0.180819 226:0.0672923 227:0.0992238 228:-0.743548 229:-0.976158 230:0.587394 231:-0.828679 232:-0.509494 233:-0.839258 234:-0.0189005 235:0.00842354 236:0.0237826 237:-0.863277 238:-0.790268 239:-0.225303 240:-0.538184 241:-0.710286 242:0.53086 243:-0.623808 244:-0.577875 245:-0.97265 246:-0.150764 247:-0.288334 248:-0.216192 249:-0.524553 250:-0.278697 251:-0.114626 252:-0.623286 253:0.120079 254:0.107217 255:-0.00435678 256:-0.786629 257:-0.388646 258:-0.159662 259:-0.0772964 260:-0.270611 261:-0.397064 262:-0.157076 263:0.0154966 264:-0.217337 265:-0.311861 266:-0.424826 267:0.259552 268:-0.438538 269:-0.493151 270:0.0936518 271:-0.132574 272:-0.00705633 273:0.200451 274:0.380661 275:-0.323587 276:-0.386424 277:-0.414378 278:0.78493 279:-0.598939 280:-0.658602 281:-0.436658 282:0.0334846 283:-0.618066 284:0.331977 285:-0.687087 286:-0.526001 287:0.187046 288:-0.812617 289:-0.899108 290:0.707541 291:-0.856292 292:-0.535664 293:-0.380323 294:0.134713 295:-0.124878 296:-0.23896 297:-0.896127 298:-0.831234 299:-0.456493 300:-0.45496 301:-0.464601 302:0.48751 303:-0.514359 304:-0.68543 305:-0.167969 306:-0.145804 307:0.0023868 308:-0.193341 309:-0.629446 310:-0.438236 311:-0.392618 312:-0.493582 313:-0.285651 314:0.0690064 315:-0.0805384 316:-0.44582 317:-0.638968 318:-0.0349635 319:-0.746899 320:0.641717 321:0.0018884 322:0.219055 323:-0.105849 324:-0.781091 325:-0.0934929 326:0.208106 327:-0.135939 328:-0.689708 329:-0.373913 330:0.099657 331:-0.538602 332:0.495669 333:-0.162007 334:0.0235681 335:-0.068853 336:-0.587605 337:-0.115404 338:0.437192 339:-0.152613 340:-0.399015 341:-0.757962 342:-0.358824 343:-0.690044 344:0.406884 345:0.0528043 346:0.261391 347:0.248904 348:-0.630448 349:-0.198391 350:0.0308217 351:-0.19019 352:-0.827795 353:-0.218216 354:-0.177069 355:-0.558597 356:0.791916 357:-0.0625338 358:0.171809 359:-0.181359 360:-0.853889 361:0.451058 362:-0.587655 363:0.745883 364:-0.72973 365:-0.330784 366:-0.244376 367:0.00797069 368:0.329657 369:0.623283 370:0.754526 371:-0.24965 372:-0.8696 373:0.923846 374:-0.887802 375:0.905823 376:-0.316271 377:-0.45931 378:-0.515092 379:-0.23181 380:0.296811 381:0.627197 382:0.803715 383:0.263241 384:-0.935445 
3.07759862773688 2.929251038812809 0 3.785741924375824 8.809785891873025 4.166345758416256 1:-0.767064 2:-0.78987 3:-0.766963 4:-0.751958 5:-0.66747 6:-0.41476 7:-0.30342 8:0.0635868 9:-0.803016 10:-0.530082 11:-0.720799 12:-0.922564 13:-0.10332 14:0.316064 15:-0.36473 16:-0.505682 17:-0.958495 18:-0.258747 19:0.264847 20:-0.422168 21:-0.689361 22:-0.508497 23:0.0245931 24:-0.450292 25:-0.62127 26:0.452364 27:-0.764757 28:-0.446208 29:-0.954887 30:0.146851 31:0.156672 32:-0.0279252 33:-0.702516 34:-0.48548 35:0.0851449 36:-0.659836 37:-0.650652 38:-0.376476 39:-0.293329 40:-0.511592 41:-0.669219 42:-0.424908 43:0.233291 44:-0.550429 45:0.0153855 46:0.197392 47:-0.179222 48:-0.765378 49:-0.324009 50:-0.0497049 51:-0.195236 52:-0.462334 53:-0.508065 54:0.117591 55:-0.0707236 56:-0.0721836 57:-0.396711 58:-0.0959978 59:-0.23616 60:-0.413673 61:0.081257 62:-0.275803 63:0.273783 64:-0.623277 65:-0.385827 66:-0.10163 67:0.355229 68:-0.533434 69:0.0255577 70:0.295983 71:0.243521 72:-0.45685 73:-0.177768 74:-0.176069 75:0.237443 76:-0.621441 77:-0.908012 78:-0.203843 79:0.424094 80:-0.451209 81:0.243303 82:0.358327 83:-0.0691446 84:-0.693192 85:-0.371522 86:-0.435996 87:0.0722321 88:-0.837766 89:-0.6102 90:-0.293902 91:-0.337184 92:0.03678 93:-0.356508 94:-0.176797 95:-0.293907 96:-0.140179 97:-0.336084 98:0.0873901 99:-0.167025 100:-1 101:-0.808 102:-0.223943 103:-0.365047 104:0.175792 105:0.0632297 106:0.145501 107:0.45291 108:-0.826065 109:-0.17903 110:-0.293613 111:0.177134 112:-0.658094 113:-0.77812 114:-0.485688 115:0.0126062 116:-0.352977 117:0.455157 118:0.45337 119:-0.158382 120:-0.761818 121:-0.647004 122:0.0973321 123:-0.52541 124:-0.653295 125:-0.841393 126:-0.428313 127:0.401868 128:-0.627207 129:-0.481775 130:-0.0651524 131:0.18115 132:-0.830229 133:-0.416157 134:-0.225802 135:-0.265894 136:-0.772414 137:-0.98088 138:0.187926 139:0.807189 140:-0.443232 141:-0.245627 142:0.236401 143:-0.20108 144:-0.512654 145:-0.68196 146:-0.42195 147:0.0122066 148:-0.927461 149:-0.64 150:-0.548848 151:0.246672 152:-0.563288 153:-0.150761 154:0.0822874 155:-0.229562 156:-0.6201 157:0.256756 158:-0.652174 159:0.241287 160:-0.94003 161:-0.532203 162:-0.169732 163:-0.535326 164:0.293165 165:-0.551265 166:-0.368198 167:-0.011467 168:-0.289971 169:0.702178 170:-0.0388139 171:0.561187 172:-0.717314 173:-0.459559 174:0.0402511 175:-0.369377 176:0.21055 177:0.408323 178:0.598508 179:-0.464042 180:-0.941286 181:0.356479 183:0.356479 184:-0.664122 185:-1 186:-0.247819 187:-0.253499 188:-0.0116111 189:-0.17393 190:0.29801 191:-0.833024 192:-0.976261 193:-0.562561 194:0.783318 195:-0.646242 196:-0.746405 197:-0.59499 198:0.606179 199:0.429578 200:-0.363838 201:-0.77564 202:-0.480583 203:0.32772 204:-0.888042 205:-0.701631 206:0.56609 207:-0.664028 208:-0.939759 209:-0.95764 210:-0.0191855 211:0.163296 212:-0.361916 213:-0.781407 214:-0.651679 215:-0.00352801 216:-0.759076 217:-0.380625 218:0.756294 219:-0.59394 220:-0.962675 221:-0.978836 222:0.218649 223:-0.687735 224:0.677192 225:-0.640949 226:-0.441333 227:0.535059 228:-0.614388 229:-0.0963231 230:-0.303388 231:0.240192 232:-0.927215 233:-0.833076 234:-0.551066 235:0.0741422 236:-0.180799 237:0.0429361 238:0.227466 239:-0.133145 240:-0.154489 241:-0.351977 242:0.696117 243:-0.532001 244:-0.627365 245:-0.894017 246:-0.340894 247:-0.60103 248:0.335095 249:-0.372941 250:-0.118334 251:0.356833 252:-0.715556 253:0.578189 254:0.286706 255:0.0923971 256:-0.772404 257:-0.770015 258:0.0835169 259:-0.321461 260:0.286393 261:-0.1956 262:0.0411805 263:0.389122 264:-0.0415148 265:-0.169233 266:0.368901 267:-0.130604 268:-0.880399 269:-0.872146 270:0.134302 271:-0.532904 272:0.641875 273:-0.00857989 274:0.189113 275:0.388502 276:-0.385829 277:0.385943 278:0.416334 279:0.101315 280:-0.696237 281:-0.606469 282:-0.389333 283:-0.714456 284:0.428617 285:-0.00141031 286:0.206712 287:0.329986 288:-0.583318 289:-0.345278 290:0.36572 291:-0.295047 292:-0.874126 293:-0.565345 294:-0.327423 295:0.0980795 296:-0.528319 297:-0.162797 298:0.0397682 299:0.286557 300:-0.805643 301:-0.200198 302:0.426427 303:-0.328664 304:-0.831126 305:-0.738281 306:-0.00375779 307:-0.0693142 308:0.0522949 309:-0.302517 310:-0.0711198 311:0.215451 312:-0.552795 313:-0.616658 314:0.483476 315:-0.533347 316:-0.842105 317:-0.931232 318:0.380231 319:-0.250491 320:0.155854 321:-0.427487 322:-0.207807 323:-0.181396 324:-0.646667 325:-0.26941 326:0.253 327:-0.26039 328:-0.978495 329:-0.643478 330:-0.407724 331:0.155554 332:-0.451893 333:-0.243107 334:-0.0473741 335:-0.378699 336:-0.56594 337:-0.658909 338:-0.370209 339:0.0903078 340:-0.740558 341:-0.575372 342:-0.265854 343:0.0900876 344:-0.53613 345:-0.205862 346:0.0293599 347:-1 348:0.676199 349:0.100982 350:0.291952 351:-0.175175 352:-0.957704 353:-0.912713 354:-0.179055 355:-0.355888 356:0.454029 357:-0.325551 358:-0.0902596 359:-0.0881884 360:-0.498753 361:0.568234 362:-0.0720526 363:0.509012 364:-0.610039 365:-0.674952 366:-0.641657 367:0.0827983 368:-0.0536853 369:-0.0054067 370:0.274398 371:-0.292242 372:-0.640437 373:0.331833 374:-0.359356 375:0.345594 376:-0.963437 377:-0.751724 378:-0.515092 379:-0.182932 380:0.0454604 381:-0.0961237 382:0.344003 383:0.253793 384:-0.927003 
2.965272783848165 13.32145572296122 2.715282013635405 32 0.9801372388385271 6.814241371268201 1:0.0015094 2:-0.726616 3:0.00109061 4:-0.872063 5:-0.761446 6:0.230049 7:0.222588 8:-0.124292 9:0.0620143 10:0.298968 11:-0.279379 12:-0.690276 13:0.103253 14:-0.231628 15:0.205879 16:-0.548295 17:-0.51751 18:-0.152891 19:-0.0392312 20:-0.163229 21:0.0232668 22:0.219477 23:-0.447108 24:-0.566911 25:-0.643747 26:0.704285 27:-1 28:-0.738977 29:-1 30:0.253736 31:-0.157477 32:0.235952 33:-0.925758 34:-0.859639 35:0.257582 36:-0.802982 37:-0.179086 38:-0.212186 39:-0.0315636 40:-0.913447 41:-0.601838 42:0.0738488 43:0.0974299 44:-0.000760584 45:-0.0509995 46:0.110036 47:-0.373889 48:-0.521812 49:-0.308168 50:-0.189956 51:-0.0541741 52:-0.77548 53:-0.487903 54:0.0483252 55:-0.429021 56:0.16023 57:-0.574197 58:-0.301995 59:-0.526995 60:0.355923 61:-0.536803 62:-0.363492 63:-0.115476 64:-0.295559 65:-0.838583 66:-0.292844 67:-0.279698 68:-0.230691 69:-0.295781 70:-0.0760299 71:-0.00232823 72:-0.586554 73:-0.633964 74:-0.173999 75:-0.175322 76:-0.557789 77:-0.52819 78:-0.411702 79:-0.119838 80:-0.175897 81:-0.0434547 82:0.0441573 83:-0.2433 84:-0.662302 85:-0.220738 86:0.370038 87:-0.463176 88:-0.960106 89:-0.693989 90:0.157396 91:-0.359254 92:0.400733 93:-0.698028 94:-0.555589 95:-0.110925 96:-0.372889 97:-0.305483 98:0.0300767 99:-0.0858862 100:-1 101:-0.18 102:-0.266353 103:-0.287358 104:0.115552 105:0.1163 106:0.175374 107:0.299773 108:-0.819545 109:-0.310524 110:-0.320735 111:0.10206 112:-0.694402 113:-0.738059 114:-0.264691 115:-0.310191 116:0.102029 117:0.182525 118:0.334765 119:-0.275291 120:-0.649896 121:-0.487902 122:-0.630415 123:0.234369 124:-0.988539 125:-0.667311 126:-0.315673 127:-0.487076 128:0.13596 129:-0.257536 130:-0.0533114 131:-0.563579 132:0.372637 133:-0.30132 134:0.157829 135:-0.445852 136:-0.549425 137:-0.83174 138:0.0873277 139:0.0933731 140:0.0520779 141:-0.544555 142:-0.343942 143:0.275963 144:-0.478339 145:-0.62798 146:0.31705 147:-0.441245 148:-1 149:-0.556364 150:-0.180535 151:-0.162085 152:0.0869885 153:-0.733306 154:-0.454073 155:-0.101313 156:-0.677964 157:0.0432431 158:-0.73913 159:0.0348524 160:-0.943028 161:-0.735593 162:-0.0401134 163:-0.460505 164:0.319408 165:-0.118153 166:0.00614501 167:-0.485776 168:-0.822884 169:0.770251 170:0.341885 171:0.502902 172:-0.632509 173:-0.371324 174:-0.0562292 175:0.333922 176:-0.353515 177:0.0725673 178:0.384537 179:-0.357548 180:-0.915957 181:0.513963 183:0.513963 184:-0.59542 185:-1 186:-0.343453 187:0.403817 188:-0.536121 189:-0.464357 190:0.0813802 191:-0.827888 192:-0.971967 193:-0.0536669 194:-0.0757028 195:0.146983 196:-0.869281 197:-0.795407 198:0.618242 199:0.297417 200:-0.0407365 201:-0.219471 202:0.154346 203:-0.205076 204:-0.645808 205:-0.388344 206:0.0751458 207:-0.183849 208:-0.493976 209:-0.842663 210:-0.526567 211:0.0984382 212:-0.382734 213:-0.217 214:0.00867649 215:-0.135282 216:-1 217:-0.64158 218:0.709764 219:-0.724868 220:-0.542768 221:-0.795414 222:0.335568 223:-0.770313 224:0.861967 225:-0.802504 226:-0.662011 227:0.225274 228:-0.73325 229:0.907029 230:0.122706 231:0.590159 232:-0.927215 233:-0.962906 234:-0.0802118 235:-0.0131104 236:0.0374094 237:0.166631 238:0.338697 239:0.399215 240:0.0673096 241:-0.223311 242:0.388651 243:-0.303508 244:-0.609898 245:-0.558974 246:-0.0919819 247:-0.428608 248:0.100385 249:-0.483896 250:-0.237195 251:0.0888522 252:-0.345575 253:1 254:0.155255 255:0.374098 256:-0.40825 257:-0.901019 258:0.478855 259:-0.0667869 260:-0.0151849 261:0.101029 262:0.315876 263:0.1331 264:-0.331583 265:-0.127607 266:-0.568168 267:0.474718 268:-0.607973 269:-0.086758 270:0.207303 271:-0.12319 272:0.0868096 273:0.370996 274:0.520356 275:-0.409624 276:-0.207193 277:-0.506181 278:0.503026 279:-0.473773 280:-0.639785 281:-0.908356 282:0.0419338 283:-0.582459 284:0.321038 285:-0.437519 286:-0.227513 287:-0.0345354 288:-0.839443 289:-0.285097 290:0.400296 291:-0.282469 292:-0.395804 293:-0.929515 294:-0.0988491 295:0.045966 296:-0.51586 297:-0.186787 298:0.0174506 299:0.137051 300:-0.678459 301:0.139584 302:-0.0397793 303:0.148257 304:-0.264901 305:-0.597656 306:-0.0390274 307:0.195624 308:-0.401147 309:0.269444 310:0.460501 311:0.0194291 312:-0.306827 313:-0.249494 314:-0.68165 315:0.390924 316:-0.315789 317:-0.756447 318:0.00310333 319:-0.208701 320:-0.0853058 321:0.0296817 322:0.246215 323:-0.469798 324:-0.0442555 325:-0.344559 326:0.233301 327:-0.289659 328:-0.52381 329:-0.431884 330:0.0779809 331:-0.395108 332:0.300207 333:-0.344879 334:-0.163323 335:-0.202949 336:-0.497005 337:-0.484794 338:0.607853 339:-0.521297 340:-0.399015 341:-0.435244 342:-0.451588 343:-0.219655 344:-0.294551 345:-0.376221 346:-0.151952 347:0.632235 348:-0.689589 349:0.00446777 350:0.0804789 351:-0.105605 352:-0.960725 353:-0.912713 354:-0.189267 355:-0.510655 356:0.674439 357:-0.0392324 358:0.191308 359:-0.189204 360:-0.801862 361:0.598697 362:-0.265255 363:0.639494 364:-0.6139 365:-0.147228 366:-0.606067 367:0.266635 368:-0.205639 369:0.479015 370:0.649927 371:-0.194141 372:-0.840544 373:0.481953 374:-0.506669 375:0.494311 376:-0.6234 377:-0.702069 378:-0.515092 379:-0.0496576 380:-0.0826121 381:-0.276706 382:0.201931 383:0.228684 384:-0.924687 
1.611565914753588 0 0 0 0 0 1:-0.673784 2:-0.778795 3:-0.67376 4:-0.877285 5:-1 6:-0.0245106 7:0.000278465 8:-0.0251119 9:-0.544936 10:-0.259239 11:-0.808486 12:-0.964113 13:0.257289 14:-0.5243 15:0.544673 16:-0.71875 17:-0.86511 18:0.151047 19:0.527385 20:-0.28007 21:0.0835807 22:0.366448 23:-0.512014 24:-0.482724 25:-0.10241 26:0.111273 27:-0.143111 28:-0.365079 29:-0.744361 30:0.260349 31:0.00284552 32:0.145472 33:0.0326572 34:0.26202 35:-0.069434 36:-0.678103 37:-0.462108 38:0.0996527 39:-0.51107 40:-0.443586 41:-0.638591 42:-0.353304 43:0.140798 44:-0.410179 45:-0.465378 46:-0.318973 47:0.245331 48:-0.961307 49:0.053362 50:0.404869 51:-0.395543 52:-0.660266 53:-0.733871 54:0.113098 55:0.138773 56:-0.219345 57:-0.378944 58:-0.0177491 59:0.59073 60:-0.850148 61:-0.731179 62:-0.332029 63:-0.286086 64:-0.987749 65:-0.34252 66:-0.462352 67:0.0598516 68:-0.676701 69:-0.337033 70:-0.114358 71:0.206648 72:-0.57153 73:-0.272073 74:0.414132 75:-0.415823 76:-0.98325 77:-0.88724 78:-0.112468 79:0.0132353 80:-0.0616306 81:-0.337488 82:-0.216609 83:0.433675 84:-0.458958 85:-0.242332 86:-0.146691 87:-0.0672837 88:-0.494681 89:-0.486339 90:-0.568505 91:-0.0824487 92:-0.331937 93:0.0131886 94:0.174529 95:0.31085 96:-0.579679 97:-0.549071 98:0.439837 99:-0.685212 100:-0.982211 101:-0.328 102:0.0585419 103:0.0580422 104:0.00210822 105:-0.190569 106:-0.156814 107:0.278344 108:-0.985579 109:-0.00854459 110:0.0573597 111:-0.020955 112:-0.866868 113:-0.94453 114:0.00847742 115:0.169414 116:-0.0623727 117:-0.540516 118:-0.410561 119:-0.208625 120:-0.199892 121:-0.128208 122:0.105126 123:-0.0875745 124:-0.893983 125:-0.49323 126:-0.470658 127:-0.877363 128:0.272703 129:-0.119173 130:0.218841 131:0.625796 132:-0.329221 133:0.305556 134:0.103738 135:-0.0110383 136:-0.903448 137:-0.652008 138:0.00310665 139:-0.741345 140:0.64763 141:0.0439065 142:0.508698 143:0.719867 144:-0.302256 145:0.132191 146:0.540179 147:0.0828158 148:-0.841105 149:-0.676364 150:0.168703 151:-0.563316 152:0.597535 153:-0.165216 154:0.300384 155:0.559762 156:-0.658478 157:0.362162 158:-0.913043 159:0.36193 160:-0.55922 161:-0.99661 162:-0.209889 163:-0.24579 164:-0.0105517 165:-0.0364686 166:0.0372612 167:-0.284354 168:-0.683618 169:0.973861 170:1 171:0.469809 172:-0.848057 173:-0.477941 174:0.94778 175:0.0571492 176:0.497786 177:0.737421 178:0.810473 179:-0.835771 180:-0.960187 181:0.932381 183:0.932381 184:-0.832061 185:-1 186:0.559831 187:-0.435641 188:0.614887 189:0.380954 190:0.689815 191:-0.920395 192:-0.978728 193:-0.490513 194:0.42611 195:-0.397973 196:-0.636601 197:-0.803758 198:0.631758 199:0.12477 200:-0.0127425 201:-0.557179 202:-0.186477 203:0.126092 204:-0.901087 205:0.304629 206:-0.0990844 207:0.33664 208:-0.572289 209:-0.697428 210:-0.0952482 211:-0.0632692 212:-0.0897862 213:-0.0921187 214:0.130538 215:0.118792 216:-0.418881 217:0.305782 218:0.140677 219:0.166121 220:-0.698289 221:-0.481481 222:-0.0100232 223:0.14831 224:-0.305145 225:0.0452379 226:0.276239 227:0.0467492 228:-0.420559 229:-0.688321 230:0.0231828 231:-0.314604 232:-0.911392 233:-0.891808 234:-0.227588 235:0.385937 236:-0.432553 237:-0.338284 238:-0.143821 239:-0.335344 240:-0.474513 241:-0.644614 242:0.312993 243:-0.474704 244:-0.871907 245:-0.6 246:-0.171338 247:-0.20312 248:-0.0865144 249:-0.35944 250:-0.0987466 251:-0.240508 252:-0.761844 253:-0.104048 254:-0.268906 255:0.13546 256:-0.539118 257:-0.985444 258:0.0312418 259:0.375584 260:-0.543854 261:-0.267519 262:-0.015001 263:-0.310722 264:-0.184373 265:-0.553373 266:0.601722 267:-0.538564 268:-0.561462 269:-0.474886 270:0.0136182 271:0.165946 272:-0.207699 273:-0.303398 274:-0.0818075 275:0.192509 276:-0.68226 277:-0.71032 278:0.136104 279:-0.360214 280:-0.510753 281:-0.832884 282:-0.0310591 283:0.164489 284:-0.536486 285:-0.263254 286:-0.018724 287:-0.406411 288:-0.811907 289:-0.372708 290:0.237042 291:-0.22456 292:-0.80979 293:-0.506608 294:0.238129 295:0.107141 296:-0.383991 297:-0.385095 298:-0.1894 299:0.0921726 300:-0.344972 301:-0.214179 302:0.221627 303:-0.210627 304:-0.407285 305:-0.820313 306:0.230594 307:-0.0100176 308:0.0391042 309:-0.419832 310:-0.195296 311:0.0117737 312:-0.194196 313:-0.250362 314:0.486099 315:-0.308228 316:-0.44582 317:-0.968481 318:0.178087 319:0.0339278 320:-0.209981 321:-0.428291 322:-0.204219 323:0.280057 324:-0.578259 325:0.314489 326:0.326266 327:0.016064 328:-0.950845 329:-0.573913 330:0.0421937 331:0.0186537 332:-0.132162 333:-0.151545 334:0.0403463 335:0.188032 336:-0.196157 337:-0.511491 338:0.398603 339:-0.383532 340:-0.399015 341:-0.808917 342:0.068565 343:-0.404321 344:0.14647 345:-0.441289 346:-0.227519 347:0.371282 348:-0.549124 349:0.430741 350:-0.343323 351:0.380881 352:-0.570997 353:-0.442125 354:-0.170344 355:-0.611652 356:0.745126 357:0.50021 358:0.6421 359:-0.278518 360:-0.58933 361:0.575738 362:-0.578652 363:0.810547 364:-0.752896 365:-0.824092 366:-0.0798373 367:-0.235683 368:0.443655 369:0.583058 370:0.727806 371:-0.307016 372:-0.729535 373:0.632651 374:-0.755222 375:0.693938 376:-0.886654 377:-0.862069 378:-0.515092 379:-0.608369 380:0.604582 381:0.14833 382:0.518416 383:0.278089 384:-0.91746 
0 18.41718525014528 0 0 0 4.897495673337843 1:-0.458232 2:-0.885727 3:-0.45786 4:-0.362924 5:-0.219277 6:-0.176173 7:0.0812916 8:-0.174301 9:-0.565001 10:-0.285517 11:-0.36648 12:-0.753551 13:0.0577169 14:0.59798 15:-0.450925 16:-0.130682 17:-0.284047 18:-0.150328 19:-0.1636 20:-0.0529963 21:-0.659249 22:-0.516897 23:0.0269355 24:-0.775999 25:0.0928447 26:-0.412003 27:0.437728 28:0.0440917 29:-0.0789474 30:-0.474277 31:-0.0945387 32:-0.337592 33:0.165902 34:0.371513 35:0.316921 36:-0.491107 37:-0.45454 38:0.0801451 39:-0.489475 40:-0.919629 41:-0.497703 42:-0.426313 43:-0.293463 44:-0.0387561 45:-0.664123 46:-0.48042 47:0.2179 48:-0.688187 49:0.208281 50:-0.0565946 51:0.130187 52:-0.113737 53:-0.633065 54:-0.341752 55:-0.093703 56:-0.454528 57:-0.0547261 58:0.254156 59:0.444734 60:-0.78908 61:-0.455868 62:-0.0357359 63:-0.322654 64:-0.522205 65:-0.649606 66:-0.0177816 67:0.0344403 68:-0.291797 69:-0.378096 70:-0.139484 71:0.220841 72:-0.789966 73:-0.573571 74:-0.527937 75:0.219895 76:-0.98995 77:-0.587537 78:-0.78429 79:-0.0656382 80:-0.497389 81:-0.136819 82:-0.0375992 83:0.098528 84:-0.12847 85:-0.00211046 86:-0.255612 87:0.187855 88:-0.81117 89:0.100182 90:-0.584632 91:-0.457728 92:0.00457657 93:-0.351743 94:-0.10965 95:0.570643 96:0.0737757 97:0.0473995 98:-0.405191 99:0.623709 100:-0.878018 101:-0.72 102:-0.0788634 103:0.156654 104:-0.306283 105:-0.11227 106:-0.0366652 107:-0.190344 108:0.098524 109:-0.357491 110:-0.642933 111:0.367584 112:-0.0347958 113:-0.966102 114:-0.75566 115:0.318691 116:-0.908277 117:-0.22181 118:-0.0047286 119:-0.0244625 120:-0.409199 121:-0.559746 122:-0.453468 123:0.0212227 124:-0.630372 125:0.121857 126:-0.635827 127:-0.591409 128:0.104726 129:-0.258741 130:0.0519774 131:0.0455327 132:-0.606145 133:-0.0833294 134:-0.223552 135:-0.0486792 136:-0.694253 137:0.135755 138:-0.0947822 139:-0.000749701 140:0.0224649 141:0.140141 142:0.316257 143:0.446089 144:-0.576664 145:-0.0921214 146:-0.316705 147:0.464901 148:-0.516408 149:-0.756364 150:-0.333804 151:0.24891 152:-0.43095 153:-0.182827 154:0.0537611 155:0.481068 156:-0.321769 157:-0.0621623 158:-0.826087 159:-0.0643431 160:-0.154423 161:0.0949153 162:-0.188554 163:-0.138161 164:-0.16494 165:-0.692893 166:-0.566705 167:-0.291456 168:-0.516478 169:0.894991 170:0.54285 171:0.542061 172:-0.431095 173:0.172794 174:0.593324 175:-0.121516 176:0.409031 177:0.747463 178:0.813937 179:-0.60493 180:-0.972091 181:0.721997 183:0.721997 184:-0.492366 185:-1 186:0.277446 187:-0.0421667 188:0.220483 189:0.394506 190:0.666792 191:-0.906195 192:-0.9823 193:-0.448185 194:0.698891 195:-0.530663 196:-0.607843 197:-0.361169 198:0.644972 199:0.744159 200:-0.527744 201:-0.682136 202:-0.34471 203:0.327454 204:-0.835025 205:-0.416023 206:0.522516 207:-0.466283 208:-0.105422 209:-0.66112 210:0.0495533 211:0.0785838 212:-0.154359 213:-0.590067 214:-0.400248 215:-0.00315682 216:-0.91357 217:0.485013 218:-0.167708 219:0.44774 220:-0.489891 221:-0.883598 222:-0.120704 223:-0.228575 224:-0.0967979 225:-0.00614701 226:0.228571 227:0.0230035 228:-0.373664 229:0.056804 230:0.586917 231:-0.203739 232:-0.446203 233:-0.187017 234:-0.266753 235:0.0323021 236:-0.0851576 237:-0.419075 238:-0.235141 239:0.132783 240:-0.488376 241:0.0201595 242:-0.0451963 243:0.0499902 244:-0.0975255 245:-0.705983 246:-0.27003 247:-0.575573 248:0.10968 249:0.608446 250:0.728236 251:0.243503 252:-0.858161 253:-0.456333 254:0.470258 255:-0.508368 256:-0.940256 257:-0.761281 258:-0.285642 259:-0.416153 260:0.178369 261:-0.562888 262:-0.352045 263:-0.19013 264:-0.843308 265:0.228861 266:0.106642 267:0.305086 268:-0.837209 269:-0.378995 270:-0.186552 271:-0.221698 272:-0.0805182 273:0.200921 274:0.380748 275:0.285727 276:-0.209127 277:-0.439467 278:0.0307692 279:-0.135529 280:-0.16129 281:-0.296496 282:-0.186848 283:-0.593581 284:0.136569 285:-0.453076 286:-0.242647 287:-0.371732 288:-0.491609 289:-0.470424 290:0.196151 291:-0.255274 292:-0.406993 293:-0.39207 294:0.323628 295:-0.203293 296:-0.149587 297:-0.340014 298:-0.147494 299:-0.486706 300:-0.47086 301:-0.638611 302:0.444193 303:-0.58524 304:0.0298013 305:-0.964844 306:-0.0443999 307:-0.0226503 308:-0.245221 309:-0.595182 310:-0.394093 311:-0.328789 312:-0.520882 313:0.178247 314:-0.0894299 315:0.30134 316:-0.625387 317:-0.630372 318:0.0196723 319:-0.287182 320:-0.134729 321:-0.0675589 322:0.157951 323:0.0321466 324:-0.460236 325:-0.242385 326:0.303357 327:-0.276461 328:-0.907834 329:-0.171014 330:0.222727 331:-0.296503 332:0.0637926 333:-0.100586 334:0.0876876 335:-0.0793759 336:-0.663555 337:-0.0376665 338:0.248379 339:0.0384228 340:-0.596059 341:-0.549894 342:-0.124811 343:-0.455497 344:0.00639784 345:-0.135763 346:0.0885404 347:0.250639 348:-0.306016 349:0.0866844 350:0.257705 351:-0.163163 352:-0.65861 353:-0.552182 354:-0.151082 355:-0.364594 356:0.535283 357:-0.444844 358:-0.218464 359:0.0227032 360:-0.489621 361:0.410377 362:-0.573956 363:0.71502 364:-0.204633 365:-0.449331 366:-0.0827634 367:0.156109 368:0.284745 369:0.787028 370:0.862872 371:-0.302656 372:-0.886286 373:0.55108 374:-0.642455 375:0.596767 376:-0.806216 377:-0.591724 378:-0.515092 379:-0.0449921 380:0.0579609 381:0.343131 382:0.637903 383:0.231241 384:-0.939951 
0.7771317629789495 32 0 0 0.2050949562103804 0 1:-0.523293 2:-0.850802 3:-0.523036 4:-0.903394 5:-0.580723 6:-0.485579 7:-0.351773 8:0.0209562 9:-0.783008 10:-0.501616 11:-0.370557 12:-0.678748 13:0.304138 14:0.0132724 15:0.178339 16:-0.556818 17:-0.896239 18:0.0135017 19:0.850675 20:-0.524471 21:-0.300599 22:0.103791 23:-0.271776 24:-0.511882 25:-0.677165 26:0.182565 27:-0.562451 28:-0.84127 29:-0.785714 30:-0.0404251 31:0.297539 32:-0.21642 33:-0.419311 34:-0.13084 35:-0.0534497 36:-0.766786 37:-0.143842 38:-0.463055 39:0.194704 40:-0.567233 41:-0.684533 42:-0.308338 43:0.757808 44:-0.765503 45:0.160754 46:0.522989 47:-0.145503 48:-0.616142 49:0.216776 50:0.12141 51:-0.0317084 52:-0.518464 53:-0.657258 54:0.23695 55:0.247173 56:-0.179154 57:-0.398078 58:-0.0118008 59:0.396477 60:-0.649445 61:-0.705639 62:0.0329555 63:-0.564955 64:-0.500766 65:-0.484252 66:-0.0667582 67:0.451766 68:-0.520464 69:-0.398233 70:-0.086163 71:-0.128077 72:-0.911151 73:-0.0136174 74:0.123124 75:0.0971318 76:-0.691792 77:-0.964392 78:0.173413 79:0.347493 80:-0.070101 81:-0.192872 82:-0.024623 83:-0.245018 84:-0.339738 85:0.140869 86:0.0922115 87:0.011463 88:-0.728723 89:-0.803279 90:0.179759 91:-0.572458 92:0.5161 93:-0.294817 94:-0.0779419 95:-0.466857 96:-0.00623061 97:0.00776036 98:-0.201167 99:0.388583 100:-0.570521 101:-0.5 102:-0.31335 103:0.148637 104:-0.36622 105:0.557196 106:0.452856 107:0.253666 108:-0.485394 109:0.000540509 110:-0.0127246 111:0.0515455 112:-0.960666 113:-0.805855 114:-0.152488 115:-0.337219 116:0.132726 117:-0.0128173 118:0.146965 119:0.0478132 120:-0.556301 121:-0.673549 122:-0.2753 123:-0.228921 124:-0.667622 125:-0.864603 126:-0.532734 127:0.10315 128:-0.451216 129:-0.395823 130:-0.166046 131:-0.103032 132:-0.509019 133:-0.379142 134:0.278647 135:-0.577432 136:-0.641379 137:-0.678776 138:0.208815 139:0.717458 140:-0.294397 141:-0.609559 142:-0.215955 143:0.30051 144:-0.521491 145:-0.849197 146:-0.259833 147:-0.24639 148:-0.582038 149:-0.778182 150:-0.445332 151:0.193486 152:-0.445245 153:-0.526079 154:-0.307454 155:-0.421952 156:-0.318817 157:0.156757 158:-0.956522 159:0.160858 160:-0.931034 161:-0.610169 162:-0.211269 163:-0.874651 164:0.536799 165:-0.365759 166:-0.0784087 167:-0.147594 168:-0.550713 169:0.352698 170:0.233493 171:0.205965 172:-0.759717 173:-0.547794 174:-0.119766 175:0.0558213 176:-0.154238 177:-0.0172445 178:0.247242 179:-0.411471 180:-0.899416 181:0.285978 183:0.285978 184:-0.721374 185:-1 186:-0.368558 187:0.0543449 188:-0.284199 189:-0.318105 190:0.16401 191:-0.809259 192:-0.972931 193:-0.590526 194:0.486734 195:-0.49142 196:-0.900654 197:-0.849687 198:0.62733 199:0.315357 200:-0.318047 201:-0.735705 202:-0.419603 203:-0.0507147 204:-0.770519 205:0.232339 206:-0.152566 207:0.324913 208:-0.759036 209:-0.951589 210:-0.171491 211:-0.170735 212:-0.00919472 213:-0.163609 214:0.0627227 215:0.391068 216:-0.486158 217:0.0122956 218:0.00647711 219:0.0649835 220:-0.664075 221:-0.837743 222:0.394077 223:-0.379092 224:0.382149 225:-0.112476 226:0.129629 227:0.157482 228:-0.490528 229:-0.066093 230:-0.156699 231:0.170073 232:-0.810127 233:-0.76507 234:0.0764457 235:-0.0233277 236:0.0822221 237:0.24149 238:0.404065 239:-0.191907 240:-0.671567 241:-0.469882 242:0.0167988 243:-0.229092 244:-0.740902 245:-0.702564 246:0.414265 247:-0.477564 248:0.431428 249:-0.203325 250:0.0543432 251:-0.259424 252:-0.531963 253:-0.318645 254:0.228859 255:-0.287565 256:-0.758179 257:-0.644833 258:0.720158 259:-0.253556 260:0.429157 261:-0.38279 262:-0.148651 263:-0.269811 264:-0.49621 265:-0.341463 266:0.0837322 267:-0.0737951 268:-0.850498 269:-0.958904 270:0.434164 271:-0.213933 272:0.397679 273:0.0602754 274:0.25347 275:0.103968 276:-0.599788 277:0.251322 278:0.138819 279:0.198734 280:-0.747312 281:-0.725067 282:-0.151893 283:-0.327687 284:0.0804243 285:-0.155991 286:0.0664793 287:-0.171771 288:-0.253679 289:0.599574 290:0.0437915 291:0.48613 292:-0.888112 293:-0.829662 294:0.473662 295:0.178425 296:-0.350897 297:0.325211 298:0.483959 299:0.372143 300:0.209555 301:0.0399571 302:0.0617854 303:0.030012 304:-0.847682 305:-0.765625 306:0.130696 307:0.0430093 308:-0.0113019 309:-0.192367 310:0.0408483 311:-0.0432691 312:0.0735558 313:-0.570351 314:0.415917 315:-0.464272 316:-0.894737 317:-0.647564 318:-0.0191082 319:-0.111401 320:-0.068597 321:-0.291219 322:-0.0616402 323:0.0444696 324:-0.735319 325:-0.211116 326:0.524172 327:-0.394963 328:-0.686636 329:-0.73913 330:0.0633254 331:-0.527911 332:0.487783 333:-0.364131 334:-0.184763 335:0.0716785 336:-0.670864 337:0.12567 338:0.634914 339:-0.141345 340:-0.779967 341:-0.639066 342:0.340583 343:-0.253684 344:0.0712874 345:-0.342309 346:-0.118768 347:0.751332 348:0.0605643 349:-0.0151923 350:-0.0419519 351:-0.045045 352:-0.951662 353:-0.825427 354:-0.342281 355:-0.392098 356:0.405303 357:-0.00675142 358:0.218955 359:-0.255348 360:-0.54064 361:0.331014 362:-0.024245 363:0.347867 364:-0.667954 365:-0.655832 366:-0.147459 367:-0.196664 368:0.310702 369:-0.0233612 370:0.261813 371:-0.105477 372:-0.750358 373:0.144445 374:-0.288013 375:0.216229 376:-0.462523 377:-0.793103 378:-0.515092 379:-0.205883 380:0.0178966 381:-0.263708 382:0.213135 383:0.206473 384:-0.925227 
2.658545641355873 8.215130535421057 1.109614466503725 5.695251585723067 0 0 1:0.400305 2:-1 3:0.400829 4:-0.986945 5:-0.585542 6:0.0758007 7:-0.103544 8:0.255483 9:-0.258596 10:0.0566658 11:-0.0844151 12:-0.380854 13:0.346081 14:0.0906361 15:0.15294 16:-0.471591 17:-0.87808 18:0.318967 19:0.122161 20:0.00361538 21:-0.151793 22:0.0868938 23:-0.615066 24:-0.234194 25:0.0566092 26:0.0117821 27:0.0429775 28:-0.971781 29:-0.469925 30:-0.0239091 31:-0.165624 32:0.0515026 33:-0.111171 34:0.12943 35:0.294887 36:-0.460058 37:0.0277983 38:-0.139196 39:0.0825615 40:-0.931994 41:-0.699847 42:-0.263051 43:0.0888193 44:-0.350709 45:0.0300361 46:0.195318 47:0.249136 48:-0.649378 49:-0.0898096 50:-0.153869 51:0.0428178 52:-0.967504 53:-0.637097 54:0.189006 55:-0.338515 56:0.195 57:-0.0865543 58:0.190431 59:-0.24653 60:-0.522944 61:-0.140465 62:-0.132825 63:-0.00823834 64:-0.669219 65:-0.216535 66:-0.0308486 67:-0.308389 68:0.112937 69:-0.291901 70:-0.0562713 71:0.0483347 72:-0.573894 73:0.249967 74:0.264464 75:0.198363 76:-0.112228 77:-0.860534 78:0.441952 79:-0.0491684 80:0.418492 81:-0.114931 82:-0.0205374 83:0.0452086 84:-0.423981 85:-0.159123 86:-0.290539 87:0.105506 88:-0.928191 89:-0.0273224 90:0.152017 91:-0.353562 92:0.425345 93:-0.157658 94:0.0295049 95:-0.722727 96:-0.0959381 97:-0.0507424 98:-0.0207932 99:0.16253 100:-0.626429 101:-0.936 102:0.00299191 103:0.0210092 104:-0.0240769 105:0.0745444 106:0.0714095 107:0.214575 108:-0.587562 109:-0.416931 110:0.0809486 111:-0.354979 112:-0.443268 113:-0.531587 114:-0.263659 115:-0.0295833 116:-0.106261 117:-0.455585 118:-0.315311 119:-0.186392 120:-0.609926 121:-0.325979 122:-0.533617 123:0.290181 124:-0.690544 125:-0.632495 126:-0.624477 127:-0.267965 128:-0.282075 129:0.0168432 130:0.183199 131:-0.125009 132:-0.166235 133:0.0298127 134:0.124156 135:-0.205833 136:-0.643678 137:-0.728489 138:0.187888 139:0.0890703 140:0.134445 141:-0.475293 142:-0.266223 143:0.712985 144:0.326082 145:-0.570315 146:-0.171281 147:-0.0586707 148:-0.613126 149:-0.0690909 150:-0.136579 151:0.118815 152:-0.119419 153:-0.427808 154:-0.188763 155:-0.111769 156:-0.637162 157:1 158:-0.869565 159:0.991957 160:-0.484258 161:-0.989831 162:0.139872 163:-0.339461 164:0.302935 165:0.494375 166:0.420762 167:-0.130166 168:-0.54451 169:0.579545 170:-1 171:0.747116 172:-0.646643 173:-0.367647 174:-0.286424 175:0.00208857 176:-0.263159 177:-0.237294 178:0.0494407 179:-0.395138 180:-0.741722 181:0.599443 183:0.599443 184:-0.828244 185:-1 186:-0.628392 187:0.0153615 188:-0.422192 189:-0.51736 190:-0.0206559 191:-0.65313 192:-0.930746 193:0.432328 194:-0.29961 195:0.560277 196:-0.981699 197:-0.979123 198:0.62892 199:0.641226 200:-0.364322 201:-0.0113978 202:0.328586 203:0.0777969 204:-0.631333 205:0.117855 206:-0.553063 207:0.493956 208:-0.150602 209:-0.431165 210:-0.188346 211:0.0498537 212:-0.165131 213:-0.162618 214:0.062692 215:-0.744808 216:-0.349563 217:0.0886364 218:0.389978 219:-0.105048 220:-0.860031 221:-0.174603 222:-0.0413679 223:-0.49839 224:0.424628 225:-0.077223 226:0.162418 227:0.471944 228:-0.766036 229:0.11072 230:0.100951 231:0.121727 232:-0.949367 233:-0.755796 234:-0.240905 235:0.0828315 236:-0.162294 237:0.293838 238:0.449294 239:0.202609 240:-0.754207 241:-0.0246345 242:0.375441 243:-0.196719 244:-0.208151 245:-0.68547 246:-0.201613 247:-0.689568 248:0.377599 249:-0.341135 250:-0.0849013 251:0.502182 252:-0.559442 253:0.00228146 254:-0.0923731 255:0.0703656 256:-0.44239 257:-0.68559 258:0.0303595 259:-0.382779 260:0.224113 261:-0.0914002 262:0.140224 263:-0.453617 264:-0.573272 265:-0.228961 266:-0.168125 267:0.158707 268:-0.744186 269:0.260274 270:-0.0218589 271:-0.457811 272:0.448933 273:0.18875 274:0.363651 275:-0.16159 276:-0.504696 277:-0.342315 278:0.665342 279:-0.481121 280:-0.266129 281:-0.269542 282:-0.0754331 283:-0.686522 284:0.374739 285:-0.42027 286:-0.20958 287:0.211977 288:-0.798315 289:-0.151337 290:0.101716 291:-0.00110514 292:-0.966434 293:-0.362702 294:0.412314 295:-0.314563 296:0.145156 297:0.246164 298:0.406843 299:-0.297122 300:-0.514857 301:-0.493284 302:0.443873 303:-0.503611 304:-0.804636 305:-0.570313 306:0.152167 307:-0.109502 308:0.00529765 309:-0.418456 310:-0.193569 311:-0.217239 312:-0.74572 313:0.649982 314:0.0375878 315:0.51729 316:-0.693498 317:-0.687679 318:-0.000591678 319:-0.308497 320:-0.0705231 321:-0.0709525 322:0.153922 323:0.614864 324:0.0343524 325:-0.144557 326:0.253803 327:-0.192142 328:-0.907834 329:-0.42029 330:0.259554 331:-0.42739 332:0.341119 333:-0.216099 334:-0.0296418 335:-0.108761 336:-0.614297 337:0.307886 338:0.311329 339:0.218151 340:-0.136289 341:0.0870488 342:0.267868 343:-0.426984 344:0.0648581 345:-0.300675 346:-0.0754076 347:0.606151 348:0.290074 349:1 350:-0.778254 351:0.953954 352:-0.498489 353:-0.324478 354:-0.206728 355:-0.429736 356:0.617915 357:1 358:1 359:-0.213983 360:-0.550838 361:0.239832 362:-0.202087 363:0.401088 364:-0.687259 365:-0.621415 366:-0.139466 367:0.326757 368:-0.0795904 369:-0.157512 370:0.13837 371:-0.378158 372:-0.770363 373:0.608147 374:-0.529692 375:0.568919 376:-0.842779 377:-0.864828 378:-0.515092 379:0.103496 380:-0.292949 381:-0.397255 382:0.0966718 383:0.231255 384:-0.881288 
