svm_type c_svc
kernel_type rbf
gamma 0.00012207
nr_class 7
total_sv 369
rho 1.04421 -3.03808 -0.0581574 1.46728 -0.163235 -0.37002 -0.950382 -0.148267 -0.103208 2.10437 -0.27851 0.407059 1.52565 -0.0140318 1.09472 0.42421 0.376288 -1.38345 -0.651467 -2.53016 -0.15239
label 5 7 1 6 4 2 3
probA -3.95533 -1.71141 -3.57502 -2.41723 -3.97719 -3.60864 -3.89845 -3.28143 -4.57233 -3.17762 -4.27133 -3.80744 -3.53742 -4.01999 -4.00108 -3.9829 -2.10686 -3.80126 -3.95179 -3.70925 -3.8598
probB -0.141861 0.0341694 -0.132793 -0.078391 0.0164603 -0.110034 -0.309862 -0.00070655 0.340741 0.116008 0.420675 -0.0284863 0.130031 -0.0442243 0.211524 0.140311 0.0182357 -0.0874846 -0.0364693 -0.0703203 -0.171066
nr_sv 55 56 78 35 54 56 35
SV
206.1493061368354 204.8866293746428 47.36269023051439 278.8789141243896 60.38458917219336 86.18221848623615 1:-0.859803 2:-0.799791 3:-0.858691 4:-0.929504 5:-0.99759 6:-0.761808 7:0.083917 8:-0.503634 9:-0.9018 10:-0.767896 11:-0.377171 12:-0.785158 13:0.277193 14:-0.186923 15:0.284414 16:-0.693182 17:-0.647211 18:0.0108118 19:-0.479529 20:0.181357 21:-0.14382 22:0.0964199 23:-0.321206 24:-0.340043 25:0.0700215 26:0.126069 27:-0.107608 28:-0.807267 29:-0.877076 30:0.221871 31:-0.432543 32:0.372807 33:-0.357348 34:-0.030833 35:0.0596571 36:-0.442396 37:-0.133554 38:0.041226 39:-0.205076 40:-0.76507 41:-0.727412 42:-0.260833 43:-0.126969 44:0.00981503 45:-0.307677 46:-0.207636 47:-0.0193467 48:-0.442383 49:-0.279068 50:0.560546 51:-0.740781 52:-0.754801 53:-0.451613 54:0.248107 55:-0.24384 56:0.105792 57:-0.708752 58:-0.495418 59:0.235008 60:-0.752066 61:-0.50869 62:-0.12388 63:-0.290094 64:-0.54908 65:-0.492126 66:0.054808 67:-0.343898 68:0.0937713 69:-0.250829 70:-0.0384658 71:-0.242157 72:-0.572308 73:-0.479017 74:-0.140148 75:-0.145832 76:-0.852596 77:-0.908012 78:-0.234107 79:0.0615881 80:-0.189113 81:-0.187411 82:-0.0786383 83:-0.249852 84:-0.478275 85:-0.135712 86:0.334182 87:-0.362919 88:-0.941489 89:-0.796733 90:0.250042 91:-0.485607 92:0.526808 93:-0.668893 94:-0.499971 95:-0.278811 96:-0.434122 97:-0.141907 98:0.0593771 99:-0.0622552 100:-0.542567 101:-0.728 102:0.184072 103:0.334919 104:-0.111404 105:0.0834445 106:0.295612 107:0.0394798 108:-0.74364 109:-0.13898 110:-0.610805 111:0.5056 112:-0.549168 113:-0.84639 114:0.0684929 115:0.197834 116:-0.0305356 117:0.425643 118:0.460068 119:-0.73411 120:0.13795 121:-0.8775 122:-0.0777723 123:-0.574067 124:-0.679083 125:-0.876209 126:-0.436758 127:0.13653 128:-0.391236 129:-0.600222 130:-0.440499 131:-0.282596 132:-0.485448 133:-0.549597 134:0.338346 135:-0.726238 136:-0.586207 137:-0.577143 138:0.302067 139:0.192837 140:0.163515 141:-0.548906 142:-0.358888 143:-0.0666801 144:-0.704775 145:-0.369059 146:0.190909 147:-0.125591 148:-0.533679 149:-0.756364 150:-0.327518 151:0.0800317 152:-0.303007 153:-0.354107 154:-0.154802 155:-0.198737 156:-0.697612 157:-0.0540542 158:-0.956522 159:-0.0482574 160:-0.592204 161:-0.99661 162:-0.290982 163:0.174441 164:-0.406645 165:-0.515032 166:-0.26953 167:-0.166526 168:-0.534766 169:0.37634 170:0.366137 171:0.203197 172:-0.80212 173:-0.702206 174:-0.373234 175:-0.242776 176:-0.158649 177:-0.532568 178:-0.248352 179:-0.293693 180:-0.769178 181:0.0819673 183:0.0819673 184:-0.503817 185:-1 186:-0.782328 187:0.0116342 188:-0.524434 189:-0.819626 190:-0.403961 191:-0.635228 192:-0.925612 193:-0.760292 194:0.739145 195:-0.736325 196:-0.929319 197:-0.888 198:0.475922 199:0.676273 200:-0.656546 201:-0.893989 202:-0.696441 203:0.000106461 204:-0.764408 205:-0.665859 206:0.424468 207:-0.590968 208:-0.560241 209:-0.727685 210:0.0746175 211:0.0110265 212:-0.150365 213:-0.67221 214:-0.511986 215:0.0752035 216:-0.802111 217:-0.00928653 218:-0.389147 219:0.274818 220:-0.937792 221:-0.899213 222:-0.422742 223:-0.235324 224:0.101229 225:-0.227933 226:0.0189461 227:-0.22367 228:-0.434764 229:-0.546842 230:0.149786 231:-0.290969 232:-0.563291 233:-0.746522 234:-0.172215 235:0.384514 236:-0.265102 237:-0.180812 238:0.0142649 239:-0.103626 240:-0.798968 241:-0.815509 242:0.203286 243:-0.503007 244:-0.892285 245:-0.712821 246:0.0965008 247:-0.332509 248:0.156407 249:-0.492796 250:-0.247428 251:-0.140737 252:-0.540546 253:-0.594553 254:0.422971 255:-0.532712 256:-0.940762 257:-0.65407 258:-0.168033 259:-0.0808157 260:-0.0778146 261:-0.284825 262:-0.0342387 263:-0.368548 264:-0.936762 265:-0.340484 266:0.064412 267:-0.00489194 268:-0.910744 269:-0.672 270:-0.22277 271:-0.052733 272:-0.0677527 273:-0.119884 274:0.095758 275:0.278645 276:-0.572397 277:-0.495838 278:0.59452 279:-0.525738 280:-0.706989 281:-0.727763 282:-0.0516863 283:-0.630032 284:0.424613 285:-0.504445 286:-0.304621 287:0.114818 288:-0.896169 289:0.311862 290:-0.330548 291:0.481599 292:-0.860724 293:-0.853157 294:0.498553 295:-0.0290943 296:-0.206 297:0.383515 298:0.529491 299:0.197637 300:0.0135279 301:0.381995 302:0.293941 303:0.117997 304:-0.651163 305:-0.836938 306:0.0329198 307:-0.0497859 308:0.0788319 309:-0.0945341 310:0.13708 311:0.242943 312:-0.0577 313:-0.31185 314:0.318723 315:-0.26529 316:-0.603715 317:-0.911175 318:-0.27588 319:0.114527 320:-0.337875 321:-0.316648 322:-0.0858421 323:0.126985 324:-0.594694 325:-0.621105 326:0.115766 327:-0.289966 328:-0.745399 329:-0.675362 330:-0.275917 331:-0.366973 332:0.245727 333:-0.289674 334:-0.0699229 335:-0.437509 336:-0.562478 337:0.071594 338:0.442628 339:-0.138424 340:-0.569787 341:-0.429658 342:-0.333696 343:-0.185497 344:-0.117494 345:0.0579339 346:0.26847 347:0.61567 348:-0.404453 349:-0.17732 350:0.40839 351:-0.3804 352:-0.607251 353:-0.675214 354:-0.128034 355:-0.569173 356:0.707247 357:-0.556805 358:-0.322693 359:0.105222 360:-0.399932 361:-0.170584 362:0.343789 363:-0.188647 364:-0.799228 365:-0.510516 366:-0.158284 367:0.139992 368:0.115843 369:-0.486423 370:-0.193327 371:0.129896 372:-0.865044 373:0.0819675 374:-0.0819675 375:0.0819674 376:-0.531993 377:-0.635862 378:-0.433794 379:0.215724 380:-0.342334 381:-0.712451 382:-0.24343 383:0.258641 384:-0.882695 
57.38040697913451 176.0707809342313 0 197.9310221805236 151.1654743384338 68.60901984566219 1:-0.763154 2:-0.78987 3:-0.762164 4:-0.751958 5:-0.66747 6:-0.486921 7:-0.30342 8:0.0635868 9:-0.836386 10:-0.557659 11:-0.690735 12:-0.921513 13:-0.126361 14:0.131793 15:-0.275528 16:-0.505682 17:-0.958495 18:-0.258747 19:0.215745 20:-0.371063 21:-0.71293 22:-0.521935 23:0.0245931 24:-0.305953 25:-0.489336 26:0.441597 27:-0.764757 28:-0.50079 29:-0.960133 30:0.146851 31:0.273325 32:-0.103786 33:-0.702516 34:-0.48548 35:0.0779186 36:-0.659836 37:-0.650652 38:-0.385635 39:-0.293329 40:-0.511592 41:-0.669219 42:-0.591546 43:0.309192 44:-0.582965 45:0.0485767 46:0.197392 47:-0.179222 48:-0.765378 49:-0.324009 50:-0.0497049 51:-0.195236 52:-0.462334 53:-0.508065 54:0.191629 55:-0.0589515 56:-0.0721836 57:-0.396711 58:-0.0959978 59:-0.23616 60:-0.395873 61:0.081257 62:-0.275803 63:0.273783 64:-0.625767 65:-0.385827 66:-0.10163 67:0.294911 68:-0.486542 69:0.0255577 70:0.295983 71:0.3763 72:-0.565187 73:-0.177768 74:-0.192075 75:0.158339 76:-0.621441 77:-0.908012 78:-0.203843 79:0.424094 80:-0.451209 81:0.243303 82:0.358327 83:0.0435254 84:-0.678669 85:-0.371522 86:-0.403932 87:0.0722321 88:-0.837766 89:-0.604356 90:-0.293902 91:-0.337184 92:0.03678 93:-0.356508 94:-0.176797 95:-0.243552 96:-0.198154 97:-0.336084 98:0.112004 99:-0.247239 100:-1 101:-0.808 102:-0.249309 103:-0.365047 104:0.175792 105:-0.185751 106:0.0570021 107:0.474477 108:-0.853597 109:-0.17903 110:-0.293613 111:0.17905 112:-0.658094 113:-0.778802 114:-0.485688 115:0.0126062 116:-0.352977 117:0.494615 118:0.504681 119:-0.0473212 120:-0.761818 121:-0.647004 122:0.0912728 123:-0.522493 124:-0.653295 125:-0.841393 126:-0.428313 127:0.596929 128:-0.751782 129:-0.481775 130:-0.0647872 131:0.18115 132:-0.830229 133:-0.403612 134:-0.225802 135:-0.257115 136:-0.772414 137:-0.973333 138:0.186321 139:0.809139 140:-0.443232 141:-0.225406 142:0.230801 143:-0.173622 144:-0.573571 145:-0.68196 146:-0.42195 147:0.0122066 148:-0.927461 149:-0.64 150:-0.627464 151:0.0640465 152:-0.563288 153:-0.183776 154:0.0093726 155:-0.229562 156:-0.6201 157:0.256756 158:-0.652174 159:0.241287 160:-0.94003 161:-0.532203 162:-0.212001 163:-0.499186 164:0.284449 165:-0.530481 166:-0.30355 167:0.0612171 168:-0.201614 169:0.704454 170:-0.0388139 171:0.588392 172:-0.717314 173:-0.459559 174:0.0849779 175:-0.369377 176:0.21055 177:0.408323 178:0.619321 179:-0.512345 180:-0.941286 181:0.356479 183:0.356479 184:-0.664122 185:-1 186:-0.247819 187:-0.253499 188:-0.0116111 189:-0.220833 190:0.254931 191:-0.833024 192:-0.976261 193:-0.562561 194:0.783318 195:-0.646242 196:-0.748691 197:-0.612 198:0.448632 199:0.569656 200:-0.495113 201:-0.77564 202:-0.480583 203:0.382282 204:-0.888042 205:-0.749923 206:0.54504 207:-0.706943 208:-0.939759 209:-0.95764 210:-0.0191855 211:0.163296 212:-0.361916 213:-0.804704 214:-0.692255 215:-0.00352801 216:-0.699774 217:-0.380625 218:0.756294 219:-0.59394 220:-0.962675 221:-0.971654 222:0.218649 223:-0.686892 224:0.702411 225:-0.640949 226:-0.441333 227:0.535059 228:-0.798386 229:-0.0963231 230:-0.288629 231:0.240192 232:-0.927215 233:-0.833076 234:-0.551066 235:0.304187 236:-0.285586 237:0.0429361 238:0.227466 239:-0.015295 240:-0.154489 241:-0.351977 242:0.63709 243:-0.51808 244:-0.627365 245:-0.894017 246:-0.340894 247:-0.60103 248:0.335095 249:-0.372941 250:-0.118334 251:0.365377 252:-0.715556 253:0.578189 254:0.310468 255:0.0840414 256:-0.757405 257:-0.767442 258:0.0835169 259:-0.321461 260:0.263822 261:-0.251123 262:-0.00299946 263:0.389122 264:-0.138116 265:-0.169233 266:0.394036 267:-0.122515 268:-0.871074 269:-0.888 270:0.134302 271:-0.557398 272:0.641875 273:-0.0842862 274:0.12238 275:0.49179 276:-0.385829 277:0.385943 278:0.416334 279:0.101315 280:-0.696237 281:-0.606469 282:-0.389333 283:-0.714456 284:0.428617 285:-0.00141031 286:0.206712 287:0.449708 288:-0.583318 289:-0.361569 290:0.294716 291:-0.295047 292:-0.866295 293:-0.565345 294:-0.345511 295:0.0201787 296:-0.528319 297:-0.162797 298:0.0397682 299:0.301573 300:-0.805643 301:-0.200198 302:0.383333 303:-0.239054 304:-0.837209 305:-0.777038 306:-0.0974405 307:-0.0693142 308:0.0522949 309:-0.295323 310:-0.0601045 311:0.215451 312:-0.552795 313:-0.662871 314:0.441915 315:-0.565727 316:-0.842105 317:-0.931232 318:0.415534 319:-0.104431 320:0.124809 321:-0.427487 322:-0.207807 323:-0.181396 324:-0.646667 325:-0.26941 326:0.211273 327:-0.16691 328:-0.97546 329:-0.643478 330:-0.39163 331:0.247291 332:-0.454013 333:-0.155092 334:0.0738958 335:-0.378699 336:-0.56594 337:-0.623014 338:-0.370209 339:0.0903078 340:-0.740558 341:-0.619772 342:-0.240972 343:0.138328 344:-0.536625 345:-0.205862 346:0.0293599 347:-1 348:0.689775 349:-0.0371141 350:0.291952 351:-0.237091 352:-0.957704 353:-0.921368 354:-0.179055 355:-0.355888 356:0.454029 357:-0.287482 358:-0.0290661 359:-0.171021 360:-0.446922 361:0.712114 362:-0.0720526 363:0.509012 364:-0.610039 365:-0.674952 366:-0.611081 367:0.167054 368:0.00472083 369:-0.0054067 370:0.274398 371:-0.101629 372:-0.425311 373:0.331833 374:-0.359356 375:0.345594 376:-0.963437 377:-0.751724 378:-0.433794 379:0.013127 380:-0.0198714 381:-0.0514004 382:0.375017 383:0.253793 384:-0.927003 
29.10616052050414 0 0 111.667110604367 0 32.45590051225001 1:-0.566616 2:-0.887352 3:-0.56541 4:-0.908616 5:-1 6:-0.588801 7:-0.205673 8:-0.149372 9:-0.75157 10:-0.4625 11:-0.307889 12:-0.741276 13:0.220272 14:0.0291046 15:0.0661585 16:-0.849432 17:-0.699092 18:0.0307783 19:-0.188287 20:0.0356724 21:-0.161769 22:0.049704 23:-0.18716 24:-0.420112 25:-0.552687 26:-0.0193726 27:-0.39961 28:-0.535545 29:-0.857143 30:-0.116135 31:0.606401 32:-0.428819 33:-0.323681 34:0.0230756 35:-0.0631126 36:-0.830655 37:-0.118209 38:-0.610402 39:0.327126 40:-0.709428 41:-0.843798 42:-0.536201 43:0.593831 44:-0.67321 45:0.235114 46:0.432366 47:0.0748304 48:-0.588915 49:-0.368708 50:0.0607444 51:-0.325632 52:-0.654357 53:-0.830645 54:0.105554 55:0.295817 56:-0.330867 57:-0.555052 58:-0.172531 59:-0.00958831 60:-0.616937 61:0.0791053 62:-0.440459 63:0.406575 64:-0.886503 65:-0.681102 66:0.0908699 67:-0.191084 68:0.036718 69:0.325839 70:0.468067 71:0.0761087 72:-0.636337 73:-0.507538 74:-0.360143 75:0.0430503 76:-0.963149 77:-0.940653 78:-0.092783 79:0.163514 80:-0.140231 81:0.103426 82:0.168447 83:-0.350613 84:-0.367191 85:0.00597168 86:0.516854 87:-0.412167 88:-0.904255 89:-0.731397 90:0.228494 91:-0.232293 92:0.35231 93:-0.466614 94:-0.299128 95:-0.0416993 96:-0.66494 97:0.180116 98:0.408187 99:-0.161243 100:-0.639136 101:-0.592 102:0.24613 103:-0.0219781 104:0.257989 105:-0.588726 106:-0.475868 107:0.57126 108:-0.361985 109:-0.433008 110:-0.361576 111:0.0489218 112:-0.615734 113:-0.827957 114:-0.120501 115:0.160312 116:-0.151372 117:-0.423628 118:-0.274912 119:-0.718527 120:0.675355 121:-0.755597 122:0.208715 123:-0.715609 124:-0.530086 125:-0.647969 126:-0.255819 127:-0.190264 128:-0.0178755 129:-0.540198 130:-0.394977 131:0.0157163 132:-0.717691 133:-0.543926 134:0.121305 135:-0.579 136:-0.636782 137:-0.897143 138:0.0207615 139:0.598421 140:-0.339495 141:-0.562458 142:-0.261257 143:0.274679 144:-0.647944 145:-0.478548 146:-0.177829 147:0.0273119 148:-0.440415 149:-0.96 150:-0.45357 151:1 152:-0.908919 153:-0.102225 154:0.252939 155:-0.312301 156:-0.65924 157:0.262162 158:2.6087e-07 159:0.206434 160:-0.634183 161:-0.620339 162:-0.0862442 163:-0.0332746 164:-0.0958646 165:-0.123376 166:0.014132 167:-0.137247 168:-0.54771 169:0.509809 170:-0.131388 171:0.4594 172:-0.787986 173:-0.746324 174:-0.242086 175:-0.505437 176:0.0546266 177:0.00410028 178:0.314402 179:-0.162307 180:-0.787584 181:0.307225 183:0.307225 184:-0.919847 185:-1 186:-0.582663 187:-0.444276 188:-0.152143 189:-0.574089 190:-0.0409842 191:-0.714727 192:-0.952539 193:-0.504961 194:0.74002 195:-0.587586 196:-0.908377 197:-0.836 198:0.472468 199:0.454329 200:-0.458053 201:-0.753727 202:-0.446504 203:0.381663 204:-0.792515 205:-0.0894633 206:-0.0183889 207:0.00260127 208:-0.644578 209:-0.748865 210:0.0959632 211:-0.103345 212:-0.0396802 213:-0.0755425 214:0.138497 215:0.0550851 216:-0.707767 217:-0.297392 218:0.0830706 219:-0.164637 220:-0.944012 221:-0.987402 222:-0.0254792 223:0.450722 224:-0.384355 225:-0.259756 226:-0.00649389 227:-0.334195 228:-0.825316 229:-0.074586 230:-0.216277 231:0.21064 232:-0.835443 233:-0.715611 234:-0.0979674 235:0.742956 236:-0.578791 237:0.394509 238:0.537418 239:0.205042 240:-0.525485 241:-0.666973 242:0.908803 243:-0.828679 244:-0.950509 245:-0.982906 246:0.0489201 247:0.00100961 248:-0.135773 249:-0.623687 250:-0.399182 251:0.208929 252:-0.80098 253:0.337723 254:0.199726 255:0.0467473 256:-0.90409 257:-0.706395 258:0.150979 259:0.394746 260:-0.42205 261:0.0606124 262:0.295938 263:0.102216 264:-0.735011 265:-0.0786693 266:-0.779214 267:0.774307 268:-0.943802 269:-0.888 270:-0.00173917 271:0.43689 272:-0.452697 273:0.847277 274:0.88776 275:-0.167881 276:-0.326382 277:-0.484347 278:0.463668 279:-0.436095 280:-0.701613 281:-0.80593 282:0.26785 283:-0.267576 284:0.15403 285:-0.525928 286:-0.323331 287:-0.035505 288:-0.595975 289:-0.371171 290:0.181552 291:-0.232014 292:-0.980501 293:-0.947137 294:0.450991 295:-0.0820202 296:-0.0848893 297:-0.0441998 298:0.147926 299:0.0463149 300:-0.694436 301:-0.605682 302:0.510604 303:-0.526154 304:-0.770764 305:-0.510815 306:0.105941 307:0.193596 308:-0.129197 309:-0.333963 310:-0.0967827 311:-0.147265 312:-0.8391 313:-0.328304 314:0.488978 315:-0.373587 316:-0.718266 317:-0.951289 318:0.125908 319:0.445654 320:-0.485959 321:-0.375941 322:-0.142376 323:0.389572 324:-0.438617 325:-0.622402 326:0.21659 327:-0.349976 328:-0.957055 329:-0.843478 330:0.164663 331:0.370314 332:-0.249888 333:-0.233485 334:-0.00377562 335:-0.482743 336:-0.690819 337:-0.228149 338:0.404139 339:-0.271419 340:-0.786535 341:-0.69962 342:0.154099 343:0.161577 344:-0.329792 345:-0.0646495 346:0.162011 347:0.0296991 348:-0.66173 349:0.06701 350:-0.114727 351:0.066386 352:-0.652568 353:-0.579487 354:-0.226758 355:-0.686277 356:0.741655 357:0.152329 358:0.377405 359:-0.247302 360:-0.551651 361:-0.197432 362:-0.0938928 363:0.0544342 364:-0.953668 365:-0.6826 366:0.385117 367:0.220575 368:0.111578 369:-0.157275 370:0.138789 371:-0.557791 372:-0.654993 373:0.249598 374:-0.308801 375:0.279199 376:-0.937843 377:-0.936552 378:-0.433794 379:0.0786964 380:-0.178953 381:-0.530348 382:-0.0326007 383:0.224251 384:-0.882978 
225.6460559561012 0 26.05757204365663 214.8393337954234 13.6032557228508 51.38462198788081 1:-0.416362 2:-0.791455 3:-0.415664 4:-0.960836 5:-0.848193 6:-0.405908 7:-0.099907 8:0.035206 9:-0.675316 10:-0.339864 11:-0.294227 12:-0.717939 13:0.242422 14:-0.402657 15:0.43416 16:-0.366477 17:-0.948119 18:-0.145034 19:0.0871701 20:-0.305916 21:0.112877 22:0.339498 23:-0.356309 24:-0.527244 25:-0.26878 26:0.281614 27:-0.474163 28:-0.406003 29:-0.431894 30:0.323709 31:0.0770287 32:0.117258 33:-0.688333 34:-0.497212 35:0.0309396 36:-0.429052 37:0.148127 38:-0.267883 39:0.274795 40:-0.50541 41:-0.886677 42:-0.240738 43:0.155902 44:-0.238264 45:0.000271933 46:0.13601 47:0.112571 48:-0.520032 49:-0.255036 50:-0.206369 51:-0.006939 52:-1 53:-0.294355 54:0.160466 55:-0.305696 56:0.104408 57:-0.328175 58:-0.0434767 59:-0.588693 60:-0.00876177 61:-0.568468 62:-0.374148 63:-0.130387 64:-0.226994 65:-0.468504 66:-0.0214184 67:-0.529864 68:0.261893 69:-0.540706 70:-0.27969 71:-0.148398 72:-0.42635 73:0.00697209 74:-0.160836 75:0.283814 76:-0.145729 77:-0.275964 78:-0.0906337 79:-0.0815952 80:0.0519301 81:-0.0581977 82:0.0297787 83:-0.419958 84:-0.106612 85:-0.0733916 86:0.0671873 87:-0.101971 88:-0.957447 89:-0.292196 90:0.217184 91:-0.0971214 92:0.205167 93:-0.598364 94:-0.427069 95:-0.295413 96:-0.254295 97:-0.0120094 98:-0.16315 99:0.235789 100:-0.997459 101:-0.244 102:-0.184587 103:-0.113049 104:0.0509903 105:0.151962 106:0.31504 107:0.353485 108:-0.770675 109:0.421552 110:-0.519907 111:0.847948 112:-0.207262 113:-0.397849 114:-0.0629235 115:0.119448 116:-0.110594 117:0.447905 118:0.473047 119:-0.373767 120:-0.108525 121:-0.374359 122:0.0711463 123:-0.272968 124:-0.492837 125:-0.222437 126:-0.290243 127:-0.207893 128:0.0293261 129:-0.574897 130:-0.423015 131:-0.198861 132:-0.361752 133:-0.621849 134:-0.130481 135:-0.463829 136:-0.308046 137:-0.965714 138:0.00805292 139:0.237573 140:-0.196737 141:-0.459276 142:-0.230791 143:-0.0914896 144:-0.490468 145:-0.444451 146:-0.0390387 147:-0.0365607 148:-0.364421 149:-0.876364 150:-0.405163 151:0.150486 152:-0.475349 153:-0.348249 154:-0.135425 155:-0.186708 156:-0.600561 157:0.359459 158:-0.478261 159:0.332439 160:-0.844078 161:0.00677966 162:-0.0942828 163:-0.311357 164:0.220755 165:-0.0972508 166:0.0402387 167:-0.347921 168:-0.702777 169:0.964598 170:-0.715061 171:1 172:-0.275618 173:-0.996324 174:-0.110812 175:0.144127 176:-0.331746 177:0.29162 178:0.544918 179:-0.267036 180:-0.843776 181:0.198261 183:0.198261 184:-0.229008 185:-1 186:-0.467302 187:0.149482 188:-0.456431 189:-0.50873 190:-0.00712922 191:-0.794435 192:-0.969912 193:-0.286879 194:0.431809 195:-0.282235 196:-0.887435 197:-0.828 198:0.360869 199:0.83054 200:-0.697778 201:-0.570076 202:-0.203419 203:0.204239 204:-0.845729 205:-0.04666 206:0.23049 207:-0.101322 208:-0.85241 209:-0.951589 210:0.427946 211:0.0260792 212:0.0417293 213:-0.206798 214:0.0113206 215:0.243755 216:-0.783769 217:-0.21693 218:0.279378 219:-0.226754 220:-0.723173 221:-0.0614173 222:-0.435506 223:-0.406897 224:0.231711 225:-0.488303 226:-0.25769 227:0.215302 228:-0.825643 229:0.299638 230:-0.486389 231:0.596343 232:-1 233:-0.795981 234:-0.0334715 235:0.144642 236:0.103512 237:0.478254 238:0.602305 239:-0.0103053 240:-0.552195 241:-0.353557 242:0.250639 243:-0.3 244:-0.44687 245:-1 246:-0.155838 247:-0.539519 248:0.0868372 249:-0.454331 250:-0.203965 251:-0.236149 252:-0.612448 253:0.202873 254:0.0986063 255:0.0518332 256:-0.619182 257:-0.622093 258:0.224618 259:-0.522485 260:0.527513 261:-0.215739 262:0.0310517 263:-0.243083 264:-0.574809 265:-0.240253 266:-0.10962 267:0.187417 268:-0.279339 269:-0.048 270:0.120983 271:-0.560633 272:0.639102 273:0.374883 274:0.517657 275:0.0093218 276:-0.631429 277:-0.555709 278:0.696367 279:-0.625202 280:-1 281:-0.469003 282:-0.0135052 283:-0.819938 284:0.647989 285:-0.700261 286:-0.546087 287:0.0980541 288:-0.734792 289:0.505967 290:0.190934 291:0.279495 292:-0.479109 293:-0.418502 294:0.0848919 295:-0.164728 296:-0.412969 297:-0.219292 298:-0.016781 299:0.237813 300:-0.102112 301:-0.159496 302:0.38218 303:-0.217104 304:-0.199336 305:-0.657238 306:-0.104097 307:-0.118327 308:-0.0242641 309:-0.431907 310:-0.204792 311:-0.184335 312:-0.424565 313:-0.216607 314:0.154776 315:-0.109011 316:-0.47678 317:-0.704871 318:-0.0140953 319:-0.330724 320:0.215388 321:-0.381799 322:-0.159666 323:-0.114163 324:-0.414892 325:0.0689464 326:0.0323079 327:0.110913 328:-0.794479 329:-0.973913 330:-0.138175 331:-0.210319 332:-0.0934607 333:-0.291492 334:-0.0677705 335:0.0451978 336:-0.073665 337:0.0773351 338:0.143485 339:0.0866285 340:-0.868637 341:-0.684411 342:-0.018796 343:-0.43403 344:0.151941 345:-0.0953911 346:0.125932 347:0.250629 348:-0.30165 349:0.152577 350:-0.241439 351:0.188092 352:-0.861027 353:-0.818803 354:-0.227372 355:-0.38996 356:0.541504 357:0.185509 358:0.402531 359:-0.210338 360:-0.646516 361:0.319065 362:-0.224035 363:0.396232 364:-0.235521 365:-0.774379 366:0.215352 367:0.285476 368:0.254549 369:-0.0663493 370:0.222245 371:-0.0263159 372:-0.538922 373:0.160805 374:-0.112818 375:0.136811 376:-0.265082 377:-0.456552 378:-0.433794 379:0.230541 380:-0.279134 381:-0.619079 382:-0.129076 383:0.329627 384:-0.89419 
0 0 5.337470096494952 109.8694224494419 0 0 1:-0.129106 2:-0.6539 3:-0.129196 4:-0.681462 5:-0.995181 6:0.0571794 7:0.268379 8:-0.172759 9:-0.22873 10:0.126195 11:-0.424127 12:-0.808533 13:-0.039544 14:-0.404342 15:0.225595 16:-0.730114 17:-0.670558 18:-0.269272 19:-0.0507003 20:-0.23004 21:-0.0944235 22:0.116857 23:-0.56825 24:-0.28763 25:-0.325325 26:0.205113 27:-0.444663 28:-0.968404 29:-0.787375 30:0.365335 31:-0.289851 32:0.406158 33:-0.652944 34:-0.39348 35:-0.253121 36:-0.186692 37:-0.161521 38:-0.179276 39:-0.0524677 40:-0.965997 41:-0.546708 42:-0.377208 43:-0.583831 44:0.270196 45:-0.255535 46:0.024092 47:0.142428 48:-0.60252 49:-0.157938 50:0.422688 51:-0.538873 52:-0.819793 53:-0.681452 54:0.153242 55:-0.255387 56:0.04305 57:-0.549019 58:-0.289892 59:0.349785 60:-0.855401 61:-0.199424 62:-0.120193 63:-0.0625104 64:-0.404908 65:-0.255906 66:-0.0860469 67:0.044309 68:-0.31493 69:-0.286499 70:-0.0472778 71:0.478597 72:-0.546755 73:-0.436322 74:-0.116875 75:-0.132371 76:-0.360134 77:-0.676558 78:-0.149235 79:-0.156184 80:0.0467876 81:0.00944589 82:0.0903281 83:-0.333475 84:-0.489561 85:-0.114316 86:-0.238459 87:0.118007 88:-0.590426 89:-0.833031 90:-0.291371 91:0.2385 92:-0.360327 93:0.061707 94:0.299878 95:-0.271784 96:-0.627942 97:-0.572469 98:0.176507 99:-0.472837 100:-0.768742 101:-0.96 102:-0.462673 103:-0.0170481 104:-0.330112 105:-0.447928 106:-0.305272 107:0.5667 108:-0.808974 109:-0.518679 110:-0.622198 111:0.226865 112:-0.966717 113:-0.708141 114:-0.458899 115:-0.0534091 116:-0.279414 117:0.0208842 118:0.143247 119:-0.262416 120:-0.347146 121:-0.555289 122:-0.110451 123:-0.271562 124:-0.415473 125:-0.798839 126:-0.363616 127:0.125259 128:-0.346573 129:-0.251539 130:-0.0482732 131:0.127192 132:-0.620896 133:-0.523331 134:-0.523398 135:-0.139175 136:-0.54023 137:-0.459048 138:0.0161322 139:-0.311195 140:0.357282 141:-0.112322 142:0.155583 143:-0.137315 144:-0.499861 145:-0.717199 146:-0.602729 147:0.103554 148:-0.288428 149:-0.716364 150:-0.693695 151:0.0180594 152:-0.593245 153:-0.0709849 154:0.11025 155:-0.32498 156:-0.66053 157:0.416216 158:-0.73913 159:0.404826 160:-0.49925 161:-0.60678 162:0.00695973 163:-0.226051 164:0.116961 165:0.35423 166:0.345054 167:-0.280499 168:-0.695358 169:0.535261 170:0.537673 171:0.279822 172:-0.823322 173:-0.977941 174:-0.0885084 175:-0.253015 176:0.0353872 177:0.0133396 178:0.295004 179:-0.375377 180:-0.914738 181:0.389826 183:0.389826 184:-0.805344 185:-1 186:-0.366348 187:-0.15147 188:-0.145729 189:-0.302642 190:0.179735 191:-0.792761 192:-0.96966 193:-0.0637714 194:0.308897 195:-0.0808894 196:-0.586387 197:-0.772 198:0.493343 199:0.351512 200:-0.155466 201:-0.233478 202:0.142144 203:0.315407 204:-0.816823 205:0.240587 206:0.310535 207:0.0365124 208:-0.608434 209:-0.512859 210:-0.0940289 211:0.21292 212:-0.448908 213:-0.192021 214:0.0250672 215:0.487022 216:-0.306435 217:-0.273803 218:0.444044 219:-0.353746 220:-0.520995 221:-0.464567 222:-0.238858 223:-0.456405 224:0.359375 225:-0.771903 226:-0.619524 227:-0.00212128 228:-0.553053 229:-0.54625 230:0.389368 231:-0.431996 232:-0.901899 233:-0.511592 234:-0.294451 235:0.239991 236:-0.140744 237:0.0135822 238:0.200252 239:-0.0997255 240:-0.839556 241:0.0892273 242:0.836261 243:-0.411378 244:-0.845706 245:-0.425641 246:0.208 247:-0.620491 248:0.486189 249:-0.561218 250:-0.330832 251:0.927318 252:-0.140376 253:0.831297 254:-0.31876 255:0.620278 256:-0.461213 257:-0.991279 258:0.535379 259:-0.177969 260:0.189372 261:-0.0201185 262:0.21714 263:0.226133 264:-0.00333024 265:-0.52956 266:-0.514627 267:0.278056 268:-0.494215 269:-0.712 270:-0.227598 271:-0.256645 272:0.127647 273:0.10224 274:0.293316 275:-0.424889 276:0.0619823 277:-0.297307 278:0.00511303 279:-0.0363828 280:-0.774194 281:-0.638814 282:-0.405204 283:-0.349909 284:-0.0633073 285:-0.00185499 286:0.212603 287:-0.170424 288:-0.753241 289:-0.503719 290:0.381453 291:-0.431516 292:-0.966574 293:-0.597651 294:-0.260101 295:-0.447742 296:0.194119 297:-0.362837 298:-0.177903 299:0.00336688 300:-0.466451 301:-0.270854 302:-0.452503 303:0.218006 304:-0.833887 305:-0.687188 306:-0.282977 307:-0.148877 308:0.0933719 309:-0.0514637 310:0.176405 311:-0.821616 312:0.677972 313:-0.573037 314:0.205487 315:-0.371474 316:-0.566563 317:-0.730659 318:-0.0934462 319:0.220423 320:-0.490475 321:-0.344495 322:-0.110712 323:-0.207457 324:-0.747678 325:-0.243503 326:-0.170617 327:0.0710918 328:-0.441718 329:-0.57971 330:0.147123 331:0.217407 332:-0.293924 333:0.176967 334:0.376294 335:-0.530604 336:-0.450315 337:0.420834 338:0.251789 339:0.191406 340:-0.724138 341:-0.642586 342:0.57907 343:-0.0220718 344:-0.183493 345:0.111632 346:0.319977 347:-0.0792615 348:-0.353377 349:0.471134 350:-0.265411 351:0.365648 352:-0.513595 353:-0.425641 354:-0.166664 355:-0.494007 356:0.634549 357:0.605994 358:0.728049 359:-0.185984 360:-0.54225 361:-0.0321056 362:0.223443 363:-0.0468552 364:-0.474903 365:-0.678776 366:-0.117827 367:0.117232 368:0.212919 369:-0.224888 370:0.0779738 371:0.093672 372:-0.769368 373:0.145634 374:-0.211239 375:0.178437 376:-0.711152 377:-0.754483 378:-0.433794 379:0.0885847 380:-0.115514 381:-0.409487 382:0.0848925 383:0.25112 384:-0.914361 
112.4813580792683 80.73839232139005 5.824731544518176 264.2689047980606 158.5465501469933 223.41299877529 1:-0.52442 2:-0.77907 3:-0.523678 4:-0.791123 5:-0.995181 6:-0.0468164 7:-0.00237779 8:0.0670485 9:-0.624396 10:-0.303534 11:-0.739253 12:-0.923217 13:-0.133671 14:-0.0786699 15:-0.109627 16:-0.661932 17:-0.776913 18:-0.345587 19:0.089345 20:-0.383648 21:-0.188751 22:0.0470726 23:-0.246455 24:-0.688739 25:0.181299 26:0.284141 27:-0.172317 28:-0.889415 29:-0.292359 30:0.244258 31:-0.199533 32:0.289468 33:-0.657432 34:-0.418324 35:-0.188717 36:0.168366 37:-0.464713 38:-0.0221754 39:-0.428984 40:-0.956723 41:-0.359877 42:-0.464421 43:-0.564161 44:0.247029 45:-0.481503 46:-0.172412 47:0.0587582 48:-0.808148 49:-0.168783 50:0.308261 51:-0.438028 52:-0.296898 53:-0.770161 54:0.0436838 55:-0.202768 56:-0.0860075 57:-0.561727 58:-0.301995 59:0.761877 60:-0.695369 61:-0.536226 62:-0.676492 63:0.140434 64:-0.276074 65:-0.11811 66:-0.391863 67:-0.0970612 68:-0.53511 69:-0.106183 70:0.107553 71:-0.120216 72:-0.40085 73:-0.865463 74:0.0639714 75:-0.669113 76:-0.9933 77:-0.578635 78:-0.386285 79:0.113226 80:-0.374676 81:-0.527913 82:-0.383785 83:-0.388754 84:-0.589337 85:-0.306292 86:0.121785 87:-0.309754 88:-0.5 89:-0.807623 90:-0.307026 91:0.46166 92:-0.60218 93:-0.448815 94:0.0322417 95:0.0856498 96:-0.821386 97:-0.827164 98:-0.376349 99:-0.13683 100:-0.949174 101:-0.512 102:-0.711025 103:-0.255863 104:-0.256713 105:-0.427517 106:-0.217966 107:0.462541 108:-0.627183 109:-0.727409 110:-0.618176 111:0.0640382 112:-0.555219 113:-0.815668 114:-0.666595 115:0.384268 116:-0.813844 117:0.357316 118:0.466188 119:-0.0893337 120:-0.772948 121:-0.727062 122:0.0361896 123:-0.543516 124:-0.659026 125:-0.199226 126:-0.578801 127:0.0243397 128:-0.447654 129:-0.220473 130:-0.0340619 131:0.139918 132:-0.862567 133:-0.135405 134:-0.179329 135:-0.111252 136:-0.875862 137:-0.481905 138:-0.132637 139:-0.243405 140:0.219681 141:-0.292351 142:-0.0110237 143:0.495293 144:-0.353504 145:-0.72362 146:-0.102939 147:-0.241262 148:-0.606218 149:-0.96 150:-0.588622 151:0.125075 152:-0.58453 153:-0.233006 154:-0.0320877 155:-0.178836 156:-0.879831 157:0.218919 158:-0.565217 159:0.198391 160:-0.868066 161:-0.491525 162:0.0242279 163:-0.260254 164:0.171536 165:0.205449 166:0.247947 167:-0.285624 168:-0.698055 169:0.649177 170:0.870079 171:0.272119 172:-0.607774 173:-0.272059 174:0.370357 175:-0.392692 176:0.446065 177:0.237649 178:0.507102 179:-0.61616 180:-0.960771 181:0.472222 183:0.472222 184:-0.774809 185:-1 186:-0.06235 187:-0.392208 188:0.25665 189:-0.124069 190:0.363867 191:-0.872737 192:-0.980339 193:-0.715054 194:0.492269 195:-0.567401 196:-0.790576 197:-0.68 198:0.521327 199:0.555406 200:-0.338338 201:-0.652438 202:-0.304118 203:-0.0490298 204:-0.907276 205:-0.158671 206:-0.112695 207:0.00879725 208:-0.506024 209:-0.903177 210:0.0664719 211:0.182035 212:-0.369571 213:-0.6044 214:-0.427195 215:-0.173335 216:0.147183 217:-0.481349 218:0.597713 219:-0.565273 220:-0.40902 221:-0.351181 222:-0.411525 223:-0.36192 224:0.200001 225:-0.643525 226:-0.445207 227:0.107573 228:-0.824804 229:-0.721191 230:0.0206058 231:-0.320168 232:-0.306962 233:-0.703246 234:-0.244433 235:0.431902 236:-0.403517 237:-0.44442 238:-0.261502 239:-0.444558 240:-0.30012 241:-0.335965 242:0.479658 243:-0.420953 244:-0.912664 245:-0.186325 246:-0.101 247:-0.661192 248:0.422725 249:-0.578336 250:-0.351688 251:0.700088 252:-0.410038 253:0.778623 254:-0.540591 255:0.743767 256:-0.365303 257:-0.994186 258:-0.17535 259:-0.170049 260:-0.111878 261:-0.0586972 262:0.183242 263:-0.18834 264:0.0651785 265:-0.3577 266:0.150424 267:-0.0778623 268:-0.441322 269:-0.612 270:-0.342205 271:-0.340108 272:0.157679 273:-0.198155 274:0.0158782 275:-0.0879223 276:-0.210413 277:-0.446337 278:0.428371 279:-0.391561 280:-0.518817 281:-0.74124 282:-0.235104 283:-0.507267 284:0.121851 285:-0.684082 286:-0.519304 287:0.0391158 288:-0.463438 289:-0.295982 290:0.273555 291:-0.243528 292:-0.791086 293:-0.715125 294:0.019367 295:-0.101174 296:-0.375898 297:-0.197697 298:0.00323658 299:0.0835662 300:-0.606611 301:-0.302826 302:0.559136 303:-0.396582 304:-0.421927 305:-0.603993 306:-0.313559 307:-0.0446451 308:-0.106165 309:-0.34207 310:-0.107493 311:0.176458 312:-0.643768 313:-0.531654 314:0.181802 315:-0.330806 316:-0.510836 317:-0.498567 318:-0.329888 319:-0.10191 320:-0.204606 321:-0.215578 322:0.0146018 323:0.0612635 324:-0.791969 325:-0.159193 326:0.0774028 327:-0.0319251 328:-0.579755 329:-0.657971 330:0.00960139 331:-0.0276574 332:-0.150875 333:-0.0763623 334:0.145536 335:-0.376568 336:-0.504492 337:-0.736285 338:0.209125 339:-0.400597 340:-0.727422 341:-0.634981 342:0.292763 343:-0.130269 344:-0.19183 345:-0.344898 346:-0.117429 347:-0.523492 348:-0.49844 349:-0.00206171 350:-0.0513701 351:-0.00790274 352:-0.900302 353:-0.302564 354:-0.0836625 355:-0.383023 356:0.555073 357:0.1468 358:0.369933 359:-0.358294 360:-0.520634 361:0.186621 362:0.0185611 363:0.185791 364:-0.301158 365:-0.502868 366:0.126502 367:0.179763 368:0.26461 369:-0.0742705 370:0.215666 371:-0.186046 372:-0.661031 373:0.347702 374:-0.416111 375:0.381907 376:-0.73309 377:-0.812414 378:-0.433794 379:0.0632419 380:-0.0106078 381:-0.138064 382:0.310873 383:0.241157 384:-0.923195 
52.20201666198376 316.6699298532237 27.52730592399617 512 0 13.28483787313914 1:0.0037187 2:-0.726616 3:0.00380321 4:-0.872063 5:-0.761446 6:0.0783836 7:0.222588 8:-0.124292 9:-0.117897 10:0.222738 11:-0.201783 12:-0.686072 13:0.0749045 14:-0.339213 15:0.257785 16:-0.548295 17:-0.51751 18:-0.152891 19:-0.0765282 20:-0.145766 21:0.00964021 22:0.212524 23:-0.447108 24:-0.433932 25:-0.509983 26:0.691651 27:-1 28:-0.763033 29:-1 30:0.253736 31:0.00262999 32:0.139498 33:-0.925758 34:-0.859639 35:0.249208 36:-0.802982 37:-0.179086 38:-0.223759 39:-0.0315636 40:-0.913447 41:-0.601838 42:-0.0344611 43:0.16497 44:-0.0217617 45:-0.0155705 46:0.110036 47:-0.373889 48:-0.521812 49:-0.308168 50:-0.189956 51:-0.0541741 52:-0.77548 53:-0.487903 54:0.128175 55:-0.41331 56:0.16023 57:-0.574197 58:-0.301995 59:-0.526995 60:0.364032 61:-0.536803 62:-0.363492 63:-0.115476 64:-0.297546 65:-0.838583 66:-0.292844 67:-0.399415 68:-0.193056 69:-0.295781 70:-0.0760299 71:0.173602 72:-0.664855 73:-0.633964 74:-0.190147 75:-0.22804 76:-0.557789 77:-0.52819 78:-0.411702 79:-0.119838 80:-0.175897 81:-0.0434547 82:0.0441573 83:-0.151709 84:-0.648044 85:-0.220738 86:0.384104 87:-0.463176 88:-0.960106 89:-0.68784 90:0.157396 91:-0.359254 92:0.400733 93:-0.698028 94:-0.555589 95:-0.0676907 96:-0.415173 97:-0.305483 98:0.0562366 99:-0.173913 100:-1 101:-0.18 102:-0.290333 103:-0.287358 104:0.115552 105:-0.145742 106:0.084567 107:0.348864 108:-0.848108 109:-0.310524 110:-0.320735 111:0.104151 112:-0.694402 113:-0.738863 114:-0.264691 115:-0.310191 116:0.102029 117:0.241726 118:0.397209 119:-0.179657 120:-0.649896 121:-0.487902 122:-0.632456 123:0.232988 124:-0.988539 125:-0.667311 126:-0.315673 127:-0.312307 128:0.0697752 129:-0.257536 130:-0.0529503 131:-0.563579 132:0.372637 133:-0.289792 134:0.157829 135:-0.435825 136:-0.549425 137:-0.824762 138:0.085858 139:0.102545 140:0.0520779 141:-0.532347 142:-0.346913 143:0.319817 144:-0.537874 145:-0.62798 146:0.31705 147:-0.441245 148:-1 149:-0.556364 150:-0.323331 151:-0.443802 152:0.0869885 153:-0.734613 154:-0.490852 155:-0.101313 156:-0.677964 157:0.0432431 158:-0.73913 159:0.0348524 160:-0.943028 161:-0.735593 162:-0.0889806 163:-0.426127 164:0.310515 165:-0.103172 166:0.0531048 167:-0.379008 168:-0.746849 169:0.772208 170:0.341885 171:0.52909 172:-0.632509 173:-0.371324 174:-0.012299 175:0.333922 176:-0.353515 177:0.0725673 178:0.402565 179:-0.402338 180:-0.915957 181:0.513963 183:0.513963 184:-0.59542 185:-1 186:-0.343453 187:0.403817 188:-0.536121 189:-0.49477 190:0.045491 191:-0.827888 192:-0.971967 193:-0.0536669 194:-0.0757028 195:0.146983 196:-0.871728 197:-0.804 198:0.459512 199:0.46995 200:-0.238686 201:-0.219471 202:0.154346 203:-0.107272 204:-0.645808 205:-0.487342 206:0.060695 207:-0.288099 208:-0.493976 209:-0.842663 210:-0.526567 211:0.0984382 212:-0.382734 213:-0.232915 214:-0.015677 215:-0.135282 216:-0.932575 217:-0.64158 218:0.709764 219:-0.724868 220:-0.542768 221:-0.807874 222:0.335568 223:-0.769693 224:0.872751 225:-0.802504 226:-0.662011 227:0.225274 228:-0.860532 229:0.907029 230:0.146492 231:0.590159 232:-0.927215 233:-0.962906 234:-0.0802118 235:0.214412 236:-0.0480133 237:0.166631 238:0.338697 239:0.58944 240:0.0673096 241:-0.223311 242:0.350336 243:-0.291664 244:-0.609898 245:-0.558974 246:-0.0919819 247:-0.428608 248:0.100385 249:-0.483896 250:-0.237195 251:0.100956 252:-0.345575 253:1 254:0.183397 255:0.363588 256:-0.396333 257:-0.898256 258:0.478855 259:-0.0667869 260:-0.0472944 261:0.025032 262:0.26004 263:0.1331 264:-0.398949 265:-0.127607 266:-0.409102 267:0.477485 268:-0.6 269:-0.2 270:0.207303 271:-0.169169 272:0.0868096 273:0.266305 274:0.435033 275:-0.365707 276:-0.207193 277:-0.506181 278:0.503026 279:-0.473773 280:-0.639785 281:-0.908356 282:0.0419338 283:-0.582459 284:0.321038 285:-0.437519 286:-0.227513 287:0.150322 288:-0.839443 289:-0.300659 290:0.333162 291:-0.282469 292:-0.389972 293:-0.929515 294:-0.123084 295:-0.0282378 296:-0.51586 297:-0.186787 298:0.0174506 299:0.155214 300:-0.678459 301:0.139584 302:-0.0687885 303:0.205701 304:-0.269103 305:-0.657238 306:-0.127976 307:0.195624 308:-0.401147 309:0.273479 310:0.466049 311:0.0194291 312:-0.306827 313:-0.339969 314:-0.690569 315:0.294411 316:-0.315789 317:-0.756447 318:0.0598889 319:-0.0675221 320:-0.109874 321:0.0296817 322:0.246215 323:-0.469798 324:-0.0442555 325:-0.344559 326:0.192231 327:-0.194007 328:-0.521472 329:-0.431884 330:0.0885224 331:-0.347087 332:0.299185 333:-0.249658 334:-0.028628 335:-0.202949 336:-0.497005 337:-0.411323 338:0.607853 339:-0.521297 340:-0.399015 341:-0.494297 342:-0.423054 343:-0.154993 344:-0.295305 345:-0.376221 346:-0.151952 347:0.519178 348:-0.618747 349:-0.148454 350:0.0804789 351:-0.163857 352:-0.960725 353:-0.921368 354:-0.189267 355:-0.510655 356:0.674439 357:-0.00938603 358:0.236698 359:-0.279726 360:-0.739549 361:0.745372 362:-0.265255 363:0.639494 364:-0.6139 365:-0.147228 366:-0.572454 367:0.334004 368:-0.13881 369:0.479015 370:0.649927 371:0.0228929 372:-0.738992 373:0.481953 374:-0.506669 375:0.494311 376:-0.6234 377:-0.702069 378:-0.433794 379:0.124312 380:-0.139941 381:-0.240918 382:0.229666 383:0.228684 384:-0.924687 
79.2629560612305 512 110.1961968832071 463.2356903527952 67.82321689238636 274.9782580801451 1:0.54315 2:-0.614267 3:0.54233 4:-0.558747 5:-1 6:0.272128 7:0.952359 8:-0.839223 9:0.541116 10:0.871082 11:-0.125255 12:-0.64581 13:-0.0664591 14:-0.301026 15:0.121443 16:-0.440341 17:-0.548638 18:-0.0987652 19:-0.243628 20:-0.00198207 21:-0.167726 22:0.0474284 23:-0.668628 24:0.394532 25:-0.28733 26:0.20589 27:-0.419682 28:-0.766193 29:-0.491694 30:0.370633 31:-0.425575 32:0.524818 33:-0.550833 34:-0.196989 35:-0.291739 36:-0.568152 37:-0.554883 38:0.163724 39:-0.651916 40:-0.650696 41:-0.525268 42:-0.205479 43:-0.262088 44:0.18819 45:-0.642678 46:-0.573024 47:-0.454407 48:-0.601228 49:-0.279759 50:0.463592 51:-0.650244 52:-0.604136 53:-0.754032 54:0.410272 55:-0.508459 56:0.445165 57:-0.258028 58:0.0622914 59:0.075793 60:-0.951591 61:-0.439721 62:-0.11852 63:-0.243046 64:-0.92638 65:-0.566929 66:0.283144 67:-0.515557 68:0.46665 69:-0.127514 70:0.10591 71:-0.271058 72:-0.637394 73:-0.384166 74:-0.212049 75:0.00370404 76:-0.60134 77:-0.688427 78:0.312118 79:-0.191608 80:0.439947 81:0.200024 82:0.245203 83:-0.939787 84:-0.19879 85:0.471631 86:0.212668 87:0.16195 88:-0.414894 89:-0.488203 90:0.565319 91:-0.538284 92:0.835008 93:-0.00116903 94:0.205485 95:-0.326366 96:-0.607442 97:0.0939168 98:-0.287383 99:0.425582 100:-0.532402 101:-0.616 102:0.429048 103:-0.295821 104:0.711504 105:0.27575 106:0.464336 107:-0.359389 108:-0.373399 109:-0.394438 110:0.0932208 111:-0.346134 112:-0.431165 113:-0.674347 114:0.00582067 115:-0.0954588 116:0.138046 117:-0.17992 118:-0.0234859 119:-0.250328 120:-0.700757 121:-0.622303 122:0.135138 123:-0.539022 124:-0.358166 125:-0.466151 126:0.023811 127:-0.379651 128:0.389809 129:-0.330486 130:-0.107643 131:-0.264639 132:-0.709156 133:-0.349017 134:0.174041 135:-0.485538 136:-0.602299 137:-0.550476 138:0.405 139:0.0252217 140:0.38815 141:-0.458729 142:-0.264356 143:-0.0624372 144:-0.623112 145:-0.825316 146:-0.25056 147:-0.231463 148:-0.837651 149:-0.498182 150:-0.411504 151:-0.618239 152:0.128031 153:-0.263133 154:0.0713524 155:-0.569479 156:-0.657325 157:0.218919 158:-0.913043 159:0.219839 160:-0.484258 161:-0.881356 162:-0.533518 163:0.244943 164:-0.679547 165:-0.314371 166:-0.0266773 167:0.0766204 168:-0.338943 169:0.642943 170:0.656822 171:0.33087 172:-0.487633 173:-0.823529 174:-0.186512 175:0.207692 176:-0.358188 177:-0.101172 178:0.218376 179:-0.075993 180:-0.701534 181:0.878263 183:0.878263 184:-0.675573 185:-1 186:-0.52271 187:0.160897 188:-0.465268 189:-0.380426 190:0.109596 191:-0.690677 192:-0.940825 193:-0.0119405 194:-0.069422 195:0.167748 196:-0.578534 197:-0.312 198:0.504856 199:0.35855 200:-0.0906856 201:-0.3365 202:0.0466534 203:-0.128211 204:-0.538338 205:-0.482001 206:-0.00157093 207:-0.252048 208:-0.445783 209:-0.503782 210:0.0420011 211:0.209281 212:-0.415419 213:-0.725917 214:-0.583046 215:-0.177534 216:0.181177 217:-0.177403 218:0.0849612 219:-0.0934505 220:-0.387247 221:-0.332283 222:-0.0495634 223:-0.245514 224:0.15107 225:-0.428536 226:-0.189918 227:-0.127138 228:-0.517639 229:-0.433917 230:0.225372 231:-0.267287 232:-0.598101 233:-0.632148 234:0.157997 235:0.380057 236:-0.205228 237:-0.541188 238:-0.372828 239:-0.0664045 240:-0.313817 241:-0.387184 242:0.239027 243:-0.310154 244:-0.63901 245:-0.538462 246:0.0554125 247:-0.458964 248:0.196813 249:-0.48053 250:-0.234133 251:0.0349334 252:-0.383311 253:0.970021 254:-0.368901 255:0.717778 256:-0.686883 257:-0.656977 258:0.0438634 259:-0.404132 260:0.326309 261:-0.113001 262:0.129882 263:-0.730797 264:0.380113 265:-0.259211 266:-0.169812 267:0.217307 268:-0.666116 269:-0.52 270:0.232562 271:-0.233015 272:0.202123 273:0.0667104 274:0.263249 275:-0.0103207 276:-0.129871 277:-0.535162 278:0.280484 279:-0.349608 280:-0.712366 281:-0.746631 282:0.238613 283:-0.4869 284:0.245047 285:-0.40895 286:-0.193982 287:-0.0974909 288:-0.649815 289:0.359195 290:-0.0795589 291:0.357149 292:-0.610028 293:-0.585903 294:0.228612 295:-0.181797 296:-0.143089 297:-0.012379 298:0.177919 299:0.0215054 300:0.496165 301:-0.669127 302:0.781107 303:-0.719175 304:-0.644518 305:-0.374376 306:0.300336 307:-0.067359 308:0.109814 309:-0.680017 310:-0.502664 311:0.0409953 312:-0.726758 313:-0.536867 314:0.219618 315:-0.355881 316:-0.678019 317:-0.60745 318:0.26551 319:-0.130225 320:0.0590561 321:-0.627299 322:-0.442001 323:-0.220141 324:-0.253671 325:-0.0889245 326:-0.421853 327:0.297775 328:-0.634969 329:-0.649275 330:0.0389296 331:-0.302307 332:0.234395 333:-0.121611 334:0.0978507 335:-0.573963 336:0.517483 337:-0.191459 338:0.128211 339:-0.0469112 340:-0.714286 341:-0.285171 342:0.116884 343:-0.0908236 344:-0.248791 345:-0.341169 346:-0.113164 347:-0.30684 348:0.00352949 349:-0.0216502 350:0.911815 351:-0.610642 352:-0.501511 353:-0.552137 354:-0.217816 355:-0.439716 356:0.558651 357:-0.800605 358:-0.650261 359:0.950552 360:1 361:0.657223 362:0.0487893 363:0.409882 364:-0.629344 365:-0.441683 366:0.891707 367:0.732282 368:-0.350327 369:-0.135751 370:0.157792 371:0.0187857 372:-0.374449 373:0.889324 374:-0.779575 375:0.83445 376:-0.696527 377:-0.757241 378:0.102722 379:0.400434 380:-0.50166 381:-0.182509 382:0.27545 383:0.289838 384:-0.877734 
0 64.64767049341431 0 0 0 122.7390389616218 1:-0.809951 2:-0.828103 3:-0.808771 4:-0.968668 5:-0.578313 6:-0.62962 7:-0.219935 8:-0.146867 9:-0.899094 10:-0.714924 11:-0.500931 12:-0.822351 13:0.313778 14:0.437063 15:-0.196352 16:-0.559659 17:-0.738003 18:0.37215 19:0.187481 20:0.061686 21:-0.541217 22:-0.325969 23:-0.0450563 24:-0.528769 25:0.21682 26:-0.0236445 27:0.124065 28:-0.478673 29:-0.960133 30:0.265055 31:0.98356 32:-0.407684 33:0.144147 34:0.599387 35:0.141562 36:-0.921331 37:-0.288076 38:-0.0499672 39:-0.260438 40:-0.715611 41:-0.865237 42:-0.409513 43:0.0178356 44:-0.215711 45:-0.194167 46:-0.0903926 47:-0.0264233 48:-0.669309 49:0.107984 50:0.672086 51:-0.613487 52:-0.79616 53:-0.487903 54:0.505866 55:0.0139755 56:0.128149 57:-0.417764 58:-0.108226 59:0.356819 60:-0.955401 61:-0.483564 62:-0.46428 63:0.00648551 64:-0.984663 65:-0.909449 66:-0.143165 67:-0.328076 68:-0.116169 69:0.176319 70:0.347597 71:0.0279685 72:-0.82424 73:-0.413065 74:-0.446737 75:0.206489 76:-0.956449 77:-0.554896 78:-0.0759116 79:-0.373871 80:0.237277 81:0.000726365 82:0.122924 83:-0.315714 84:-0.239672 85:0.13422 86:0.403279 87:-0.229803 88:-0.994681 89:-0.669691 90:0.0758717 91:-0.209745 92:0.22661 93:-0.201016 94:-0.0287441 95:0.0745389 96:-0.665254 97:-0.300076 98:-0.011946 99:-0.106684 100:-0.819568 101:-0.784 102:-0.146863 103:-0.443346 104:0.290493 105:-0.27057 106:-0.0130494 107:0.267486 108:-0.615208 109:-0.728922 110:-0.106661 111:-0.414499 112:-0.969743 113:-0.671275 114:-0.314387 115:-0.144607 116:-0.118743 117:-0.437397 118:-0.27298 119:-0.134665 120:-0.513039 121:-0.538086 122:-0.0128951 123:-0.34047 124:-0.799427 125:-0.705996 126:-0.502927 127:-0.174144 128:-0.218524 129:-0.598666 130:-0.467358 131:0.378281 132:-0.168429 133:-0.760976 134:-0.201185 135:-0.508684 136:-0.597701 137:-0.965714 138:-0.211298 139:0.367192 140:-0.382384 141:-0.574194 142:-0.352384 143:-0.0265535 144:-0.549373 145:-0.55307 146:-0.526365 147:0.197578 148:-0.758204 149:-0.596364 150:-0.621998 151:-0.315742 152:-0.336617 153:-0.353325 154:-0.131053 155:-0.18418 156:-0.384814 157:0.175675 158:-0.869565 159:0.174262 160:-0.67916 161:-0.420339 162:-0.594458 163:-0.231288 164:-0.169458 165:-0.638693 166:-0.470408 167:0.51192 168:0.37642 169:0.418838 170:0.873186 171:0.0857854 172:-0.787986 173:-0.977941 174:0.53283 175:0.300843 176:0.0772955 177:-0.0482336 178:0.266688 179:-0.788053 180:-0.945412 181:0.189286 183:0.189286 184:-0.916031 185:-1 186:-0.134039 187:0.208523 188:-0.222062 189:-0.477613 190:0.0204616 191:-0.927453 192:-0.983355 193:-0.851372 194:0.676498 195:-0.753406 196:-0.965969 197:-0.952 198:0.465953 199:0.5456 200:-0.527589 201:-0.919644 202:-0.753305 203:-0.298685 204:-0.665056 205:-0.412365 206:-0.104264 207:-0.1545 208:-0.689759 209:-0.921331 210:-0.176978 211:-0.286124 212:0.12744 213:-0.410116 214:-0.198609 215:-0.314323 216:-0.57754 217:0.36782 218:-0.206658 219:0.399109 220:-0.542768 221:-0.974803 222:-0.237593 223:0.179556 224:-0.22935 225:0.0170802 226:0.251104 227:0.0543399 228:-0.567757 229:-0.143661 230:0.926046 231:-0.505255 232:-0.658228 233:-0.715611 234:-0.340024 235:0.66172 236:-0.591207 237:-0.3843 238:-0.193041 239:0.544417 240:-0.551582 241:-0.479285 242:0.478748 243:-0.49174 244:-0.857351 245:-0.719658 246:0.268578 247:-0.427925 248:0.336951 249:-0.398317 250:-0.144192 251:-0.135393 252:-0.692612 253:-0.21485 254:-0.0875484 255:-0.0170968 256:-0.90409 257:-0.953488 258:0.183216 259:0.291211 260:-0.35792 261:0.125823 262:0.350783 263:-0.366439 264:-0.649479 265:0.327475 266:0.000856434 267:0.496545 268:-0.51405 269:-0.568 270:0.101213 271:0.274521 272:-0.302657 273:0.185572 274:0.376713 275:0.2242 276:0.407717 277:-0.734672 278:0.386065 279:-0.532854 280:-0.811828 281:-0.97035 282:-0.0745923 283:-0.0459917 284:-0.214381 285:-0.669261 286:-0.488262 287:-0.0336138 288:-0.583131 289:0.0206468 290:0.369458 291:-0.115045 292:-0.835655 293:-0.685756 294:0.437523 295:0.272833 296:-0.592804 297:-0.152543 298:0.0597288 299:0.405901 300:-0.503431 301:-0.597343 302:0.194287 303:-0.334853 304:-0.647841 305:-0.963394 306:0.14224 307:0.237759 308:-0.201189 309:-0.597442 310:-0.392564 311:-0.735397 312:0.219043 313:-0.353726 314:0.231589 315:-0.242803 316:-0.80805 317:-0.934097 318:-0.0637186 319:0.424987 320:-0.578486 321:-0.268958 322:-0.0303635 323:-0.170012 324:-0.544506 325:-0.371279 326:0.59258 327:-0.44329 328:-0.966258 329:-0.973913 330:0.128306 331:0.772834 332:-0.692114 333:-0.483727 334:-0.256029 335:0.266717 336:-0.617177 337:-0.3698 338:0.426349 339:-0.364245 340:-0.789819 341:-0.737643 342:0.0928448 343:0.342005 344:-0.596742 345:-0.197608 346:0.0412185 347:0.400759 348:-0.57767 349:-0.165979 350:-0.319349 351:0.0732351 352:-0.697885 353:-0.634188 354:-0.185431 355:-0.574338 356:0.668848 357:-0.422654 358:-0.169259 359:-0.600989 360:0.245648 361:0.0781754 362:-0.185805 363:0.250006 364:-0.579151 365:-0.900574 366:0.317362 367:0.115803 368:0.228341 369:0.116146 370:0.375572 371:-0.173627 372:-0.728185 373:0.187947 374:-0.0262922 375:0.10712 376:-0.926874 377:-0.721379 378:-0.433794 379:-0.119584 380:0.113959 381:-0.292488 382:0.188825 383:0.257249 384:-0.939484 
0 52.64620023159503 0 0 0 0 1:-0.547274 2:-0.817793 3:-0.546359 4:-0.97389 5:-0.987952 6:-0.29777 7:-0.094712 8:0.0860038 9:-0.676077 10:-0.344942 11:-0.445111 12:-0.820237 13:0.286505 14:-0.199025 15:0.301199 16:-0.755682 17:-0.320363 18:0.111049 19:-0.0549609 20:-0.0130317 21:0.00344579 22:0.21039 23:-0.523742 24:-0.232124 25:-0.118739 26:0.00916821 27:-0.131684 28:-0.535545 29:-0.86711 30:0.0948077 31:0.164112 32:-0.117128 33:-0.402933 34:-0.141262 35:-0.15102 36:-0.554804 37:-0.306376 38:-0.400293 39:0.00367885 40:-0.502318 41:-0.445636 42:-0.41842 43:0.0430556 44:-0.258648 45:0.227578 46:0.32852 47:-0.240038 48:-0.615427 49:-0.35398 50:0.163382 51:-0.413091 52:-0.556869 53:-0.254032 54:-0.012219 55:-0.206267 56:-0.13803 57:-0.374459 58:-0.0899231 59:0.358121 60:-0.848093 61:-0.645761 62:-0.271331 63:-0.271941 64:-1 65:-0.106299 66:-0.268704 67:-0.435878 68:-0.092082 69:-0.26837 70:-0.031547 71:0.432292 72:-0.845494 73:-0.228458 74:0.142102 75:-0.20782 76:-0.363484 77:-0.169139 78:-0.0737594 79:-0.081009 80:0.0621106 81:0.0656965 82:0.128767 83:0.0209774 84:-0.86107 85:-0.226124 86:-0.270096 87:0.0653231 88:-0.204787 89:-0.876588 90:-0.366369 91:0.0925193 92:-0.416513 93:-0.0304319 94:0.222208 95:0.0740277 96:-0.797193 97:-0.345436 98:-0.372619 99:0.197136 100:-0.308767 101:-0.136 102:0.0474744 103:0.00146231 104:0.0687995 105:0.275336 106:0.407325 107:-0.351904 108:-0.403716 109:-0.367918 110:-0.264468 111:0.00789955 112:-0.803328 113:-0.698925 114:-0.235337 115:-0.175716 116:0.0775291 117:-0.0677124 118:0.126286 119:-0.231064 120:-0.593149 121:-0.670164 122:-0.0573473 123:-0.414919 124:-0.487106 125:-0.733075 126:-0.446023 127:0.0308288 128:-0.384349 129:-0.388278 130:-0.200223 131:0.349875 132:-0.810621 133:-0.446603 134:-0.150552 135:-0.335175 136:-0.310345 137:-0.977143 138:-0.044856 139:0.33554 140:-0.359137 141:-0.332454 142:-0.0528291 143:0.103486 144:-0.693807 145:-0.218442 146:0.0913953 147:0.0757606 148:-0.816926 149:-0.334545 150:-0.362934 151:-0.0707378 152:-0.211656 153:0.101492 154:0.260059 155:0.0517724 156:-0.907778 157:-0.175676 158:-0.782609 159:-0.179625 160:-0.211394 161:-0.745763 162:-0.417767 163:-0.237851 164:-0.0536302 165:-0.398199 166:-0.225936 167:-0.12475 168:-0.546974 169:0.771291 170:-0.106027 171:0.662289 172:-0.293286 173:-0.382353 174:0.825575 175:-0.0126734 176:0.408714 177:0.873225 178:0.921796 179:-0.865397 180:-0.984968 181:0.664447 183:0.664447 184:-0.790076 185:-1 186:0.450637 187:0.0769089 188:0.207963 189:0.1595 190:0.511761 191:-0.977275 192:-0.985532 193:-0.595588 194:0.59007 195:-0.554017 196:-0.934555 197:-0.884 198:0.47797 199:0.782203 200:-0.603888 201:-0.650297 202:-0.302417 203:0.173347 204:-0.914584 205:0.328611 206:0.295789 207:0.0993807 208:-0.939759 209:-0.960666 210:0.340672 211:0.211622 212:-0.369284 213:-0.364351 214:-0.15223 215:0.486896 216:-0.366199 217:0.0680144 218:0.125761 219:0.0313501 220:-0.732504 221:-0.908661 222:0.0562754 223:-0.15261 224:-0.0645805 225:-0.109421 226:0.134857 227:0.510273 228:-0.830226 229:-0.504696 230:0.130091 231:-0.25386 232:-0.512658 233:-0.92272 234:-0.428211 235:0.272615 236:-0.242792 237:-0.121754 238:0.0718915 239:-0.00532037 240:-0.728772 241:-0.426911 242:0.571433 243:-0.518176 244:-0.804949 245:-0.979487 246:-0.487718 247:-0.680593 248:0.286613 249:-0.475203 250:-0.230356 251:0.288216 252:-0.722658 253:0.433109 254:0.143632 255:0.128193 256:-0.196051 257:-0.194767 258:-0.253194 259:-0.390206 260:0.13098 261:-0.11854 262:0.125328 263:0.0857684 264:-0.668726 265:0.234939 266:-0.189134 267:0.568555 268:-0.0644628 269:0.108 270:-0.159297 271:-0.327542 272:0.0960164 273:0.304695 274:0.464416 275:0.024708 276:-0.253625 277:0.346453 278:-0.0199047 279:0.354808 280:-0.897849 281:-0.743935 282:0.111349 283:-0.539456 284:0.14017 285:0.0142224 286:0.225775 287:0.291618 288:-0.595905 289:-0.0889219 290:-0.464071 291:0.326331 292:-0.629526 293:-0.603524 294:0.373534 295:-0.251803 296:-0.114422 297:0.377527 298:0.521942 299:-0.44594 300:-0.417719 301:-0.100889 302:-0.00128228 303:0.0401479 304:-0.0697674 305:-0.673877 306:-0.0725405 307:-0.0512573 308:-0.136404 309:-0.130332 310:0.105616 311:-0.282762 312:-0.461358 313:-0.439247 314:0.218379 315:-0.291243 316:-0.789474 317:-0.842407 318:-0.0630363 319:-0.193061 320:-0.0613731 321:-0.259739 322:-0.030303 323:-0.0057684 324:-0.606779 325:0.101285 326:0.369751 327:-0.0712355 328:-0.484663 329:-0.510145 330:-0.001094 331:-0.279496 332:0.0833454 333:0.036085 334:0.2457 335:0.204866 336:-0.626675 337:0.0781316 338:0.215646 339:0.033516 340:-0.178982 341:-0.34981 342:-0.201543 343:-0.372193 344:-0.00544059 345:-0.00812689 346:0.207981 347:0.103964 348:-0.593721 349:-0.0298968 350:-0.0385276 351:-0.0300313 352:-0.864048 353:-0.82906 354:-0.184331 355:-0.387055 356:0.550699 357:-0.280033 358:-0.0208762 359:-0.253012 360:-0.384279 361:0.576249 362:-0.53408 363:0.71036 364:-0.343629 365:-0.85086 366:0.0970476 367:0.407442 368:-0.017508 369:0.0997068 370:0.360648 371:-0.145234 372:-0.244546 373:0.668768 374:-0.604965 375:0.636867 376:-0.806216 377:-0.878621 378:-0.0794591 379:0.186736 380:-0.0885484 381:-0.251684 382:0.220755 383:0.271013 384:-0.898651 
54.24609027640754 0 0 0 0 0 1:-0.670081 2:-0.778795 3:-0.669215 4:-0.877285 5:-1 6:-0.144789 7:0.000278465 8:-0.0251119 9:-0.622026 10:-0.30271 11:-0.787864 12:-0.963626 13:0.224982 14:-0.590906 15:0.574434 16:-0.71875 17:-0.86511 18:0.151047 19:0.468092 20:-0.247427 21:0.0707956 22:0.360804 23:-0.512014 24:-0.341544 25:-0.0126991 26:0.103035 27:-0.143111 28:-0.42812 29:-0.774086 30:0.260349 31:0.140776 32:0.0560795 33:0.0326572 34:0.26202 35:-0.075631 36:-0.678103 37:-0.462108 38:0.0834989 39:-0.51107 40:-0.443586 41:-0.638591 42:-0.511568 43:0.211007 44:-0.439771 45:-0.415981 46:-0.318973 47:0.245331 48:-0.961307 49:0.053362 50:0.404869 51:-0.395543 52:-0.660266 53:-0.733871 54:0.187513 55:0.148242 56:-0.219345 57:-0.378944 58:-0.0177491 59:0.59073 60:-0.826854 61:-0.731179 62:-0.332029 63:-0.286086 64:-0.990798 65:-0.34252 66:-0.462352 67:-0.0281003 68:-0.625428 69:-0.337033 70:-0.114358 71:0.345899 72:-0.653311 73:-0.272073 74:0.357616 75:-0.453167 76:-0.98325 77:-0.88724 78:-0.112468 79:0.0132353 80:-0.0616306 81:-0.337488 82:-0.216609 83:0.607206 84:-0.446444 85:-0.242332 86:-0.121087 87:-0.0672837 88:-0.494681 89:-0.480944 90:-0.568505 91:-0.0824487 92:-0.331937 93:0.0131886 94:0.174529 95:0.337669 96:-0.60802 97:-0.549071 98:0.454946 99:-0.715526 100:-0.982211 101:-0.328 102:0.0239419 103:0.0580422 104:0.00210822 105:-0.377088 106:-0.221956 107:0.331287 108:-0.987861 109:-0.00854459 110:0.0573597 111:-0.0185768 112:-0.866868 113:-0.9447 114:0.00847742 115:0.169414 116:-0.0623727 117:-0.428952 118:-0.278155 119:-0.104194 120:-0.199892 121:-0.128208 122:0.0990238 123:-0.0871342 124:-0.893983 125:-0.49323 126:-0.470658 127:-0.711502 128:0.21698 129:-0.119173 130:0.219109 131:0.625796 132:-0.329221 133:0.311708 134:0.103738 135:-0.00402675 136:-0.903448 137:-0.645714 138:0.00175076 139:-0.723729 140:0.64763 141:0.0718882 142:0.501864 143:0.778977 144:-0.3547 145:0.132191 146:0.540179 147:0.0828158 148:-0.841105 149:-0.676364 150:-0.0349499 151:-0.942302 152:0.597535 153:-0.197444 154:0.212776 155:0.559762 156:-0.658478 157:0.362162 158:-0.913043 159:0.36193 160:-0.55922 161:-0.99661 162:-0.250113 163:-0.216465 164:-0.0172209 165:-0.0225821 166:0.0827508 167:-0.19206 168:-0.604363 169:0.974864 170:1 171:0.495422 172:-0.848057 173:-0.477941 174:1 175:0.0571492 176:0.497786 177:0.737421 178:0.834046 179:-0.896338 180:-0.960187 181:0.932381 183:0.932381 184:-0.832061 185:-1 186:0.559831 187:-0.435641 188:0.614887 189:0.302545 190:0.633733 191:-0.920395 192:-0.978728 193:-0.490513 194:0.42611 195:-0.397973 196:-0.638743 197:-0.812 198:0.471702 199:0.339699 200:-0.216469 201:-0.557179 202:-0.186477 203:0.197018 204:-0.901087 205:0.0934715 206:-0.111193 207:0.165906 208:-0.572289 209:-0.697428 210:-0.0952482 211:-0.0632692 212:-0.0897862 213:-0.106401 214:0.109178 215:0.118792 216:-0.371048 217:0.305782 218:0.140677 219:0.166121 220:-0.698289 221:-0.527559 222:-0.0100232 223:0.15141 224:-0.20318 225:0.0452379 226:0.276239 227:0.0467492 228:-0.697044 229:-0.688321 230:0.0448601 231:-0.314604 232:-0.911392 233:-0.891808 234:-0.227588 235:0.624999 236:-0.559681 237:-0.338284 238:-0.143821 239:-0.244983 240:-0.474513 241:-0.644614 242:0.279774 243:-0.461304 244:-0.871907 245:-0.6 246:-0.171338 247:-0.20312 248:-0.0865144 249:-0.35944 250:-0.0987466 251:-0.224029 252:-0.761844 253:-0.104048 254:-0.226633 255:0.126775 256:-0.526093 257:-0.982558 258:0.0312418 259:0.375584 260:-0.592685 261:-0.318078 262:-0.056797 263:-0.310722 264:-0.266576 265:-0.553373 266:0.593581 267:-0.526887 268:-0.553719 269:-0.54 270:0.0136182 271:0.104804 272:-0.207699 273:-0.356592 274:-0.133337 275:0.281218 276:-0.68226 277:-0.71032 278:0.136104 279:-0.360214 280:-0.510753 281:-0.832884 282:-0.0310591 283:0.164489 284:-0.536486 285:-0.263254 286:-0.018724 287:-0.155105 288:-0.811907 289:-0.389331 290:0.151634 291:-0.22456 292:-0.802228 293:-0.506608 294:0.204832 295:0.0285974 296:-0.383991 297:-0.385095 298:-0.1894 299:0.11128 300:-0.344972 301:-0.214179 302:0.18472 303:-0.128978 304:-0.41196 305:-0.846922 306:0.105454 307:-0.0100176 308:0.0391042 309:-0.41199 310:-0.183004 311:0.0117737 312:-0.194196 313:-0.340732 314:0.444464 315:-0.356228 316:-0.44582 317:-0.968481 318:0.224905 319:0.146767 320:-0.2312 321:-0.428291 322:-0.204219 323:0.280057 324:-0.578259 325:0.314489 326:0.282099 327:0.0890405 328:-0.947853 329:-0.573913 330:0.0531443 331:0.0995224 332:-0.133815 333:-0.0700128 334:0.151459 335:0.188032 336:-0.196157 337:-0.443782 338:0.398603 339:-0.383532 340:-0.399015 341:-0.828897 342:0.0868738 343:-0.329868 344:0.145245 345:-0.441289 346:-0.227519 347:0.2763 348:-0.484172 349:0.343298 350:-0.343323 351:0.348261 352:-0.570997 353:-0.497436 354:-0.170344 355:-0.611652 356:0.745126 357:0.514564 358:0.662188 359:-0.375838 360:-0.534366 361:0.720307 362:-0.578652 363:0.810547 364:-0.752896 365:-0.824092 366:-0.00132187 367:-0.122171 368:0.474493 369:0.583058 370:0.727806 371:-0.120381 372:-0.564978 373:0.632651 374:-0.755222 375:0.693938 376:-0.886654 377:-0.862069 378:-0.433794 379:-0.341798 380:0.50431 381:0.205149 382:0.553455 383:0.278089 384:-0.91746 
462.1151662342397 129.139637901669 0 175.5967796142006 43.44964258640609 0 1:-0.343523 2:-0.742486 3:-0.343079 4:-0.869452 5:-0.436145 6:-0.00761543 7:-0.220635 8:0.366097 9:-0.557429 10:-0.176191 11:-0.66048 12:-0.897979 13:0.0166898 14:-0.32871 15:0.205889 16:-0.369318 17:-0.514916 18:-0.0646612 19:0.047358 20:-0.179551 21:0.1801 22:0.376032 23:-0.511293 24:-0.384491 25:0.206797 26:0.560146 27:-0.39935 28:-0.304897 29:-0.960133 30:0.409924 31:0.228727 32:0.0673164 33:-0.62381 34:-0.384689 35:0.466359 36:-0.176971 37:-0.00549028 38:0.130535 39:-0.170141 40:-0.440495 41:-0.6049 42:0.0148448 43:0.718589 44:-0.481031 45:-0.386878 46:0.0684619 47:-0.0430807 48:-0.804532 49:-0.0512153 50:0.568104 51:-0.611337 52:-0.512555 53:-0.495968 54:0.323504 55:-0.191139 56:0.10933 57:-0.614478 58:-0.36561 59:0.41316 60:-0.814857 61:-0.441606 62:-0.382772 63:-0.0287598 64:-0.690184 65:-0.838583 66:-0.475286 67:0.0877278 68:-0.773281 69:0.104852 70:0.330901 71:0.530448 72:-0.838263 73:-0.543757 74:-0.0380151 75:-0.299249 76:-0.443886 77:-0.866469 78:-0.421632 79:-0.0393725 80:-0.256649 81:0.147066 82:0.188566 83:0.23322 84:-0.80817 85:-0.0634329 86:0.224184 87:-0.222723 88:-0.994681 89:-0.553539 90:0.0328968 91:-0.140542 92:0.135165 93:-0.545384 94:-0.381628 95:0.140131 96:-0.208825 97:-0.0767146 98:-0.324344 99:0.34045 100:-0.499365 101:-0.884 102:-0.0721495 103:0.102333 104:-0.145965 105:0.417258 106:0.53543 107:0.280103 108:-0.679972 109:-0.584404 110:-0.234814 111:-0.18476 112:-0.990923 113:-0.652842 114:-0.286207 115:0.0550816 116:-0.220197 117:-0.29171 118:-0.145924 119:-0.215671 120:-0.371962 121:-0.679908 122:-0.0997336 123:-0.386914 124:-0.386819 125:-0.852998 126:-0.335106 127:0.484582 128:-0.701002 129:-0.374718 130:0.061402 131:-0.122795 132:-0.703803 133:-0.794537 134:-0.196534 135:-0.533856 136:-0.809195 137:-0.504762 138:-0.105562 139:0.491235 140:-0.50241 141:-0.469358 142:-0.127306 143:-0.128526 144:-0.73648 145:-0.746789 146:-0.10691 147:-0.259155 148:-0.982729 149:-0.556364 150:-0.448368 151:-0.025232 152:-0.340541 153:-0.420006 154:-0.223578 155:-0.37448 156:-0.619738 157:0.337838 158:-0.913043 159:0.337801 160:-0.817091 161:-0.183051 162:-0.163561 163:-0.454114 164:0.323642 165:0.0881714 166:0.204765 167:-0.294646 168:-0.693596 169:0.739611 170:0.494316 171:0.457272 172:-0.618375 173:-0.389706 174:0.361491 175:-0.0480698 176:0.166571 177:0.268587 178:0.493517 179:-0.667918 180:-0.969063 181:0.447252 183:0.447252 184:-0.591603 185:-1 186:-0.061062 187:-0.0412204 188:-0.0167906 189:-0.277376 190:0.194413 191:-0.901862 192:-0.981146 193:-0.356952 194:0.45301 195:-0.335429 196:-0.866492 197:-0.268 198:0.473864 199:0.546891 200:-0.31874 201:-0.49008 202:-0.111441 203:0.218908 204:-0.916312 205:0.431301 206:-0.19105 207:0.419407 208:-0.430723 209:-0.763994 210:-0.18709 211:0.10612 212:-0.307307 213:0.126838 214:0.321759 215:-0.00697945 216:-0.596591 217:-0.128506 218:0.583571 219:-0.344841 220:-0.772939 221:-0.486614 222:-0.257614 223:-0.278428 224:0.126015 225:-0.310724 226:-0.0645547 227:0.628954 228:-0.865926 229:-0.221991 230:0.201207 231:-0.124871 232:-0.651899 233:-0.953632 234:0.0555852 235:0.155652 236:0.0755436 237:-0.155014 238:0.0394518 239:-0.153832 240:-0.566735 241:-0.351221 242:0.31851 243:-0.337276 244:-0.962154 245:-0.432479 246:0.0316135 247:-0.614515 248:0.383467 249:-0.489856 250:-0.246731 251:0.473553 252:-0.421427 253:0.0944265 254:-0.499895 255:0.400562 256:-0.390691 257:-0.703488 258:-0.0986531 259:-0.0935524 260:-0.215078 261:0.180329 262:0.39291 263:-0.433624 264:-0.650725 265:-0.591054 266:0.0141614 267:-0.140266 268:-0.477686 269:-0.9 270:-0.0669438 271:-0.0839877 272:-0.16137 273:0.110186 274:0.306866 275:-0.277525 276:-0.730545 277:-0.245536 278:0.392218 279:-0.251572 280:-0.806452 281:-0.541779 282:-0.151477 283:-0.531801 284:0.174855 285:-0.549762 286:-0.354151 287:0.211539 288:-0.592836 289:0.160965 290:0.2957 291:0.0124672 292:-0.518106 293:-0.74743 294:0.263992 295:-0.117459 296:-0.292437 297:0.46935 298:0.600677 299:0.325062 300:-0.751472 301:-0.345853 302:0.618737 303:-0.45429 304:-0.614618 305:-0.71381 306:-0.0948603 307:0.0251378 308:-0.163747 309:-0.401762 310:-0.169418 311:0.0933524 312:-0.810555 313:-0.286193 314:0.294793 315:-0.234782 316:-0.773994 317:-0.381089 318:-0.272573 319:0.033895 320:-0.399301 321:-0.370694 322:-0.141677 323:-0.126379 324:-0.443975 325:-0.108343 326:0.349765 327:-0.166328 328:-0.601227 329:-0.976812 330:-0.0859543 331:0.00595016 332:-0.234728 333:-0.0303593 334:0.189317 335:-0.0497705 336:-0.663605 337:-0.109347 338:0.328657 339:-0.151382 340:-0.46798 341:-0.410646 342:0.0232374 343:-0.17286 344:-0.195048 345:-0.304335 346:-0.0761874 347:-0.16782 348:-0.355473 349:0.202061 350:-0.240583 351:0.212856 352:-0.830816 353:-0.917949 354:-0.203528 355:-0.49206 356:0.656669 357:0.388707 358:0.565858 359:-0.255772 360:-0.617404 361:0.797686 362:-0.461525 363:0.781568 364:-0.602317 365:-0.873805 366:-0.038413 367:0.144487 368:0.285116 369:0.39278 370:0.590128 371:-0.0315191 372:-0.644163 373:0.454455 374:-0.400138 375:0.427296 376:-0.616088 377:-0.732414 378:-0.433794 379:0.0690136 380:-0.0157707 381:-0.216401 382:0.249984 383:0.295766 384:-0.925951 
0 386.5644764286169 0 0 0 0 1:-0.44636 2:-0.767407 3:-0.44573 4:-0.851175 5:-0.783133 6:-0.0608576 7:0.139028 8:-0.117445 9:-0.539827 10:-0.203881 11:-0.617014 12:-0.89773 13:0.0681735 14:-0.611695 15:0.474609 16:-0.315341 17:-0.483787 18:-0.240102 19:-0.183007 20:-0.127713 21:0.522866 22:0.641131 23:-0.510615 24:-0.505606 25:-0.355592 26:0.12105 27:-0.39072 28:-0.235387 29:-0.837209 30:0.125947 31:-0.000551601 32:0.0590896 33:-0.457071 34:-0.220343 35:-0.0710526 36:-0.543038 37:-0.226818 38:-0.0973835 39:-0.171869 40:-0.282844 41:-0.555896 42:-0.105308 43:0.666017 44:-0.546946 45:-0.172761 46:0.239438 47:0.0256762 48:-0.901178 49:-0.232218 50:0.373138 51:-0.5369 52:-0.279173 53:-0.342742 54:-0.0420875 55:-0.417521 56:0.0473843 57:-0.52484 58:-0.239918 59:0.660771 60:-0.788456 61:-0.758003 62:-0.37923 63:-0.26756 64:-0.447853 65:-0.877953 66:-0.573989 67:-0.207278 68:-0.626887 69:-0.113422 70:0.0919248 71:0.495724 72:-0.891548 73:-0.468447 74:0.00885471 75:-0.281136 76:-0.919598 77:-0.335312 78:-0.372069 79:-0.444738 80:0.17778 81:-0.151764 82:0.0943318 83:0.253192 84:-0.729017 85:-0.395103 86:-0.30955 87:-0.0211016 88:-0.981383 89:-0.499093 90:-0.136652 91:-0.0862196 92:-0.0363853 93:-0.274391 94:-0.0870754 95:-0.198319 96:-0.424839 97:-0.00425621 98:-0.335689 99:0.401762 100:-0.987294 101:-0.796 102:0.0559791 103:-0.203417 104:0.323251 105:0.279815 106:0.442695 107:-0.0708448 108:-0.532549 109:-0.525521 110:-0.613624 111:0.213648 112:-0.984871 113:-0.695853 114:-0.211367 115:-0.162603 116:0.0349639 117:-0.223153 118:-0.0386392 119:-0.83202 120:0.675975 121:0.0571659 122:-0.127156 123:0.26454 124:-0.441261 125:-0.883946 126:-0.142048 127:0.370708 128:-0.448323 129:0.455057 130:0.697037 131:0.150437 132:-0.583827 133:-0.220042 134:-0.0914833 135:-0.22506 136:-0.908046 137:-0.470476 138:0.131522 139:-0.00951347 140:0.204485 141:0.0903059 142:0.245282 143:-0.00790143 144:-0.706187 145:0.268719 146:0.434938 147:0.275534 148:-0.336788 149:-0.650909 150:0.0248783 151:-0.0576232 152:0.109008 153:-0.330997 154:-0.130827 155:0.858097 156:0.133748 157:0.491892 158:-0.956522 159:0.493297 160:-0.928036 161:-1 162:0.109739 163:-0.315307 164:0.283929 165:0.449716 166:0.413531 167:-0.441279 168:-0.793037 169:0.929867 170:0.473337 171:0.616687 172:-0.862191 173:-0.834559 174:0.698451 175:-0.135162 176:0.444121 177:0.67553 178:0.789081 179:-0.684849 180:-0.971332 181:0.861111 183:0.861111 184:-0.839695 185:-1 186:0.452698 187:0.0276606 188:0.257841 189:0.457282 190:0.693813 191:-0.929287 192:-0.983413 193:-0.513747 194:0.616918 195:-0.521675 196:-0.777487 197:-0.196 198:0.574856 199:0.592791 200:-0.374826 201:-0.587108 202:-0.222678 203:0.33961 204:-0.928174 205:0.208485 206:-0.0771366 207:0.220041 208:-0.373494 209:-0.812405 210:0.693863 211:0.463057 212:-0.684554 213:-0.0336349 214:0.17915 215:0.00681609 216:-0.498253 217:0.0716049 218:0.38582 219:-0.112963 220:-0.748056 221:-0.858268 222:0.267742 223:0.0733958 224:-0.218567 225:-0.271357 226:-0.0197584 227:0.396569 228:-0.721016 229:-0.373018 230:0.518051 231:-0.403179 232:-0.607595 233:-0.591963 234:-0.038932 235:0.341239 236:-0.221946 237:-0.332587 238:-0.141354 239:-0.0851573 240:-0.719011 241:-0.249015 242:0.478415 243:-0.376991 244:-0.691412 245:-0.603419 246:0.298543 247:-0.276679 248:-0.0720072 249:-0.444675 250:-0.188626 251:0.153695 252:-0.609241 253:-0.0828427 254:0.182496 255:-0.136064 256:-0.610719 257:-0.360465 258:-0.312845 259:-0.146109 260:-0.207835 261:0.123598 262:0.344288 263:-0.127614 264:-0.948617 265:-0.650353 266:0.0841953 267:-0.230609 268:-0.801653 269:-0.116 270:-0.678667 271:-0.379687 272:0.106414 273:-0.139021 274:0.0723288 275:-0.304994 276:-0.396986 277:-0.217085 278:0.10824 279:-0.0549801 280:-0.615591 281:-0.983827 282:-0.496388 283:-0.624108 284:0.222869 285:-0.259078 286:-0.0392139 287:-0.0939786 288:-0.606775 289:0.376783 290:-0.229279 291:0.458404 292:-0.593315 293:-0.85022 294:-0.537047 295:-0.481158 296:0.183717 297:0.511591 298:0.627439 299:-0.0791781 300:-0.182352 301:-0.224928 302:0.311442 303:-0.209489 304:-0.667774 305:-0.677205 306:-0.224768 307:-0.0565991 308:-0.0755551 309:-0.286224 310:-0.0496432 311:0.13811 312:-0.604619 313:0.480885 314:0.107616 315:0.37477 316:-0.910217 317:-0.882521 318:-0.261772 319:-0.110488 320:-0.181745 321:0.348591 322:0.517111 323:0.352709 324:-0.438102 325:0.143914 326:0.255385 327:0.0178149 328:-0.763804 329:-0.602899 330:-0.313464 331:-0.479827 332:0.32831 333:0.120402 334:0.318522 335:0.15215 336:-0.509061 337:-0.327322 338:0.153333 339:-0.13878 340:-0.382594 341:-0.26616 342:-0.170345 343:-0.707687 344:0.61185 345:-0.143557 346:0.079894 347:-0.152949 348:-0.3949 349:0.17835 350:-0.243151 351:0.202319 352:-0.809668 353:-0.911111 354:-0.166678 355:-0.537065 356:0.744674 357:0.349216 358:0.536079 359:-0.168257 360:-0.618457 361:0.775908 362:-0.694192 363:0.906931 364:-0.274131 365:-0.847036 366:0.33868 367:0.610046 368:-0.319583 369:0.780915 370:0.855426 371:-0.142903 372:-0.57361 373:0.839881 374:-0.864583 375:0.852232 376:-0.301645 377:-0.878621 378:0.0482426 379:0.137912 380:-0.0181832 381:0.902563 382:0.94602 383:0.262488 384:-0.940253 
0 135.2804856026362 0 0 62.66481240803534 44.07272545455701 1:-0.66138 2:-0.906441 3:-0.660017 4:-0.913838 5:-0.992771 6:-0.808665 7:0.0424976 8:-0.440289 9:-0.938498 10:-0.849879 11:0.0397086 12:-0.283491 13:0.467966 14:0.0660833 15:0.220473 16:-0.107955 17:-0.276265 18:0.19566 19:-0.257971 20:0.236271 21:-0.487239 22:-0.279056 23:-0.243322 24:-0.117271 25:0.548235 26:-0.162319 27:0.4707 28:-0.0458136 29:-0.162791 30:0.0453769 31:0.161024 32:-0.1689 33:0.0532237 34:0.296902 35:0.161093 36:-0.353824 37:-0.406743 38:-0.316625 39:-0.146202 40:-0.653787 41:-0.476263 42:-0.596901 43:0.020004 44:-0.389214 45:-0.15608 46:-0.0495659 47:-0.0219674 48:-0.689377 49:-0.0245175 50:0.0719019 51:-0.129853 52:0.0398818 53:-0.0403226 54:0.0718207 55:-0.158182 56:-0.151275 57:-0.148253 58:0.146437 59:0.273516 60:-0.796741 61:0.112639 62:-0.484745 63:0.467726 64:-0.0644172 65:-0.53937 66:-0.195337 67:0.211041 68:-0.775143 69:-0.103345 70:0.291498 71:0.273307 72:-0.541531 73:-0.0670417 74:0.123208 75:-0.0534811 76:-0.293132 77:-0.442136 78:0.076333 79:0.113192 80:-0.0870204 81:0.230921 82:0.284284 83:0.0492466 84:-0.855255 85:-0.0377877 86:-0.388474 87:0.293742 88:-1 89:-0.368421 90:-0.378868 91:-0.166395 92:-0.169487 93:0.44768 94:0.525971 95:0.230527 96:-0.633173 97:0.322281 98:-0.313846 99:0.610168 100:-0.138501 101:-0.136 102:-0.0925316 103:0.203433 104:-0.398142 105:-0.121062 106:0.131176 107:0.289521 108:-0.529288 109:-0.118154 110:-0.263305 111:0.197159 112:-0.0136157 113:-0.419355 114:-0.277541 115:0.229941 116:-0.435383 117:-0.331468 118:-0.135316 119:-0.0443664 120:-0.252834 121:-0.280098 122:-0.470185 123:0.271032 124:-0.108883 125:-0.945841 126:-0.366885 127:0.279602 128:-0.701043 129:-0.037544 130:0.348465 131:0.127692 132:-0.535009 133:-0.407315 134:-0.0689957 135:-0.363231 136:-0.255172 137:-0.900952 138:-0.0595613 139:0.336923 140:-0.428098 141:-0.316538 142:-0.00640889 143:0.229979 144:-0.773955 145:-0.240304 146:0.0587701 147:0.0784708 148:-0.0846287 149:-0.32 150:-0.376899 151:0.333957 152:-0.684401 153:-0.115743 154:0.157865 155:0.206647 156:-0.832996 157:0.248648 158:-0.956522 159:0.252011 160:-0.148426 161:-1 162:-0.500281 163:-0.12701 164:-0.284769 165:-0.56647 166:-0.382382 167:0.219183 168:-0.0497992 169:0.804773 170:0.832215 171:0.408683 172:-0.04947 173:0.0808824 174:0.686581 175:-0.100855 176:0.415658 177:0.362382 178:0.5648 179:-0.829967 180:-0.96298 181:0.95154 183:0.95154 184:0.324427 185:-1 186:0.272656 187:0.0748443 188:0.0883781 189:0.191444 190:0.532639 191:-0.890019 192:-0.977834 193:-0.557576 194:0.653224 195:-0.568247 196:-0.913613 197:-0.868 198:0.470902 199:0.928148 200:-0.871286 201:-0.910235 202:-0.733061 203:0.313801 204:-0.50717 205:0.150981 206:0.081629 207:0.100637 208:-0.0903614 209:-0.15885 210:-0.0473028 211:0.143902 212:-0.315584 213:-0.402834 214:-0.193918 215:0.11066 216:-0.539893 217:0.0482758 218:0.0855119 219:0.0421332 220:-0.18507 221:-0.0299213 222:0.189011 223:-0.239409 224:0.0457261 225:-0.0466407 226:0.192086 227:0.22937 228:-0.819018 229:-0.481899 230:0.0783662 231:-0.209549 232:-0.439873 233:-0.496136 234:0.160834 235:0.343459 236:-0.24487 237:-0.495359 238:-0.319474 239:-0.300539 240:-0.257603 241:-0.452108 242:0.668566 243:-0.585723 244:-0.342067 245:-0.292308 246:0.108791 247:-0.610185 248:0.235005 249:-0.596444 250:-0.371542 251:-0.137169 252:-0.704172 253:0.302391 254:-0.225062 255:0.313495 256:-0.667137 257:-0.677326 258:0.197786 259:-0.374298 260:0.171982 261:-0.107382 262:0.136498 263:-0.251711 264:-0.407748 265:0.269177 266:-0.415111 267:0.752762 268:-0.507438 269:-0.4 270:0.0660151 271:-0.390312 272:0.230548 273:0.0903561 274:0.282776 275:0.0222206 276:-0.17402 277:0.125125 278:0.0761643 279:0.164872 280:-0.392473 281:-0.180593 282:-0.144518 283:-0.538224 284:-0.0237704 285:-0.159368 286:0.0654442 287:0.172065 288:-0.610384 289:-0.153201 290:-0.0044277 291:0.00940836 292:-0.395543 293:-0.594714 294:0.111089 295:-0.283688 296:-0.176588 297:-0.357382 298:-0.166399 299:0.295674 300:-0.469228 301:-0.341918 302:0.688213 303:-0.493294 304:0.0431894 305:-0.450915 306:0.0149573 307:-0.178852 308:0.0974613 309:-0.620557 310:-0.427431 311:0.228387 312:-0.573974 313:-0.252237 314:-0.0467749 315:-0.0168964 316:-0.637771 317:-0.919771 318:0.122822 319:-0.238745 320:0.0366156 321:-0.199561 322:0.0294485 323:-0.375951 324:-0.451576 325:0.486651 326:-0.331431 327:0.537948 328:-0.895706 329:-0.217391 330:-0.0709489 331:-0.249153 332:-0.0698336 333:-0.120329 334:0.102092 335:-0.208825 336:-0.0256152 337:-0.0381924 338:0.0733891 339:0.076372 340:-0.825944 341:-0.828897 342:-0.201295 343:-0.364915 344:-0.0846633 345:-0.0701672 346:0.151477 347:-0.0796024 348:-0.353514 349:-0.0360823 350:-0.339897 351:0.152266 352:-0.1571 353:-0.558974 354:-0.176448 355:-0.36387 356:0.535548 357:-0.249625 358:0.0094363 359:-0.448076 360:-0.140813 361:0.50464 362:-0.201634 363:0.478447 364:-0.200772 365:-0.323136 366:-0.260161 367:0.516098 368:-0.291681 369:0.375115 370:0.57363 371:-0.0291876 372:-0.8125 373:0.884103 374:-0.938761 375:0.911432 376:-0.934186 377:-0.0344828 378:-0.433794 379:0.159419 380:-0.0509431 381:0.211937 382:0.553744 383:0.248108 384:-0.921178 
0 110.0143195856231 0 0 0 0 1:-0.232598 2:-0.895815 3:-0.231644 4:-0.921671 5:-0.990361 6:-0.0355344 7:0.209424 8:-0.153022 9:-0.33522 10:0.0190412 11:-0.475355 12:-0.836942 13:-0.174966 14:-0.412868 15:0.131708 16:-0.534091 17:-0.670558 18:-0.639987 19:-0.0009176 20:-0.48073 21:-0.543967 22:-0.354615 23:-0.182156 24:0.418147 25:-0.583257 26:-0.568973 27:0.0661214 28:-0.472354 29:-0.508306 30:-1 31:-0.296319 32:-0.520443 33:0.279101 34:0.491991 35:0.149066 36:-0.887611 37:-0.424601 38:0.272087 39:-0.630331 40:-0.511592 41:-0.739663 42:-0.384696 43:0.339884 44:-0.405265 45:-0.93258 46:-1 47:0.315647 48:-0.457306 49:-0.771579 50:-0.128378 51:-0.389625 52:-0.497784 53:-0.967742 54:-0.503355 55:-0.00797774 56:-0.605426 57:-0.140752 58:0.161066 59:0.224489 60:-0.87018 61:-0.361114 62:-0.0882559 63:-0.209136 64:-0.751534 65:-0.96063 66:0.0664732 67:-0.0382435 68:-0.0830543 69:-0.0613514 70:0.149366 71:0.28666 72:-0.901283 73:-0.735356 74:-0.47334 75:-0.0394123 76:-0.728643 77:-0.89911 78:-0.438659 79:0.00362201 80:-0.302295 81:-0.00015889 82:0.0738182 83:-0.651276 84:-0.0925724 85:0.0304002 86:-0.23904 87:0.219986 88:-0.965426 89:-0.782214 90:0.232044 91:-0.468701 92:0.497176 93:0.120357 94:0.278216 95:-0.423336 96:-0.408689 97:-0.269229 98:0.487006 99:-0.549336 100:-0.656925 101:-0.78 102:0.154593 103:-0.0544704 104:0.211179 105:-0.407894 106:-0.25816 107:0.411007 108:-0.801475 109:-0.225318 110:-0.0239174 111:-0.107925 112:-0.467474 113:-0.956989 114:-0.355763 115:0.299096 116:-0.435627 117:0.0197029 118:0.156367 119:0.131751 120:-0.633413 121:-0.465036 122:0.129954 123:-0.400596 124:-0.647564 125:-0.59381 126:-0.0477149 127:-0.0587963 128:0.0566383 129:-0.565166 130:-0.427568 131:0.0800307 132:-0.356132 133:0.233965 134:-0.236965 135:0.170053 136:-0.721839 137:-0.409524 138:0.527699 139:-0.245236 140:0.679352 141:0.836449 142:0.812944 143:0.247951 144:-0.589041 145:-0.175901 146:0.382674 147:-0.084074 148:-0.626943 149:-0.981818 150:0.267871 151:-0.195916 152:0.391728 153:-0.116227 154:0.0789818 155:0.0476549 156:-0.774902 157:-0.335135 158:0.391305 159:-0.410188 160:-0.604198 161:-0.433898 162:0.230387 163:0.0323506 164:-0.0156844 165:-0.768494 166:-0.594357 167:-0.386652 168:-0.527881 169:0.902185 170:0.32393 171:0.639081 172:-0.590106 173:-0.724265 174:0.99683 175:-0.0891781 176:0.588024 177:1 178:1 179:-1 180:-0.964155 181:0.980243 183:0.980243 184:-0.557252 185:-1 186:1 187:-0.263175 188:0.77699 189:0.787306 190:0.885423 191:-1 192:-0.983871 193:-0.432519 194:0.126226 195:-0.191 196:-0.921466 197:-0.876 198:0.602102 199:0.18714 200:-0.0852103 201:-0.363874 202:0.0200398 203:0.0729656 204:-0.807175 205:-0.208684 206:0.253102 207:-0.214663 208:-0.611446 209:-0.624811 210:0.112765 211:-0.167615 212:0.0650822 213:-0.550172 214:-0.359644 215:0.0186561 216:-0.268597 217:0.261422 218:0.0916361 219:0.167032 220:-0.866252 221:-0.467717 222:-0.730765 223:0.393141 224:-0.552653 225:0.048779 226:0.281823 227:0.36315 228:-0.710304 229:-0.441459 230:0.859106 231:-0.645836 232:-0.509494 233:-0.517774 234:-0.370944 235:0.5277 236:-0.465228 237:-0.761155 238:-0.645807 239:0.550314 240:-0.43232 241:0.733797 242:0.211233 243:0.263285 244:-0.80786 245:-0.976068 246:-1 247:-0.346138 248:-0.0933442 249:0.231576 250:0.439983 251:0.403694 252:-0.474216 253:-0.0256565 254:0.050676 255:-0.0218032 256:-0.602257 257:-0.985465 258:-1 259:-1 260:0.739569 261:-0.248853 262:0.00105348 263:-0.292315 264:-0.583672 265:0.00814562 266:0.4291 267:-0.0263216 268:-0.900826 269:-0.804 270:-0.24297 271:0.047065 272:-0.16511 273:-0.0291325 274:0.182023 275:0.428549 276:-0.541317 277:-0.390819 278:0.435762 279:-0.363877 280:-0.825269 281:-0.90566 282:-0.471103 283:-0.20467 284:-0.152528 285:9.91416e-05 286:0.215999 287:0.02446 288:-0.935058 289:-0.701336 290:0.723278 291:-0.755541 292:-0.668524 293:-0.659325 294:0.405687 295:-0.144285 296:-0.0491575 297:-0.528935 298:-0.358444 299:0.147234 300:-1 301:-0.343576 302:0.468322 303:-0.364204 304:-0.458472 305:-0.963394 306:0.14946 307:0.519967 308:-0.533276 309:-0.339533 310:-0.0916004 311:0.000300823 312:-0.578294 313:-0.853093 314:0.247379 315:-0.57887 316:-0.876161 317:-0.644699 318:-0.233983 319:0.0351974 320:-0.212632 321:-0.37874 322:-0.153183 323:-0.364816 324:-0.779762 325:-0.374824 326:-0.360823 327:0.116114 328:-0.705521 329:-0.881159 330:0.105331 331:-0.5189 332:0.52382 333:0.468138 334:0.60716 335:-0.443637 336:-0.572866 337:-0.101839 338:0.11701 339:0.00970181 340:-0.835796 341:-0.752852 342:-0.552962 343:-0.791348 344:0.552115 345:0.132598 346:0.332603 347:-0.084655 348:-0.705918 349:-0.515464 350:0.690068 351:-0.726554 352:-0.625378 353:-0.54188 354:0.0351707 355:-0.385641 356:0.579747 357:-0.758363 358:-0.589203 359:0.0989459 360:-0.483267 361:0.242408 362:-0.387515 363:0.452787 364:-0.710425 365:-0.6826 366:-0.0548466 367:-0.601649 368:0.930144 369:0.266433 370:0.507563 371:-1.94541e-05 372:-0.595606 373:0.650001 374:-0.835535 375:0.742767 376:-0.645338 377:-0.649655 378:-0.433794 379:-0.653008 380:0.875018 381:0.339794 382:0.641643 383:0.205437 384:-0.914955 
0 411.8635826804593 0 0 0 0 1:-0.560992 2:-0.926283 3:-0.559637 4:-0.955614 5:-0.655422 6:-0.458097 7:-0.37848 8:0.0264039 9:-0.617605 10:-0.259716 11:-0.452177 12:-0.856897 13:-0.285442 14:0.373444 15:-0.590706 16:-0.642045 17:-0.818418 18:-0.209512 19:0.373247 20:-0.350229 21:-0.767619 22:-0.589086 23:-0.0149173 24:-0.473513 25:-0.534738 26:-0.581034 27:0.109576 28:-0.772512 29:-0.651163 30:-0.654161 31:0.720011 32:-0.794646 33:0.695283 34:0.850407 35:-0.170251 36:-0.891255 37:-0.602771 38:0.365366 39:-0.852355 40:-0.737249 41:-0.699847 42:-0.518889 43:0.381962 44:-0.499235 45:-0.718753 46:-0.685967 47:0.430374 48:-0.808023 49:-0.744249 50:0.230339 51:-0.709761 52:-0.60709 53:-0.552419 54:-0.349459 55:-0.00229754 56:-0.461422 57:-0.509635 58:-0.223074 59:0.581135 60:-0.883452 61:0.0834671 62:0.239438 63:-0.145125 64:-0.680982 65:-0.681102 66:0.194347 67:-0.402356 68:0.247191 69:0.320109 70:0.466241 71:0.691025 72:-0.91078 73:-0.165725 74:-0.132172 75:0.110512 76:-0.98995 77:-0.632047 78:-0.525686 79:-0.784014 80:0.0816545 81:-0.15577 82:0.107412 83:0.490123 84:0.115451 85:-0.333179 86:-0.221311 87:-0.0494597 88:-0.965426 89:-1 90:-0.358495 91:-0.0920837 92:-0.149466 93:-0.106089 94:0.0638666 95:-0.207272 96:-0.553836 97:-0.526133 98:-0.174694 99:-0.1136 100:-0.989835 101:-0.688 102:-0.401391 103:-0.416141 104:-0.0062491 105:-0.214365 106:0.00507009 107:0.255263 108:-0.697179 109:-0.715903 110:-0.324174 111:-0.201578 112:-0.909228 113:-0.741935 114:-0.596551 115:-0.727731 116:-0.0695711 117:-0.303504 118:0.0164298 119:-0.0659139 120:-0.538922 121:-0.762391 122:-0.319778 123:-0.268701 124:-0.593123 125:-0.636364 126:-0.536206 127:-0.095958 128:-0.297795 129:-0.522289 130:-0.376824 131:-0.0570306 132:-0.0511278 133:-0.126744 134:-0.198531 135:-0.0928539 136:-0.74023 137:-0.554286 138:0.140368 139:-0.911183 140:0.711497 141:0.0191431 142:0.42394 143:0.117278 144:-0.695096 145:0.531027 146:0.622901 147:0.381076 148:-0.806563 149:-0.76 150:0.219248 151:-0.516987 152:0.47533 153:-0.107241 154:0.115575 155:0.633709 156:-0.195772 157:-0.14054 158:0.26087 159:-0.209115 160:-0.772114 161:-0.555932 162:-0.300283 163:-0.399729 164:0.0884731 165:-0.697435 166:-0.523993 167:0.0826885 168:-0.145331 169:0.852722 170:0.937125 171:0.415907 172:-0.600707 173:-0.496324 174:0.918 175:-0.132593 176:0.559355 177:0.610237 178:0.743466 179:-0.879049 180:-0.955418 181:0.825075 183:0.825075 184:-0.938931 185:-1 186:0.759191 187:-0.0407298 188:0.485326 189:0.503026 190:0.720587 191:-0.977046 192:-0.984164 193:-0.505291 194:0.837947 195:-0.644296 196:-0.955497 197:-0.988 198:0.464696 199:0.136807 200:-0.238388 201:-0.72882 202:-0.4083 203:0.606334 204:-0.832782 205:-0.887023 206:0.524636 207:-0.782081 208:-0.783133 209:-0.815431 210:-0.20964 211:0.210961 212:-0.456035 213:-0.749076 214:-0.614425 215:-0.131771 216:-1 217:-0.0200879 218:-0.434446 219:0.293826 220:-0.642302 221:-0.930709 222:0.796571 223:0.292091 224:0.0280461 225:0.333835 226:0.516391 227:-0.280114 228:-0.688994 229:-0.562455 230:0.811353 231:-0.690824 232:-0.75 233:-0.731066 234:0.220203 235:-0.242706 236:0.416252 237:-0.32293 238:-0.128418 239:0.17002 240:-0.998399 241:0.0244534 242:0.393152 243:-0.192648 244:-0.802038 245:-0.664957 246:0.0640406 247:0.310021 248:-0.292013 249:-0.0328636 250:0.221571 251:0.3925 252:-0.638443 253:0.376145 254:0.421475 255:-0.0832708 256:-0.937941 257:-0.668605 258:-0.593881 259:0.149207 260:-0.285292 261:-0.239423 262:0.0123561 263:0.540616 264:-0.301048 265:-0.532557 266:0.358991 267:-0.34572 268:-0.864463 269:-0.984 270:-0.506488 271:1 272:-0.984497 273:0.00719453 274:0.242524 275:-0.169589 276:-0.904894 277:0.107959 278:-0.105883 279:0.270257 280:-0.983871 281:-0.994609 282:0.322703 283:-0.262294 284:0.241531 285:0.220215 286:0.404961 287:0.258867 288:-0.673967 289:-0.444004 290:-0.495135 291:0.135814 292:-0.816156 293:-0.770925 294:0.113138 295:0.502578 296:-0.745941 297:0.17496 298:0.36575 299:-0.626186 300:-0.350858 301:-0.1862 302:0.477786 303:-0.287561 304:-0.863787 305:-0.990017 306:-0.450706 307:0.667887 308:-0.640561 309:-0.0776561 310:0.164282 311:0.111687 312:-0.858103 313:-0.84648 314:0.348467 315:-0.632442 316:-0.786378 317:-0.991404 318:0.46152 319:0.464604 320:-0.27616 321:-0.609834 322:-0.412477 323:-0.177441 324:-0.63582 325:-0.102421 326:-0.11305 327:0.109123 328:-0.800613 329:-0.666667 330:0.190339 331:-0.0725329 332:0.209043 333:0.531962 334:0.658452 335:-0.376262 336:-0.794916 337:0.350339 338:-0.122585 339:0.431188 340:-0.832512 341:-0.790875 342:0.197131 343:-0.411742 344:0.317931 345:0.806187 346:0.862448 347:-0.0115228 348:-0.524017 349:-0.349485 350:0.196061 351:-0.337724 352:-0.78852 353:-0.733333 354:-0.205441 355:-0.589068 356:0.617873 357:-0.57198 358:-0.341916 359:-0.332204 360:-0.116952 361:0.27132 362:-0.0154976 363:0.249305 364:-0.976834 365:-0.824092 366:-0.406706 367:-1 368:0.94783 369:0.249166 370:0.497051 371:-0.135602 372:-0.823851 373:0.727683 374:-0.82714 375:0.777412 376:-0.798903 377:-0.950345 378:-0.433794 379:-1 380:1 381:0.611174 382:0.800185 383:0.249951 384:-0.934028 
0 188.4279628075328 0 0 0 0 1:-0.392806 2:-0.903374 3:-0.391684 4:-0.415144 5:-0.281928 6:-0.458503 7:0.143415 8:-0.390781 9:-0.628863 10:-0.313689 11:-0.152593 12:-0.664532 13:-0.0389896 14:0.336201 15:-0.37689 16:-0.798295 17:-0.346304 18:-0.399999 19:-0.278989 20:-0.135438 21:-0.689006 22:-0.523853 23:-0.0211192 24:-0.675601 25:-0.343941 26:-0.710814 27:0.353335 28:-0.191153 29:-0.358804 30:-0.708462 31:-0.053714 32:-0.432526 33:0.325996 34:0.50526 35:0.0327297 36:-0.753426 37:-0.585481 38:-0.268354 39:-0.332815 40:-0.931994 41:-0.491577 42:-0.62575 43:-0.21034 44:-0.149399 45:-0.606616 46:-0.514379 47:-0.175247 48:-0.47939 49:-0.466183 50:-0.35266 51:0.00377307 52:-0.134417 53:-0.778226 54:-0.493663 55:-0.0367127 56:-0.690184 57:-0.109617 58:0.221341 59:0.453554 60:-0.83315 61:-0.0451979 62:0.0465829 63:-0.083645 64:-0.319018 65:-0.326772 66:0.133097 67:-0.109514 68:-0.0343585 69:-0.129833 70:0.0892891 71:0.737246 72:-0.751419 73:-0.260736 74:-0.959455 75:0.831118 76:-0.9933 77:-0.602374 78:-0.454748 79:-0.0325265 80:-0.288017 81:0.159499 82:0.197967 83:0.131169 84:0.0985197 85:-0.228488 86:-0.531505 87:0.276356 88:-0.702128 89:0.00907441 90:-0.616912 91:-0.234145 92:-0.265576 93:0.509284 94:0.5692 95:-0.031568 96:-0.543046 97:0.410493 98:-0.350421 99:0.705989 100:-0.229987 101:-0.744 102:0.155371 103:0.312183 104:-0.306705 105:-0.0549365 106:0.253181 107:-0.0723236 108:-0.183304 109:-0.0791146 110:-0.55626 111:0.500318 112:-0.252648 113:-0.97235 114:-0.338929 115:0.448421 116:-0.700393 117:-0.0293548 118:0.26192 119:0.0557682 120:-0.43555 121:0.170562 122:-0.0236774 123:0.272511 124:-0.289398 125:0.0522244 126:-0.184636 127:-0.0144836 128:-0.126979 129:0.372097 130:0.499588 131:0.645368 132:-0.151766 133:0.632113 134:-0.123308 135:0.35705 136:-0.418391 137:0.0552381 138:0.469512 139:0.371309 140:0.0136511 141:0.207607 142:0.423143 143:0.367119 144:-0.593941 145:0.179146 146:0.346219 147:0.256141 148:-0.557858 149:-0.789091 150:0.318388 151:0.644025 152:-0.326317 153:0.301552 154:0.623047 155:0.0743416 156:-0.902617 157:0.205405 158:-0.826087 159:0.201072 160:-0.67916 161:0.0440678 162:0.0630586 163:-0.180124 164:0.0851342 165:-0.585203 166:-0.412 167:-0.230312 168:-0.44362 169:0.918951 170:0.599771 171:0.570094 172:-0.558304 173:-0.988971 174:0.765266 175:-0.101384 176:0.461496 177:0.756104 178:0.842555 179:-0.701709 180:-0.975473 181:0.941176 183:0.941176 184:-0.522901 185:-1 186:0.605171 187:0.0162925 188:0.367523 189:0.690336 190:0.824297 191:-0.935921 192:-0.983683 193:-0.318429 194:0.544049 195:-0.365454 196:-0.410995 197:-0.092 198:0.462175 199:0.82352 200:-0.683675 201:-0.613301 202:-0.255709 203:0.3365 204:-0.793217 205:-0.565652 206:0.554323 207:-0.596425 208:-0.463855 209:-0.691377 210:0.487098 211:0.00689097 212:0.0901204 213:-0.680848 214:-0.522123 215:-0.268718 216:-0.84907 217:0.199377 218:0.0499694 219:0.15314 220:-0.219285 221:-0.905512 222:0.0817992 223:-0.0908445 224:-0.166273 225:0.210709 226:0.416934 227:0.190423 228:-0.820138 229:0.140082 230:0.0736973 231:0.16933 232:-0.468354 233:-0.919629 234:0.000416373 235:0.369687 236:-0.30475 237:-0.320286 238:-0.127583 239:0.0249986 240:-0.354889 241:0.526109 242:-0.117796 243:0.346304 244:-0.164483 245:-0.733333 246:0.0748588 247:-0.400517 248:-0.109148 249:0.50252 250:0.653711 251:0.165716 252:-0.698023 253:-0.314253 254:0.0578818 255:-0.15993 256:-0.51481 257:-0.30814 258:-0.144514 259:-0.40348 260:0.185027 261:-0.441563 262:-0.202865 263:-0.540578 264:-0.416459 265:0.728334 266:-0.319266 267:0.998148 268:-0.570248 269:-0.22 270:-0.224418 271:-0.217691 272:-0.148241 273:0.413409 274:0.555543 275:0.202781 276:0.436876 277:-0.0767838 278:0.269515 279:-0.0754054 280:-0.55914 281:-0.296496 282:0.0506505 283:-0.452962 284:-0.0516153 285:-0.185962 286:0.0415125 287:0.309886 288:-0.666074 289:-0.500559 290:0.344441 291:-0.407185 292:-0.445682 293:-0.823789 294:0.401365 295:-0.279264 296:-0.0488784 297:-0.241372 298:-0.0465665 299:-0.293594 300:-0.750236 301:-0.515308 302:0.212467 303:-0.30273 304:-0.0664452 305:-0.976705 306:-0.0429385 307:-0.126899 308:0.0155058 309:-0.362192 310:-0.129486 311:-0.211502 312:-0.583628 313:0.0977299 314:0.105116 315:0.125285 316:-0.151703 317:-0.286533 318:0.206649 319:-0.331105 320:0.291149 321:0.353298 322:0.518924 323:0.181554 324:-0.708944 325:-0.159523 326:-0.0138996 327:0.0216515 328:-0.107362 329:-0.550725 330:-0.0474796 331:-0.215904 332:-0.0437889 333:0.122253 334:0.323579 335:-0.342559 336:-0.52711 337:0.355912 338:0.0698666 339:0.291397 340:-0.862069 341:-0.825095 342:0.0478316 343:-0.489045 344:0.283027 345:0.714855 346:0.795978 347:0.0564057 348:-0.612471 349:0.0484533 350:0.138698 351:-0.0990515 352:-0.691843 353:-0.634188 354:-0.267439 355:-0.384621 356:0.509192 357:-0.259752 358:-0.000518472 359:-0.0490077 360:-0.391299 361:0.902452 362:-0.47186 363:0.841471 364:-0.289575 365:-0.869981 366:0.0837624 367:0.227202 368:0.323786 369:0.760037 370:0.844946 371:-0.00139108 372:-0.772882 373:0.79666 374:-0.709008 375:0.752834 376:-0.564899 377:-0.605517 378:-0.433794 379:0.0545871 380:0.146867 381:0.892194 382:0.941863 383:0.27376 384:-0.939816 
0 512 0 50.94336618076443 0 63.49803835001946 1:-0.455005 2:-0.885727 3:-0.453901 4:-0.362924 5:-0.219277 6:-0.277751 7:0.0812916 8:-0.174301 9:-0.638692 10:-0.327446 11:-0.298263 12:-0.750206 13:0.0305383 14:0.374236 15:-0.356089 16:-0.130682 17:-0.284047 18:-0.150328 19:-0.196069 20:-0.0498552 21:-0.682397 22:-0.530409 23:0.0269355 24:-0.663384 25:0.166666 26:-0.416362 27:0.437728 28:-0.0616114 29:-0.186047 30:-0.474277 31:0.0568624 32:-0.389286 33:0.165902 34:0.371513 35:0.308151 36:-0.491107 37:-0.45454 38:0.0642779 39:-0.489475 40:-0.919629 41:-0.497703 42:-0.593115 43:-0.24998 44:-0.0605545 45:-0.608026 46:-0.48042 47:0.2179 48:-0.688187 49:0.208281 50:-0.0565946 51:0.130187 52:-0.113737 53:-0.633065 54:-0.229173 55:-0.0816782 56:-0.454528 57:-0.0547261 58:0.254156 59:0.444734 60:-0.766554 61:-0.455868 62:-0.0357359 63:-0.322654 64:-0.52454 65:-0.649606 66:-0.0177816 67:-0.0558888 68:-0.252294 69:-0.378096 70:-0.139484 71:0.3576 72:-0.821165 73:-0.573571 74:-0.519793 75:0.141912 76:-0.98995 77:-0.587537 78:-0.78429 79:-0.0656382 80:-0.497389 81:-0.136819 82:-0.0375992 83:0.231493 84:-0.118791 85:-0.00211046 86:-0.227575 87:0.187855 88:-0.81117 89:0.103448 90:-0.584632 91:-0.457728 92:0.00457657 93:-0.351743 94:-0.10965 95:0.587352 96:0.00137495 97:0.0473995 98:-0.367292 99:0.46735 100:-0.878018 101:-0.72 102:-0.108972 103:0.156654 104:-0.306283 105:-0.318059 106:-0.11109 107:-0.0531618 108:-0.0753578 109:-0.357491 110:-0.642933 111:0.369058 112:-0.0347958 113:-0.966206 114:-0.75566 115:0.318691 116:-0.908277 117:-0.133327 118:0.0895831 119:0.104271 120:-0.409199 121:-0.559746 122:-0.456486 123:0.0210474 124:-0.630372 125:0.121857 126:-0.635827 127:-0.419021 128:0.0361507 129:-0.258741 130:0.0523025 131:0.0455327 132:-0.606145 133:-0.0737327 134:-0.223552 135:-0.0414066 136:-0.694253 137:0.139048 138:-0.0960058 139:0.00937413 140:0.0224649 141:0.170702 142:0.310295 143:0.495789 144:-0.640159 145:-0.0921214 146:-0.316705 147:0.464901 148:-0.516408 149:-0.756364 150:-0.449892 151:0.066828 152:-0.43095 153:-0.214097 154:-0.0172319 155:0.481068 156:-0.321769 157:-0.0621623 158:-0.826087 159:-0.0643431 160:-0.154423 161:0.0949153 162:-0.229864 163:-0.11137 164:-0.170569 165:-0.670212 166:-0.492678 167:-0.198652 168:-0.433358 169:0.896363 170:0.54285 171:0.568932 172:-0.431095 173:0.172794 174:0.642618 175:-0.121516 176:0.409031 177:0.747463 178:0.837555 179:-0.657881 180:-0.972091 181:0.721997 183:0.721997 184:-0.492366 185:-1 186:0.277446 187:-0.0421667 188:0.220483 189:0.315328 190:0.611474 191:-0.906195 192:-0.9823 193:-0.448185 194:0.698891 195:-0.530663 196:-0.609948 197:-0.388 198:0.48362 199:0.806986 200:-0.625197 201:-0.682136 202:-0.34471 203:0.382038 204:-0.835025 205:-0.510541 206:0.502052 207:-0.534456 208:-0.105422 209:-0.66112 210:0.0495533 211:0.0785838 212:-0.154359 213:-0.610861 214:-0.434647 215:-0.00315682 216:-0.849059 217:0.485013 218:-0.167708 219:0.44774 220:-0.489891 221:-0.886614 222:-0.120704 223:-0.226492 224:-0.0111102 225:-0.00614701 226:0.228571 227:0.0230035 228:-0.672525 229:0.056804 230:0.620538 231:-0.203739 232:-0.446203 233:-0.187017 234:-0.266753 235:0.261138 236:-0.181457 237:-0.419075 238:-0.235141 239:0.286786 240:-0.488376 241:0.0201595 242:-0.0542863 243:0.0586223 244:-0.0975255 245:-0.705983 246:-0.27003 247:-0.575573 248:0.10968 249:0.608446 250:0.728236 251:0.253552 252:-0.858161 253:-0.456333 254:0.487906 255:-0.512128 256:-0.923836 257:-0.758721 258:-0.285642 259:-0.416153 260:0.152381 261:-0.593059 262:-0.37954 263:-0.19013 264:-0.859101 265:0.228861 266:0.169261 267:0.309344 268:-0.828099 269:-0.456 270:-0.186552 271:-0.262511 272:-0.0805182 273:0.109217 274:0.30326 275:0.38137 276:-0.209127 277:-0.439467 278:0.0307692 279:-0.135529 280:-0.16129 281:-0.296496 282:-0.186848 283:-0.593581 284:0.136569 285:-0.453076 286:-0.242647 287:-0.126623 288:-0.491609 289:-0.48823 290:0.106165 291:-0.255274 292:-0.401114 293:-0.39207 294:0.288032 295:-0.259813 296:-0.149587 297:-0.340014 298:-0.147494 299:-0.455415 300:-0.47086 301:-0.638611 302:0.400562 303:-0.478326 304:0.0265781 305:-0.97005 306:-0.132627 307:-0.0226503 308:-0.245221 309:-0.586371 310:-0.379756 311:-0.328789 312:-0.520882 313:0.0362079 314:-0.11494 315:0.211043 316:-0.625387 317:-0.630372 318:0.0755141 319:-0.136837 320:-0.15797 321:-0.0675589 322:0.157951 323:0.0321466 324:-0.460236 325:-0.242385 326:0.259953 327:-0.181788 328:-0.904908 329:-0.171014 330:0.231614 331:-0.240654 332:0.0624254 333:-0.0226618 334:0.193319 335:-0.0793759 336:-0.663555 337:0.132298 338:0.248379 339:0.0384228 340:-0.596059 341:-0.596958 342:-0.102701 343:-0.378331 344:0.005323 345:-0.135763 346:0.0885404 347:0.164014 348:-0.251257 349:-0.0536085 350:0.257705 351:-0.224446 352:-0.65861 353:-0.596581 354:-0.151082 355:-0.364594 356:0.535283 357:-0.403349 358:-0.150074 359:-0.0516882 360:-0.438106 361:0.539774 362:-0.573956 363:0.71502 364:-0.204633 365:-0.449331 366:-0.00449773 367:0.233631 368:0.324391 369:0.787028 370:0.862872 371:-0.114846 372:-0.810696 373:0.55108 374:-0.642455 375:0.596767 376:-0.806216 377:-0.591724 378:-0.433794 379:0.128205 380:-0.00815214 381:0.409589 382:0.675699 383:0.231241 384:-0.939951 
0 182.0244166763866 0 262.2289108768699 0 73.69995413327298 1:-0.784387 2:-0.864521 3:-0.783084 4:-0.801567 5:-1 6:-0.450328 7:-0.297325 8:-0.0199497 9:-0.858898 10:-0.632023 11:-0.695318 12:-0.904314 13:-0.146502 14:0.211518 15:-0.355431 16:-0.616477 17:-0.953307 18:-0.147994 19:0.637877 20:-0.429874 21:-0.568955 22:-0.26741 23:-0.190409 24:-0.742873 25:-0.131891 26:-0.106023 27:-0.0386272 28:-0.933649 29:-0.66113 30:0.0345487 31:-0.0900701 32:0.031971 33:-0.278353 34:-0.029115 35:-0.0367583 36:-0.32662 37:-0.0348966 38:0.0057825 39:-0.0950574 40:-0.601236 41:-0.739663 42:-0.352358 43:0.679235 44:-0.522488 45:-0.280243 46:-0.0611732 47:0.393836 48:-0.396876 49:0.366704 50:0.0958172 51:0.0821396 52:-0.935007 53:-0.625 54:0.484024 55:-0.65347 56:0.507856 57:-0.210614 58:0.110654 59:-0.28961 60:-0.285731 61:-0.505523 62:-0.443101 63:-0.0271747 64:-0.653374 65:-0.866142 66:-0.26011 67:0.402938 68:-0.608038 69:0.234733 70:0.453967 71:0.152738 72:-0.832559 73:0.192041 74:0.0531016 75:0.232744 76:-0.708543 77:-0.860534 78:-0.0163914 79:0.470835 80:-0.246774 81:0.269459 82:0.346841 83:0.208823 84:-0.390717 85:0.00811269 86:-0.823803 87:0.680134 88:-0.707447 89:-0.69147 90:-0.680269 91:-0.549084 92:-0.162437 93:1 94:0.934513 95:0.22839 96:-0.547887 97:-0.417721 98:-0.250369 99:0.0327536 100:-0.936468 101:-0.796 102:0.191662 103:0.211224 104:0.045843 105:-0.190942 106:-0.00970273 107:-0.584766 108:0.185363 109:-0.22445 110:0.570755 111:-0.662257 112:-0.742814 113:-0.803379 114:0.165488 115:0.108614 116:0.113811 117:-0.65154 118:-0.535397 119:0.156638 120:-0.562178 121:-0.618787 122:-0.0141035 123:-0.40819 124:-0.982808 125:-0.829787 126:-0.38547 127:0.575033 128:-0.570136 129:-0.115475 130:0.179927 131:0.155375 132:-0.87436 133:-0.472585 134:0.260497 135:-0.62406 136:-0.8 137:-0.977143 138:0.353517 139:0.130412 140:0.261636 141:-0.589424 142:-0.411333 143:-0.00896609 144:-0.659466 145:-0.672238 146:0.382293 147:-0.524839 148:-0.993092 149:-0.570909 150:-0.408308 151:-0.272896 152:-0.196195 153:-0.627962 154:-0.444012 155:0.0066375 156:-0.797853 157:0.183784 158:-0.913043 159:0.184987 160:-0.928036 161:-0.627119 162:-0.161806 163:-0.765555 164:0.433256 165:-0.339392 166:-0.0843342 167:-0.318188 168:-0.658458 169:0.547551 170:-0.147148 171:0.494492 172:-0.80212 173:-0.580882 174:-0.273089 175:-0.348134 176:-0.0661498 177:0.211043 178:0.458751 179:-0.0949735 180:-0.795723 181:0.307401 183:0.307401 184:-0.740458 185:-1 186:-0.463169 187:-0.175851 188:-0.232242 189:-0.372151 190:0.117245 191:-0.769288 192:-0.96721 193:-0.651913 194:0.672691 195:-0.634623 196:-0.798429 197:-0.696 198:0.473573 199:0.176478 200:-0.253282 201:-0.753652 202:-0.445209 203:0.140874 204:-0.928865 205:-0.501695 206:0.495424 207:-0.525436 208:-0.774096 209:-0.948563 210:0.0821623 211:-0.0645095 212:-0.114371 213:-0.409203 214:-0.200313 215:0.284783 216:-0.916267 217:-0.209278 218:0.344332 219:-0.258731 220:-0.682737 221:-0.858268 222:-0.127982 223:0.79876 224:-0.591937 225:-0.222525 226:0.0338962 227:0.298924 228:-0.8651 229:-0.536287 230:0.196295 231:-0.312033 232:-0.667722 233:-0.604328 234:-0.296831 235:0.986596 236:-0.791908 237:-0.200308 238:0.00270737 239:-0.26472 240:-0.616163 241:-0.422999 242:0.0338525 243:-0.211771 244:-0.752547 245:-0.675214 246:-0.0833677 247:-0.0692513 248:-0.0119399 249:-0.152621 250:0.106282 251:-0.225217 252:-0.592949 253:-0.0353535 254:0.244617 255:-0.155521 256:-0.80536 257:-0.665698 258:0.00179093 259:0.774943 260:-0.712904 261:0.315834 262:0.512579 263:-0.181122 264:-1 265:-0.337544 266:0.450389 267:-0.277574 268:-0.742149 269:-0.824 270:0.0177312 271:0.449925 272:-0.343233 273:-0.159281 274:0.0685802 275:0.41351 276:-0.682111 277:0.278384 278:0.36409 279:0.0717215 280:-0.725806 281:-0.681941 282:0.137015 283:0.626906 284:-0.646328 285:0.120213 286:0.344154 287:0.472901 288:-0.72135 289:-0.100274 290:-0.300501 291:0.220344 292:-0.852368 293:-0.85022 294:0.234827 295:0.19451 296:-0.398153 297:0.252913 298:0.422289 299:-0.229363 300:-0.224808 301:-0.376575 302:0.483204 303:-0.390243 304:-0.750831 305:-0.717138 306:-0.097934 307:0.249705 308:-0.178185 309:-0.32773 310:-0.0903295 311:-0.0242789 312:-0.607847 313:-0.108974 314:0.549525 315:-0.264635 316:-0.798762 317:-0.659026 318:0.125102 319:0.759473 320:-0.681714 321:-0.172882 322:0.0692259 323:0.551251 324:-0.471321 325:-0.194441 326:0.16833 327:-0.103416 328:-0.773006 329:-0.971014 330:-0.116696 331:0.227065 332:-0.14033 333:0.0624113 334:0.271773 335:-0.225584 336:-0.594889 337:-0.583366 338:0.208742 339:-0.317893 340:-0.727422 341:-0.551331 342:-0.0236983 343:0.221911 344:-0.344559 345:-0.284273 346:-0.0527241 347:-0.550469 348:-0.359636 349:-0.190721 350:0.0821916 351:-0.186512 352:-0.945619 353:-0.91453 354:-0.203343 355:-0.825138 356:0.831215 357:0.364823 358:0.549985 359:-0.251545 360:-0.825674 361:0.443701 362:-0.295057 363:0.501963 364:-0.69112 365:-0.74761 366:-0.123427 367:0.0824584 368:0.0790261 369:0.157742 370:0.408612 371:-0.0603757 372:-0.395899 373:0.233838 374:-0.310617 375:0.272228 376:-0.619744 377:-0.806897 378:-0.433794 379:-0.0662299 380:-0.0438587 381:-0.290426 382:0.189453 383:0.231132 384:-0.903278 
