svm_type c_svc
kernel_type rbf
gamma 0.0078125
nr_class 7
total_sv 380
rho 0.345044 -0.514821 0.217013 0.443696 -0.170162 0.250413 -0.331729 0.0665022 0.0146853 0.232908 -0.191438 0.355708 0.344655 -0.0583559 0.379201 -0.241945 -0.220821 -0.682957 -0.337438 -0.852373 0.0201567
label 5 7 1 6 4 2 3
probA -4.37012 -3.12309 -4.06941 -3.09229 -4.51288 -4.70114 -4.54408 -4.35317 -5.44687 -4.8913 -4.81696 -4.19724 -4.83771 -4.49696 -4.55851 -4.11138 -3.10998 -4.33967 -5.15615 -4.54398 -5.56308
probB 0.0134234 -0.0402147 -0.0523917 -0.11639 0.0861463 0.371495 -0.165548 0.295899 0.420188 0.0742602 0.498083 -0.0949972 0.253801 0.0714153 0.322329 0.0696384 -0.198895 0.0273493 -0.543612 0.136832 0.365576
nr_sv 51 59 83 38 53 59 37
SV
3.829952574965105 1.326050607137701 1.458158107274757 5.564261338763088 1.241454493148335 2.774864781178455 1:-0.880785 2:-0.799791 3:-0.879518 4:-0.929504 5:-0.99759 6:-0.761808 7:0.083917 8:-0.503634 9:-0.9018 10:-0.767896 11:-0.580505 12:-0.873949 13:0.272701 14:-0.186923 15:0.284414 16:-0.66242 17:-0.647211 18:0.0108118 19:-0.479529 20:0.181357 21:-0.128082 22:0.104398 23:-0.123338 24:-0.422507 25:0.0700215 26:0.091357 27:-0.107608 28:-0.807267 29:-0.877076 30:0.209309 31:-0.432543 32:0.372807 33:-0.357348 34:-0.030833 35:-0.169374 36:-0.399452 37:-0.124041 38:0.041226 39:-0.274301 40:-0.76324 41:-0.727412 42:-0.0586283 43:-0.203379 44:0.0301671 45:-0.307677 46:-0.207636 47:-0.178847 48:-0.213009 49:-0.260162 50:0.560546 51:-0.718061 52:-0.749245 53:-0.45749 54:0.245773 55:-0.24384 56:0.105792 57:-0.755538 58:-0.585149 59:0.235008 60:-0.752066 61:-0.534501 62:-0.12388 63:-0.290094 64:-0.546708 65:-0.492126 66:0.054808 67:-0.245093 68:0.0937713 69:-0.223455 70:-0.0107691 71:-0.242157 72:-0.572308 73:-0.479017 74:-0.140148 75:-0.145832 76:-0.852596 77:-0.876984 78:-0.230601 79:0.0615881 80:-0.148674 81:-0.20695 82:-0.108277 83:-0.330846 84:-0.478275 85:-0.0617277 86:0.371576 87:-0.306202 88:-0.941489 89:-0.787476 90:0.371667 91:-0.485607 92:0.565139 93:-0.582846 94:-0.499971 95:-0.278811 96:-0.434122 97:-0.173531 98:0.0593771 99:-0.0622552 100:-0.542567 101:-0.738431 102:0.184072 103:0.334919 104:-0.111404 105:0.0834445 106:0.295612 107:0.0394798 108:-0.74364 109:-0.13898 110:-0.610805 111:0.629483 112:-0.549168 113:-0.84639 114:0.0684929 115:0.197834 116:-0.0305356 117:0.425643 118:0.460068 119:-0.765107 120:0.13795 121:-0.938305 122:-0.0777723 123:-0.574067 124:-0.657492 125:-0.876209 126:-0.42718 127:0.0291324 128:-0.292311 129:-0.625345 130:-0.440499 131:-0.282596 132:-0.485448 133:-0.496373 134:0.338346 135:-0.641799 136:-0.586207 137:-0.577143 138:0.302067 139:0.221622 140:0.163515 141:-0.560682 142:-0.358888 143:-0.0976913 144:-0.638779 145:-0.369059 146:0.180455 147:-0.124519 148:-0.533679 149:-0.756364 150:-0.377064 151:0.287138 152:-0.303007 153:-0.354107 154:-0.154802 155:-0.198737 156:-0.697612 157:-0.0540542 158:-0.954545 159:-0.0482574 160:-0.528596 161:-0.99661 162:-0.303626 163:0.174441 164:-0.406645 165:-0.515032 166:-0.26953 167:-0.181287 168:-0.582767 169:0.375734 170:0.366137 171:0.18259 172:-0.80212 173:-0.702206 174:-0.389311 175:-0.242776 176:-0.102932 177:-0.532568 178:-0.258012 179:-0.18966 180:-0.575938 181:0.0819673 183:0.0819673 184:-0.503817 185:-1 186:-0.782328 187:0.0116342 188:-0.524434 189:-0.819626 190:-0.403961 191:-0.63226 192:-0.922101 193:-0.824881 194:0.739145 195:-0.774005 196:-0.926797 197:-0.888 198:0.475922 199:0.676273 200:-0.656546 201:-0.88516 202:-0.682366 203:-0.201503 204:-0.819343 205:-0.665859 206:0.424468 207:-0.590968 208:-0.497418 209:-0.684211 210:0.0746175 211:0.0110265 212:-0.150365 213:-0.650624 214:-0.475732 215:0.0752035 216:-0.79996 217:-0.0468912 218:-0.389147 219:0.250753 220:-0.933444 221:-0.899213 222:-0.422742 223:-0.237383 224:0.101229 225:-0.234174 226:0.00915063 227:-0.22337 228:-0.434764 229:-0.546842 230:0.0766377 231:-0.340371 232:-0.563291 233:-0.746522 234:-0.172215 235:0.22696 236:-0.161984 237:-0.180812 238:0.0142649 239:-0.210904 240:-0.800409 241:-0.840298 242:0.203286 243:-0.503007 244:-0.882911 245:-0.707317 246:0.0965008 247:-0.201836 248:0.0588032 249:-0.546605 250:-0.337254 251:-0.127163 252:-0.607793 253:-0.580022 254:0.470626 255:-0.532712 256:-0.899038 257:-0.543186 258:-0.168033 259:-0.0808157 260:-0.0447694 261:-0.284825 262:-0.0342387 263:-0.368548 264:-0.987833 265:-0.340484 266:0.064412 267:-0.00489194 268:-0.910744 269:-0.672 270:-0.22277 271:-0.052733 272:-0.0677527 273:-0.148707 274:0.0548058 275:0.190115 276:-0.561264 277:-0.387909 278:0.717549 279:-0.599432 280:-0.706989 281:-0.727763 282:-0.0516863 283:-0.544813 284:0.267754 285:-0.504445 286:-0.304621 287:0.148313 288:-0.910227 289:0.320095 290:-0.330548 291:0.589763 292:-0.78903 293:-0.833887 294:0.498553 295:-0.0290943 296:-0.206 297:0.383515 298:0.529491 299:0.197637 300:0.0135279 301:0.495113 302:0.293941 303:0.117997 304:-0.659432 305:-0.836938 306:0.0329198 307:-0.0497859 308:0.0788319 309:-0.0945341 310:0.13708 311:0.453843 312:-0.0577 313:-0.31185 314:0.318723 315:-0.26529 316:-0.603715 317:-0.893471 318:-0.27588 319:0.136157 320:-0.384641 321:-0.388903 322:-0.194482 323:0.126985 324:-0.60337 325:-0.626855 326:0.0235072 327:-0.289966 328:-0.745399 329:-0.61512 330:-0.275917 331:-0.445794 332:0.357591 333:-0.289674 334:-0.0699229 335:-0.522578 336:-0.650504 337:0.0698121 338:0.498947 339:-0.0401663 340:-0.569787 341:-0.429658 342:-0.333696 343:-0.100173 344:-0.182677 345:0.0579339 346:0.26847 347:0.61567 348:-0.404453 349:-0.0205542 350:0.40839 351:-0.311311 352:-0.54386 353:-0.675214 354:-0.259665 355:-0.640858 356:0.673529 357:-0.556805 358:-0.322693 359:0.168514 360:-0.326901 361:-0.170584 362:0.343789 363:-0.188647 364:-0.799228 365:-0.510516 366:-0.158284 367:0.195047 368:0.115843 369:-0.486423 370:-0.193327 371:-0.109842 372:-0.91421 373:0.0819675 374:-0.0819675 375:0.0819674 376:-0.531993 377:-0.635862 378:-0.433794 379:0.215724 380:-0.342334 381:-0.726008 382:-0.260494 383:-0.265854 384:-0.871194 
2.354645231263262 3.114741553923638 0.3354313127053699 4.295919572797884 2.510406377223081 3.351086649875263 1:-0.595596 2:-0.77907 3:-0.593879 4:-0.791123 5:-0.995181 6:-0.0468164 7:-0.00237779 8:0.0670485 9:-0.624396 10:-0.303534 11:-0.827509 12:-0.962044 13:-0.140717 14:-0.0786699 15:-0.109627 16:-0.627389 17:-0.776913 18:-0.345587 19:0.089345 20:-0.383648 21:-0.172395 22:0.0554862 23:-0.026798 24:-0.727633 25:0.181299 26:0.255707 27:-0.172317 28:-0.889415 29:-0.292359 30:0.231466 31:-0.199533 32:0.289468 33:-0.657432 34:-0.418324 35:-0.478243 36:0.258347 37:-0.458836 38:-0.0221754 39:-0.511071 40:-0.956386 41:-0.359877 42:-0.255587 43:-0.624246 44:0.262505 45:-0.481503 46:-0.172412 47:-0.0885207 48:-0.729231 49:-0.13269 50:0.308261 51:-0.380775 52:-0.280967 53:-0.777328 54:0.0417319 55:-0.202768 56:-0.0860075 57:-0.604487 58:-0.38012 59:0.761877 60:-0.695369 61:-0.562508 62:-0.676492 63:0.140434 64:-0.274119 65:-0.11811 66:-0.391863 67:-0.0164035 68:-0.53511 69:-0.0649356 70:0.149277 71:-0.120216 72:-0.40085 73:-0.865463 74:0.0639714 75:-0.669113 76:-0.9933 77:-0.436508 78:-0.383476 79:0.113226 80:-0.34349 81:-0.553055 82:-0.421809 83:-0.454751 84:-0.589337 85:-0.24691 86:0.153226 87:-0.248304 88:-0.5 89:-0.798861 90:-0.239601 91:0.46166 92:-0.745311 93:-0.305575 94:0.0322417 95:0.0856498 96:-0.821386 97:-0.877765 98:-0.376349 99:-0.13683 100:-0.949174 101:-0.521127 102:-0.711025 103:-0.255863 104:-0.256713 105:-0.427517 106:-0.217966 107:0.462541 108:-0.627183 109:-0.727409 110:-0.618176 111:0.151589 112:-0.555219 113:-0.815668 114:-0.666595 115:0.384268 116:-0.813844 117:0.357316 118:0.466188 119:-0.195497 120:-0.772948 121:-0.782994 122:0.0361896 123:-0.543516 124:-0.636086 125:-0.199226 126:-0.571638 127:-0.0724559 128:-0.344718 129:-0.239635 130:-0.0340619 131:0.139918 132:-0.862567 133:-0.0332356 134:-0.179329 135:0.162871 136:-0.875862 137:-0.481905 138:-0.132637 139:-0.225147 140:0.219681 141:-0.310824 142:-0.0110237 143:0.445609 144:-0.301106 145:-0.72362 146:-0.12706 147:-0.240331 148:-0.606218 149:-0.96 150:-0.647912 151:0.324187 152:-0.58453 153:-0.233006 154:-0.0320877 155:-0.178836 156:-0.879831 157:0.218919 158:-0.545455 159:0.198391 160:-0.847487 161:-0.491525 162:0.0146707 163:-0.260254 164:0.171536 165:0.205449 166:0.247947 167:-0.298276 168:-0.729209 169:0.648451 170:0.870079 171:0.250331 172:-0.607774 173:-0.272059 174:0.335206 175:-0.392692 176:0.541829 177:0.237649 178:0.487731 179:-0.558903 180:-0.927929 181:0.472222 183:0.472222 184:-0.774809 185:-1 186:-0.06235 187:-0.392208 188:0.25665 189:-0.124069 190:0.363867 191:-0.871701 192:-0.979411 193:-0.790138 194:0.492269 195:-0.629222 196:-0.788235 197:-0.68 198:0.521327 199:0.555406 200:-0.338338 201:-0.62349 202:-0.27185 203:-0.240734 204:-0.928897 205:-0.158671 206:-0.112695 207:0.00879725 208:-0.435456 209:-0.887719 210:0.0664719 211:0.182035 212:-0.369571 213:-0.583689 214:-0.392974 215:-0.173335 216:0.159653 217:-0.536542 218:0.597713 219:-0.617215 220:-0.36772 221:-0.351181 222:-0.411525 223:-0.363638 224:0.200001 225:-0.651878 226:-0.459637 227:0.108001 228:-0.824804 229:-0.721191 230:-0.0569962 231:-0.370688 232:-0.306962 233:-0.703246 234:-0.244433 235:0.268956 236:-0.289118 237:-0.44442 238:-0.261502 239:-0.511034 240:-0.301161 241:-0.354206 242:0.479658 243:-0.420953 244:-0.905063 245:-0.170732 246:-0.101 247:-0.498287 248:0.302643 249:-0.635228 250:-0.449022 251:0.726946 252:-0.471589 253:0.780641 254:-0.525205 255:0.743767 256:0.0817308 257:-0.992322 258:-0.17535 259:-0.170049 260:-0.0777882 261:-0.0586972 262:0.183242 263:-0.18834 264:0.040528 265:-0.3577 266:0.150424 267:-0.0778623 268:-0.441322 269:-0.612 270:-0.342205 271:-0.340108 272:0.157679 273:-0.228992 274:-0.0286916 275:-0.151072 276:-0.189854 277:-0.327811 278:0.538581 279:-0.458774 280:-0.518817 281:-0.74124 282:-0.235104 283:-0.39377 284:-0.13161 285:-0.684082 286:-0.519304 287:0.0703365 288:-0.474288 289:-0.280475 290:0.273555 291:-0.188302 292:-0.683544 293:-0.677741 294:0.019367 295:-0.101174 296:-0.375898 297:-0.197697 298:0.00323658 299:0.0835662 300:-0.606611 301:-0.245762 302:0.559136 303:-0.396582 304:-0.429048 305:-0.603993 306:-0.313559 307:-0.0446451 308:-0.106165 309:-0.34207 310:-0.107493 311:0.376077 312:-0.643768 313:-0.531654 314:0.181802 315:-0.330806 316:-0.510836 317:-0.398625 318:-0.329888 319:-0.0844808 320:-0.246713 321:-0.282206 322:-0.0838899 323:0.0612635 324:-0.801718 325:-0.163304 326:-0.0188587 327:-0.0319251 328:-0.579755 329:-0.594502 330:0.00960139 331:-0.12068 332:-0.0746256 333:-0.0763623 334:0.145536 335:-0.45803 336:-0.589251 337:-0.739618 338:0.256329 339:-0.332238 340:-0.727422 341:-0.634981 342:0.292763 343:-0.0391598 344:-0.26135 345:-0.344898 346:-0.117429 347:-0.523492 348:-0.49844 349:0.131367 350:-0.0513701 351:0.0425429 352:-0.884211 353:-0.302564 354:-0.210116 355:-0.446205 356:0.467783 357:0.1468 358:0.369933 359:-0.262214 360:-0.462293 361:0.186621 362:0.0185611 363:0.185791 364:-0.301158 365:-0.502868 366:0.126502 367:0.236738 368:0.26461 369:-0.0742705 370:0.215666 371:-0.358748 372:-0.78452 373:0.347702 374:-0.416111 375:0.381907 376:-0.73309 377:-0.812414 378:-0.433794 379:0.0632419 380:-0.0106078 381:-0.178702 382:0.281306 383:-0.295708 384:-0.915664 
0 1.975613972294351 0 0.04717529017889617 0 0 1:-0.61503 2:-0.817793 3:-0.613217 4:-0.97389 5:-0.987952 6:-0.29777 7:-0.094712 8:0.0860038 9:-0.676077 10:-0.344942 11:-0.626852 12:-0.896333 13:0.28207 14:-0.199025 15:0.301199 16:-0.732484 17:-0.320363 18:0.111049 19:-0.0549609 20:-0.0130317 21:0.0171576 22:0.217362 23:-0.384914 24:-0.328073 25:-0.118739 26:-0.0301868 27:-0.131684 28:-0.535545 29:-0.86711 30:0.0835522 31:0.164112 32:-0.117128 33:-0.402933 34:-0.141262 35:-0.431363 36:-0.520518 37:-0.298761 38:-0.400293 39:-0.0535537 40:-0.498442 41:-0.445636 42:-0.211083 43:-0.0397028 44:-0.232778 45:0.227578 46:0.32852 47:-0.43407 48:-0.457234 49:-0.346749 50:0.163382 51:-0.352994 52:-0.546828 53:-0.259109 54:-0.0140663 55:-0.206267 56:-0.13803 57:-0.412092 58:-0.155323 59:0.358121 60:-0.848093 61:-0.673917 62:-0.271331 63:-0.271941 64:-0.996937 65:-0.106299 66:-0.268704 67:-0.33031 68:-0.092082 69:-0.242678 70:-0.00318562 71:0.432292 72:-0.845494 73:-0.228458 74:0.142102 75:-0.20782 76:-0.363484 77:0.111111 78:-0.0695196 79:-0.081009 80:0.115079 81:0.0503226 82:0.104827 83:-0.0892581 84:-0.86107 85:-0.159879 86:-0.249638 87:0.160164 88:-0.204787 89:-0.870968 90:-0.304719 91:0.0925193 92:-0.529801 93:0.221536 94:0.222208 95:0.0740277 96:-0.797193 97:-0.382696 98:-0.372619 99:0.197136 100:-0.308767 101:-0.142857 102:0.0474744 103:0.00146231 104:0.0687995 105:0.275336 106:0.407325 107:-0.351904 108:-0.403716 109:-0.367918 110:-0.264468 111:0.090831 112:-0.803328 113:-0.698925 114:-0.235337 115:-0.175716 116:0.0775291 117:-0.0677124 118:0.126286 119:-0.320705 120:-0.593149 121:-0.724254 122:-0.0573473 123:-0.414919 124:-0.452599 125:-0.733075 126:-0.436602 127:-0.0665801 128:-0.285913 129:-0.410074 130:-0.200223 131:0.349875 132:-0.810621 133:-0.381208 134:-0.150552 135:-0.130118 136:-0.310345 137:-0.977143 138:-0.044856 139:0.367768 140:-0.359137 141:-0.349881 142:-0.0528291 143:0.0668205 144:-0.628235 145:-0.218442 146:0.0763129 147:0.07708 148:-0.816926 149:-0.334545 150:-0.413801 151:0.163128 152:-0.211656 153:0.101492 154:0.260059 155:0.0517724 156:-0.907778 157:-0.175676 158:-0.772727 159:-0.179625 160:-0.0883882 161:-0.745763 162:-0.431654 163:-0.237851 164:-0.0536302 165:-0.398199 166:-0.225936 167:-0.140252 168:-0.593716 169:0.770512 170:-0.106027 171:0.633818 172:-0.293286 173:-0.382353 174:0.778749 175:-0.0126734 176:0.502004 177:0.873225 178:0.897095 179:-0.844294 180:-0.972383 181:0.664447 183:0.664447 184:-0.790076 185:-1 186:0.450637 187:0.0769089 188:0.207963 189:0.1595 190:0.511761 191:-0.97709 192:-0.984849 193:-0.698387 194:0.59007 195:-0.61775 196:-0.932026 197:-0.884 198:0.47797 199:0.782203 200:-0.603888 201:-0.621171 202:-0.270071 203:-0.0631852 204:-0.934501 205:0.328611 206:0.295789 207:0.0993807 208:-0.931153 209:-0.954386 210:0.340672 211:0.211622 212:-0.369284 213:-0.346739 214:-0.124603 215:0.486896 216:-0.359309 217:0.0332899 218:0.125761 219:-0.00079353 220:-0.71381 221:-0.908661 222:0.0562754 223:-0.154892 224:-0.0645805 225:-0.115059 226:0.126219 227:0.510856 228:-0.830226 229:-0.504696 230:0.0562642 231:-0.301843 232:-0.512658 233:-0.92272 234:-0.428211 235:0.127795 236:-0.141493 237:-0.121754 238:0.0718915 239:-0.124364 240:-0.730157 241:-0.446394 242:0.571433 243:-0.518176 244:-0.787975 245:-0.979094 246:-0.487718 247:-0.515786 248:0.17802 249:-0.528378 250:-0.318953 251:0.308567 252:-0.797855 253:0.438275 254:0.181932 255:0.128193 256:0.370192 257:0.0633397 258:-0.253194 259:-0.390206 260:0.157624 261:-0.11854 262:0.125328 263:0.0857684 264:-0.712729 265:0.234939 266:-0.189134 267:0.568555 268:-0.0644628 269:0.108 270:-0.159297 271:-0.327542 272:0.0960164 273:0.2868 274:0.44016 275:-0.0462404 276:-0.234191 277:0.634695 278:0.0557169 279:0.323645 280:-0.897849 281:-0.743935 282:0.111349 283:-0.433374 284:-0.107446 285:0.0142224 286:0.225775 287:0.330425 288:-0.607737 289:-0.075893 290:-0.464071 291:0.423159 292:-0.438819 293:-0.551495 294:0.373534 295:-0.251803 296:-0.114422 297:0.377527 298:0.521942 299:-0.44594 300:-0.417719 301:-0.0272965 302:-0.00128228 303:0.0401479 304:-0.0751252 305:-0.673877 306:-0.0725405 307:-0.0512573 308:-0.136404 309:-0.130332 310:0.105616 311:-0.161063 312:-0.461358 313:-0.439247 314:0.218379 315:-0.291243 316:-0.789474 317:-0.810997 318:-0.0630363 319:-0.1774 320:-0.0984733 321:-0.328826 322:-0.133332 323:-0.0057684 324:-0.61552 325:0.0980973 326:0.303992 327:-0.0712355 328:-0.484663 329:-0.419244 330:-0.001094 331:-0.361978 332:0.180627 333:0.036085 334:0.2457 335:0.157811 336:-0.718317 337:0.0763623 338:0.263105 339:0.151382 340:-0.178982 341:-0.34981 342:-0.201543 343:-0.306427 344:-0.0640878 345:-0.00812689 346:0.207981 347:0.103964 348:-0.593721 349:0.107239 350:-0.0385276 351:0.0215219 352:-0.842105 353:-0.82906 354:-0.322531 355:-0.450421 356:0.461869 357:-0.280033 358:-0.0208762 359:-0.16438 360:-0.309344 361:0.576249 362:-0.53408 363:0.71036 364:-0.343629 365:-0.85086 366:0.0970476 367:0.475412 368:-0.017508 369:0.0997068 370:0.360648 371:-0.326596 372:-0.519764 373:0.668768 374:-0.604965 375:0.636867 376:-0.806216 377:-0.878621 378:-0.0794591 379:0.186736 380:-0.0885484 381:-0.286965 382:0.19322 383:-0.24473 384:-0.888714 
0.1425766703349443 1.67019596206041 0.07258347351167299 0 1.286122793728538 2.024934385304002 1:-0.712058 2:-0.906441 3:-0.710125 4:-0.913838 5:-0.992771 6:-0.808665 7:0.0424976 8:-0.440289 9:-0.938498 10:-0.849879 11:-0.296119 12:-0.553833 13:0.464659 14:0.0660833 15:0.220473 16:-0.00636943 17:-0.276265 18:0.19566 19:-0.257971 20:0.236271 21:-0.466776 22:-0.267762 23:-0.0227508 24:-0.227571 25:0.548235 26:-0.208485 27:0.4707 28:-0.0458136 29:-0.162791 30:0.0346296 31:0.161024 32:-0.1689 33:0.0532237 34:0.296902 35:-0.0432324 36:-0.304059 37:-0.400229 38:-0.316625 39:-0.212044 40:-0.65109 41:-0.476263 42:-0.383752 43:-0.0618936 44:-0.36066 45:-0.15608 46:-0.0495659 47:-0.181878 48:-0.561604 49:0.034057 50:0.0719019 51:-0.0374489 52:0.0634441 53:-0.0445344 54:0.0698162 55:-0.158182 56:-0.151275 57:-0.179693 58:0.0952194 59:0.273516 60:-0.796741 61:0.0974582 62:-0.484745 63:0.467726 64:-0.0627871 65:-0.53937 66:-0.195337 67:0.269047 68:-0.775143 69:-0.0618247 70:0.350893 71:0.273307 72:-0.541531 73:-0.0670417 74:0.123208 75:-0.0534811 76:-0.293132 77:-0.253968 78:0.0812599 79:0.113192 80:-0.0414894 81:0.218266 82:0.264618 83:-0.0640411 84:-0.855255 85:0.0445787 86:-0.371334 87:0.408918 88:-1 89:-0.339658 90:-0.318434 91:-0.166395 92:-0.243071 93:0.823898 94:0.525971 95:0.230527 96:-0.633173 97:0.303513 98:-0.313846 99:0.610168 100:-0.138501 101:-0.142857 102:-0.0925316 103:0.203433 104:-0.398142 105:-0.121062 106:0.131176 107:0.289521 108:-0.529288 109:-0.118154 110:-0.263305 111:0.295663 112:-0.0136157 113:-0.419355 114:-0.277541 115:0.229941 116:-0.435383 117:-0.331468 118:-0.135316 119:-0.155772 120:-0.252834 121:-0.321556 122:-0.470185 123:0.271032 124:-0.0489297 125:-0.945841 126:-0.356119 127:0.158685 128:-0.580089 129:-0.0538333 130:0.348465 131:0.127692 132:-0.535009 133:-0.337277 134:-0.0689957 135:-0.166827 136:-0.255172 137:-0.900952 138:-0.0595613 139:0.369185 140:-0.428098 141:-0.33438 142:-0.00640889 143:0.189111 144:-0.70528 145:-0.240304 146:0.0421703 147:0.0797936 148:-0.0846287 149:-0.32 150:-0.428287 151:0.495995 152:-0.684401 153:-0.115743 154:0.157865 155:0.206647 156:-0.832996 157:0.248648 158:-0.954545 159:0.252011 160:-0.0155979 161:-1 162:-0.514975 163:-0.12701 164:-0.284769 165:-0.56647 166:-0.382382 167:0.197589 168:-0.147837 169:0.803978 170:0.832215 171:0.384557 172:-0.04947 173:0.0808824 174:0.643319 175:-0.100855 176:0.509408 177:0.362382 178:0.544688 179:-0.803724 180:-0.931988 181:0.95154 183:0.95154 184:0.324427 185:-1 186:0.272656 187:0.0748443 188:0.0883781 189:0.191444 190:0.532639 191:-0.889125 192:-0.976788 193:-0.669194 194:0.653224 195:-0.629947 196:-0.911111 197:-0.868 198:0.470902 199:0.928148 200:-0.871286 201:-0.902759 202:-0.720683 203:0.0489544 204:-0.622086 205:0.150981 206:0.081629 207:0.100637 208:0.0395869 209:-0.0245614 210:-0.0473028 211:0.143902 212:-0.315584 213:-0.384726 214:-0.165291 215:0.11066 216:-0.534891 217:0.0128159 218:0.0855119 219:0.0103474 220:-0.12812 221:-0.0299213 222:0.189011 223:-0.241457 224:0.0457261 225:-0.0519602 226:0.18402 227:0.229844 228:-0.819018 229:-0.481899 230:0.00275579 231:-0.255836 232:-0.439873 233:-0.496136 234:0.160834 235:0.190577 236:-0.143402 237:-0.495359 238:-0.319474 239:-0.384251 240:-0.25861 241:-0.471935 242:0.668566 243:-0.585723 244:-0.28481 245:-0.278746 246:0.108791 247:-0.452282 248:0.130767 249:-0.653989 250:-0.470306 251:-0.123538 252:-0.778562 253:0.308748 254:-0.19911 255:0.313495 256:-0.432692 257:-0.573896 258:0.197786 259:-0.374298 260:0.197369 261:-0.107382 262:0.136498 263:-0.251711 264:-0.444869 265:0.269177 266:-0.415111 267:0.752762 268:-0.507438 269:-0.4 270:0.0660151 271:-0.390312 272:0.230548 273:0.0669446 274:0.250294 275:-0.0485556 276:-0.152513 277:0.365987 278:0.159198 279:0.124534 280:-0.392473 281:-0.180593 282:-0.144518 283:-0.431857 284:-0.323694 285:-0.159368 286:0.0654442 287:0.207281 288:-0.622324 289:-0.139403 290:-0.0044277 291:0.0830999 292:-0.0843882 293:-0.541528 294:0.111089 295:-0.283688 296:-0.176588 297:-0.357382 298:-0.166399 299:0.295674 300:-0.469228 301:-0.288054 302:0.688213 303:-0.493294 304:0.0383973 305:-0.450915 306:0.0149573 307:-0.178852 308:0.0974613 309:-0.620557 310:-0.427431 311:0.436817 312:-0.573974 313:-0.252237 314:-0.0467749 315:-0.0168964 316:-0.637771 317:-0.90378 318:0.122822 319:-0.223972 320:0.00294055 321:-0.265297 322:-0.0675432 323:-0.375951 324:-0.459473 325:0.48483 326:-0.470349 327:0.537948 328:-0.895706 329:-0.0721649 330:-0.0709489 331:-0.332906 332:0.0136931 333:-0.120329 334:0.102092 335:-0.280361 336:-0.0833956 337:-0.040185 338:0.115294 339:0.199126 340:-0.825944 341:-0.828897 342:-0.201295 343:-0.298385 344:-0.147932 345:-0.0701672 346:0.151477 347:-0.0796024 348:-0.353514 349:0.101877 350:-0.339897 351:0.194695 352:-0.0210526 353:-0.558974 354:-0.313729 355:-0.426176 356:0.441384 357:-0.249625 358:0.0094363 359:-0.345647 360:-0.0362471 361:0.50464 362:-0.201634 363:0.478447 364:-0.200772 365:-0.323136 366:-0.260161 367:0.589316 368:-0.291681 369:0.375115 370:0.57363 371:-0.235172 372:-0.880808 373:0.884103 374:-0.938761 375:0.911432 376:-0.934186 377:-0.0344828 378:-0.433794 379:0.159419 380:-0.0509431 381:0.154798 382:0.518699 383:-0.28384 384:-0.91345 
0 2.553947851181523 0 0 0 0 1:-0.483679 2:-0.903374 3:-0.481339 4:-0.415144 5:-0.281928 6:-0.458503 7:0.143415 8:-0.390781 9:-0.628863 10:-0.313689 11:-0.427303 12:-0.796977 13:-0.0454472 14:0.336201 15:-0.37689 16:-0.780255 17:-0.346304 18:-0.399999 19:-0.278989 20:-0.135438 21:-0.665767 22:-0.510399 23:0.264223 24:-0.716136 25:-0.343941 26:-0.778766 27:0.353335 28:-0.191153 29:-0.358804 30:-0.71146 31:-0.053714 32:-0.432526 33:0.325996 34:0.50526 35:-0.20286 36:-0.734436 37:-0.58093 38:-0.268354 39:-0.409377 40:-0.931464 41:-0.491577 42:-0.411662 43:-0.283636 44:-0.125774 45:-0.606616 46:-0.514379 47:-0.359142 48:-0.265238 49:-0.476437 50:-0.35266 51:0.111419 52:-0.114804 53:-0.785425 54:-0.49461 55:-0.0367127 56:-0.690184 57:-0.139998 58:0.174618 59:0.453554 60:-0.83315 61:-0.0630793 62:0.0465829 63:-0.083645 64:-0.316998 65:-0.326772 66:0.133097 67:-0.027941 68:-0.0343585 69:-0.0908531 70:0.129259 71:0.737246 72:-0.751419 73:-0.260736 74:-0.959455 75:0.831118 76:-0.9933 77:-0.468254 78:-0.452253 79:-0.0325265 80:-0.25251 81:0.145669 82:0.175929 83:0.00903597 84:0.0985197 85:-0.162446 86:-0.518374 87:0.389984 88:-0.702128 89:0.0550285 90:-0.579638 91:-0.234145 92:-0.354605 93:0.901512 94:0.5692 95:-0.031568 96:-0.543046 97:0.394167 98:-0.350421 99:0.705989 100:-0.229987 101:-0.754527 102:0.155371 103:0.312183 104:-0.306705 105:-0.0549365 106:0.253181 107:-0.0723236 108:-0.183304 109:-0.0791146 110:-0.55626 111:0.623766 112:-0.252648 113:-0.97235 114:-0.338929 115:0.448421 116:-0.700393 117:-0.0293548 118:0.26192 119:-0.0673106 120:-0.43555 121:0.1437 122:-0.0236774 123:0.272511 124:-0.24159 125:0.0522244 126:-0.170771 127:-0.107611 128:-0.0468446 129:0.362239 130:0.499588 131:0.645368 132:-0.151766 133:0.82498 134:-0.123308 135:0.775615 136:-0.418391 137:0.0552381 138:0.469512 139:0.404401 140:0.0136511 141:0.176082 142:0.423143 143:0.321694 144:-0.532235 145:0.179146 146:0.342988 147:0.257682 148:-0.557858 149:-0.789091 150:0.292949 151:0.751031 152:-0.326317 153:0.301552 154:0.623047 155:0.0743416 156:-0.902617 157:0.205405 158:-0.818182 159:0.201072 160:-0.629116 161:0.0440678 162:0.0538817 163:-0.180124 164:0.0851342 165:-0.585203 166:-0.412 167:-0.243944 168:-0.501025 169:0.918106 170:0.599771 171:0.543202 172:-0.558304 173:-0.988971 174:0.719986 175:-0.101384 176:0.558282 177:0.756104 178:0.818873 179:-0.656861 180:-0.954939 181:0.941176 183:0.941176 184:-0.522901 185:-1 186:0.605171 187:0.0162925 188:0.367523 189:0.690336 190:0.824297 191:-0.935399 192:-0.982913 193:-0.485525 194:0.544049 195:-0.456133 196:-0.40915 197:-0.092 198:0.462175 199:0.82352 200:-0.683675 201:-0.581094 202:-0.221198 203:0.0670777 204:-0.841434 205:-0.565652 206:0.554323 207:-0.596425 208:-0.387263 209:-0.642105 210:0.487098 211:0.00689097 212:0.0901204 213:-0.65915 214:-0.485626 215:-0.268718 216:-0.847429 217:0.169547 218:0.0499694 219:0.125037 220:-0.164725 221:-0.905512 222:0.0817992 223:-0.0932926 224:-0.166273 225:0.206698 226:0.411112 227:0.190883 228:-0.820138 229:0.140082 230:-0.00207408 231:0.137542 232:-0.468354 233:-0.919629 234:0.000416373 235:0.213821 236:-0.1984 237:-0.320286 238:-0.127583 239:-0.0976738 240:-0.355975 241:0.519639 242:-0.117796 243:0.346304 244:-0.0917722 245:-0.728223 246:0.0748588 247:-0.263176 248:-0.184338 249:0.484588 250:0.628775 251:0.184132 252:-0.772145 253:-0.302276 254:0.09331 255:-0.15993 256:-0.173077 257:-0.0863724 258:-0.144514 259:-0.40348 260:0.210013 261:-0.441563 262:-0.202865 263:-0.540578 264:-0.45381 265:0.728334 266:-0.319266 267:0.998148 268:-0.570248 269:-0.22 270:-0.224418 271:-0.217691 272:-0.148241 273:0.398312 274:0.535415 275:0.119503 276:0.474289 277:0.120854 278:0.367467 279:-0.127348 280:-0.55914 281:-0.296496 282:0.0506505 283:-0.326956 284:-0.360423 285:-0.185962 286:0.0415125 287:0.349242 288:-0.678426 289:-0.482605 290:0.344441 291:-0.363907 292:-0.160338 293:-0.800664 294:0.401365 295:-0.279264 296:-0.0488784 297:-0.241372 298:-0.0465665 299:-0.293594 300:-0.750236 301:-0.475636 302:0.212467 303:-0.30273 304:-0.0717863 305:-0.976705 306:-0.0429385 307:-0.126899 308:0.0155058 309:-0.362192 310:-0.129486 311:-0.0777118 312:-0.583628 313:0.0977299 314:0.105116 315:0.125285 316:-0.151703 317:-0.14433 318:0.206649 319:-0.318124 320:0.266371 321:0.318341 322:0.471388 323:0.181554 324:-0.718241 325:-0.163635 326:-0.119687 327:0.0216515 328:-0.107362 329:-0.467354 330:-0.0474796 331:-0.301048 332:0.0420765 333:0.122253 334:0.323579 335:-0.422009 336:-0.613143 337:0.354675 338:0.111634 339:0.438673 340:-0.862069 341:-0.825095 342:0.0478316 343:-0.435519 344:0.241206 345:0.714855 346:0.795978 347:0.0564057 348:-0.612471 349:0.175156 350:0.138698 351:-0.0440438 352:-0.642105 353:-0.634188 354:-0.415337 355:-0.447875 356:0.40575 357:-0.259752 358:-0.000518472 359:0.025194 360:-0.317218 361:0.902452 362:-0.47186 363:0.841471 364:-0.289575 365:-0.869981 366:0.0837624 367:0.286468 368:0.323786 369:0.760037 370:0.844946 371:-0.213273 372:-0.855623 373:0.79666 374:-0.709008 375:0.752834 376:-0.564899 377:-0.605517 378:-0.433794 379:0.0545871 380:0.146867 381:0.802983 382:0.898064 383:-0.24004 384:-0.933915 
2.51178899709695 4.000168497477068 1.126667121023093 3.311494587029278 1.821967332725168 1.483189845746942 1:-0.853783 2:-0.849022 3:-0.852301 4:-0.665796 5:-0.79759 6:-0.633966 7:0.105346 8:-0.442492 9:-0.888044 10:-0.737535 11:-0.67144 12:-0.896426 13:0.370166 14:-0.600324 15:0.693095 16:-0.257962 17:-0.488975 18:0.010957 19:-0.044151 20:-0.0697742 21:0.540396 22:0.655945 23:-0.296341 24:-0.584072 25:-0.386167 26:-0.0228319 27:-0.318623 28:-0.241706 29:-0.960133 30:0.117161 31:0.198465 32:-0.0982317 33:-0.352889 34:-0.0877431 35:-0.324002 36:-0.757912 37:0.0522226 38:-0.0818332 39:-0.0177664 40:-0.604361 41:-0.57121 42:0.19344 43:0.0976467 44:-0.00178194 45:-0.320222 46:-0.202432 47:-0.229073 48:-0.156301 49:0.501808 50:0.58505 51:-0.303586 52:-0.265861 53:-0.987854 54:0.450922 55:-0.20704 56:0.218374 57:-0.584674 58:-0.355841 59:0.581724 60:-0.717421 61:-0.633634 62:-0.259304 63:-0.252228 64:-0.255743 65:-0.122047 66:-0.0663585 67:-0.298347 68:0.0441101 69:-0.350483 70:-0.129925 71:-0.117608 72:-0.624557 73:-0.0674828 74:0.501626 75:-0.420106 76:-0.527638 77:-0.547619 78:0.0278553 79:-0.0538404 80:0.15317 81:-0.642217 82:-0.538707 83:0.238021 84:-0.16736 85:0.446705 86:0.162252 87:0.231966 88:-0.37766 89:-0.741935 90:0.59416 91:0.229965 92:0.105865 93:-0.240996 94:-0.0753106 95:-0.0810615 96:-0.239994 97:-0.16121 98:-0.526013 99:0.490829 100:-0.374841 101:-0.146881 102:0.152246 103:-0.346343 104:0.578578 105:-0.0511754 106:0.218948 107:-0.408457 108:-0.111414 109:-0.825761 110:-0.490359 111:-0.0586362 112:-1 113:-0.711214 114:-0.474905 115:0.0225898 116:-0.343282 117:-0.386605 118:-0.23892 119:-0.222812 120:-0.271187 121:-0.830328 122:-0.42012 123:-0.191712 124:-0.437309 125:-0.624758 126:-0.561108 127:-0.168375 128:-0.244609 129:-0.41065 130:-0.223774 131:-0.487175 132:0.0799455 133:0.0868687 134:0.43864 135:-0.279208 136:-0.827586 137:-0.36 138:0.315337 139:-0.0271353 140:0.399452 141:-0.733381 142:-0.558287 143:0.718406 144:-0.0663419 145:-0.50124 146:-0.315309 147:0.0797092 148:-0.765112 149:-0.981818 150:-0.302745 151:0.350653 152:-0.317401 153:-0.523095 154:-0.325031 155:-0.36328 156:-0.326225 157:0.362162 158:-0.863636 159:0.359249 160:-0.930676 161:-0.715254 162:-0.0661662 163:-0.470297 164:0.404761 165:-0.0599244 166:0.106531 167:-0.340922 168:-0.719066 169:0.689389 170:-0.187032 171:0.59342 172:-0.59364 173:-0.606618 174:-0.296615 175:0.106032 176:-0.311496 177:-0.417995 178:-0.118121 179:-0.192299 180:-0.473336 181:0.467375 183:0.467375 184:-0.561069 185:-1 186:-0.677339 187:0.0435389 188:-0.479258 189:-0.616476 190:-0.130976 191:-0.622928 192:-0.917142 193:-0.830943 194:0.788342 195:-0.802295 196:-0.662745 197:-0.488 198:0.471105 199:0.784346 200:-0.691646 201:-0.863128 202:-0.638499 203:-0.126704 204:-0.927612 205:0.27754 206:-0.382547 207:0.423706 208:-0.77969 209:-0.796491 210:-0.439436 211:0.0671062 212:-0.299932 213:0.428987 214:0.579196 215:0.0680626 216:-0.674464 217:0.0942237 218:0.213718 219:-0.0154312 220:-0.477537 221:-0.971654 222:0.205099 223:-0.533425 224:0.560213 225:-0.0511274 226:0.183214 227:0.506055 228:-0.726575 229:-0.181222 230:0.281711 231:-0.232277 232:-0.924051 233:-0.588872 234:0.4424 235:0.0220012 236:0.254746 237:-0.248473 238:-0.0542142 239:-0.0662811 240:-0.646302 241:-0.535638 242:0.618778 243:-0.588792 244:-0.724684 245:-0.627178 246:0.217782 247:-0.678814 248:0.65427 249:-0.418947 250:-0.196014 251:0.235068 252:-0.862674 253:0.0510207 254:0.104681 255:-0.0025451 256:-0.509615 257:-0.193858 258:-0.0879937 259:-0.376035 260:0.241366 261:-0.223698 262:0.0241346 263:-0.156219 264:-0.739757 265:0.0794267 266:0.509889 267:-0.035132 268:-0.563636 269:-0.9 270:-0.101843 271:-0.510072 272:0.490526 273:-0.376436 274:-0.182858 275:0.177055 276:-0.0786427 277:0.0987021 278:0.627726 279:-0.299049 280:-0.615591 281:-0.814016 282:0.376517 283:-0.765956 284:0.678764 285:-0.399006 286:-0.187879 287:0.34198 288:-0.562796 289:-0.369865 290:-0.18639 291:0.0540432 292:-0.00843882 293:-0.302326 294:0.28189 295:-0.357384 296:0.152899 297:-0.122063 298:0.0690127 299:-0.296158 300:-0.254025 301:-0.0688625 302:0.526379 303:-0.291779 304:-0.69616 305:-0.301165 306:-0.196376 307:0.0480755 308:-0.241446 309:-0.448242 310:-0.21951 311:0.454293 312:-0.368631 313:-0.135793 314:0.153503 315:-0.0553583 316:-0.69969 317:-0.367698 318:-0.343277 319:-0.0647146 320:-0.301969 321:-0.348676 322:-0.152983 323:0.328146 324:-0.282173 325:-0.104217 326:0.221516 327:-0.130038 328:-0.806748 329:-0.505155 330:0.0978166 331:-0.584109 332:0.640499 333:-0.324403 334:-0.106464 335:-0.122059 336:-0.384095 337:-0.127839 338:0.172152 339:0.101362 340:-0.963875 341:-0.977186 342:0.311725 343:-0.508828 344:0.447641 345:-0.108122 346:0.113006 347:-0.14264 348:-0.520372 349:0.134048 350:-0.154966 351:0.104605 352:-0.950877 353:-0.917949 354:-0.375394 355:-0.481219 356:0.447425 357:0.0664439 358:0.30193 359:-0.166154 360:-0.583318 361:0.723573 362:-0.214271 363:0.598369 364:-0.571429 365:-0.552581 366:-0.224388 367:0.353644 368:0.0343805 369:-0.153216 370:0.143096 371:-0.201711 372:-0.703212 373:0.469282 374:-0.349589 375:0.409435 376:-0.586837 377:-0.903448 378:-0.433794 379:0.233839 380:-0.328091 381:-0.439747 382:0.0573402 383:-0.211963 384:-0.880496 
1.060160186115208 0.9976665747916271 0 0 0.5532048812367776 0 1:-0.709522 2:-0.997063 3:-0.707278 4:-1 5:-1 6:-0.61904 7:-0.163839 8:0.0155685 9:-0.879724 10:-0.620117 11:-0.566427 12:-0.850911 13:0.473894 14:0.190537 15:0.125985 16:-0.16879 17:-0.483787 18:0.493561 19:-0.0329497 20:0.201731 21:-0.422118 22:-0.22073 23:-0.194386 24:-0.233352 25:0.0446768 26:-0.03678 27:-0.0156642 28:-0.279621 29:-0.578073 30:0.0237818 31:0.288736 32:-0.295471 33:-0.319368 34:0.00590228 35:-0.329365 36:-0.289189 37:0.142659 38:0.369053 39:-0.319472 40:-0.404984 41:-0.200613 42:-0.00104591 43:0.0377951 44:-0.147332 45:-0.159027 46:-0.0347208 47:0.48731 48:-0.402002 49:-0.397492 50:-0.0807296 51:-0.12718 52:-0.280967 53:-0.728745 54:-0.090775 55:0.0165317 56:-0.46974 57:-0.293 58:0.0718944 59:-0.0913546 60:-0.657068 61:0.0108888 62:-0.666789 63:0.552854 64:-0.724349 65:-0.141732 66:-0.361438 67:-0.0114412 68:-0.553991 69:0.682991 70:0.769424 71:0.239671 72:-0.733585 73:0.575698 74:0.343138 75:0.275404 76:-0.403685 77:-0.940476 78:0.630868 79:0.0515145 80:0.500572 81:-0.0438807 82:0.0355811 83:0.0368714 84:-0.317705 85:0.0108895 86:-0.342378 87:0.360256 88:-0.444149 89:-0.339658 90:-0.259796 91:0.0710838 92:-0.492135 93:-0.11218 94:-0.0181232 95:0.208332 96:-0.441722 97:-0.577876 98:-0.126606 99:-0.164805 100:-0.466328 101:-0.746479 102:-0.253103 103:0.118799 104:-0.365145 105:-0.329371 106:-0.143149 107:0.184905 108:-0.617141 109:0.518178 110:0.517167 111:0.032183 112:-0.797277 113:-0.582181 114:0.488949 115:-0.154466 116:0.655938 117:-0.17629 118:0.0283726 119:0.229085 120:-0.570103 121:-0.398706 122:-0.0172913 123:-0.180574 124:-0.510703 125:-0.914894 126:-0.335952 127:0.0277754 128:-0.348272 129:-0.0367581 130:0.219079 131:0.283898 132:-0.695922 133:-0.0332135 134:0.10511 135:-0.0831843 136:-0.586207 137:-0.481905 138:0.472611 139:0.237087 140:0.219567 141:-0.625578 142:-0.414145 143:0.234017 144:-0.258599 145:-0.472263 146:-0.120421 147:-0.0210219 148:-0.944732 149:-0.545455 150:-0.63302 151:0.208674 152:-0.454268 153:-0.0441507 154:0.134079 155:-0.201286 156:-0.769676 157:0.92973 158:-0.909091 159:0.924933 160:-1 161:0.101695 162:-0.462768 163:-0.431848 164:0.257726 165:-0.586392 166:-0.325171 167:0.348645 168:0.053378 169:0.158224 170:-1 171:0.411944 172:-0.498233 173:-1 174:-0.200465 175:-0.190658 176:0.0435581 177:-0.449433 178:-0.160988 179:-0.553238 180:-0.797156 181:0.577817 183:0.577817 184:-0.935115 185:-1 186:-0.700338 187:-0.1445 188:-0.29779 189:-0.723943 190:-0.234539 191:-0.597474 192:-0.897037 193:-0.786355 194:0.623718 195:-0.691777 196:-0.997386 197:-1 198:0.474682 199:0.872848 200:-0.769345 201:-0.851933 202:-0.617469 203:-0.16489 204:-0.860322 205:-0.392911 206:0.082334 207:-0.24033 208:-0.979346 209:-0.870175 210:-0.36626 211:0.116168 212:-0.337782 213:-0.55153 214:-0.35413 215:-0.559548 216:-0.301939 217:0.12761 218:0.457987 219:-0.137553 220:-0.397671 221:-0.275591 222:0.0269557 223:-0.312502 224:0.168409 225:-0.310771 226:-0.0682261 227:0.293842 228:-0.773 229:0.0906257 230:0.422947 231:-0.145247 232:-0.962025 233:-0.387944 234:-0.15267 235:0.107841 236:-0.0365252 237:-0.2882 238:-0.0953453 239:0.249945 240:-0.427125 241:-0.302545 242:-0.0730871 243:-0.0825494 244:-0.443038 245:-0.397213 246:0.0917196 247:-0.474831 248:0.214676 249:-0.449848 250:-0.228224 251:0.219912 252:-0.406044 253:0.461615 254:-0.594294 255:0.639575 256:-0.817308 257:-0.278311 258:-0.0294213 259:-0.302836 260:0.0254375 261:0.673223 262:0.77094 263:-0.191326 264:-0.69034 265:-0.281901 266:-0.431096 267:0.387758 268:-0.626446 269:-0.28 270:0.0431893 271:-0.525441 272:0.541357 273:-0.00552309 274:0.182183 275:-0.120774 276:-0.245398 277:0.102973 278:0.62621 279:-0.295965 280:-0.521505 281:-0.245283 282:0.106804 283:-0.592158 284:0.192123 285:-0.322154 286:-0.103951 287:0.247719 288:-0.632877 289:-0.0877484 290:-0.0923046 291:0.173416 292:-0.957806 293:-0.302326 294:0.449937 295:-0.340674 296:0.0938356 297:-0.154538 298:0.0382919 299:-0.252472 300:-0.440651 301:-0.187553 302:0.348001 303:-0.243685 304:-0.866444 305:-0.144759 306:0.110517 307:-0.313526 308:0.428435 309:-0.385918 310:-0.157008 311:0.110636 312:-0.418984 313:-0.063937 314:0.358812 315:-0.125902 316:-0.739938 317:-0.0687285 318:-0.00797642 319:-0.185904 320:-0.0882956 321:-0.412684 322:-0.223539 323:0.38146 324:-0.478357 325:0.0805513 326:0.0798605 327:0.0393206 328:-0.582822 329:-0.0756014 330:0.139702 331:-0.554278 332:0.585904 333:0.0351458 334:0.242715 335:-0.137504 336:-0.55387 337:-0.384297 338:0.0854458 339:0.0166473 340:-0.152709 341:-0.813688 342:0.17007 343:-0.280269 344:-0.0515332 345:-0.0509268 346:0.169349 347:-0.108699 348:-0.590149 349:0.140304 350:-0.371576 351:0.234735 352:-0.301754 353:-1 354:-0.966659 355:-0.0046088 356:-1 357:-0.436926 358:-0.176208 359:-0.721838 360:0.304893 361:0.0994712 362:0.0927814 363:0.097446 364:-0.953668 365:-0.862333 366:0.348641 367:0.426729 368:0.152329 369:-0.477863 370:-0.184739 371:-0.19315 372:-0.714357 373:0.57622 374:-0.578616 375:0.577418 376:-0.945155 377:-0.947586 378:-0.433794 379:0.269466 380:-0.372639 381:-0.66415 382:-0.181375 383:-0.0397894 384:-0.8026 
0 3.106634073443048 0 2.069087548025955 0 0 1:-0.739599 2:-0.708906 3:-0.738381 4:-0.840731 5:-0.987952 6:-0.45908 7:-0.0445429 8:-0.167602 9:-0.812434 10:-0.578915 11:-0.627315 12:-0.89157 13:-0.164477 14:0.419869 15:-0.533082 16:-0.388535 17:-0.800259 18:0.00661327 19:0.371586 20:-0.314735 21:-0.986368 22:-0.864836 23:0.190832 24:-0.273478 25:0.0183693 26:-0.0871628 27:0.00944584 28:-0.447077 29:-0.877076 30:0.152602 31:0.729906 32:-0.412655 33:-0.000348371 34:0.434072 35:-0.0331566 36:-0.809375 37:-0.454043 38:-0.443227 39:-0.151966 40:-0.423676 41:-0.779479 42:-0.409118 43:0.489352 44:-0.808788 45:0.256842 46:0.511157 47:-0.144386 48:-0.918051 49:-0.447426 50:0.306953 51:-0.561187 52:-0.362538 53:-0.659919 54:-0.207708 55:-0.093971 56:-0.349748 57:-0.634584 58:-0.400479 59:0.620086 60:-0.785935 61:-0.863904 62:-0.191808 63:-0.476125 64:-0.81317 65:-0.484252 66:-0.511165 67:-0.490764 68:-0.269637 69:-0.400476 70:-0.141755 71:0.300826 72:-0.872072 73:-0.557854 74:0.248441 75:-0.588379 76:-0.966499 77:-0.90873 78:0.0389899 79:0.20556 80:-0.0691974 81:-0.542571 82:-0.388173 83:-0.22829 84:-0.688882 85:-0.468829 86:-0.397884 87:0.0705515 88:-0.978723 89:-0.631879 90:-0.822289 91:-0.589796 92:-0.254872 93:0.245871 94:0.206509 95:0.229203 96:-0.592106 97:-0.0802333 98:-0.295392 99:0.331437 100:-0.908513 101:-0.360161 102:-0.437406 103:-0.488432 104:0.172152 105:-0.101414 106:0.218703 107:0.599697 108:-0.486302 109:-0.905613 110:-0.248977 111:-0.368311 112:-0.76702 113:-0.646697 114:-0.744111 115:-0.0257018 116:-0.530069 117:-0.0974363 118:0.0384262 119:-0.194463 120:-0.775542 121:-0.35823 122:-0.0185003 123:-0.146137 124:-0.59633 125:-0.338491 126:-0.110042 127:-0.540408 128:0.398451 129:-0.339392 130:-0.0569803 131:-0.0463513 132:-0.32361 133:0.558048 134:-0.0211304 135:0.481563 136:-0.668966 137:-0.420952 138:-0.188182 139:-0.0484269 140:-0.0185345 141:-0.256515 142:-0.030991 143:1 144:0.834171 145:-0.250527 146:0.621103 147:-0.305113 148:-0.668394 149:-0.429091 150:0.0518255 151:-0.0749069 152:0.365045 153:-0.385001 154:-0.141639 155:0.157233 156:-0.84958 157:0.0486486 158:-0.409091 159:0.0214475 160:-0.715771 161:-0.986441 162:-0.544132 163:-0.382962 164:0.0310673 165:-0.763395 166:-0.59162 167:0.238262 168:0.040836 169:0.885876 170:0.39815 171:0.576949 172:-0.487633 173:-0.963235 174:0.717034 175:0.478349 176:0.117971 177:0.51304 178:0.738819 179:-0.746567 180:-0.918788 181:0.721997 183:0.721997 184:-0.438931 185:-1 186:0.467863 187:0.141524 188:0.188843 189:0.387157 190:0.654761 191:-0.936193 192:-0.983317 193:-0.764427 194:0.612901 195:-0.672122 196:-0.837908 197:-0.752 198:0.474006 199:0.612887 200:-0.509962 201:-0.748098 202:-0.443177 203:-0.0351054 204:-0.890368 205:-0.559965 206:0.854184 207:-0.75037 208:-0.731497 209:-0.796491 210:0.45673 211:0.109238 212:-0.169357 213:-0.938574 214:-0.892798 215:0.0770449 216:-0.321992 217:0.00510559 218:0.0172635 219:0.0454394 220:-0.597338 221:-0.593701 222:0.0375512 223:0.171855 224:-0.283195 225:-0.273385 226:-0.0252611 227:0.0938239 228:-0.657544 229:0.145574 230:0.167174 231:0.0407451 232:-0.873418 233:-0.805255 234:-0.0710111 235:0.528112 236:-0.551055 237:-0.150185 238:0.0512577 239:0.166403 240:-0.363877 241:-0.884325 242:0.609148 243:-0.754475 244:-0.71519 245:-0.829268 246:0.614886 247:-0.153061 248:0.0429056 249:-0.675943 250:-0.494637 251:-0.172098 252:-0.970609 253:-0.213326 254:0.144896 255:-0.151722 256:-0.721154 257:-0.96929 258:-0.150055 259:0.0769036 260:-0.322384 261:-0.47513 262:-0.232265 263:-0.342036 264:-0.460687 265:-0.879871 266:0.435216 267:-0.637177 268:-0.771901 269:-0.668 270:-0.180298 271:-0.350945 272:0.264154 273:-0.40173 274:-0.208348 275:-0.317196 276:-0.827465 277:0.0388679 278:0.170255 279:-0.0469655 280:-0.5 281:-0.87062 282:-0.0487702 283:0.108038 284:-0.707726 285:-0.1462 286:0.0872358 287:-0.203414 288:-0.765041 289:0.0219268 290:-0.536466 291:0.532952 292:-0.78481 293:-0.694352 294:-0.13468 295:-0.207771 296:-0.162397 297:0.489794 298:0.612857 299:-0.512851 300:-0.153477 301:-0.507709 302:0.627401 303:-0.563449 304:-0.836394 305:-0.840266 306:-0.658303 307:-0.0424707 308:-0.151156 309:-0.676961 310:-0.498465 311:-0.0678295 312:-0.407415 313:-0.430068 314:-0.0114153 315:-0.153607 316:-0.616099 317:-0.491409 318:-0.813527 319:-0.148474 320:-0.269641 321:-0.109705 322:0.0870833 323:-0.0216748 324:-0.630837 325:0.777451 326:-0.237525 327:0.562483 328:-0.595092 329:-0.501718 330:-0.581599 331:-0.340102 332:0.0851438 333:0.396609 334:0.551337 335:0.0711864 336:0.0135997 337:-0.217126 338:0.461049 339:-0.181975 340:-0.80624 341:-0.505703 342:-0.530449 343:-0.750408 344:0.559973 345:-0.29002 346:-0.0655438 347:0.0743635 348:-0.51414 349:-0.11975 350:0.0453769 351:-0.154655 352:-0.729825 353:-0.716239 354:-0.404862 355:-0.431829 356:0.311145 357:-0.60454 358:-0.383704 359:-0.285291 360:0.0348078 361:0.591947 362:-0.497087 363:0.696716 364:-0.459459 365:-0.724665 366:0.725934 367:0.252527 368:0.319595 369:0.726967 370:0.821641 371:-0.210372 372:-0.829166 373:0.644253 374:-0.604965 375:0.624609 376:-0.477148 377:-0.787586 378:0.063717 379:0.0379676 380:0.102692 381:0.46647 382:0.711293 383:-0.25612 384:-0.93181 
1.923320646134771 2.698389044334232 0.01041703377099378 2.205838568789766 1.82111118875919 1.804555697928982 1:-0.619799 2:-0.875838 3:-0.6178 4:-0.963446 5:-0.404819 6:-0.652621 7:-0.158417 8:-0.114612 9:-0.864642 10:-0.632264 11:-0.296203 12:-0.632973 13:-0.0253146 14:-0.424915 15:0.257654 16:-0.273885 17:-0.483787 18:-0.223498 19:-0.0696492 20:-0.198995 21:0.0923109 22:0.282574 23:-0.482865 24:-0.197059 25:-0.352482 26:0.0798185 27:-0.383238 28:-0.440758 29:-0.920266 30:0.183862 31:0.369305 32:-0.191789 33:-0.416123 34:-0.0897317 35:-0.578219 36:-0.523928 37:-0.273553 38:0.13766 39:-0.485201 40:-0.29595 41:-0.761103 42:-0.0205094 43:0.442353 44:-0.511889 45:-0.651261 46:-0.369837 47:-0.149357 48:-0.3904 49:-0.168105 50:0.11679 51:-0.201123 52:-0.906344 53:-0.449393 54:-0.116703 55:-0.270529 56:-0.142105 57:-0.294874 58:-0.0361194 59:0.433506 60:-0.794075 61:-0.751336 62:0.0133826 63:-0.561087 64:-0.344564 65:-0.492126 66:-0.234114 67:-0.0863181 68:-0.318856 69:-0.479931 70:-0.28283 71:0.457792 72:-0.79983 73:-0.783496 74:-0.30885 75:-0.239189 76:-0.18258 77:-0.309524 78:-0.557745 79:0.0535605 80:-0.427223 81:0.121449 82:0.16318 83:-0.0866886 84:-0.814155 85:-0.447872 86:0.579318 87:-0.75696 88:-0.5 89:-0.825427 90:0.16776 91:0.00635817 92:-0.00943784 93:-0.741179 94:-0.645421 95:-0.14622 96:-0.705252 97:-0.614576 98:-0.102321 99:-0.212415 100:-0.484117 101:-0.541247 102:-0.256052 103:0.0148193 104:-0.196013 105:-0.328945 106:-0.171182 107:0.221433 108:-0.65122 109:-0.697629 110:-0.346751 111:-0.0980057 112:-0.561271 113:-0.689708 114:-0.510404 115:0.079821 116:-0.423816 117:-0.354207 118:-0.20743 119:-0.387345 120:-0.333541 121:-0.423879 122:0.359229 123:-0.523868 124:-0.324159 125:-0.528046 126:-0.0918685 127:0.226715 128:-0.312176 129:-0.671075 130:-0.321774 131:0.484656 132:-0.212674 133:-0.598524 134:-0.698544 135:0.176527 136:-0.772414 137:-0.790476 138:-0.239333 139:0.357096 140:-0.451339 141:0.124538 142:0.334033 143:-0.0179386 144:-0.670019 145:0.177684 146:0.167829 147:0.370085 148:-0.816926 149:-0.389091 150:-0.157985 151:0.145545 152:0.0121202 153:-0.454822 154:-0.256032 155:0.61711 156:0.193738 157:0.459459 158:-1 159:0.463807 160:-0.882149 161:-0.166102 162:0.0203644 163:-0.353274 164:0.296931 165:0.34038 166:0.350431 167:-0.330144 168:-0.744642 169:0.79995 170:0.835578 171:0.380379 172:-0.572438 173:-0.231618 174:0.277844 175:-0.217556 176:0.360251 177:0.249092 178:0.466766 179:-0.487403 180:-0.864038 181:0.450951 183:0.450951 184:-0.538168 185:-1 186:-0.0919955 187:-0.15847 188:0.0613134 189:-0.217268 190:0.253225 191:-0.865058 192:-0.976478 193:-0.681529 194:0.472269 195:-0.548482 196:-0.963399 197:-0.944 198:0.471609 199:0.791184 200:-0.701505 201:-0.828552 202:-0.574674 203:-0.178299 204:-0.648325 205:-0.465267 206:0.0214895 207:-0.253682 208:-0.287435 209:-0.905263 210:-0.0594196 211:0.111992 212:-0.282877 213:-0.424297 214:-0.208444 215:-0.372297 216:-0.609868 217:0.31546 218:0.0367603 219:0.220241 220:-0.767055 221:-0.568504 222:-0.0910272 223:-0.157866 224:-0.00696468 225:0.0153318 226:0.244714 227:0.587378 228:-0.668384 229:-0.451585 230:0.772805 231:-0.6929 232:-0.876582 233:-0.459042 234:-0.118085 235:0.122469 236:-0.042212 237:-0.68708 238:-0.551623 239:0.307849 240:-0.426754 241:0.533734 242:0.241825 243:0.149551 244:-0.924051 245:-0.940767 246:0.021114 247:-0.260222 248:-0.0570403 249:0.0481264 250:0.26696 251:0.513924 252:-0.658835 253:-0.753542 254:0.108894 255:-0.380373 256:-0.336538 257:-0.174664 258:-0.0134009 259:-0.27647 260:0.107272 261:-0.676278 262:-0.48356 263:-0.705169 264:-0.249279 265:-0.233642 266:-0.28108 267:0.313957 268:-0.775207 269:-0.852 270:-0.0403252 271:-0.160926 272:-0.0537677 273:0.421567 274:0.553238 275:-0.097953 276:-0.263919 277:-0.441836 278:0.706746 279:-0.619916 280:-0.836022 281:-0.733154 282:-0.129936 283:-0.494987 284:0.0464759 285:-0.519055 286:-0.319587 287:0.0336928 288:-0.887768 289:-0.189415 290:0.300787 291:-0.147727 292:-0.57384 293:-0.880399 294:0.337157 295:-0.203402 296:-0.129954 297:-0.373273 298:-0.183186 299:0.030402 300:-0.391012 301:-0.283469 302:0.611468 303:-0.445723 304:-0.672788 305:-0.281198 306:0.0359237 307:0.00705181 308:-0.117277 309:-0.535362 310:-0.32058 311:0.0431946 312:-0.635416 313:-0.418722 314:0.596429 315:-0.494347 316:-0.504644 317:-0.786942 318:-0.0928965 319:-0.165177 320:-0.0573855 321:-0.487296 322:-0.307688 323:0.563511 324:-0.627252 325:0.558971 326:-0.338312 327:0.505229 328:-0.56135 329:-0.353952 330:-0.0246215 331:-0.207065 332:0.0137734 333:0.79111 334:0.854692 335:-0.323744 336:-0.716105 337:0.943392 338:0.24651 339:0.684188 340:-0.83908 341:-0.536122 342:-0.0986878 343:-0.424811 344:0.215301 345:0.00753976 346:0.220717 347:0.52662 348:0.582795 349:0.163539 350:-0.122432 351:0.102103 352:-0.908772 353:-0.876923 354:-0.356858 355:-0.557921 356:0.606309 357:0.00984411 358:0.253681 359:-0.131449 360:-0.414005 361:0.806906 362:-0.231404 363:0.651247 364:-0.552124 365:-0.732314 366:-0.0911905 367:0.185592 368:0.313592 369:0.0896037 370:0.356086 371:-0.182639 372:-0.701335 373:0.450979 374:-0.427405 375:0.439192 376:-0.564899 377:-0.693793 378:-0.433794 379:0.091805 380:-0.0455647 381:-0.168043 382:0.289387 383:-0.171201 384:-0.920839 
0.6830061024909485 3.919065601261625 0.629619772902668 8 1.860584258345841 4.043487033666417 1:-0.837535 2:-0.778767 3:-0.83626 4:-0.704961 5:-0.990361 6:-0.191651 7:-0.091452 8:0.0177264 9:-0.747619 10:-0.471444 11:-0.921871 12:-0.994136 13:-0.211763 14:-0.115032 15:-0.132593 16:-0.56051 17:-0.789883 18:-0.237465 19:-0.213995 20:-0.118898 21:-0.589044 22:-0.428309 23:-0.0700864 24:-0.263761 25:-0.349775 26:0.182313 27:-0.46865 28:-0.63981 29:-0.584718 30:-0.127952 31:0.394011 32:-0.328894 33:-0.301302 34:-0.0102761 35:-0.257179 36:-0.882211 37:-0.278697 38:-0.317161 39:-0.106242 40:-0.501558 41:-0.617152 42:-0.220147 43:0.43698 44:-0.531995 45:0.518139 46:0.666321 47:-0.193534 48:-0.802289 49:-0.0914293 50:0.695932 51:-0.7621 52:-0.510574 53:-0.991903 54:0.394397 55:0.208325 56:-0.0776 57:-0.838172 58:-0.578077 59:0.554648 60:-0.799788 61:-0.459985 62:0.0183565 63:-0.351566 64:-0.883614 65:-0.633858 66:-0.0600833 67:-0.344187 68:0.0393415 69:-0.141753 70:0.0770596 71:0.385701 72:-0.878449 73:-0.338349 74:0.298015 75:-0.451345 76:-0.969849 77:-0.904762 78:-0.0563479 79:-0.16844 80:0.161266 81:-0.16309 82:-0.0659784 83:-0.0841696 84:-0.869834 85:-0.0297815 86:0.0784259 87:-0.0310548 88:-0.56117 89:-0.590133 90:0.215064 91:0.00356613 92:0.098496 93:0.137221 94:0.0845912 95:-0.107452 96:-0.722645 97:-0.491781 98:-0.113123 99:-0.118668 100:-0.931385 101:-0.814889 102:-0.285048 103:-0.136772 104:-0.0839784 105:-0.406651 106:-0.248885 107:0.235405 108:-0.543045 109:-0.467223 110:0.0233263 111:-0.281768 112:-0.909228 113:-0.849462 114:-0.366471 115:-0.319398 116:-0.0516354 117:-0.364571 118:-0.15408 119:0.118674 120:-0.648389 121:-0.15443 122:0.0550972 123:-0.0409945 124:-0.51682 125:-0.655706 126:0.0482844 127:0.148639 128:-0.0278641 129:0.569648 130:0.696209 131:0.38025 132:-0.731749 133:-0.739766 134:0.0627533 135:-0.590901 136:-0.988506 137:-0.60381 138:-0.284797 139:-0.255806 140:0.0256144 141:-0.783864 142:-0.571353 143:0.369045 144:-0.397648 145:-0.815325 146:0.340935 147:-0.625713 148:-0.398964 149:-0.756364 150:-0.598387 151:0.127304 152:-0.380182 153:-0.691192 154:-0.534877 155:-0.00900536 156:-0.791525 157:-0.143243 158:-0.227273 159:-0.179625 160:-0.65338 161:-0.454237 162:-0.257055 163:-0.213943 164:-0.0184746 165:-0.597826 166:-0.425956 167:-0.23432 168:-0.574023 169:0.464821 170:0.535163 171:0.203424 172:-0.611307 173:-0.783088 174:-0.155163 175:0.344217 176:-0.312307 177:-0.183966 178:0.138929 179:-0.100433 180:-0.60993 181:0.333645 183:0.333645 184:-0.515267 185:-1 186:-0.496019 187:0.508089 188:-0.623592 189:-0.331488 190:0.186468 191:-0.715649 192:-0.953752 193:-0.832883 194:0.711622 195:-0.76561 196:-0.699346 197:-0.976 198:0.47754 199:0.237117 200:-0.173358 201:-0.750221 202:-0.444244 203:-0.197178 204:-0.952176 205:-0.550595 206:0.720281 207:-0.674168 208:-0.717728 209:-0.747368 210:-0.364361 211:0.137357 212:-0.416121 213:-0.702995 214:-0.544268 215:0.0560223 216:-0.770791 217:0.15561 218:0.174452 219:0.0442371 220:-0.950083 221:-0.628346 222:-0.0133052 223:0.0181601 224:-0.0289435 225:-0.210266 226:0.0343199 227:0.0653344 228:-0.5545 229:-0.278206 230:0.503051 231:-0.424268 232:-0.566456 233:-0.931994 234:-0.0692209 235:0.113953 236:-0.00515694 237:-0.451958 238:-0.27168 239:-0.00185374 240:-0.554422 241:-1 242:0.182696 243:-0.569729 244:-0.651899 245:-0.592334 246:-0.240146 247:-0.351784 248:0.174857 249:-0.726091 250:-0.566885 251:-0.693814 252:-0.260043 253:-0.11943 254:0.074126 255:-0.0623131 256:-0.865385 257:-0.923225 258:-0.250536 259:-0.00916544 260:-0.112892 261:-0.144023 262:0.104164 263:-0.168378 264:-0.713376 265:-0.155192 266:0.32629 267:-0.0647123 268:-0.930579 269:-0.952 270:-0.252419 271:-0.040389 272:-0.0545716 273:-0.258725 274:-0.0539638 275:0.318637 276:-0.0933072 277:-0.435903 278:0.771251 279:-0.656721 280:-0.75 281:-0.978437 282:0.36066 283:-0.0775744 284:-0.125047 285:-0.379323 286:-0.158639 287:0.12065 288:-0.887602 289:0.00961133 290:-0.382807 291:0.42498 292:-0.797468 293:-0.910299 294:0.325503 295:0.0992677 296:-0.384071 297:-0.17675 298:0.0267952 299:-0.20517 300:0.46076 301:-0.76243 302:0.174181 303:-0.418626 304:-0.959933 305:-0.846922 306:-0.158824 307:0.302561 308:-0.348217 309:-0.72119 310:-0.549461 311:-0.911179 312:0.298079 313:-0.654094 314:0.483665 315:-0.583894 316:-0.873065 317:-0.701031 318:0.04496 319:-0.152376 320:0.0823972 321:-0.588483 322:-0.427149 323:-0.0616213 324:-0.70608 325:-0.491203 326:0.214604 327:-0.322922 328:-0.730061 329:-0.835052 330:0.0040621 331:0.131965 332:-0.150236 333:-0.295734 334:-0.0688756 335:-0.541818 336:-0.780608 337:-0.347297 338:0.615322 339:-0.382717 340:-0.760263 341:-0.768061 342:0.0113757 343:0.409584 344:-0.624263 345:-0.420267 346:-0.19141 347:0.0460691 348:-0.526458 349:-0.416444 350:0.0265406 351:-0.30981 352:-0.666667 353:-0.654701 354:-0.260455 355:-0.632446 356:0.637261 357:-0.282654 358:-0.0223 359:-0.365885 360:-0.597804 361:0.154429 362:-0.196918 363:0.295714 364:-0.656371 365:-0.583174 366:-0.0821528 367:-0.170265 368:0.476785 369:-0.148392 370:0.153435 371:-0.349206 372:-0.659103 373:0.316765 374:-0.254547 375:0.285656 376:-0.561243 377:-0.622069 378:-0.433794 379:0.0583981 380:-0.134344 381:-0.433696 382:0.0637373 383:-0.234503 384:-0.877112 
0 5.569795232384363 0 1.012898842412114 0 0 1:-0.736344 2:-0.673451 3:-0.735239 4:-0.861619 5:-0.506024 6:-0.0855421 7:-0.030648 8:0.0528846 9:-0.706124 10:-0.41382 11:-0.897745 12:-0.980643 13:-0.333786 14:-0.348793 15:-0.0325719 16:-0.414013 17:-0.618677 18:-0.730667 19:0.0728989 20:-0.592543 21:-0.524489 22:-0.33244 23:0.0499432 24:0.141631 25:-0.381272 26:-0.552471 27:0.135497 28:-0.548183 29:-0.607973 30:-0.497068 31:0.0485567 32:-0.384104 33:0.126196 34:0.337716 35:-0.150544 36:-0.608901 37:-0.321389 38:-0.241516 39:-0.207019 40:-0.800623 41:-0.7366 42:-0.169334 43:0.0931465 44:-0.283975 45:-0.354528 46:-0.25098 47:-0.142324 48:-0.335387 49:-0.54573 50:0.138951 51:-0.442384 52:-0.567976 53:-0.364372 54:-0.32049 55:0.04958 56:-0.539379 57:-0.340878 58:-0.0285168 59:0.439834 60:-0.893824 61:-0.641413 62:-0.373789 63:-0.164484 64:-0.522205 65:-0.46063 66:-0.074308 67:0.261956 68:-0.411808 69:-0.100019 70:0.175931 71:-0.239381 72:-0.592092 73:-0.470271 74:-0.543049 75:0.251488 76:-0.59799 77:-0.924603 78:-0.201067 79:0.26428 80:-0.305378 81:0.3936 82:0.403353 83:-0.624271 84:-0.314337 85:-0.0340902 86:0.426999 87:-0.334525 88:-0.462766 89:-0.396584 90:-0.0209023 91:0.0909297 92:-0.183384 93:-0.249457 94:-0.182516 95:0.271473 96:-0.703434 97:0.031411 98:-0.14645 99:0.268948 100:-0.550191 101:-0.770624 102:-0.029061 103:0.447191 104:-0.432158 105:-0.037151 106:0.254224 107:0.352849 108:-0.63139 109:-0.689534 110:-0.670994 111:0.236179 112:-0.645991 113:-0.462366 114:-0.391402 115:-0.489667 116:0.0974078 117:-0.224747 118:0.085638 119:-0.849992 120:0.411661 121:0.0584808 122:0.0155976 123:0.168543 124:-0.584098 125:-0.705996 126:0.17467 127:0.0205276 128:0.126572 129:-0.0592126 130:0.154418 131:0.195952 132:-0.0631324 133:0.726393 134:-0.278167 135:0.833629 136:-0.685057 137:-0.36 138:0.565099 139:-0.249613 140:0.766395 141:0.289332 142:0.479629 143:-0.0915286 144:-0.12931 145:-0.0891377 146:0.379227 147:-0.00452066 148:-0.841105 149:-0.323636 150:0.121526 151:-0.199236 152:0.519457 153:-0.131044 154:0.131853 155:0.0760493 156:-0.787771 157:0.356756 158:-1 159:0.36193 160:-0.504333 161:-0.874576 162:0.238512 163:-0.0622429 164:0.0588502 165:-0.249466 166:-0.0872385 167:-0.236202 168:-0.574293 169:0.73161 170:0.472344 171:0.433045 172:-0.777385 173:-0.639706 174:0.357368 175:-0.0218366 176:0.250084 177:0.530906 178:0.666694 179:-0.614037 180:-0.979121 181:0.881724 183:0.881724 184:-0.744275 185:-1 186:0.379846 187:-0.10544 188:0.299877 189:0.589665 190:0.771958 191:-0.904099 192:-0.982103 193:-0.839367 194:0.481175 195:-0.655847 196:-0.803922 197:-0.788 198:0.468321 199:0.399514 200:-0.235684 201:-0.681431 202:-0.346703 203:-0.270908 204:-0.955669 205:-0.653891 206:0.532905 207:-0.640431 208:-0.490534 209:-0.519298 210:-0.0965019 211:0.23187 212:-0.474732 213:-0.970951 214:-0.948178 215:-0.18846 216:-0.104762 217:-0.298469 218:-0.0223422 219:-0.113595 220:-0.906822 221:-0.382677 222:-0.333112 223:0.437693 224:-0.63651 225:-0.198785 226:0.0535031 227:-0.304085 228:-0.825945 229:-0.550504 230:0.36489 231:-0.513401 232:-0.721519 233:-0.66306 234:-0.0904223 235:0.322793 236:-0.279656 237:-0.446457 238:-0.26335 239:-0.163401 240:-0.530634 241:0.0140572 242:0.198286 243:-0.0808522 244:-0.797468 245:-0.853659 246:0.213382 247:-0.041528 248:-0.178694 249:-0.276736 250:-0.0374785 251:-0.236781 252:-0.469722 253:0.385078 254:0.0708667 255:0.175005 256:-0.682692 257:-0.796545 258:-0.180679 259:-0.2796 260:0.144022 261:-0.185869 262:0.0615505 263:-0.20978 264:-0.374133 265:0.683037 266:0.0729342 267:0.688093 268:-0.950413 269:-0.836 270:0.0599457 271:-0.212917 272:0.164856 273:0.200757 274:0.367788 275:0.542273 276:0.542804 277:-0.50281 278:0.759441 279:-0.683119 280:-0.768817 281:-0.997305 282:0.231464 283:-0.21794 284:-0.123676 285:-0.555734 286:-0.357871 287:0.0167407 288:-0.906026 289:0.054785 290:0.403715 291:-0.0583946 292:-0.755274 293:-0.860465 294:0.298193 295:-0.201228 296:-0.0523111 297:0.157373 298:0.331288 299:0.341771 300:-0.697261 301:-0.477768 302:0.80468 303:-0.65376 304:-0.84975 305:-0.986689 306:-0.149798 307:-0.0164223 308:-0.044277 309:-0.68886 310:-0.513671 311:0.176605 312:-0.811977 313:-0.355555 314:-0.341109 315:0.084037 316:-0.408669 317:-0.742268 318:-0.129799 319:-0.01991 320:-0.196546 321:-0.0781711 322:0.119024 323:-0.216829 324:-0.33653 325:-0.336777 326:0.140122 327:-0.204781 328:-0.484663 329:-0.525773 330:-0.246739 331:-0.359934 332:0.239996 333:-0.0853743 334:0.132357 335:-0.197725 336:-0.754331 337:0.0103808 338:0.608849 339:-0.163214 340:-0.865353 341:-0.596958 342:-0.294846 343:-0.441784 344:0.213307 345:-0.23063 346:-0.0064443 347:0.22305 348:-0.540033 349:0.237712 350:0.52226 351:-0.233233 352:-0.522807 353:-0.682051 354:-0.199676 355:-0.619343 356:0.718973 357:-0.420078 358:-0.166114 359:0.334938 360:-0.306396 361:0.279583 362:-0.218376 363:0.372621 364:-0.710425 365:-0.755258 366:-0.428191 367:0.111508 368:0.203147 369:0.173615 370:0.423344 371:-0.258129 372:-0.802478 373:0.856605 374:-0.889849 375:0.873226 376:-0.835466 377:-0.809655 378:-0.433794 379:-0.190159 380:0.331004 381:0.447412 382:0.702183 383:-0.270081 384:-0.914685 
0 0 0.7663278612783387 0.07843198396675299 0 1.005897563996552 1:-0.686677 2:-0.921646 3:-0.684646 4:-0.673629 5:-0.992771 6:-0.75269 7:0.176507 8:-0.61373 9:-0.921985 10:-0.810042 11:-0.274882 12:-0.541132 13:-0.557831 14:-0.535851 15:-0.0460633 16:-0.761146 17:-0.481193 18:-0.762815 19:-0.0510467 20:-0.553988 21:-0.567887 22:-0.398 23:-0.298236 24:0.063897 25:-0.422802 26:-0.433441 27:0.00612419 28:-0.200632 29:-0.54485 30:-0.441551 31:0.14154 32:-0.428289 33:-0.0795239 34:0.166359 35:-0.110018 36:-0.676774 37:-0.149964 38:0.148212 39:-0.386963 40:-0.267913 41:-0.819296 42:0.00493169 43:0.6232 44:-0.683131 45:-0.749246 46:-0.250709 47:0.540399 48:-0.182945 49:-0.611665 50:0.156951 51:-0.499278 52:-0.229607 53:-0.45749 54:-0.46308 55:-0.387939 56:-0.283943 57:-0.483331 58:-0.22361 59:0.73438 60:-0.817635 61:-0.563971 62:-0.165502 63:-0.277725 64:-0.574273 65:-0.511811 66:-0.378285 67:-0.0587095 68:-0.491152 69:-0.284027 70:-0.068364 71:0.520874 72:-0.807238 73:-0.437621 74:-0.237555 75:-0.0166644 76:-0.524288 77:-0.539683 78:-0.629144 79:-0.170884 80:-0.244956 81:-0.0553439 82:0.035066 83:0.178631 84:-0.524553 85:-0.19031 86:0.688966 87:-0.670237 88:-0.468085 89:-0.548387 90:0.344187 91:0.144574 92:-0.0202772 93:-0.735206 94:-0.552618 95:0.231347 96:-0.773155 97:-0.141679 98:0.30166 99:-0.265981 100:-0.750953 101:-0.55332 102:-0.105104 103:-0.0896107 104:0.0591961 105:-0.622041 106:-0.509378 107:0.885547 108:-0.315285 109:-0.052506 110:-0.307025 111:0.393969 112:-0.688351 113:-0.265745 114:-0.414683 115:-0.138986 116:-0.141115 117:-0.255886 118:-0.0736107 119:0.1442 120:-0.0998984 121:1 122:0.191165 123:0.795137 124:-0.691131 125:-0.957447 126:0.680951 127:0.166515 128:0.287415 129:0.913005 130:1 131:0.630275 132:-0.159651 133:0.216173 134:-0.0615828 135:0.253163 136:-0.781609 137:-0.184762 138:0.320146 139:-0.238696 140:0.634238 141:-0.107519 142:0.193351 143:-0.10253 144:-0.489009 145:0.294589 146:0.609389 147:0.187452 148:-0.350604 149:-0.978182 150:0.631588 151:-0.0477612 152:0.895664 153:0.195666 154:0.376787 155:0.112737 156:-0.78951 157:-0.0378379 158:-1 159:-0.0294907 160:-0.781629 161:-1 162:0.343774 163:-0.251276 164:0.321149 165:-0.218603 166:-0.0691894 167:-0.629938 168:-0.874708 169:0.930615 170:0.613702 171:0.549008 172:-0.660777 173:-0.0514706 174:0.528024 175:0.0936243 176:0.247099 177:0.684944 178:0.783708 179:-0.633267 180:-0.93765 181:0.922689 183:0.922689 184:-0.278626 185:-1 186:0.499782 187:0.0970783 188:0.229206 189:0.61307 190:0.78317 191:-0.922049 192:-0.982576 193:-0.673241 194:0.748712 195:-0.679821 196:-0.667974 197:-0.5 198:0.471064 199:0.837287 200:-0.767998 201:-0.914565 202:-0.746906 203:0.412333 204:-0.492371 205:-0.255306 206:0.279044 207:-0.257484 208:-0.30809 209:-0.719298 210:-0.0886203 211:0.121198 212:-0.302561 213:-0.68618 214:-0.522045 215:-0.195342 216:-0.30575 217:-0.192705 218:0.278304 219:-0.225112 220:-0.517471 221:-0.524409 222:0.0743032 223:-0.0827965 224:-0.0874168 225:-0.18682 226:0.0579796 227:0.0996478 228:-0.865916 229:-0.976158 230:0.564125 231:-0.898659 232:-0.509494 233:-0.839258 234:-0.0189005 235:0.0958505 236:0.0237826 237:-0.863277 238:-0.790268 239:-0.225303 240:-0.539416 241:-0.733638 242:0.482965 243:-0.609054 244:-0.541139 245:-0.972125 246:-0.150764 247:-0.161994 248:-0.282347 249:-0.579506 250:-0.370775 251:-0.0855978 252:-0.694146 253:0.128098 254:0.175035 255:-0.0119723 256:-0.610577 257:-0.190019 258:-0.159662 259:-0.0772964 260:-0.270611 261:-0.438681 262:-0.192843 263:0.0154966 264:-0.330398 265:-0.311861 266:-0.286247 267:0.264211 268:-0.431405 269:-0.556 270:0.0936518 271:-0.178061 272:-0.00705633 273:0.085846 274:0.27162 275:-0.323587 276:-0.370448 277:-0.289011 278:0.922651 279:-0.676169 280:-0.658602 281:-0.436658 282:0.0334846 283:-0.530091 284:0.145561 285:-0.687087 286:-0.526001 287:0.372339 288:-0.826056 289:-0.899108 290:0.674802 291:-0.8458 292:-0.28692 293:-0.299003 294:0.104198 295:-0.186961 296:-0.23896 297:-0.896127 298:-0.831234 299:-0.425837 300:-0.45496 301:-0.420779 302:0.442571 303:-0.412226 304:-0.699499 305:-0.291181 306:-0.220419 307:0.0023868 308:-0.193341 309:-0.620446 310:-0.423445 311:-0.289559 312:-0.493582 313:-0.371767 314:0.0390571 315:-0.144338 316:-0.44582 317:-0.56701 318:0.0239905 319:-0.533986 320:0.583557 321:-0.0526323 322:0.141221 323:-0.105849 324:-0.79078 325:-0.0973713 326:0.0810519 327:-0.0516891 328:-0.687117 329:-0.257732 330:0.109951 331:-0.575144 332:0.629174 333:-0.0797338 334:0.136624 335:-0.132106 336:-0.677046 337:0.0359377 338:0.493299 339:-0.0559733 340:-0.399015 341:-0.78327 342:-0.332114 343:-0.558587 344:0.370698 345:0.0528043 346:0.261391 347:0.162399 348:-0.562086 349:-0.198391 350:0.0308217 351:-0.19019 352:-0.8 353:-0.295726 354:-0.314421 355:-0.629799 356:0.788005 357:-0.0320182 358:0.218293 359:-0.181359 360:-0.764191 361:0.584188 362:-0.587655 363:0.745883 364:-0.72973 365:-0.330784 366:-0.1799 367:0.15218 368:0.366815 369:0.623283 370:0.754526 371:-0.24965 372:-0.863033 373:0.923846 374:-0.887802 375:0.905823 376:-0.316271 377:-0.45931 378:-0.433794 379:-0.02765 380:0.215772 381:0.627197 382:0.803715 383:-0.258001 384:-0.929116 
0.9796344609553346 2.913233078200569 0.02041510453377382 3.881339815842394 2.479301128836002 1.178892311017026 1:-0.798601 2:-0.78987 3:-0.797217 4:-0.751958 5:-0.66747 6:-0.486921 7:-0.30342 8:0.0635868 9:-0.836386 10:-0.557659 11:-0.794411 12:-0.960958 13:-0.133362 14:0.131793 15:-0.275528 16:-0.452229 17:-0.958495 18:-0.258747 19:0.215745 20:-0.371063 21:-0.689361 22:-0.508497 23:0.323261 24:-0.392677 25:-0.489336 26:0.419418 27:-0.764757 28:-0.50079 29:-0.960133 30:0.135061 31:0.273325 32:-0.103786 33:-0.702516 34:-0.48548 35:-0.146665 36:-0.633639 37:-0.646817 38:-0.385635 39:-0.367623 40:-0.507788 41:-0.669219 42:-0.378572 43:0.216496 44:-0.550429 45:0.0485767 46:0.197392 47:-0.363738 48:-0.668867 49:-0.312108 50:-0.0497049 51:-0.110289 52:-0.450151 53:-0.51417 54:0.189401 55:-0.0589515 56:-0.0721836 57:-0.434953 58:-0.161762 59:-0.23616 60:-0.395873 61:0.0655391 62:-0.275803 63:0.273783 64:-0.623277 65:-0.385827 66:-0.10163 67:0.34675 68:-0.486542 69:0.0794415 70:0.355809 71:0.3763 72:-0.565187 73:-0.177768 74:-0.192075 75:0.158339 76:-0.621441 77:-0.876984 78:-0.200198 79:0.424094 80:-0.423841 81:0.230852 82:0.340696 83:-0.0691446 84:-0.678669 85:-0.317723 86:-0.387226 87:0.167688 88:-0.837766 89:-0.586338 90:-0.225201 91:-0.337184 92:-0.003651 93:-0.189279 94:-0.176797 95:-0.243552 96:-0.198154 97:-0.373086 98:0.112004 99:-0.247239 100:-1 101:-0.818913 102:-0.249309 103:-0.365047 104:0.175792 105:-0.185751 106:0.0570021 107:0.474477 108:-0.853597 109:-0.17903 110:-0.293613 111:0.276064 112:-0.658094 113:-0.778802 114:-0.485688 115:0.0126062 116:-0.352977 117:0.494615 118:0.504681 119:-0.158382 120:-0.761818 121:-0.700344 122:0.0912728 123:-0.522493 124:-0.629969 125:-0.841393 126:-0.418591 127:0.446026 128:-0.62722 129:-0.505038 130:-0.0647872 131:0.18115 132:-0.830229 133:-0.333137 134:-0.225802 135:-0.0279818 136:-0.772414 137:-0.973333 138:0.186321 139:0.852797 140:-0.443232 141:-0.245627 142:0.230801 143:-0.20108 144:-0.512654 145:-0.68196 146:-0.460908 147:0.0134481 148:-0.927461 149:-0.64 150:-0.688203 151:0.27399 152:-0.563288 153:-0.183776 154:0.0093726 155:-0.229562 156:-0.6201 157:0.256756 158:-0.636364 159:0.241287 160:-0.930676 161:-0.532203 162:-0.223871 163:-0.499186 164:0.284449 165:-0.530481 166:-0.30355 167:0.0424216 168:-0.283988 169:0.703703 170:-0.0388139 171:0.561187 172:-0.717314 173:-0.459559 174:0.0571477 175:-0.369377 176:0.290716 177:0.408323 178:0.598508 179:-0.440029 180:-0.892132 181:0.356479 183:0.356479 184:-0.664122 185:-1 186:-0.247819 187:-0.253499 188:-0.0116111 189:-0.220833 190:0.254931 191:-0.831666 192:-0.97514 193:-0.673021 194:0.783318 195:-0.696796 196:-0.746405 197:-0.612 198:0.448632 199:0.569656 200:-0.495113 201:-0.756954 202:-0.456498 203:0.103631 204:-0.914148 205:-0.749923 206:0.54504 207:-0.706943 208:-0.931153 209:-0.950877 210:-0.0191855 211:0.163296 212:-0.361916 213:-0.781407 214:-0.651679 215:-0.00352801 216:-0.69651 217:-0.432065 218:0.756294 219:-0.646833 220:-0.960067 221:-0.971654 222:0.218649 223:-0.687735 224:0.702411 225:-0.649289 226:-0.455724 227:0.535651 228:-0.798386 229:-0.0963231 230:-0.376893 231:0.211116 232:-0.927215 233:-0.833076 234:-0.551066 235:0.155775 236:-0.180799 237:0.0429361 238:0.227466 239:-0.133145 240:-0.155414 241:-0.370437 242:0.63709 243:-0.51808 244:-0.594937 245:-0.891986 246:-0.340894 247:-0.444025 248:0.222409 249:-0.42243 250:-0.198865 251:0.386948 252:-0.790443 253:0.582033 254:0.354356 255:0.0840414 256:-0.586538 257:-0.692898 258:0.0835169 259:-0.321461 260:0.286393 261:-0.251123 262:-0.00299946 263:0.389122 264:-0.168127 265:-0.169233 266:0.394036 267:-0.122515 268:-0.871074 269:-0.888 270:0.134302 271:-0.557398 272:0.641875 273:-0.112192 274:0.0826331 275:0.388502 276:-0.369837 277:0.68264 278:0.525615 279:0.0579084 280:-0.696237 281:-0.606469 282:-0.389333 283:-0.648683 284:0.273036 285:-0.00141031 286:0.206712 287:0.493265 288:-0.595057 289:-0.345278 290:0.294716 291:-0.243582 292:-0.797468 293:-0.508306 294:-0.345511 295:0.0201787 296:-0.528319 297:-0.162797 298:0.0397682 299:0.301573 300:-0.805643 301:-0.134733 302:0.383333 303:-0.239054 304:-0.846411 305:-0.777038 306:-0.0974405 307:-0.0693142 308:0.0522949 309:-0.295323 310:-0.0601045 311:0.421686 312:-0.552795 313:-0.662871 314:0.441915 315:-0.565727 316:-0.842105 317:-0.917526 318:0.415534 319:-0.0870507 320:0.0942163 321:-0.505913 322:-0.32877 323:-0.181396 324:-0.655625 325:-0.273912 326:0.128979 327:-0.16691 328:-0.97546 329:-0.57732 330:-0.39163 331:0.14276 332:-0.404985 333:-0.155092 334:0.0738958 335:-0.460288 336:-0.654161 337:-0.626129 338:-0.345623 339:0.214651 340:-0.740558 341:-0.619772 342:-0.240972 343:0.257575 344:-0.626257 345:-0.205862 346:0.0293599 347:-1 348:0.689775 349:0.100982 350:0.291952 351:-0.175175 352:-0.950877 353:-0.921368 354:-0.31664 355:-0.41783 356:0.331167 357:-0.287482 358:-0.0290661 359:-0.0881884 360:-0.379611 361:0.712114 362:-0.0720526 363:0.509012 364:-0.610039 365:-0.674952 366:-0.611081 367:0.223416 368:0.00472083 369:-0.0054067 370:0.274398 371:-0.292242 372:-0.634675 373:0.331833 374:-0.359356 375:0.345594 376:-0.963437 377:-0.751724 378:-0.433794 379:0.013127 380:-0.0198714 381:-0.0961237 382:0.344003 383:-0.274132 384:-0.919846 
1.51432659963066 3.55046049756096 0.8316624580496451 6.445682819366195 0.5434971386759823 1.799770642468598 1:-0.146499 2:-0.726616 3:-0.144139 4:-0.872063 5:-0.761446 6:0.0783836 7:0.222588 8:-0.124292 9:-0.117897 10:0.222738 11:-0.460859 12:-0.810722 13:0.0691548 14:-0.339213 15:0.257785 16:-0.5 17:-0.51751 18:-0.152891 19:-0.0765282 20:-0.145766 21:0.0232668 22:0.219477 23:-0.285941 24:-0.504664 25:-0.509983 26:0.679403 27:-1 28:-0.763033 29:-1 30:0.240847 31:0.00262999 32:0.139498 33:-0.925758 34:-0.859639 35:0.0663437 36:-0.787809 37:-0.170073 38:-0.223759 39:-0.0908206 40:-0.912773 41:-0.601838 42:0.160372 43:0.077659 44:-0.000760584 45:-0.0155705 46:0.110036 47:-0.588866 48:-0.325111 49:-0.293798 50:-0.189956 51:0.0468624 52:-0.770393 53:-0.493927 54:0.126065 55:-0.41331 56:0.16023 57:-0.617299 58:-0.38012 59:-0.526995 60:0.364032 61:-0.563094 62:-0.363492 63:-0.115476 64:-0.295559 65:-0.838583 66:-0.292844 67:-0.296527 68:-0.193056 69:-0.272719 70:-0.0519418 71:0.173602 72:-0.664855 73:-0.633964 74:-0.190147 75:-0.22804 76:-0.557789 77:-0.369048 78:-0.409009 79:-0.119838 80:-0.134798 81:-0.0606248 82:0.0178931 83:-0.2433 84:-0.648044 85:-0.154032 86:0.422898 87:-0.415385 88:-0.960106 89:-0.673624 90:0.270007 91:-0.359254 92:0.4188 93:-0.619552 94:-0.555589 95:-0.0676907 96:-0.415173 97:-0.341636 98:0.0562366 99:-0.173913 100:-1 101:-0.187123 102:-0.290333 103:-0.287358 104:0.115552 105:-0.145742 106:0.084567 107:0.348864 108:-0.848108 109:-0.310524 110:-0.320735 111:0.195003 112:-0.694402 113:-0.738863 114:-0.264691 115:-0.310191 116:0.102029 117:0.241726 118:0.397209 119:-0.275291 120:-0.649896 121:-0.53609 122:-0.632456 123:0.232988 124:-0.987768 125:-0.667311 126:-0.304036 127:-0.377291 128:0.13592 129:-0.277279 130:-0.0529503 131:-0.563579 132:0.372637 133:-0.205867 134:0.157829 135:-0.261812 136:-0.549425 137:-0.824762 138:0.085858 139:0.129151 140:0.0520779 141:-0.544555 142:-0.346913 143:0.275963 144:-0.478339 145:-0.62798 146:0.312463 147:-0.44056 148:-1 149:-0.556364 150:-0.37272 151:-0.143724 152:0.0869885 153:-0.734613 154:-0.490852 155:-0.101313 156:-0.677964 157:0.0432431 158:-0.727273 159:0.0348524 160:-0.934142 161:-0.735593 162:-0.0996466 163:-0.426127 164:0.310515 165:-0.103172 166:0.0531048 167:-0.390007 168:-0.772968 169:0.771427 170:0.341885 171:0.502902 172:-0.632509 173:-0.371324 174:-0.0376339 175:0.333922 176:-0.310703 177:0.0725673 178:0.384537 179:-0.314064 180:-0.845597 181:0.513963 183:0.513963 184:-0.59542 185:-1 186:-0.343453 187:0.403817 188:-0.536121 189:-0.49477 190:0.045491 191:-0.826488 192:-0.970644 193:-0.282185 194:-0.0757028 195:-0.0169258 196:-0.869281 197:-0.804 198:0.459512 199:0.46995 200:-0.238686 201:-0.154464 202:0.207872 203:-0.287235 204:-0.728398 205:-0.487342 206:0.060695 207:-0.288099 208:-0.421687 209:-0.817544 210:-0.526567 211:0.0984382 212:-0.382734 213:-0.217 214:0.00867649 215:-0.135282 216:-0.931842 217:-0.702743 218:0.709764 219:-0.782106 220:-0.510815 221:-0.807874 222:0.335568 223:-0.770313 224:0.872751 225:-0.811665 226:-0.678606 227:0.225747 228:-0.860532 229:0.907029 230:0.0732303 231:0.574475 232:-0.927215 233:-0.962906 234:-0.0802118 235:0.0762151 236:0.0374094 237:0.166631 238:0.338697 239:0.399215 240:0.0665626 241:-0.240013 242:0.350336 243:-0.291664 244:-0.575949 245:-0.550523 246:-0.0919819 247:-0.288511 248:0.00750955 249:-0.537384 250:-0.326285 251:0.118349 252:-0.404312 253:1 254:0.223029 255:0.363588 256:0.0288462 257:-0.865643 258:0.478855 259:-0.0667869 260:-0.0151849 261:0.025032 262:0.26004 263:0.1331 264:-0.435838 265:-0.127607 266:-0.409102 267:0.477485 268:-0.6 269:-0.2 270:0.207303 271:-0.169169 272:0.0868096 273:0.247422 274:0.409447 275:-0.409624 276:-0.186551 277:-0.400467 278:0.618995 279:-0.544958 280:-0.639785 281:-0.908356 282:0.0419338 283:-0.486282 284:0.131132 285:-0.437519 286:-0.227513 287:0.184884 288:-0.853081 289:-0.285097 290:0.333162 291:-0.230086 292:-0.0759494 293:-0.920266 294:-0.123084 295:-0.0282378 296:-0.51586 297:-0.186787 298:0.0174506 299:0.155214 300:-0.678459 301:0.23286 302:-0.0687885 303:0.205701 304:-0.275459 305:-0.657238 306:-0.127976 307:0.195624 308:-0.401147 309:0.273479 310:0.466049 311:0.192403 312:-0.306827 313:-0.339969 314:-0.690569 315:0.294411 316:-0.315789 317:-0.707904 318:0.0598889 319:-0.0494255 320:-0.148669 321:-0.0232916 322:0.171125 323:-0.469798 324:-0.0499364 325:-0.349328 326:0.10795 327:-0.194007 328:-0.521472 329:-0.32646 330:0.0885224 331:-0.426741 332:0.415848 333:-0.249658 334:-0.028628 335:-0.274137 336:-0.581342 337:-0.414031 338:0.670623 339:-0.466704 340:-0.399015 341:-0.494297 342:-0.423054 343:-0.0664729 344:-0.37086 345:-0.376221 346:-0.151952 347:0.519178 348:-0.618747 349:0.00446777 350:0.0804789 351:-0.105605 352:-0.954386 353:-0.921368 354:-0.328044 355:-0.579667 356:0.629171 357:-0.00938603 358:0.236698 359:-0.189204 360:-0.707851 361:0.745372 362:-0.265255 363:0.639494 364:-0.6139 365:-0.147228 366:-0.572454 367:0.398428 368:-0.13881 369:0.479015 370:0.649927 371:-0.194141 372:-0.834079 373:0.481953 374:-0.506669 375:0.494311 376:-0.6234 377:-0.702069 378:-0.433794 379:0.124312 380:-0.139941 381:-0.276706 382:0.201931 383:-0.317005 384:-0.917303 
0.6658514209991938 0 0 0 0 0 1:-0.719457 2:-0.778795 3:-0.717967 4:-0.877285 5:-1 6:-0.144789 7:0.000278465 8:-0.0251119 9:-0.622026 10:-0.30271 11:-0.860671 12:-0.98783 13:0.220165 14:-0.590906 15:0.574434 16:-0.691083 17:-0.86511 18:0.151047 19:0.468092 20:-0.247427 21:0.0835807 22:0.366448 23:-0.369767 24:-0.423821 25:-0.0126991 26:0.0674081 27:-0.143111 28:-0.42812 29:-0.774086 30:0.247391 31:0.140776 32:0.0560795 33:0.0326572 34:0.26202 35:-0.337613 36:-0.653312 37:-0.456203 38:0.0834989 39:-0.597872 40:-0.439252 41:-0.638591 42:-0.301198 43:0.121977 44:-0.410179 45:-0.415981 46:-0.318973 47:0.127246 48:-0.945391 49:0.124073 50:0.404869 51:-0.333444 52:-0.652568 53:-0.740891 54:0.185292 55:0.148242 56:-0.219345 57:-0.416699 58:-0.078818 59:0.59073 60:-0.826854 61:-0.760797 62:-0.332029 63:-0.286086 64:-0.987749 65:-0.34252 66:-0.462352 67:0.0474873 68:-0.625428 69:-0.317927 70:-0.0939522 71:0.345899 72:-0.653311 73:-0.272073 74:0.357616 75:-0.453167 76:-0.98325 77:-0.849206 78:-0.108405 79:0.0132353 80:-0.0148335 81:-0.359496 82:-0.250039 83:0.433675 84:-0.446444 85:-0.177475 86:-0.096453 87:0.0157519 88:-0.494681 89:-0.457306 90:-0.526522 91:-0.0824487 92:-0.431632 93:0.276493 94:0.174529 95:0.337669 96:-0.60802 97:-0.59197 98:0.454946 99:-0.715526 100:-0.982211 101:-0.336016 102:0.0239419 103:0.0580422 104:0.00210822 105:-0.377088 106:-0.221956 107:0.331287 108:-0.987861 109:-0.00854459 110:0.0573597 111:0.0621761 112:-0.866868 113:-0.9447 114:0.00847742 115:0.169414 116:-0.0623727 117:-0.428952 118:-0.278155 119:-0.208625 120:-0.199892 121:-0.164746 122:0.0990238 123:-0.0871342 124:-0.88685 125:-0.49323 126:-0.461656 127:-0.738763 128:0.272657 129:-0.136744 130:0.219109 131:0.625796 132:-0.329221 133:0.466713 134:0.103738 135:0.303169 136:-0.903448 137:-0.645714 138:0.00175076 139:-0.717062 140:0.64763 141:0.0439065 142:0.501864 143:0.719867 144:-0.302256 145:0.132191 146:0.54597 147:0.0841439 148:-0.841105 149:-0.676364 150:-0.0735758 151:-0.553747 152:0.597535 153:-0.197444 154:0.212776 155:0.559762 156:-0.658478 157:0.362162 158:-0.909091 159:0.36193 160:-0.490468 161:-0.99661 162:-0.262358 163:-0.216465 164:-0.0172209 165:-0.0225821 166:0.0827508 167:-0.20637 168:-0.645183 169:0.973995 170:1 171:0.469809 172:-0.848057 173:-0.477941 174:0.948699 175:0.0571492 176:0.596975 177:0.737421 178:0.810473 179:-0.879723 180:-0.926857 181:0.932381 183:0.932381 184:-0.832061 185:-1 186:0.559831 187:-0.435641 188:0.614887 189:0.302545 190:0.633733 191:-0.919747 192:-0.977724 193:-0.617688 194:0.42611 195:-0.484005 196:-0.636601 197:-0.812 198:0.471702 199:0.339699 200:-0.216469 201:-0.520298 202:-0.148755 203:-0.0442862 204:-0.924152 205:0.0934715 206:-0.111193 207:0.165906 208:-0.511188 209:-0.649123 210:-0.0952482 211:-0.0632692 212:-0.0897862 213:-0.0921187 214:0.130538 215:0.118792 216:-0.36421 217:0.279917 218:0.140677 219:0.13845 220:-0.677205 221:-0.527559 222:-0.0100232 223:0.14831 224:-0.20318 225:0.0403854 226:0.269012 227:0.0471529 228:-0.697044 229:-0.688321 230:-0.0319056 231:-0.364911 232:-0.911392 233:-0.891808 234:-0.227588 235:0.440078 236:-0.432553 237:-0.338284 238:-0.143821 239:-0.335344 240:-0.475694 241:-0.667069 242:0.279774 243:-0.461304 244:-0.860759 245:-0.592334 246:-0.171338 247:-0.085136 248:-0.163615 249:-0.408442 250:-0.177867 251:-0.21177 252:-0.838751 253:-0.0939862 254:-0.200734 255:0.126775 256:-0.192308 257:-0.976967 258:0.0312418 259:0.375584 260:-0.543854 261:-0.318078 262:-0.056797 263:-0.310722 264:-0.299975 265:-0.553373 266:0.593581 267:-0.526887 268:-0.553719 269:-0.54 270:0.0136182 271:0.104804 272:-0.207699 273:-0.391506 274:-0.184664 275:0.192509 276:-0.673987 277:-0.648307 278:0.223763 279:-0.425913 280:-0.510753 281:-0.832884 282:-0.0310591 283:0.432719 284:-1 285:-0.263254 286:-0.018724 287:-0.129719 288:-0.825341 289:-0.372708 290:0.151634 291:-0.167949 292:-0.700422 293:-0.44186 294:0.204832 295:0.0285974 296:-0.383991 297:-0.385095 298:-0.1894 299:0.11128 300:-0.344972 301:-0.149859 302:0.18472 303:-0.128978 304:-0.419032 305:-0.846922 306:0.105454 307:-0.0100176 308:0.0391042 309:-0.41199 310:-0.183004 311:0.183449 312:-0.194196 313:-0.340732 314:0.444464 315:-0.356228 316:-0.44582 317:-0.962199 318:0.224905 319:0.169022 320:-0.274237 321:-0.506761 322:-0.32482 323:0.280057 324:-0.586845 325:0.312058 326:0.207195 327:0.0890405 328:-0.947853 329:-0.494845 330:0.0531443 331:0.00117655 332:-0.056034 333:-0.0700128 334:0.151459 335:0.139981 336:-0.263546 337:-0.446553 338:0.453203 339:-0.313228 340:-0.399015 341:-0.828897 342:0.0868738 343:-0.259667 344:0.0953874 345:-0.441289 346:-0.227519 347:0.2763 348:-0.484172 349:0.430741 350:-0.343323 351:0.380881 352:-0.501754 353:-0.497436 354:-0.306912 355:-0.685278 356:0.724743 357:0.514564 358:0.662188 359:-0.278518 360:-0.477697 361:0.720307 362:-0.578652 363:0.810547 364:-0.752896 365:-0.824092 366:-0.00132187 367:-0.079777 368:0.474493 369:0.583058 370:0.727806 371:-0.307016 372:-0.72346 373:0.632651 374:-0.755222 375:0.693938 376:-0.886654 377:-0.862069 378:-0.433794 379:-0.341798 380:0.50431 381:0.14833 382:0.518416 383:-0.232647 384:-0.909367 
0 4.638630877688882 0 1.190446495277262 0 0 1:-0.53657 2:-0.885727 3:-0.534386 4:-0.362924 5:-0.219277 6:-0.277751 7:0.0812916 8:-0.174301 9:-0.638692 10:-0.327446 11:-0.526676 12:-0.851646 13:0.0245128 14:0.374236 15:-0.356089 16:-0.0318471 17:-0.284047 18:-0.150328 19:-0.196069 20:-0.0498552 21:-0.659249 22:-0.516897 23:0.326286 24:-0.705446 25:0.166666 26:-0.472619 27:0.437728 28:-0.0616114 29:-0.186047 30:-0.479681 31:0.0568624 32:-0.389286 33:0.165902 34:0.371513 35:0.139643 36:-0.451914 37:-0.448552 38:0.0642779 39:-0.575036 40:-0.919003 41:-0.497703 42:-0.38009 43:-0.321796 44:-0.0387561 45:-0.608026 46:-0.48042 47:0.0955222 48:-0.559924 49:0.303135 50:-0.0565946 51:0.252252 52:-0.0936556 53:-0.639676 54:-0.230614 55:-0.0816782 56:-0.454528 57:-0.0836048 58:0.209403 59:0.444734 60:-0.766554 61:-0.480775 62:-0.0357359 63:-0.322654 64:-0.522205 65:-0.649606 66:-0.0177816 67:0.0217418 68:-0.252294 69:-0.362929 70:-0.121491 71:0.3576 72:-0.821165 73:-0.573571 74:-0.519793 75:0.141912 76:-0.98995 77:-0.448413 78:-0.783302 79:-0.0656382 80:-0.472323 81:-0.155525 82:-0.0661099 83:0.098528 84:-0.118791 85:0.08331 86:-0.205926 87:0.293604 88:-0.81117 89:0.1537 90:-0.544218 91:-0.457728 92:-0.0410305 93:-0.183276 94:-0.10965 95:0.587352 96:0.00137495 97:0.0210183 98:-0.367292 99:0.46735 100:-0.878018 101:-0.730382 102:-0.108972 103:0.156654 104:-0.306283 105:-0.318059 106:-0.11109 107:-0.0531618 108:-0.0753578 109:-0.357491 110:-0.642933 111:0.481706 112:-0.0347958 113:-0.966206 114:-0.75566 115:0.318691 116:-0.908277 117:-0.133327 118:0.0895831 119:-0.0244625 120:-0.409199 121:-0.61026 122:-0.456486 123:0.0210474 124:-0.605505 125:0.121857 126:-0.629634 127:-0.473921 128:0.104686 129:-0.278503 130:0.0523025 131:0.0455327 132:-0.606145 133:0.0357244 134:-0.223552 135:0.254259 136:-0.694253 137:0.139048 138:-0.0960058 139:0.0337317 140:0.0224649 141:0.140141 142:0.310295 143:0.446089 144:-0.576664 145:-0.0921214 146:-0.350768 147:0.466698 148:-0.516408 149:-0.756364 150:-0.504005 151:0.276278 152:-0.43095 153:-0.214097 154:-0.0172319 155:0.481068 156:-0.321769 157:-0.0621623 158:-0.818182 159:-0.0643431 160:-0.0225303 161:0.0949153 162:-0.24191 163:-0.11137 164:-0.170569 165:-0.670212 166:-0.492678 167:-0.212845 168:-0.491822 169:0.895528 170:0.54285 171:0.542061 172:-0.431095 173:0.172794 174:0.600484 175:-0.121516 176:0.502342 177:0.747463 178:0.813937 179:-0.606675 180:-0.948726 181:0.721997 183:0.721997 184:-0.492366 185:-1 186:0.277446 187:-0.0421667 188:0.220483 189:0.315328 190:0.611474 191:-0.905432 192:-0.981465 193:-0.58518 194:0.698891 195:-0.597733 196:-0.607843 197:-0.388 198:0.48362 199:0.806986 200:-0.625197 201:-0.655662 202:-0.314325 203:0.103436 204:-0.873493 205:-0.510541 206:0.502052 207:-0.534456 208:0.0223752 209:-0.607018 210:0.0495533 211:0.0785838 212:-0.154359 213:-0.590067 214:-0.400248 215:-0.00315682 216:-0.847418 217:0.465825 218:-0.167708 219:0.429414 220:-0.454243 221:-0.886614 222:-0.120704 223:-0.228575 224:-0.0111102 225:-0.0112607 226:0.220868 227:0.0233981 228:-0.672525 229:0.056804 230:0.563621 231:-0.249804 232:-0.446203 233:-0.187017 234:-0.266753 235:0.117624 236:-0.0851576 237:-0.419075 238:-0.235141 239:0.132783 240:-0.489569 241:0.00678091 242:-0.0542863 243:0.0586223 244:-0.0189873 245:-0.700348 246:-0.27003 247:-0.421064 248:0.0160204 249:0.594332 250:0.708667 251:0.273356 252:-0.939273 253:-0.443061 254:0.537736 255:-0.512128 256:-0.870192 257:-0.681382 258:-0.285642 259:-0.416153 260:0.178369 261:-0.593059 262:-0.37954 263:-0.19013 264:-0.908123 265:0.228861 266:0.169261 267:0.309344 268:-0.828099 269:-0.456 270:-0.186552 271:-0.262511 272:-0.0805182 273:0.0862913 274:0.271706 275:0.285727 276:-0.188535 277:-0.319471 278:0.110301 279:-0.190376 280:-0.16129 281:-0.296496 282:-0.186848 283:-0.499966 284:-0.112196 285:-0.453076 286:-0.242647 287:-0.100382 288:-0.502668 289:-0.470424 290:0.106165 291:-0.200906 292:-0.092827 293:-0.312292 294:0.288032 295:-0.259813 296:-0.149587 297:-0.340014 298:-0.147494 299:-0.455415 300:-0.47086 301:-0.609031 302:0.400562 303:-0.478326 304:0.0217028 305:-0.97005 306:-0.132627 307:-0.0226503 308:-0.245221 309:-0.586371 310:-0.379756 311:-0.2149 312:-0.520882 313:0.0362079 314:-0.11494 315:0.211043 316:-0.625387 317:-0.556701 318:0.0755141 319:-0.120086 320:-0.198446 321:-0.125946 322:0.073943 323:0.0321466 324:-0.46818 325:-0.246791 326:0.182738 327:-0.181788 328:-0.904908 329:-0.0171821 330:0.231614 331:-0.324763 332:0.157829 333:-0.0226618 334:0.193319 335:-0.143251 336:-0.757275 337:0.130632 338:0.297115 339:0.156849 340:-0.596059 341:-0.596958 342:-0.102701 343:-0.313208 344:-0.0526964 345:-0.135763 346:0.0885404 347:0.164014 348:-0.251257 349:0.0866844 350:0.257705 351:-0.163163 352:-0.603509 353:-0.596581 354:-0.285403 355:-0.426933 356:0.441026 357:-0.403349 358:-0.150074 359:0.0227032 360:-0.369721 361:0.539774 362:-0.573956 363:0.71502 364:-0.204633 365:-0.449331 366:-0.00449773 367:0.293207 368:0.324391 369:0.787028 370:0.862872 371:-0.302656 372:-0.879661 373:0.55108 374:-0.642455 375:0.596767 376:-0.806216 377:-0.591724 378:-0.433794 379:0.128205 380:-0.00815214 381:0.343131 382:0.637903 383:-0.312639 384:-0.934064 
0 6.721651440531453 0 0.004370340988120492 0.01112924243131549 0 1:-0.591771 2:-0.850802 3:-0.589806 4:-0.903394 5:-0.580723 6:-0.549007 7:-0.351773 8:0.0209562 9:-0.819768 10:-0.530864 11:-0.529756 12:-0.803265 13:0.266095 14:-0.128603 15:0.232045 16:-0.509554 17:-0.896239 18:0.0135017 19:0.778832 20:-0.460076 21:-0.300599 22:0.103791 23:-0.0594995 24:-0.451821 25:-0.540682 26:0.140982 27:-0.562451 28:-0.85466 29:-0.810631 30:-0.0502903 31:0.394706 32:-0.27757 33:-0.419311 34:-0.13084 35:-0.317868 36:-0.748825 37:-0.134442 38:-0.470943 39:0.148444 40:-0.563863 41:-0.684533 42:-0.252609 43:0.752503 44:-0.765503 45:0.189045 46:0.522989 47:-0.324743 48:-0.458244 49:0.312954 50:0.12141 51:0.0718906 52:-0.507553 53:-0.663968 54:0.298541 55:0.25545 56:-0.179154 57:-0.436358 58:-0.0725128 59:0.396477 60:-0.628677 61:-0.73482 62:0.0329555 63:-0.564955 64:-0.500766 65:-0.484252 66:-0.0667582 67:0.444556 68:-0.473968 69:-0.384997 70:-0.0630484 71:0.0699247 72:-0.914287 73:-0.0136174 74:0.0865816 75:0.0269968 76:-0.691792 77:-0.952381 78:0.178785 79:0.347493 80:-0.0237263 81:-0.212501 82:-0.0527772 83:-0.245018 84:-0.328247 85:0.238528 86:0.143662 87:0.101509 88:-0.728723 89:-0.787476 90:0.294545 91:-0.572458 92:0.55271 93:-0.111557 94:-0.0779419 95:-0.409772 96:-0.0732369 97:-0.0197186 98:-0.16877 99:0.254866 100:-0.570521 101:-0.509054 102:-0.335794 103:0.148637 104:-0.36622 105:0.186647 106:0.340612 107:0.311044 108:-0.56685 109:0.000540509 110:-0.0127246 111:0.140459 112:-0.960666 113:-0.806452 114:-0.152488 115:-0.337219 116:0.132726 117:0.0605307 118:0.227038 119:0.0478132 120:-0.556301 121:-0.727749 122:-0.279302 123:-0.227681 124:-0.64526 125:-0.864603 126:-0.524788 127:0.169361 128:-0.451236 129:-0.417737 130:-0.165646 131:-0.103032 132:-0.509019 133:-0.292115 134:0.278647 135:-0.432783 136:-0.641379 137:-0.672381 138:0.207181 139:0.76183 140:-0.294397 141:-0.609559 142:-0.219506 143:0.30051 144:-0.521491 145:-0.849197 146:-0.291251 147:-0.245466 148:-0.582038 149:-0.778182 150:-0.599536 151:0.219638 152:-0.445245 153:-0.538665 154:-0.354111 155:-0.421952 156:-0.318817 157:0.156757 158:-0.954545 159:0.160858 160:-0.920277 161:-0.610169 162:-0.26368 163:-0.830524 164:0.526441 165:-0.347461 166:-0.0274537 167:-0.0816859 168:-0.523235 169:0.356013 170:0.233493 171:0.205965 172:-0.759717 173:-0.547794 174:-0.100052 175:0.0558213 176:-0.0982283 177:-0.0172445 178:0.247242 179:-0.377846 180:-0.815208 181:0.285978 183:0.285978 184:-0.721374 185:-1 186:-0.368558 187:0.0543449 188:-0.284199 189:-0.356822 190:0.125379 191:-0.807708 192:-0.971653 193:-0.6945 194:0.486734 195:-0.564098 196:-0.900654 197:-0.856 198:0.467708 199:0.483484 200:-0.458772 201:-0.713693 202:-0.39269 203:-0.173994 204:-0.824029 205:0.0328818 206:-0.163956 207:0.155677 208:-0.724613 209:-0.94386 210:-0.171491 211:-0.170735 212:-0.00919472 213:-0.163609 214:0.0627227 215:0.391068 216:-0.429925 217:-0.024505 218:0.00647711 219:0.0339559 220:-0.640599 221:-0.845669 222:0.394077 223:-0.379092 224:0.430419 225:-0.11813 226:0.120939 227:0.157928 228:-0.733627 229:-0.066093 230:-0.221932 231:0.138314 232:-0.810127 233:-0.76507 234:0.0764457 235:0.0668987 236:0.0822221 237:0.24149 238:0.404065 239:-0.191907 240:-0.672906 241:-0.489951 242:0.00353265 243:-0.217924 244:-0.718354 245:-0.696864 246:0.414265 247:-0.332667 248:0.310612 249:-0.246699 250:-0.0137531 251:-0.230729 252:-0.598836 253:-0.306628 254:0.296563 255:-0.293014 256:-0.5625 257:-0.527831 258:0.720158 259:-0.253556 260:0.429157 261:-0.425392 262:-0.184776 263:-0.269811 264:-0.587777 265:-0.341463 266:0.149625 267:-0.0662049 268:-0.841322 269:-0.964 270:0.434164 271:-0.255153 272:0.397679 273:-0.0469582 274:0.14613 275:0.103968 276:-0.589368 277:0.519199 278:0.226687 279:0.160033 280:-0.747312 281:-0.725067 282:-0.151893 283:-0.172826 284:-0.186254 285:-0.155991 286:0.0664793 287:0.0687838 288:-0.262974 289:0.599574 290:-0.0632504 291:0.594624 292:-0.818565 293:-0.807309 294:0.434031 295:0.0948241 296:-0.350897 297:0.325211 298:0.483959 299:0.385358 300:0.209555 301:0.125078 302:0.0297078 303:0.0954312 304:-0.863105 305:-0.800333 306:0.0189652 307:0.0430093 308:-0.0113019 309:-0.185781 310:0.0507121 311:0.119067 312:0.0735558 313:-0.622146 314:0.376248 315:-0.501445 316:-0.894737 317:-0.57732 318:0.0389426 319:0.0381771 320:-0.131841 321:-0.362058 322:-0.167835 323:0.0444696 324:-0.744759 325:-0.215412 326:0.418472 327:-0.291502 328:-0.684049 329:-0.690722 330:0.0740345 331:-0.564087 332:0.620567 333:-0.267547 334:-0.0475856 335:0.0167422 336:-0.764996 337:0.329599 338:0.698741 339:-0.0434211 340:-0.779967 341:-0.676806 342:0.353544 343:-0.102074 344:0.0159049 345:-0.342309 346:-0.118768 347:0.630026 348:0.0999534 349:-0.0151923 350:-0.0419519 351:-0.045045 352:-0.94386 353:-0.842735 354:-0.498913 355:-0.455694 356:0.265287 357:0.0221621 358:0.262793 359:-0.255348 360:-0.42497 361:0.45313 362:-0.024245 363:0.347867 364:-0.667954 365:-0.655832 366:-0.074714 367:-0.0426314 368:0.34891 369:-0.0233612 370:0.261813 371:-0.105477 372:-0.74421 373:0.144445 374:-0.288013 375:0.216229 376:-0.462523 377:-0.793103 378:-0.433794 379:-0.00601976 380:-0.0457128 381:-0.263708 382:0.213135 383:-0.35493 384:-0.917896 
1.500895407683957 4.818342046352805 0.9848565483688588 2.161036876138077 0 0.6250849581599802 1:0.191862 2:-1 3:0.19576 4:-0.986945 5:-0.585542 6:-0.0568459 7:-0.103544 8:0.255483 9:-0.384194 10:-0.0053447 11:-0.313537 12:-0.610598 13:0.307213 14:-0.0620716 15:0.208306 16:-0.414013 17:-0.87808 18:0.318967 19:0.0785987 20:-0.000598637 21:-0.151793 22:0.0868938 23:-0.502858 24:-0.185164 25:0.133379 26:-0.0352679 27:0.0429775 28:-0.971564 29:-0.531561 30:-0.0339441 31:-0.00439056 32:-0.0305565 33:-0.111171 34:0.12943 35:0.112425 36:-0.418474 37:0.0390828 38:-0.151842 39:0.0298603 40:-0.931464 41:-0.699847 42:-0.203672 43:0.0688598 44:-0.350709 45:0.0627334 46:0.195318 47:0.131646 48:-0.505151 49:-0.0414103 50:-0.153869 51:0.154917 52:-0.966767 53:-0.643725 54:0.254701 55:-0.323798 56:0.195 57:-0.116304 58:0.141853 59:-0.24653 60:-0.503769 61:-0.159976 62:-0.132825 63:-0.00823834 64:-0.669219 65:-0.216535 66:-0.0308486 67:-0.325596 68:0.140063 69:-0.268466 70:-0.0302851 71:0.215373 72:-0.655128 73:0.249967 74:0.21822 75:0.121757 76:-0.112228 77:-0.813492 78:0.448553 79:-0.0491684 80:0.489234 81:-0.133277 82:-0.0485793 83:0.0452086 84:-0.411767 85:-0.0871428 86:-0.24103 87:0.203925 88:-0.928191 89:0.0208729 90:0.264104 91:-0.353562 92:0.447369 93:0.0612473 94:0.0295049 95:-0.655684 96:-0.156896 97:-0.0798415 98:0.00673864 99:0.0505816 100:-0.626429 101:-0.947686 102:-0.0297924 103:0.0210092 104:-0.0240769 105:-0.177221 106:-0.0113651 107:0.278979 108:-0.652845 109:-0.416931 110:0.0809486 111:-0.29849 112:-0.443268 113:-0.533026 114:-0.263659 115:-0.0295833 116:-0.106261 117:-0.350172 118:-0.191846 119:-0.186392 120:-0.609926 121:-0.368922 122:-0.536192 123:0.288484 124:-0.669725 125:-0.632495 126:-0.618091 127:-0.174356 128:-0.2821 129:0.0014077 130:0.183479 131:-0.125009 132:-0.166235 133:0.161116 134:0.124156 135:0.050059 136:-0.643678 137:-0.721905 138:0.186283 139:0.124789 140:0.134445 141:-0.475293 142:-0.269547 143:0.712985 144:0.326082 145:-0.570315 146:-0.198581 147:-0.0575162 148:-0.613126 149:-0.0690909 150:-0.335069 151:0.143332 152:-0.119419 153:-0.445744 154:-0.243417 155:-0.111769 156:-0.637162 157:1 158:-0.863636 159:0.991957 160:-0.403813 161:-0.989831 162:0.0728485 163:-0.307932 164:0.294152 165:0.501149 166:0.448131 167:-0.0657968 168:-0.517544 169:0.581698 170:-1 171:0.747116 172:-0.646643 173:-0.367647 174:-0.263776 175:0.00208857 176:-0.214363 177:-0.237294 178:0.0494407 179:-0.358527 180:-0.525495 181:0.599443 183:0.599443 184:-0.828244 185:-1 186:-0.628392 187:0.0153615 188:-0.422192 189:-0.544763 190:-0.0531588 191:-0.650308 192:-0.927478 193:0.0910658 194:-0.29961 195:0.337307 196:-0.981699 197:-0.98 198:0.469142 199:0.72933 200:-0.495498 201:0.0709397 202:0.390191 203:-0.079716 204:-0.717297 205:-0.0630725 206:-0.55907 207:0.303128 208:-0.0292599 209:-0.340351 210:-0.188346 211:0.0498537 212:-0.165131 213:-0.162618 214:0.062692 215:-0.744808 216:-0.296501 217:0.0546802 218:0.389978 219:-0.141718 220:-0.85025 221:-0.253543 222:-0.0413679 223:-0.49839 224:0.469579 225:-0.0826979 226:0.154055 227:0.472512 228:-0.877674 229:0.11072 230:0.0502481 231:0.088117 232:-0.949367 233:-0.755796 234:-0.240905 235:0.163698 236:-0.162294 237:0.293838 238:0.449294 239:0.202609 240:-0.755612 241:-0.0386247 242:0.338016 243:-0.185845 244:-0.139241 245:-0.679443 246:-0.201613 247:-0.52388 248:0.261326 249:-0.389477 250:-0.163024 251:0.532632 252:-0.627514 253:0.0113739 254:-0.0243669 255:0.0621785 256:-0.0288462 257:-0.581574 258:0.0303595 259:-0.382779 260:0.224113 261:-0.154115 262:0.0918415 263:-0.453617 264:-0.6589 265:-0.228961 266:-0.0662352 267:0.164253 268:-0.735537 269:0.104 270:-0.0218589 271:-0.486243 272:0.448933 273:0.0747598 274:0.254837 275:-0.16159 276:-0.491799 277:-0.201521 278:0.793835 279:-0.55266 280:-0.266129 281:-0.269542 282:-0.0754331 283:-0.614315 284:0.201967 285:-0.42027 286:-0.20958 287:0.393431 288:-0.811648 289:-0.151337 290:0.00115815 291:0.0718188 292:-0.936709 293:-0.27907 294:0.374333 295:-0.36319 296:0.145156 297:0.246164 298:0.406843 299:-0.269821 300:-0.514857 301:-0.451809 302:0.400252 303:-0.402202 304:-0.819699 305:-0.633943 306:0.0375539 307:-0.109502 308:0.00529765 309:-0.410621 310:-0.181294 311:-0.0844219 312:-0.74572 313:0.451074 314:0.00851877 315:0.412009 316:-0.693498 317:-0.62543 318:0.0564044 319:-0.139276 320:-0.133781 321:-0.129528 322:0.0695073 323:0.614864 324:0.0290992 325:-0.148617 326:0.129837 327:-0.103723 328:-0.904908 329:-0.312715 330:0.26802 331:-0.460127 332:0.4605 333:-0.129996 334:0.0895749 335:-0.174375 336:-0.705242 337:0.551564 338:0.362523 339:0.357074 340:-0.136289 341:-0.026616 342:0.282259 343:-0.283377 344:0.00910777 345:-0.300675 346:-0.0754076 347:0.494901 348:0.31984 349:1 350:-0.778254 351:0.953954 352:-0.417544 353:-0.391453 354:-0.347542 355:-0.495052 356:0.552749 357:1 358:1 359:-0.213983 360:-0.436014 361:0.353583 362:-0.202087 363:0.401088 364:-0.687259 365:-0.621415 366:-0.0660384 367:0.455664 368:-0.0197483 369:-0.157512 370:0.13837 371:-0.378158 372:-0.764145 373:0.608147 374:-0.529692 375:0.568919 376:-0.842779 377:-0.864828 378:-0.433794 379:0.252082 380:-0.337133 381:-0.397255 382:0.0966718 383:-0.312616 384:-0.869649 
0 2.905771613418622 0.1847052406552471 2.699643543711269 1.281742129652573 1.209779887685912 1:-0.810879 2:-0.740733 3:-0.809684 4:-0.707572 5:-0.556627 6:-0.685024 7:0.00958215 8:-0.309334 9:-0.883806 10:-0.713943 11:-0.506776 12:-0.820201 13:0.166927 14:0.138886 15:-0.0591048 16:-0.786624 17:-0.426719 18:0.138854 19:-0.0435998 20:-0.0153282 21:-0.506094 22:-0.318377 23:-0.0474032 24:-0.282569 25:0.160157 26:-0.107583 27:0.122621 28:-0.955766 29:-0.574751 30:0.22346 31:0.167899 32:-0.0429473 33:-0.174928 34:0.0922599 35:-0.266205 36:-0.410742 37:-0.719024 38:-0.544719 39:-0.296107 40:-0.158879 41:-0.739663 42:-0.473187 43:0.150509 44:-0.706539 45:-0.557655 46:-0.422215 47:-0.16404 48:-0.421396 49:-0.0204824 50:-0.233433 51:0.250157 52:-0.867069 53:-0.688259 54:0.0306548 55:-0.150176 56:-0.183305 57:-0.0892971 58:0.18029 59:0.10066 60:-0.683169 61:0.0643525 62:-0.894104 63:0.777589 64:-0.727412 65:-0.0472441 66:-0.228283 67:-0.279209 68:-0.0936769 69:0.285901 70:0.460144 71:0.0442417 72:-0.377358 73:-0.495962 74:0.186093 75:-0.475867 76:0.102178 77:-0.857143 78:0.101016 79:0.0381535 80:0.0907728 81:-0.384419 82:-0.26594 83:-0.281345 84:-0.608282 85:-0.406453 86:0.0449672 87:-0.267256 88:-0.75 89:-0.309298 90:-0.268189 91:-0.333304 92:0.0215285 93:-0.310065 94:-0.266336 95:0.034695 96:-0.655425 97:-0.487936 98:-0.0244625 99:-0.198542 100:-0.722999 101:0.203219 102:-0.143649 103:-0.0184972 104:-0.0580102 105:-0.219941 106:-0.0560563 107:0.174963 108:-0.84631 109:-0.325824 110:-0.100124 111:-0.0404486 112:-0.467474 113:-0.754224 114:-0.138629 115:-0.0897507 116:0.0798273 117:-0.508301 118:-0.327054 119:-0.078436 120:-0.488964 121:-0.527036 122:0.0356397 123:-0.331818 124:-0.266055 125:0.272727 126:0.037805 127:-0.457269 128:0.572967 129:-0.592448 130:-0.276939 131:0.0550427 132:-0.533708 133:0.0735944 134:-0.507609 135:0.529177 136:-0.666667 137:0.0590476 138:-0.23312 139:-0.109657 140:0.112703 141:0.35246 142:0.5277 143:0.176714 144:-0.502713 145:0.0854867 146:-0.0623735 147:0.437497 148:-0.55095 149:-0.890909 150:-0.126467 151:0.024026 152:0.232828 153:-0.0358039 154:0.186188 155:0.228761 156:-0.608376 157:0.281081 158:-0.727273 159:0.270777 160:-0.840555 161:-0.376271 162:-0.374493 163:-0.298296 164:0.0847532 165:-0.429515 166:-0.241069 167:0.158675 168:-0.236643 169:0.907219 170:0.189319 171:0.655218 172:-0.491166 173:-0.136029 174:0.243137 175:-0.233273 176:0.397834 177:0.726197 178:0.814239 179:-0.363286 180:-0.865168 181:0.8003 183:0.8003 184:-0.442748 185:-1 186:0.00927464 187:-0.141437 188:0.161547 189:0.174267 190:0.535052 191:-0.828872 192:-0.971646 193:-0.86739 194:0.768774 195:-0.81639 196:-0.712418 197:-0.188 198:0.464223 199:0.89791 200:-0.813607 201:-0.912255 202:-0.741781 203:-0.198372 204:-0.868745 205:-0.780289 206:0.063873 207:-0.473218 208:-0.975904 209:-0.859649 210:-0.0864676 211:0.116041 212:-0.264698 213:-0.776169 214:-0.64406 215:-0.583516 216:-0.241921 217:-0.367579 218:0.347097 219:-0.370033 220:-0.374376 221:-0.344882 222:0.0819247 223:-0.479494 224:0.47051 225:-0.421673 226:-0.186964 227:0.0946293 228:-0.821728 229:-0.354794 230:0.441705 231:-0.43602 232:-0.901899 233:-0.802164 234:-0.24413 235:0.208849 236:-0.27275 237:-0.441368 238:-0.258322 239:0.071984 240:-0.752551 241:0.0832673 242:0.155628 243:-0.0227241 244:-0.734177 245:-0.815331 246:0.225552 247:-0.462247 248:0.203535 249:-0.382213 250:-0.153715 251:0.174664 252:-0.317641 253:-0.27109 254:-0.330268 255:0.127725 256:-0.586538 257:-0.216891 258:0.260789 259:-0.487974 260:0.474384 261:-0.0802638 262:0.160007 263:-0.921302 264:-0.379493 265:-0.355074 266:0.327081 267:-0.201791 268:-0.679339 269:-0.872 270:-0.256956 271:-0.470632 272:0.32575 273:-0.422607 274:-0.231908 275:0.118178 276:-0.346337 277:-0.178941 278:0.21132 279:-0.181948 280:-0.954301 281:-0.749326 282:-0.255613 283:-0.567763 284:-0.00541834 285:-0.461945 286:-0.254334 287:-0.202862 288:-0.401561 289:-0.160003 290:-0.239059 291:0.222736 292:0.265823 293:0.00664452 294:0.377177 295:-0.368138 296:0.133922 297:-0.341061 298:-0.153246 299:-0.599593 300:0.164413 301:-0.303908 302:0.693879 303:-0.504301 304:-0.739566 305:-0.960067 306:-0.0502351 307:-0.171403 308:0.078004 309:-0.728131 310:-0.567754 311:0.359085 312:-0.430601 313:-0.140556 314:0.346217 315:-0.168862 316:-0.74613 317:-0.927835 318:-0.268377 319:-0.297673 320:0.0479156 321:-0.437119 322:-0.252524 323:0.226176 324:-0.431642 325:0.193472 326:-0.176804 327:0.233488 328:-0.141104 329:-0.0412371 330:-0.152577 331:-0.388085 332:0.129835 333:0.190527 334:0.381319 335:-0.383833 336:-0.507147 337:-0.261334 338:0.608767 339:-0.325985 340:-0.730706 341:-0.889734 342:-0.0303671 343:-0.417614 344:0.170259 345:-0.507288 346:-0.303146 347:0.18712 348:-0.395719 349:0.233244 350:-0.119007 351:0.139139 352:-0.859649 353:-0.839316 354:-0.321414 355:-0.418053 356:0.405179 357:-0.180584 358:0.0767455 359:-0.13015 360:-0.0926475 361:0.659504 362:-0.585772 363:0.783482 364:-0.563707 365:-0.445507 366:0.00824826 367:0.401779 368:0.138221 369:0.151825 370:0.404127 371:-0.419577 372:-0.575499 373:0.627602 374:-0.790466 375:0.709035 376:-0.645338 377:-0.588966 378:-0.433794 379:0.177978 380:-0.122568 381:-0.16558 382:0.290927 383:-0.367759 384:-0.884565 
