svm_type c_svc
kernel_type rbf
gamma 0.0078125
nr_class 7
total_sv 417
rho 0.451467 -0.762908 0.176394 0.721903 -0.0857441 0.00205801 -0.418664 -0.0762487 0.39014 0.604876 0.0136564 0.310271 0.630775 0.0947922 0.441383 0.258402 -0.115394 -0.381014 -0.437619 -0.688315 -0.0624949
label 5 7 1 6 4 2 3
probA -4.26179 -2.85141 -4.13619 -2.897 -4.37884 -3.43388 -4.46012 -4.27978 -5.65837 -4.38554 -4.94409 -4.26603 -4.76208 -4.57106 -4.73535 -4.24602 -3.27041 -4.82691 -4.57295 -4.65001 -5.02158
probB -0.21598 -0.0354319 -0.0684188 -0.0801796 0.102782 0.0815407 0.0544202 0.0655249 0.335591 0.0830243 0.212292 -0.184554 0.359191 0.0219074 0.283392 0.412741 -0.201319 -0.148189 -0.166245 -0.0473551 0.28959
nr_sv 55 64 94 40 56 65 43
SV
4.139586406760231 2.950454819154136 1.696747239597023 6.70212047687386 2.187167113935395 3.428590144284486 1:-0.880785 2:-0.799791 3:-0.879518 4:-0.929504 5:-0.99759 6:-0.761808 7:0.0654675 8:-0.475825 9:-0.9018 10:-0.767896 11:-0.57626 12:-0.863661 13:0.277193 14:-0.186923 15:0.284414 16:-0.693182 17:-0.647211 18:0.0108118 19:-0.646676 20:0.181357 21:-0.128082 22:0.104398 23:-0.321206 24:-0.422507 25:0.0700215 26:0.126069 27:-0.107608 28:-0.807267 29:-0.877076 30:0.209309 31:-0.432543 32:0.372807 33:-0.357348 34:-0.030833 35:0.0596571 36:-0.442396 37:-0.133554 38:0.041226 39:-0.205076 40:-0.76507 41:-0.732719 42:-0.128822 43:-0.177584 44:0.046519 45:-0.307677 46:-0.207636 47:-0.0193467 48:-0.442383 49:-0.279068 50:0.560546 51:-0.740781 52:-0.754801 53:-0.451613 54:0.245773 55:-0.24384 56:0.105792 57:-0.708752 58:-0.495418 59:0.235008 60:-0.752066 61:-0.50869 62:-0.12388 63:-0.290094 64:-0.546708 65:-0.50099 66:0.07457 67:-0.228931 68:0.101136 69:-0.250829 70:-0.0384658 71:-0.242157 72:-0.572308 73:-0.479017 74:-0.140148 75:-0.145832 76:-0.852596 77:-0.936747 78:-0.234107 79:0.0615881 80:-0.189113 81:-0.187411 82:-0.0786383 83:-0.362418 84:-0.478275 85:-0.135712 86:0.334182 87:-0.362919 88:-0.941489 89:-0.791822 90:0.250042 91:-0.485607 92:0.526808 93:-0.668893 94:-0.499971 95:-0.278811 96:-0.434122 97:-0.141907 98:0.0807557 99:-0.0828652 100:-0.542567 101:-0.728 102:0.184072 103:0.334919 104:-0.111404 105:0.0567204 106:0.295612 107:0.0394798 108:-0.74364 109:-0.13898 110:-0.610805 111:0.5056 112:-0.549168 113:-0.849231 114:0.0684929 115:0.200884 116:-0.0305356 117:0.425643 118:0.460068 119:-0.765107 120:0.13795 121:-0.8775 122:-0.0643027 123:-0.574067 124:-0.679083 125:-0.890838 126:-0.436758 127:0.0291324 128:-0.292286 129:-0.600222 130:-0.440499 131:-0.269848 132:-0.485448 133:-0.549597 134:0.338346 135:-0.726238 136:-0.586207 137:-0.577143 138:0.302067 139:0.192837 140:0.163515 141:-0.560682 142:-0.358888 143:-0.393358 144:-0.60612 145:-0.36993 146:0.190909 147:-0.144601 148:-0.533679 149:-0.762774 150:-0.327518 151:0.259538 152:-0.327233 153:-0.354107 154:-0.16325 155:-0.198737 156:-0.697612 157:-0.0540542 158:-0.956522 159:-0.0482574 160:-0.592204 161:-0.99661 162:-0.290982 163:0.174441 164:-0.406645 165:-0.515032 166:-0.26953 167:-0.181287 168:-0.582767 169:0.375734 170:0.366137 171:0.18259 172:-0.80212 173:-0.702206 174:-0.389311 175:-0.242776 176:-0.158649 177:-0.532568 178:-0.258012 179:-0.252374 180:-0.769178 181:0.0819673 183:0.0819673 184:-0.503817 185:-1 186:-0.782328 187:0.0116342 188:-0.524434 189:-0.819626 190:-0.403961 191:-0.63226 192:-0.922101 193:-0.816724 194:0.739145 195:-0.774005 196:-0.926797 197:-0.888 198:0.20115 199:0.676273 200:-0.656546 201:-0.893989 202:-0.696441 203:-0.201503 204:-0.819343 205:-0.642516 206:0.424468 207:-0.590968 208:-0.560241 209:-0.727685 210:0.0735478 211:0.0110265 212:-0.150365 213:-0.572716 214:-0.397712 215:0.0752035 216:-0.802111 217:-0.00928653 218:-0.490351 219:0.274818 220:-0.937792 221:-0.899213 222:-0.422742 223:-0.263365 224:0.101229 225:-0.227933 226:0.0189461 227:-0.22367 228:-0.434764 229:-0.546842 230:0.125931 231:-0.290969 232:-0.563291 233:-0.746522 234:-0.172215 235:0.22696 236:-0.161984 237:-0.180812 238:0.0142649 239:-0.210904 240:-0.798968 241:-0.815509 242:0.203286 243:-0.503007 244:-0.892285 245:-0.712821 246:0.0965008 247:-0.201836 248:0.0588032 249:-0.492796 250:-0.247428 251:-0.129188 252:-0.540546 253:-0.580022 254:0.422971 255:-0.532712 256:-0.940762 257:-0.65407 258:-0.0760372 259:-0.0808157 260:-0.0447694 261:-0.284825 262:-0.0342387 263:-0.368548 264:-0.936762 265:-0.340484 266:0.064412 267:-0.00489194 268:-0.910744 269:-0.675351 270:-0.016328 271:-0.052733 272:-0.0398486 273:-0.119884 274:0.095758 275:0.190115 276:-0.601075 277:-0.495838 278:0.651732 279:-0.570883 280:-0.706989 281:-0.727763 282:-0.0467901 283:-0.630032 284:0.424613 285:-0.504445 286:-0.304621 287:0.114818 288:-0.931613 289:0.342659 290:-0.196596 291:0.481599 292:-0.860724 293:-0.853157 294:0.498553 295:-0.270016 296:-0.0934505 297:0.383515 298:0.529491 299:0.197637 300:0.0135279 301:0.381995 302:0.293941 303:0.117997 304:-0.645695 305:-0.836938 306:0.0329198 307:-0.0620061 308:0.0788319 309:-0.0945341 310:0.13708 311:0.242943 312:-0.0577 313:-0.31185 314:0.318723 315:-0.26529 316:-0.603715 317:-0.911175 318:-0.172609 319:0.114527 320:-0.337875 321:-0.376933 322:-0.175449 323:0.126985 324:-0.594694 325:-0.621105 326:0.115766 327:-0.289966 328:-0.745399 329:-0.675362 330:-0.12649 331:-0.413531 332:0.246827 333:-0.289674 334:-0.0699229 335:-0.437509 336:-0.562478 337:-0.0875954 338:0.442628 339:-0.147236 340:-0.577558 341:-0.429658 342:-0.333696 343:-0.185497 344:-0.117494 345:0.0537129 346:0.26251 347:0.61567 348:-0.404453 349:0.0574046 350:0.40839 351:-0.311311 352:-0.607251 353:-0.675214 354:-0.128034 355:-0.569173 356:0.707247 357:-0.49667 358:-0.262653 359:0.168514 360:-0.399932 361:-0.240285 362:0.343789 363:-0.188647 364:-0.806202 365:-0.510516 366:-0.224459 367:0.139992 368:0.115843 369:-0.486423 370:-0.193327 371:-0.109842 372:-0.920957 373:0.0819675 374:-0.0819675 375:0.0819674 376:-0.531993 377:-0.635862 378:-0.433794 379:0.215724 380:-0.342334 381:-0.726008 382:-0.260494 383:0.258641 384:-0.871194 
0.3890365928918207 2.007310977283102 0 2.482732167331611 1.616978822028494 1.065123597724023 1:-0.798601 2:-0.78987 3:-0.797217 4:-0.751958 5:-0.66747 6:-0.486921 7:-0.32967 8:0.123174 9:-0.836386 10:-0.557659 11:-0.789592 12:-0.950192 13:-0.126361 14:0.131793 15:-0.275528 16:-0.505682 17:-0.958495 18:-0.258747 19:0.127146 20:-0.371063 21:-0.689361 22:-0.508497 23:0.0245931 24:-0.392677 25:-0.489336 26:0.441597 27:-0.764757 28:-0.50079 29:-0.960133 30:0.135061 31:0.273325 32:-0.103786 33:-0.702516 34:-0.48548 35:0.0779186 36:-0.659836 37:-0.650652 38:-0.385635 39:-0.293329 40:-0.511592 41:-0.674347 42:-0.424908 43:0.233291 44:-0.543292 45:0.0485767 46:0.197392 47:-0.179222 48:-0.765378 49:-0.324009 50:-0.0497049 51:-0.195236 52:-0.462334 53:-0.508065 54:0.189401 55:-0.0589515 56:-0.0721836 57:-0.396711 58:-0.0959978 59:-0.23616 60:-0.395873 61:0.081257 62:-0.275803 63:0.273783 64:-0.623277 65:-0.394059 66:-0.0847992 67:0.355229 68:-0.483085 69:0.0255577 70:0.295983 71:0.3763 72:-0.565187 73:-0.177768 74:-0.192075 75:0.158339 76:-0.621441 77:-0.936747 78:-0.203843 79:0.424094 80:-0.451209 81:0.243303 82:0.358327 83:-0.0945084 84:-0.678669 85:-0.371522 86:-0.403932 87:0.0722321 88:-0.837766 89:-0.594796 90:-0.293902 91:-0.337184 92:0.03678 93:-0.356508 94:-0.176797 95:-0.243552 96:-0.198154 97:-0.336084 98:0.134445 99:-0.271438 100:-1 101:-0.808 102:-0.249309 103:-0.365047 104:0.175792 105:-0.220324 106:0.0570021 107:0.474477 108:-0.853597 109:-0.17903 110:-0.293613 111:0.17905 112:-0.658094 113:-0.781538 114:-0.485688 115:0.0151849 116:-0.352977 117:0.494615 118:0.504681 119:-0.158382 120:-0.761818 121:-0.647004 122:0.107211 123:-0.522493 124:-0.653295 125:-0.85575 126:-0.428313 127:0.446026 128:-0.627207 129:-0.481775 130:-0.0647872 131:0.202138 132:-0.830229 133:-0.403612 134:-0.225802 135:-0.257115 136:-0.772414 137:-0.973333 138:0.186321 139:0.809139 140:-0.443232 141:-0.245627 142:0.230801 143:-0.524594 144:-0.468593 145:-0.68303 146:-0.42195 147:-0.00447596 148:-0.927461 149:-0.645985 150:-0.627464 151:0.246672 152:-0.592353 153:-0.183776 154:0.00212573 155:-0.229562 156:-0.6201 157:0.256756 158:-0.652174 159:0.241287 160:-0.94003 161:-0.532203 162:-0.212001 163:-0.499186 164:0.284449 165:-0.530481 166:-0.30355 167:0.0424216 168:-0.283988 169:0.703703 170:-0.0388139 171:0.561187 172:-0.717314 173:-0.459559 174:0.0571477 175:-0.369377 176:0.21055 177:0.408323 178:0.598508 179:-0.464042 180:-0.941286 181:0.356479 183:0.356479 184:-0.664122 185:-1 186:-0.247819 187:-0.253499 188:-0.0116111 189:-0.220833 190:0.254931 191:-0.831666 192:-0.97514 193:-0.665543 194:0.783318 195:-0.696796 196:-0.746405 197:-0.612 198:0.159551 199:0.569656 200:-0.495113 201:-0.77564 202:-0.480583 203:0.103631 204:-0.914148 205:-0.732453 206:0.54504 207:-0.706943 208:-0.939759 209:-0.95764 210:-0.0203636 211:0.163296 212:-0.361916 213:-0.732663 214:-0.599843 215:-0.00352801 216:-0.699774 217:-0.380625 218:0.738539 219:-0.59394 220:-0.962675 221:-0.971654 222:0.218649 223:-0.723172 224:0.702411 225:-0.640949 226:-0.441333 227:0.535059 228:-0.798386 229:-0.0963231 230:-0.303388 231:0.240192 232:-0.927215 233:-0.833076 234:-0.551066 235:0.155775 236:-0.180799 237:0.0429361 238:0.227466 239:-0.133145 240:-0.154489 241:-0.351977 242:0.63709 243:-0.51808 244:-0.627365 245:-0.894017 246:-0.340894 247:-0.444025 248:0.222409 249:-0.372941 250:-0.118334 251:0.383729 252:-0.715556 253:0.582033 254:0.310468 255:0.0840414 256:-0.757405 257:-0.767442 258:0.203328 259:-0.321461 260:0.286393 261:-0.251123 262:-0.00299946 263:0.389122 264:-0.138116 265:-0.169233 266:0.394036 267:-0.122515 268:-0.871074 269:-0.891784 270:0.435587 271:-0.557398 272:0.69102 273:-0.0842862 274:0.12238 275:0.388502 276:-0.411104 277:0.385943 278:0.467153 279:0.0747242 280:-0.696237 281:-0.606469 282:-0.38618 283:-0.714456 284:0.428617 285:-0.00141031 286:0.206712 287:0.449708 288:-0.612914 289:-0.334087 290:0.36572 291:-0.295047 292:-0.866295 293:-0.565345 294:-0.345511 295:-0.209207 296:-0.461459 297:-0.162797 298:0.0397682 299:0.301573 300:-0.805643 301:-0.200198 302:0.383333 303:-0.239054 304:-0.831126 305:-0.777038 306:-0.0974405 307:-0.0817617 308:0.0522949 309:-0.295323 310:-0.0601045 311:0.215451 312:-0.552795 313:-0.662871 314:0.441915 315:-0.565727 316:-0.842105 317:-0.931232 318:0.617411 319:-0.104431 320:0.124809 321:-0.492847 322:-0.307479 323:-0.181396 324:-0.646667 325:-0.26941 326:0.211273 327:-0.16691 328:-0.97546 329:-0.643478 330:-0.266082 331:0.155554 332:-0.451893 333:-0.155092 334:0.0738958 335:-0.378699 336:-0.56594 337:-0.658909 338:-0.370209 339:0.0832662 340:-0.749175 341:-0.619772 342:-0.240972 343:0.138328 344:-0.536625 345:-0.211265 346:0.0214521 347:-1 348:0.689775 349:0.188615 350:0.291952 351:-0.175175 352:-0.957704 353:-0.921368 354:-0.179055 355:-0.355888 356:0.454029 357:-0.190803 358:0.0570024 359:-0.0881884 360:-0.446922 361:0.568234 362:-0.0720526 363:0.509012 364:-0.616279 365:-0.674952 366:-0.641657 367:0.167054 368:0.00472083 369:-0.0054067 370:0.274398 371:-0.292242 372:-0.640437 373:0.331833 374:-0.359356 375:0.345594 376:-0.963437 377:-0.751724 378:-0.433794 379:0.013127 380:-0.0198714 381:-0.0961237 382:0.344003 383:0.253793 384:-0.919846 
2.176687456421299 0.07088370706555708 0 2.900508900455171 0.39861660391348 1.480924411162478 1:-0.631476 2:-0.887352 3:-0.62946 4:-0.908616 5:-1 6:-0.588801 7:-0.229955 8:-0.101715 9:-0.75157 10:-0.4625 11:-0.529125 12:-0.835813 13:0.220272 14:0.0291046 15:0.0661585 16:-0.849432 17:-0.699092 18:0.0307783 19:-0.322531 20:0.0356724 21:-0.145784 22:0.0580944 23:-0.18716 24:-0.492571 25:-0.552687 26:-0.0193726 27:-0.39961 28:-0.535545 29:-0.857143 30:-0.125222 31:0.606401 32:-0.428819 33:-0.323681 34:0.0230756 35:-0.0631126 36:-0.830655 37:-0.118209 38:-0.610402 39:0.327126 40:-0.709428 41:-0.849462 42:-0.375358 43:0.501428 44:-0.633086 45:0.235114 46:0.432366 47:0.0748304 48:-0.588915 49:-0.368708 50:0.0607444 51:-0.325632 52:-0.654357 53:-0.830645 54:0.103487 55:0.295817 56:-0.330867 57:-0.555052 58:-0.172531 59:-0.00958831 60:-0.616937 61:0.0791053 62:-0.440459 63:0.406575 64:-0.883614 65:-0.691089 66:0.111308 67:-0.0891893 68:0.0436985 69:0.325839 70:0.468067 71:0.0761087 72:-0.636337 73:-0.507538 74:-0.360143 75:0.0430503 76:-0.963149 77:-0.96988 78:-0.092783 79:0.163514 80:-0.140231 81:0.103426 82:0.168447 83:-0.454432 84:-0.367191 85:0.00597168 86:0.516854 87:-0.412167 88:-0.904255 89:-0.724907 90:0.228494 91:-0.232293 92:0.35231 93:-0.466614 94:-0.299128 95:-0.0416993 96:-0.66494 97:0.180116 98:0.436604 99:-0.183773 100:-0.639136 101:-0.592 102:0.24613 103:-0.0219781 104:0.257989 105:-0.635049 106:-0.475868 107:0.57126 108:-0.361985 109:-0.433008 110:-0.361576 111:0.0489218 112:-0.615734 113:-0.830769 114:-0.120501 115:0.163267 116:-0.151372 117:-0.423628 118:-0.274912 119:-0.75134 120:0.675355 121:-0.755597 122:0.226369 123:-0.715609 124:-0.530086 125:-0.660819 126:-0.255819 127:-0.266781 128:0.0545391 129:-0.540198 130:-0.394977 131:0.0337642 132:-0.717691 133:-0.543926 134:0.121305 135:-0.579 136:-0.636782 137:-0.897143 138:0.0207615 139:0.598421 140:-0.339495 141:-0.57388 142:-0.261257 143:0.0255499 144:-0.54655 145:-0.479489 146:-0.177829 147:0.0108845 148:-0.440415 149:-0.967153 150:-0.45357 151:1 152:-0.944411 153:-0.102225 154:0.247474 155:-0.312301 156:-0.65924 157:0.262162 158:2.6087e-07 159:0.206434 160:-0.634183 161:-0.620339 162:-0.0862442 163:-0.0332746 164:-0.0958646 165:-0.123376 166:0.014132 167:-0.152528 168:-0.594375 169:0.509144 170:-0.131388 171:0.434404 172:-0.787986 173:-0.746324 174:-0.261526 175:-0.505437 176:0.0546266 177:0.00410028 178:0.297508 179:-0.125184 180:-0.787584 181:0.307225 183:0.307225 184:-0.919847 185:-1 186:-0.582663 187:-0.444276 188:-0.152143 189:-0.574089 190:-0.0409842 191:-0.712406 192:-0.950299 193:-0.621504 194:0.74002 195:-0.646522 196:-0.905882 197:-0.836 198:0.195885 199:0.454329 200:-0.458053 201:-0.753727 202:-0.446504 203:0.103137 204:-0.840896 205:-0.0258561 206:-0.0183889 207:0.00260127 208:-0.644578 209:-0.748865 210:0.0949182 211:-0.103345 212:-0.0396802 213:0.147584 214:0.331656 215:0.0550851 216:-0.707767 217:-0.297392 218:0.0162693 219:-0.164637 220:-0.944012 221:-0.987402 222:-0.0254792 223:0.4352 224:-0.384355 225:-0.259756 226:-0.00649389 227:-0.334195 228:-0.825316 229:-0.074586 230:-0.232537 231:0.21064 232:-0.835443 233:-0.715611 234:-0.0979674 235:0.544613 236:-0.450105 237:0.394509 238:0.537418 239:0.0608218 240:-0.525485 241:-0.666973 242:0.908803 243:-0.828679 244:-0.950509 245:-0.982906 246:0.0489201 247:0.0989756 248:-0.208716 249:-0.623687 250:-0.399182 251:0.225178 252:-0.80098 253:0.343759 254:0.199726 255:0.0467473 256:-0.90409 257:-0.706395 258:0.27825 259:0.394746 260:-0.378451 261:0.0606124 262:0.295938 263:0.102216 264:-0.735011 265:-0.0786693 266:-0.779214 267:0.774307 268:-0.943802 269:-0.891784 270:0.263412 271:0.43689 272:-0.436316 273:0.847277 274:0.88776 275:-0.225495 276:-0.350573 277:-0.484347 278:0.516185 279:-0.478588 280:-0.701613 281:-0.80593 282:0.274396 283:-0.267576 284:0.15403 285:-0.525928 286:-0.323331 287:-0.035505 288:-0.625809 289:-0.343736 290:0.263949 291:-0.232014 292:-0.980501 293:-0.947137 294:0.450991 295:-0.335332 296:0.0448275 297:-0.0441998 298:0.147926 299:0.0463149 300:-0.694436 301:-0.605682 302:0.510604 303:-0.526154 304:-0.764901 305:-0.510815 306:0.105941 307:0.184209 308:-0.129197 309:-0.333963 310:-0.0967827 311:-0.147265 312:-0.8391 313:-0.328304 314:0.488978 315:-0.373587 316:-0.718266 317:-0.951289 318:0.286479 319:0.445654 320:-0.485959 321:-0.43894 322:-0.236648 323:0.389572 324:-0.438617 325:-0.622402 326:0.21659 327:-0.349976 328:-0.957055 329:-0.843478 330:0.40501 331:0.269529 332:-0.248065 333:-0.233485 334:-0.00377562 335:-0.482743 336:-0.690819 337:-0.334133 338:0.404139 339:-0.281261 340:-0.79538 341:-0.69962 342:0.154099 343:0.161577 344:-0.329792 345:-0.0694197 346:0.155184 347:0.0296991 348:-0.66173 349:0.286059 350:-0.114727 351:0.113114 352:-0.652568 353:-0.579487 354:-0.226758 355:-0.686277 356:0.741655 357:0.308684 358:0.499506 359:-0.159073 360:-0.551651 361:-0.264877 362:-0.0938928 363:0.0544342 364:-0.96124 365:-0.6826 366:0.27622 367:0.220575 368:0.111578 369:-0.157275 370:0.138789 371:-0.651618 372:-0.786958 373:0.249598 374:-0.308801 375:0.279199 376:-0.937843 377:-0.936552 378:-0.433794 379:0.0786964 380:-0.178953 381:-0.55249 382:-0.0544207 383:0.224251 384:-0.871505 
4.176871880968727 4.39243993202819 1.132243439932225 5.329860045578574 1.516525866776602 1.290293651589418 1:-0.50371 2:-0.791455 3:-0.501784 4:-0.960836 5:-0.848193 6:-0.405908 7:-0.122059 8:0.0932033 9:-0.675316 10:-0.339864 11:-0.51983 12:-0.821004 13:0.242422 14:-0.402657 15:0.43416 16:-0.366477 17:-0.948119 18:-0.145034 19:-0.015955 20:-0.305916 21:0.125083 22:0.34533 23:-0.356309 24:-0.586317 25:-0.26878 26:0.281614 27:-0.474163 28:-0.406003 29:-0.431894 30:0.3101 31:0.0770287 32:0.117258 33:-0.688333 34:-0.497212 35:0.0309396 36:-0.429052 37:0.148127 38:-0.267883 39:0.274795 40:-0.50541 41:-0.892473 42:-0.11083 43:0.0888875 44:-0.200318 45:0.000271933 46:0.13601 47:0.112571 48:-0.520032 49:-0.255036 50:-0.206369 51:-0.006939 52:-1 53:-0.294355 54:0.158296 55:-0.305696 56:0.104408 57:-0.328175 58:-0.0434767 59:-0.588693 60:-0.00876177 61:-0.568468 62:-0.374148 63:-0.130387 64:-0.225115 65:-0.477228 66:-0.00308453 67:-0.398987 68:0.270389 69:-0.540706 70:-0.27969 71:-0.148398 72:-0.42635 73:0.00697209 74:-0.160836 75:0.283814 76:-0.145729 77:-0.295181 78:-0.0906337 79:-0.0815952 80:0.0519301 81:-0.0581977 82:0.0297787 83:-0.517757 84:-0.106612 85:-0.0733916 86:0.0671873 87:-0.101971 88:-0.957447 89:-0.275093 90:0.217184 91:-0.0971214 92:0.205167 93:-0.598364 94:-0.427069 95:-0.295413 96:-0.254295 97:-0.0120094 98:-0.146262 99:0.220961 100:-0.997459 101:-0.244 102:-0.184587 103:-0.113049 104:0.0509903 105:0.127236 106:0.31504 107:0.353485 108:-0.770675 109:0.421552 110:-0.519907 111:0.847948 112:-0.207262 113:-0.4 114:-0.0629235 115:0.122299 116:-0.110594 117:0.447905 118:0.473047 119:-0.446772 120:-0.108525 121:-0.374359 122:0.086791 123:-0.272968 124:-0.492837 125:-0.231969 126:-0.290243 127:-0.282744 128:0.098386 129:-0.574897 130:-0.423015 131:-0.184626 132:-0.361752 133:-0.621849 134:-0.130481 135:-0.463829 136:-0.308046 137:-0.965714 138:0.00805292 139:0.237573 140:-0.196737 141:-0.473392 142:-0.230791 143:-0.423803 144:-0.381484 145:-0.44537 146:-0.0390387 147:-0.0540669 148:-0.364421 149:-0.883212 150:-0.405163 151:0.316245 152:-0.50278 153:-0.348249 154:-0.143731 155:-0.186708 156:-0.600561 157:0.359459 158:-0.478261 159:0.332439 160:-0.844078 161:0.00677966 162:-0.0942828 163:-0.311357 164:0.220755 165:-0.0972508 166:0.0402387 167:-0.35947 168:-0.733443 169:0.963733 170:-0.715061 171:0.965746 172:-0.275618 173:-0.996324 174:-0.13362 175:0.144127 176:-0.331746 177:0.29162 178:0.525062 179:-0.226568 180:-0.843776 181:0.198261 183:0.198261 184:-0.229008 185:-1 186:-0.467302 187:0.149482 188:-0.456431 189:-0.50873 190:-0.00712922 191:-0.792762 192:-0.968492 193:-0.454762 194:0.431809 195:-0.384807 196:-0.884967 197:-0.828 198:0.025775 199:0.83054 200:-0.697778 201:-0.570076 202:-0.203419 203:-0.0385208 204:-0.881701 205:0.0199374 206:0.23049 207:-0.101322 208:-0.85241 209:-0.951589 210:0.427285 211:0.0260792 212:0.0417293 213:-0.0108681 214:0.189057 215:0.243755 216:-0.783769 217:-0.21693 218:0.226878 219:-0.226754 220:-0.723173 221:-0.0614173 222:-0.435506 223:-0.438068 224:0.231711 225:-0.488303 226:-0.25769 227:0.215302 228:-0.825643 229:0.299638 230:-0.497045 231:0.596343 232:-1 233:-0.795981 234:-0.0334715 235:0.0143846 236:0.176584 237:0.478254 238:0.602305 239:-0.128753 240:-0.552195 241:-0.353557 242:0.250639 243:-0.3 244:-0.44687 245:-1 246:-0.155838 247:-0.388546 248:-0.00489485 249:-0.454331 250:-0.203965 251:-0.225883 252:-0.612448 253:0.210137 254:0.0986063 255:0.0518332 256:-0.619182 257:-0.622093 258:0.360031 259:-0.522485 260:0.541999 261:-0.215739 262:0.0310517 263:-0.243083 264:-0.574809 265:-0.240253 266:-0.10962 267:0.187417 268:-0.279339 269:-0.0501002 270:0.418731 271:-0.560633 272:0.688164 273:0.374883 274:0.517657 275:-0.0605613 276:-0.661183 277:-0.555709 278:0.757234 279:-0.673291 280:-1 281:-0.469003 282:-0.00841199 283:-0.819938 284:0.647989 285:-0.700261 286:-0.546087 287:0.0980541 288:-0.76722 289:0.53772 290:0.272387 291:0.279495 292:-0.479109 293:-0.418502 294:0.0848919 295:-0.437403 296:-0.329757 297:-0.219292 298:-0.016781 299:0.237813 300:-0.102112 301:-0.159496 302:0.38218 303:-0.217104 304:-0.195364 305:-0.657238 306:-0.104097 307:-0.131345 308:-0.0242641 309:-0.431907 310:-0.204792 311:-0.184335 312:-0.424565 313:-0.216607 314:0.154776 315:-0.109011 316:-0.47678 317:-0.704871 318:0.126509 319:-0.330724 320:0.215388 321:-0.445067 322:-0.255365 323:-0.114163 324:-0.414892 325:0.0689464 326:0.0323079 327:0.110913 328:-0.794479 329:-0.973913 330:0.0396763 331:-0.2684 332:-0.0918661 333:-0.291492 334:-0.0677705 335:0.0451978 336:-0.073665 337:-0.0828733 338:0.143485 339:0.0795584 340:-0.877888 341:-0.684411 342:-0.018796 343:-0.43403 344:0.151941 345:-0.100299 346:0.118811 347:0.250629 348:-0.30165 349:0.366136 350:-0.241439 351:0.228729 352:-0.861027 353:-0.818803 354:-0.227372 355:-0.38996 356:0.541504 357:0.346366 358:0.526859 359:-0.124725 360:-0.646516 361:0.208216 362:-0.224035 363:0.396232 364:-0.24031 365:-0.774379 366:0.119802 367:0.285476 368:0.254549 369:-0.0663493 370:0.222245 371:-0.232909 372:-0.712913 373:0.160805 374:-0.112818 375:0.136811 376:-0.265082 377:-0.456552 378:-0.433794 379:0.230541 380:-0.279134 381:-0.637038 382:-0.14872 383:0.329627 384:-0.883816 
0.2595060521538907 0 0.5959175390085657 2.417240213636008 0 0.3960550270153326 1:-0.259445 2:-0.6539 3:-0.257536 4:-0.681462 5:-0.995181 6:0.0571794 7:0.253645 8:-0.126413 9:-0.22873 10:0.126195 11:-0.608207 12:-0.878495 13:-0.039544 14:-0.404342 15:0.225595 16:-0.730114 17:-0.670558 18:-0.269272 19:-0.169401 20:-0.23004 21:-0.0793651 22:0.124655 23:-0.56825 24:-0.376643 25:-0.325325 26:0.205113 27:-0.444663 28:-0.968404 29:-0.787375 30:0.351298 31:-0.289851 32:0.406158 33:-0.652944 34:-0.39348 35:-0.253121 36:-0.186692 37:-0.161521 38:-0.179276 39:-0.0524677 40:-0.965997 41:-0.551459 42:-0.233012 43:-0.607959 44:0.305597 45:-0.255535 46:0.024092 47:0.142428 48:-0.60252 49:-0.157938 50:0.422688 51:-0.538873 52:-0.819793 53:-0.681452 54:0.151085 55:-0.255387 56:0.04305 57:-0.549019 58:-0.289892 59:0.349785 60:-0.855401 61:-0.199424 62:-0.120193 63:-0.0625104 64:-0.402757 65:-0.263366 66:-0.0689238 67:0.126066 68:-0.310317 69:-0.286499 70:-0.0472778 71:0.478597 72:-0.546755 73:-0.436322 74:-0.116875 75:-0.132371 76:-0.360134 77:-0.701807 78:-0.149235 79:-0.156184 80:0.0467876 81:0.00944589 82:0.0903281 83:-0.438782 84:-0.489561 85:-0.114316 86:-0.238459 87:0.118007 88:-0.590426 89:-0.828996 90:-0.291371 91:0.2385 92:-0.360327 93:0.061707 94:0.299878 95:-0.271784 96:-0.627942 97:-0.572469 98:0.200249 99:-0.501414 100:-0.768742 101:-0.96 102:-0.462673 103:-0.0170481 104:-0.330112 105:-0.490146 106:-0.305272 107:0.5667 108:-0.808974 109:-0.518679 110:-0.622198 111:0.226865 112:-0.966717 113:-0.710769 114:-0.458899 115:-0.0509985 116:-0.279414 117:0.0208842 118:0.143247 119:-0.348402 120:-0.347146 121:-0.555289 122:-0.0974588 123:-0.271562 124:-0.415473 125:-0.812865 126:-0.363616 127:0.0189272 128:-0.250797 129:-0.251539 130:-0.0482732 131:0.147221 132:-0.620896 133:-0.523331 134:-0.523398 135:-0.139175 136:-0.54023 137:-0.459048 138:0.0161322 139:-0.311195 140:0.357282 141:-0.135495 142:0.155583 143:-0.480039 144:-0.391329 145:-0.718292 146:-0.602729 147:0.0884141 148:-0.288428 149:-0.722628 150:-0.693695 151:0.209658 152:-0.622868 153:-0.0709849 154:0.103741 155:-0.32498 156:-0.66053 157:0.416216 158:-0.73913 159:0.404826 160:-0.49925 161:-0.60678 162:0.00695973 163:-0.226051 164:0.116961 165:0.35423 166:0.345054 167:-0.293242 168:-0.72679 169:0.534585 170:0.537673 171:0.257902 172:-0.823322 173:-0.977941 174:-0.111889 175:-0.253015 176:0.0353872 177:0.0133396 178:0.278359 179:-0.331448 180:-0.914738 181:0.389826 183:0.389826 184:-0.805344 185:-1 186:-0.366348 187:-0.15147 188:-0.145729 189:-0.302642 190:0.179735 191:-0.791075 192:-0.968228 193:-0.284179 194:0.308897 195:-0.212234 196:-0.584314 197:-0.772 198:0.227705 199:0.351512 200:-0.155466 201:-0.233478 202:0.142144 203:0.0502372 204:-0.859536 205:0.327251 206:0.310535 207:0.0365124 208:-0.608434 209:-0.512859 210:-0.0952935 211:0.21292 212:-0.448908 213:0.0069704 214:0.204471 215:0.487022 216:-0.306435 217:-0.273803 218:0.403541 219:-0.353746 220:-0.520995 221:-0.464567 222:-0.238858 223:-0.48848 224:0.359375 225:-0.771903 226:-0.619524 227:-0.00212128 228:-0.553053 229:-0.54625 230:0.360543 231:-0.431996 232:-0.901899 233:-0.511592 234:-0.294451 235:0.0988836 236:-0.047763 237:0.0135822 238:0.200252 239:-0.207471 240:-0.839556 241:0.0892273 242:0.836261 243:-0.411378 244:-0.845706 245:-0.425641 246:0.208 247:-0.461578 248:0.360751 249:-0.561218 250:-0.330832 251:0.953223 252:-0.140376 253:0.832835 254:-0.31876 255:0.620278 256:-0.461213 257:-0.991279 258:0.705156 259:-0.177969 260:0.214225 261:-0.0201185 262:0.21714 263:0.226133 264:-0.00333024 265:-0.52956 266:-0.514627 267:0.278056 268:-0.494215 269:-0.715431 270:-0.0224377 271:-0.256645 272:0.161399 273:0.10224 274:0.293316 275:-0.464709 276:0.0448746 277:-0.297307 278:0.041177 279:-0.0670485 280:-0.774194 281:-0.638814 282:-0.402133 283:-0.349909 284:-0.0633073 285:-0.00185499 286:0.212603 287:-0.170424 288:-0.786014 289:-0.476937 290:0.443725 291:-0.431516 292:-0.966574 293:-0.597651 294:-0.260101 295:-0.786673 296:0.363385 297:-0.362837 298:-0.177903 299:0.00336688 300:-0.466451 301:-0.270854 302:-0.452503 303:0.218006 304:-0.827815 305:-0.687188 306:-0.282977 307:-0.162251 308:0.0933719 309:-0.0514637 310:0.176405 311:-0.821616 312:0.677972 313:-0.573037 314:0.205487 315:-0.371474 316:-0.566563 317:-0.730659 318:0.0358419 319:0.220423 320:-0.490475 321:-0.406055 322:-0.202372 323:-0.207457 324:-0.747678 325:-0.243503 326:-0.170617 327:0.0710918 328:-0.441718 329:-0.57971 330:0.38385 331:0.127868 332:-0.292037 333:0.176967 334:0.376294 335:-0.530604 336:-0.450315 337:0.199654 338:0.251789 339:0.185147 340:-0.732673 341:-0.642586 342:0.57907 343:-0.0220718 344:-0.183493 345:0.107652 346:0.314437 347:-0.0792615 348:-0.353377 349:0.664255 350:-0.265411 351:0.397398 352:-0.513595 353:-0.425641 354:-0.166664 355:-0.494007 356:0.634549 357:0.823905 358:0.881233 359:-0.102094 360:-0.54225 361:-0.113444 362:0.223443 363:-0.0468552 364:-0.48062 365:-0.678776 366:-0.187183 367:0.117232 368:0.212919 369:-0.224888 370:0.0779738 371:-0.13838 372:-0.859922 373:0.145634 374:-0.211239 375:0.178437 376:-0.711152 377:-0.754483 378:-0.433794 379:0.0885847 380:-0.115514 381:-0.437328 382:0.0604224 383:0.25112 384:-0.905965 
2.084721085970035 0.9633265852149914 0.2877671424321026 3.295708821714584 2.329339389999539 2.900316067467966 1:-0.595596 2:-0.77907 3:-0.593879 4:-0.791123 5:-0.995181 6:-0.0468164 7:-0.0225653 8:0.12683 9:-0.624396 10:-0.303534 11:-0.822601 12:-0.951273 13:-0.133671 14:-0.0786699 15:-0.109627 16:-0.661932 17:-0.776913 18:-0.345587 19:-0.0135344 20:-0.383648 21:-0.172395 22:0.0554862 23:-0.246455 24:-0.727633 25:0.181299 26:0.284141 27:-0.172317 28:-0.889415 29:-0.292359 30:0.231466 31:-0.199533 32:0.289468 33:-0.657432 34:-0.418324 35:-0.188717 36:0.168366 37:-0.464713 38:-0.0221754 39:-0.428984 40:-0.956723 41:-0.364055 42:-0.311094 43:-0.589429 44:0.282545 45:-0.481503 46:-0.172412 47:0.0587582 48:-0.808148 49:-0.168783 50:0.308261 51:-0.438028 52:-0.296898 53:-0.770161 54:0.0417319 55:-0.202768 56:-0.0860075 57:-0.561727 58:-0.301995 59:0.761877 60:-0.695369 61:-0.536226 62:-0.676492 63:0.140434 64:-0.274119 65:-0.124752 66:-0.38047 67:-0.00320986 68:-0.53198 69:-0.106183 70:0.107553 71:-0.120216 72:-0.40085 73:-0.865463 74:0.0639714 75:-0.669113 76:-0.9933 77:-0.60241 78:-0.386285 79:0.113226 80:-0.374676 81:-0.527913 82:-0.383785 83:-0.489262 84:-0.589337 85:-0.306292 86:0.121785 87:-0.309754 88:-0.5 89:-0.802974 90:-0.307026 91:0.46166 92:-0.60218 93:-0.448815 94:0.0322417 95:0.0856498 96:-0.821386 97:-0.827164 98:-0.363763 99:-0.158887 100:-0.949174 101:-0.512 102:-0.711025 103:-0.255863 104:-0.256713 105:-0.469139 106:-0.217966 107:0.462541 108:-0.627183 109:-0.727409 110:-0.618176 111:0.0640382 112:-0.555219 113:-0.818462 114:-0.666595 115:0.387793 116:-0.813844 117:0.357316 118:0.466188 119:-0.195497 120:-0.772948 121:-0.727062 122:0.0513236 123:-0.543516 124:-0.659026 125:-0.208577 126:-0.578801 127:-0.0724559 128:-0.344694 129:-0.220473 130:-0.0340619 131:0.160173 132:-0.862567 133:-0.135405 134:-0.179329 135:-0.111252 136:-0.875862 137:-0.481905 138:-0.132637 139:-0.243405 140:0.219681 141:-0.310824 142:-0.0110237 143:0.296282 144:-0.237919 145:-0.724717 146:-0.102939 147:-0.262225 148:-0.606218 149:-0.967153 150:-0.588622 151:0.295792 152:-0.613991 153:-0.233006 154:-0.0396378 155:-0.178836 156:-0.879831 157:0.218919 158:-0.565217 159:0.198391 160:-0.868066 161:-0.491525 162:0.0242279 163:-0.260254 164:0.171536 165:0.205449 166:0.247947 167:-0.298276 168:-0.729209 169:0.648451 170:0.870079 171:0.250331 172:-0.607774 173:-0.272059 174:0.335206 175:-0.392692 176:0.446065 177:0.237649 178:0.487731 179:-0.564542 180:-0.960771 181:0.472222 183:0.472222 184:-0.774809 185:-1 186:-0.06235 187:-0.392208 188:0.25665 189:-0.124069 190:0.363867 191:-0.871701 192:-0.979411 193:-0.782136 194:0.492269 195:-0.629222 196:-0.788235 197:-0.68 198:0.27036 199:0.555406 200:-0.338338 201:-0.652438 202:-0.304118 203:-0.240734 204:-0.928897 205:-0.0998982 206:-0.112695 207:0.00879725 208:-0.506024 209:-0.903177 210:0.0653928 211:0.182035 212:-0.369571 213:-0.490855 214:-0.302638 215:-0.173335 216:0.147183 217:-0.481349 218:0.568405 219:-0.565273 220:-0.40902 221:-0.351181 222:-0.411525 223:-0.392271 224:0.200001 225:-0.643525 226:-0.445207 227:0.107573 228:-0.824804 229:-0.721191 230:-0.000568372 231:-0.320168 232:-0.306962 233:-0.703246 234:-0.244433 235:0.268956 236:-0.289118 237:-0.44442 238:-0.261502 239:-0.511034 240:-0.30012 241:-0.335965 242:0.479658 243:-0.420953 244:-0.912664 245:-0.186325 246:-0.101 247:-0.498287 248:0.302643 249:-0.578336 250:-0.351688 251:0.722938 252:-0.410038 253:0.780641 254:-0.540591 255:0.743767 256:-0.365303 257:-0.994186 258:-0.0841636 259:-0.170049 260:-0.0777882 261:-0.0586972 262:0.183242 263:-0.18834 264:0.0651785 265:-0.3577 266:0.150424 267:-0.0778623 268:-0.441322 269:-0.61523 270:-0.167486 271:-0.340108 272:0.192331 273:-0.198155 274:0.0158782 275:-0.151072 276:-0.232489 277:-0.446337 278:0.479622 279:-0.432736 280:-0.518817 281:-0.74124 282:-0.231155 283:-0.507267 284:0.121851 285:-0.684082 286:-0.519304 287:0.0391158 288:-0.490794 289:-0.268177 290:0.34669 291:-0.243528 292:-0.791086 293:-0.715125 294:0.019367 295:-0.35897 296:-0.287432 297:-0.197697 298:0.00323658 299:0.0835662 300:-0.606611 301:-0.302826 302:0.559136 303:-0.396582 304:-0.417219 305:-0.603993 306:-0.313559 307:-0.0568054 308:-0.106165 309:-0.34207 310:-0.107493 311:0.176458 312:-0.643768 313:-0.531654 314:0.181802 315:-0.330806 316:-0.510836 317:-0.498567 318:-0.23432 319:-0.10191 320:-0.204606 321:-0.271235 322:-0.066716 323:0.0612635 324:-0.791969 325:-0.159193 326:0.0774028 327:-0.0319251 328:-0.579755 329:-0.657971 330:0.217949 331:-0.0991721 332:-0.149197 333:-0.0763623 334:0.145536 335:-0.376568 336:-0.504492 337:-0.752075 338:0.209125 339:-0.411438 340:-0.735974 341:-0.634981 342:0.292763 343:-0.130269 344:-0.19183 345:-0.350923 346:-0.126533 347:-0.523492 348:-0.49844 349:0.221418 350:-0.0513701 351:0.0425429 352:-0.900302 353:-0.302564 354:-0.0836625 355:-0.383023 356:0.555073 357:0.302405 358:0.491371 359:-0.262214 360:-0.520634 361:0.0869016 362:0.0185611 363:0.185791 364:-0.306202 365:-0.502868 366:0.0379374 367:0.179763 368:0.26461 369:-0.0742705 370:0.215666 371:-0.358748 372:-0.79081 373:0.347702 374:-0.416111 375:0.381907 376:-0.73309 377:-0.812414 378:-0.433794 379:0.0632419 380:-0.0106078 381:-0.178702 382:0.281306 383:0.241157 384:-0.915664 
0.8505242364094449 6.133068820439212 0.6732174994596991 7.528595364614693 0.04341276155771501 1.264005317007016 1:-0.146499 2:-0.726616 3:-0.144139 4:-0.872063 5:-0.761446 6:0.0783836 7:0.206931 8:-0.0752302 9:-0.117897 10:0.222738 11:-0.456936 12:-0.800781 13:0.0749045 14:-0.339213 15:0.257785 16:-0.548295 17:-0.51751 18:-0.152891 19:-0.198147 20:-0.145766 21:0.0232668 22:0.219477 23:-0.447108 24:-0.504664 25:-0.509983 26:0.691651 27:-1 28:-0.763033 29:-1 30:0.240847 31:0.00262999 32:0.139498 33:-0.925758 34:-0.859639 35:0.249208 36:-0.802982 37:-0.179086 38:-0.223759 39:-0.0315636 40:-0.913447 41:-0.606759 42:0.0738488 43:0.0974299 44:0.0151004 45:-0.0155705 46:0.110036 47:-0.373889 48:-0.521812 49:-0.308168 50:-0.189956 51:-0.0541741 52:-0.77548 53:-0.487903 54:0.126065 55:-0.41331 56:0.16023 57:-0.574197 58:-0.301995 59:-0.526995 60:0.364032 61:-0.536803 62:-0.363492 63:-0.115476 64:-0.295559 65:-0.849505 66:-0.279595 67:-0.279698 68:-0.187623 69:-0.295781 70:-0.0760299 71:0.173602 72:-0.664855 73:-0.633964 74:-0.190147 75:-0.22804 76:-0.557789 77:-0.551205 78:-0.411702 79:-0.119838 80:-0.175897 81:-0.0434547 82:0.0441573 83:-0.272795 84:-0.648044 85:-0.220738 86:0.384104 87:-0.463176 88:-0.960106 89:-0.680297 90:0.157396 91:-0.359254 92:0.400733 93:-0.698028 94:-0.555589 95:-0.0676907 96:-0.415173 97:-0.305483 98:0.0775518 99:-0.19669 100:-1 101:-0.18 102:-0.290333 103:-0.287358 104:0.115552 105:-0.179148 106:0.084567 107:0.348864 108:-0.848108 109:-0.310524 110:-0.320735 111:0.104151 112:-0.694402 113:-0.741538 114:-0.264691 115:-0.308435 116:0.102029 117:0.241726 118:0.397209 119:-0.275291 120:-0.649896 121:-0.487902 122:-0.627088 123:0.232988 124:-0.988539 125:-0.680312 126:-0.315673 127:-0.377291 128:0.13596 129:-0.257536 130:-0.0529503 131:-0.555824 132:0.372637 133:-0.289792 134:0.157829 135:-0.435825 136:-0.549425 137:-0.824762 138:0.085858 139:0.102545 140:0.0520779 141:-0.544555 142:-0.346913 143:0.0809421 144:-0.431175 145:-0.629016 146:0.31705 147:-0.465586 148:-1 149:-0.562044 150:-0.323331 151:-0.162085 152:0.0700132 153:-0.734613 154:-0.501759 155:-0.101313 156:-0.677964 157:0.0432431 158:-0.73913 159:0.0348524 160:-0.943028 161:-0.735593 162:-0.0889806 163:-0.426127 164:0.310515 165:-0.103172 166:0.0531048 167:-0.390007 168:-0.772968 169:0.771427 170:0.341885 171:0.502902 172:-0.632509 173:-0.371324 174:-0.0376339 175:0.333922 176:-0.353515 177:0.0725673 178:0.384537 179:-0.357548 180:-0.915957 181:0.513963 183:0.513963 184:-0.59542 185:-1 186:-0.343453 187:0.403817 188:-0.536121 189:-0.49477 190:0.045491 191:-0.826488 192:-0.970644 193:-0.276453 194:-0.0757028 195:-0.0169258 196:-0.869281 197:-0.804 198:0.176135 199:0.46995 200:-0.238686 201:-0.219471 202:0.154346 203:-0.287235 204:-0.728398 205:-0.45153 206:0.060695 207:-0.288099 208:-0.493976 209:-0.842663 210:-0.528331 211:0.0984382 212:-0.382734 213:-0.0423969 214:0.158785 215:-0.135282 216:-0.932575 217:-0.64158 218:0.688619 219:-0.724868 220:-0.542768 221:-0.807874 222:0.335568 223:-0.807485 224:0.872751 225:-0.802504 226:-0.662011 227:0.225274 228:-0.860532 229:0.907029 230:0.122706 231:0.590159 232:-0.927215 233:-0.962906 234:-0.0802118 235:0.0762151 236:0.0374094 237:0.166631 238:0.338697 239:0.399215 240:0.0673096 241:-0.223311 242:0.350336 243:-0.291664 244:-0.609898 245:-0.558974 246:-0.0919819 247:-0.288511 248:0.00750955 249:-0.483896 250:-0.237195 251:0.115754 252:-0.345575 253:1 254:0.183397 255:0.363588 256:-0.396333 257:-0.898256 258:0.642381 259:-0.0667869 260:-0.0151849 261:0.025032 262:0.26004 263:0.1331 264:-0.398949 265:-0.127607 266:-0.409102 267:0.477485 268:-0.6 269:-0.202405 270:0.527978 271:-0.169169 272:0.11934 273:0.266305 274:0.435033 275:-0.409624 276:-0.22921 277:-0.506181 278:0.556955 279:-0.517381 280:-0.639785 281:-0.908356 282:0.0473132 283:-0.582459 284:0.321038 285:-0.437519 286:-0.227513 287:0.150322 288:-0.873828 289:-0.272877 290:0.400296 291:-0.282469 292:-0.389972 293:-0.929515 294:-0.123084 295:-0.268959 296:-0.447233 297:-0.186787 298:0.0174506 299:0.155214 300:-0.678459 301:0.139584 302:-0.0687885 303:0.205701 304:-0.264901 305:-0.657238 306:-0.127976 307:0.18626 308:-0.401147 309:0.273479 310:0.466049 311:0.0194291 312:-0.306827 313:-0.339969 314:-0.690569 315:0.294411 316:-0.315789 317:-0.756447 318:0.211045 319:-0.0675221 320:-0.109874 321:-0.0147458 322:0.184011 323:-0.469798 324:-0.0442555 325:-0.344559 326:0.192231 327:-0.194007 328:-0.521472 329:-0.431884 330:0.313157 331:-0.395108 332:0.300207 333:-0.249658 334:-0.028628 335:-0.202949 336:-0.497005 337:-0.484794 338:0.607853 339:-0.533073 340:-0.405941 341:-0.494297 342:-0.423054 343:-0.154993 344:-0.295305 345:-0.382387 346:-0.161337 347:0.519178 348:-0.618747 349:0.0844182 350:0.0804789 351:-0.105605 352:-0.960725 353:-0.921368 354:-0.189267 355:-0.510655 356:0.674439 357:0.125027 358:0.346325 359:-0.189204 360:-0.739549 361:0.598697 362:-0.265255 363:0.639494 364:-0.620155 365:-0.147228 366:-0.606067 367:0.334004 368:-0.13881 369:0.479015 370:0.649927 371:-0.194141 372:-0.840544 373:0.481953 374:-0.506669 375:0.494311 376:-0.6234 377:-0.702069 378:-0.433794 379:0.124312 380:-0.139941 381:-0.276706 382:0.201931 383:0.228684 384:-0.917303 
2.220211586752467 6.520114225299296 2.444559320608539 6.568327793412927 1.117463216882144 4.880152769739374 1:0.312201 2:-0.614267 3:0.315019 4:-0.558747 5:-1 6:0.272128 7:0.9514 8:-0.830216 9:0.541116 10:0.871082 11:-0.40487 12:-0.77523 13:-0.0664591 14:-0.301026 15:0.121443 16:-0.440341 17:-0.548638 18:-0.0987652 19:-0.384125 20:-0.00198207 21:-0.151659 22:0.055839 23:-0.668628 24:0.22028 25:-0.28733 26:0.20589 27:-0.419682 28:-0.766193 29:-0.491694 30:0.356542 31:-0.425575 32:0.524818 33:-0.550833 34:-0.196989 35:-0.291739 36:-0.568152 37:-0.554883 38:0.163724 39:-0.651916 40:-0.650696 41:-0.529954 42:-0.0792629 43:-0.304869 44:0.224001 45:-0.642678 46:-0.573024 47:-0.454407 48:-0.601228 49:-0.279759 50:0.463592 51:-0.650244 52:-0.604136 53:-0.754032 54:0.407635 55:-0.508459 56:0.445165 57:-0.258028 58:0.0622914 59:0.075793 60:-0.951591 61:-0.439721 62:-0.11852 63:-0.243046 64:-0.92343 65:-0.576238 66:0.307184 67:-0.385905 68:0.476525 69:-0.127514 70:0.10591 71:-0.271058 72:-0.637394 73:-0.384166 74:-0.212049 75:0.00370404 76:-0.60134 77:-0.713855 78:0.312118 79:-0.191608 80:0.439947 81:0.200024 82:0.245203 83:-0.992461 84:-0.19879 85:0.471631 86:0.212668 87:0.16195 88:-0.414894 89:-0.475836 90:0.565319 91:-0.538284 92:0.835008 93:-0.00116903 94:0.205485 95:-0.326366 96:-0.607442 97:0.0939168 98:-0.273002 99:0.414437 100:-0.532402 101:-0.616 102:0.429048 103:-0.295821 104:0.711504 105:0.254633 106:0.464336 107:-0.359389 108:-0.373399 109:-0.394438 110:0.0932208 111:-0.346134 112:-0.431165 113:-0.676923 114:0.00582067 115:-0.0931553 116:0.138046 117:-0.17992 118:-0.0234859 119:-0.337723 120:-0.700757 121:-0.622303 122:0.151717 123:-0.539022 124:-0.358166 125:-0.477583 126:0.023811 127:-0.438272 128:0.433248 129:-0.330486 130:-0.107643 131:-0.251573 132:-0.709156 133:-0.349017 134:0.174041 135:-0.485538 136:-0.602299 137:-0.550476 138:0.405 139:0.0252217 140:0.38815 141:-0.472858 142:-0.264356 143:-0.388151 144:-0.520521 145:-0.826478 146:-0.25056 147:-0.252261 148:-0.837651 149:-0.50365 150:-0.411504 151:-0.302485 152:0.111819 153:-0.263133 154:0.0645589 155:-0.569479 156:-0.657325 157:0.218919 158:-0.913043 159:0.219839 160:-0.484258 161:-0.881356 162:-0.533518 163:0.244943 164:-0.679547 165:-0.314371 166:-0.0266773 167:0.0575522 168:-0.407148 169:0.64222 170:0.656822 171:0.308076 172:-0.487633 173:-0.823529 174:-0.207378 175:0.207692 176:-0.358188 177:-0.101172 178:0.202716 179:-0.0416268 180:-0.701534 181:0.878263 183:0.878263 184:-0.675573 185:-1 186:-0.52271 187:0.160897 188:-0.465268 189:-0.380426 190:0.109596 191:-0.68816 192:-0.938032 193:-0.24455 194:-0.069422 195:0.000871695 196:-0.576471 197:-0.312 198:0.245253 199:0.35855 200:-0.0906856 201:-0.3365 202:0.0466534 203:-0.303953 204:-0.645987 205:-0.445815 206:-0.00157093 207:-0.252048 208:-0.445783 209:-0.503782 210:0.0408937 211:0.209281 212:-0.415419 213:-0.637551 214:-0.477389 215:-0.177534 216:0.181177 217:-0.177403 218:0.0182977 219:-0.0934505 220:-0.387247 221:-0.332283 222:-0.0495634 223:-0.273741 224:0.15107 225:-0.428536 226:-0.189918 227:-0.127138 228:-0.517639 229:-0.433917 230:0.19995 231:-0.267287 232:-0.598101 233:-0.632148 234:0.157997 235:0.223011 236:-0.106991 237:-0.541188 238:-0.372828 239:-0.178138 240:-0.313817 241:-0.387184 242:0.239027 243:-0.310154 244:-0.63901 245:-0.538462 246:0.0554125 247:-0.315891 248:0.0957985 249:-0.48053 250:-0.234133 251:0.0488435 252:-0.383311 253:0.970295 254:-0.368901 255:0.717778 256:-0.686883 257:-0.656977 258:0.15929 259:-0.404132 260:0.346964 261:-0.113001 262:0.129882 263:-0.730797 264:0.380113 265:-0.259211 266:-0.169812 267:0.217307 268:-0.666116 269:-0.523046 270:0.559947 271:-0.233015 272:0.238105 273:0.0667104 274:0.263249 275:-0.0788438 276:-0.150478 277:-0.535162 278:0.326429 279:-0.389542 280:-0.712366 281:-0.746631 282:0.245008 283:-0.4869 284:0.245047 285:-0.40895 286:-0.193982 287:-0.0974909 288:-0.680654 289:0.390226 290:0.0291249 291:0.357149 292:-0.610028 293:-0.585903 294:0.228612 295:-0.458468 296:-0.0216218 297:-0.012379 298:0.177919 299:0.0215054 300:0.496165 301:-0.669127 302:0.781107 303:-0.719175 304:-0.639073 305:-0.374376 306:0.300336 307:-0.0797837 308:0.109814 309:-0.680017 310:-0.502664 311:0.0409953 312:-0.726758 313:-0.536867 314:0.219618 315:-0.355881 316:-0.678019 317:-0.60745 318:0.44599 319:-0.130225 320:0.0590561 321:-0.701807 322:-0.560999 323:-0.220141 324:-0.253671 325:-0.0889245 326:-0.421853 327:0.297775 328:-0.634969 329:-0.649275 330:0.25333 331:-0.353622 332:0.235511 333:-0.121611 334:0.0978507 335:-0.573963 336:0.517483 337:-0.303956 338:0.128211 339:-0.055015 340:-0.722772 341:-0.285171 342:0.116884 343:-0.0908236 344:-0.248791 345:-0.347178 346:-0.122233 347:-0.30684 348:0.00352949 349:0.203087 350:0.911815 351:-0.530029 352:-0.501511 353:-0.552137 354:-0.217816 355:-0.439716 356:0.558651 357:-0.773549 358:-0.619258 359:0.95405 360:1 361:0.517956 362:0.0487893 363:0.409882 364:-0.635659 365:-0.441683 366:0.742982 367:0.732282 368:-0.350327 369:-0.135751 370:0.157792 371:-0.197377 372:-0.60799 373:0.889324 374:-0.779575 375:0.83445 376:-0.696527 377:-0.757241 378:0.102722 379:0.400434 380:-0.50166 381:-0.221051 382:0.246682 383:0.289838 384:-0.865747 
0.9148184274143611 0 0 0 0.6448839826735824 2.270995834491429 1:-0.838394 2:-0.828103 3:-0.836955 4:-0.968668 5:-0.578313 6:-0.62962 7:-0.244504 8:-0.0990704 9:-0.899094 10:-0.714924 11:-0.66046 12:-0.887264 13:0.313778 14:0.437063 15:-0.196352 16:-0.559659 17:-0.738003 18:0.37215 19:0.0956884 20:0.061686 21:-0.520011 22:-0.314261 23:-0.0450563 24:-0.587651 25:0.21682 26:-0.0236445 27:0.124065 28:-0.478673 29:-0.960133 30:0.252049 31:0.98356 32:-0.407684 33:0.144147 34:0.599387 35:0.141562 36:-0.921331 37:-0.288076 38:-0.0499672 39:-0.260438 40:-0.715611 41:-0.870968 42:-0.261935 43:-0.041174 44:-0.177878 45:-0.194167 46:-0.0903926 47:-0.0264233 48:-0.669309 49:0.107984 50:0.672086 51:-0.613487 52:-0.79616 53:-0.487903 54:0.50305 55:0.0139755 56:0.128149 57:-0.417764 58:-0.108226 59:0.356819 60:-0.955401 61:-0.483564 62:-0.46428 63:0.00648551 64:-0.981623 65:-0.920792 66:-0.127112 67:-0.214462 68:-0.110218 69:0.176319 70:0.347597 71:0.0279685 72:-0.82424 73:-0.413065 74:-0.446737 75:0.206489 76:-0.956449 77:-0.578313 78:-0.0759116 79:-0.373871 80:0.237277 81:0.000726365 82:0.122924 83:-0.422563 84:-0.239672 85:0.13422 86:0.403279 87:-0.229803 88:-0.994681 89:-0.66171 90:0.0758717 91:-0.209745 92:0.22661 93:-0.201016 94:-0.0287441 95:0.0745389 96:-0.665254 97:-0.300076 98:0.00799324 99:-0.128156 100:-0.819568 101:-0.784 102:-0.146863 103:-0.443346 104:0.290493 105:-0.307617 106:-0.0130494 107:0.267486 108:-0.615208 109:-0.728922 110:-0.106661 111:-0.414499 112:-0.969743 113:-0.673846 114:-0.314387 115:-0.142429 116:-0.118743 117:-0.437397 118:-0.27298 119:-0.235543 120:-0.513039 121:-0.538086 122:0.00152205 123:-0.34047 124:-0.799427 125:-0.719298 126:-0.502927 127:-0.252184 128:-0.131848 129:-0.598666 130:-0.467358 131:0.402771 132:-0.168429 133:-0.760976 134:-0.201185 135:-0.508684 136:-0.597701 137:-0.965714 138:-0.211298 139:0.367192 140:-0.382384 141:-0.585309 142:-0.352384 143:-0.344115 144:-0.443228 145:-0.554058 146:-0.526365 147:0.184026 148:-0.758204 149:-0.60219 150:-0.621998 151:-0.0590115 152:-0.361468 153:-0.353325 154:-0.139327 155:-0.18418 156:-0.384814 157:0.175675 158:-0.869565 159:0.174262 160:-0.67916 161:-0.420339 162:-0.594458 163:-0.231288 164:-0.169458 165:-0.638693 166:-0.470408 167:0.485142 168:0.234406 169:0.418214 170:0.873186 171:0.0671891 172:-0.787986 173:-0.977941 174:0.493512 175:0.300843 176:0.0772955 177:-0.0482336 178:0.250407 179:-0.730944 180:-0.945412 181:0.189286 183:0.189286 184:-0.916031 185:-1 186:-0.134039 187:0.208523 188:-0.222062 189:-0.477613 190:0.0204616 191:-0.926863 192:-0.982569 193:-0.886362 194:0.676498 195:-0.788646 196:-0.963399 197:-0.952 198:0.185954 199:0.5456 200:-0.527589 201:-0.919644 202:-0.753305 203:-0.440061 204:-0.743157 205:-0.371315 206:-0.104264 207:-0.1545 208:-0.689759 209:-0.921331 210:-0.178338 211:-0.286124 212:0.12744 213:-0.256315 214:-0.0463316 215:-0.314323 216:-0.57754 217:0.36782 218:-0.294567 219:0.399109 220:-0.542768 221:-0.974803 222:-0.237593 223:0.159086 224:-0.22935 225:0.0170802 226:0.251104 227:0.0543399 228:-0.567757 229:-0.143661 230:0.886087 231:-0.505255 232:-0.658228 233:-0.715611 234:-0.340024 235:0.472621 236:-0.461509 237:-0.3843 238:-0.193041 239:0.35958 240:-0.551582 241:-0.479285 242:0.478748 243:-0.49174 244:-0.857351 245:-0.719658 246:0.268578 247:-0.287895 248:0.224109 249:-0.398317 250:-0.144192 251:-0.123773 252:-0.692612 253:-0.203778 254:-0.0875484 255:-0.0170968 256:-0.90409 257:-0.953488 258:0.314051 259:0.291211 260:-0.316287 261:0.125823 262:0.350783 263:-0.366439 264:-0.649479 265:0.327475 266:0.000856434 267:0.496545 268:-0.51405 269:-0.571142 270:0.393709 271:0.274521 272:-0.281784 273:0.185572 274:0.376713 275:0.13944 276:0.396915 277:-0.734672 278:0.435798 279:-0.57821 280:-0.811828 281:-0.97035 282:-0.0698144 283:-0.0459917 284:-0.214381 285:-0.669261 286:-0.488262 287:-0.0336138 288:-0.612724 289:0.0500103 290:0.432938 291:-0.115045 292:-0.835655 293:-0.685756 294:0.437523 295:0.102596 296:-0.535083 297:-0.152543 298:0.0597288 299:0.405901 300:-0.503431 301:-0.597343 302:0.194287 303:-0.334853 304:-0.642384 305:-0.963394 306:0.14224 307:0.228886 308:-0.201189 309:-0.597442 310:-0.392564 311:-0.735397 312:0.219043 313:-0.353726 314:0.231589 315:-0.242803 316:-0.80805 317:-0.934097 318:0.0698091 319:0.424987 320:-0.578486 321:-0.327059 322:-0.115392 323:-0.170012 324:-0.544506 325:-0.371279 326:0.59258 327:-0.44329 328:-0.966258 329:-0.973913 330:0.36115 331:0.642444 332:-0.689646 333:-0.483727 334:-0.256029 335:0.266717 336:-0.617177 337:-0.450641 338:0.426349 339:-0.374805 340:-0.79868 341:-0.737643 342:0.0928448 343:0.342005 344:-0.596742 345:-0.202974 346:0.0334073 347:0.400759 348:-0.57767 349:0.0680176 350:-0.319349 351:0.11962 352:-0.697885 353:-0.634188 354:-0.185431 355:-0.574338 356:0.668848 357:-0.344316 358:-0.0956182 359:-0.487743 360:0.245648 361:-0.0124307 362:-0.185805 363:0.250006 364:-0.585271 365:-0.900574 366:0.213792 367:0.115803 368:0.228341 369:0.116146 370:0.375572 371:-0.348965 372:-0.83365 373:0.187947 374:-0.0262922 375:0.10712 376:-0.926874 377:-0.721379 378:-0.433794 379:-0.119584 380:0.113959 381:-0.325845 382:0.162011 383:0.257249 384:-0.933551 
0 0.5800706741772168 0 0 0 0 1:-0.61503 2:-0.817793 3:-0.613217 4:-0.97389 5:-0.987952 6:-0.29777 7:-0.116759 8:0.146847 9:-0.676077 10:-0.344942 11:-0.622483 12:-0.885922 13:0.286505 14:-0.199025 15:0.301199 16:-0.755682 17:-0.320363 18:0.111049 19:-0.174143 20:-0.0130317 21:0.0171576 22:0.217362 23:-0.523742 24:-0.328073 25:-0.118739 26:0.00916821 27:-0.131684 28:-0.535545 29:-0.86711 30:0.0835522 31:0.164112 32:-0.117128 33:-0.402933 34:-0.141262 35:-0.15102 36:-0.554804 37:-0.306376 38:-0.400293 39:0.00367885 40:-0.502318 41:-0.450077 42:-0.269909 43:-0.0174162 44:-0.2206 45:0.227578 46:0.32852 47:-0.240038 48:-0.615427 49:-0.35398 50:0.163382 51:-0.413091 52:-0.556869 53:-0.254032 54:-0.0140663 55:-0.206267 56:-0.13803 57:-0.374459 58:-0.0899231 59:0.358121 60:-0.848093 61:-0.645761 62:-0.271331 63:-0.271941 64:-0.996937 65:-0.112871 66:-0.255003 67:-0.313041 68:-0.0859688 69:-0.26837 70:-0.031547 71:0.432292 72:-0.845494 73:-0.228458 74:0.142102 75:-0.20782 76:-0.363484 77:-0.186747 78:-0.0737594 79:-0.081009 80:0.0621106 81:0.0656965 82:0.128767 83:-0.115099 84:-0.86107 85:-0.226124 86:-0.270096 87:0.0653231 88:-0.204787 89:-0.873606 90:-0.366369 91:0.0925193 92:-0.416513 93:-0.0304319 94:0.222208 95:0.0740277 96:-0.797193 97:-0.345436 98:-0.359958 99:0.181559 100:-0.308767 101:-0.136 102:0.0474744 103:0.00146231 104:0.0687995 105:0.254207 106:0.407325 107:-0.351904 108:-0.403716 109:-0.367918 110:-0.264468 111:0.00789955 112:-0.803328 113:-0.701538 114:-0.235337 115:-0.173617 116:0.0775291 117:-0.0677124 118:0.126286 119:-0.320705 120:-0.593149 121:-0.670164 122:-0.0435794 123:-0.414919 124:-0.487106 125:-0.746589 126:-0.446023 127:-0.0665801 128:-0.285888 129:-0.388278 130:-0.200223 131:0.373861 132:-0.810621 133:-0.446603 134:-0.150552 135:-0.335175 136:-0.310345 137:-0.977143 138:-0.044856 139:0.33554 140:-0.359137 141:-0.349881 142:-0.0528291 143:-0.184534 144:-0.594624 145:-0.219217 146:0.0913953 147:0.0601514 148:-0.816926 149:-0.339416 150:-0.362934 151:0.138187 152:-0.234184 153:0.101492 154:0.254646 155:0.0517724 156:-0.907778 157:-0.175676 158:-0.782609 159:-0.179625 160:-0.211394 161:-0.745763 162:-0.417767 163:-0.237851 164:-0.0536302 165:-0.398199 166:-0.225936 167:-0.140252 168:-0.593716 169:0.770512 170:-0.106027 171:0.633818 172:-0.293286 173:-0.382353 174:0.778749 175:-0.0126734 176:0.408714 177:0.873225 178:0.897095 179:-0.805818 180:-0.984968 181:0.664447 183:0.664447 184:-0.790076 185:-1 186:0.450637 187:0.0769089 188:0.207963 189:0.1595 190:0.511761 191:-0.97709 192:-0.984849 193:-0.690795 194:0.59007 195:-0.61775 196:-0.932026 197:-0.884 198:0.204272 199:0.782203 200:-0.603888 201:-0.650297 202:-0.302417 203:-0.0631852 204:-0.934501 205:0.421424 206:0.295789 207:0.0993807 208:-0.939759 209:-0.960666 210:0.33991 211:0.211622 212:-0.369284 213:-0.201067 214:0.00567208 215:0.486896 216:-0.366199 217:0.0680144 218:0.0620695 219:0.0313501 220:-0.732504 221:-0.908661 222:0.0562754 223:-0.179141 224:-0.0645805 225:-0.109421 226:0.134857 227:0.510273 228:-0.830226 229:-0.504696 230:0.106646 231:-0.25386 232:-0.512658 233:-0.92272 234:-0.428211 235:0.127795 236:-0.141493 237:-0.121754 238:0.0718915 239:-0.124364 240:-0.728772 241:-0.426911 242:0.571433 243:-0.518176 244:-0.804949 245:-0.979487 246:-0.487718 247:-0.515786 248:0.17802 249:-0.475203 250:-0.230356 251:0.30553 252:-0.722658 253:0.438275 254:0.143632 255:0.128193 256:-0.196051 257:-0.194767 258:-0.170615 259:-0.390206 260:0.157624 261:-0.11854 262:0.125328 263:0.0857684 264:-0.668726 265:0.234939 266:-0.189134 267:0.568555 268:-0.0644628 269:0.106212 270:0.064005 271:-0.327542 272:0.128822 273:0.304695 274:0.464416 275:-0.0462404 276:-0.276488 277:0.346453 278:0.0152616 279:0.335717 280:-0.897849 281:-0.743935 282:0.117087 283:-0.539456 284:0.14017 285:0.0142224 286:0.225775 287:0.291618 288:-0.625737 289:-0.0600978 290:-0.316677 291:0.326331 292:-0.629526 293:-0.603524 294:0.373534 295:-0.544863 296:0.0111086 297:0.377527 298:0.521942 299:-0.44594 300:-0.417719 301:-0.100889 302:-0.00128228 303:0.0401479 304:-0.0662252 305:-0.673877 306:-0.0725405 307:-0.0634946 308:-0.136404 309:-0.130332 310:0.105616 311:-0.282762 312:-0.461358 313:-0.439247 314:0.218379 315:-0.291243 316:-0.789474 317:-0.842407 318:0.0705887 319:-0.193061 320:-0.0613731 321:-0.317419 322:-0.115327 323:-0.0057684 324:-0.606779 325:0.101285 326:0.369751 327:-0.0712355 328:-0.484663 329:-0.510145 330:0.205047 331:-0.332488 332:0.0846821 333:0.036085 334:0.2457 335:0.204866 336:-0.626675 337:-0.0822181 338:0.215646 339:0.0260348 340:-0.184818 341:-0.34981 342:-0.201543 343:-0.372193 344:-0.00544059 345:-0.0126438 346:0.201528 347:0.103964 348:-0.593721 349:0.195369 350:-0.0385276 351:0.0215219 352:-0.864048 353:-0.82906 354:-0.184331 355:-0.387055 356:0.550699 357:-0.182343 358:0.0659183 359:-0.16438 360:-0.384279 361:0.443786 362:-0.53408 363:0.71036 364:-0.348837 365:-0.85086 366:0.0107984 367:0.407442 368:-0.017508 369:0.0997068 370:0.360648 371:-0.326596 372:-0.525121 373:0.668768 374:-0.604965 375:0.636867 376:-0.806216 377:-0.878621 378:-0.0794591 379:0.186736 380:-0.0885484 381:-0.286965 382:0.19322 383:0.271013 384:-0.888714 
0.165773631982593 0 0 0 0.1497212144064043 0 1:-0.719457 2:-0.778795 3:-0.717967 4:-0.877285 5:-1 6:-0.144789 7:-0.0198555 8:0.0295061 9:-0.622026 10:-0.30271 11:-0.855674 12:-0.976917 13:0.224982 14:-0.590906 15:0.574434 16:-0.71875 17:-0.86511 18:0.151047 19:0.408001 20:-0.247427 21:0.0835807 22:0.366448 23:-0.512014 24:-0.423821 25:-0.0126991 26:0.103035 27:-0.143111 28:-0.42812 29:-0.774086 30:0.247391 31:0.140776 32:0.0560795 33:0.0326572 34:0.26202 35:-0.075631 36:-0.678103 37:-0.462108 38:0.0834989 39:-0.51107 40:-0.443586 41:-0.643625 42:-0.353304 43:0.140798 44:-0.400816 45:-0.415981 46:-0.318973 47:0.245331 48:-0.961307 49:0.053362 50:0.404869 51:-0.395543 52:-0.660266 53:-0.733871 54:0.185292 55:0.148242 56:-0.219345 57:-0.378944 58:-0.0177491 59:0.59073 60:-0.826854 61:-0.731179 62:-0.332029 63:-0.286086 64:-0.987749 65:-0.350495 66:-0.452279 67:0.0598516 68:-0.622906 69:-0.337033 70:-0.114358 71:0.345899 72:-0.653311 73:-0.272073 74:0.357616 75:-0.453167 76:-0.98325 77:-0.915663 78:-0.112468 79:0.0132353 80:-0.0616306 81:-0.337488 82:-0.216609 83:0.42024 84:-0.446444 85:-0.242332 86:-0.121087 87:-0.0672837 88:-0.494681 89:-0.468401 90:-0.568505 91:-0.0824487 92:-0.331937 93:0.0131886 94:0.174529 95:0.337669 96:-0.60802 97:-0.549071 98:0.484307 99:-0.74881 100:-0.982211 101:-0.328 102:0.0239419 103:0.0580422 104:0.00210822 105:-0.41724 106:-0.221956 107:0.331287 108:-0.987861 109:-0.00854459 110:0.0573597 111:-0.0185768 112:-0.866868 113:-0.947692 114:0.00847742 115:0.172392 116:-0.0623727 117:-0.428952 118:-0.278155 119:-0.208625 120:-0.199892 121:-0.128208 122:0.115076 123:-0.0871342 124:-0.893983 125:-0.504873 126:-0.470658 127:-0.738763 128:0.272703 129:-0.119173 130:0.219109 131:0.654684 132:-0.329221 133:0.311708 134:0.103738 135:-0.00402675 136:-0.903448 137:-0.645714 138:0.00175076 139:-0.723729 140:0.64763 141:0.0439065 142:0.501864 143:0.644412 144:-0.239172 145:0.131639 146:0.540179 147:0.0673258 148:-0.841105 149:-0.682482 150:-0.0349499 151:-0.563316 152:0.590052 153:-0.197444 154:0.207017 155:0.559762 156:-0.658478 157:0.362162 158:-0.913043 159:0.36193 160:-0.55922 161:-0.99661 162:-0.250113 163:-0.216465 164:-0.0172209 165:-0.0225821 166:0.0827508 167:-0.20637 168:-0.645183 169:0.973995 170:1 171:0.469809 172:-0.848057 173:-0.477941 174:0.948699 175:0.0571492 176:0.497786 177:0.737421 178:0.810473 179:-0.835771 180:-0.960187 181:0.932381 183:0.932381 184:-0.832061 185:-1 186:0.559831 187:-0.435641 188:0.614887 189:0.302545 190:0.633733 191:-0.919747 192:-0.977724 193:-0.610457 194:0.42611 195:-0.484005 196:-0.636601 197:-0.812 198:0.194717 199:0.339699 200:-0.216469 201:-0.557179 202:-0.186477 203:-0.0442862 204:-0.924152 205:0.169858 206:-0.111193 207:0.165906 208:-0.572289 209:-0.697428 210:-0.0965142 211:-0.0632692 212:-0.0897862 213:0.110331 214:0.298782 215:0.118792 216:-0.371048 217:0.305782 218:0.0780723 219:0.166121 220:-0.698289 221:-0.527559 222:-0.0100232 223:0.130426 224:-0.20318 225:0.0452379 226:0.276239 227:0.0467492 228:-0.697044 229:-0.688321 230:0.0231828 231:-0.314604 232:-0.911392 233:-0.891808 234:-0.227588 235:0.440078 236:-0.432553 237:-0.338284 238:-0.143821 239:-0.335344 240:-0.474513 241:-0.644614 242:0.279774 243:-0.461304 244:-0.871907 245:-0.6 246:-0.171338 247:-0.085136 248:-0.163615 249:-0.35944 250:-0.0987466 251:-0.213599 252:-0.761844 253:-0.0939862 254:-0.226633 255:0.126775 256:-0.526093 257:-0.982558 258:0.145273 259:0.375584 260:-0.543854 261:-0.318078 262:-0.056797 263:-0.310722 264:-0.266576 265:-0.553373 266:0.593581 267:-0.526887 268:-0.553719 269:-0.543086 270:0.282848 271:0.104804 272:-0.183984 273:-0.356592 274:-0.133337 275:0.192509 276:-0.712942 277:-0.71032 278:0.176868 279:-0.400462 280:-0.510753 281:-0.832884 282:-0.0260565 283:0.164489 284:-0.536486 285:-0.263254 286:-0.018724 287:-0.155105 288:-0.845777 289:-0.361986 290:0.237042 291:-0.22456 292:-0.802228 293:-0.506608 294:0.204832 295:-0.198818 296:-0.296672 297:-0.385095 298:-0.1894 299:0.11128 300:-0.344972 301:-0.214179 302:0.18472 303:-0.128978 304:-0.407285 305:-0.846922 306:0.105454 307:-0.0217748 308:0.0391042 309:-0.41199 310:-0.183004 311:0.0117737 312:-0.194196 313:-0.340732 314:0.444464 315:-0.356228 316:-0.44582 317:-0.968481 318:0.399594 319:0.146767 320:-0.2312 321:-0.493687 322:-0.303595 323:0.280057 324:-0.578259 325:0.314489 326:0.282099 327:0.0890405 328:-0.947853 329:-0.573913 330:0.270478 331:0.0186537 332:-0.132162 333:-0.0700128 334:0.151459 335:0.188032 336:-0.196157 337:-0.511491 338:0.398603 339:-0.394242 340:-0.405941 341:-0.828897 342:0.0868738 343:-0.329868 344:0.145245 345:-0.447747 346:-0.23752 347:0.2763 348:-0.484172 349:0.544621 350:-0.343323 351:0.380881 352:-0.570997 353:-0.497436 354:-0.170344 355:-0.611652 356:0.745126 357:0.720069 358:0.809533 359:-0.278518 360:-0.534366 361:0.575738 362:-0.578652 363:0.810547 364:-0.75969 365:-0.824092 366:-0.0798373 367:-0.122171 368:0.474493 369:0.583058 370:0.727806 371:-0.307016 372:-0.729535 373:0.632651 374:-0.755222 375:0.693938 376:-0.886654 377:-0.862069 378:-0.433794 379:-0.341798 380:0.50431 381:0.14833 382:0.518416 383:0.278089 384:-0.909367 
7.354953117325894 0.7740888755825213 0 5.062461241301188 2.461494740842994 1.132902491181275 1:-0.441772 2:-0.742486 3:-0.439897 4:-0.869452 5:-0.436145 6:-0.00761543 7:-0.245219 8:0.442633 9:-0.557429 10:-0.176191 11:-0.769009 12:-0.935258 13:0.0166898 14:-0.32871 15:0.205889 16:-0.369318 17:-0.514916 18:-0.0646612 19:-0.0602648 20:-0.179551 21:0.191381 22:0.381541 23:-0.511293 24:-0.461402 25:0.206797 26:0.560146 27:-0.39935 28:-0.304897 29:-0.960133 30:0.395429 31:0.228727 32:0.0673164 33:-0.62381 34:-0.384689 35:0.466359 36:-0.176971 37:-0.00549028 38:0.130535 39:-0.170141 40:-0.440495 41:-0.609831 42:0.117992 43:0.618953 44:-0.441869 45:-0.386878 46:0.0684619 47:-0.0430807 48:-0.804532 49:-0.0512153 50:0.568104 51:-0.611337 52:-0.512555 53:-0.495968 54:0.321029 55:-0.191139 56:0.10933 57:-0.614478 58:-0.36561 59:0.41316 60:-0.814857 61:-0.441606 62:-0.382772 63:-0.0287598 64:-0.687596 65:-0.849505 66:-0.465456 67:0.165771 68:-0.771755 69:0.104852 70:0.330901 71:0.530448 72:-0.838263 73:-0.543757 74:-0.0380151 75:-0.299249 76:-0.443886 77:-0.894578 78:-0.421632 79:-0.0393725 80:-0.256649 81:0.147066 82:0.188566 83:0.0787193 84:-0.80817 85:-0.0634329 86:0.224184 87:-0.222723 88:-0.994681 89:-0.542751 90:0.0328968 91:-0.140542 92:0.135165 93:-0.545384 94:-0.381628 95:0.140131 96:-0.208825 97:-0.0767146 98:-0.310709 99:0.327653 100:-0.499365 101:-0.884 102:-0.0721495 103:0.102333 104:-0.145965 105:0.400266 106:0.53543 107:0.280103 108:-0.679972 109:-0.584404 110:-0.234814 111:-0.18476 112:-0.990923 113:-0.655385 114:-0.286207 115:0.0577685 116:-0.220197 117:-0.29171 118:-0.145924 119:-0.307106 120:-0.371962 121:-0.679908 122:-0.0865848 123:-0.386914 124:-0.386819 125:-0.867446 126:-0.335106 127:0.344296 128:-0.580035 129:-0.374718 130:0.061402 131:-0.107208 132:-0.703803 133:-0.794537 134:-0.196534 135:-0.533856 136:-0.809195 137:-0.504762 138:-0.105562 139:0.491235 140:-0.50241 141:-0.483211 142:-0.127306 143:-0.469253 144:-0.639353 145:-0.7479 146:-0.10691 147:-0.28042 148:-0.982729 149:-0.562044 150:-0.448368 151:0.174813 152:-0.365465 153:-0.420006 154:-0.232529 155:-0.37448 156:-0.619738 157:0.337838 158:-0.913043 159:0.337801 160:-0.817091 161:-0.183051 162:-0.163561 163:-0.454114 164:0.323642 165:0.0881714 166:0.204765 167:-0.307139 168:-0.725209 169:0.738845 170:0.494316 171:0.432314 172:-0.618375 173:-0.389706 174:0.326568 175:-0.0480698 176:0.166571 177:0.268587 178:0.47432 179:-0.614647 180:-0.969063 181:0.447252 183:0.447252 184:-0.591603 185:-1 186:-0.061062 187:-0.0412204 188:-0.0167906 189:-0.277376 190:0.194413 191:-0.901064 192:-0.980256 193:-0.508338 194:0.45301 195:-0.430399 196:-0.864052 197:-0.268 198:0.198013 199:0.546891 200:-0.31874 201:-0.49008 202:-0.111441 203:-0.0268093 204:-0.935826 205:0.531287 206:-0.19105 207:0.419407 208:-0.430723 209:-0.763994 210:-0.188462 211:0.10612 212:-0.307307 213:0.391898 214:0.537143 215:-0.00697945 216:-0.596591 217:-0.128506 218:0.553232 219:-0.344841 220:-0.772939 221:-0.486614 222:-0.257614 223:-0.307255 224:0.126015 225:-0.310724 226:-0.0645547 227:0.628954 228:-0.865926 229:-0.221991 230:0.176286 231:-0.124871 232:-0.651899 233:-0.953632 234:0.0555852 235:0.0241422 236:0.150895 237:-0.155014 238:0.0394518 239:-0.255102 240:-0.566735 241:-0.351221 242:0.31851 243:-0.337276 244:-0.962154 245:-0.432479 246:0.0316135 247:-0.456187 248:0.266698 249:-0.489856 250:-0.246731 251:0.493359 252:-0.421427 253:0.102679 254:-0.499895 255:0.400562 256:-0.390691 257:-0.703488 258:0.00101437 259:-0.0935524 260:-0.177824 261:0.180329 262:0.39291 263:-0.433624 264:-0.650725 265:-0.591054 266:0.0141614 267:-0.140266 268:-0.477686 269:-0.903808 270:0.180888 271:-0.0839877 272:-0.136268 273:0.110186 274:0.306866 275:-0.327547 276:-0.762107 277:-0.245536 278:0.442172 279:-0.288604 280:-0.806452 281:-0.541779 282:-0.147097 283:-0.531801 284:0.174855 285:-0.549762 286:-0.354151 287:0.211539 288:-0.622611 289:0.191019 290:0.366605 291:0.0124672 292:-0.518106 293:-0.74743 294:0.263992 295:-0.379068 296:-0.19214 297:0.46935 298:0.600677 299:0.325062 300:-0.751472 301:-0.345853 302:0.618737 303:-0.45429 304:-0.609272 305:-0.71381 306:-0.0948603 307:0.0137898 308:-0.163747 309:-0.401762 310:-0.169418 311:0.0933524 312:-0.810555 313:-0.286193 314:0.294793 315:-0.234782 316:-0.773994 317:-0.381089 318:-0.168831 319:0.033895 320:-0.399301 321:-0.433453 322:-0.235892 323:-0.126379 324:-0.443975 325:-0.108343 326:0.349765 327:-0.166328 328:-0.601227 329:-0.976812 330:0.102674 331:-0.0680363 332:-0.232928 333:-0.0303593 334:0.189317 335:-0.0497705 336:-0.663605 337:-0.236419 338:0.328657 339:-0.160294 340:-0.475248 341:-0.410646 342:0.0232374 343:-0.17286 344:-0.195048 345:-0.31018 346:-0.0849551 347:-0.16782 348:-0.355473 349:0.412445 350:-0.240583 351:0.252252 352:-0.830816 353:-0.917949 354:-0.203528 355:-0.49206 356:0.656669 357:0.577135 358:0.704664 359:-0.166945 360:-0.617404 361:0.646615 362:-0.461525 363:0.781568 364:-0.608527 365:-0.873805 366:-0.114012 367:0.144487 368:0.285116 369:0.39278 370:0.590128 371:-0.237008 372:-0.78005 373:0.454455 374:-0.400138 375:0.427296 376:-0.616088 377:-0.732414 378:-0.433794 379:0.0690136 380:-0.0157707 381:-0.253345 382:0.221791 383:0.295766 384:-0.918691 
0 3.55434464218841 0 0 0 0 1:-0.529218 2:-0.767407 3:-0.527419 4:-0.851175 5:-0.783133 6:-0.0608576 7:0.121688 8:-0.0680001 9:-0.539827 10:-0.203881 11:-0.739437 12:-0.935099 13:0.0681735 14:-0.611695 15:0.474609 16:-0.315341 17:-0.483787 18:-0.240102 19:-0.316655 20:-0.127713 21:0.529431 22:0.644299 23:-0.510615 24:-0.567382 25:-0.355592 26:0.12105 27:-0.39072 28:-0.235387 29:-0.837209 30:0.114371 31:-0.000551601 32:0.0590896 33:-0.457071 34:-0.220343 35:-0.0710526 36:-0.543038 37:-0.226818 38:-0.0973835 39:-0.171869 40:-0.282844 41:-0.560676 42:0.0104193 43:0.569429 44:-0.507454 45:-0.172761 46:0.239438 47:0.0256762 48:-0.901178 49:-0.232218 50:0.373138 51:-0.5369 52:-0.279173 53:-0.342742 54:-0.043879 55:-0.417521 56:0.0473843 57:-0.52484 58:-0.239918 59:0.660771 60:-0.788456 61:-0.758003 62:-0.37923 63:-0.26756 64:-0.445636 65:-0.889109 66:-0.566007 67:-0.103998 68:-0.624375 69:-0.113422 70:0.0919248 71:0.495724 72:-0.891548 73:-0.468447 74:0.00885471 75:-0.281136 76:-0.919598 77:-0.355422 78:-0.372069 79:-0.444738 80:0.17778 81:-0.151764 82:0.0943318 83:0.0969576 84:-0.729017 85:-0.395103 86:-0.30955 87:-0.0211016 88:-0.981383 89:-0.486989 90:-0.136652 91:-0.0862196 92:-0.0363853 93:-0.274391 94:-0.0870754 95:-0.198319 96:-0.424839 97:-0.00425621 98:-0.322283 99:0.390155 100:-0.987294 101:-0.796 102:0.0559791 103:-0.203417 104:0.323251 105:0.258816 106:0.442695 107:-0.0708448 108:-0.532549 109:-0.525521 110:-0.613624 111:0.213648 112:-0.984871 113:-0.698462 114:-0.211367 115:-0.16047 116:0.0349639 117:-0.223153 118:-0.0386392 119:-0.851603 120:0.675975 121:0.0571659 122:-0.114408 123:0.26454 124:-0.441261 125:-0.898635 126:-0.142048 127:0.241182 128:-0.345315 129:0.455057 130:0.697037 131:0.170878 132:-0.583827 133:-0.220042 134:-0.0914833 135:-0.22506 136:-0.908046 137:-0.470476 138:0.131522 139:-0.00951347 140:0.204485 141:0.0618434 142:0.245282 143:-0.321226 144:-0.6076 145:0.268253 146:0.434938 147:0.263299 148:-0.336788 149:-0.656934 150:0.0248783 151:0.148742 152:0.0924424 153:-0.330997 154:-0.139099 155:0.858097 156:0.133748 157:0.491892 158:-0.956522 159:0.493297 160:-0.928036 161:-1 162:0.109739 163:-0.315307 164:0.283929 165:0.449716 166:0.413531 167:-0.451174 168:-0.814391 169:0.929018 170:0.473337 171:0.588998 172:-0.862191 173:-0.834559 174:0.654885 175:-0.135162 176:0.444121 177:0.67553 178:0.766085 179:-0.631036 180:-0.971332 181:0.861111 183:0.861111 184:-0.839695 185:-1 186:0.452698 187:0.0276606 188:0.257841 189:0.457282 190:0.693813 191:-0.928712 192:-0.98263 193:-0.628221 194:0.616918 195:-0.59003 196:-0.775163 197:-0.196 198:0.351955 199:0.592791 200:-0.374826 201:-0.587108 202:-0.222678 203:0.069561 204:-0.944922 205:0.292906 206:-0.0771366 207:0.220041 208:-0.373494 209:-0.812405 210:0.69351 211:0.463057 212:-0.684554 213:0.198175 214:0.37724 215:0.00681609 216:-0.498253 217:0.0716049 218:0.341075 219:-0.112963 220:-0.748056 221:-0.858268 222:0.267742 223:0.0509885 224:-0.218567 225:-0.271357 226:-0.0197584 227:0.396569 228:-0.721016 229:-0.373018 230:0.486556 231:-0.403179 232:-0.607595 233:-0.591963 234:-0.038932 235:0.18861 236:-0.122347 237:-0.332587 238:-0.141354 239:-0.194646 240:-0.719011 241:-0.249015 242:0.478415 243:-0.376991 244:-0.691412 245:-0.603419 246:0.298543 247:-0.151482 248:-0.150332 249:-0.444675 250:-0.188626 251:0.169201 252:-0.609241 253:-0.0729745 254:0.182496 255:-0.136064 256:-0.610719 257:-0.360465 258:-0.236863 259:-0.146109 260:-0.170803 261:0.123598 262:0.344288 263:-0.127614 264:-0.948617 265:-0.650353 266:0.0841953 267:-0.230609 268:-0.801653 269:-0.118236 270:-0.593317 271:-0.379687 272:0.139531 273:-0.139021 274:0.0723288 275:-0.353114 276:-0.422464 277:-0.217085 278:0.148005 279:-0.086196 280:-0.615591 281:-0.983827 282:-0.493788 283:-0.624108 284:0.222869 285:-0.259078 286:-0.0392139 287:-0.0939786 288:-0.636811 289:0.407899 290:-0.105522 291:0.458404 292:-0.593315 293:-0.85022 294:-0.537047 295:-0.827912 296:0.351509 297:0.511591 298:0.627439 299:-0.0791781 300:-0.182352 301:-0.224928 302:0.311442 303:-0.209489 304:-0.662252 305:-0.677205 306:-0.224768 307:-0.0688986 308:-0.0755551 309:-0.286224 310:-0.0496432 311:0.13811 312:-0.604619 313:0.480885 314:0.107616 315:0.37477 316:-0.910217 317:-0.882521 318:-0.15649 319:-0.110488 320:-0.181745 321:0.318765 322:0.477261 323:0.352709 324:-0.438102 325:0.143914 326:0.255385 327:0.0178149 328:-0.763804 329:-0.602899 330:-0.171787 331:-0.518085 332:0.329289 333:0.120402 334:0.318522 335:0.15215 336:-0.509061 337:-0.415704 338:0.153333 339:-0.147595 340:-0.389439 341:-0.26616 342:-0.170345 343:-0.707687 344:0.61185 345:-0.14868 346:0.0723979 347:-0.152949 348:-0.3949 349:0.390255 350:-0.243151 351:0.242243 352:-0.809668 353:-0.911111 354:-0.166678 355:-0.537065 356:0.744674 357:0.532287 358:0.672244 359:-0.0856201 360:-0.618457 361:0.626667 362:-0.694192 363:0.906931 364:-0.27907 365:-0.847036 366:0.233434 367:0.610046 368:-0.319583 369:0.780915 370:0.855426 371:-0.32476 372:-0.735041 373:0.839881 374:-0.864583 375:0.852232 376:-0.301645 377:-0.878621 378:0.0482426 379:0.137912 380:-0.0181832 381:0.812863 382:0.902127 383:0.262488 384:-0.934395 
0 0.5687696691433347 0 0 1.133867693408003 2.146853270828672 1:-0.712058 2:-0.906441 3:-0.710125 4:-0.913838 5:-0.992771 6:-0.808665 7:0.0232138 8:-0.408931 9:-0.938498 10:-0.849879 11:-0.292638 12:-0.545303 13:0.467966 14:0.0660833 15:0.220473 16:-0.107955 17:-0.276265 18:0.19566 19:-0.400087 20:0.236271 21:-0.466776 22:-0.267762 23:-0.243322 24:-0.227571 25:0.548235 26:-0.162319 27:0.4707 28:-0.0458136 29:-0.162791 30:0.0346296 31:0.161024 32:-0.1689 33:0.0532237 34:0.296902 35:0.161093 36:-0.353824 37:-0.406743 38:-0.316625 39:-0.146202 40:-0.653787 41:-0.480799 42:-0.429703 43:-0.0391313 44:-0.350512 45:-0.15608 46:-0.0495659 47:-0.0219674 48:-0.689377 49:-0.0245175 50:0.0719019 51:-0.129853 52:0.0398818 53:-0.0403226 54:0.0698162 55:-0.158182 56:-0.151275 57:-0.148253 58:0.146437 59:0.273516 60:-0.796741 61:0.112639 62:-0.484745 63:0.467726 64:-0.0627871 65:-0.548515 66:-0.180261 67:0.278535 68:-0.773629 69:-0.103345 70:0.291498 71:0.273307 72:-0.541531 73:-0.0670417 74:0.123208 75:-0.0534811 76:-0.293132 77:-0.463855 78:0.076333 79:0.113192 80:-0.0870204 81:0.230921 82:0.284284 83:-0.0892839 84:-0.855255 85:-0.0377877 86:-0.388474 87:0.293742 88:-1 89:-0.35316 90:-0.378868 91:-0.166395 92:-0.169487 93:0.44768 94:0.525971 95:0.230527 96:-0.633173 97:0.322281 98:-0.299999 99:0.602604 100:-0.138501 101:-0.136 102:-0.0925316 103:0.203433 104:-0.398142 105:-0.153749 106:0.131176 107:0.289521 108:-0.529288 109:-0.118154 110:-0.263305 111:0.197159 112:-0.0136157 113:-0.421538 114:-0.277541 115:0.233073 116:-0.435383 117:-0.331468 118:-0.135316 119:-0.155772 120:-0.252834 121:-0.280098 122:-0.462446 123:0.271032 124:-0.108883 125:-0.961014 126:-0.366885 127:0.158685 128:-0.580074 129:-0.037544 130:0.348465 131:0.14773 132:-0.535009 133:-0.407315 134:-0.0689957 135:-0.363231 136:-0.255172 137:-0.900952 138:-0.0595613 139:0.336923 140:-0.428098 141:-0.33438 142:-0.00640889 143:-0.0293041 144:-0.678634 145:-0.241094 146:0.0587701 147:0.0629074 148:-0.0846287 149:-0.324818 150:-0.376899 151:0.463917 152:-0.715718 153:-0.115743 154:0.151705 155:0.206647 156:-0.832996 157:0.248648 158:-0.956522 159:0.252011 160:-0.148426 161:-1 162:-0.500281 163:-0.12701 164:-0.284769 165:-0.56647 166:-0.382382 167:0.197589 168:-0.147837 169:0.803978 170:0.832215 171:0.384557 172:-0.04947 173:0.0808824 174:0.643319 175:-0.100855 176:0.415658 177:0.362382 178:0.544688 179:-0.771519 180:-0.96298 181:0.95154 183:0.95154 184:0.324427 185:-1 186:0.272656 187:0.0748443 188:0.0883781 189:0.191444 190:0.532639 191:-0.889125 192:-0.976788 193:-0.661732 194:0.653224 195:-0.629947 196:-0.911111 197:-0.868 198:0.193499 199:0.928148 200:-0.871286 201:-0.910235 202:-0.733061 203:0.0489544 204:-0.622086 205:0.231385 206:0.081629 207:0.100637 208:-0.0903614 209:-0.15885 210:-0.0485134 211:0.143902 212:-0.315584 213:-0.247525 214:-0.0410715 215:0.11066 216:-0.539893 217:0.0482758 218:0.0188885 219:0.0421332 220:-0.18507 221:-0.0299213 222:0.189011 223:-0.267525 224:0.0457261 225:-0.0466407 226:0.192086 227:0.22937 228:-0.819018 229:-0.481899 230:0.0559937 231:-0.209549 232:-0.439873 233:-0.496136 234:0.160834 235:0.190577 236:-0.143402 237:-0.495359 238:-0.319474 239:-0.384251 240:-0.257603 241:-0.452108 242:0.668566 243:-0.585723 244:-0.342067 245:-0.292308 246:0.108791 247:-0.452282 248:0.130767 249:-0.596444 250:-0.371542 251:-0.125572 252:-0.704172 253:0.308748 254:-0.225062 255:0.313495 256:-0.667137 257:-0.677326 258:0.330233 259:-0.374298 260:0.197369 261:-0.107382 262:0.136498 263:-0.251711 264:-0.407748 265:0.269177 266:-0.415111 267:0.752762 268:-0.507438 269:-0.402806 270:0.349162 271:-0.390312 272:0.267381 273:0.0903561 274:0.282776 275:-0.0485556 276:-0.195432 277:0.125125 278:0.114778 279:0.140161 280:-0.392473 281:-0.180593 282:-0.140101 283:-0.538224 284:-0.0237704 285:-0.159368 286:0.0654442 287:0.172065 288:-0.640487 289:-0.124693 290:0.0966923 291:0.00940836 292:-0.395543 293:-0.594714 294:0.111089 295:-0.584212 296:-0.0598696 297:-0.357382 298:-0.166399 299:0.295674 300:-0.469228 301:-0.341918 302:0.688213 303:-0.493294 304:0.0463576 305:-0.450915 306:0.0149573 307:-0.192574 308:0.0974613 309:-0.620557 310:-0.427431 311:0.228387 312:-0.573974 313:-0.252237 314:-0.0467749 315:-0.0168964 316:-0.637771 317:-0.919771 318:0.282953 319:-0.238745 320:0.0366156 321:-0.254485 322:-0.0506442 323:-0.375951 324:-0.451576 325:0.486651 326:-0.331431 327:0.537948 328:-0.895706 329:-0.217391 330:0.120776 331:-0.304377 332:-0.0682735 333:-0.120329 334:0.102092 335:-0.208825 336:-0.0256152 337:-0.177895 338:0.0733891 339:0.0692225 340:-0.834983 341:-0.828897 342:-0.201295 343:-0.364915 344:-0.0846633 345:-0.0749621 346:0.144564 347:-0.0796024 348:-0.353514 349:0.189581 350:-0.339897 351:0.194695 352:-0.1571 353:-0.558974 354:-0.176448 355:-0.36387 356:0.535548 357:-0.147809 358:0.0989178 359:-0.345647 360:-0.140813 361:0.378195 362:-0.201634 363:0.478447 364:-0.205426 365:-0.323136 366:-0.318327 367:0.516098 368:-0.291681 369:0.375115 370:0.57363 371:-0.235172 372:-0.887438 373:0.884103 374:-0.938761 375:0.911432 376:-0.934186 377:-0.0344828 378:-0.433794 379:0.159419 380:-0.0509431 381:0.154798 382:0.518699 383:0.248108 384:-0.91345 
0 3.37349173002794 0 0.2862701365388254 0 0 1:-0.347449 2:-0.895815 3:-0.344885 4:-0.921671 5:-0.990361 6:-0.0355344 7:0.193502 8:-0.10557 9:-0.33522 10:0.0190412 11:-0.64306 12:-0.896523 13:-0.174966 14:-0.412868 15:0.131708 16:-0.534091 17:-0.670558 18:-0.639987 19:-0.113994 20:-0.48073 21:-0.522724 22:-0.342655 23:-0.182156 24:0.240944 25:-0.583257 26:-0.568973 27:0.0661214 28:-0.472354 29:-0.508306 30:-1 31:-0.296319 32:-0.520443 33:0.279101 34:0.491991 35:0.149066 36:-0.887611 37:-0.424601 38:0.272087 39:-0.630331 40:-0.511592 41:-0.745008 42:-0.239716 43:0.262203 44:-0.366482 45:-0.93258 46:-1 47:0.315647 48:-0.457306 49:-0.771579 50:-0.128378 51:-0.389625 52:-0.497784 53:-0.967742 54:-0.504283 55:-0.00797774 56:-0.605426 57:-0.140752 58:0.161066 59:0.224489 60:-0.87018 61:-0.361114 62:-0.0882559 63:-0.209136 64:-0.748851 65:-0.972277 66:0.0864538 67:0.0505761 68:-0.0768803 69:-0.0613514 70:0.149366 71:0.28666 72:-0.901283 73:-0.735356 74:-0.47334 75:-0.0394123 76:-0.728643 77:-0.927711 78:-0.438659 79:0.00362201 80:-0.302295 81:-0.00015889 82:0.0738182 83:-0.728995 84:-0.0925724 85:0.0304002 86:-0.23904 87:0.219986 88:-0.965426 89:-0.776952 90:0.232044 91:-0.468701 92:0.497176 93:0.120357 94:0.278216 95:-0.423336 96:-0.408689 97:-0.269229 98:0.517014 99:-0.579396 100:-0.656925 101:-0.78 102:0.154593 103:-0.0544704 104:0.211179 105:-0.448944 106:-0.25816 107:0.411007 108:-0.801475 109:-0.225318 110:-0.0239174 111:-0.107925 112:-0.467474 113:-0.96 114:-0.355763 115:0.302404 116:-0.435627 117:0.0197029 118:0.156367 119:-0.000185441 120:-0.633413 121:-0.465036 122:0.146458 123:-0.400596 124:-0.647564 125:-0.606238 126:-0.0477149 127:-0.147736 128:0.123757 129:-0.565166 130:-0.427568 131:0.0992213 132:-0.356132 133:0.233965 134:-0.236965 135:0.170053 136:-0.721839 137:-0.409524 138:0.527699 139:-0.245236 140:0.679352 141:0.788508 142:0.812944 143:-0.00725044 144:-0.484808 145:-0.176649 146:0.382674 147:-0.102383 148:-0.626943 149:-0.989051 150:0.267871 151:0.0374339 152:0.380419 153:-0.116227 154:0.0722442 155:0.0476549 156:-0.774902 157:-0.335135 158:0.391305 159:-0.410188 160:-0.604198 161:-0.433898 162:0.230387 163:0.0323506 164:-0.0156844 165:-0.768494 166:-0.594357 167:-0.397515 168:-0.576593 169:0.901348 170:0.32393 171:0.611008 172:-0.590106 173:-0.724265 174:0.94561 175:-0.0891781 176:0.588024 177:1 178:0.974294 179:-0.936122 180:-0.964155 181:0.980243 183:0.980243 184:-0.557252 185:-1 186:1 187:-0.263175 188:0.77699 189:0.787306 190:0.885423 191:-1 192:-0.98311 193:-0.566116 194:0.126226 195:-0.30661 196:-0.918954 197:-0.876 198:0.393486 199:0.18714 200:-0.0852103 201:-0.363874 202:0.0200398 203:-0.143331 204:-0.852138 205:-0.153405 206:0.253102 207:-0.214663 208:-0.611446 209:-0.624811 210:0.11174 211:-0.167615 212:0.0650822 213:-0.425392 214:-0.226896 215:0.0186561 216:-0.268597 217:0.261422 218:0.0254588 219:0.167032 220:-0.866252 221:-0.467717 222:-0.730765 223:0.376569 224:-0.552653 225:0.048779 226:0.281823 227:0.36315 228:-0.710304 229:-0.441459 230:0.820536 231:-0.645836 232:-0.509494 233:-0.517774 234:-0.370944 235:0.353852 236:-0.345799 237:-0.761155 238:-0.645807 239:0.364771 240:-0.43232 241:0.733797 242:0.211233 243:0.263285 244:-0.80786 245:-0.976068 246:-1 247:-0.214129 248:-0.169868 249:0.231576 250:0.439983 251:0.422561 252:-0.474216 253:-0.0163094 254:0.050676 255:-0.0218032 256:-0.602257 257:-0.985465 258:-1 259:-1 260:0.747554 261:-0.248853 262:0.00105348 263:-0.292315 264:-0.583672 265:0.00814562 266:0.4291 267:-0.0263216 268:-0.900826 269:-0.807615 270:-0.0418935 271:0.047065 272:-0.14012 273:-0.0291325 274:0.182023 275:0.32964 276:-0.569428 277:-0.390819 278:0.487278 279:-0.404233 280:-0.825269 281:-0.90566 282:-0.468372 283:-0.20467 284:-0.152528 285:9.91416e-05 286:0.215999 287:0.02446 288:-0.971229 289:-0.675527 290:0.751137 291:-0.755541 292:-0.668524 293:-0.659325 294:0.405687 295:-0.412174 296:0.0856243 297:-0.528935 298:-0.358444 299:0.147234 300:-1 301:-0.343576 302:0.468322 303:-0.364204 304:-0.453642 305:-0.963394 306:0.14946 307:0.514379 308:-0.533276 309:-0.339533 310:-0.0916004 311:0.000300823 312:-0.578294 313:-0.853093 314:0.247379 315:-0.57887 316:-0.876161 317:-0.644699 318:-0.124737 319:0.0351974 320:-0.212632 321:-0.441868 322:-0.248347 323:-0.364816 324:-0.779762 325:-0.374824 326:-0.360823 327:0.116114 328:-0.705521 329:-0.881159 330:0.333434 331:-0.554284 332:0.524515 333:0.468138 334:0.60716 335:-0.443637 336:-0.572866 337:-0.230244 338:0.11701 339:0.00203625 340:-0.844884 341:-0.752852 342:-0.552962 343:-0.791348 344:0.552115 345:0.128712 346:0.327166 347:-0.084655 348:-0.705918 349:-0.259045 350:0.690068 351:-0.64014 352:-0.625378 353:-0.54188 354:0.0351707 355:-0.385641 356:0.579747 357:-0.725576 358:-0.552788 359:0.162682 360:-0.483267 361:0.138 362:-0.387515 363:0.452787 364:-0.717054 365:-0.6826 366:-0.129154 367:-0.601649 368:0.930144 369:0.266433 370:0.507563 371:-0.212192 372:-0.749073 373:0.650001 374:-0.835535 375:0.742767 376:-0.645338 377:-0.649655 378:-0.433794 379:-0.653008 380:0.875018 381:0.276627 382:0.604616 383:0.205437 384:-0.906617 
0 4.038923755542217 0 0.5179542702440392 0 0 1:-0.626695 2:-0.926283 3:-0.624539 4:-0.955614 5:-0.655422 6:-0.458097 7:-0.406242 8:0.083908 9:-0.617605 10:-0.259716 11:-0.62729 12:-0.909187 13:-0.285442 14:0.373444 15:-0.590706 16:-0.642045 17:-0.818418 18:-0.209512 19:0.302441 20:-0.350229 21:-0.743298 22:-0.575055 23:-0.0149173 24:-0.5393 25:-0.534738 26:-0.581034 27:0.109576 28:-0.772512 29:-0.651163 30:-0.657717 31:0.720011 32:-0.794646 33:0.695283 34:0.850407 35:-0.170251 36:-0.891255 37:-0.602771 38:0.365366 39:-0.852355 40:-0.737249 41:-0.705069 42:-0.359859 43:0.301842 44:-0.459982 45:-0.718753 46:-0.685967 47:0.430374 48:-0.808023 49:-0.744249 50:0.230339 51:-0.709761 52:-0.60709 53:-0.552419 54:-0.350676 55:-0.00229754 56:-0.461422 57:-0.509635 58:-0.223074 59:0.581135 60:-0.883452 61:0.0834671 62:0.239438 63:-0.145125 64:-0.678407 65:-0.691089 66:0.216723 67:-0.282387 68:0.255588 69:0.320109 70:0.466241 71:0.691025 72:-0.91078 73:-0.165725 74:-0.132172 75:0.110512 76:-0.98995 77:-0.656627 78:-0.525686 79:-0.784014 80:0.0816545 81:-0.15577 82:0.107412 83:0.313321 84:0.115451 85:-0.333179 86:-0.221311 87:-0.0494597 88:-0.965426 89:-1 90:-0.358495 91:-0.0920837 92:-0.149466 93:-0.106089 94:0.0638666 95:-0.207272 96:-0.553836 97:-0.526133 98:-0.158039 99:-0.135207 100:-0.989835 101:-0.688 102:-0.401391 103:-0.416141 104:-0.0062491 105:-0.249772 106:0.00507009 107:0.255263 108:-0.697179 109:-0.715903 110:-0.324174 111:-0.201578 112:-0.909228 113:-0.744615 114:-0.596551 115:-0.727038 116:-0.0695711 117:-0.303504 118:0.0164298 119:-0.174807 120:-0.538922 121:-0.762391 122:-0.309843 123:-0.268701 124:-0.593123 125:-0.649123 126:-0.536206 127:-0.181386 128:-0.205486 129:-0.522289 130:-0.376824 131:-0.0402753 132:-0.0511278 133:-0.126744 134:-0.198531 135:-0.0928539 136:-0.74023 137:-0.554286 138:0.140368 139:-0.911183 140:0.711497 141:-0.00746168 142:0.42394 143:-0.167609 144:-0.595975 145:0.530729 146:0.622901 147:0.370624 148:-0.806563 149:-0.766423 150:0.219248 151:-0.22099 152:0.465575 153:-0.107241 154:0.109105 155:0.633709 156:-0.195772 157:-0.14054 158:0.26087 159:-0.209115 160:-0.772114 161:-0.555932 162:-0.300283 163:-0.399729 164:0.0884731 165:-0.697435 166:-0.523993 167:0.0635128 168:-0.233512 169:0.851907 170:0.937125 171:0.391657 172:-0.600707 173:-0.496324 174:0.868802 175:-0.132593 176:0.559355 177:0.610237 178:0.721057 179:-0.819034 180:-0.955418 181:0.825075 183:0.825075 184:-0.938931 185:-1 186:0.759191 187:-0.0407298 188:0.485326 189:0.503026 190:0.720587 191:-0.976859 192:-0.983417 193:-0.621756 194:0.837947 195:-0.695128 196:-0.952941 197:-0.988 198:0.184038 199:0.136807 200:-0.238388 201:-0.72882 202:-0.4083 203:0.282517 204:-0.871773 205:-0.879131 206:0.524636 207:-0.782081 208:-0.783133 209:-0.815431 210:-0.211038 211:0.210961 212:-0.456035 213:-0.665509 214:-0.512574 215:-0.131771 216:-1 217:-0.0200879 218:-0.53895 219:0.293826 220:-0.642302 221:-0.930709 222:0.796571 223:0.273675 224:0.0280461 225:0.333835 226:0.516391 227:-0.280114 228:-0.688994 229:-0.562455 230:0.773774 231:-0.690824 232:-0.75 233:-0.731066 234:0.220203 235:-0.328884 236:0.463833 237:-0.32293 238:-0.128418 239:0.0299916 240:-0.998399 241:0.0244534 242:0.393152 243:-0.192648 244:-0.802038 245:-0.664957 246:0.0640406 247:0.377684 248:-0.351769 249:-0.0328636 250:0.221571 251:0.411216 252:-0.638443 253:0.38183 254:0.421475 255:-0.0832708 256:-0.937941 257:-0.668605 258:-0.548974 259:0.149207 260:-0.245886 261:-0.239423 262:0.0123561 263:0.540616 264:-0.301048 265:-0.532557 266:0.358991 267:-0.34572 268:-0.864463 269:-0.987976 270:-0.375404 271:1 272:-0.984033 273:0.00719453 274:0.242524 275:-0.227084 276:-0.939636 277:0.107959 278:-0.0738016 279:0.248665 280:-0.983871 281:-0.994609 282:0.329532 283:-0.262294 284:0.241531 285:0.220215 286:0.404961 287:0.258867 288:-0.705258 289:-0.416928 290:-0.344613 291:0.135814 292:-0.816156 293:-0.770925 294:0.113138 295:0.386126 296:-0.709929 297:0.17496 298:0.36575 299:-0.626186 300:-0.350858 301:-0.1862 302:0.477786 303:-0.287561 304:-0.857616 305:-0.990017 306:-0.450706 307:0.664021 308:-0.640561 309:-0.0776561 310:0.164282 311:0.111687 312:-0.858103 313:-0.84648 314:0.348467 315:-0.632442 316:-0.786378 317:-0.991404 318:0.669954 319:0.464604 320:-0.27616 321:-0.683543 322:-0.529039 323:-0.177441 324:-0.63582 325:-0.102421 326:-0.11305 327:0.109123 328:-0.800613 329:-0.666667 330:0.435985 331:-0.140747 332:0.210196 333:0.531962 334:0.658452 335:-0.376262 336:-0.794916 337:0.141672 338:-0.122585 339:0.426785 340:-0.841584 341:-0.790875 342:0.197131 343:-0.411742 344:0.317931 345:0.805318 346:0.861328 347:-0.0115228 348:-0.524017 349:-0.103715 350:0.196061 351:-0.270771 352:-0.78852 353:-0.733333 354:-0.205441 355:-0.589068 356:0.617873 357:-0.513903 358:-0.28358 359:-0.23797 360:-0.116952 361:0.164483 362:-0.0154976 363:0.249305 364:-0.984496 365:-0.824092 366:-0.453351 367:-1 368:0.94783 369:0.249166 370:0.497051 371:-0.319007 372:-0.894679 373:0.727683 374:-0.82714 375:0.777412 376:-0.798903 377:-0.950345 378:-0.433794 379:-1 380:1 381:0.535213 382:0.759582 383:0.249951 384:-0.927559 
0 4.17010448730955 0 0 0 0 1:-0.483679 2:-0.903374 3:-0.481339 4:-0.415144 5:-0.281928 6:-0.458503 7:0.126164 8:-0.356649 9:-0.628863 10:-0.313689 11:-0.42347 12:-0.787112 13:-0.0389896 14:0.336201 15:-0.37689 16:-0.798295 17:-0.346304 18:-0.399999 19:-0.42348 20:-0.135438 21:-0.665767 22:-0.510399 23:-0.0211192 24:-0.716136 25:-0.343941 26:-0.710814 27:0.353335 28:-0.191153 29:-0.358804 30:-0.71146 31:-0.053714 32:-0.432526 33:0.325996 34:0.50526 35:0.0327297 36:-0.753426 37:-0.585481 38:-0.268354 39:-0.332815 40:-0.931994 41:-0.49616 42:-0.455531 43:-0.256121 44:-0.111897 45:-0.606616 46:-0.514379 47:-0.175247 48:-0.47939 49:-0.466183 50:-0.35266 51:0.00377307 52:-0.134417 53:-0.778226 54:-0.49461 55:-0.0367127 56:-0.690184 57:-0.109617 58:0.221341 59:0.453554 60:-0.83315 61:-0.0451979 62:0.0465829 63:-0.083645 64:-0.316998 65:-0.334653 66:0.154326 67:-0.0145976 68:-0.0278566 69:-0.129833 70:0.0892891 71:0.737246 72:-0.751419 73:-0.260736 74:-0.959455 75:0.831118 76:-0.9933 77:-0.626506 78:-0.454748 79:-0.0325265 80:-0.288017 81:0.159499 82:0.197967 83:-0.0144731 84:0.0985197 85:-0.228488 86:-0.531505 87:0.276356 88:-0.702128 89:0.0334572 90:-0.616912 91:-0.234145 92:-0.265576 93:0.509284 94:0.5692 95:-0.031568 96:-0.543046 97:0.410493 98:-0.337312 99:0.700285 100:-0.229987 101:-0.744 102:0.155371 103:0.312183 104:-0.306705 105:-0.0856955 106:0.253181 107:-0.0723236 108:-0.183304 109:-0.0791146 110:-0.55626 111:0.500318 112:-0.252648 113:-0.975385 114:-0.338929 115:0.452109 116:-0.700393 117:-0.0293548 118:0.26192 119:-0.0673106 120:-0.43555 121:0.170562 122:-0.00941774 123:0.272511 124:-0.289398 125:0.0448343 126:-0.184636 127:-0.107611 128:-0.0468104 129:0.372097 130:0.499588 131:0.674604 132:-0.151766 133:0.632113 134:-0.123308 135:0.35705 136:-0.418391 137:0.0552381 138:0.469512 139:0.371309 140:0.0136511 141:0.176082 142:0.423143 143:0.13899 144:-0.489944 145:0.178624 146:0.346219 147:0.243579 148:-0.557858 149:-0.79562 150:0.318388 151:0.713484 152:-0.350977 153:0.301552 154:0.620289 155:0.0743416 156:-0.902617 157:0.205405 158:-0.826087 159:0.201072 160:-0.67916 161:0.0440678 162:0.0630586 163:-0.180124 164:0.0851342 165:-0.585203 166:-0.412 167:-0.243944 168:-0.501025 169:0.918106 170:0.599771 171:0.543202 172:-0.558304 173:-0.988971 174:0.719986 175:-0.101384 176:0.461496 177:0.756104 178:0.818873 179:-0.647358 180:-0.975473 181:0.941176 183:0.941176 184:-0.522901 185:-1 186:0.605171 187:0.0162925 188:0.367523 189:0.690336 190:0.824297 191:-0.935399 192:-0.982913 193:-0.478885 194:0.544049 195:-0.456133 196:-0.40915 197:-0.092 198:0.180196 199:0.82352 200:-0.683675 201:-0.613301 202:-0.255709 203:0.0670777 204:-0.841434 205:-0.535309 206:0.554323 207:-0.596425 208:-0.463855 209:-0.691377 210:0.486505 211:0.00689097 212:0.0901204 213:-0.583143 214:-0.409079 215:-0.268718 216:-0.84907 217:0.199377 218:-0.0192434 219:0.15314 220:-0.219285 221:-0.905512 222:0.0817992 223:-0.116249 224:-0.166273 225:0.210709 226:0.416934 227:0.190423 228:-0.820138 229:0.140082 230:0.0514217 231:0.16933 232:-0.468354 233:-0.919629 234:0.000416373 235:0.213821 236:-0.1984 237:-0.320286 238:-0.127583 239:-0.0976738 240:-0.354889 241:0.526109 242:-0.117796 243:0.346304 244:-0.164483 245:-0.733333 246:0.0748588 247:-0.263176 248:-0.184338 249:0.50252 250:0.653711 251:0.181383 252:-0.698023 253:-0.302276 254:0.0578818 255:-0.15993 256:-0.51481 257:-0.30814 258:-0.0499177 259:-0.40348 260:0.210013 261:-0.441563 262:-0.202865 263:-0.540578 264:-0.416459 265:0.728334 266:-0.319266 267:0.998148 268:-0.570248 269:-0.222445 270:-0.0184136 271:-0.217691 272:-0.122747 273:0.413409 274:0.555543 275:0.119503 276:0.426606 277:-0.0767838 278:0.315065 279:-0.107226 280:-0.55914 281:-0.296496 282:0.056075 283:-0.452962 284:-0.0516153 285:-0.185962 286:0.0415125 287:0.309886 288:-0.697217 289:-0.473762 290:0.410439 291:-0.407185 292:-0.445682 293:-0.823789 294:0.401365 295:-0.578752 296:0.085943 297:-0.241372 298:-0.0465665 299:-0.293594 300:-0.750236 301:-0.515308 302:0.212467 303:-0.30273 304:-0.0629139 305:-0.976705 306:-0.0429385 307:-0.140017 308:0.0155058 309:-0.362192 310:-0.129486 311:-0.211502 312:-0.583628 313:0.0977299 314:0.105116 315:0.125285 316:-0.151703 317:-0.286533 318:0.378735 319:-0.331105 320:0.291149 321:0.323687 322:0.479224 323:0.181554 324:-0.708944 325:-0.159523 326:-0.0138996 327:0.0216515 328:-0.107362 329:-0.550725 330:0.149089 331:-0.273573 332:-0.0422668 333:0.122253 334:0.323579 335:-0.342559 336:-0.52711 337:0.146256 338:0.0698666 339:0.285912 340:-0.871287 341:-0.825095 342:0.0478316 343:-0.489045 344:0.283027 345:0.713577 346:0.794316 347:0.0564057 348:-0.612471 349:0.268692 350:0.138698 351:-0.0440438 352:-0.691843 353:-0.634188 354:-0.267439 355:-0.384621 356:0.509192 357:-0.159311 358:0.0880806 359:0.025194 360:-0.391299 361:0.742576 362:-0.47186 363:0.841471 364:-0.294574 365:-0.869981 366:-0.00144226 367:0.227202 368:0.323786 369:0.760037 370:0.844946 371:-0.213273 372:-0.862164 373:0.79666 374:-0.709008 375:0.752834 376:-0.564899 377:-0.605517 378:-0.433794 379:0.0545871 380:0.146867 381:0.802983 382:0.898064 383:0.27376 384:-0.933915 
0 4.154990047571325 0 1.826579435115364 0 1.088667530349328 1:-0.53657 2:-0.885727 3:-0.534386 4:-0.362924 5:-0.219277 6:-0.277751 7:0.0627892 8:-0.128041 9:-0.638692 10:-0.327446 11:-0.522576 12:-0.84148 13:0.0305383 14:0.374236 15:-0.356089 16:-0.130682 17:-0.284047 18:-0.150328 19:-0.331193 20:-0.0498552 21:-0.659249 22:-0.516897 23:0.0269355 24:-0.705446 25:0.166666 26:-0.416362 27:0.437728 28:-0.0616114 29:-0.186047 30:-0.479681 31:0.0568624 32:-0.389286 33:0.165902 34:0.371513 35:0.308151 36:-0.491107 37:-0.45454 38:0.0642779 39:-0.489475 40:-0.919629 41:-0.502304 42:-0.426313 43:-0.293463 44:-0.0234982 45:-0.608026 46:-0.48042 47:0.2179 48:-0.688187 49:0.208281 50:-0.0565946 51:0.130187 52:-0.113737 53:-0.633065 54:-0.230614 55:-0.0816782 56:-0.454528 57:-0.0547261 58:0.254156 59:0.444734 60:-0.766554 61:-0.455868 62:-0.0357359 63:-0.322654 64:-0.522205 65:-0.659406 66:0.000620443 67:0.0344403 68:-0.247259 69:-0.378096 70:-0.139484 71:0.3576 72:-0.821165 73:-0.573571 74:-0.519793 75:0.141912 76:-0.98995 77:-0.611446 78:-0.78429 79:-0.0656382 80:-0.497389 81:-0.136819 82:-0.0375992 83:0.0771419 84:-0.118791 85:-0.00211046 86:-0.227575 87:0.187855 88:-0.81117 89:0.130112 90:-0.584632 91:-0.457728 92:0.00457657 93:-0.351743 94:-0.10965 95:0.587352 96:0.00137495 97:0.0473995 98:-0.354523 99:0.457016 100:-0.878018 101:-0.72 102:-0.108972 103:0.156654 104:-0.306283 105:-0.35649 106:-0.11109 107:-0.0531618 108:-0.0753578 109:-0.357491 110:-0.642933 111:0.369058 112:-0.0347958 113:-0.969231 114:-0.75566 115:0.322049 116:-0.908277 117:-0.133327 118:0.0895831 119:-0.0244625 120:-0.409199 121:-0.559746 122:-0.448548 123:0.0210474 124:-0.630372 125:0.11501 126:-0.635827 127:-0.473921 128:0.104726 129:-0.258741 130:0.0523025 131:0.0641104 132:-0.606145 133:-0.0737327 134:-0.223552 135:-0.0414066 136:-0.694253 137:0.139048 138:-0.0960058 139:0.00937413 140:0.0224649 141:0.140141 142:0.310295 143:0.296891 144:-0.53839 145:-0.0928166 146:-0.316705 147:0.455864 148:-0.516408 149:-0.762774 150:-0.449892 151:0.24891 152:-0.457555 153:-0.214097 154:-0.0246734 155:0.481068 156:-0.321769 157:-0.0621623 158:-0.826087 159:-0.0643431 160:-0.154423 161:0.0949153 162:-0.229864 163:-0.11137 164:-0.170569 165:-0.670212 166:-0.492678 167:-0.212845 168:-0.491822 169:0.895528 170:0.54285 171:0.542061 172:-0.431095 173:0.172794 174:0.600484 175:-0.121516 176:0.409031 177:0.747463 178:0.813937 179:-0.60493 180:-0.972091 181:0.721997 183:0.721997 184:-0.492366 185:-1 186:0.277446 187:-0.0421667 188:0.220483 189:0.315328 190:0.611474 191:-0.905432 192:-0.981465 193:-0.578094 194:0.698891 195:-0.597733 196:-0.607843 197:-0.388 198:0.212883 199:0.806986 200:-0.625197 201:-0.682136 202:-0.34471 203:0.103436 204:-0.873493 205:-0.476349 206:0.502052 207:-0.534456 208:-0.105422 209:-0.66112 210:0.0484547 211:0.0785838 212:-0.154359 213:-0.498655 214:-0.310994 215:-0.00315682 216:-0.849059 217:0.485013 218:-0.25278 219:0.44774 220:-0.489891 221:-0.886614 222:-0.120704 223:-0.254372 224:-0.0111102 225:-0.00614701 226:0.228571 227:0.0230035 228:-0.672525 229:0.056804 230:0.586917 231:-0.203739 232:-0.446203 233:-0.187017 234:-0.266753 235:0.117624 236:-0.0851576 237:-0.419075 238:-0.235141 239:0.132783 240:-0.488376 241:0.0201595 242:-0.0542863 243:0.0586223 244:-0.0975255 245:-0.705983 246:-0.27003 247:-0.421064 248:0.0160204 249:0.608446 250:0.728236 251:0.270401 252:-0.858161 253:-0.443061 254:0.487906 255:-0.512128 256:-0.923836 257:-0.758721 258:-0.206651 259:-0.416153 260:0.178369 261:-0.593059 262:-0.37954 263:-0.19013 264:-0.859101 265:0.228861 266:0.169261 267:0.309344 268:-0.828099 269:-0.458918 270:0.0295105 271:-0.262511 272:-0.0529962 273:0.109217 274:0.30326 275:0.285727 276:-0.23118 277:-0.439467 278:0.0677538 279:-0.169128 280:-0.16129 281:-0.296496 282:-0.18265 283:-0.593581 284:0.136569 285:-0.453076 286:-0.242647 287:-0.126623 288:-0.519492 289:-0.461372 290:0.196151 291:-0.255274 292:-0.401114 293:-0.39207 294:0.288032 295:-0.554748 296:-0.0290409 297:-0.340014 298:-0.147494 299:-0.455415 300:-0.47086 301:-0.638611 302:0.400562 303:-0.478326 304:0.0298013 305:-0.97005 306:-0.132627 307:-0.0345546 308:-0.245221 309:-0.586371 310:-0.379756 311:-0.328789 312:-0.520882 313:0.0362079 314:-0.11494 315:0.211043 316:-0.625387 317:-0.630372 318:0.228899 319:-0.136837 320:-0.15797 321:-0.116439 322:0.0884629 323:0.0321466 324:-0.460236 325:-0.242385 326:0.259953 327:-0.181788 328:-0.904908 329:-0.171014 330:0.485778 331:-0.296503 332:0.0637926 333:-0.0226618 334:0.193319 335:-0.0793759 336:-0.663555 337:-0.0376665 338:0.248379 339:0.0309795 340:-0.60396 341:-0.596958 342:-0.102701 343:-0.378331 344:0.005323 345:-0.140852 346:0.0811147 347:0.164014 348:-0.251257 349:0.173179 350:0.257705 351:-0.163163 352:-0.65861 353:-0.596581 354:-0.151082 355:-0.364594 356:0.535283 357:-0.322391 358:-0.0747328 359:0.0227032 360:-0.438106 361:0.410377 362:-0.573956 363:0.71502 364:-0.209302 365:-0.449331 366:-0.0827634 367:0.233631 368:0.324391 369:0.787028 370:0.862872 371:-0.302656 372:-0.886286 373:0.55108 374:-0.642455 375:0.596767 376:-0.806216 377:-0.591724 378:-0.433794 379:0.128205 380:-0.00815214 381:0.343131 382:0.637903 383:0.231241 384:-0.934064 
0 2.626490048498525 0 3.976419717534323 0 1.252248024192095 1:-0.816656 2:-0.864521 3:-0.815054 4:-0.801567 5:-1 6:-0.450328 7:-0.323453 8:0.0349575 9:-0.858898 10:-0.632023 11:-0.792711 12:-0.939278 13:-0.146502 14:0.211518 15:-0.355431 16:-0.616477 17:-0.953307 18:-0.147994 19:0.596966 20:-0.429874 21:-0.547368 22:-0.25622 23:-0.190409 24:-0.775002 25:-0.131891 26:-0.106023 27:-0.0386272 28:-0.933649 29:-0.66113 30:0.0239127 31:-0.0900701 32:0.031971 33:-0.278353 34:-0.029115 35:-0.0367583 36:-0.32662 37:-0.0348966 38:0.0057825 39:-0.0950574 40:-0.601236 41:-0.745008 42:-0.210764 43:0.581881 44:-0.483119 45:-0.280243 46:-0.0611732 47:0.393836 48:-0.396876 49:0.366704 50:0.0958172 51:0.0821396 52:-0.935007 53:-0.625 54:0.481249 55:-0.65347 56:0.507856 57:-0.210614 58:0.110654 59:-0.28961 60:-0.285731 61:-0.505523 62:-0.443101 63:-0.0271747 64:-0.650842 65:-0.877228 66:-0.246248 67:0.454015 68:-0.605399 69:0.234733 70:0.453967 71:0.152738 72:-0.832559 73:0.192041 74:0.0531016 75:0.232744 76:-0.708543 77:-0.888554 78:-0.0163914 79:0.470835 80:-0.246774 81:0.269459 82:0.346841 83:0.0564401 84:-0.390717 85:0.00811269 86:-0.823803 87:0.680134 88:-0.707447 89:-0.684015 90:-0.680269 91:-0.549084 92:-0.162437 93:1 94:0.934513 95:0.22839 96:-0.547887 97:-0.417721 98:-0.235241 99:0.013987 100:-0.936468 101:-0.796 102:0.191662 103:0.211224 104:0.045843 105:-0.225666 106:-0.00970273 107:-0.584766 108:0.185363 109:-0.22445 110:0.570755 111:-0.662257 112:-0.742814 113:-0.806154 114:0.165488 115:0.111438 116:0.113811 117:-0.65154 118:-0.535397 119:0.0217998 120:-0.562178 121:-0.618787 122:0.000296043 123:-0.40819 124:-0.982808 125:-0.844055 126:-0.38547 127:0.426199 128:-0.458471 129:-0.115475 130:0.179927 131:0.175904 132:-0.87436 133:-0.472585 134:0.260497 135:-0.62406 136:-0.8 137:-0.977143 138:0.353517 139:0.130412 140:0.261636 141:-0.600142 142:-0.411333 143:-0.322532 144:-0.558627 145:-0.673303 146:0.382293 147:-0.550592 148:-0.993092 149:-0.576642 150:-0.408308 151:-0.0245258 152:-0.218436 153:-0.627962 154:-0.454576 155:0.0066375 156:-0.797853 157:0.183784 158:-0.913043 159:0.184987 160:-0.928036 161:-0.627119 162:-0.161806 163:-0.765555 164:0.433256 165:-0.339392 166:-0.0843342 167:-0.330263 168:-0.693697 169:0.54687 170:-0.147148 171:0.468896 172:-0.80212 173:-0.580882 174:-0.291735 175:-0.348134 176:-0.0661498 177:0.211043 178:0.440002 179:-0.060001 180:-0.795723 181:0.307401 183:0.307401 184:-0.740458 185:-1 186:-0.463169 187:-0.175851 188:-0.232242 189:-0.372151 190:0.117245 191:-0.767411 192:-0.965663 193:-0.73386 194:0.672691 195:-0.686837 196:-0.796078 197:-0.696 198:0.197569 199:0.176478 200:-0.253282 201:-0.753652 202:-0.445209 203:-0.0891121 204:-0.945452 205:-0.466885 206:0.495424 207:-0.525436 208:-0.774096 209:-0.948563 210:0.0811014 211:-0.0645095 212:-0.114371 213:-0.255213 214:-0.0482416 215:0.284783 216:-0.916267 217:-0.209278 218:0.296565 219:-0.258731 220:-0.682737 221:-0.858268 222:-0.127982 223:0.789589 224:-0.591937 225:-0.222525 226:0.0338962 227:0.298924 228:-0.8651 229:-0.536287 230:0.171476 231:-0.312033 232:-0.667722 233:-0.604328 234:-0.296831 235:0.760527 236:-0.645852 237:-0.200308 238:0.00270737 239:-0.352719 240:-0.616163 241:-0.422999 242:0.0338525 243:-0.211771 244:-0.752547 245:-0.675214 246:-0.0833677 247:0.0356048 248:-0.0953349 249:-0.152621 250:0.106282 251:-0.214803 252:-0.592949 253:-0.0259181 254:0.244617 255:-0.155521 256:-0.80536 257:-0.665698 258:0.112565 259:0.774943 260:-0.660388 261:0.315834 262:0.512579 263:-0.181122 264:-1 265:-0.337544 266:0.450389 267:-0.277574 268:-0.742149 269:-0.827655 270:0.288054 271:0.449925 272:-0.323574 273:-0.159281 274:0.0685802 275:0.315642 276:-0.71279 277:0.278384 278:0.413034 279:0.0442546 280:-0.725806 281:-0.681941 282:0.142886 283:0.626906 284:-0.646328 285:0.120213 286:0.344154 287:0.472901 288:-0.753526 289:-0.0715059 290:-0.169574 291:0.220344 292:-0.852368 293:-0.85022 294:0.234827 295:0.0059372 296:-0.312841 297:0.252913 298:0.422289 299:-0.229363 300:-0.224808 301:-0.376575 302:0.483204 303:-0.390243 304:-0.745033 305:-0.717138 306:-0.097934 307:0.240971 308:-0.178185 309:-0.32773 310:-0.0903295 311:-0.0242789 312:-0.607847 313:-0.108974 314:0.549525 315:-0.264635 316:-0.798762 317:-0.659026 318:0.285558 319:0.759473 320:-0.681714 321:-0.226584 322:-0.00758425 323:0.551251 324:-0.471321 325:-0.194441 326:0.16833 327:-0.103416 328:-0.773006 329:-0.971014 330:0.065588 331:0.136816 332:-0.138667 333:0.0624113 334:0.271773 335:-0.225584 336:-0.594889 337:-0.626299 338:0.208742 339:-0.328094 340:-0.735974 341:-0.551331 342:-0.0236983 343:0.221911 344:-0.344559 345:-0.290028 346:-0.0613007 347:-0.550469 348:-0.359636 349:0.0448627 350:0.0821916 351:-0.127127 352:-0.945619 353:-0.91453 354:-0.203343 355:-0.825138 356:0.831215 357:0.550011 358:0.687384 359:-0.163016 360:-0.825674 361:0.322378 362:-0.295057 363:0.501963 364:-0.697674 365:-0.74761 366:-0.192343 367:0.0824584 368:0.0790261 369:0.157742 370:0.408612 371:-0.259742 372:-0.621674 373:0.233838 374:-0.310617 375:0.272228 376:-0.619744 377:-0.806897 378:-0.433794 379:-0.0662299 380:-0.0438587 381:-0.32388 382:0.162625 383:0.231132 384:-0.893795 
